-9.820137698244735602e+240,5.326449344291527905e+240,9.554169336263332984e+240,-7.399388907522559710e+240,-7.389348975963982889e+240,1.936794178012154214e+240,5.685083314847469757e+240
-2.302419700786009131e+232,1.248834006444496981e+232,2.240061023623948943e+232,-1.734853351140118196e+232,-1.732499398789852368e+232,4.540988333208298631e+231,1.332918969868850346e+232
-7.542635100267745716e+237,4.091130391301215604e+237,7.338350561263781599e+237,-5.683310378059867755e+237,-5.675598924055389641e+237,1.487609664748376087e+237,4.366589377476819538e+237
-2.302419700786009131e+232,1.248834006444496981e+232,2.240061023623948943e+232,-1.734853351140118196e+232,-1.732499398789852368e+232,4.540988333208298631e+231,1.332918969868850346e+232
-2.302419700786009131e+232,1.248834006444496981e+232,2.240061023623948943e+232,-1.734853351140118196e+232,-1.732499398789852368e+232,4.540988333208298631e+231,1.332918969868850346e+232
-2.302419700786009131e+232,1.248834006444496981e+232,2.240061023623948943e+232,-1.734853351140118196e+232,-1.732499398789852368e+232,4.540988333208298631e+231,1.332918969868850346e+232
-2.302419700786009131e+232,1.248834006444496981e+232,2.240061023623948943e+232,-1.734853351140118196e+232,-1.732499398789852368e+232,4.540988333208298631e+231,1.332918969868850346e+232
-2.302419700786009131e+232,1.248834006444496981e+232,2.240061023623948943e+232,-1.734853351140118196e+232,-1.732499398789852368e+232,4.540988333208298631e+231,1.332918969868850346e+232
-2.302419700786009131e+232,1.248834006444496981e+232,2.240061023623948943e+232,-1.734853351140118196e+232,-1.732499398789852368e+232,4.540988333208298631e+231,1.332918969868850346e+232
2.303303605943598258e+232,-1.249313437201145511e+232,-2.240920989116522054e+232,1.735519366039231102e+232,1.733164510000283702e+232,-4.542731630925438013e+231,-1.333430681070641155e+232
2.303303605943598258e+232,-1.249313437201145511e+232,-2.240920989116522054e+232,1.735519366039231102e+232,1.733164510000283702e+232,-4.542731630925438013e+231,-1.333430681070641155e+232
8.270549418718005031e+231,-4.485951611058949234e+231,-8.046550066654380633e+231,6.231787527675672464e+231,6.223331867208708956e+231,-1.631173864903958287e+231,-4.787994216555595771e+231
-3.565511091346912662e+232,1.933935632894804772e+232,3.468942878788992850e+232,-2.686581800546083965e+232,-2.682936486353146353e+232,7.032142863529091563e+231,2.064149020837359836e+232
-1.441531381522807116e+237,7.818875985069220705e+236,1.402488981907890570e+237,-1.086181440835804812e+237,-1.084707645166672182e+237,2.843085986110182305e+236,8.345326976819452980e+236
-9.858772551494109405e+240,5.347404914883344969e+240,9.591757804120783432e+240,-7.428499935632508342e+240,-7.418420504497213822e+240,1.944414005874152538e+240,5.707449840280087196e+240
-3.565511091346912662e+232,1.933935632894804772e+232,3.468942878788992850e+232,-2.686581800546083965e+232,-2.682936486353146353e+232,7.032142863529091563e+231,2.064149020837359836e+232
-9.033555906995939627e+239,4.899806847519045975e+239,8.788891306429242949e+239,-6.806706324052667109e+239,-6.797470579522038405e+239,1.781659180863045869e+239,5.229714647462014121e+239
-7.543349342791625970e+237,4.091517796930331264e+237,7.339045459261141585e+237,-5.683848553630402055e+237,-5.676136369397257766e+237,1.487750532504455228e+237,4.367002867427779719e+237
-3.565511091346912662e+232,1.933935632894804772e+232,3.468942878788992850e+232,-2.686581800546083965e+232,-2.682936486353146353e+232,7.032142863529091563e+231,2.064149020837359836e+232
4.827549703754330589e+232,-2.618466231761016724e+232,-4.696800469217534685e+232,3.637516990709630016e+232,3.632581391015402759e+232,-9.521221033353663873e+231,-2.794769596491111185e+232
4.827549703754330589e+232,-2.618466231761016724e+232,-4.696800469217534685e+232,3.637516990709630016e+232,3.632581391015402759e+232,-9.521221033353663873e+231,-2.794769596491111185e+232
4.827549703754330589e+232,-2.618466231761016724e+232,-4.696800469217534685e+232,3.637516990709630016e+232,3.632581391015402759e+232,-9.521221033353663873e+231,-2.794769596491111185e+232
4.827549703754330589e+232,-2.618466231761016724e+232,-4.696800469217534685e+232,3.637516990709630016e+232,3.632581391015402759e+232,-9.521221033353663873e+231,-2.794769596491111185e+232
4.827549703754330589e+232,-2.618466231761016724e+232,-4.696800469217534685e+232,3.637516990709630016e+232,3.632581391015402759e+232,-9.521221033353663873e+231,-2.794769596491111185e+232
4.827549703754330589e+232,-2.618466231761016724e+232,-4.696800469217534685e+232,3.637516990709630016e+232,3.632581391015402759e+232,-9.521221033353663873e+231,-2.794769596491111185e+232
4.827549703754330589e+232,-2.618466231761016724e+232,-4.696800469217534685e+232,3.637516990709630016e+232,3.632581391015402759e+232,-9.521221033353663873e+231,-2.794769596491111185e+232
-1.441514906575231104e+237,7.818786624841890640e+236,1.402472953167379825e+237,-1.086169027105153430e+237,-1.084695248279710087e+237,2.843053493100890431e+236,8.345231599898623981e+236
4.827549703754330589e+232,-2.618466231761016724e+232,-4.696800469217534685e+232,3.637516990709630016e+232,3.632581391015402759e+232,-9.521221033353663873e+231,-2.794769596491111185e+232
4.827549703754330589e+232,-2.618466231761016724e+232,-4.696800469217534685e+232,3.637516990709630016e+232,3.632581391015402759e+232,-9.521221033353663873e+231,-2.794769596491111185e+232
4.827549703754330589e+232,-2.618466231761016724e+232,-4.696800469217534685e+232,3.637516990709630016e+232,3.632581391015402759e+232,-9.521221033353663873e+231,-2.794769596491111185e+232
-9.172953522870118947e+237,4.975416208862516000e+237,8.924513480787507003e+237,-6.911741223188427339e+237,-6.902362961051060337e+237,1.809152124358350523e+237,5.310414845818458768e+237
-1.840347338741422238e+233,9.982056440471367920e+232,1.790503417790135752e+233,-1.386685818744253117e+233,-1.384804280837920390e+233,3.629657873159618304e+232,1.065415605208145105e+233
4.068686569507664770e+235,-2.206858353336094250e+235,-3.958490364977778786e+235,3.065720175795702715e+235,3.061560424074695733e+235,-8.024539677673993855e+234,-2.355447839981559813e+235
-9.218877309683057048e+237,5.000325301960149197e+237,8.969193468915544053e+237,-6.946344399760566211e+237,-6.936919185972348300e+237,1.818209525146881669e+237,5.337001087497280364e+237
-2.527995513317592705e+232,1.371186480072404104e+232,2.459527346532761341e+232,-1.904822776859062120e+232,-1.902238199869031405e+232,4.985884254056361104e+231,1.463509530557802066e+232
-2.527995513317592705e+232,1.371186480072404104e+232,2.459527346532761341e+232,-1.904822776859062120e+232,-1.902238199869031405e+232,4.985884254056361104e+231,1.463509530557802066e+232
-1.476248664071797755e+232,8.007182760952507253e+231,1.436265982451083991e+232,-1.112340613271663994e+232,-1.110831323279413083e+232,2.911557766021479726e+231,8.546312594150817153e+231
-9.217981145870715747e+237,4.999839222100854062e+237,8.968321576781314697e+237,-6.945669148071016025e+237,-6.936244850504506047e+237,1.818032777640113332e+237,5.336482279503598079e+237
-1.735172653816842577e+233,9.411588236494214404e+232,1.688177281381968099e+233,-1.307437602385513263e+233,-1.305663593178958530e+233,3.422225224356130580e+232,1.004527778093873194e+233
8.708838572080790011e+233,-4.723679944945412028e+233,-8.472968607631091047e+233,6.562034617821800231e+233,6.553130858434263146e+233,-1.717616225144039211e+233,-5.041728983768358810e+233
3.795771506022631215e+238,-2.058829037901238744e+238,-3.692966926195520950e+238,2.860081033504664943e+238,2.856200305219245643e+238,-7.486278074535672787e+237,-2.197451595787690916e+238
-1.476248664071797755e+232,8.007182760952507253e+231,1.436265982451083991e+232,-1.112340613271663994e+232,-1.110831323279413083e+232,2.911557766021479726e+231,8.546312594150817153e+231
-1.476248664071797755e+232,8.007182760952507253e+231,1.436265982451083991e+232,-1.112340613271663994e+232,-1.110831323279413083e+232,2.911557766021479726e+231,8.546312594150817153e+231
5.145562186236145012e+236,-2.790956417829852861e+236,-5.006199909636788608e+236,3.877136648563339446e+236,3.871875918646164275e+236,-1.014842682570834009e+236,-2.978873680733623351e+236
-1.476248664071797755e+232,8.007182760952507253e+231,1.436265982451083991e+232,-1.112340613271663994e+232,-1.110831323279413083e+232,2.911557766021479726e+231,8.546312594150817153e+231
-4.961381849688671161e+238,2.691056878436426105e+238,4.827007908683577346e+238,-3.738358356332595748e+238,-3.733285929067600517e+238,9.785173870922175037e+237,2.872247827776767434e+238
-1.476248664071797755e+232,8.007182760952507253e+231,1.436265982451083991e+232,-1.112340613271663994e+232,-1.110831323279413083e+232,2.911557766021479726e+231,8.546312594150817153e+231
-1.441577944558909528e+237,7.819128543292676208e+236,1.402534283831896492e+237,-1.086216525681193261e+237,-1.084742682406853050e+237,2.843177820888884005e+236,8.345596539984215764e+236
-1.476248664071797755e+232,8.007182760952507253e+231,1.436265982451083991e+232,-1.112340613271663994e+232,-1.110831323279413083e+232,2.911557766021479726e+231,8.546312594150817153e+231
2.070778873032184459e+240,-1.123191864448756325e+240,-2.014693950212363329e+240,1.560313988854267272e+240,1.558196861905842712e+240,-4.084130577879959018e+239,-1.198817244886307002e+240
-1.476248664071797755e+232,8.007182760952507253e+231,1.436265982451083991e+232,-1.112340613271663994e+232,-1.110831323279413083e+232,2.911557766021479726e+231,8.546312594150817153e+231
-1.476248664071797755e+232,8.007182760952507253e+231,1.436265982451083991e+232,-1.112340613271663994e+232,-1.110831323279413083e+232,2.911557766021479726e+231,8.546312594150817153e+231
2.981965616106830454e+240,-1.617420171557381991e+240,-2.901202134496735417e+240,2.246885326911292403e+240,2.243836619080945443e+240,-5.881234888733226735e+239,-1.726322327700959136e+240
3.795771506022631215e+238,-2.058829037901238744e+238,-3.692966926195520950e+238,2.860081033504664943e+238,2.856200305219245643e+238,-7.486278074535672787e+237,-2.197451595787690916e+238
3.795771506022631215e+238,-2.058829037901238744e+238,-3.692966926195520950e+238,2.860081033504664943e+238,2.856200305219245643e+238,-7.486278074535672787e+237,-2.197451595787690916e+238
6.745566037517400053e+232,-3.658799591357265831e+232,-6.562869296925182013e+232,5.082725726125829637e+232,5.075829181146456878e+232,-1.330406296766635958e+232,-3.905149409050178630e+232
6.745566037517400053e+232,-3.658799591357265831e+232,-6.562869296925182013e+232,5.082725726125829637e+232,5.075829181146456878e+232,-1.330406296766635958e+232,-3.905149409050178630e+232
6.745566037517400053e+232,-3.658799591357265831e+232,-6.562869296925182013e+232,5.082725726125829637e+232,5.075829181146456878e+232,-1.330406296766635958e+232,-3.905149409050178630e+232
6.745566037517400053e+232,-3.658799591357265831e+232,-6.562869296925182013e+232,5.082725726125829637e+232,5.075829181146456878e+232,-1.330406296766635958e+232,-3.905149409050178630e+232
6.745566037517400053e+232,-3.658799591357265831e+232,-6.562869296925182013e+232,5.082725726125829637e+232,5.075829181146456878e+232,-1.330406296766635958e+232,-3.905149409050178630e+232
6.745566037517400053e+232,-3.658799591357265831e+232,-6.562869296925182013e+232,5.082725726125829637e+232,5.075829181146456878e+232,-1.330406296766635958e+232,-3.905149409050178630e+232
6.745566037517400053e+232,-3.658799591357265831e+232,-6.562869296925182013e+232,5.082725726125829637e+232,5.075829181146456878e+232,-1.330406296766635958e+232,-3.905149409050178630e+232
6.745566037517400053e+232,-3.658799591357265831e+232,-6.562869296925182013e+232,5.082725726125829637e+232,5.075829181146456878e+232,-1.330406296766635958e+232,-3.905149409050178630e+232
6.745566037517400053e+232,-3.658799591357265831e+232,-6.562869296925182013e+232,5.082725726125829637e+232,5.075829181146456878e+232,-1.330406296766635958e+232,-3.905149409050178630e+232
6.745566037517400053e+232,-3.658799591357265831e+232,-6.562869296925182013e+232,5.082725726125829637e+232,5.075829181146456878e+232,-1.330406296766635958e+232,-3.905149409050178630e+232
6.745566037517400053e+232,-3.658799591357265831e+232,-6.562869296925182013e+232,5.082725726125829637e+232,5.075829181146456878e+232,-1.330406296766635958e+232,-3.905149409050178630e+232
6.745566037517400053e+232,-3.658799591357265831e+232,-6.562869296925182013e+232,5.082725726125829637e+232,5.075829181146456878e+232,-1.330406296766635958e+232,-3.905149409050178630e+232
6.745566037517400053e+232,-3.658799591357265831e+232,-6.562869296925182013e+232,5.082725726125829637e+232,5.075829181146456878e+232,-1.330406296766635958e+232,-3.905149409050178630e+232
6.745566037517400053e+232,-3.658799591357265831e+232,-6.562869296925182013e+232,5.082725726125829637e+232,5.075829181146456878e+232,-1.330406296766635958e+232,-3.905149409050178630e+232
6.745566037517400053e+232,-3.658799591357265831e+232,-6.562869296925182013e+232,5.082725726125829637e+232,5.075829181146456878e+232,-1.330406296766635958e+232,-3.905149409050178630e+232
6.745566037517400053e+232,-3.658799591357265831e+232,-6.562869296925182013e+232,5.082725726125829637e+232,5.075829181146456878e+232,-1.330406296766635958e+232,-3.905149409050178630e+232
6.745566037517400053e+232,-3.658799591357265831e+232,-6.562869296925182013e+232,5.082725726125829637e+232,5.075829181146456878e+232,-1.330406296766635958e+232,-3.905149409050178630e+232
6.745566037517400053e+232,-3.658799591357265831e+232,-6.562869296925182013e+232,5.082725726125829637e+232,5.075829181146456878e+232,-1.330406296766635958e+232,-3.905149409050178630e+232
6.745566037517400053e+232,-3.658799591357265831e+232,-6.562869296925182013e+232,5.082725726125829637e+232,5.075829181146456878e+232,-1.330406296766635958e+232,-3.905149409050178630e+232
6.745566037517400053e+232,-3.658799591357265831e+232,-6.562869296925182013e+232,5.082725726125829637e+232,5.075829181146456878e+232,-1.330406296766635958e+232,-3.905149409050178630e+232
6.745566037517400053e+232,-3.658799591357265831e+232,-6.562869296925182013e+232,5.082725726125829637e+232,5.075829181146456878e+232,-1.330406296766635958e+232,-3.905149409050178630e+232
6.745566037517400053e+232,-3.658799591357265831e+232,-6.562869296925182013e+232,5.082725726125829637e+232,5.075829181146456878e+232,-1.330406296766635958e+232,-3.905149409050178630e+232
6.745566037517400053e+232,-3.658799591357265831e+232,-6.562869296925182013e+232,5.082725726125829637e+232,5.075829181146456878e+232,-1.330406296766635958e+232,-3.905149409050178630e+232
-7.542530833554000793e+237,4.091073836965001066e+237,7.338249118507084951e+237,-5.683231813991947126e+237,-5.675520466587875841e+237,1.487589100559731447e+237,4.366529015293231524e+237
6.745566037517400053e+232,-3.658799591357265831e+232,-6.562869296925182013e+232,5.082725726125829637e+232,5.075829181146456878e+232,-1.330406296766635958e+232,-3.905149409050178630e+232
6.745566037517400053e+232,-3.658799591357265831e+232,-6.562869296925182013e+232,5.082725726125829637e+232,5.075829181146456878e+232,-1.330406296766635958e+232,-3.905149409050178630e+232
6.745566037517400053e+232,-3.658799591357265831e+232,-6.562869296925182013e+232,5.082725726125829637e+232,5.075829181146456878e+232,-1.330406296766635958e+232,-3.905149409050178630e+232
6.745566037517400053e+232,-3.658799591357265831e+232,-6.562869296925182013e+232,5.082725726125829637e+232,5.075829181146456878e+232,-1.330406296766635958e+232,-3.905149409050178630e+232
6.745566037517400053e+232,-3.658799591357265831e+232,-6.562869296925182013e+232,5.082725726125829637e+232,5.075829181146456878e+232,-1.330406296766635958e+232,-3.905149409050178630e+232
-1.702478775122731634e+233,9.234256416835802311e+232,1.656368882874632433e+233,-1.282803047271654463e+233,-1.281062463696642540e+233,3.357744138797916282e+232,9.856006072157364792e+232
-1.702478775122731634e+233,9.234256416835802311e+232,1.656368882874632433e+233,-1.282803047271654463e+233,-1.281062463696642540e+233,3.357744138797916282e+232,9.856006072157364792e+232
-1.702478775122731634e+233,9.234256416835802311e+232,1.656368882874632433e+233,-1.282803047271654463e+233,-1.281062463696642540e+233,3.357744138797916282e+232,9.856006072157364792e+232
-1.702478775122731634e+233,9.234256416835802311e+232,1.656368882874632433e+233,-1.282803047271654463e+233,-1.281062463696642540e+233,3.357744138797916282e+232,9.856006072157364792e+232
-1.702478775122731634e+233,9.234256416835802311e+232,1.656368882874632433e+233,-1.282803047271654463e+233,-1.281062463696642540e+233,3.357744138797916282e+232,9.856006072157364792e+232
-1.702478775122731634e+233,9.234256416835802311e+232,1.656368882874632433e+233,-1.282803047271654463e+233,-1.281062463696642540e+233,3.357744138797916282e+232,9.856006072157364792e+232
-1.702478775122731634e+233,9.234256416835802311e+232,1.656368882874632433e+233,-1.282803047271654463e+233,-1.281062463696642540e+233,3.357744138797916282e+232,9.856006072157364792e+232
-9.760139976262872729e+235,5.293906539218042801e+235,9.495796591071925065e+235,-7.354181142402433803e+235,-7.344202551432108204e+235,1.924961020250098846e+235,5.650349377437532298e+235
-1.702478775122731634e+233,9.234256416835802311e+232,1.656368882874632433e+233,-1.282803047271654463e+233,-1.281062463696642540e+233,3.357744138797916282e+232,9.856006072157364792e+232
-1.702478775122731634e+233,9.234256416835802311e+232,1.656368882874632433e+233,-1.282803047271654463e+233,-1.281062463696642540e+233,3.357744138797916282e+232,9.856006072157364792e+232
-1.441954082941782010e+237,7.821168720431100937e+236,1.402900234892284857e+237,-1.086499942702771094e+237,-1.085025714871336252e+237,2.843919666525330311e+236,8.347774083833650816e+236
-1.702478775122731634e+233,9.234256416835802311e+232,1.656368882874632433e+233,-1.282803047271654463e+233,-1.281062463696642540e+233,3.357744138797916282e+232,9.856006072157364792e+232
2.719431588310558158e+239,-1.475021536917102863e+239,-2.645778571694238493e+239,2.049068205317342578e+239,2.046287907539074832e+239,-5.363447468444021849e+238,-1.574335882412004040e+239
-1.702478775122731634e+233,9.234256416835802311e+232,1.656368882874632433e+233,-1.282803047271654463e+233,-1.281062463696642540e+233,3.357744138797916282e+232,9.856006072157364792e+232
-1.702478775122731634e+233,9.234256416835802311e+232,1.656368882874632433e+233,-1.282803047271654463e+233,-1.281062463696642540e+233,3.357744138797916282e+232,9.856006072157364792e+232
-1.702478775122731634e+233,9.234256416835802311e+232,1.656368882874632433e+233,-1.282803047271654463e+233,-1.281062463696642540e+233,3.357744138797916282e+232,9.856006072157364792e+232
-1.702478775122731634e+233,9.234256416835802311e+232,1.656368882874632433e+233,-1.282803047271654463e+233,-1.281062463696642540e+233,3.357744138797916282e+232,9.856006072157364792e+232
-1.702478775122731634e+233,9.234256416835802311e+232,1.656368882874632433e+233,-1.282803047271654463e+233,-1.281062463696642540e+233,3.357744138797916282e+232,9.856006072157364792e+232
-1.702478775122731634e+233,9.234256416835802311e+232,1.656368882874632433e+233,-1.282803047271654463e+233,-1.281062463696642540e+233,3.357744138797916282e+232,9.856006072157364792e+232
-1.702478775122731634e+233,9.234256416835802311e+232,1.656368882874632433e+233,-1.282803047271654463e+233,-1.281062463696642540e+233,3.357744138797916282e+232,9.856006072157364792e+232
-1.702478775122731634e+233,9.234256416835802311e+232,1.656368882874632433e+233,-1.282803047271654463e+233,-1.281062463696642540e+233,3.357744138797916282e+232,9.856006072157364792e+232
-1.702478775122731634e+233,9.234256416835802311e+232,1.656368882874632433e+233,-1.282803047271654463e+233,-1.281062463696642540e+233,3.357744138797916282e+232,9.856006072157364792e+232
-1.702478775122731634e+233,9.234256416835802311e+232,1.656368882874632433e+233,-1.282803047271654463e+233,-1.281062463696642540e+233,3.357744138797916282e+232,9.856006072157364792e+232
3.291038398463556015e+233,-1.785061458218431624e+233,-3.201903997403794975e+233,2.479768997961652912e+233,2.476404299696511679e+233,-6.490809198019674307e+232,-1.905251032373164314e+233
3.291038398463556015e+233,-1.785061458218431624e+233,-3.201903997403794975e+233,2.479768997961652912e+233,2.476404299696511679e+233,-6.490809198019674307e+232,-1.905251032373164314e+233
3.291038398463556015e+233,-1.785061458218431624e+233,-3.201903997403794975e+233,2.479768997961652912e+233,2.476404299696511679e+233,-6.490809198019674307e+232,-1.905251032373164314e+233
3.291038398463556015e+233,-1.785061458218431624e+233,-3.201903997403794975e+233,2.479768997961652912e+233,2.476404299696511679e+233,-6.490809198019674307e+232,-1.905251032373164314e+233
3.291038398463556015e+233,-1.785061458218431624e+233,-3.201903997403794975e+233,2.479768997961652912e+233,2.476404299696511679e+233,-6.490809198019674307e+232,-1.905251032373164314e+233
-5.768183666729471819e+234,3.128666730905029929e+234,5.611958325640634710e+234,-4.346276554531357411e+234,-4.340379267649009185e+234,1.137640314903457000e+234,3.339322291433951162e+234
-5.768183666729471819e+234,3.128666730905029929e+234,5.611958325640634710e+234,-4.346276554531357411e+234,-4.340379267649009185e+234,1.137640314903457000e+234,3.339322291433951162e+234
3.291038398463556015e+233,-1.785061458218431624e+233,-3.201903997403794975e+233,2.479768997961652912e+233,2.476404299696511679e+233,-6.490809198019674307e+232,-1.905251032373164314e+233
3.291038398463556015e+233,-1.785061458218431624e+233,-3.201903997403794975e+233,2.479768997961652912e+233,2.476404299696511679e+233,-6.490809198019674307e+232,-1.905251032373164314e+233
-5.768183666729471819e+234,3.128666730905029929e+234,5.611958325640634710e+234,-4.346276554531357411e+234,-4.340379267649009185e+234,1.137640314903457000e+234,3.339322291433951162e+234
3.291038398463556015e+233,-1.785061458218431624e+233,-3.201903997403794975e+233,2.479768997961652912e+233,2.476404299696511679e+233,-6.490809198019674307e+232,-1.905251032373164314e+233
3.291038398463556015e+233,-1.785061458218431624e+233,-3.201903997403794975e+233,2.479768997961652912e+233,2.476404299696511679e+233,-6.490809198019674307e+232,-1.905251032373164314e+233
3.291038398463556015e+233,-1.785061458218431624e+233,-3.201903997403794975e+233,2.479768997961652912e+233,2.476404299696511679e+233,-6.490809198019674307e+232,-1.905251032373164314e+233
3.291038398463556015e+233,-1.785061458218431624e+233,-3.201903997403794975e+233,2.479768997961652912e+233,2.476404299696511679e+233,-6.490809198019674307e+232,-1.905251032373164314e+233
3.291038398463556015e+233,-1.785061458218431624e+233,-3.201903997403794975e+233,2.479768997961652912e+233,2.476404299696511679e+233,-6.490809198019674307e+232,-1.905251032373164314e+233
-8.801712200502784734e+237,4.774054663957614275e+237,8.563326849041007240e+237,-6.632014094389628432e+237,-6.623015382680452326e+237,1.735933392208891286e+237,5.095495471729672072e+237
3.291038398463556015e+233,-1.785061458218431624e+233,-3.201903997403794975e+233,2.479768997961652912e+233,2.476404299696511679e+233,-6.490809198019674307e+232,-1.905251032373164314e+233
3.291038398463556015e+233,-1.785061458218431624e+233,-3.201903997403794975e+233,2.479768997961652912e+233,2.476404299696511679e+233,-6.490809198019674307e+232,-1.905251032373164314e+233
3.291038398463556015e+233,-1.785061458218431624e+233,-3.201903997403794975e+233,2.479768997961652912e+233,2.476404299696511679e+233,-6.490809198019674307e+232,-1.905251032373164314e+233
3.291038398463556015e+233,-1.785061458218431624e+233,-3.201903997403794975e+233,2.479768997961652912e+233,2.476404299696511679e+233,-6.490809198019674307e+232,-1.905251032373164314e+233
3.291038398463556015e+233,-1.785061458218431624e+233,-3.201903997403794975e+233,2.479768997961652912e+233,2.476404299696511679e+233,-6.490809198019674307e+232,-1.905251032373164314e+233
3.291038398463556015e+233,-1.785061458218431624e+233,-3.201903997403794975e+233,2.479768997961652912e+233,2.476404299696511679e+233,-6.490809198019674307e+232,-1.905251032373164314e+233
3.291038398463556015e+233,-1.785061458218431624e+233,-3.201903997403794975e+233,2.479768997961652912e+233,2.476404299696511679e+233,-6.490809198019674307e+232,-1.905251032373164314e+233
3.291038398463556015e+233,-1.785061458218431624e+233,-3.201903997403794975e+233,2.479768997961652912e+233,2.476404299696511679e+233,-6.490809198019674307e+232,-1.905251032373164314e+233
3.291038398463556015e+233,-1.785061458218431624e+233,-3.201903997403794975e+233,2.479768997961652912e+233,2.476404299696511679e+233,-6.490809198019674307e+232,-1.905251032373164314e+233
3.291038398463556015e+233,-1.785061458218431624e+233,-3.201903997403794975e+233,2.479768997961652912e+233,2.476404299696511679e+233,-6.490809198019674307e+232,-1.905251032373164314e+233
3.291038398463556015e+233,-1.785061458218431624e+233,-3.201903997403794975e+233,2.479768997961652912e+233,2.476404299696511679e+233,-6.490809198019674307e+232,-1.905251032373164314e+233
3.291038398463556015e+233,-1.785061458218431624e+233,-3.201903997403794975e+233,2.479768997961652912e+233,2.476404299696511679e+233,-6.490809198019674307e+232,-1.905251032373164314e+233
3.291038398463556015e+233,-1.785061458218431624e+233,-3.201903997403794975e+233,2.479768997961652912e+233,2.476404299696511679e+233,-6.490809198019674307e+232,-1.905251032373164314e+233
3.291038398463556015e+233,-1.785061458218431624e+233,-3.201903997403794975e+233,2.479768997961652912e+233,2.476404299696511679e+233,-6.490809198019674307e+232,-1.905251032373164314e+233
3.291038398463556015e+233,-1.785061458218431624e+233,-3.201903997403794975e+233,2.479768997961652912e+233,2.476404299696511679e+233,-6.490809198019674307e+232,-1.905251032373164314e+233
3.291038398463556015e+233,-1.785061458218431624e+233,-3.201903997403794975e+233,2.479768997961652912e+233,2.476404299696511679e+233,-6.490809198019674307e+232,-1.905251032373164314e+233
3.291038398463556015e+233,-1.785061458218431624e+233,-3.201903997403794975e+233,2.479768997961652912e+233,2.476404299696511679e+233,-6.490809198019674307e+232,-1.905251032373164314e+233
-1.587547787409663022e+233,8.610869960398964092e+232,1.544550683136859673e+233,-1.196203541058346877e+233,-1.194580460851017222e+233,3.131069447753982193e+232,9.190646521523650084e+232
-1.587547787409663022e+233,8.610869960398964092e+232,1.544550683136859673e+233,-1.196203541058346877e+233,-1.194580460851017222e+233,3.131069447753982193e+232,9.190646521523650084e+232
-1.587547787409663022e+233,8.610869960398964092e+232,1.544550683136859673e+233,-1.196203541058346877e+233,-1.194580460851017222e+233,3.131069447753982193e+232,9.190646521523650084e+232
-1.587547787409663022e+233,8.610869960398964092e+232,1.544550683136859673e+233,-1.196203541058346877e+233,-1.194580460851017222e+233,3.131069447753982193e+232,9.190646521523650084e+232
-1.587547787409663022e+233,8.610869960398964092e+232,1.544550683136859673e+233,-1.196203541058346877e+233,-1.194580460851017222e+233,3.131069447753982193e+232,9.190646521523650084e+232
-1.587547787409663022e+233,8.610869960398964092e+232,1.544550683136859673e+233,-1.196203541058346877e+233,-1.194580460851017222e+233,3.131069447753982193e+232,9.190646521523650084e+232
-1.587547787409663022e+233,8.610869960398964092e+232,1.544550683136859673e+233,-1.196203541058346877e+233,-1.194580460851017222e+233,3.131069447753982193e+232,9.190646521523650084e+232
-1.587547787409663022e+233,8.610869960398964092e+232,1.544550683136859673e+233,-1.196203541058346877e+233,-1.194580460851017222e+233,3.131069447753982193e+232,9.190646521523650084e+232
-1.587547787409663022e+233,8.610869960398964092e+232,1.544550683136859673e+233,-1.196203541058346877e+233,-1.194580460851017222e+233,3.131069447753982193e+232,9.190646521523650084e+232
2.945494900156870910e+240,-1.597638430503768338e+240,-2.865719190498612057e+240,2.219404957557838931e+240,2.216393536729292157e+240,-5.809304868513202596e+239,-1.705208666660878605e+240
2.781228337974827718e+238,-1.508540135825086880e+238,-2.705901619747691885e+238,2.095631522252140571e+238,2.092788044592258737e+238,-5.485327210508361364e+237,-1.610111314613017519e+238
-1.587547787409663022e+233,8.610869960398964092e+232,1.544550683136859673e+233,-1.196203541058346877e+233,-1.194580460851017222e+233,3.131069447753982193e+232,9.190646521523650084e+232
-1.587547787409663022e+233,8.610869960398964092e+232,1.544550683136859673e+233,-1.196203541058346877e+233,-1.194580460851017222e+233,3.131069447753982193e+232,9.190646521523650084e+232
-1.587547787409663022e+233,8.610869960398964092e+232,1.544550683136859673e+233,-1.196203541058346877e+233,-1.194580460851017222e+233,3.131069447753982193e+232,9.190646521523650084e+232
-9.219010784506664050e+237,5.000397698794952416e+237,8.969323328710391494e+237,-6.946444971886903298e+237,-6.937019621636434542e+237,1.818235849957105277e+237,5.337078358867190115e+237
-1.587547787409663022e+233,8.610869960398964092e+232,1.544550683136859673e+233,-1.196203541058346877e+233,-1.194580460851017222e+233,3.131069447753982193e+232,9.190646521523650084e+232
-1.587547787409663022e+233,8.610869960398964092e+232,1.544550683136859673e+233,-1.196203541058346877e+233,-1.194580460851017222e+233,3.131069447753982193e+232,9.190646521523650084e+232
-1.587547787409663022e+233,8.610869960398964092e+232,1.544550683136859673e+233,-1.196203541058346877e+233,-1.194580460851017222e+233,3.131069447753982193e+232,9.190646521523650084e+232
8.237481305888265495e+233,-4.468015444244264686e+233,-8.014377569759325854e+233,6.206870990374038054e+233,6.198449138148871898e+233,-1.624651947353048640e+233,-4.768850393701107627e+233
-6.189821325997041811e+232,3.357363283106727045e+232,6.022176361168728477e+232,-4.663976887749287835e+232,-4.657648526133321698e+232,1.220798554512053407e+232,3.583417160087598093e+232
8.237481305888265495e+233,-4.468015444244264686e+233,-8.014377569759325854e+233,6.206870990374038054e+233,6.198449138148871898e+233,-1.624651947353048640e+233,-4.768850393701107627e+233
-6.189821325997041811e+232,3.357363283106727045e+232,6.022176361168728477e+232,-4.663976887749287835e+232,-4.657648526133321698e+232,1.220798554512053407e+232,3.583417160087598093e+232
-6.189821325997041811e+232,3.357363283106727045e+232,6.022176361168728477e+232,-4.663976887749287835e+232,-4.657648526133321698e+232,1.220798554512053407e+232,3.583417160087598093e+232
1.843708479772632051e+239,-1.000028729220877156e+239,-1.793773525762369579e+239,1.389218409470295916e+239,1.387333435194010848e+239,-3.636286943525792876e+238,-1.067361440122339641e+239
8.237481305888265495e+233,-4.468015444244264686e+233,-8.014377569759325854e+233,6.206870990374038054e+233,6.198449138148871898e+233,-1.624651947353048640e+233,-4.768850393701107627e+233
-6.189821325997041811e+232,3.357363283106727045e+232,6.022176361168728477e+232,-4.663976887749287835e+232,-4.657648526133321698e+232,1.220798554512053407e+232,3.583417160087598093e+232
-9.749305009837641781e+235,5.288029646084313603e+235,9.485255078604346764e+235,-7.346017088817466434e+235,-7.336049575321275828e+235,1.922824074665812866e+235,5.644076788525462614e+235
-6.189821325997041811e+232,3.357363283106727045e+232,6.022176361168728477e+232,-4.663976887749287835e+232,-4.657648526133321698e+232,1.220798554512053407e+232,3.583417160087598093e+232
-6.189821325997041811e+232,3.357363283106727045e+232,6.022176361168728477e+232,-4.663976887749287835e+232,-4.657648526133321698e+232,1.220798554512053407e+232,3.583417160087598093e+232
4.586188859967688436e+235,-2.487551946480198032e+235,-4.461976636442482358e+235,3.455653680326075268e+235,3.450964843602675596e+235,-9.045192802986158664e+234,-2.655040750722058318e+235
-6.189821325997041811e+232,3.357363283106727045e+232,6.022176361168728477e+232,-4.663976887749287835e+232,-4.657648526133321698e+232,1.220798554512053407e+232,3.583417160087598093e+232
-6.189821325997041811e+232,3.357363283106727045e+232,6.022176361168728477e+232,-4.663976887749287835e+232,-4.657648526133321698e+232,1.220798554512053407e+232,3.583417160087598093e+232
-6.189821325997041811e+232,3.357363283106727045e+232,6.022176361168728477e+232,-4.663976887749287835e+232,-4.657648526133321698e+232,1.220798554512053407e+232,3.583417160087598093e+232
8.237481305888265495e+233,-4.468015444244264686e+233,-8.014377569759325854e+233,6.206870990374038054e+233,6.198449138148871898e+233,-1.624651947353048640e+233,-4.768850393701107627e+233
-6.189821325997041811e+232,3.357363283106727045e+232,6.022176361168728477e+232,-4.663976887749287835e+232,-4.657648526133321698e+232,1.220798554512053407e+232,3.583417160087598093e+232
-6.189821325997041811e+232,3.357363283106727045e+232,6.022176361168728477e+232,-4.663976887749287835e+232,-4.657648526133321698e+232,1.220798554512053407e+232,3.583417160087598093e+232
-6.189821325997041811e+232,3.357363283106727045e+232,6.022176361168728477e+232,-4.663976887749287835e+232,-4.657648526133321698e+232,1.220798554512053407e+232,3.583417160087598093e+232
8.856463438487971331e+233,-4.803751772554936729e+233,-8.616595205876199694e+233,6.673268679148966617e+233,6.664213990762204013e+233,-1.746731802804253884e+233,-5.127192109709867547e+233
8.856463438487971331e+233,-4.803751772554936729e+233,-8.616595205876199694e+233,6.673268679148966617e+233,6.664213990762204013e+233,-1.746731802804253884e+233,-5.127192109709867547e+233
8.856463438487971331e+233,-4.803751772554936729e+233,-8.616595205876199694e+233,6.673268679148966617e+233,6.664213990762204013e+233,-1.746731802804253884e+233,-5.127192109709867547e+233
8.856463438487971331e+233,-4.803751772554936729e+233,-8.616595205876199694e+233,6.673268679148966617e+233,6.664213990762204013e+233,-1.746731802804253884e+233,-5.127192109709867547e+233
8.856463438487971331e+233,-4.803751772554936729e+233,-8.616595205876199694e+233,6.673268679148966617e+233,6.664213990762204013e+233,-1.746731802804253884e+233,-5.127192109709867547e+233
8.856463438487971331e+233,-4.803751772554936729e+233,-8.616595205876199694e+233,6.673268679148966617e+233,6.664213990762204013e+233,-1.746731802804253884e+233,-5.127192109709867547e+233
8.856463438487971331e+233,-4.803751772554936729e+233,-8.616595205876199694e+233,6.673268679148966617e+233,6.664213990762204013e+233,-1.746731802804253884e+233,-5.127192109709867547e+233
-9.217966383384075249e+237,4.999831214918092768e+237,8.968307214121490458e+237,-6.945658024664882247e+237,-6.936233742191273573e+237,1.818029866082347254e+237,5.336473733191003581e+237
8.856463438487971331e+233,-4.803751772554936729e+233,-8.616595205876199694e+233,6.673268679148966617e+233,6.664213990762204013e+233,-1.746731802804253884e+233,-5.127192109709867547e+233
8.856463438487971331e+233,-4.803751772554936729e+233,-8.616595205876199694e+233,6.673268679148966617e+233,6.664213990762204013e+233,-1.746731802804253884e+233,-5.127192109709867547e+233
8.856463438487971331e+233,-4.803751772554936729e+233,-8.616595205876199694e+233,6.673268679148966617e+233,6.664213990762204013e+233,-1.746731802804253884e+233,-5.127192109709867547e+233
8.856463438487971331e+233,-4.803751772554936729e+233,-8.616595205876199694e+233,6.673268679148966617e+233,6.664213990762204013e+233,-1.746731802804253884e+233,-5.127192109709867547e+233
8.856463438487971331e+233,-4.803751772554936729e+233,-8.616595205876199694e+233,6.673268679148966617e+233,6.664213990762204013e+233,-1.746731802804253884e+233,-5.127192109709867547e+233
8.856463438487971331e+233,-4.803751772554936729e+233,-8.616595205876199694e+233,6.673268679148966617e+233,6.664213990762204013e+233,-1.746731802804253884e+233,-5.127192109709867547e+233
8.856463438487971331e+233,-4.803751772554936729e+233,-8.616595205876199694e+233,6.673268679148966617e+233,6.664213990762204013e+233,-1.746731802804253884e+233,-5.127192109709867547e+233
-5.211641162727030243e+234,2.826797699471379220e+234,5.070489204793394238e+234,-3.926926586412625599e+234,-3.921598298542439598e+234,1.027875226603228365e+234,3.017128183700281148e+234
8.856463438487971331e+233,-4.803751772554936729e+233,-8.616595205876199694e+233,6.673268679148966617e+233,6.664213990762204013e+233,-1.746731802804253884e+233,-5.127192109709867547e+233
8.856463438487971331e+233,-4.803751772554936729e+233,-8.616595205876199694e+233,6.673268679148966617e+233,6.664213990762204013e+233,-1.746731802804253884e+233,-5.127192109709867547e+233
8.856463438487971331e+233,-4.803751772554936729e+233,-8.616595205876199694e+233,6.673268679148966617e+233,6.664213990762204013e+233,-1.746731802804253884e+233,-5.127192109709867547e+233
8.856463438487971331e+233,-4.803751772554936729e+233,-8.616595205876199694e+233,6.673268679148966617e+233,6.664213990762204013e+233,-1.746731802804253884e+233,-5.127192109709867547e+233
8.856463438487971331e+233,-4.803751772554936729e+233,-8.616595205876199694e+233,6.673268679148966617e+233,6.664213990762204013e+233,-1.746731802804253884e+233,-5.127192109709867547e+233
8.856463438487971331e+233,-4.803751772554936729e+233,-8.616595205876199694e+233,6.673268679148966617e+233,6.664213990762204013e+233,-1.746731802804253884e+233,-5.127192109709867547e+233
3.795861546905680420e+238,-2.058877876137240152e+238,-3.693054528413561904e+238,2.860148878532069700e+238,2.856268058190476250e+238,-7.486455659273719503e+237,-2.197503722340047505e+238
8.856463438487971331e+233,-4.803751772554936729e+233,-8.616595205876199694e+233,6.673268679148966617e+233,6.664213990762204013e+233,-1.746731802804253884e+233,-5.127192109709867547e+233
8.856463438487971331e+233,-4.803751772554936729e+233,-8.616595205876199694e+233,6.673268679148966617e+233,6.664213990762204013e+233,-1.746731802804253884e+233,-5.127192109709867547e+233
8.856463438487971331e+233,-4.803751772554936729e+233,-8.616595205876199694e+233,6.673268679148966617e+233,6.664213990762204013e+233,-1.746731802804253884e+233,-5.127192109709867547e+233
2.719442147252771749e+239,-1.475027264094517126e+239,-2.645788844658327343e+239,2.049076161389068965e+239,2.046295852815529433e+239,-5.363468293506188402e+238,-1.574341995204720807e+239
5.151275236142577025e+236,-2.794055179971798929e+236,-5.011758227443505758e+236,3.881441382305854174e+236,3.876174811469557953e+236,-1.015969449031496454e+236,-2.982181084936901637e+236
8.856463438487971331e+233,-4.803751772554936729e+233,-8.616595205876199694e+233,6.673268679148966617e+233,6.664213990762204013e+233,-1.746731802804253884e+233,-5.127192109709867547e+233
3.363961402430032474e+234,-1.824614945002078741e+234,-3.272851956568319994e+234,2.534715851379941289e+234,2.531276597951568815e+234,-6.634632893639217366e+233,-1.947467686136851060e+234
3.796109378411538465e+238,-2.059012300114014837e+238,-3.693295647657160169e+238,2.860335617430416407e+238,2.856454543710363894e+238,-7.486944449382803103e+237,-2.197647197187563941e+238
3.363961402430032474e+234,-1.824614945002078741e+234,-3.272851956568319994e+234,2.534715851379941289e+234,2.531276597951568815e+234,-6.634632893639217366e+233,-1.947467686136851060e+234
3.363961402430032474e+234,-1.824614945002078741e+234,-3.272851956568319994e+234,2.534715851379941289e+234,2.531276597951568815e+234,-6.634632893639217366e+233,-1.947467686136851060e+234
3.363961402430032474e+234,-1.824614945002078741e+234,-3.272851956568319994e+234,2.534715851379941289e+234,2.531276597951568815e+234,-6.634632893639217366e+233,-1.947467686136851060e+234
3.363961402430032474e+234,-1.824614945002078741e+234,-3.272851956568319994e+234,2.534715851379941289e+234,2.531276597951568815e+234,-6.634632893639217366e+233,-1.947467686136851060e+234
-9.820137698244735602e+240,5.326449344291527905e+240,9.554169336263332984e+240,-7.399388907522559710e+240,-7.389348975963982889e+240,1.936794178012154214e+240,5.685083314847469757e+240
-6.097287506575827376e+234,3.307172876726873070e+234,5.932148725381014031e+234,-4.594253454327521996e+234,-4.588019697618660000e+234,1.202548406883653754e+234,3.529847394671267461e+234
-6.097287506575827376e+234,3.307172876726873070e+234,5.932148725381014031e+234,-4.594253454327521996e+234,-4.588019697618660000e+234,1.202548406883653754e+234,3.529847394671267461e+234
-6.097287506575827376e+234,3.307172876726873070e+234,5.932148725381014031e+234,-4.594253454327521996e+234,-4.588019697618660000e+234,1.202548406883653754e+234,3.529847394671267461e+234
-6.097287506575827376e+234,3.307172876726873070e+234,5.932148725381014031e+234,-4.594253454327521996e+234,-4.588019697618660000e+234,1.202548406883653754e+234,3.529847394671267461e+234
-6.097287506575827376e+234,3.307172876726873070e+234,5.932148725381014031e+234,-4.594253454327521996e+234,-4.588019697618660000e+234,1.202548406883653754e+234,3.529847394671267461e+234
-6.097287506575827376e+234,3.307172876726873070e+234,5.932148725381014031e+234,-4.594253454327521996e+234,-4.588019697618660000e+234,1.202548406883653754e+234,3.529847394671267461e+234
-6.097287506575827376e+234,3.307172876726873070e+234,5.932148725381014031e+234,-4.594253454327521996e+234,-4.588019697618660000e+234,1.202548406883653754e+234,3.529847394671267461e+234
-6.097287506575827376e+234,3.307172876726873070e+234,5.932148725381014031e+234,-4.594253454327521996e+234,-4.588019697618660000e+234,1.202548406883653754e+234,3.529847394671267461e+234
-6.097287506575827376e+234,3.307172876726873070e+234,5.932148725381014031e+234,-4.594253454327521996e+234,-4.588019697618660000e+234,1.202548406883653754e+234,3.529847394671267461e+234
-6.097287506575827376e+234,3.307172876726873070e+234,5.932148725381014031e+234,-4.594253454327521996e+234,-4.588019697618660000e+234,1.202548406883653754e+234,3.529847394671267461e+234
-6.097287506575827376e+234,3.307172876726873070e+234,5.932148725381014031e+234,-4.594253454327521996e+234,-4.588019697618660000e+234,1.202548406883653754e+234,3.529847394671267461e+234
-6.097287506575827376e+234,3.307172876726873070e+234,5.932148725381014031e+234,-4.594253454327521996e+234,-4.588019697618660000e+234,1.202548406883653754e+234,3.529847394671267461e+234
-6.097287506575827376e+234,3.307172876726873070e+234,5.932148725381014031e+234,-4.594253454327521996e+234,-4.588019697618660000e+234,1.202548406883653754e+234,3.529847394671267461e+234
-6.097287506575827376e+234,3.307172876726873070e+234,5.932148725381014031e+234,-4.594253454327521996e+234,-4.588019697618660000e+234,1.202548406883653754e+234,3.529847394671267461e+234
-6.097287506575827376e+234,3.307172876726873070e+234,5.932148725381014031e+234,-4.594253454327521996e+234,-4.588019697618660000e+234,1.202548406883653754e+234,3.529847394671267461e+234
3.793670463244233670e+238,-2.057689430874004750e+238,-3.690922788006793244e+238,2.858497915924604514e+238,2.854619335707404331e+238,-7.482134255430486462e+237,-2.196235258134362135e+238
-6.097287506575827376e+234,3.307172876726873070e+234,5.932148725381014031e+234,-4.594253454327521996e+234,-4.588019697618660000e+234,1.202548406883653754e+234,3.529847394671267461e+234
-6.097287506575827376e+234,3.307172876726873070e+234,5.932148725381014031e+234,-4.594253454327521996e+234,-4.588019697618660000e+234,1.202548406883653754e+234,3.529847394671267461e+234
-1.447660469578844545e+237,7.852120200232335522e+236,1.408452069897452932e+237,-1.090799655729388134e+237,-1.089319593791238799e+237,2.855174189380060202e+236,8.380809550804985525e+236
-6.097287506575827376e+234,3.307172876726873070e+234,5.932148725381014031e+234,-4.594253454327521996e+234,-4.588019697618660000e+234,1.202548406883653754e+234,3.529847394671267461e+234
1.492790177657782254e+235,-8.096904042772661858e+234,-1.452359486099916395e+235,1.124804500836468630e+235,1.123278299099243819e+235,-2.944182061314786748e+234,-8.642074879548162471e+234
1.492790177657782254e+235,-8.096904042772661858e+234,-1.452359486099916395e+235,1.124804500836468630e+235,1.123278299099243819e+235,-2.944182061314786748e+234,-8.642074879548162471e+234
5.291697790469866856e+236,-2.870220468626970468e+236,-5.148377580847621298e+236,3.987248563710351925e+236,3.981838427388720209e+236,-1.043664537841840184e+236,-3.063474641622673166e+236
1.492790177657782254e+235,-8.096904042772661858e+234,-1.452359486099916395e+235,1.124804500836468630e+235,1.123278299099243819e+235,-2.944182061314786748e+234,-8.642074879548162471e+234
1.492790177657782254e+235,-8.096904042772661858e+234,-1.452359486099916395e+235,1.124804500836468630e+235,1.123278299099243819e+235,-2.944182061314786748e+234,-8.642074879548162471e+234
1.492790177657782254e+235,-8.096904042772661858e+234,-1.452359486099916395e+235,1.124804500836468630e+235,1.123278299099243819e+235,-2.944182061314786748e+234,-8.642074879548162471e+234
-2.985580454061753588e+235,1.619380862114532317e+235,2.904719068271583505e+235,-2.249609076077335825e+235,-2.246556672501930528e+235,5.888364317383503203e+234,1.728415033075868330e+235
-2.985580454061753588e+235,1.619380862114532317e+235,2.904719068271583505e+235,-2.249609076077335825e+235,-2.246556672501930528e+235,5.888364317383503203e+234,1.728415033075868330e+235
-2.985580454061753588e+235,1.619380862114532317e+235,2.904719068271583505e+235,-2.249609076077335825e+235,-2.246556672501930528e+235,5.888364317383503203e+234,1.728415033075868330e+235
-2.985580454061753588e+235,1.619380862114532317e+235,2.904719068271583505e+235,-2.249609076077335825e+235,-2.246556672501930528e+235,5.888364317383503203e+234,1.728415033075868330e+235
-2.985580454061753588e+235,1.619380862114532317e+235,2.904719068271583505e+235,-2.249609076077335825e+235,-2.246556672501930528e+235,5.888364317383503203e+234,1.728415033075868330e+235
-2.985580454061753588e+235,1.619380862114532317e+235,2.904719068271583505e+235,-2.249609076077335825e+235,-2.246556672501930528e+235,5.888364317383503203e+234,1.728415033075868330e+235
-2.985580454061753588e+235,1.619380862114532317e+235,2.904719068271583505e+235,-2.249609076077335825e+235,-2.246556672501930528e+235,5.888364317383503203e+234,1.728415033075868330e+235
-2.985580454061753588e+235,1.619380862114532317e+235,2.904719068271583505e+235,-2.249609076077335825e+235,-2.246556672501930528e+235,5.888364317383503203e+234,1.728415033075868330e+235
4.592378681293685865e+235,-2.490909309763304691e+235,-4.467998812803650849e+235,3.460317657213824447e+235,3.455622492128809234e+235,-9.057400788531278836e+234,-2.658624167882146085e+235
4.592378681293685865e+235,-2.490909309763304691e+235,-4.467998812803650849e+235,3.460317657213824447e+235,3.455622492128809234e+235,-9.057400788531278836e+234,-2.658624167882146085e+235
4.592378681293685865e+235,-2.490909309763304691e+235,-4.467998812803650849e+235,3.460317657213824447e+235,3.455622492128809234e+235,-9.057400788531278836e+234,-2.658624167882146085e+235
4.592378681293685865e+235,-2.490909309763304691e+235,-4.467998812803650849e+235,3.460317657213824447e+235,3.455622492128809234e+235,-9.057400788531278836e+234,-2.658624167882146085e+235
4.592378681293685865e+235,-2.490909309763304691e+235,-4.467998812803650849e+235,3.460317657213824447e+235,3.455622492128809234e+235,-9.057400788531278836e+234,-2.658624167882146085e+235
4.592378681293685865e+235,-2.490909309763304691e+235,-4.467998812803650849e+235,3.460317657213824447e+235,3.455622492128809234e+235,-9.057400788531278836e+234,-2.658624167882146085e+235
4.592378681293685865e+235,-2.490909309763304691e+235,-4.467998812803650849e+235,3.460317657213824447e+235,3.455622492128809234e+235,-9.057400788531278836e+234,-2.658624167882146085e+235
2.719892528657462874e+239,-1.475271551273720894e+239,-2.646227027944401846e+239,2.049415519886111245e+239,2.046634750850751461e+239,-5.364356566267013598e+238,-1.574602730429399431e+239
4.592378681293685865e+235,-2.490909309763304691e+235,-4.467998812803650849e+235,3.460317657213824447e+235,3.455622492128809234e+235,-9.057400788531278836e+234,-2.658624167882146085e+235
4.592378681293685865e+235,-2.490909309763304691e+235,-4.467998812803650849e+235,3.460317657213824447e+235,3.455622492128809234e+235,-9.057400788531278836e+234,-2.658624167882146085e+235
4.592378681293685865e+235,-2.490909309763304691e+235,-4.467998812803650849e+235,3.460317657213824447e+235,3.455622492128809234e+235,-9.057400788531278836e+234,-2.658624167882146085e+235
4.592378681293685865e+235,-2.490909309763304691e+235,-4.467998812803650849e+235,3.460317657213824447e+235,3.455622492128809234e+235,-9.057400788531278836e+234,-2.658624167882146085e+235
4.592378681293685865e+235,-2.490909309763304691e+235,-4.467998812803650849e+235,3.460317657213824447e+235,3.455622492128809234e+235,-9.057400788531278836e+234,-2.658624167882146085e+235
4.592378681293685865e+235,-2.490909309763304691e+235,-4.467998812803650849e+235,3.460317657213824447e+235,3.455622492128809234e+235,-9.057400788531278836e+234,-2.658624167882146085e+235
4.592378681293685865e+235,-2.490909309763304691e+235,-4.467998812803650849e+235,3.460317657213824447e+235,3.455622492128809234e+235,-9.057400788531278836e+234,-2.658624167882146085e+235
4.592378681293685865e+235,-2.490909309763304691e+235,-4.467998812803650849e+235,3.460317657213824447e+235,3.455622492128809234e+235,-9.057400788531278836e+234,-2.658624167882146085e+235
4.592378681293685865e+235,-2.490909309763304691e+235,-4.467998812803650849e+235,3.460317657213824447e+235,3.455622492128809234e+235,-9.057400788531278836e+234,-2.658624167882146085e+235
4.592378681293685865e+235,-2.490909309763304691e+235,-4.467998812803650849e+235,3.460317657213824447e+235,3.455622492128809234e+235,-9.057400788531278836e+234,-2.658624167882146085e+235
-1.395639395259331833e+237,7.569957540488736724e+236,1.357839933044035384e+237,-1.051602225702922238e+237,-1.050175349172332071e+237,2.752574697425910855e+236,8.079648660070059336e+236
4.592378681293685865e+235,-2.490909309763304691e+235,-4.467998812803650849e+235,3.460317657213824447e+235,3.455622492128809234e+235,-9.057400788531278836e+234,-2.658624167882146085e+235
4.592378681293685865e+235,-2.490909309763304691e+235,-4.467998812803650849e+235,3.460317657213824447e+235,3.455622492128809234e+235,-9.057400788531278836e+234,-2.658624167882146085e+235
4.592378681293685865e+235,-2.490909309763304691e+235,-4.467998812803650849e+235,3.460317657213824447e+235,3.455622492128809234e+235,-9.057400788531278836e+234,-2.658624167882146085e+235
4.592378681293685865e+235,-2.490909309763304691e+235,-4.467998812803650849e+235,3.460317657213824447e+235,3.455622492128809234e+235,-9.057400788531278836e+234,-2.658624167882146085e+235
4.168107253852924054e+236,-2.260784199919123028e+236,-4.055218342013311916e+236,3.140632802433733167e+236,3.136371404799281410e+236,-8.220623896175621260e+235,-2.413004555690654268e+236
-9.743115188511644917e+235,5.284672282801206944e+235,9.479232902243178838e+235,-7.341353111929716690e+235,-7.331391926795142189e+235,1.921603276111300990e+235,5.640493371365374283e+235
-9.743115188511644917e+235,5.284672282801206944e+235,9.479232902243178838e+235,-7.341353111929716690e+235,-7.331391926795142189e+235,1.921603276111300990e+235,5.640493371365374283e+235
-9.743115188511644917e+235,5.284672282801206944e+235,9.479232902243178838e+235,-7.341353111929716690e+235,-7.331391926795142189e+235,1.921603276111300990e+235,5.640493371365374283e+235
-9.743115188511644917e+235,5.284672282801206944e+235,9.479232902243178838e+235,-7.341353111929716690e+235,-7.331391926795142189e+235,1.921603276111300990e+235,5.640493371365374283e+235
-9.743115188511644917e+235,5.284672282801206944e+235,9.479232902243178838e+235,-7.341353111929716690e+235,-7.331391926795142189e+235,1.921603276111300990e+235,5.640493371365374283e+235
1.578107190162094685e+237,-8.559664096933343392e+236,-1.535365774787292095e+237,1.189090132601104014e+237,1.187476704290004352e+237,-3.112450061399231193e+236,-9.135992927507495686e+236
-9.743115188511644917e+235,5.284672282801206944e+235,9.479232902243178838e+235,-7.341353111929716690e+235,-7.331391926795142189e+235,1.921603276111300990e+235,5.640493371365374283e+235
-9.743115188511644917e+235,5.284672282801206944e+235,9.479232902243178838e+235,-7.341353111929716690e+235,-7.331391926795142189e+235,1.921603276111300990e+235,5.640493371365374283e+235
-9.743115188511644917e+235,5.284672282801206944e+235,9.479232902243178838e+235,-7.341353111929716690e+235,-7.331391926795142189e+235,1.921603276111300990e+235,5.640493371365374283e+235
-9.743115188511644917e+235,5.284672282801206944e+235,9.479232902243178838e+235,-7.341353111929716690e+235,-7.331391926795142189e+235,1.921603276111300990e+235,5.640493371365374283e+235
-9.743115188511644917e+235,5.284672282801206944e+235,9.479232902243178838e+235,-7.341353111929716690e+235,-7.331391926795142189e+235,1.921603276111300990e+235,5.640493371365374283e+235
-9.743115188511644917e+235,5.284672282801206944e+235,9.479232902243178838e+235,-7.341353111929716690e+235,-7.331391926795142189e+235,1.921603276111300990e+235,5.640493371365374283e+235
-9.743115188511644917e+235,5.284672282801206944e+235,9.479232902243178838e+235,-7.341353111929716690e+235,-7.331391926795142189e+235,1.921603276111300990e+235,5.640493371365374283e+235
-9.743115188511644917e+235,5.284672282801206944e+235,9.479232902243178838e+235,-7.341353111929716690e+235,-7.331391926795142189e+235,1.921603276111300990e+235,5.640493371365374283e+235
-9.743115188511644917e+235,5.284672282801206944e+235,9.479232902243178838e+235,-7.341353111929716690e+235,-7.331391926795142189e+235,1.921603276111300990e+235,5.640493371365374283e+235
-9.743115188511644917e+235,5.284672282801206944e+235,9.479232902243178838e+235,-7.341353111929716690e+235,-7.331391926795142189e+235,1.921603276111300990e+235,5.640493371365374283e+235
-9.743115188511644917e+235,5.284672282801206944e+235,9.479232902243178838e+235,-7.341353111929716690e+235,-7.331391926795142189e+235,1.921603276111300990e+235,5.640493371365374283e+235
-9.743115188511644917e+235,5.284672282801206944e+235,9.479232902243178838e+235,-7.341353111929716690e+235,-7.331391926795142189e+235,1.921603276111300990e+235,5.640493371365374283e+235
2.092349067432503641e+237,-1.134891552513258644e+237,-2.035679938011054928e+237,1.576566943963774600e+237,1.574427764037883802e+237,-4.126672778627923531e+236,-1.211304682033468704e+237
4.168107253852924054e+236,-2.260784199919123028e+236,-4.055218342013311916e+236,3.140632802433733167e+236,3.136371404799281410e+236,-8.220623896175621260e+235,-2.413004555690654268e+236
5.142418772704088659e+236,-2.789251428199243949e+236,-5.003141632237630139e+236,3.874768113626704949e+236,3.869510597478795855e+236,-1.014222717228692225e+236,-2.977053892827191357e+236
5.142418772704088659e+236,-2.789251428199243949e+236,-5.003141632237630139e+236,3.874768113626704949e+236,3.869510597478795855e+236,-1.014222717228692225e+236,-2.977053892827191357e+236
5.142418772704088659e+236,-2.789251428199243949e+236,-5.003141632237630139e+236,3.874768113626704949e+236,3.869510597478795855e+236,-1.014222717228692225e+236,-2.977053892827191357e+236
5.142418772704088659e+236,-2.789251428199243949e+236,-5.003141632237630139e+236,3.874768113626704949e+236,3.869510597478795855e+236,-1.014222717228692225e+236,-2.977053892827191357e+236
5.142418772704088659e+236,-2.789251428199243949e+236,-5.003141632237630139e+236,3.874768113626704949e+236,3.869510597478795855e+236,-1.014222717228692225e+236,-2.977053892827191357e+236
5.142418772704088659e+236,-2.789251428199243949e+236,-5.003141632237630139e+236,3.874768113626704949e+236,3.869510597478795855e+236,-1.014222717228692225e+236,-2.977053892827191357e+236
5.142418772704088659e+236,-2.789251428199243949e+236,-5.003141632237630139e+236,3.874768113626704949e+236,3.869510597478795855e+236,-1.014222717228692225e+236,-2.977053892827191357e+236
5.142418772704088659e+236,-2.789251428199243949e+236,-5.003141632237630139e+236,3.874768113626704949e+236,3.869510597478795855e+236,-1.014222717228692225e+236,-2.977053892827191357e+236
5.142418772704088659e+236,-2.789251428199243949e+236,-5.003141632237630139e+236,3.874768113626704949e+236,3.869510597478795855e+236,-1.014222717228692225e+236,-2.977053892827191357e+236
5.142418772704088659e+236,-2.789251428199243949e+236,-5.003141632237630139e+236,3.874768113626704949e+236,3.869510597478795855e+236,-1.014222717228692225e+236,-2.977053892827191357e+236
5.142418772704088659e+236,-2.789251428199243949e+236,-5.003141632237630139e+236,3.874768113626704949e+236,3.869510597478795855e+236,-1.014222717228692225e+236,-2.977053892827191357e+236
5.142418772704088659e+236,-2.789251428199243949e+236,-5.003141632237630139e+236,3.874768113626704949e+236,3.869510597478795855e+236,-1.014222717228692225e+236,-2.977053892827191357e+236
5.142418772704088659e+236,-2.789251428199243949e+236,-5.003141632237630139e+236,3.874768113626704949e+236,3.869510597478795855e+236,-1.014222717228692225e+236,-2.977053892827191357e+236
5.142418772704088659e+236,-2.789251428199243949e+236,-5.003141632237630139e+236,3.874768113626704949e+236,3.869510597478795855e+236,-1.014222717228692225e+236,-2.977053892827191357e+236
5.142418772704088659e+236,-2.789251428199243949e+236,-5.003141632237630139e+236,3.874768113626704949e+236,3.869510597478795855e+236,-1.014222717228692225e+236,-2.977053892827191357e+236
5.142418772704088659e+236,-2.789251428199243949e+236,-5.003141632237630139e+236,3.874768113626704949e+236,3.869510597478795855e+236,-1.014222717228692225e+236,-2.977053892827191357e+236
5.142418772704088659e+236,-2.789251428199243949e+236,-5.003141632237630139e+236,3.874768113626704949e+236,3.869510597478795855e+236,-1.014222717228692225e+236,-2.977053892827191357e+236
5.142418772704088659e+236,-2.789251428199243949e+236,-5.003141632237630139e+236,3.874768113626704949e+236,3.869510597478795855e+236,-1.014222717228692225e+236,-2.977053892827191357e+236
5.142418772704088659e+236,-2.789251428199243949e+236,-5.003141632237630139e+236,3.874768113626704949e+236,3.869510597478795855e+236,-1.014222717228692225e+236,-2.977053892827191357e+236
5.142418772704088659e+236,-2.789251428199243949e+236,-5.003141632237630139e+236,3.874768113626704949e+236,3.869510597478795855e+236,-1.014222717228692225e+236,-2.977053892827191357e+236
5.142418772704088659e+236,-2.789251428199243949e+236,-5.003141632237630139e+236,3.874768113626704949e+236,3.869510597478795855e+236,-1.014222717228692225e+236,-2.977053892827191357e+236
5.142418772704088659e+236,-2.789251428199243949e+236,-5.003141632237630139e+236,3.874768113626704949e+236,3.869510597478795855e+236,-1.014222717228692225e+236,-2.977053892827191357e+236
5.142418772704088659e+236,-2.789251428199243949e+236,-5.003141632237630139e+236,3.874768113626704949e+236,3.869510597478795855e+236,-1.014222717228692225e+236,-2.977053892827191357e+236
5.142418772704088659e+236,-2.789251428199243949e+236,-5.003141632237630139e+236,3.874768113626704949e+236,3.869510597478795855e+236,-1.014222717228692225e+236,-2.977053892827191357e+236
5.142418772704088659e+236,-2.789251428199243949e+236,-5.003141632237630139e+236,3.874768113626704949e+236,3.869510597478795855e+236,-1.014222717228692225e+236,-2.977053892827191357e+236
5.142418772704088659e+236,-2.789251428199243949e+236,-5.003141632237630139e+236,3.874768113626704949e+236,3.869510597478795855e+236,-1.014222717228692225e+236,-2.977053892827191357e+236
5.142418772704088659e+236,-2.789251428199243949e+236,-5.003141632237630139e+236,3.874768113626704949e+236,3.869510597478795855e+236,-1.014222717228692225e+236,-2.977053892827191357e+236
5.142418772704088659e+236,-2.789251428199243949e+236,-5.003141632237630139e+236,3.874768113626704949e+236,3.869510597478795855e+236,-1.014222717228692225e+236,-2.977053892827191357e+236
5.142418772704088659e+236,-2.789251428199243949e+236,-5.003141632237630139e+236,3.874768113626704949e+236,3.869510597478795855e+236,-1.014222717228692225e+236,-2.977053892827191357e+236
5.142418772704088659e+236,-2.789251428199243949e+236,-5.003141632237630139e+236,3.874768113626704949e+236,3.869510597478795855e+236,-1.014222717228692225e+236,-2.977053892827191357e+236
5.142418772704088659e+236,-2.789251428199243949e+236,-5.003141632237630139e+236,3.874768113626704949e+236,3.869510597478795855e+236,-1.014222717228692225e+236,-2.977053892827191357e+236
5.142418772704088659e+236,-2.789251428199243949e+236,-5.003141632237630139e+236,3.874768113626704949e+236,3.869510597478795855e+236,-1.014222717228692225e+236,-2.977053892827191357e+236
5.142418772704088659e+236,-2.789251428199243949e+236,-5.003141632237630139e+236,3.874768113626704949e+236,3.869510597478795855e+236,-1.014222717228692225e+236,-2.977053892827191357e+236
5.142418772704088659e+236,-2.789251428199243949e+236,-5.003141632237630139e+236,3.874768113626704949e+236,3.869510597478795855e+236,-1.014222717228692225e+236,-2.977053892827191357e+236
5.142418772704088659e+236,-2.789251428199243949e+236,-5.003141632237630139e+236,3.874768113626704949e+236,3.869510597478795855e+236,-1.014222717228692225e+236,-2.977053892827191357e+236
5.142418772704088659e+236,-2.789251428199243949e+236,-5.003141632237630139e+236,3.874768113626704949e+236,3.869510597478795855e+236,-1.014222717228692225e+236,-2.977053892827191357e+236
5.142418772704088659e+236,-2.789251428199243949e+236,-5.003141632237630139e+236,3.874768113626704949e+236,3.869510597478795855e+236,-1.014222717228692225e+236,-2.977053892827191357e+236
-1.441563182072268669e+237,7.819048471465066883e+236,1.402519921172071892e+237,-1.086205402275060567e+237,-1.084731574093620214e+237,2.843148705311223672e+236,8.345511076858274396e+236
-1.441563182072268669e+237,7.819048471465066883e+236,1.402519921172071892e+237,-1.086205402275060567e+237,-1.084731574093620214e+237,2.843148705311223672e+236,8.345511076858274396e+236
-1.441563182072268669e+237,7.819048471465066883e+236,1.402519921172071892e+237,-1.086205402275060567e+237,-1.084731574093620214e+237,2.843148705311223672e+236,8.345511076858274396e+236
-1.441563182072268669e+237,7.819048471465066883e+236,1.402519921172071892e+237,-1.086205402275060567e+237,-1.084731574093620214e+237,2.843148705311223672e+236,8.345511076858274396e+236
-1.441563182072268669e+237,7.819048471465066883e+236,1.402519921172071892e+237,-1.086205402275060567e+237,-1.084731574093620214e+237,2.843148705311223672e+236,8.345511076858274396e+236
-1.441563182072268669e+237,7.819048471465066883e+236,1.402519921172071892e+237,-1.086205402275060567e+237,-1.084731574093620214e+237,2.843148705311223672e+236,8.345511076858274396e+236
-1.441563182072268669e+237,7.819048471465066883e+236,1.402519921172071892e+237,-1.086205402275060567e+237,-1.084731574093620214e+237,2.843148705311223672e+236,8.345511076858274396e+236
-1.441563182072268669e+237,7.819048471465066883e+236,1.402519921172071892e+237,-1.086205402275060567e+237,-1.084731574093620214e+237,2.843148705311223672e+236,8.345511076858274396e+236
-1.441563182072268669e+237,7.819048471465066883e+236,1.402519921172071892e+237,-1.086205402275060567e+237,-1.084731574093620214e+237,2.843148705311223672e+236,8.345511076858274396e+236
-1.441563182072268669e+237,7.819048471465066883e+236,1.402519921172071892e+237,-1.086205402275060567e+237,-1.084731574093620214e+237,2.843148705311223672e+236,8.345511076858274396e+236
-1.441563182072268669e+237,7.819048471465066883e+236,1.402519921172071892e+237,-1.086205402275060567e+237,-1.084731574093620214e+237,2.843148705311223672e+236,8.345511076858274396e+236
-1.441563182072268669e+237,7.819048471465066883e+236,1.402519921172071892e+237,-1.086205402275060567e+237,-1.084731574093620214e+237,2.843148705311223672e+236,8.345511076858274396e+236
-1.441563182072268669e+237,7.819048471465066883e+236,1.402519921172071892e+237,-1.086205402275060567e+237,-1.084731574093620214e+237,2.843148705311223672e+236,8.345511076858274396e+236
-1.441563182072268669e+237,7.819048471465066883e+236,1.402519921172071892e+237,-1.086205402275060567e+237,-1.084731574093620214e+237,2.843148705311223672e+236,8.345511076858274396e+236
-1.441563182072268669e+237,7.819048471465066883e+236,1.402519921172071892e+237,-1.086205402275060567e+237,-1.084731574093620214e+237,2.843148705311223672e+236,8.345511076858274396e+236
-1.441563182072268669e+237,7.819048471465066883e+236,1.402519921172071892e+237,-1.086205402275060567e+237,-1.084731574093620214e+237,2.843148705311223672e+236,8.345511076858274396e+236
1.675538342047211326e+237,-9.088131325213462505e+236,-1.630158103809724053e+237,1.262503663720401283e+237,1.260790623557955841e+237,-3.304610389010361066e+236,-9.700042264644031872e+236
1.675538342047211326e+237,-9.088131325213462505e+236,-1.630158103809724053e+237,1.262503663720401283e+237,1.260790623557955841e+237,-3.304610389010361066e+236,-9.700042264644031872e+236
1.675538342047211326e+237,-9.088131325213462505e+236,-1.630158103809724053e+237,1.262503663720401283e+237,1.260790623557955841e+237,-3.304610389010361066e+236,-9.700042264644031872e+236
1.675538342047211326e+237,-9.088131325213462505e+236,-1.630158103809724053e+237,1.262503663720401283e+237,1.260790623557955841e+237,-3.304610389010361066e+236,-9.700042264644031872e+236
1.675538342047211326e+237,-9.088131325213462505e+236,-1.630158103809724053e+237,1.262503663720401283e+237,1.260790623557955841e+237,-3.304610389010361066e+236,-9.700042264644031872e+236
-7.543313687680712940e+237,4.091498457574002377e+237,7.339010769832354239e+237,-5.683821687812396745e+237,-5.676109540032393851e+237,1.487743500361591559e+237,4.366982225937571603e+237
-7.543313687680712940e+237,4.091498457574002377e+237,7.339010769832354239e+237,-5.683821687812396745e+237,-5.676109540032393851e+237,1.487743500361591559e+237,4.366982225937571603e+237
1.675538342047211326e+237,-9.088131325213462505e+236,-1.630158103809724053e+237,1.262503663720401283e+237,1.260790623557955841e+237,-3.304610389010361066e+236,-9.700042264644031872e+236
1.675538342047211326e+237,-9.088131325213462505e+236,-1.630158103809724053e+237,1.262503663720401283e+237,1.260790623557955841e+237,-3.304610389010361066e+236,-9.700042264644031872e+236
1.675538342047211326e+237,-9.088131325213462505e+236,-1.630158103809724053e+237,1.262503663720401283e+237,1.260790623557955841e+237,-3.304610389010361066e+236,-9.700042264644031872e+236
1.675538342047211326e+237,-9.088131325213462505e+236,-1.630158103809724053e+237,1.262503663720401283e+237,1.260790623557955841e+237,-3.304610389010361066e+236,-9.700042264644031872e+236
1.675538342047211326e+237,-9.088131325213462505e+236,-1.630158103809724053e+237,1.262503663720401283e+237,1.260790623557955841e+237,-3.304610389010361066e+236,-9.700042264644031872e+236
1.675538342047211326e+237,-9.088131325213462505e+236,-1.630158103809724053e+237,1.262503663720401283e+237,1.260790623557955841e+237,-3.304610389010361066e+236,-9.700042264644031872e+236
1.675538342047211326e+237,-9.088131325213462505e+236,-1.630158103809724053e+237,1.262503663720401283e+237,1.260790623557955841e+237,-3.304610389010361066e+236,-9.700042264644031872e+236
1.675538342047211326e+237,-9.088131325213462505e+236,-1.630158103809724053e+237,1.262503663720401283e+237,1.260790623557955841e+237,-3.304610389010361066e+236,-9.700042264644031872e+236
1.675538342047211326e+237,-9.088131325213462505e+236,-1.630158103809724053e+237,1.262503663720401283e+237,1.260790623557955841e+237,-3.304610389010361066e+236,-9.700042264644031872e+236
-9.218852029727923905e+237,5.000311590095348447e+237,8.969168873642078653e+237,-6.946325351532797485e+237,-6.936900163590350054e+237,1.818204539262627891e+237,5.336986452401974970e+237
-9.218852029727923905e+237,5.000311590095348447e+237,8.969168873642078653e+237,-6.946325351532797485e+237,-6.936900163590350054e+237,1.818204539262627891e+237,5.336986452401974970e+237
-9.218852029727923905e+237,5.000311590095348447e+237,8.969168873642078653e+237,-6.946325351532797485e+237,-6.936900163590350054e+237,1.818204539262627891e+237,5.336986452401974970e+237
-9.218852029727923905e+237,5.000311590095348447e+237,8.969168873642078653e+237,-6.946325351532797485e+237,-6.936900163590350054e+237,1.818204539262627891e+237,5.336986452401974970e+237
-9.218852029727923905e+237,5.000311590095348447e+237,8.969168873642078653e+237,-6.946325351532797485e+237,-6.936900163590350054e+237,1.818204539262627891e+237,5.336986452401974970e+237
-9.218852029727923905e+237,5.000311590095348447e+237,8.969168873642078653e+237,-6.946325351532797485e+237,-6.936900163590350054e+237,1.818204539262627891e+237,5.336986452401974970e+237
-9.218852029727923905e+237,5.000311590095348447e+237,8.969168873642078653e+237,-6.946325351532797485e+237,-6.936900163590350054e+237,1.818204539262627891e+237,5.336986452401974970e+237
-9.218852029727923905e+237,5.000311590095348447e+237,8.969168873642078653e+237,-6.946325351532797485e+237,-6.936900163590350054e+237,1.818204539262627891e+237,5.336986452401974970e+237
-9.218852029727923905e+237,5.000311590095348447e+237,8.969168873642078653e+237,-6.946325351532797485e+237,-6.936900163590350054e+237,1.818204539262627891e+237,5.336986452401974970e+237
-9.218852029727923905e+237,5.000311590095348447e+237,8.969168873642078653e+237,-6.946325351532797485e+237,-6.936900163590350054e+237,1.818204539262627891e+237,5.336986452401974970e+237
-9.218852029727923905e+237,5.000311590095348447e+237,8.969168873642078653e+237,-6.946325351532797485e+237,-6.936900163590350054e+237,1.818204539262627891e+237,5.336986452401974970e+237
-9.218852029727923905e+237,5.000311590095348447e+237,8.969168873642078653e+237,-6.946325351532797485e+237,-6.936900163590350054e+237,1.818204539262627891e+237,5.336986452401974970e+237
3.795772982271295265e+238,-2.058829838619514801e+238,-3.692968362461503519e+238,2.860082145845278321e+238,2.856201416050568891e+238,-7.486280986093439589e+237,-2.197452450418950294e+238
3.795772982271295265e+238,-2.058829838619514801e+238,-3.692968362461503519e+238,2.860082145845278321e+238,2.856201416050568891e+238,-7.486280986093439589e+237,-2.197452450418950294e+238
3.795772982271295265e+238,-2.058829838619514801e+238,-3.692968362461503519e+238,2.860082145845278321e+238,2.856201416050568891e+238,-7.486280986093439589e+237,-2.197452450418950294e+238
3.795772982271295265e+238,-2.058829838619514801e+238,-3.692968362461503519e+238,2.860082145845278321e+238,2.856201416050568891e+238,-7.486280986093439589e+237,-2.197452450418950294e+238
3.795772982271295265e+238,-2.058829838619514801e+238,-3.692968362461503519e+238,2.860082145845278321e+238,2.856201416050568891e+238,-7.486280986093439589e+237,-2.197452450418950294e+238
3.795772982271295265e+238,-2.058829838619514801e+238,-3.692968362461503519e+238,2.860082145845278321e+238,2.856201416050568891e+238,-7.486280986093439589e+237,-2.197452450418950294e+238
3.795772982271295265e+238,-2.058829838619514801e+238,-3.692968362461503519e+238,2.860082145845278321e+238,2.856201416050568891e+238,-7.486280986093439589e+237,-2.197452450418950294e+238
3.795772982271295265e+238,-2.058829838619514801e+238,-3.692968362461503519e+238,2.860082145845278321e+238,2.856201416050568891e+238,-7.486280986093439589e+237,-2.197452450418950294e+238
3.795772982271295265e+238,-2.058829838619514801e+238,-3.692968362461503519e+238,2.860082145845278321e+238,2.856201416050568891e+238,-7.486280986093439589e+237,-2.197452450418950294e+238
3.795772982271295265e+238,-2.058829838619514801e+238,-3.692968362461503519e+238,2.860082145845278321e+238,2.856201416050568891e+238,-7.486280986093439589e+237,-2.197452450418950294e+238
3.795772982271295265e+238,-2.058829838619514801e+238,-3.692968362461503519e+238,2.860082145845278321e+238,2.856201416050568891e+238,-7.486280986093439589e+237,-2.197452450418950294e+238
3.795772982271295265e+238,-2.058829838619514801e+238,-3.692968362461503519e+238,2.860082145845278321e+238,2.856201416050568891e+238,-7.486280986093439589e+237,-2.197452450418950294e+238
-8.757241920345687531e+238,4.749933953855390489e+238,8.520061000831157260e+238,-6.598506122524052070e+238,-6.589552876426752941e+238,1.727162661863812918e+238,5.069750695485555851e+238
-8.757241920345687531e+238,4.749933953855390489e+238,8.520061000831157260e+238,-6.598506122524052070e+238,-6.589552876426752941e+238,1.727162661863812918e+238,5.069750695485555851e+238
-8.757241920345687531e+238,4.749933953855390489e+238,8.520061000831157260e+238,-6.598506122524052070e+238,-6.589552876426752941e+238,1.727162661863812918e+238,5.069750695485555851e+238
-8.757241920345687531e+238,4.749933953855390489e+238,8.520061000831157260e+238,-6.598506122524052070e+238,-6.589552876426752941e+238,1.727162661863812918e+238,5.069750695485555851e+238
-8.757241920345687531e+238,4.749933953855390489e+238,8.520061000831157260e+238,-6.598506122524052070e+238,-6.589552876426752941e+238,1.727162661863812918e+238,5.069750695485555851e+238
-8.757241920345687531e+238,4.749933953855390489e+238,8.520061000831157260e+238,-6.598506122524052070e+238,-6.589552876426752941e+238,1.727162661863812918e+238,5.069750695485555851e+238
-8.757241920345687531e+238,4.749933953855390489e+238,8.520061000831157260e+238,-6.598506122524052070e+238,-6.589552876426752941e+238,1.727162661863812918e+238,5.069750695485555851e+238
-8.757241920345687531e+238,4.749933953855390489e+238,8.520061000831157260e+238,-6.598506122524052070e+238,-6.589552876426752941e+238,1.727162661863812918e+238,5.069750695485555851e+238
-8.757241920345687531e+238,4.749933953855390489e+238,8.520061000831157260e+238,-6.598506122524052070e+238,-6.589552876426752941e+238,1.727162661863812918e+238,5.069750695485555851e+238
3.217392464203770058e+240,-1.745115853553644716e+240,-3.130252687771864639e+240,2.424277422813659746e+240,2.420988018822570702e+240,-6.345559690231078153e+239,-1.862615859126925825e+240
2.719433290789333407e+239,-1.475022460342744619e+239,-2.645780228063121389e+239,2.049069488120389885e+239,2.046289188601538524e+239,-5.363450826188160555e+238,-1.574336868012611230e+239
2.719433290789333407e+239,-1.475022460342744619e+239,-2.645780228063121389e+239,2.049069488120389885e+239,2.046289188601538524e+239,-5.363450826188160555e+238,-1.574336868012611230e+239
3.217392464203770058e+240,-1.745115853553644716e+240,-3.130252687771864639e+240,2.424277422813659746e+240,2.420988018822570702e+240,-6.345559690231078153e+239,-1.862615859126925825e+240
2.719433290789333407e+239,-1.475022460342744619e+239,-2.645780228063121389e+239,2.049069488120389885e+239,2.046289188601538524e+239,-5.363450826188160555e+238,-1.574336868012611230e+239
2.719433290789333407e+239,-1.475022460342744619e+239,-2.645780228063121389e+239,2.049069488120389885e+239,2.046289188601538524e+239,-5.363450826188160555e+238,-1.574336868012611230e+239
2.719433290789333407e+239,-1.475022460342744619e+239,-2.645780228063121389e+239,2.049069488120389885e+239,2.046289188601538524e+239,-5.363450826188160555e+238,-1.574336868012611230e+239
2.719433290789333407e+239,-1.475022460342744619e+239,-2.645780228063121389e+239,2.049069488120389885e+239,2.046289188601538524e+239,-5.363450826188160555e+238,-1.574336868012611230e+239
2.719433290789333407e+239,-1.475022460342744619e+239,-2.645780228063121389e+239,2.049069488120389885e+239,2.046289188601538524e+239,-5.363450826188160555e+238,-1.574336868012611230e+239
2.719433290789333407e+239,-1.475022460342744619e+239,-2.645780228063121389e+239,2.049069488120389885e+239,2.046289188601538524e+239,-5.363450826188160555e+238,-1.574336868012611230e+239
2.719433290789333407e+239,-1.475022460342744619e+239,-2.645780228063121389e+239,2.049069488120389885e+239,2.046289188601538524e+239,-5.363450826188160555e+238,-1.574336868012611230e+239
2.719433290789333407e+239,-1.475022460342744619e+239,-2.645780228063121389e+239,2.049069488120389885e+239,2.046289188601538524e+239,-5.363450826188160555e+238,-1.574336868012611230e+239
2.719433290789333407e+239,-1.475022460342744619e+239,-2.645780228063121389e+239,2.049069488120389885e+239,2.046289188601538524e+239,-5.363450826188160555e+238,-1.574336868012611230e+239
2.719433290789333407e+239,-1.475022460342744619e+239,-2.645780228063121389e+239,2.049069488120389885e+239,2.046289188601538524e+239,-5.363450826188160555e+238,-1.574336868012611230e+239
2.719433290789333407e+239,-1.475022460342744619e+239,-2.645780228063121389e+239,2.049069488120389885e+239,2.046289188601538524e+239,-5.363450826188160555e+238,-1.574336868012611230e+239
2.719433290789333407e+239,-1.475022460342744619e+239,-2.645780228063121389e+239,2.049069488120389885e+239,2.046289188601538524e+239,-5.363450826188160555e+238,-1.574336868012611230e+239
2.719433290789333407e+239,-1.475022460342744619e+239,-2.645780228063121389e+239,2.049069488120389885e+239,2.046289188601538524e+239,-5.363450826188160555e+238,-1.574336868012611230e+239
2.719433290789333407e+239,-1.475022460342744619e+239,-2.645780228063121389e+239,2.049069488120389885e+239,2.046289188601538524e+239,-5.363450826188160555e+238,-1.574336868012611230e+239
2.719433290789333407e+239,-1.475022460342744619e+239,-2.645780228063121389e+239,2.049069488120389885e+239,2.046289188601538524e+239,-5.363450826188160555e+238,-1.574336868012611230e+239
2.719433290789333407e+239,-1.475022460342744619e+239,-2.645780228063121389e+239,2.049069488120389885e+239,2.046289188601538524e+239,-5.363450826188160555e+238,-1.574336868012611230e+239
2.719433290789333407e+239,-1.475022460342744619e+239,-2.645780228063121389e+239,2.049069488120389885e+239,2.046289188601538524e+239,-5.363450826188160555e+238,-1.574336868012611230e+239
2.719433290789333407e+239,-1.475022460342744619e+239,-2.645780228063121389e+239,2.049069488120389885e+239,2.046289188601538524e+239,-5.363450826188160555e+238,-1.574336868012611230e+239
2.719433290789333407e+239,-1.475022460342744619e+239,-2.645780228063121389e+239,2.049069488120389885e+239,2.046289188601538524e+239,-5.363450826188160555e+238,-1.574336868012611230e+239
2.719433290789333407e+239,-1.475022460342744619e+239,-2.645780228063121389e+239,2.049069488120389885e+239,2.046289188601538524e+239,-5.363450826188160555e+238,-1.574336868012611230e+239
2.719433290789333407e+239,-1.475022460342744619e+239,-2.645780228063121389e+239,2.049069488120389885e+239,2.046289188601538524e+239,-5.363450826188160555e+238,-1.574336868012611230e+239
2.719433290789333407e+239,-1.475022460342744619e+239,-2.645780228063121389e+239,2.049069488120389885e+239,2.046289188601538524e+239,-5.363450826188160555e+238,-1.574336868012611230e+239
2.719433290789333407e+239,-1.475022460342744619e+239,-2.645780228063121389e+239,2.049069488120389885e+239,2.046289188601538524e+239,-5.363450826188160555e+238,-1.574336868012611230e+239
2.719433290789333407e+239,-1.475022460342744619e+239,-2.645780228063121389e+239,2.049069488120389885e+239,2.046289188601538524e+239,-5.363450826188160555e+238,-1.574336868012611230e+239
3.217392464203770058e+240,-1.745115853553644716e+240,-3.130252687771864639e+240,2.424277422813659746e+240,2.420988018822570702e+240,-6.345559690231078153e+239,-1.862615859126925825e+240
2.719433290789333407e+239,-1.475022460342744619e+239,-2.645780228063121389e+239,2.049069488120389885e+239,2.046289188601538524e+239,-5.363450826188160555e+238,-1.574336868012611230e+239
2.719433290789333407e+239,-1.475022460342744619e+239,-2.645780228063121389e+239,2.049069488120389885e+239,2.046289188601538524e+239,-5.363450826188160555e+238,-1.574336868012611230e+239
2.719433290789333407e+239,-1.475022460342744619e+239,-2.645780228063121389e+239,2.049069488120389885e+239,2.046289188601538524e+239,-5.363450826188160555e+238,-1.574336868012611230e+239
2.719433290789333407e+239,-1.475022460342744619e+239,-2.645780228063121389e+239,2.049069488120389885e+239,2.046289188601538524e+239,-5.363450826188160555e+238,-1.574336868012611230e+239
2.719433290789333407e+239,-1.475022460342744619e+239,-2.645780228063121389e+239,2.049069488120389885e+239,2.046289188601538524e+239,-5.363450826188160555e+238,-1.574336868012611230e+239
2.719433290789333407e+239,-1.475022460342744619e+239,-2.645780228063121389e+239,2.049069488120389885e+239,2.046289188601538524e+239,-5.363450826188160555e+238,-1.574336868012611230e+239
2.719433290789333407e+239,-1.475022460342744619e+239,-2.645780228063121389e+239,2.049069488120389885e+239,2.046289188601538524e+239,-5.363450826188160555e+238,-1.574336868012611230e+239
2.719433290789333407e+239,-1.475022460342744619e+239,-2.645780228063121389e+239,2.049069488120389885e+239,2.046289188601538524e+239,-5.363450826188160555e+238,-1.574336868012611230e+239
-1.175299213227256126e+240,6.374830899529686205e+239,1.143467438950207355e+240,-8.855778023283873714e+239,-8.843761976234228309e+239,2.318004842241352982e+239,6.804053214310755105e+239
-1.175299213227256126e+240,6.374830899529686205e+239,1.143467438950207355e+240,-8.855778023283873714e+239,-8.843761976234228309e+239,2.318004842241352982e+239,6.804053214310755105e+239
-1.175299213227256126e+240,6.374830899529686205e+239,1.143467438950207355e+240,-8.855778023283873714e+239,-8.843761976234228309e+239,2.318004842241352982e+239,6.804053214310755105e+239
-1.175299213227256126e+240,6.374830899529686205e+239,1.143467438950207355e+240,-8.855778023283873714e+239,-8.843761976234228309e+239,2.318004842241352982e+239,6.804053214310755105e+239
-1.175299213227256126e+240,6.374830899529686205e+239,1.143467438950207355e+240,-8.855778023283873714e+239,-8.843761976234228309e+239,2.318004842241352982e+239,6.804053214310755105e+239
-1.175299213227256126e+240,6.374830899529686205e+239,1.143467438950207355e+240,-8.855778023283873714e+239,-8.843761976234228309e+239,2.318004842241352982e+239,6.804053214310755105e+239
-1.175299213227256126e+240,6.374830899529686205e+239,1.143467438950207355e+240,-8.855778023283873714e+239,-8.843761976234228309e+239,2.318004842241352982e+239,6.804053214310755105e+239
-1.175299213227256126e+240,6.374830899529686205e+239,1.143467438950207355e+240,-8.855778023283873714e+239,-8.843761976234228309e+239,2.318004842241352982e+239,6.804053214310755105e+239
-1.175299213227256126e+240,6.374830899529686205e+239,1.143467438950207355e+240,-8.855778023283873714e+239,-8.843761976234228309e+239,2.318004842241352982e+239,6.804053214310755105e+239
-1.175299213227256126e+240,6.374830899529686205e+239,1.143467438950207355e+240,-8.855778023283873714e+239,-8.843761976234228309e+239,2.318004842241352982e+239,6.804053214310755105e+239
-1.175299213227256126e+240,6.374830899529686205e+239,1.143467438950207355e+240,-8.855778023283873714e+239,-8.843761976234228309e+239,2.318004842241352982e+239,6.804053214310755105e+239
-1.175299213227256126e+240,6.374830899529686205e+239,1.143467438950207355e+240,-8.855778023283873714e+239,-8.843761976234228309e+239,2.318004842241352982e+239,6.804053214310755105e+239
-1.175299213227256126e+240,6.374830899529686205e+239,1.143467438950207355e+240,-8.855778023283873714e+239,-8.843761976234228309e+239,2.318004842241352982e+239,6.804053214310755105e+239
-1.175299213227256126e+240,6.374830899529686205e+239,1.143467438950207355e+240,-8.855778023283873714e+239,-8.843761976234228309e+239,2.318004842241352982e+239,6.804053214310755105e+239
-1.175299213227256126e+240,6.374830899529686205e+239,1.143467438950207355e+240,-8.855778023283873714e+239,-8.843761976234228309e+239,2.318004842241352982e+239,6.804053214310755105e+239
-1.175299213227256126e+240,6.374830899529686205e+239,1.143467438950207355e+240,-8.855778023283873714e+239,-8.843761976234228309e+239,2.318004842241352982e+239,6.804053214310755105e+239
-1.175299213227256126e+240,6.374830899529686205e+239,1.143467438950207355e+240,-8.855778023283873714e+239,-8.843761976234228309e+239,2.318004842241352982e+239,6.804053214310755105e+239
-1.175299213227256126e+240,6.374830899529686205e+239,1.143467438950207355e+240,-8.855778023283873714e+239,-8.843761976234228309e+239,2.318004842241352982e+239,6.804053214310755105e+239
-1.175299213227256126e+240,6.374830899529686205e+239,1.143467438950207355e+240,-8.855778023283873714e+239,-8.843761976234228309e+239,2.318004842241352982e+239,6.804053214310755105e+239
-1.175299213227256126e+240,6.374830899529686205e+239,1.143467438950207355e+240,-8.855778023283873714e+239,-8.843761976234228309e+239,2.318004842241352982e+239,6.804053214310755105e+239
-1.175299213227256126e+240,6.374830899529686205e+239,1.143467438950207355e+240,-8.855778023283873714e+239,-8.843761976234228309e+239,2.318004842241352982e+239,6.804053214310755105e+239
-1.175299213227256126e+240,6.374830899529686205e+239,1.143467438950207355e+240,-8.855778023283873714e+239,-8.843761976234228309e+239,2.318004842241352982e+239,6.804053214310755105e+239
-1.175299213227256126e+240,6.374830899529686205e+239,1.143467438950207355e+240,-8.855778023283873714e+239,-8.843761976234228309e+239,2.318004842241352982e+239,6.804053214310755105e+239
2.945449135124836671e+240,-1.597613607519370393e+240,-2.865674664965552408e+240,2.219370474001620781e+240,2.216359099962416780e+240,-5.809214607612261404e+239,-1.705182172325664864e+240
2.945449135124836671e+240,-1.597613607519370393e+240,-2.865674664965552408e+240,2.219370474001620781e+240,2.216359099962416780e+240,-5.809214607612261404e+239,-1.705182172325664864e+240
2.945449135124836671e+240,-1.597613607519370393e+240,-2.865674664965552408e+240,2.219370474001620781e+240,2.216359099962416780e+240,-5.809214607612261404e+239,-1.705182172325664864e+240
2.945449135124836671e+240,-1.597613607519370393e+240,-2.865674664965552408e+240,2.219370474001620781e+240,2.216359099962416780e+240,-5.809214607612261404e+239,-1.705182172325664864e+240
2.945449135124836671e+240,-1.597613607519370393e+240,-2.865674664965552408e+240,2.219370474001620781e+240,2.216359099962416780e+240,-5.809214607612261404e+239,-1.705182172325664864e+240
-8.858625627663117497e+240,4.804924545429157711e+240,8.618698834374143060e+240,-6.674897870010701094e+240,-6.665840971040667419e+240,1.747158244421961478e+240,5.128443846292457394e+240
2.945449135124836671e+240,-1.597613607519370393e+240,-2.865674664965552408e+240,2.219370474001620781e+240,2.216359099962416780e+240,-5.809214607612261404e+239,-1.705182172325664864e+240
2.945449135124836671e+240,-1.597613607519370393e+240,-2.865674664965552408e+240,2.219370474001620781e+240,2.216359099962416780e+240,-5.809214607612261404e+239,-1.705182172325664864e+240
2.945449135124836671e+240,-1.597613607519370393e+240,-2.865674664965552408e+240,2.219370474001620781e+240,2.216359099962416780e+240,-5.809214607612261404e+239,-1.705182172325664864e+240
2.945449135124836671e+240,-1.597613607519370393e+240,-2.865674664965552408e+240,2.219370474001620781e+240,2.216359099962416780e+240,-5.809214607612261404e+239,-1.705182172325664864e+240
2.945449135124836671e+240,-1.597613607519370393e+240,-2.865674664965552408e+240,2.219370474001620781e+240,2.216359099962416780e+240,-5.809214607612261404e+239,-1.705182172325664864e+240
2.945449135124836671e+240,-1.597613607519370393e+240,-2.865674664965552408e+240,2.219370474001620781e+240,2.216359099962416780e+240,-5.809214607612261404e+239,-1.705182172325664864e+240
2.945449135124836671e+240,-1.597613607519370393e+240,-2.865674664965552408e+240,2.219370474001620781e+240,2.216359099962416780e+240,-5.809214607612261404e+239,-1.705182172325664864e+240
2.945449135124836671e+240,-1.597613607519370393e+240,-2.865674664965552408e+240,2.219370474001620781e+240,2.216359099962416780e+240,-5.809214607612261404e+239,-1.705182172325664864e+240
2.945449135124836671e+240,-1.597613607519370393e+240,-2.865674664965552408e+240,2.219370474001620781e+240,2.216359099962416780e+240,-5.809214607612261404e+239,-1.705182172325664864e+240
2.945449135124836671e+240,-1.597613607519370393e+240,-2.865674664965552408e+240,2.219370474001620781e+240,2.216359099962416780e+240,-5.809214607612261404e+239,-1.705182172325664864e+240
2.945449135124836671e+240,-1.597613607519370393e+240,-2.865674664965552408e+240,2.219370474001620781e+240,2.216359099962416780e+240,-5.809214607612261404e+239,-1.705182172325664864e+240
2.945449135124836671e+240,-1.597613607519370393e+240,-2.865674664965552408e+240,2.219370474001620781e+240,2.216359099962416780e+240,-5.809214607612261404e+239,-1.705182172325664864e+240
2.945449135124836671e+240,-1.597613607519370393e+240,-2.865674664965552408e+240,2.219370474001620781e+240,2.216359099962416780e+240,-5.809214607612261404e+239,-1.705182172325664864e+240
2.945449135124836671e+240,-1.597613607519370393e+240,-2.865674664965552408e+240,2.219370474001620781e+240,2.216359099962416780e+240,-5.809214607612261404e+239,-1.705182172325664864e+240
2.945449135124836671e+240,-1.597613607519370393e+240,-2.865674664965552408e+240,2.219370474001620781e+240,2.216359099962416780e+240,-5.809214607612261404e+239,-1.705182172325664864e+240
-8.858625627663117497e+240,4.804924545429157711e+240,8.618698834374143060e+240,-6.674897870010701094e+240,-6.665840971040667419e+240,1.747158244421961478e+240,5.128443846292457394e+240
2.945449135124836671e+240,-1.597613607519370393e+240,-2.865674664965552408e+240,2.219370474001620781e+240,2.216359099962416780e+240,-5.809214607612261404e+239,-1.705182172325664864e+240
2.945449135124836671e+240,-1.597613607519370393e+240,-2.865674664965552408e+240,2.219370474001620781e+240,2.216359099962416780e+240,-5.809214607612261404e+239,-1.705182172325664864e+240
-1.180407476278795491e+241,6.402538152948528290e+240,1.148437349933969473e+241,-8.894268344012320395e+240,-8.882200071003083829e+240,2.328079705183187711e+240,6.833626018618121518e+240
-1.180407476278795491e+241,6.402538152948528290e+240,1.148437349933969473e+241,-8.894268344012320395e+240,-8.882200071003083829e+240,2.328079705183187711e+240,6.833626018618121518e+240
-1.180407476278795491e+241,6.402538152948528290e+240,1.148437349933969473e+241,-8.894268344012320395e+240,-8.882200071003083829e+240,2.328079705183187711e+240,6.833626018618121518e+240
-1.180407476278795491e+241,6.402538152948528290e+240,1.148437349933969473e+241,-8.894268344012320395e+240,-8.882200071003083829e+240,2.328079705183187711e+240,6.833626018618121518e+240
-1.180407476278795491e+241,6.402538152948528290e+240,1.148437349933969473e+241,-8.894268344012320395e+240,-8.882200071003083829e+240,2.328079705183187711e+240,6.833626018618121518e+240
-1.180407476278795491e+241,6.402538152948528290e+240,1.148437349933969473e+241,-8.894268344012320395e+240,-8.882200071003083829e+240,2.328079705183187711e+240,6.833626018618121518e+240
-1.180407476278795491e+241,6.402538152948528290e+240,1.148437349933969473e+241,-8.894268344012320395e+240,-8.882200071003083829e+240,2.328079705183187711e+240,6.833626018618121518e+240
