2.571347200039675318e-01
-3.260689779979035752e-01
-2.550085841305810841e-01
-2.317332127385983154e-01
-2.354606711768714167e-01
-1.246138630936917124e-01
-3.575596074994363271e-01
-2.083436290767878007e-01
7.909248797354714866e-02
4.706013643875300856e-02
9.921929195058296069e-02
1.151424293293768983e-02
8.169346087258513855e-02
6.466402639732092561e-02
-3.715126728356477059e-01
-4.198317941955432946e-03
1.297569979901048165e-01
-3.704176604256217281e-02
-4.494030232270689040e-02
-2.362256132981376683e-02
-3.958080941079126364e-02
-8.302245489054055697e-03
-4.928160534955582095e-02
2.149711298575837301e-02
3.392509996634198582e-02
-4.663353441035241603e-02
-2.151228150532615707e-02
-6.428960956286644546e-02
1.140785842080095300e-02
2.827224808642857523e-01
6.984127889204680417e-02
-1.411379033360011248e-01
-1.387705889986030061e-01
-1.415836737499244213e-01
2.829178614265613276e-02
1.823499134763962790e-02
-2.238421548900262209e-02
1.263731889580430034e-01
9.659915377922720370e-02
9.659915377922720370e-02
9.659915377922720370e-02
1.225821707409001371e-01
9.659915377922720370e-02
3.960287965977756647e-02
-8.405614050398364789e-02
5.676910529584763138e-02
-5.716098315045757550e-02
-5.186468752304781299e-02
-3.632568327011455322e-02
-3.340804113208357962e-02
6.359444424727508927e-02
5.383174762072401309e-02
3.657294400446213511e-02
-2.006249205731861635e-02
2.569055961829770987e-02
-2.817266046839145277e-02
-5.136932511520692080e-02
3.210023347543100591e-02
2.428947754459875180e-02
3.742983498449904689e-02
-4.020340694918519975e-02
-2.437341460581687186e-02
5.207116163296767603e-02
2.775861425095765139e-02
-4.413020461960402013e-02
-1.123247671400714326e-02
3.537177956490406006e-02
2.894838922827774972e-04
-4.759569418260473778e-02
2.793917352540652849e-02
-4.703863193129691200e-02
2.023093352838108427e-01
6.920254484967314212e-02
2.799834765714553225e-02
-2.988009645168496903e-02
-6.083497978450948945e-03
-2.968533095171260738e-02
6.025751814510808130e-02
3.221312122449978554e-01
-2.674066032659154143e-02
8.207643470640080263e-02
5.283741356453917210e-02
-1.207294056794894904e-02
6.811803419428471944e-03
-6.498157312553670510e-03
4.329574003228590928e-02
-4.189414191573773844e-02
3.722718582663266107e-02
-2.153103258825772928e-02
-1.654500674432132085e-02
-8.251790866760247423e-02
1.004746682365103769e-02
-1.036033866430835920e-01
4.826839758107299289e-02
3.494975523050138089e-02
2.091573673270919476e-01
6.102760019504765987e-02
7.791993585799458777e-02
7.830166625865216112e-02
-3.083335019106011460e-02
-1.065524212662509324e-01
-5.955847586208484756e-02
2.802117002245938654e-02
1.517562315627946426e-02
6.131107669650766312e-02
-4.212838382226889028e-02
7.441360191168640281e-02
2.334295627817086771e-01
-5.980608690171969333e-02
1.706514336489891315e-01
1.953391289899209793e-01
3.168357359997719946e-02
7.054590316309379550e-02
1.007324958650603237e-02
2.234892981922952104e-02
1.105980772648248456e-01
4.886080423494709724e-02
8.449320608449675807e-03
4.886080423494709724e-02
8.461506030315189830e-02
2.208468778572200003e-02
5.281903052741387938e-02
8.461506030315189830e-02
8.461506030315189830e-02
-3.351340474642677120e-02
4.258426466449512920e-02
2.904606990675699316e-02
3.536946022693236713e-02
5.648288077418765069e-02
8.576675729455222885e-02
8.576675729455222885e-02
8.576675729455222885e-02
9.551266759041715515e-02
-8.103216358335274538e-02
1.215970095902006998e-01
3.334238137218019371e-02
-6.383923175235658998e-02
1.554454453959624484e-03
1.019429597404638947e-02
-1.784080776322083048e-02
5.039745101676769423e-02
-1.238891195201484718e-01
-1.175163533058595916e-01
-3.618992443867287412e-02
-3.017329495955208343e-02
1.663073861474783643e-01
6.878863834376330866e-02
6.993909031143830113e-02
9.248965578537915455e-02
8.294185062789372065e-02
-5.573339449018087366e-02
-1.004448977899757567e-01
3.170330627319609823e-02
4.650873550108323290e-02
-3.610322700970309412e-02
-3.610322700970309412e-02
-3.610322700970309412e-02
-3.610322700970309412e-02
-2.977619756026995274e-02
1.555518738286454372e-02
2.825647669990025840e-02
-4.884621116878630487e-02
-8.134256742477331825e-02
-3.252434449057767935e-02
-1.504333573669814836e-02
-1.532769721264270503e-02
-3.409906166263659832e-02
4.543470558273642046e-02
1.582461667849130449e-01
1.634847033735921107e-01
2.332296740247241651e-02
1.980390472872276542e-01
4.978043855222744063e-02
9.727113590706512603e-02
1.120689322788505707e-02
1.116264479777305113e-01
-1.551028993865904981e-02
1.116264479777305113e-01
-6.039637919307483394e-02
-4.461945555151407977e-02
-1.812413138815263322e-02
-6.505651899263528715e-02
-1.411077835177852215e-02
-6.072777730105553134e-02
-1.632261776646726920e-02
-5.133852689213001808e-02
-1.517932068225365250e-02
-6.102604136105761745e-02
7.374340486386347926e-02
4.219494154001877939e-03
-2.512114111629729779e-02
-1.449490365791971476e-03
-1.117161120288762133e-02
-7.374289883425887149e-02
4.763746881432445734e-02
6.734068505537089792e-03
1.665560365954875085e-03
-4.924221048415704238e-02
1.490943543737731011e-02
3.689342406221902959e-02
4.108676269609138308e-03
-3.843695838226323519e-02
6.256091383236808690e-02
4.381944905831192116e-02
-1.135675070964084210e-01
-8.385648391463332296e-02
4.871348384738417511e-03
-2.576409510406234629e-02
-1.769820396789267142e-02
1.093519510069221844e-02
3.349448456694899268e-02
-1.298181785177371286e-03
-2.513923984952794524e-02
-1.369436095635550091e-02
6.223889784194441832e-02
1.598888852209072453e-02
-2.893551690868934739e-02
2.297333945265657082e-02
-2.124785180098894694e-02
-9.871999606484787096e-03
7.723634051608123385e-02
3.969873703219893579e-02
2.786129222435488814e-02
1.616205011256416357e-02
1.959653367837329435e-02
-1.211321712153339870e-02
2.444517463313416669e-02
1.478956178245457651e-02
4.291406033432065142e-02
1.576308118013441256e-02
-5.085963138199060471e-03
-1.347861170034498901e-01
5.753627713197460164e-03
-2.603892712888703376e-03
7.389211834669525900e-03
-7.773598197357928230e-03
1.788881987356264261e-02
-1.643790366613017946e-03
-1.195920170118408739e-02
-1.003602216301520411e-02
9.131684186328606345e-02
4.937439381880160544e-02
9.322790163163697033e-03
1.053172542620628774e-02
-3.038647067620885134e-04
-6.197775804096345049e-03
-8.756644871785627254e-03
-7.477605032527839812e-03
4.767295404379580555e-03
-8.099793149690850957e-02
-1.002841817518028075e-02
-4.541910390049963553e-02
-4.541910390049963553e-02
1.766661834870120878e-02
-5.162637228084957647e-02
-2.542605918068633480e-02
8.472776843362794796e-02
-4.054410791602226782e-02
-2.026696080806057298e-03
3.248138278744276686e-02
1.148743561743435435e-02
1.860469631896987525e-02
-2.507890605800566775e-02
-1.656389372445953717e-02
-2.172056323068545167e-02
7.302002324642092868e-02
4.523072743105445437e-02
-3.461919997952059291e-02
1.377423655049326845e-01
-4.066757209618176820e-03
2.153260988619282446e-01
-2.064144955629721931e-02
-1.060120770551299385e-01
1.383470844399942445e-01
-1.726661272715975318e-02
3.460691124513764344e-02
4.056699772563323453e-02
-1.009492409741266500e-01
1.820397367603995009e-01
5.684576200235751109e-02
9.331080546412420795e-02
9.331080546412420795e-02
1.330026712115628951e-01
7.716668638901963417e-02
2.238186947482985467e-02
-4.967486377116485732e-03
-1.168344718671451010e-01
3.419389799228130661e-02
1.220749505960591098e-02
-2.497945346534962141e-01
-5.751634933776434040e-03
-2.057378575394295736e-02
-1.139530166221901925e-01
-5.737045802096742142e-02
-1.423457075711892852e-02
-7.426637586122285077e-03
-2.640048697386334492e-02
-2.106064152380726986e-02
-2.511059568485236176e-02
8.804515102242440813e-03
-1.133784217513978711e-02
5.928070393950860342e-03
1.323264461933413606e-02
-1.112087324274186988e-02
4.767196567109109606e-02
3.059144924130483695e-02
2.204268156688995658e-02
1.637705982542459263e-02
1.765680478401189524e-02
-1.260852097608594277e-02
8.060985528006506251e-02
-6.773739662198086271e-03
-9.593866952683353586e-03
-6.980722419682877655e-02
1.967326391058313653e-02
-4.422020804126383653e-02
-2.727528519890504675e-03
8.118285496595600620e-04
-1.245926234749315450e-02
-5.339339602884043273e-03
-1.144401806340556230e-02
3.458264816323211588e-02
-8.787071407479568608e-02
-1.413920518393975076e-02
1.063074268677359317e-02
4.445725495420565013e-03
-5.240662519886271284e-03
7.674259428909967207e-02
1.520457580650366181e-01
2.584934021808331095e-01
1.774961280282764606e-02
3.154219075336300339e-03
2.261740142632806538e-01
7.120712536824473637e-02
-4.532768137112404977e-02
-4.532768137112404977e-02
-4.532768137112404977e-02
-1.314265943763334166e-01
1.377256623009269834e-02
-2.196716506639341624e-03
-2.417727748114232439e-02
-1.881070112889456775e-02
2.182636273554955722e-02
-1.637050853910237969e-02
-6.471033320919179418e-03
-8.621771636235461833e-02
-1.668719755720807219e-02
3.635214658410089450e-02
-2.117701836110525565e-02
-1.756468961004905432e-02
1.138542227124992971e-02
-1.252774451659113483e-02
-1.787823830132043200e-04
1.804266026660373678e-03
-1.658660127494495512e-02
3.478407117731699416e-02
-1.539968224452623394e-02
-2.328555515251990934e-02
-5.414516700159850704e-02
-2.430685143719093014e-02
-3.475497150231431770e-02
1.977797494959915997e-02
-5.264223115834090532e-04
-9.186408272325438315e-03
-4.223103390249995093e-02
-3.193321611739857041e-02
-3.842529331780483726e-02
8.182975284041960409e-03
5.280907947618343002e-04
-2.719039275721148521e-02
3.835573876261434614e-03
7.882141161064889351e-03
1.609181755145414061e-02
7.008977191934205944e-03
-7.108365884625317613e-03
-5.221749548775593899e-03
-1.644911457362124851e-02
-2.408897210873360561e-02
-1.122736502484564594e-02
-5.802453475613226705e-03
-5.802453475613226705e-03
1.530236863386127098e-02
1.901841952672821828e-02
5.444015100829539128e-02
5.444015100829539128e-02
-2.968903740587218107e-02
-2.968903740587218107e-02
7.171173995769931919e-02
-3.366582845085434872e-02
-7.464054942895366300e-03
5.314748714747339654e-03
-1.784319792923569695e-02
1.051059542754824855e-01
2.205952648781726172e-02
-1.116305896889257382e-02
-8.257296468702958470e-02
1.182955537814215329e-02
-1.464567101971382679e-02
-1.107667052009791708e-01
-2.754040673078024873e-02
-3.301672569964062692e-02
-6.749254779702636153e-02
-1.322426751001289959e-02
-7.399698031863152781e-02
5.669735376898123874e-02
-1.183275378619005370e-02
-1.183275378619005370e-02
-1.183275378619005370e-02
-1.183275378619005370e-02
-1.183275378619005370e-02
-1.795643017080611817e-02
6.532158766592946822e-03
-3.771770529923992865e-02
-3.771770529923992865e-02
-2.208951634295728151e-03
1.267507085961919536e-02
1.389892694706236775e-01
-1.729469282441645130e-03
-9.511207045770020407e-03
9.781820396159266080e-04
-9.511207045770020407e-03
-2.220065675872820096e-02
1.297597369868054530e-03
2.349825412859626525e-02
2.349825412859626525e-02
1.080880441563807602e-02
2.187393589266636851e-02
4.784137255913497797e-03
-4.010201785790657933e-03
4.784137255913497797e-03
-1.061303120329183496e-02
-4.010201785790657933e-03
-8.634817202842790668e-03
2.125564247505234705e-01
9.550686626623723641e-02
1.111556473869518974e-01
1.111556473869518974e-01
1.998938825119700169e-01
1.487505709705617095e-02
1.785082249213584826e-01
3.609297039515497324e-02
3.401827968928448215e-02
-3.917609144966616858e-02
-3.529466406591667826e-02
3.829200276851506268e-02
1.907261053371735876e-02
