6.994649830885844022e-01,6.473924982007808748e-02,-4.212788244522051861e-02,-4.570565014492207478e-02,7.687917783592092269e-02,-7.189122885928608819e-02,9.657514606524496281e-03,2.465558423414075662e-02
-4.082337313197392618e-03,1.182387676314165664e-01,-3.361082615914540335e-03,2.045888869893766615e-02,-8.569800038135321971e-04,5.873467096565203327e-02,-8.094078745659451929e-03,-2.656280497442193894e-04
-4.505168820179640543e-02,2.168143434503031486e-01,-2.819661083270703222e-02,-1.379148570975384557e-03,-2.912554021707327440e-02,-2.309487409115748568e-02,7.200310215912067435e-02,3.175701716920754708e-04
-4.245028887252656064e-02,7.583878073777168549e-02,2.165346041000167088e-02,-1.189826782434874608e-02,-4.969090981121488870e-06,-2.785136725025780247e-01,-8.012540792290745234e-04,1.495094932985456051e-05
-2.211980074266616664e-02,1.412100507276338734e-01,7.554726069588432735e-02,8.174523556907575123e-03,-1.585348014693715741e-03,5.717948501088476743e-02,-6.322868194280172049e-02,2.783491578515677012e-04
-8.148885020427223957e-02,5.146534650059447769e-02,6.737290373570425928e-02,1.962436768237338890e-03,-5.553885411531259749e-04,1.781025465049626000e-01,1.532412098554187304e-03,-2.993681007216612063e-04
-5.586984527993959018e-03,6.694707646012496016e-02,-7.525779646440357296e-02,6.457987379401734958e-03,-1.121364043818408665e-03,2.632507379004402764e-02,5.854009002736375658e-03,-8.640002248725975071e-04
-5.234130294412058237e-01,2.602102220656817289e-01,-8.362678386086888627e-02,5.323399363576062845e-03,2.724899206706198757e-02,3.787342505370597766e-03,-3.999868816848470114e-03,-2.536250127524613033e-04
-1.951549013731125881e-01,1.064008994682985876e-01,2.184605461618086830e-01,3.351165414725423841e-03,-1.155059168430014023e-03,4.597992714293109434e-02,1.042995816258566327e-02,-5.865849022958895004e-04
-2.280764726999134628e-01,3.030348710602879247e-01,4.995268091820546097e-01,2.159517152264033013e-02,8.498404077174862849e-07,-8.794925022627006483e-02,-2.464627722882866464e-03,2.832126491770274807e-04
-1.968628968768390275e-01,1.530477991176605046e-01,2.013120113883303808e-01,-5.014415145305783396e-03,2.768314356645761986e-04,1.870106457640273445e-02,5.235079360816933744e-03,-5.868136110713139319e-04
-1.724389126157927776e-01,4.213422953685611039e-02,-1.768566484564597710e-02,1.084711305929086239e-03,-2.938510211405650227e-04,-3.383176652847907223e-02,7.773519373889941362e-04,-2.515438548096719891e-06
-1.038012110025073598e-01,4.807791259595398103e-02,5.208116559439172205e-02,-3.016811859491978429e-02,2.939740752116782631e-04,-2.773455097316000414e-02,-9.082334013408349584e-04,5.804139388599239419e-04
1.793085100602382839e-02,2.386837437043419843e-02,-1.446123415952461910e-01,7.746336458785736331e-03,-2.979926984428773887e-04,3.294303051518250591e-02,2.006541055451342877e-03,1.075648663985797976e-05
-1.235781634843230864e-01,-9.219676383337630302e-03,4.533022815702025116e-02,-3.585965527721819007e-02,-2.856760318760399008e-06,1.581520561011136956e-03,5.154826562633636235e-03,9.930246226479880580e-07
-1.660483173866047768e-01,1.668271146032802577e-01,1.061236135940456932e-01,5.187209048982528020e-03,-5.843909789813596899e-04,-3.749273656321181619e-02,2.597559419399968466e-03,9.565462493376469236e-06
-1.472680116347479563e-02,3.069940277587015348e-02,1.620432432285869723e-02,3.945752914607418560e-02,2.802096324261951765e-02,7.684097696313434145e-02,-7.222052967808559494e-03,-1.638978277974747957e-03
9.242583244878471715e-02,5.395697577831407715e-02,-1.876926826468452159e-01,-1.336928674004860852e-02,5.704952055208215445e-05,-4.526787039432794008e-02,-4.501899558000353567e-03,-2.001920048112219303e-06
-4.209477832894225474e-02,-3.489527854991687078e-02,1.998579421337915718e-01,8.132967327857315576e-03,7.026280178167775051e-06,-5.866317158063209108e-02,-7.639129806021804914e-02,2.950774657927524394e-04
-1.015285729854731658e-02,-4.208685185779301174e-02,1.962552343694575208e-01,1.706408101504181332e-03,-2.620087410409446338e-04,-4.931943238155740705e-02,-7.518333593767531631e-02,3.027143801278609262e-04
-1.527686350400696627e-02,-3.049964514023045109e-02,1.852421322922597757e-01,3.022980871213092752e-03,-2.988762598331054331e-05,1.907768727449326018e-01,-6.971981864594006817e-02,-2.854967607551916337e-02
5.625010198827951058e-02,-2.890452880386389783e-02,2.293511826172893731e-01,-2.925772496397449629e-02,5.885417846063972563e-04,-8.746931540344546341e-02,-8.153875745926995877e-02,2.811996598883559698e-04
5.789580391815664084e-01,-6.975108218387533580e-03,-6.468564961434039584e-03,1.158113705297998675e-02,-2.878762470268388801e-02,9.339966860420639144e-03,2.803423046054380995e-03,-5.430044459755777909e-04
1.970251165429750539e-01,9.826765046811151635e-03,3.184444622143998982e-02,-4.558603808880795291e-04,-2.972877505254262870e-04,1.576077699614252328e-02,-7.394645705805854988e-04,-1.876667894289091464e-05
-2.006895825988873894e-01,2.724013418257830166e-01,-3.369924771302051231e-02,-5.486203637486574206e-03,-7.889376176043662206e-05,-6.335834353341640579e-02,-7.544666163563539451e-04,2.730132533734317833e-04
-2.490454104433987848e-01,1.816935098827658357e-01,5.965502725273513773e-02,7.043181059759012763e-03,1.109533789142073306e-03,6.052860969762574594e-02,-9.414164107716171959e-03,-2.789527077844153953e-04
-2.396147994719732832e-01,1.842479761595866294e-01,8.856215248948604013e-02,-1.637426327809653540e-02,5.392775927200758272e-04,1.461673908877264907e-02,7.139005148206380028e-04,4.942052174666188049e-06
-4.019027208848961752e-02,7.074236245181142468e-02,1.078177126714769535e-01,2.287499617154531168e-03,-2.437129544940564525e-04,6.513660470726033783e-03,-4.828079549120558797e-03,5.610680337264190801e-04
-5.225987006008483288e-02,-1.479270108021022156e-01,1.761242904974280599e-02,-1.653030258377546219e-02,-5.452660932888907241e-02,1.317383443615227114e-02,1.991666707349248333e-01,-7.615957755562770791e-04
-1.123659574384768683e-02,-2.229524649801551683e-01,-3.133929927135708365e-02,1.060672181213078965e-03,-2.576268262786388097e-02,-2.921639713247225351e-03,8.228060409025364508e-02,1.744653838320685705e-05
1.231729777645083901e-01,-1.101470582347317470e-02,1.921038318099047015e-02,-1.290353760336157909e-02,-1.097550198687902373e-03,-9.759159177680708577e-03,2.362354984087811777e-02,-2.857457856253807146e-02
1.405656050139839075e-01,-1.349147320167332596e-02,1.803245647348579797e-02,-2.144264562140143354e-02,-8.210372632590345193e-04,-7.418936234625798931e-03,-6.039434536723229524e-02,2.825296635757030715e-04
1.405656050139839075e-01,-1.349147320167332596e-02,1.803245647348579797e-02,-2.144264562140143354e-02,-8.210372632590345193e-04,-7.418936234625798931e-03,-6.039434536723229524e-02,2.825296635757030715e-04
1.405656050139839075e-01,-1.349147320167332596e-02,1.803245647348579797e-02,-2.144264562140143354e-02,-8.210372632590345193e-04,-7.418936234625798931e-03,-6.039434536723229524e-02,2.825296635757030715e-04
1.239411148713337740e-01,-2.301540051403827905e-02,-8.818700196941479247e-03,-1.908211547375172901e-02,-7.930983706178390460e-04,-8.707986488937936170e-03,-4.986880245359506109e-02,2.829859863015925106e-04
1.405656050139839075e-01,-1.349147320167332596e-02,1.803245647348579797e-02,-2.144264562140143354e-02,-8.210372632590345193e-04,-7.418936234625798931e-03,-6.039434536723229524e-02,2.825296635757030715e-04
4.297895618881524687e-02,-1.455785611604356634e-02,2.231010514370049963e-02,-1.622733744948477025e-02,-8.126360142112386753e-04,3.000817121673097707e-02,-5.688177551824664946e-02,5.707643530546149205e-04
-1.322383655509552433e-02,-2.342164336473483710e-01,-1.916031739828777947e-01,2.140183703537214266e-01,-2.313659379570032497e-04,4.215647107990069115e-02,-5.967181318188201355e-02,-1.078495972786554929e-06
8.594758389413453825e-02,1.290813998266940169e-04,4.119101452778093503e-02,-3.588906972513966707e-03,-1.690944829096620349e-03,-1.139155035616596680e-02,-5.430844982776613511e-02,2.835144055337870624e-04
-6.336755719067506398e-02,-1.466863762547148189e-02,2.253985864716474656e-03,-6.571373733275748426e-03,5.375098069840692286e-04,3.172818940238771313e-01,-2.255540253433444345e-02,-5.666363872649588440e-04
-3.069874398411490124e-02,-3.474701216929834691e-02,-1.250809403073115111e-02,3.242816845622562786e-03,2.470187197512711146e-04,3.422760655103769256e-01,-1.821198485249361440e-02,-5.657829985818594795e-04
3.313098842401401845e-02,-4.128306316343003518e-02,-1.189988651790507487e-02,-1.954676577600163861e-02,5.491305903614318281e-04,-1.443313035070802608e-01,-2.220790977684876030e-02,2.882849388598033441e-02
2.812608354967452429e-02,-7.220769016217744307e-02,-3.837787712071304147e-02,1.579709087828601866e-01,-8.831464362761540015e-04,1.383723665761937283e-01,-8.772508000229681246e-02,3.082180379949581089e-06
9.252623999990172710e-02,1.509641074284986950e-01,2.053705909820852660e-01,1.997024666000976265e-02,1.776750984914724670e-05,-1.457680305805830190e-01,-2.028237278921159181e-03,2.841709844719155940e-04
6.968739008143255698e-02,1.293432927970161184e-01,1.219556884466185681e-01,6.714629313621862591e-03,6.001652572125964341e-04,-1.784634403324946161e-01,-1.568982440553855131e-03,8.257837198728440247e-04
-7.017917936135270596e-02,9.848776931699708415e-02,3.849478655943983640e-01,7.059846254359099585e-03,-2.908202994412228590e-04,-2.333030535902094194e-01,-4.493681975284133422e-04,7.928334342218606740e-06
1.613578916730911555e-02,-2.172333904380029015e-03,2.458747324275065843e-03,1.952428444123711568e-02,-7.138742148087274489e-05,-8.136495156555685615e-02,9.224886642251780688e-04,-1.079284195545550688e-03
8.730698637828286646e-02,-3.993502243673820173e-02,5.502535473357811346e-02,-3.481425943896566955e-02,2.855868442275614474e-04,-3.548309036666297961e-02,1.224703199282928213e-03,2.081742036196778385e-06
-8.295799486125365885e-02,1.886912751549021244e-02,1.189034314576684903e-01,-1.297932672896809879e-02,1.086590019113895826e-05,-2.970939203807297993e-02,-6.618015344378259945e-03,2.933631888417210587e-04
-2.309995962290834481e-01,7.288829891955081464e-02,2.634621239689766137e-01,1.228817811901405585e-02,2.864498773746956091e-04,-1.001543941878034472e-02,-5.359073130864837851e-03,6.122870440785697375e-06
7.527303283621322727e-02,2.336326871683794618e-02,7.416351605712251036e-03,1.222397256475919215e-02,-1.440807730906648522e-06,-3.322945618057018130e-02,-4.121861940538063332e-03,1.306799721728471703e-06
5.556353421456662611e-02,2.815689178540684706e-02,2.857745872871210284e-03,-3.076600556492510921e-02,5.370201317515842839e-04,-2.162937708008835433e-02,-8.233670064530657084e-04,2.613277233092473563e-05
-2.878982370773256957e-02,-3.748808786520781838e-02,-7.074405694244635667e-02,2.528739379005191454e-02,5.396434074465995953e-04,-6.669534301966739340e-03,7.337029665181261928e-02,2.778696403966457928e-04
-1.992906114187265043e-02,-7.329241821470192098e-02,3.806656845895697860e-01,4.104733200129688508e-02,-5.698151025661905584e-04,-6.698195452892488633e-02,-1.251551182311905425e-03,-5.282474760356055125e-06
-1.029057861260390151e-02,-3.969816793778172676e-02,-9.786215935243304520e-02,2.830303903543563565e-02,-2.673483992287258590e-04,-7.444763712008974424e-03,2.644345145566113619e-03,-5.340556127936094165e-06
-3.341386660349041776e-02,1.669484725022254978e-02,3.709335388356356511e-02,-2.427268572146527303e-01,1.242525103560498291e-05,-4.903527489084637953e-02,9.454563512275163117e-02,-5.351148368623372639e-06
3.190969362644751478e-02,-3.542608244627548642e-02,4.217672843161205526e-02,9.323340985061158437e-02,-2.799280854626225515e-02,-3.876123053177033678e-02,2.005700181281301186e-03,2.801772037954012337e-04
1.330597633146940462e-02,1.494052439279149325e-01,4.179571974803636403e-02,-9.729525055838012318e-03,-2.622398141671731950e-05,1.366808090412972333e-02,-6.508352829431647731e-03,4.656172936201353780e-05
-4.422325394008121136e-02,7.553787898602393192e-02,-5.034196102562357028e-02,5.378974774847587910e-03,-5.880680789881040024e-04,-2.890884948039698643e-02,-1.681061553139996776e-04,3.430928492556598122e-06
3.263013995283130242e-02,-3.149755480977200345e-02,-8.341934173898478411e-02,-3.912278772977705044e-02,2.861706930249102027e-02,4.272152697402729904e-02,6.466978514800681213e-03,-5.961187354010953534e-04
1.550786728948507637e-03,6.582122953341149052e-02,-1.601012479779623798e-01,-1.105067611501290518e-03,3.291195511294714372e-05,6.397532676465074453e-02,3.941996279852529733e-03,-2.892365135014753077e-06
-1.342511762992546764e-01,7.725874778697644496e-02,1.104120098553249690e-02,-1.380234469410902484e-02,-5.820902615184742534e-04,1.109017043384079859e-01,1.254832040717670724e-02,-2.844272596749812987e-04
1.813618334982771210e-02,3.263073845637147995e-03,7.407777936567887245e-02,-1.006418359005792004e-02,2.725144398763873358e-04,-4.859862743979512928e-02,-2.849923348115680245e-03,1.971231747786311631e-06
-8.800488647217774574e-02,1.360803012339035015e-02,1.508319027242027363e-02,4.845753859838855884e-03,2.451313756348212029e-04,-1.642557803269207098e-02,-4.428728031135155049e-03,-5.872559165484554832e-06
2.981082395907271865e-01,-7.089055034141029943e-02,-1.124417947170709524e-02,5.853538104272029002e-02,4.467405294354124981e-04,-1.209627067550503657e-02,-2.866883954181797048e-02,-2.677243975074253051e-04
6.697100790166209128e-02,1.839168203251605530e-02,1.196977948148588225e-02,-8.053559918254927022e-03,2.203105732010523338e-04,-6.573242038149636202e-03,-8.827257692878181291e-04,-2.828445092553824700e-04
2.324059167140126239e-02,1.364430258628387960e-02,3.102889027628917551e-03,2.191417168996290937e-02,-5.453272679298166439e-04,-2.352689188367721850e-03,-6.814477530665119910e-04,-4.150020363591353869e-06
-9.050722273049134625e-02,2.020485881668590833e-01,8.108341072697814594e-03,1.388437577305964496e-02,-2.860573219132182929e-04,1.009012300745609422e-02,8.871752171251965410e-04,3.988911360319076212e-06
7.980392341479597418e-03,-2.975248439447091345e-02,-2.942133118998224717e-02,-1.864193316450022102e-03,-5.585500477751416957e-04,1.097295803592622798e-01,3.581959699046247114e-03,-4.867516968685004987e-06
-2.278737197770245027e-01,1.698325008622925680e-01,2.042378737181783574e-02,-1.026840680578971002e-02,2.987539218257617918e-04,2.702540040143248251e-02,4.203181347031343176e-03,-9.316472791509351143e-06
-7.194442035314815853e-02,3.882315229065940732e-01,-3.018978815789813159e-03,3.741762518099115082e-04,-2.882710600243784671e-02,1.009460633898667629e-02,1.761930551729061728e-04,1.334154887100454265e-05
4.228272095548644138e-01,1.271619346096919401e-01,2.596443068029726658e-02,-5.030105603553046076e-03,-2.146514966033504467e-03,4.370822159944825515e-03,-1.290570737674795812e-02,-2.750833865218564817e-04
-4.256888074623154522e-02,-6.670819386738909007e-02,-2.931560451780221288e-02,2.806486888099090499e-02,-2.939769064669402535e-02,-4.195450272947252590e-01,7.918774426896665886e-02,2.831018768627643206e-02
1.248998575745545320e-01,-1.139073971600537971e-01,-8.145938167895991344e-02,-9.607182148179464060e-03,-2.829485959422203128e-02,2.457730020267338278e-01,8.198344259722761818e-02,-2.958055009958053929e-04
7.734685805318289309e-02,-7.245947868329052910e-02,2.915971677180814736e-03,-1.316482189553671786e-02,-2.718743342292116033e-02,-4.455781672364567472e-03,7.030892891203267825e-02,-5.557485383143766959e-04
1.953826282467134232e-02,-3.000090118602681891e-02,7.980611714772742338e-02,1.034591746915706906e-01,-5.664752038384692021e-04,2.034705996258468763e-01,-6.345597074957329276e-02,-2.798950235623292107e-02
3.084474443360720602e-02,-3.650837348763285445e-02,-2.463415465404015028e-02,1.692320906570275452e-01,-8.581287800445194227e-04,-2.385992319642675774e-01,-6.927528478051851735e-02,8.441862869445884493e-04
3.425591350965459525e-02,-2.296424628199240231e-02,-4.710202162089092287e-02,1.670737537002341122e-01,6.465041498227319411e-05,-7.558853004372378948e-02,-6.095277643976552973e-02,3.009907430430201281e-04
5.994867956681000642e-02,-7.479750856249754547e-03,3.004903870565458351e-02,6.463171663627458041e-02,2.440935436258947296e-04,-6.724697707271520830e-03,-1.427276798181560148e-02,-1.244460428914116400e-06
-1.977246174278796120e-02,-2.965036089615026224e-02,-6.470933772856549138e-02,4.197388322249758635e-02,2.900182450791873728e-04,-2.665025400217500753e-03,-6.127192277999798584e-03,2.197042744146448118e-05
3.400681786512883137e-02,-2.876651535403194557e-02,-4.153413165598628803e-02,1.023590863852891567e-02,-2.534947578679083019e-02,9.612176387897938823e-02,-3.701888496256665328e-02,-2.746604868925663426e-02
3.567520428349720690e-02,-1.644747793780267087e-02,6.133241217324952518e-03,1.989834298415921535e-02,2.719082058456067405e-04,1.804172024193649191e-03,-6.631669138018615392e-03,4.808803275095827103e-06
2.158378683447759877e-02,-6.115303631061769565e-03,8.644243440413795082e-04,1.366936840195041858e-01,-2.772750400117053246e-02,-1.050945869191717702e-01,-5.835949264357041463e-03,5.078016615488961781e-06
-3.415140982000364894e-02,-2.526563202854061746e-02,5.564508885865529497e-03,2.543826811748080008e-01,-2.195008724581403288e-05,-4.568463359338799379e-02,-9.420763299075889108e-02,-2.692704114779458481e-04
9.197468265345792870e-02,-6.569757437023498840e-03,-5.391764188863345381e-03,1.745614778773006137e-01,-2.798216871054804919e-02,-3.003524903559840961e-02,-6.867627963810629677e-03,-2.975044359473265538e-04
-1.656934291111352153e-01,4.137448027781561594e-02,-3.389345216887275358e-02,5.486780780801007312e-02,3.523257478896561315e-07,2.580098712476941447e-02,-7.732689295435364596e-03,-2.977566780806847955e-04
-1.149343311060328221e-01,2.270535668867237344e-01,-1.415912464357010816e-03,-1.810550584542420516e-01,2.882859521583207990e-02,3.631351895992446233e-02,-1.924161863819243211e-04,1.784436652150853803e-06
-1.046263796186003292e-01,1.976124751915107336e-01,-4.853313012828560855e-03,-1.605577541151200771e-01,2.772343217283498168e-02,-3.164308911852795059e-02,3.583699030806026219e-03,-5.533243702573898554e-04
2.328480744346233811e-01,1.908552798129030670e-01,-2.740960988803644444e-02,-1.568967193230240975e-01,2.820743775371724674e-02,-3.745575846942644782e-02,-1.037440013016707394e-02,8.982296977444365239e-06
-2.190169486642792179e-02,1.194088254809951427e-01,3.490431912685650149e-03,-6.938837208224055142e-02,3.155293102871134883e-04,-2.350692064959063882e-02,-1.313814689106971309e-04,-7.489375028634485563e-06
1.092386496620190162e-01,-7.255360149213921361e-03,1.767657295238457549e-02,-4.330357487180085119e-02,5.010658158729262672e-04,-9.507362204345032319e-03,-8.388986389814925837e-02,1.392390758978099371e-06
1.477984341474949392e-01,-3.437463884720683149e-02,1.444514471239422525e-02,-1.560313581068263275e-02,9.540410658215630257e-04,1.976384941861295333e-02,7.529476380907877946e-04,4.733420729486900800e-04
-3.306910481887347097e-02,-1.886851680782090923e-02,7.451801849086564164e-03,8.414485736440219243e-02,-2.126179995193631239e-03,-7.214870455798241822e-02,-1.200451018567155140e-03,7.958744803537521261e-04
-1.569437001969129636e-02,-2.945876527132169076e-01,3.633685192018458743e-01,8.038499774924692809e-02,-2.800287238742771995e-02,-6.519441774985809419e-04,8.657848901445060414e-04,1.563787494465105872e-05
3.057736874954558592e-02,-1.947009874285254571e-01,4.468363801692732951e-01,-8.928319527402117303e-03,-2.854043409236558387e-02,-5.075082878482565368e-02,-7.817280984103860270e-03,1.092991245163060302e-05
-1.658629778307750546e-02,5.139268316204932685e-02,-3.400926602292311807e-02,7.578048592210626447e-03,-2.828981844103990381e-02,-4.606292005796808892e-02,8.125540643820718112e-02,8.049558669435813565e-06
-8.691643803663409024e-03,-9.080244421031924071e-03,-4.337675580836538453e-02,6.385618926568239692e-03,5.013330826782059487e-05,1.093357297247020271e-01,9.081426844403201956e-03,-2.894995554019991592e-04
1.057774622052938263e-01,-6.270813717478458671e-02,8.417849486731129177e-03,-1.320334285938575859e-02,-1.335798090088048586e-03,3.083452064516346153e-02,6.725094971021102971e-03,6.880737648150765322e-06
2.219852491434471525e-02,-5.457767131478787059e-02,7.459636318492444962e-02,1.611201115755745567e-02,-1.696546598708696067e-03,-7.212212882902371835e-02,-1.156894589963260210e-03,2.710716430399792430e-05
1.629464450126301076e-02,1.096039875857945586e-02,-2.175496367734798542e-02,-3.969264235519366357e-01,5.736590368263828899e-02,-1.161985132647659277e-02,1.532998542416766884e-02,2.760305393168588839e-04
2.465054431794549417e-01,3.422300618444754691e-03,-1.970851103714858499e-01,5.048062900661771935e-02,-5.760326322212368190e-04,1.234254077652854539e-02,6.686109858502993497e-03,-4.523622538140645161e-06
1.513186611771056844e-01,-4.942122113372172075e-03,-1.335964238870080978e-01,5.154660240376944536e-02,-1.064730493043393716e-03,6.775230064977188701e-03,6.030391038780802751e-03,-7.601984234497497604e-06
2.051841442780765468e-01,1.103301527226689845e-02,-9.458468215225754316e-02,4.767636608103915929e-02,-6.092952937824393884e-04,-1.492211138589327312e-03,-4.320472882998757994e-03,-5.946831542699435586e-06
2.624809496230208761e-01,1.273939511373416156e-02,-1.638691694555008960e-01,2.754558899517888654e-02,-5.862455526600334008e-04,2.504338404386239475e-02,-7.143377136372336400e-03,2.867994288949640485e-04
1.017297249666273551e-01,1.024568088689095102e-01,-1.536060040859991704e-01,-3.187850460830825294e-02,-3.366993361167736109e-04,2.394644107695815833e-03,-1.864379956291773582e-02,-8.265392273619764094e-04
7.125871816297449368e-02,-1.039182791393666871e-01,2.112652129549314958e-02,-8.440684106484274904e-04,2.840518663197011515e-04,4.072610269738034154e-04,6.225885607905169358e-03,4.870681072172187148e-06
-4.809464223536788312e-03,-2.949146781492435060e-02,1.304805340387005588e-02,1.685733988620532336e-02,-5.315782688468342248e-04,-1.454682059778884817e-02,1.357680776255210109e-02,9.283245153457292027e-06
1.384649078728727480e-02,2.435918184496646891e-02,-6.918847090513501052e-02,8.589362110753344381e-02,8.871298548814594148e-04,4.013370758543989558e-02,-6.711353140872890199e-02,2.597798845648408299e-04
1.257553732582508688e-01,-7.387515725967577600e-03,-1.392398581488473730e-01,-2.748825527183022463e-02,5.114163196363152430e-04,-1.020807113572054156e-02,7.485099856589252920e-03,3.891982904458634453e-06
-8.292357009931859702e-02,-4.377370110148269544e-02,8.399392907042206591e-02,-2.237575656538629693e-02,1.048332683514884359e-03,-3.992846520221247919e-02,-4.316422683407815028e-03,2.777367980296366204e-04
7.758626024887171901e-02,-2.403841065389370618e-02,-7.205994221574824055e-02,-1.989150803732134959e-02,1.176451744852078469e-03,-1.295695378233133709e-02,-9.166936797724772185e-03,2.669593324363847249e-04
-8.292357009931859702e-02,-4.377370110148269544e-02,8.399392907042206591e-02,-2.237575656538629693e-02,1.048332683514884359e-03,-3.992846520221247919e-02,-4.316422683407815028e-03,2.777367980296366204e-04
1.423798634009008912e-01,2.136411586397386764e-03,-1.123887014784199778e-01,-2.984878541947992917e-02,4.834774269951196612e-04,-8.919020881408400853e-03,-3.040443057047972127e-03,3.435660178569216892e-06
4.088400717493107656e-02,-1.190890787434577963e-02,-1.158454321530564234e-02,-2.498403483523215299e-02,5.286419867030890760e-04,-7.237390627919348951e-02,-4.992623992610012267e-03,2.844010957946438000e-04
1.664763444048924235e-01,-2.097785913421989362e-02,-4.072213531757137850e-02,-3.375755559733304573e-02,-1.907985580133965669e-03,2.106657985011185785e-01,7.322763595232503753e-02,-2.746234913432779590e-02
1.423798634009008912e-01,2.136411586397386764e-03,-1.123887014784199778e-01,-2.984878541947992917e-02,4.834774269951196612e-04,-8.919020881408400853e-03,-3.040443057047972127e-03,3.435660178569216892e-06
1.423798634009008912e-01,2.136411586397386764e-03,-1.123887014784199778e-01,-2.984878541947992917e-02,4.834774269951196612e-04,-8.919020881408400853e-03,-3.040443057047972127e-03,3.435660178569216892e-06
-6.189367288352979474e-02,-4.937529704596058111e-02,-7.506221747516740768e-03,-1.034971798653146549e-02,1.394141809355192241e-03,6.100116184841909706e-02,-2.450967105698465681e-03,-8.422520786840326365e-04
-1.206976856735800067e-02,9.727750383095814038e-03,-3.070380102785023532e-02,-8.033304484644082904e-04,1.000939685558432241e-03,2.994844977579799034e-02,3.506035446346191138e-03,2.501486024179768895e-04
6.334920966757380534e-02,3.797638569726995389e-04,-4.777620296493272078e-02,-1.489806707143917410e-03,9.642590830091508480e-04,-1.603930711021598135e-02,2.439049864348077478e-03,-7.627471663943458189e-04
1.383699756673228976e-01,7.349965515022441331e-03,-7.966055323798260090e-02,-9.439742600992229171e-03,5.234017071855025932e-04,3.667658692071954635e-02,-2.179969720056628389e-03,-2.918293739112826470e-04
7.023216667182731465e-02,2.496931496551996112e-03,-4.109541667790513053e-02,-1.400115473392208806e-02,1.514961547776477605e-03,-4.509796685343773343e-02,-5.088491664448444723e-02,-4.805653852698941846e-04
1.234532350332036010e-01,-5.291471951847872071e-03,-7.162060541228333632e-02,-6.631228310907550001e-03,1.143401576358283852e-03,-3.666531965199101156e-02,-6.480523946878216646e-03,-7.508721355775397953e-06
1.234532350332036010e-01,-5.291471951847872071e-03,-7.162060541228333632e-02,-6.631228310907550001e-03,1.143401576358283852e-03,-3.666531965199101156e-02,-6.480523946878216646e-03,-7.508721355775397953e-06
1.234532350332036010e-01,-5.291471951847872071e-03,-7.162060541228333632e-02,-6.631228310907550001e-03,1.143401576358283852e-03,-3.666531965199101156e-02,-6.480523946878216646e-03,-7.508721355775397953e-06
1.690159927639846016e-01,-1.595794949168623938e-02,-1.517607663889155578e-01,-1.102280405509536640e-02,-4.798588752148269347e-04,4.595425816657681961e-02,-3.886174414184275470e-03,5.688370862015002652e-06
-1.542582210022447886e-01,2.482226009162958116e-02,-7.834141192402183790e-03,-6.295105278542958722e-04,1.415860219692847369e-03,2.102903568419885877e-02,-1.010011174351548718e-02,3.615700265266638738e-06
2.538092738538840765e-01,1.577097117285252911e-02,-1.104091409675695724e-02,2.099590755498553785e-02,-2.581238937746235113e-02,-5.313288934620127163e-02,-2.355350007528776018e-02,2.158297325593312531e-05
1.775254158142447469e-02,2.859259242775070639e-02,3.625685424017275477e-02,8.821393084438638663e-03,-2.660711730800930860e-02,-2.293427102803191966e-02,-4.090323316854259719e-03,2.699318494029687523e-04
-1.186850788649799204e-01,1.686897705496373523e-01,-2.489643460161413552e-02,-1.154717703951934141e-02,-1.360539349307016491e-03,-1.275686582034864366e-03,1.205379069171046667e-02,-8.295897812842169028e-06
-8.841398567037490192e-03,7.670043702794566987e-02,-2.919343419892455466e-02,-1.657457502214811172e-03,-1.310761763998679556e-03,-1.584281209347999583e-02,9.814678122814777736e-03,-4.797632184829907264e-04
3.071166483647432346e-02,9.656357276362062536e-02,-7.346010607864291060e-03,1.259645650710615114e-02,-1.623032623953157534e-03,2.685489858748090625e-02,6.623970771147793916e-03,5.950476328651659217e-07
-2.446883846673316570e-02,8.882669982666238639e-02,1.229457067101080367e-02,-1.223777418031685507e-02,-1.354528299870415200e-03,7.736574689964298771e-03,4.930145734044914622e-03,2.855062174585538634e-04
1.009728807463886324e-01,-3.166067360983185891e-03,4.206102014286327434e-02,-1.640050964787978516e-02,-5.746744084189143098e-04,2.598818201821618580e-03,3.915320581038167144e-03,1.010397913220634512e-05
-2.370219092128111049e-01,1.156838342547841930e-01,-8.833782409395514110e-03,8.657100096243559167e-03,-1.391670362328020251e-03,-2.723091585562028086e-02,2.239760433246253471e-02,2.871571609114620676e-04
1.700371675144504106e-03,3.636391615688878975e-02,-1.035838741090294030e-01,1.194387981443022651e-03,2.585195587823216519e-06,-6.623636339235569603e-02,2.048182927819443191e-03,-3.108286006828784270e-06
-9.084991723947530989e-03,3.031538695448897022e-02,3.273615937913742883e-03,2.221133659708655460e-03,2.424403339872266991e-04,2.249382651620484841e-01,-5.576634471051734312e-04,-2.857241727946389573e-02
-6.370494380512271848e-02,3.954253814130895966e-02,-1.158085485531944181e-02,1.310744356260470575e-02,8.645028008854056941e-04,-1.325797878749240821e-01,7.528960562868883266e-02,-2.769091510305576181e-02
7.517212760966743290e-02,-7.178749498682478192e-02,3.898886051795383972e-02,-5.360142099136868017e-03,7.792952570558637354e-04,2.622017845539611775e-03,-4.095678468146693452e-03,8.263805925122418047e-06
1.021961597513762476e-02,-7.578536039967146212e-03,-4.715864156227192808e-03,4.019088889781857743e-02,-7.701899656060382784e-04,-5.546520039537226887e-02,-9.393584908066136135e-04,2.012082848096542496e-05
2.001727987810071954e-02,-2.507329413385118652e-02,-1.367379258581423104e-02,-1.175803143721123982e-02,-4.826617303404367879e-04,2.432594621653492994e-02,3.199173150061918221e-03,5.790701586812157134e-06
1.151678959575127836e-01,-3.864666863503433969e-02,-2.219578481968523254e-02,-2.395262291367362267e-02,-9.584827046039617405e-04,-1.092824927639280894e-02,-1.492122705352593359e-04,-5.637398627497720730e-04
2.275106889849138891e-01,-1.431305766619649436e-02,-1.334920398482794014e-02,-1.874776134202844544e-02,3.972142314219609491e-05,6.715210239615973867e-03,4.534703641240317960e-03,-8.514436349201627503e-06
1.898305515391454645e-03,9.609189704111678609e-02,-8.912422082195280149e-02,-2.789073973945879054e-02,5.799601463549071672e-04,4.087752104312185678e-03,-2.794735546601095997e-03,-1.089202741389017179e-05
-2.239879291974395392e-01,1.243461900505024309e-01,-5.880253911629636926e-02,1.195151492763534603e-03,-3.932136881159715969e-05,2.621153570798025363e-03,2.594020587669149721e-03,-3.571282242720977684e-06
2.781838441477484797e-02,-2.509084649241614604e-02,1.001951902107142550e-01,2.336533265400617294e-03,-4.211630972359023127e-06,9.825403843953302990e-03,5.705410060620774194e-03,-4.767374447816632549e-06
5.049226507299135053e-02,-1.063422694303351596e-02,1.199917970610598073e-01,-1.304494183370786013e-03,-1.822273996440272865e-07,1.300896779752524005e-02,3.718992743991547363e-04,4.507691595339761176e-06
-2.401789051992957863e-02,8.004665395250198240e-04,-1.581341843399945712e-01,-5.792244195438363405e-04,-2.343246626816735649e-06,-2.770089377146572104e-03,1.653382684746480932e-04,9.330000611653117274e-07
-2.401789051992957863e-02,8.004665395250198240e-04,-1.581341843399945712e-01,-5.792244195438363405e-04,-2.343246626816735649e-06,-2.770089377146572104e-03,1.653382684746480932e-04,9.330000611653117274e-07
-2.401789051992957863e-02,8.004665395250198240e-04,-1.581341843399945712e-01,-5.792244195438363405e-04,-2.343246626816735649e-06,-2.770089377146572104e-03,1.653382684746480932e-04,9.330000611653117274e-07
-2.401789051992957863e-02,8.004665395250198240e-04,-1.581341843399945712e-01,-5.792244195438363405e-04,-2.343246626816735649e-06,-2.770089377146572104e-03,1.653382684746480932e-04,9.330000611653117274e-07
2.861800700287168639e-02,-3.408302760913527185e-02,-2.564162948528557751e-01,-1.081712445105332925e-02,2.822682790987019602e-02,2.921633456009511409e-01,3.789723895210077992e-03,-2.773771850359785240e-02
3.067195233765453513e-02,-2.819541454822862073e-02,-6.236698584186926159e-02,5.628705216079621550e-03,-3.130170869364161433e-04,-5.257331510545386333e-02,-1.011076025042224446e-03,2.630699176089736123e-04
4.165879758623311502e-02,-5.099354625461423318e-02,-1.238434695102765132e-01,-9.013018262652962775e-04,7.515189301890368634e-04,-1.192753936019060462e-01,1.425504675112892637e-03,8.166688425128292451e-04
-8.718204190330799963e-02,-5.773071510623700719e-02,-1.311779273306450389e-01,1.466005327313308071e-01,1.125556555887081587e-03,-8.643615652970552954e-02,5.215325141969038127e-04,1.980528577605368410e-05
-1.945795044180633759e-01,-3.280864484744491077e-02,-4.897331911742995592e-02,1.448211975063276313e-01,-2.577954851816158938e-02,-8.371490208534874966e-02,2.218896390137365705e-03,6.745772481705726127e-06
2.872161639290380514e-02,-4.525313260651576963e-02,-7.692558385668082921e-02,6.874064605001026229e-02,-2.633903467150391919e-02,1.191638724766701796e-01,-2.598999694685255775e-03,-2.772444781817589438e-02
-3.932966681581076540e-02,-5.753319843170662251e-02,-1.321469640573783022e-01,5.933033494174143330e-02,1.960786231336817710e-03,2.352793340085774371e-02,7.187742982944706968e-03,2.611372867286149623e-05
-4.761240583679997307e-02,-2.151763934768573597e-02,-6.874420098170271054e-02,1.008260730998539606e-01,2.239785745323107265e-03,-1.506953817494759498e-02,-8.454403859626421353e-03,2.870032456221775752e-04
-4.605761089738753811e-02,-5.612889570159809022e-02,-9.329807367423952058e-02,1.001839962250171412e-01,1.119420142571108442e-03,7.181153038115825615e-02,9.960070814380290322e-03,1.806464672021334037e-05
-4.143685893834168910e-02,-8.936485412224445812e-02,-7.171142066515814872e-02,1.132908662027783120e-01,-8.079084516307005878e-04,2.292852673322641130e-02,-3.218346890210115226e-03,-2.889920455090639250e-04
2.412269832042252676e-02,-1.032801990635489747e-01,1.476402711659513013e-02,1.354078286417271237e-01,-2.882390031816341527e-02,-2.168996471728560846e-02,6.260929818386271051e-02,1.897509404992366882e-05
2.979272591954725685e-02,-4.332576486931163234e-02,-4.679718173621357641e-02,1.397848755819048050e-01,-1.414296526657161024e-03,8.691770740639609676e-04,-3.159192757762665886e-03,2.711438529511474315e-04
-1.483950119651661348e-02,-5.829004732888023316e-02,-2.657670313206586532e-02,5.524842117286996729e-02,-5.875965896445548790e-04,8.220370519825047437e-04,1.971492445559120017e-03,1.729189071353859296e-07
-8.631629004439334354e-03,-4.007694308935695615e-02,-1.930188242399711457e-02,5.524698880289088260e-02,2.840855331177012319e-02,-1.091873034488710127e-02,-6.282452185781463132e-03,7.677619974512568408e-04
-3.731807744567842457e-03,-5.298493010527323410e-02,-4.777932910449286114e-02,2.011095174430325289e-02,-5.580829438474021456e-04,3.510727215998780959e-02,-3.459112734933794675e-03,2.870686519337594419e-04
7.642488479742898244e-02,-2.431669328230116542e-02,-1.320495017586208741e-01,2.533519613384960234e-02,2.838447995573262195e-04,-2.179933297142984047e-02,-2.830056958394888580e-04,6.575722987225209172e-06
-2.771545575122788541e-02,-1.655816409409475998e-02,5.788169596463388356e-03,2.653086061873916046e-02,6.289827775868700455e-04,1.511401040573893441e-02,-2.032635062594127882e-03,-1.640842761298326051e-05
-4.610511610159954976e-02,2.344818282192683099e-03,3.027481493420106085e-02,-1.025043293208405086e-02,-8.676754766343154336e-06,-1.456458928043870282e-01,5.741847551793194913e-03,2.923069038189720194e-04
4.021064812066019178e-02,-4.783344436438898006e-02,-8.720611566921906976e-02,2.401119749695457273e-02,5.648151629816365203e-04,1.116307121034783023e-01,2.735824185566507888e-03,-1.550875592417847519e-05
-1.797062405220670872e-02,6.012880221431881472e-03,2.884647897076077563e-02,-1.547910653063355388e-02,2.964469753440359540e-02,-4.951251818632112882e-03,2.427346429121871648e-03,-2.199566704088468444e-05
-6.686539897919344111e-02,3.214077700068580790e-02,-4.096867255268461447e-03,-1.353752715679232841e-03,4.892131600064131280e-04,-3.616416050370450247e-02,-5.608460892582739499e-02,2.860472791482834756e-04
9.302189273261079333e-03,-4.065909013513885339e-02,-2.509146033301497616e-02,1.255780960376623109e-02,-5.742300169700717332e-04,1.717397582380907894e-01,5.830571493180574175e-03,6.218961861607019416e-09
3.895715483375040977e-02,-1.805045569141226032e-03,3.808819013501198170e-02,6.209153879535385390e-02,-8.622229297705746040e-04,-4.957887458783012680e-02,2.137345297908883023e-03,5.842764914876063077e-06
5.257830476376201823e-02,-3.037220907664175268e-02,1.222475852592725580e-03,1.001597106606664719e-02,5.907011868818107413e-06,-1.674838784393566093e-02,-2.380070313626599272e-03,1.674604035287854776e-06
-1.798346094411078511e-01,2.063264696084706959e-02,3.443971899151162391e-02,-2.005093474254976416e-02,1.943634608802407866e-05,-1.388279915414032629e-03,9.135698091226823747e-02,-2.827497710656869806e-02
2.947723998604941803e-02,9.889280298283124188e-03,3.757811126646755373e-02,1.648664463441026351e-01,-2.723481280894844963e-04,-5.437868193055443722e-02,-3.590329019924766440e-03,3.067913990745272464e-05
6.345224925096933088e-02,1.299824483754640284e-02,-3.943695521171504403e-02,-4.025005600890534108e-02,3.520629424386769487e-04,-2.890108952790815169e-03,-8.008040688140736357e-03,-2.003669398155386234e-04
1.657520591185367501e-02,-2.376467427752522801e-02,-6.201740317899545607e-02,-2.479333186795858526e-02,5.949037478348384676e-04,9.084494394206929502e-03,-6.452021720324056971e-03,2.917591582987854259e-04
-4.720764252699428953e-02,2.562617672396965557e-02,5.801703277392382396e-02,-1.774905576026985371e-02,-2.597021411839662663e-04,6.603144603824588448e-03,-6.770283468694532174e-03,2.929015759330660831e-04
4.210259294259732082e-03,6.738908429375104966e-03,7.404093338098211366e-03,2.143057234384137394e-02,2.969292951711634200e-04,9.818591774970608643e-02,-7.089462680187975756e-03,2.937718562285906499e-04
1.819767054018888580e-02,-6.364349954913239675e-03,-3.116892407059406248e-02,1.874479528325274924e-01,-2.855573433148788157e-02,7.784447396984803258e-02,-1.480091049359093800e-04,-1.454995359646681452e-05
-1.270366666004142144e-02,1.337099410057339009e-03,2.550953330293558897e-03,1.944408903349486295e-01,-2.855074521317830724e-02,3.978073527905629653e-02,3.015514718342948014e-03,-2.870908914640920434e-04
7.533427804100603468e-03,-5.686655952821353163e-04,-7.491316366476233508e-03,1.254719214911182990e-01,-2.718898313684411927e-02,-1.980579860419380833e-01,9.237360227798754051e-04,8.519987248069302646e-04
8.808364297499862716e-02,2.166019567846787924e-02,-3.497140087287198967e-02,4.185046798694266185e-02,-5.674846890427931358e-04,-1.457989152043099312e-01,-2.256325893485388104e-03,5.600897045184424425e-04
5.130982273362443002e-02,-2.305627678090061729e-03,-1.011507223357545164e-02,7.489930901123600937e-02,-2.882306351952908935e-04,9.558405545690243366e-02,-1.024718082525283844e-04,-8.283222815727535253e-06
-2.513393231134353756e-01,-2.890253548831904582e-03,5.008676754490887402e-03,3.681242312195207728e-02,-1.124790944101414746e-03,2.991260739478905986e-02,8.118734569471756923e-03,-5.592298971074897030e-04
-1.645618273113221702e-02,-2.430636496330908572e-03,-2.472890991840629576e-02,-3.974152621447087919e-01,2.881291480654845499e-02,-1.621093716818969299e-02,-1.824955013846778825e-04,1.006434630929357621e-06
-1.683971075479373525e-02,-3.599472900659211102e-03,-8.598109980409319314e-03,-1.385900771140230747e-01,2.880941904469400822e-02,-2.412851323207905810e-02,1.024413201477923136e-04,9.618009783747803127e-07
-2.277052273108833014e-02,3.760683819181772670e-03,-1.724771088815353626e-02,-6.736408662130619063e-02,2.974372714601480937e-04,2.233008139753822618e-02,-3.270690328125955802e-03,2.823218401453117554e-04
-1.381321087328216644e-02,-5.366469499922517459e-04,-8.405945423022618407e-03,-7.311580432027320331e-02,5.866929697092804165e-04,-7.224433730650621326e-03,-2.528583277736873124e-05,2.647777665126026707e-06
1.780077014211262727e-03,7.069263756969772564e-03,6.569058301904999279e-03,-9.078967545718706622e-03,5.927900677900455441e-04,1.858446399102554325e-01,1.473363954046025335e-04,-1.640801331988795057e-05
8.389077586024026173e-03,-3.409871511056986743e-03,-3.608874465260033387e-02,4.642733463337502670e-02,9.955882605011679893e-06,8.147803892810946691e-02,-2.756338738710070214e-03,2.716946275034000488e-04
-1.930223751613547450e-03,7.145535543085166632e-04,8.909914751726057819e-03,4.333350657347908447e-02,2.691320220461435736e-02,-1.033839134143591486e-02,2.102442861576759962e-03,7.726282364692923111e-04
-5.594062135314741523e-03,-1.124613821165116635e-02,-2.560834275162390122e-02,2.306036436698604211e-02,-9.576374710129620043e-06,2.496576664049812988e-01,-5.104111211610182219e-03,-2.987030636389279383e-04
-1.018346816418822312e-02,-1.430335247484722759e-02,3.729647603221631497e-02,1.471426321978658866e-03,-2.031030564342914814e-04,-1.211643161671579066e-01,-4.455058782335110344e-03,2.825003920775349606e-02
1.088090719745018059e-01,1.472592494518872031e-02,5.912525047870602346e-02,-3.962288344492448378e-02,-6.807544474025954077e-05,-3.269269822191891994e-02,-4.875173196363369321e-02,2.901465739743583003e-04
3.649706600599660067e-02,8.963164599423116205e-03,-1.231624499953134222e-01,-1.316598481991624638e-02,2.770033147398829818e-02,1.895743689227408768e-01,2.782620999360789407e-03,-1.374916191157485139e-03
1.846966780002807368e-02,-8.003566096626654747e-03,-9.748306208718643048e-03,2.810423539622801045e-02,2.684347619907810319e-04,-2.734037430793906376e-02,-1.103471726437924363e-02,5.697818395562371380e-04
-1.757134416801865717e-02,1.313110450987348132e-02,-7.255923021937477069e-03,5.656507473550695039e-03,-4.869837808034230796e-04,6.250025327287556109e-02,-4.389789148363946840e-03,-4.479375210377064672e-06
-2.225534365545113469e-02,1.939762697520632656e-03,-1.189929861317908129e-02,1.262500784815711596e-01,4.626153860556423168e-05,-2.261774270262861125e-02,-6.096207508444437956e-02,2.526094669048397495e-02
-2.186181205589440152e-02,4.618147122726961804e-03,2.371428544541715616e-02,2.351742399607542333e-01,1.035671700786333733e-05,-7.650823348185090134e-02,5.168461390008427959e-04,-1.101448467998034044e-06
2.847769912393405961e-02,-1.100868763399005280e-02,-8.959893433711627053e-02,1.721662287262799851e-01,2.855392682486589812e-04,2.303942134628985949e-01,-4.108619883263036590e-04,-8.374416408979370096e-04
2.197183141294713031e-03,4.107115859102292502e-03,3.971818560243213156e-03,2.327605574899933860e-02,5.791263419780779201e-04,6.105571763735514329e-02,-2.892001575343326313e-03,2.684880063048684603e-04
2.241527545799318170e-03,5.758858343593950546e-03,1.992637693718824800e-03,5.105681236331207490e-02,8.345634154588576093e-04,3.880671442145661870e-02,-8.918132155448805359e-03,2.760756218085786144e-04
4.264487239315052983e-03,-1.248754750636865349e-02,-1.270874032407251497e-02,8.125309671243793885e-02,5.411153256608609071e-06,-1.299169176962437777e-01,-3.973119021277804822e-04,3.718140936158132873e-06
-6.369757593732733314e-03,1.414430519615896441e-05,-3.351599434290795931e-02,-5.738408893444366630e-03,-3.051522739276880903e-04,-3.890005014987667209e-02,4.445584747611946129e-04,-4.953718239192990902e-04
-3.129760469658084132e-02,1.786432936170907065e-02,-3.837504513444188470e-02,9.272564892705472545e-03,1.877066144779388499e-04,-9.306787909742914033e-02,-4.597054303971995735e-03,1.044409489044959309e-03
1.117584892136019165e-01,3.236965582926445897e-03,1.629879280934880617e-02,1.013426168363890968e-03,-5.677059028431161863e-04,1.444951938108833892e-02,-2.096314917399156317e-04,1.881001680476292838e-05
5.064338261388248025e-02,-4.371724677299133888e-03,4.171937454462955677e-03,1.213922168719208314e-02,-5.757777848138911480e-04,5.497959772009742771e-03,2.771514935644407316e-04,-6.624801819613251441e-06
2.009651269493722622e-02,-1.597633402104979246e-04,-1.858493689461722040e-02,7.909896524506303261e-02,-2.715839367962162229e-02,-2.031502001854176148e-02,5.349652379639641651e-04,-6.984552797661612975e-06
-6.642726348635088086e-04,-5.940074390057807283e-03,7.957229835058018735e-04,1.634409744551642424e-03,-5.734713296578135104e-04,4.434066618932608339e-02,-2.247594180589480330e-03,2.798318059889110540e-04
-1.423263121156420341e-01,2.600329014409745801e-02,5.569321424693654717e-03,8.007445103173506384e-03,2.856769676943776703e-02,-9.943418599361290508e-03,-7.120130422005944201e-04,-7.340519143998259612e-06
-1.498736250548557414e-02,-4.619880059300245090e-02,-2.441433732913409968e-02,-1.625116694222928163e-02,3.056661722882583233e-04,9.885287340441481843e-03,-1.388025188116632277e-03,2.593564620431659633e-04
-1.793118450244541445e-02,9.202134208631498197e-03,7.230836255816619484e-02,8.184824716373216569e-02,-2.523180105378788028e-03,6.274649256519967966e-02,-2.797450249705632410e-03,-1.101091701852276172e-03
-3.949089014159139384e-03,1.177239907306039564e-02,-2.469015223843588555e-02,-4.428009056780190904e-03,-5.608559235782292719e-04,1.772843110115758514e-02,3.574450904410662964e-03,1.566915254785374501e-06
-2.227521013468563432e-02,1.435298066026064953e-02,-1.294399307608114572e-02,-4.387709405062389240e-02,8.586127500944016559e-04,-1.830818648958336403e-02,6.071888794976953302e-03,2.794718175561278261e-04
1.481145927550344202e-02,-5.126628512984389603e-04,3.943819356243215279e-02,2.778433275201629138e-03,-1.914640342493001307e-07,-1.239454742328681023e-03,-1.830083005404964543e-04,4.324591421204132579e-08
-1.168315507695567509e-02,-1.111168189921098949e-06,2.190661611415023122e-02,-5.288620575420840270e-03,-6.469876479387598255e-07,5.449124364589635894e-02,4.945801649140796775e-04,1.293666625842281635e-05
-2.976858652061707342e-02,4.724257758838186667e-03,2.158309806151079493e-02,1.182924958373908833e-02,2.703091582762804724e-04,1.490729902884826465e-02,2.976003837522916539e-03,-2.926504117640305177e-04
6.537799561048268995e-03,-2.580436742144826684e-02,-1.723872969497472528e-03,1.810700693881001772e-02,-1.097405498253996303e-03,-4.402442664478924128e-02,3.650511287378287346e-03,-5.512578379941985391e-04
9.058839952589185784e-02,-8.639807177120064491e-03,1.022943875336903771e-03,-3.238374248912346924e-03,1.038647959866173488e-03,-4.311677926550565310e-02,1.174342121684385969e-03,5.447632135000396707e-04
6.303001967051417853e-02,-4.698082936344785687e-03,2.687329130984614234e-02,-2.534230582499966133e-02,4.849471901572986569e-04,-1.048088632328630573e-02,-8.370502290452777605e-02,3.942291462095590297e-06
1.281656103795772092e-02,7.398977039455405247e-03,1.583839466335043578e-02,4.054812804703533669e-02,-2.772664257760933896e-05,-8.178500687130090679e-03,-7.428671381879833717e-03,-6.042867915264579171e-06
1.269083531019488467e-02,7.130522539468199961e-04,-3.792123130358125227e-04,3.593391495654124548e-03,-2.978598217470342243e-04,-3.137674066877767232e-02,-3.265067791646840471e-05,-4.952837423720122872e-04
-6.886740226843736205e-03,-7.171742034523834143e-04,8.018728196925329482e-03,1.769755552736995974e-01,-2.883058120100514057e-02,1.484368576305360177e-02,1.503999141084119110e-04,-9.355410919709876018e-06
-2.732093850547069255e-02,6.590201527458402434e-04,4.279321662918937619e-03,2.077555212879359237e-01,-2.911583016983104732e-02,-4.424056972666102171e-03,1.284053671538524339e-04,8.490432863969000447e-08
6.221421261001780501e-02,-7.119622519110626810e-03,-1.327323169087065401e-02,1.963051550151407587e-01,-2.854022459597021014e-02,-9.772855453592058442e-03,-4.018761931730637990e-03,-6.928728579474141786e-06
1.712024488111443116e-02,-2.787810121158119589e-02,6.874268980179113224e-04,1.418764699852493628e-02,-1.091581050447260840e-03,-7.878181545624055038e-02,3.654892724531462467e-03,-5.502967435080779448e-04
-1.762767286561165575e-02,1.427715098314449524e-02,-7.358930927033377652e-03,3.346671464579958899e-02,-1.117562352105530392e-03,6.447561626183749561e-02,-1.548927908849089484e-04,-2.742563885889231492e-04
4.634164238545936121e-03,-1.073162415778098049e-03,-4.292113556598273899e-02,-2.710485564433319852e-02,2.795138306201070430e-04,-1.966267845001505241e-02,1.924233710122736756e-05,-9.239540019165512586e-06
-1.375397280507613951e-01,4.124177745082743124e-02,-1.997693489287486954e-02,-2.177217094066861980e-02,-3.081827707867901864e-04,3.624800851200659507e-02,8.018923805409926969e-03,6.737842280737974014e-07
-1.863922210430713280e-02,-9.490543804211888645e-03,6.445665621492288611e-02,-1.488219252654826574e-02,2.352822999961043621e-04,2.494155633190888594e-02,-3.118943054117291266e-03,-2.425259562744379785e-05
-6.442102286644266207e-02,7.495727652757083401e-03,1.817433131814750330e-02,1.580504784602664373e-02,2.700754714510883924e-04,-1.184337990114885455e-02,-3.871252591374543025e-03,4.977037448568636356e-06
-6.442102286644266207e-02,7.495727652757083401e-03,1.817433131814750330e-02,1.580504784602664373e-02,2.700754714510883924e-04,-1.184337990114885455e-02,-3.871252591374543025e-03,4.977037448568636356e-06
-1.804161094855965403e-02,2.269934561124597669e-03,7.542710953062387036e-03,-1.203540184574926689e-02,-2.587869632264689626e-04,9.071570069966821553e-03,8.071395112687231033e-02,-2.856532885195477850e-02
-1.136137851083057759e-01,-3.905429123744220271e-02,1.600856260403988041e-01,-2.248122713585664484e-02,2.112978910790653118e-05,5.543015462509688629e-03,-4.095855339611194877e-03,2.819111255593710380e-04
9.658967788348214040e-03,-2.964792451228850240e-02,2.927383697086181728e-03,-7.720552466718207259e-05,-1.087437070794697270e-03,-5.654481506543075631e-02,4.721711359498469368e-04,-2.633294327505465780e-04
7.375034062488732001e-02,-3.095029457225269374e-03,-4.596558540181606631e-03,2.536492920528195597e-02,-2.799028599959706848e-02,-2.885725540028321115e-02,2.838075144052934311e-03,-2.930732514317973972e-04
-2.697352410412088425e-02,-4.268837494555942358e-02,-3.502005683058018876e-02,1.344719916138772953e-02,8.507522601044089066e-04,-1.295795760349976490e-02,3.013897297079778069e-03,-2.811420940805509257e-04
-8.433507741077771874e-03,4.039947380716531547e-03,-4.197999211517941184e-03,-6.519983335323440918e-03,2.947035118485294902e-04,2.354869126785891567e-02,3.273797000872289385e-03,-3.080116366282035665e-04
-1.418117661948150362e-03,1.961989184903558531e-03,-8.540417106592448904e-02,-2.321631767161107945e-02,1.034909417722502945e-03,-4.410804721243759101e-03,-1.422150561033481021e-03,4.672249672261534698e-04
1.706861832094123260e-02,1.127435895182431896e-02,9.799030994724833299e-02,-2.391934106091681000e-02,-1.940920904061579062e-05,-4.111655704248348003e-02,-4.590313812424284476e-03,5.507950325877104987e-04
4.479994449525946665e-02,2.557689455490329972e-02,1.548661479415848127e-02,1.232328412201478540e-01,-2.748067379209775951e-02,-7.320255691185001412e-02,-7.613992160713058295e-03,2.486359640045549358e-06
-1.515243856216006400e-02,4.402929171600620736e-03,1.569291513508162123e-02,-2.137934180475015329e-03,-5.517587348065026032e-04,3.404965696044472134e-02,-3.379782250373385664e-03,2.050650569910281509e-05
2.177026970877734766e-02,-1.195982155133952160e-02,-1.439656298807368354e-02,5.944031527315794816e-02,2.582446999921925862e-02,7.325833854295601966e-02,-7.212440373519424242e-02,2.720066831912894972e-02
-5.590021406861030856e-02,7.267237132208093173e-04,-1.869288698293175913e-02,-2.012286504653198419e-03,-7.575454154452636790e-04,-4.124658867501247717e-03,3.118571048463102124e-03,-5.475104930290391114e-04
1.017707180259615762e-01,-1.821349066108400236e-02,6.695942166328794354e-03,1.604886189441413064e-02,-8.198101674418194424e-04,1.046759749735280270e-01,-5.811615136121472611e-03,-5.398896346089615116e-04
5.101244168364119785e-02,-2.601402086327496074e-02,6.279975922964087243e-03,-7.466469142461532038e-03,-2.169062641645022084e-03,-5.139120568659910626e-01,1.529735344761645743e-02,2.859729884523499674e-02
-2.759708507363294733e-02,1.678955568818205762e-02,2.615163801603932053e-02,-5.443553791014148560e-03,-5.431905125747530771e-04,4.279555656002077130e-02,5.525630255672164121e-03,-5.580946462757855730e-04
1.773113391731352129e-01,-3.182719866331706979e-03,-7.567975012082337090e-03,-6.783849449240745948e-03,-2.690862154948930884e-02,-3.162670825775335676e-02,-4.628196687397571202e-02,5.483939740612299961e-04
5.732051810883751625e-02,-2.796377890850579133e-03,2.634726545927142463e-03,-9.297261574413125812e-03,5.275375866792010029e-04,-9.453566238141570752e-03,-4.096464321781270734e-02,2.659927066474287202e-04
3.158251506215372650e-01,3.768752357876751884e-03,-3.602639874738477327e-03,-3.165974432321389843e-03,-2.548625663516283259e-03,5.992076470740662422e-03,-4.063905162816500855e-02,2.511010521261277891e-04
3.016795176405766624e-02,-2.374347209998504439e-03,-1.468874914438914048e-02,5.967762512692583636e-04,2.331352977510913436e-04,2.621098662102956320e-02,-3.812191321211871181e-02,2.670963815477256842e-04
-1.287711977892607995e-01,4.246373201032221587e-03,7.109064777996926873e-04,-3.652367903947603082e-03,5.215834975958422940e-04,-4.157464022786853952e-02,-2.677195756775123045e-02,5.515170684546883816e-04
1.996001158942641296e-01,-3.015639531708911355e-03,4.229425911817856487e-02,-3.209082373535437904e-02,5.017372006629460413e-04,-1.854824074452098709e-02,-8.786340749847594556e-02,1.164293686783679312e-05
-2.933127967251524665e-02,-2.139958344250850880e-02,5.152417237642932524e-02,-1.383534666367319810e-02,8.316728281916371118e-04,1.043713853316863699e-01,-5.030513662742654851e-02,2.600973022130479762e-04
8.036735582188550553e-02,3.104251721126387482e-03,-4.925518022944876811e-02,-1.353829286352476423e-02,-5.672106294191386205e-04,-4.088384213460902195e-02,-3.535704866809615682e-02,2.826666528020543227e-04
4.444572635333867566e-02,1.840171292957253069e-01,3.117431646815394669e-02,-1.336380061064131389e-02,-3.442630867192421730e-04,2.027677787982705860e-03,-3.288144966631247751e-02,-2.623625300780606348e-04
-1.269500698449604059e-01,-4.290532306048770728e-02,-9.676917467044711656e-04,2.703660232510373025e-03,2.819182615101346184e-02,-4.590342242352606766e-02,-4.918087186953315482e-02,-2.404584213396655302e-04
3.250585831539248849e-01,6.585083261551031089e-03,2.372310695055427146e-02,-1.102319114982121089e-02,-2.588617892612245577e-02,3.482684933398344507e-02,-3.014267255112795807e-02,-5.215631852733690820e-04
7.293940914866370306e-02,-7.905625129830761919e-03,4.070433918598160422e-02,-3.354609456992999582e-03,9.338056921694086032e-04,4.204212906956090665e-03,-1.028150806114528672e-02,-5.253958806437263518e-04
2.416581687201409534e-01,-1.645045755026970993e-02,-2.572401927942370020e-02,5.309672452922837779e-03,-2.843306431036569590e-02,-2.829892114830864780e-02,-7.351785161445488492e-03,-4.148281466429813373e-06
1.731166671574218552e-01,-8.519188150067209808e-02,5.486618920414117716e-03,4.218516431550094550e-03,-2.371038890196319960e-05,-3.085290250999855183e-02,1.084635515129858327e-02,2.694271723212350068e-04
1.731166671574218552e-01,-8.519188150067209808e-02,5.486618920414117716e-03,4.218516431550094550e-03,-2.371038890196319960e-05,-3.085290250999855183e-02,1.084635515129858327e-02,2.694271723212350068e-04
2.727646015390702838e-01,-4.619340329962241809e-02,2.356849827555330089e-03,-2.570717751916172869e-02,5.498096313736828894e-04,5.126818556351950967e-02,2.766476224041597258e-03,-6.070913139490190496e-04
2.244081983017207071e-01,-5.984869681972695282e-02,2.746868869730754309e-02,1.229750279405421830e-02,-5.470610125796658780e-04,-1.358881745778572035e-02,7.691481091400282754e-04,-2.290921236907588087e-06
2.961399316662228359e-02,-2.775470787038501405e-02,-2.848529605064845094e-02,-9.203278094821923383e-03,-7.674985432839697081e-04,1.334527837294415820e-01,1.492225484307128057e-02,-7.945534418567592235e-04
-4.168316955451999845e-02,-1.216525326636547638e-01,7.157475138612758025e-02,-6.277895312440402893e-03,5.681285545516462409e-04,-5.969991229648695039e-03,3.594144719909265519e-03,5.154000801013518263e-04
-9.294334508245297166e-02,5.904273506214226253e-02,-1.355755521048043234e-02,-3.176031858131614372e-02,-2.693174826848798720e-02,1.993331015693415864e-01,8.491765323027007650e-02,-2.690685382977700546e-02
1.606217089389496561e-02,1.517081865578933861e-02,-2.677973297817816054e-02,-5.126611178968230528e-03,2.790927914852234888e-04,-6.231264068323381228e-02,-2.170322679346922169e-03,5.516074144043852301e-04
4.845845755640051933e-02,8.073725645726285288e-03,-1.201977189895599325e-02,2.091113618842890820e-01,-3.157616713017608306e-04,-1.150049645642289495e-02,-8.563972520964444057e-02,-3.098450533914611730e-04
-9.207494986246012036e-03,-4.713397162475324240e-03,-2.474980017301004961e-02,-1.319457517336199929e-03,6.276908995154028940e-04,-3.616867734733920925e-02,3.045365965636669982e-03,6.912491062006681682e-06
6.581555112092285324e-03,-2.623107342100852810e-03,2.439720698735325499e-03,-5.579601542166082650e-04,3.371012496417171529e-04,6.255274956165195188e-02,2.779384653624007544e-03,-2.879236590381371473e-04
-6.748544938073770989e-03,-1.181201819450851788e-03,-3.965935511353204756e-04,1.941806726597332996e-03,-2.936771651989705106e-02,5.949640077742968103e-02,2.779315445196139153e-03,-2.880147987092918039e-04
-1.223689453683909217e-02,-2.795124530155064339e-03,-1.783725009944621756e-02,-1.661392232482616568e-02,-2.775465486957717776e-02,2.764416039044311213e-01,1.098728168831098395e-03,2.758023102274138666e-04
-1.553387976325394139e-02,9.938511089582697730e-03,-2.152889253059066255e-02,2.427814910095052112e-02,1.060137567668119167e-03,-1.738993804540389654e-01,-3.731310132923678410e-03,5.394237632835507598e-04
2.708298960248191334e-03,-1.322697928948560545e-02,5.878675397762553670e-03,3.921289843673186545e-03,1.179146138185320197e-05,3.369582297066985033e-03,-1.884911739419923042e-03,1.482955188704662147e-05
-7.863477684291263203e-02,4.304513951298388308e-04,5.406239461754071274e-02,1.723923422435322652e-03,7.151015454665625766e-06,2.220013851313708958e-02,-2.746638764890040659e-03,-1.641821811095947365e-07
-4.324735935605082682e-02,-7.067584724139402974e-02,9.934029558613791111e-02,5.433198523440724986e-03,-2.631102140228132997e-04,3.876697942309221233e-03,2.350015480401473704e-04,3.509310157683998829e-05
-4.410806687315589614e-02,1.809925242538300977e-02,-1.530545505726234323e-01,-3.697553608291234781e-03,2.868427548344389751e-04,2.696058723877670094e-02,-9.540520479472949442e-04,-2.442640165127209556e-06
-1.732321004768416078e-02,-3.755368012267348843e-03,4.917702373798904514e-02,-1.840548393659754978e-02,5.502884452200536552e-04,1.484290500249912069e-02,-8.516678211009466376e-04,-1.093691238643506840e-05
2.356543237597339552e-02,4.733313907152725611e-03,2.818901134526038965e-02,1.513666168082408725e-01,-2.890016282485121800e-04,6.253594071864252302e-04,-7.351196985400904049e-02,2.741805649091015465e-04
5.651838820121786455e-02,5.525404385578263147e-03,-5.091989228685804558e-02,1.623810067647967620e-02,-8.593845308703159519e-04,1.116848744632903054e-02,6.289152831980897480e-03,-2.626400393307783407e-06
-4.573452703727019786e-02,1.503393751990808602e-03,-5.991947745570981761e-03,-6.522496500987439924e-03,3.209252069879841608e-04,-2.963058852461655790e-02,-1.935861671104099901e-03,2.883151522415212898e-04
3.728838918791587548e-02,-1.923061014751208803e-02,2.394397976050174556e-02,2.236996005994212281e-03,5.635435563812194251e-04,3.949500976468726943e-02,-9.872981626946695914e-05,2.701104864653557916e-04
5.608433258516772046e-02,-1.726867319980581600e-02,-5.227580749867571930e-02,-2.029152729068737226e-01,2.876507884916466753e-04,-2.199910422880423187e-03,8.050638152957069471e-02,-2.779887493679699751e-04
5.458925478405120268e-02,-1.996726497370364395e-02,-2.791382071854003194e-02,7.209326822495865095e-03,1.125185087569238653e-03,4.192421939528212516e-02,-1.011800541816763703e-02,-2.798379382773604407e-04
5.824360100778952498e-02,-2.134664830076574843e-02,-1.856092231202926407e-02,5.504330234421497825e-03,8.140496890412234499e-04,-6.363801084680187348e-02,-9.923361760973390538e-03,-2.795470846493504618e-04
5.734101061966290214e-02,-3.328008580514132952e-02,-2.622750684227352982e-02,1.174953644321198414e-02,1.098843760540435706e-03,3.681058459349983297e-02,-1.611399857760931198e-02,-2.542146510475535442e-04
1.211161776655542317e-02,2.435584652060100545e-03,-5.182093636260114503e-03,-1.749547566201068161e-01,-8.343891859472335731e-04,9.334211888776554333e-02,8.577968121108942023e-02,-2.170201787187638353e-06
-3.455696551934407668e-02,1.591694588532526627e-02,-1.404397605986581685e-02,-2.086866579585308357e-01,-5.529488612697152066e-04,-2.598469170327012343e-02,9.292798548753522514e-02,-2.148353968114058424e-06
1.789713138841585865e-02,-7.188163198351018787e-03,3.596081813054813336e-02,-1.454922481124207023e-01,2.805825666635899246e-02,8.983079210119147839e-02,8.097159117397551009e-02,-1.093757737163197127e-03
2.638127836749650131e-03,1.983188382390033578e-03,-1.665840503389390964e-02,2.984363321934157057e-02,2.594175259875191241e-04,-7.240911826667142774e-03,-6.070859123222703373e-03,7.536227228555929781e-06
1.962952923322493215e-02,4.709310358845524014e-02,-2.398082662589281729e-04,3.441952500138852067e-02,-2.472206031601001733e-02,1.365001911614937072e-02,-1.223349093618779360e-02,-4.988347630512234183e-04
-1.044498577469114287e-01,-5.034759307397896830e-03,-2.359868334723670864e-03,1.522914375179363657e-02,-2.432704397918547827e-04,-1.015633353635269145e-02,1.261173773880822080e-02,2.844866103359223455e-04
4.711824001640749909e-02,-1.133185951284237242e-02,-9.880656674662152347e-03,2.382972109616628489e-02,-7.918841193399559636e-04,1.039187046832335762e-03,-1.491579558114043084e-03,-1.000369016693446003e-06
-6.997797641773026260e-03,1.972215679539563327e-03,3.145246685463372240e-03,-1.159841423852482102e-02,8.144522916801640857e-04,4.851569074799951808e-01,6.557698009479359614e-04,-2.941162925606464335e-02
-2.858437082287119610e-02,1.648240869018467725e-02,-2.327442297985411052e-02,-1.997733904335156629e-01,2.837103358367595168e-02,1.390200136640964701e-01,-6.074699815721740399e-04,-5.290102126539356986e-04
-1.886757657378713288e-02,3.223281870781737665e-03,4.297386038278146192e-02,-2.426070476335150800e-02,2.355156475659591860e-04,-4.858245815643121718e-02,5.098342773438807422e-04,5.321103402328947272e-04
-4.064090139058037371e-02,1.800095022244484200e-02,-8.133137079266054836e-02,-3.138367678922524689e-02,1.590585807630762877e-03,7.423070098849406107e-02,-3.178380015685205919e-03,5.091340222412059011e-04
-2.227614160584954345e-02,1.185696068852930100e-02,2.049250343669505731e-02,2.699119353644322677e-02,-1.010805320032310368e-03,-5.726263866239054284e-02,5.583494782854780611e-03,2.719439998814413700e-02
-4.859065441647450467e-02,3.730652710175824064e-03,2.949071710370477009e-03,1.197232641527644012e-02,-2.863528364845261483e-04,-2.982919423234702688e-02,7.258599708386628824e-02,-2.769860204616698615e-02
-4.021993719802234579e-02,1.435210160240095803e-02,-6.972508213822686644e-03,3.229176485904834693e-02,2.888496608362009499e-02,1.137006497111251874e-01,-9.992752567932216591e-04,-2.177500640110041109e-03
-6.542077318312278233e-02,-3.231013839292784604e-03,-3.518897058432744751e-03,5.147858787464347149e-03,2.818998447974177361e-04,3.633490596144973994e-02,-9.151777476609379569e-02,2.913419539363452590e-02
-3.449688736340382478e-02,4.881543687500643561e-03,-9.765205665521640294e-03,1.343312446095132687e-02,2.460963134520299670e-04,-5.835750655580245264e-03,3.959776499893090385e-03,-5.630181513154409534e-04
1.138169984956311810e-02,3.616956161179462302e-03,-2.468367086886491188e-02,-1.486955339801288110e-03,3.986757886088599230e-06,-2.864377214776603342e-02,-1.414333165198408236e-06,3.838847056650565358e-06
-4.306173494756365813e-04,-9.668924644018025288e-03,1.626282389820978003e-02,5.216877851336577596e-03,-3.484851422873593664e-05,-2.413137207784300797e-02,-2.424127765178277823e-03,4.945637064664396574e-04
-1.528693996213593455e-02,1.824813896980569030e-03,-1.434430733676564651e-01,1.873550128070086088e-03,1.434213047743382549e-05,-7.099343396767096581e-02,-9.648597326009814652e-05,2.413174459393438830e-05
2.714154772623704817e-02,1.750881135218105428e-02,-5.676706657456188909e-02,2.783133790077775907e-02,2.918487929938122852e-02,1.282580289093390724e-01,-4.648030949533877784e-03,-1.106597813426879202e-03
2.307134714843545320e-01,2.184711064913254577e-02,8.538163220214752339e-03,3.194577529159269014e-03,-5.406641614929700440e-02,-2.960696115580817561e-03,3.770595246869704216e-03,2.769816056021513089e-04
1.095237890496896516e-01,-1.070074530969409611e-02,1.715543755723281452e-02,2.913544457270028816e-03,-2.640618046202287267e-02,-1.464498414037908314e-02,8.580837502375156245e-03,8.011765363579240184e-04
1.095237890496896516e-01,-1.070074530969409611e-02,1.715543755723281452e-02,2.913544457270028816e-03,-2.640618046202287267e-02,-1.464498414037908314e-02,8.580837502375156245e-03,8.011765363579240184e-04
4.144114033591360657e-01,-3.204308378297987450e-03,2.885262437901957994e-02,-1.258002147225673528e-03,-2.885342560844266283e-02,3.106607928945855947e-03,-9.426191466358039422e-03,-2.601670621799959658e-04
7.438717077439503667e-02,-2.961462832173855642e-03,2.116961045815823200e-02,-6.120859748297747746e-03,2.690274633372903915e-02,3.626579611967926942e-02,-6.977870064978249076e-03,-2.773553237577399810e-04
4.757400861951570359e-02,4.975385499522048949e-02,1.379810707135810735e-02,-4.688464589216892985e-03,-2.608390985166300635e-02,5.330589632044456646e-04,-3.067425550401761854e-03,1.461886024421263334e-05
4.484105472490894882e-03,1.155072782388462047e-02,-1.454119151088728058e-02,1.156778208718368256e-02,-2.660315751609387824e-02,5.904981877437422144e-02,-3.408993290972622651e-03,-5.451534827261049010e-04
3.204963113451137491e-01,-2.897042915306176705e-02,3.210769733961514605e-02,9.536651395770383635e-03,-3.026461619029324149e-03,-3.222986256186397892e-04,5.212895105897394528e-03,-1.387351141276279946e-05
1.119562915721557667e-01,-2.808643307830777786e-02,-2.943752633419782555e-04,2.372280862734525361e-02,-1.168495466389886210e-03,2.561728272085835867e-01,-1.408695342025397847e-02,5.789695014913632263e-04
-4.952938282483844434e-02,-2.702868059828839563e-03,3.064966719899494402e-02,-2.503926903442942054e-05,2.770258049482392736e-04,-4.396439364469985345e-02,7.467844890322611340e-02,2.801388850997229315e-04
-4.952938282483844434e-02,-2.702868059828839563e-03,3.064966719899494402e-02,-2.503926903442942054e-05,2.770258049482392736e-04,-4.396439364469985345e-02,7.467844890322611340e-02,2.801388850997229315e-04
-4.952938282483844434e-02,-2.702868059828839563e-03,3.064966719899494402e-02,-2.503926903442942054e-05,2.770258049482392736e-04,-4.396439364469985345e-02,7.467844890322611340e-02,2.801388850997229315e-04
-1.800128304045760796e-01,2.355658005498996108e-02,1.407940181129158086e-02,8.226375561800097075e-03,8.783630452789011316e-04,-1.753388982357971179e-02,7.597080376028492177e-02,2.811978438472931600e-04
1.872303950990576379e-02,-9.229403216803986829e-03,1.053637384268131527e-02,2.232883633713812505e-03,-4.742852579032639542e-06,-9.939594865092809400e-03,-3.709744241129777584e-05,3.886728607440659255e-06
-8.772089718427867819e-03,-3.234749750604662931e-03,7.257315783022172569e-03,1.585183002854199594e-02,2.742840380531080119e-02,1.944737862714884247e-01,3.796265909933189183e-03,-1.402768675763565965e-03
-6.637836206141622952e-02,2.102902821111851065e-03,-3.427435751095523394e-03,-5.685103185594465522e-04,3.093639043229057294e-04,6.356282273162028318e-02,4.004973885803635625e-04,2.483404453860194327e-06
9.597637899632307026e-03,2.177035680095203585e-03,8.614447689886605211e-03,-4.616023043588858565e-02,5.466067234553590327e-04,4.450890861785335856e-02,-6.730786866562886439e-02,2.714247894371072528e-02
1.664376750011958145e-02,-4.673772773380088785e-03,-1.820938288235846025e-02,6.414834623800672042e-03,-2.020238582479137371e-05,4.160489195351309288e-02,2.847067514969145018e-03,-2.887108454632650095e-04
-2.972550462447130087e-02,-6.348904378207996871e-03,-2.850507446163720940e-02,5.197111120709039470e-04,1.170672247630836398e-03,-5.985568774870816400e-01,3.003070796769809246e-04,6.587092290441382715e-06
-1.117251016608392968e-02,-2.376365792818801309e-02,-7.365905231163770439e-02,2.021183312120953396e-02,3.263545408004852038e-05,3.930023168100415382e-02,3.888976539748718094e-03,-2.590058973455195299e-05
-5.732974639308104775e-02,6.361616263119481557e-04,1.161668998833850774e-02,1.123290989474897729e-02,-1.688287095076128948e-03,-3.145137027970866528e-02,-7.071960319112083337e-02,2.883799583313149256e-02
-1.626642631369881395e-02,-3.973491753982569957e-03,-1.714964433271689431e-02,6.809276431226318933e-03,2.633773892340783682e-04,1.726922262020381613e-02,-6.311864381583732857e-03,5.708169292786205570e-04
4.221985840888720087e-02,9.190957407587449068e-04,-2.277432614550385995e-02,3.501834949685364747e-03,1.211137449632747439e-05,4.008233254395472678e-02,3.478333742274928274e-03,-5.690519262107972915e-04
-3.977360161183970261e-02,1.761838591860101499e-02,7.360470129585581882e-03,-1.730710618972716372e-02,5.564991840988477243e-04,-5.600345205807303467e-02,-3.526125838670604064e-03,1.122854108506151716e-03
-3.903528009639435636e-02,-1.168222545949062878e-02,2.410574458284563820e-02,7.957549093294736045e-03,-2.879364489081958560e-04,-4.187640103680429632e-02,1.877517580550976855e-03,2.001511338455150683e-06
-1.460632048960133766e-02,1.877556349455018411e-02,4.668505008177511323e-02,-2.844590319850878041e-02,5.406621332167685845e-04,8.743443322516425073e-03,2.542695471145091021e-03,1.678826440386689290e-05
3.711112736706069504e-02,-1.793718731118169180e-03,2.112361852357629716e-02,-1.600963350700600196e-02,-2.744460628662082069e-02,1.389652319543737968e-01,-7.685538758987750692e-03,-2.769678304364680058e-02
6.406488653739783774e-03,3.718105264685379061e-04,2.731414278876049574e-03,2.736279856519542239e-02,-5.840250017791472027e-04,9.782584535177215462e-03,-2.266716558641459287e-06,-9.816171540055762998e-09
-4.831145145665697563e-05,4.154711644070006480e-04,-5.572058886742066453e-03,-2.066622501327507883e-02,5.705909545504624873e-04,-2.900083725706101290e-02,3.005839942360005734e-03,-2.813297773090191016e-04
-3.323549018833778235e-02,4.159432493008955074e-03,1.912214165299510119e-02,1.007651344032822055e-02,-2.831575935637139401e-04,-6.416395223824870875e-02,-2.769001649193639811e-04,2.920327487829599646e-04
6.994174963007383783e-02,2.864826821135392325e-03,-3.956870692019098801e-02,-1.784916663624862201e-03,1.041102120294303013e-06,-1.423353100637927277e-03,8.266582969604164340e-05,1.001648029104185224e-05
-8.681958605920832642e-03,-3.463107941682766477e-02,-4.181011195377850459e-02,-3.108693149300623994e-03,3.091358859890445276e-05,-3.534739888241410916e-02,4.177883826507618713e-03,3.428983984887951034e-06
-6.837992398230002995e-03,-8.959859393012289952e-03,-1.606936745403755168e-02,1.030787656138419314e-02,6.364281972958781746e-04,2.212177131063168892e-02,-4.024276036848940807e-03,-2.121213517395693056e-05
-9.718363045880377971e-02,1.613862587601951754e-02,3.904760032824672322e-02,-1.753171614519756462e-03,1.044428570062416132e-03,6.006635805113094001e-03,-4.050900792944745962e-03,5.319038345594972669e-04
1.348863107263135498e-02,-2.604789126981504194e-02,-3.534318308808210435e-02,8.027147014328010755e-02,-2.905368189289471090e-02,3.913703888012890625e-02,-4.559028211019434257e-03,-2.640618324612491880e-02
3.753637579512915379e-02,8.257390582266722553e-03,5.099605713763839809e-02,-1.923722340818847035e-02,-2.858790712779060023e-02,3.634409372369329372e-01,-4.378401973220888074e-03,-2.857820399277892151e-02
1.299780583943890497e-02,-3.421528975967998848e-02,1.477288029056768315e-02,1.138078989306122966e-02,2.711400458787711215e-02,2.752778494124289432e-01,7.043910136019260540e-03,-1.368336125422759796e-03
2.567667818092665005e-02,-2.911089600610046804e-02,-4.749467398660833783e-02,3.648406546749904250e-02,-3.316867185714660916e-04,1.983570977393125379e-01,1.690988421680737677e-03,-7.805768864385267773e-05
-1.222230995303026993e-02,-2.188382175332025809e-02,-6.423500939159111633e-02,2.191422576287489765e-02,5.855428604938075956e-04,1.047708389540165791e-01,-4.385450898281584471e-03,5.375933447043502967e-04
-4.306605064093385615e-02,-8.808576730720092327e-03,-8.935619862441948613e-02,1.776896267220872631e-03,-4.302508893634983693e-05,2.744376154332340834e-01,1.178299222022700585e-02,-2.884349463797040297e-02
-4.224744545685960029e-02,-3.161761057869597047e-02,1.366164285144641499e-02,-3.948586397620757957e-03,8.209675552219335625e-04,-6.474003486972879085e-01,7.576164378456632167e-03,1.078736608457643272e-03
-1.196291303119365480e-03,5.234519560771444882e-03,8.159564439104935799e-03,2.380891245088616499e-03,-2.883836416436864197e-02,4.471987953077039002e-01,-8.451911750556176720e-05,-2.910288000052060485e-04
2.540140329154202958e-02,2.712820722882114313e-03,-3.245052329565333710e-02,-1.587862520251267368e-02,5.313823371960325323e-05,6.475204657879388148e-03,1.871912393997906664e-03,-5.007236871868702430e-04
8.410741649401334147e-03,1.422085018154896872e-02,1.828394016902151753e-02,4.632089703425538996e-02,-2.922812362090239954e-04,-4.068910143364196097e-02,-4.084445526355772252e-03,1.789312977316316920e-05
-6.228890950043347585e-02,3.896380859540202971e-03,2.777586121448767566e-03,7.831881079117600231e-03,-5.689367859129857612e-05,-1.083303594240201187e-02,-4.012866722661954228e-05,1.308405422919151637e-05
-2.388908135198272373e-02,2.782693240062494161e-02,3.689111556303466960e-03,1.687442613703748207e-01,-2.828694044228174942e-02,-1.866899055552725673e-01,-3.342811767206957472e-03,1.459934023454640165e-05
3.938191021794936603e-02,8.856784903231191153e-04,-8.567349818702338707e-03,4.596828393129885615e-02,-2.774217899018705013e-04,-8.899159265432957100e-02,-4.438737036831424954e-03,2.176966950498577063e-05
1.789809181994406542e-02,-1.202115311065239320e-02,-3.113432233769938828e-02,6.524931827987071054e-02,-1.582254703189045790e-03,-9.617841906449012268e-02,6.184213498742013870e-03,-5.554656008403923952e-05
-7.567463300841509657e-03,-1.025367276985355951e-02,4.656117118894428225e-02,7.674126259341648715e-02,-2.438519628224606120e-03,-1.572937086612253010e-01,5.678333628751021551e-03,-3.847428752867697234e-05
-2.640787687438786446e-02,4.217244993913140359e-03,7.481726262761743962e-03,1.484733805814603125e-02,5.969546641838420573e-04,-7.906406915275521197e-02,-3.750148682899123124e-03,1.095370992956473362e-03
9.288927892550379734e-03,-2.422636402173702040e-03,-9.126833737076614148e-03,5.462215155414106363e-03,-8.518070972060029023e-04,1.987494503220336734e-03,-4.466759230305000707e-04,-1.037714893170723924e-03
1.988037642135205042e-03,2.457922701686284135e-03,-2.985509212176045216e-02,-2.720543940442566797e-02,-7.889346237436447662e-04,1.183534948908674667e-01,2.627269968978240746e-03,-1.628298471551368944e-03
3.542912503063164187e-02,-4.892050897146353605e-02,-4.790274527968056695e-02,-7.773318711034500356e-04,2.815629362413970844e-04,-4.248316391442624740e-02,1.300604711908637094e-04,-4.864674887231192416e-04
-7.300890250415184232e-03,4.880559103859986175e-03,-2.072825838468376689e-02,-3.266765455983977606e-02,6.287247346235817671e-05,1.163660003876470783e-01,3.073945892008741413e-03,-5.905835783806450204e-04
3.982348152717040540e-03,-9.816810566220706205e-03,2.643943486385228955e-02,1.745039624714436050e-02,-3.754249585176570804e-04,-5.031215537446190322e-03,-4.053609486627239057e-04,4.815687529261557026e-04
3.982348152717040540e-03,-9.816810566220706205e-03,2.643943486385228955e-02,1.745039624714436050e-02,-3.754249585176570804e-04,-5.031215537446190322e-03,-4.053609486627239057e-04,4.815687529261557026e-04
-1.183130230241096056e-03,3.574411330297679046e-02,-2.861277951770051925e-02,-3.663071629115044470e-02,1.597453779166557427e-03,5.130338129319909901e-02,-1.042182137200950041e-03,5.535092906291276321e-04
-7.900947131764850945e-03,-3.975659318349397675e-02,1.014505118912291393e-01,-3.380936877479202157e-02,2.727997647794675666e-04,3.068005896389824905e-02,4.647592115339339511e-03,4.090211948075444848e-05
9.806180505896375244e-02,-1.272158614158669723e-02,-2.765650422805377914e-02,2.232626281817583214e-02,1.853179224690012857e-05,1.696567317737353656e-02,-7.707931060154976817e-03,4.377005937625503784e-06
9.806180505896375244e-02,-1.272158614158669723e-02,-2.765650422805377914e-02,2.232626281817583214e-02,1.853179224690012857e-05,1.696567317737353656e-02,-7.707931060154976817e-03,4.377005937625503784e-06
-3.605204332046064997e-02,1.321835411142743312e-02,1.031801072026984969e-02,1.437941770838731693e-03,2.845854378078768255e-04,1.813943811489241581e-02,2.303598539796906410e-03,-3.997542877504535865e-06
-3.605204332046064997e-02,1.321835411142743312e-02,1.031801072026984969e-02,1.437941770838731693e-03,2.845854378078768255e-04,1.813943811489241581e-02,2.303598539796906410e-03,-3.997542877504535865e-06
8.281098002382529522e-02,4.807137188371362300e-03,-8.042468960179471188e-03,1.279453591247836641e-02,-2.797402989239938104e-02,-1.663086525890767383e-03,2.080279583051566645e-03,-3.456062055639503028e-06
-5.017172802069132936e-02,5.053342701952570886e-04,4.334683655689741677e-02,6.736598162123709748e-04,1.000968482497662567e-05,3.529053792446718713e-02,4.394363352124418254e-03,-1.341082984835763706e-05
-1.169397946353139574e-02,2.258836687489675088e-02,5.992013278710145441e-02,-1.095234807710978274e-02,7.890898153400242084e-04,8.049667513334343716e-02,-3.942567514261144206e-03,5.384095260575876831e-04
-3.336073116794838200e-02,-8.643294634486708766e-04,1.279260028639984670e-01,-1.245686336078628657e-02,7.924810285913682500e-04,4.728930153295281963e-02,1.166131318337405636e-03,5.405031486405667725e-04
1.223840098006032280e-02,7.093923334572878325e-03,-2.406623599734403762e-01,-3.282802945409656840e-03,2.885763200950786089e-02,-1.267876500664475159e-01,3.848334216953206506e-04,5.730003031962393242e-04
1.361288602270553996e-02,6.923708343244286412e-02,-1.299586311686969642e-01,7.004230057907083386e-04,-2.877910582464532569e-04,-3.388231790267558219e-03,2.433382099316265708e-03,7.953415923945563425e-06
-9.829088771757216875e-03,2.676960331352306460e-02,5.474158862331990338e-01,2.286248803013237775e-05,2.812958477200700131e-04,5.776676677281700027e-03,-3.188179577617024059e-04,1.604908384267472087e-05
1.552392671339880917e-02,8.947693649248735989e-03,6.717189572748780146e-02,5.254647668339404096e-03,-5.363823852968296673e-04,-1.833922862397042997e-02,-8.033272366584579688e-04,1.486766408769445376e-06
-8.478301620139606920e-02,7.226030683974005164e-02,5.803262023496365274e-02,5.851241743589362040e-03,-1.075219711045574504e-03,-3.047422269694633964e-02,2.140028200023144297e-03,-5.245181452788634513e-04
-1.939813792464905456e-02,-8.893058987332346649e-03,1.877250763624597682e-02,-1.500567036871418812e-02,5.800867102357977478e-04,4.628907510210376365e-03,-1.378489552492684789e-04,4.448044387263227125e-06
-8.681615483365517916e-02,3.466834179793346245e-03,1.052179800268086916e-03,2.845378172474685025e-02,7.916493939740696587e-05,1.151758008717932574e-02,-4.075979684639816601e-03,-2.499725055010384870e-05
-2.360736302894255248e-02,2.802524368275012209e-02,4.455991188896001737e-02,4.063971936750924996e-02,5.088382006413403030e-04,4.233133895483637971e-02,9.844099698960110528e-04,5.119370017344558555e-04
9.511529101854228341e-02,-1.629882476153239612e-02,-7.639082597767443694e-02,-2.636760923806341465e-03,2.188202696670178509e-05,-3.435515548762312597e-03,-4.041492962667283498e-04,-1.088956073586643452e-05
-4.423325962318658440e-03,-3.979955020319054897e-03,7.555359565788209893e-03,-6.742508294330523417e-04,2.362048140011394596e-05,8.652366101526930836e-03,5.651669795208457900e-03,-7.193990487897045133e-06
-1.531465553660157908e-01,3.031798729897438455e-02,-1.134814543684523336e-01,2.040262964521275067e-03,2.227871213665194412e-05,-2.869418874027392444e-02,9.019153683611046482e-03,4.098672449561736730e-06
-9.356389526992514583e-02,4.250766722347949778e-02,-1.024964188631122541e-01,-1.396093732006901868e-03,-3.490537812373560231e-05,-1.731842329222686022e-02,-7.438779695801764694e-03,2.976003026075465698e-06
-7.435927055851512812e-02,-7.453591827639015777e-04,-7.547926831793937141e-02,3.513904334461983268e-03,5.794383268048780447e-06,1.469989474620279901e-02,-1.720481150374414793e-03,1.861504436226127775e-05
-7.615438138614698260e-02,-2.050352370931110002e-01,2.710800107850862006e-01,-9.575197251805795534e-03,3.348378203524272575e-04,3.190379617357323727e-02,3.848436467518469902e-03,-5.296708806482011613e-04
-8.420879581812857478e-03,-1.587848309111397349e-01,1.217654350498872107e-01,4.132149429927261326e-04,7.215292377916760658e-06,-3.559007414974181549e-02,-8.390729490549478625e-04,-7.178289783581152956e-06
-8.334737912532459714e-02,-2.110219657283281536e-01,3.128565458201736926e-01,6.754046499324436927e-04,2.769465856894015197e-04,6.453063669395911472e-02,2.030610188033323688e-03,-2.538419058232100847e-05
8.264878666751730718e-02,-3.192796800514387245e-02,2.648290640895242798e-02,1.003259550474460901e-02,-2.797764496678294480e-02,1.136275204341249817e-01,2.795510924660655951e-03,-2.154299808953865153e-05
-1.334614051097331687e-02,-6.155048024034333320e-02,6.061558765961372330e-02,5.747391003655570769e-03,-2.826333382292659001e-04,-2.829169804530525835e-03,-8.523537342621601096e-04,2.757654220231822831e-05
-1.334614051097331687e-02,-6.155048024034333320e-02,6.061558765961372330e-02,5.747391003655570769e-03,-2.826333382292659001e-04,-2.829169804530525835e-03,-8.523537342621601096e-04,2.757654220231822831e-05
-1.334614051097331687e-02,-6.155048024034333320e-02,6.061558765961372330e-02,5.747391003655570769e-03,-2.826333382292659001e-04,-2.829169804530525835e-03,-8.523537342621601096e-04,2.757654220231822831e-05
-1.334614051097331687e-02,-6.155048024034333320e-02,6.061558765961372330e-02,5.747391003655570769e-03,-2.826333382292659001e-04,-2.829169804530525835e-03,-8.523537342621601096e-04,2.757654220231822831e-05
-1.334614051097331687e-02,-6.155048024034333320e-02,6.061558765961372330e-02,5.747391003655570769e-03,-2.826333382292659001e-04,-2.829169804530525835e-03,-8.523537342621601096e-04,2.757654220231822831e-05
-3.304290269362073623e-02,5.152119649010343007e-03,-7.064215912461609299e-03,1.655032979601856954e-03,5.021182754607617607e-06,-4.125980406975889025e-02,-2.741950599183325295e-03,1.460088117113422236e-05
-4.666219015024454519e-02,-4.098409146752490101e-02,1.169706285520629302e-01,-2.835957966364156292e-03,1.528219820531774592e-05,-5.650642091844409673e-03,-3.379400438214903886e-03,1.650727045269564220e-05
-8.035528360389582181e-02,-4.294907070880154415e-02,1.208748092660795470e-01,2.328765051820506221e-03,-4.327845919091816371e-06,-9.205063000284795932e-03,-3.764178280095321037e-03,-2.555256087098163038e-06
-8.035528360389582181e-02,-4.294907070880154415e-02,1.208748092660795470e-01,2.328765051820506221e-03,-4.327845919091816371e-06,-9.205063000284795932e-03,-3.764178280095321037e-03,-2.555256087098163038e-06
-6.712954679609708930e-03,1.869397923066300551e-02,1.040084583918864658e-01,3.255613284398989251e-03,-2.889811937893269284e-04,-6.400122290908439107e-03,-3.311687557270810017e-03,3.169366538659378885e-07
3.569811645713428377e-02,-1.306671268253992504e-02,1.870091012552438413e-03,-2.203459039455313642e-02,5.486228360277532311e-04,1.851375579188707350e-03,1.463734203796611486e-03,-3.509269595883383727e-06
3.025891709865741186e-01,-4.655357525329219259e-02,7.993986568207471499e-02,9.786783528225300594e-03,4.843829310953725676e-04,-4.856694030156394337e-02,-8.281964459815396862e-03,5.438859470846741685e-04
1.982863979993811782e-02,1.708554400106635993e-02,-1.319055066612996874e-01,1.344522455630003596e-02,-5.597616900773471358e-04,2.057642431802519239e-02,7.250826489946560031e-03,-2.540809585604223147e-06
-2.266476423053642025e-02,-3.224479907785602478e-03,-7.244188630059646312e-03,-9.945874604910155334e-03,3.928157045882193653e-05,-3.440418987239537985e-02,-1.205899858234300761e-03,-4.859763953485980942e-04
5.038035038783577647e-03,-4.713858331317567762e-02,5.402540958245947295e-02,5.885665270573479414e-03,-1.546389621247265296e-06,1.011652094078970866e-02,-3.231792976790869801e-03,4.120096719596897733e-05
-2.266476423053642025e-02,-3.224479907785602478e-03,-7.244188630059646312e-03,-9.945874604910155334e-03,3.928157045882193653e-05,-3.440418987239537985e-02,-1.205899858234300761e-03,-4.859763953485980942e-04
-4.167007916875277440e-02,-2.249708934820027900e-02,7.547884117210282295e-02,7.008560487965946779e-03,-5.744493631902830664e-05,2.735050717913488361e-03,-5.446439569732525882e-03,5.090351541270711532e-04
4.187155789224340850e-04,-5.443773548315596761e-02,5.319536931444637101e-02,2.338896559973102640e-03,1.750957292695391694e-05,-1.799791950967316589e-02,-3.836680129318803360e-03,2.763913653987791225e-05
4.208879474767519141e-02,-3.194064613495568861e-02,-2.228347185765649704e-02,-4.669663927992847609e-03,7.495450924598223035e-05,-2.073297022758666119e-02,1.609759440413724473e-03,-4.813960175871931325e-04
4.208879474767519141e-02,-3.194064613495568861e-02,-2.228347185765649704e-02,-4.669663927992847609e-03,7.495450924598223035e-05,-2.073297022758666119e-02,1.609759440413724473e-03,-4.813960175871931325e-04
2.308347980945884420e-02,-5.121325557537037554e-02,6.043955794450601993e-02,1.228477116488325797e-02,-2.177199753186801959e-05,1.640627036272223477e-02,-2.630780271084501732e-03,5.136155318884760065e-04
6.975702886756462995e-02,5.238303503281715057e-04,1.188114326870995732e-02,7.170681336244932869e-03,-5.724617208583466675e-04,-1.216700816747068661e-02,-7.739852539494598057e-04,-5.269208651297057787e-04
3.109005682042956156e-03,1.715291790007741554e-02,1.459166314831321365e-02,-2.342453846840114508e-03,-2.784863911704363098e-04,1.548683726371777314e-02,1.787432257854245699e-04,-3.896055932231157490e-06
-3.932247248493543623e-02,2.279559151909790402e-02,1.368544909206480253e-01,-9.798690394890437281e-04,-2.812495309647275519e-04,-3.063836841135678373e-03,-3.394205355485791701e-04,-6.996055858658925978e-06
3.109005682042956156e-03,1.715291790007741554e-02,1.459166314831321365e-02,-2.342453846840114508e-03,-2.784863911704363098e-04,1.548683726371777314e-02,1.787432257854245699e-04,-3.896055932231157490e-06
-1.932659580100230465e-02,2.050958019293533385e-02,-5.650325596319866195e-01,2.740024623288776252e-03,2.912441230612353160e-02,7.388683819191122111e-03,5.752806405894102465e-04,-1.263808299568590399e-05
-3.932247248493543623e-02,2.279559151909790402e-02,1.368544909206480253e-01,-9.798690394890437281e-04,-2.812495309647275519e-04,-3.063836841135678373e-03,-3.394205355485791701e-04,-6.996055858658925978e-06
8.095810618877862311e-03,1.439551685156167417e-02,1.591431316574717231e-02,1.427320620207194433e-02,-5.510412311694953824e-04,1.500889782877034943e-03,2.682247831898599069e-03,1.848344388476274584e-06
2.835022986955194613e-01,-2.206560738694276960e-03,8.399444112458492439e-04,4.884022086693121448e-03,-2.944850876769653653e-02,1.283442304260438982e-02,3.837141684130335358e-03,-4.090463058632175083e-06
2.083981744597745434e-01,-1.618985959491254026e-02,-3.591303303423890730e-02,-9.377213115558782398e-05,-2.768300975634642100e-02,-2.515132312170912862e-02,-4.370486255629831354e-03,-6.472152086248799509e-06
1.646392753512335716e-01,6.204656184361796896e-03,1.920042409169516601e-02,-6.472572054946511104e-03,-1.189893437489277254e-03,3.263694768338755436e-02,4.060460640875676423e-03,-4.631943880497207920e-06
1.646392753512335716e-01,6.204656184361796896e-03,1.920042409169516601e-02,-6.472572054946511104e-03,-1.189893437489277254e-03,3.263694768338755436e-02,4.060460640875676423e-03,-4.631943880497207920e-06
3.203671903934460219e-01,-1.607053956474247675e-02,-1.029228962828860824e-02,1.275947419744454837e-02,-7.718746632291630122e-06,-4.826547346260326443e-02,-8.145772021164494545e-03,5.506758339879403753e-04
4.155539723957956122e-01,-7.706116832925552149e-03,-7.378097611276647483e-02,1.169350080029282757e-02,4.809791141898650058e-04,-4.269816275105190601e-02,-7.490053201442306401e-03,5.537541956842971600e-04
1.985279377533457346e-01,6.222136703155366037e-03,2.592266181116176064e-03,4.277428233795547811e-03,-5.733111557227840195e-04,-3.375839957996689539e-02,-3.757130408976165777e-04,2.451314839274901025e-05
8.019811375493393624e-02,3.390965767521446350e-02,-9.092644148983379873e-03,-2.254419032514210636e-02,1.600206974028216224e-03,6.287278801097295755e-02,-7.089925532455555734e-04,-5.530023725919521122e-04
-3.808695790496748057e-02,1.701777793875024550e-02,2.358395418513197297e-03,2.828785981217577135e-03,1.622110352238556206e-03,2.688447884981424660e-02,-2.645231196341387651e-03,-5.172365339535325585e-04
1.531968919781875049e-01,-2.275901526044425780e-03,1.801307388063806691e-02,2.651089399223471258e-03,-2.170263688872783869e-03,-5.202631970599982253e-02,2.121609995825331479e-03,5.421409050518236159e-04
-3.384243849574298385e-02,1.427460702427605678e-02,6.919812339760850542e-03,-3.061001664041077680e-02,-3.808147136178306432e-05,-3.494915727788458493e-02,9.229890204666092376e-03,-5.516890159006389424e-04
1.023262930597065717e-01,5.845665683052054910e-03,-3.323028018901787173e-02,-1.340507525239811350e-02,6.188670729712839047e-04,7.397576166188124525e-02,-2.223057518753105647e-03,-5.705790738377280053e-05
1.261528089729742064e-01,7.234963135958956404e-03,-1.489390698690419915e-02,6.215487728336149646e-03,1.038800216117718436e-03,5.157033749485152863e-02,1.071845967129643170e-03,5.259152325627070024e-04
1.936513353527608561e-01,-1.071213293812886026e-02,-3.753593815952584872e-02,2.143290451559200574e-02,-1.138289012442800924e-03,5.945380631358990892e-02,3.624104720528881739e-03,-6.276148234706590001e-06
-1.443225967993180814e-01,3.118881905767359984e-03,4.918340197437780920e-02,-1.611506973621899211e-03,1.078301371322323626e-03,-3.460376902066136882e-03,1.390929707899889048e-03,5.353555661266877919e-04
