2.748674952353153539e-02,3.378321575519567521e-02,-1.769322827156481759e-02,-1.276851123686353340e-01,1.115221267913680148e+00,8.408749041239699240e-03,8.566915938008901055e-04,-2.391857238312714018e-03
8.175773716050187268e-02,1.263805499493950990e-01,2.067868007271347636e-03,4.061818495963036291e-02,-1.994041991251925550e-01,6.437209191414610884e-03,-5.131519680749160178e-02,-7.482818553437168944e-03
-4.938074758505148210e-02,2.545636696208538052e-01,-2.312648449781373738e-02,-2.400568163092541701e-02,-2.980513374426307371e-01,-2.644017380788514678e-03,1.314342452477440804e-01,3.518017298571698287e-02
8.120486885497416041e-02,1.041232700673688782e-01,-1.738035050415645544e-02,2.239551226799579159e-02,-1.647738064671213642e-01,-3.659829909454492131e-02,-3.650038398557011593e-03,4.395022818925629904e-02
3.834518085666677872e-02,7.773088213281210967e-02,1.551969317133520265e-01,1.100716931342859972e-02,-1.256776405012749176e-01,-4.701314746954875223e-02,-1.251869578455916954e-01,1.197159654351706050e-02
6.466587018730253489e-02,8.477208533058375184e-02,-7.322440829473257640e-02,1.298395721640188162e-02,-1.856388719432096601e-01,3.490611630118760356e-02,5.287487207937173472e-02,-5.135187274166356369e-02
-4.362447767449953995e-01,2.570963219209685402e-01,-5.485725558260649837e-02,2.773312251892025900e-03,1.830553132879869926e-01,-6.318234880781628884e-03,5.774942698800295329e-03,9.434947670823234586e-03
-9.301367608671753939e-02,1.148747266962804742e-01,1.709881527635766785e-01,1.301167733085229448e-02,-1.714225410689111107e-01,2.209710757504922823e-02,6.178900833065444076e-02,-1.921058132241055399e-02
-7.652058838526065720e-02,3.427386728887672485e-01,3.721187543543711951e-01,4.464918154870584771e-02,-1.399593467753984244e-01,-1.325176813653936581e-01,-4.505822386347480002e-02,4.387646434754580854e-02
1.060226674212695272e-02,5.287382338159735129e-02,1.789105201729795092e-01,-8.449380597853051178e-02,5.283683737969907535e-02,4.225994032045556070e-02,-7.042109229117204938e-02,-2.645719399452173271e-02
-1.076149933884105458e-01,1.684106261265082005e-01,1.414806714075790284e-01,1.592837257653673816e-02,-1.222301029881101009e-01,1.656085212759817946e-02,5.341568846061557629e-02,-2.104400704160359209e-02
-2.213863209618024616e-02,5.695397119088778382e-02,-4.680300971731705256e-02,-1.482545617282602247e-03,-6.341850672007551259e-02,-1.566705220558987227e-02,2.594639784666868954e-03,-1.616692171200352374e-03
-1.616277331956331859e-02,5.780149278430936344e-02,1.289282692473097368e-02,-4.124861004558667832e-02,-3.653123806229058301e-02,-2.798963819581773427e-02,2.734379914093141347e-03,4.202441862449231985e-02
-5.467903213961087215e-03,3.915825224755050543e-02,-3.980174660659211577e-02,3.837591797256564158e-03,-6.151422660886329830e-02,-3.220059995681020214e-03,1.094027315419289145e-02,-1.689785832589694309e-02
2.913712319345550597e-02,-2.282547321087141298e-02,-2.967617486181805056e-02,-5.314588805900347795e-02,-4.386089120384757678e-02,5.147475837164470873e-03,5.423209020562223120e-02,-1.491601207237967797e-02
-1.697566818471438477e-01,2.481321316621087902e-01,4.408685246300152877e-02,4.924748944388617281e-03,-1.052242405616713450e-01,-1.229482290107826621e-02,1.554517090572203088e-02,-4.157034944787689262e-04
-2.252256100439338146e-02,3.323043637696868058e-02,-2.581210419358161839e-02,5.508686371757763600e-02,9.694206099853998337e-02,2.571739047691723457e-02,-5.358126700560494893e-02,-2.980080931323991073e-02
3.335940405029377831e-02,8.148289143789429201e-02,-1.048701506676389117e-01,-2.218351547176127328e-02,1.017291685806795756e-02,-2.410959211122686713e-02,-2.974881560329453722e-02,1.381855732616538504e-02
-1.240325114294974981e-02,-3.550874020422771504e-02,1.905397066209737478e-01,4.933676737944580996e-03,3.397119194863727765e-02,-2.967308408186120072e-02,-2.018837265883619558e-01,3.891349107658628043e-02
-3.205937705528169590e-02,-3.772810606659068172e-02,1.818118240273484398e-01,3.504249240230193456e-03,-1.568260825854833965e-02,1.924865102770090541e-01,-1.514256444779981947e-01,-1.843428881474964975e-01
3.792829890622191613e-02,-3.152364621760571362e-02,2.102383844219751496e-01,-1.398312331441290378e-02,1.972077031992497051e-02,-2.181693057578640293e-02,-2.335926362867189465e-01,3.934191031267961908e-02
3.516109249971657164e-02,-1.929305878684064446e-01,4.369380792640573802e-03,-4.176383888834100250e-02,-2.703434850972855630e-01,7.026985170218355385e-03,4.578875861189437013e-01,-5.676531974821052290e-03
-1.268216837912722848e-02,1.883535071926886045e-02,-1.421113692049364753e-02,7.930510467657862772e-02,-1.219960335097196591e-01,-1.194206815014952835e-02,7.480981518316512369e-02,-1.219603243323054940e-02
-1.072956673139924613e-02,-1.432704352677479642e-01,2.496989821244008020e-02,1.868915676083041932e-01,-1.590290312298886233e-01,1.085700707155663400e-02,4.519490861841461704e-02,1.084953026388734126e-03
-1.259333708660028382e-02,2.484251680323242353e-02,-1.268105158968184376e-02,-4.404748358875915093e-03,9.747890762142229909e-03,6.940633451662993336e-03,-6.498129808470608226e-03,-6.773873985283544556e-03
-2.749983044739141569e-01,3.310384354276371122e-01,-7.030645006161509447e-02,-1.069875459210324273e-02,-2.178255946545299554e-02,-5.483746495704713148e-02,-1.289365229520068011e-02,4.989013672384763620e-02
-1.870261767508886730e-01,2.040567148879610104e-01,4.620463019863877557e-02,1.836569418247509244e-02,5.233577954476309468e-02,2.156659536652568224e-02,-6.172862656349046434e-02,-1.024698549494235111e-02
-2.386719037677620392e-01,2.259307506971606205e-01,7.414904462028680532e-02,-7.174218306201110909e-03,-1.139729044863807897e-02,3.372191357922039306e-03,2.149159717926134999e-02,-2.519058116074308386e-03
-4.461168736817976155e-02,3.757153854253118125e-02,3.069194501202020947e-02,1.627528184222008789e-03,1.274810471621701594e-02,-2.566610288952003716e-02,-3.691339967923407128e-02,5.927882100581173541e-02
2.815331164109275905e-02,-2.611384674467935318e-01,-5.507025502187057157e-03,6.632052513730098001e-04,1.317254159330925010e-02,-8.951489946876615283e-03,2.265105948633723276e-01,1.048874731771941987e-02
1.228846546437902393e-01,-1.605632491828919844e-02,3.627161868764101731e-03,-1.813423095909248023e-02,-4.772839755782998239e-02,2.518850243435041825e-02,1.312554910519455886e-01,-2.156841176207628941e-01
1.353751393554612770e-01,-1.821831730259670240e-02,3.998626530244671004e-03,-3.596318562017709192e-02,-2.576073788836968220e-02,-3.699387377793986794e-03,-7.331335248856592213e-02,2.402177939855134475e-02
1.353751393554612770e-01,-1.821831730259670240e-02,3.998626530244671004e-03,-3.596318562017709192e-02,-2.576073788836968220e-02,-3.699387377793986794e-03,-7.331335248856592213e-02,2.402177939855134475e-02
1.353751393554612770e-01,-1.821831730259670240e-02,3.998626530244671004e-03,-3.596318562017709192e-02,-2.576073788836968220e-02,-3.699387377793986794e-03,-7.331335248856592213e-02,2.402177939855134475e-02
1.324003781057743745e-01,-2.622818613700086260e-02,-2.089299066126463350e-02,-2.722475492577725031e-02,-4.632164100924339445e-02,-1.129608079408556988e-02,-1.735267556975386011e-02,2.751937119816418378e-02
1.353751393554612770e-01,-1.821831730259670240e-02,3.998626530244671004e-03,-3.596318562017709192e-02,-2.576073788836968220e-02,-3.699387377793986794e-03,-7.331335248856592213e-02,2.402177939855134475e-02
9.101876593151771166e-02,-2.132586671062994266e-02,6.458678720666480300e-03,-2.429209182563308797e-02,-1.639444263166063218e-02,-1.986365967336444632e-02,-6.298032352213364660e-02,5.431850874740676988e-02
4.348128962312202556e-02,-2.906534735105042455e-01,-4.949328263160227004e-02,2.937114736247252722e-01,2.206809179039852589e-02,3.545402622677065047e-02,-6.850956252884236874e-02,-1.952781346409295307e-02
8.692218358851024063e-02,-7.756413139792782581e-03,1.107510046240021626e-02,-2.149304979462440812e-02,-7.888719149393971786e-02,1.900556162380465488e-03,-4.162838009742118872e-02,1.277770371522741165e-02
-2.836628205923142840e-02,-2.216830150273236752e-02,-6.955186305395804052e-04,-1.847845679191981172e-02,6.763823569970112311e-03,2.317784712570135353e-01,-9.204504289039135145e-02,-4.936624612231914344e-02
-3.436200347173976044e-02,-5.457772942876056715e-02,-5.391096171894773324e-03,3.585951645717418753e-03,-3.790085399379069207e-03,2.327798693756062964e-01,-5.806634678040041575e-02,-5.441515967933448217e-02
-1.939319360952476354e-02,-5.376735196972668579e-02,-4.346661653592747560e-03,-1.763004637582347642e-02,-2.722290766737753970e-02,-6.686881232803751351e-02,-5.235982301590402788e-02,2.430023437512284779e-01
2.027117244420187370e-02,-1.089701371953446934e-01,-1.000279796832153137e-02,1.732342333244696886e-01,-1.481652358997029850e-01,1.359832580800602320e-01,-1.463148608256339134e-01,3.500851326660715974e-03
-2.277724294702717506e-02,1.576330130938124463e-01,1.721864168259762684e-01,2.633184473675157997e-02,2.371626775455955988e-02,-1.358820922948515419e-01,-4.423274994154647449e-02,2.382897062204243285e-02
-2.277724294702717506e-02,1.576330130938124463e-01,1.721864168259762684e-01,2.633184473675157997e-02,2.371626775455955988e-02,-1.358820922948515419e-01,-4.423274994154647449e-02,2.382897062204243285e-02
-3.062466097152783881e-02,1.230654465335453418e-01,1.513807075338840791e-01,2.949226209782653332e-02,-6.747179974627605381e-02,-1.160729211283178242e-01,-2.036349668695410647e-02,2.180887385712507870e-02
-1.639162142624127003e-02,4.118414177834926184e-04,-7.797398625021959191e-03,6.498643582084717707e-02,-9.810931233562611431e-02,4.480611421377759737e-03,6.679308622121708436e-03,-4.141637850333006188e-02
3.768462672254897783e-02,-6.450146774736095767e-02,1.258522364850930830e-02,-4.945528968269202741e-02,2.732931871562276419e-02,4.761041903642177506e-04,2.159204771666550782e-02,-3.995786708755705470e-03
-2.573463180029055344e-02,2.544455378599252970e-02,4.886683522740541130e-02,-1.488879960318144346e-02,2.209543386485685393e-02,-1.801144151973806465e-02,-4.612837789517917203e-02,3.336650561399615023e-02
-8.935952691620535626e-02,1.062083298718000945e-01,1.949669119536851514e-01,1.583598208793442208e-02,1.533375150203690864e-03,-1.015961940061791725e-02,-8.738583013252471457e-03,3.679039555957538087e-03
2.391391170293335512e-03,4.053768516371052122e-02,1.433670867826408735e-02,1.779794000276282637e-02,4.257531735947062135e-03,-1.536244278594344446e-02,-3.628407994705890732e-02,-8.316023271212705584e-03
1.875717016083456451e-02,2.806363580004159197e-02,-4.061685935717173658e-03,-3.152663809890435265e-02,-1.103462173322760850e-02,-7.507149533523188589e-03,-1.616378988994923716e-02,6.592924410742407107e-03
3.597083893934090171e-02,-3.851968008069919097e-02,-7.694207993989518601e-02,1.786240890249690683e-02,-2.639328823999577758e-02,-4.997498702712575153e-03,1.240558751087349060e-01,3.885333565646479671e-03
6.294919724193892736e-03,-1.003159076878476774e-01,1.816584606808390734e-01,6.028495118130196978e-02,-1.056867772212747025e-01,-1.747914065253632077e-03,-6.217247290624604295e-02,-7.691266556079388687e-03
5.280649674622217571e-03,-6.786321018919634629e-02,-8.698516275427758959e-02,6.701690889394791573e-02,-1.382524007769007392e-02,1.493212924125744689e-02,-4.255375213303466513e-03,2.568037347267241883e-03
-2.973920355417774327e-03,3.770524770153617367e-02,1.767368244711738090e-02,-3.223768259358201216e-01,6.218886598108671823e-03,-8.564099713183748533e-03,3.262490051862986240e-01,2.589040331376998679e-06
4.196535758800207933e-02,-5.607406303750141902e-02,2.015052796517422667e-02,8.684122364050335385e-02,-1.268989841165638066e-01,-1.884523985121346751e-02,6.624984800666029738e-02,-2.917481718224108314e-04
-1.675821390897295760e-01,1.625412749600138040e-01,4.493971665445032487e-02,-2.621642364262597585e-02,3.063396581610041552e-02,2.795001947696017230e-03,-1.259136406576566143e-03,-2.909308080645122297e-03
5.651296491117007402e-03,-5.688924699020646292e-02,-7.955847956655996700e-02,-7.629368473079875534e-02,2.597668313775235438e-01,3.042288028504693334e-02,2.061465343058774269e-02,-1.318247864906274547e-02
-2.654390868404992582e-02,1.672105940391379886e-01,-9.010435211678582967e-02,1.063305518300804338e-02,-4.900244996098748404e-03,2.355004342927020239e-02,6.578851734204047008e-02,-1.044814186459257568e-03
-6.272332170093912473e-02,9.947597354008919091e-02,5.838290301809487964e-02,-1.721914625134315924e-02,-1.163654920352832078e-01,4.625842158796073661e-02,1.119588447489936883e-01,-4.557180356459324122e-02
4.416876213647229904e-02,-2.259104818734851243e-03,7.877540240770024293e-02,-2.116911837008103939e-02,2.773819402476831314e-02,-1.518259894492817764e-02,-3.056679712935782972e-02,3.365330421916302821e-03
1.360056544081198193e-01,-6.140151754716296345e-02,1.681107242718495737e-02,4.678253214424989842e-02,7.730451788525358192e-02,-2.505338192152925698e-03,-1.172475560919803428e-01,-6.498617960662096682e-03
5.469767684076642933e-02,2.560864925422623450e-02,2.221994989140470625e-03,-1.783139430971361281e-02,3.110433548989073246e-02,-5.476052981343471245e-03,-3.527213457219220780e-03,-1.914478115667253566e-02
-1.660955936650074238e-01,2.426669969207204125e-01,2.985059150301704739e-02,1.579154253501794530e-02,-2.011800552344032364e-02,2.228920883021110345e-03,-9.186357565981533371e-03,-1.000709806422158191e-02
3.031699117361100898e-02,1.069485089091847148e-02,7.346933404721209260e-02,-9.682451404512067844e-03,-3.378033349389446965e-02,2.834631196322483573e-02,1.223340679316378687e-02,-2.396447257501219466e-02
-8.213086024343698582e-03,-3.528968669409802972e-02,-4.158458357724958976e-02,-5.911803614193211244e-03,7.978972842469690338e-03,1.435908279721622403e-02,4.053906887154780370e-02,-1.539616363562781344e-02
-9.737645616541582005e-02,2.577217648056818189e-01,4.734752050485787483e-02,-2.479964660938581422e-02,3.284508682296650994e-02,4.057476299078563095e-03,5.057560538617681539e-02,-3.218104190592397610e-03
3.240364443095060110e-01,1.753623550786235219e-01,1.577308721388142460e-02,-2.091182941627666922e-02,-1.545150991338663238e-01,1.276106406850769162e-02,-1.204410293911377244e-01,-1.531164169847044031e-02
-3.296184203671229801e-03,-9.382093048729109319e-02,-1.541455571182895334e-02,4.391051011232212364e-02,-3.707466219168363275e-01,-2.785559035995182620e-01,1.847719926161896509e-01,2.860237265421404773e-01
9.745770309106970009e-02,-1.524611568651028370e-01,-3.459450415403674678e-02,-1.762310541200287975e-02,-2.454838343334266038e-01,6.547183614209735325e-02,2.553204247957971962e-01,-6.088952679959280800e-02
7.515837713815012866e-02,-9.250180516046965784e-02,-1.141325192848646405e-02,-1.054131653015597143e-02,-1.421717619811710409e-01,8.592346709744068042e-03,1.391080840293653365e-01,-4.361480255349961532e-02
1.424533463655421051e-02,-3.655458264024760012e-02,1.038199118771094588e-02,1.189950134265460313e-01,-7.098600478507509359e-02,1.470055604962801910e-01,-8.567055465171660722e-02,-1.386891592873699675e-01
2.860289393422434795e-02,-5.105656159386993964e-02,-3.435881308214980452e-03,1.995083941999246657e-01,-1.197032993046981131e-01,-1.327603340434352908e-01,-9.457555680222343164e-02,9.513515694463633987e-02
3.593123022833455329e-03,-4.284838886500288296e-02,-2.920853674687028459e-02,2.173145507169253476e-01,-3.132939346178136714e-02,-4.511989407654365403e-02,-8.743705211121897969e-02,2.424383009832751026e-02
-3.944864286118597747e-03,-2.227721137247007377e-02,1.532044931997446000e-02,6.604291959270482126e-02,-3.440483829169142804e-02,4.123157505327758494e-03,-7.393961298982262842e-02,1.270023891254063765e-02
-2.687788986406828423e-02,-4.731207690176062602e-02,-1.280500872233267251e-02,5.550928393485207030e-02,-9.575836456441555455e-03,8.541422904191827434e-04,4.939339383931568017e-03,1.643975407847021036e-02
1.089974257639897831e-01,-4.500808051019557221e-02,-3.440393059882342064e-02,1.007455259520445741e-02,-1.289724989108855524e-01,1.351701534536046967e-01,4.499071376756715035e-02,-1.258157746700532820e-01
-9.226956713610279942e-03,-3.256401573178923509e-02,9.310836987173918416e-03,2.158251503509824032e-02,-1.089978890975386999e-02,2.263221925966235268e-03,-2.583309909911229996e-02,1.987558625782497382e-02
-3.055878072059610602e-03,-2.033591967689490562e-02,8.765371241265459967e-03,1.457036517689388189e-01,-1.490433623730413049e-01,-3.788406389371344607e-02,-3.243316327751331277e-03,1.874879160293465089e-02
-5.245182319943753058e-02,-1.225098269608262437e-02,7.498020872207375107e-03,3.794516550357006635e-01,-4.810179839674033619e-02,6.146375901800356541e-03,-3.324726429295801755e-01,1.074449996451489961e-02
2.218397606630941390e-02,-2.221094323943878859e-02,-8.866653130940404734e-03,2.394470254413740840e-01,-1.533551500765099884e-01,7.167210314741977520e-03,-7.970277673857537049e-02,-2.942870318162147877e-02
-8.279995811285052743e-02,4.480533623499115270e-02,-1.988823304312080723e-02,1.049453089643839210e-01,1.457527824328532819e-02,3.826310760346645495e-02,-9.618972002519171616e-02,-2.180261366390192149e-02
-2.475414525284637401e-02,2.715379400307253999e-01,-4.000883814808911532e-03,-2.082579360395934442e-01,2.444946458410235945e-01,7.979709478324223740e-03,-1.664149236704943330e-02,-8.190903871361624594e-03
-2.412395459346069332e-02,2.273882280199130412e-01,-3.023949904234545048e-03,-1.773312298972284651e-01,1.772380866417904710e-01,-1.981684237634104718e-03,-8.301914089976833791e-03,1.302862016005313078e-03
1.050616686775407010e-01,2.158930690554624054e-01,-1.202434366399336707e-02,-1.716311965643615989e-01,1.507889778077916298e-01,6.613466208901933215e-03,-6.191994408184664511e-02,-1.611655864669914173e-02
1.412061713638703142e-01,-1.021016950793146583e-02,4.146494826174051962e-02,-7.318524413488489144e-02,5.324468371067955091e-02,-2.008301391566069162e-03,-1.792510053824296068e-01,6.679900863063298680e-03
4.072195441574495006e-02,-3.750664594137384511e-02,5.008768547971868129e-02,-1.888401128983277846e-02,9.480291721138687025e-03,1.320286563854234860e-02,-2.413084860217772770e-02,-1.425970903513063860e-02
-2.722194019591441666e-02,-3.374953340572479227e-02,1.780004370165738647e-02,1.275219046076008778e-01,-1.149625435896384495e-01,-7.245432769863227422e-03,-1.554180162592831834e-03,1.432192119658405463e-03
4.848479246241806789e-02,-3.669922792901934155e-02,1.494372179204734490e-03,-1.130093558162836853e-02,-4.925490063404351464e-03,1.759732797528941461e-02,1.933721557893709406e-02,-2.181808812391965863e-02
-5.369146135015530862e-03,-3.359304400748018837e-01,2.378647548056950500e-01,8.356651369159873166e-02,-2.809106522563477593e-01,1.258090379734520207e-03,2.586883412834452972e-02,-2.824555315083368545e-03
4.575100386305287758e-02,-2.446203246882937832e-01,2.437895754406179394e-01,1.200287207567231340e-02,-2.397521027575086339e-01,-1.491779330216576674e-02,-6.757401556190326120e-02,-9.722559399831075125e-04
-1.948113330151278466e-02,7.582360536621729485e-02,-4.727644068383095310e-02,2.463342732687088046e-02,-2.121617575029663139e-01,-1.222496876816479318e-02,2.144428111449470098e-01,4.296829618971825348e-04
-2.556170830388413903e-02,2.312108562936467104e-02,-4.495389627323867487e-02,1.843545772327238180e-02,1.433267931210390270e-02,-1.297851900292529281e-02,-4.636395348691067092e-02,4.040298868614458638e-02
1.392238330224480902e-02,-3.308512591211146964e-02,-7.079111308417210258e-02,1.797710731317369789e-02,1.046333123455098560e-02,4.477521248857517511e-02,9.283462998755681594e-02,-5.744509337625529344e-02
6.290294298200048428e-02,-7.185858168695372084e-02,3.820283179918336578e-03,-1.738720260295376421e-02,-5.393915135807311051e-02,5.594450730996019736e-03,4.952462801491703398e-02,5.978447148995400667e-03
2.770023245389069411e-02,-6.103884784033920818e-02,2.912000341206560927e-02,-2.185738953493731110e-02,-9.614179337607141329e-02,2.639242294241553842e-03,2.032446546089438158e-02,2.795704683466525980e-03
1.038770893455301242e-01,2.188087173452013187e-02,-9.238708533244315013e-02,-3.554311514656024462e-01,2.881406497666237354e-01,-4.518910417492986997e-02,4.547177233667204499e-02,4.195955292443338813e-02
1.759110983841771225e-01,4.293427206807179722e-03,-1.631630132618509810e-01,5.963191625327975143e-02,-1.035443059165394031e-01,5.997828615010105530e-03,3.126730524229891228e-02,-1.053064537824497521e-02
1.759110983841771225e-01,4.293427206807179722e-03,-1.631630132618509810e-01,5.963191625327975143e-02,-1.035443059165394031e-01,5.997828615010105530e-03,3.126730524229891228e-02,-1.053064537824497521e-02
1.599369620060430985e-01,7.152963727368608082e-03,-1.169070108843190126e-01,5.181028598418564723e-02,-7.975851956586538227e-02,1.475188084580165114e-02,-3.558309518451301112e-02,-8.642890633098075995e-03
1.754019637965142653e-01,5.750011980468827839e-03,-1.237756640664741531e-01,2.248831797528756324e-02,-5.981332464680240435e-02,9.999630787303622273e-03,-5.182828181173178977e-02,2.326234976061158227e-02
3.565720525195185953e-02,8.453861451362024160e-02,-1.049122236974891625e-01,-4.105463509071453215e-02,-1.194738153428203178e-03,2.514675689990063939e-02,1.774995717041945699e-03,-2.240598692724672311e-02
1.352943671053948027e-01,-1.224905658376350959e-01,2.687945406904773682e-02,3.805825975452450244e-03,-5.817995038995490281e-02,7.778277798281464477e-03,3.702038848306461738e-02,-6.809680095697928995e-03
2.000203174222731431e-02,1.626402811878351756e-02,-8.304314708219243113e-02,7.847365516255584705e-02,5.380118776880191828e-02,1.634066959307112904e-02,-7.984574294741297873e-02,2.602093728856419430e-03
1.059306073407677573e-01,-2.752138788714503757e-03,-1.400907897063805863e-01,-2.522076765995818343e-02,-1.096087956718227834e-02,-7.209277415753931328e-03,6.484694604966922959e-02,1.707615562701953610e-02
9.540326908540083806e-02,-4.487188468213459264e-02,-1.298721841691891955e-02,-1.825357978571009662e-02,-9.132445445369698905e-03,-9.180018962887254164e-03,-1.881338607508675504e-03,2.615993368760891752e-02
9.540326908540083806e-02,-4.487188468213459264e-02,-1.298721841691891955e-02,-1.825357978571009662e-02,-9.132445445369698905e-03,-9.180018962887254164e-03,-1.881338607508675504e-03,2.615993368760891752e-02
1.089053685904546043e-01,5.257730045689634757e-03,-1.151991725148712870e-01,-3.395919835435801115e-02,9.600023553691442585e-03,3.874160005376460643e-04,8.886269130857158902e-03,1.357856382740671788e-02
7.296430167872271222e-02,-1.739828023985178287e-02,-2.558397073887357792e-02,-4.093249412846801383e-02,3.809952925309444821e-02,-9.189316850719268792e-03,-3.787564774255317013e-02,3.400972617915536123e-02
4.409509575367261819e-02,-1.209633367889063546e-02,-2.493504127821353708e-02,-2.792291809402017849e-02,-5.959569004871475423e-02,1.775089324653978534e-02,1.673475272610127074e-01,-1.537105813234165286e-01
1.089053685904546043e-01,5.257730045689634757e-03,-1.151991725148712870e-01,-3.395919835435801115e-02,9.600023553691442585e-03,3.874160005376460643e-04,8.886269130857158902e-03,1.357856382740671788e-02
1.089053685904546043e-01,5.257730045689634757e-03,-1.151991725148712870e-01,-3.395919835435801115e-02,9.600023553691442585e-03,3.874160005376460643e-04,8.886269130857158902e-03,1.357856382740671788e-02
1.487980430593757730e-01,-8.661294293026983171e-02,-2.478233615800272752e-02,-1.594880658579963476e-03,-3.425290580395878859e-02,2.508151717815774312e-02,8.099295236391215042e-03,-3.281738347389961258e-02
6.564213798300974623e-02,3.569883664634430909e-02,-7.020002549486094312e-02,-2.187873969506785865e-02,5.162822876902484204e-02,-6.103598234547848167e-03,-4.699711599944508128e-02,-1.083800839099865847e-02
8.479528294772767372e-02,6.909667570877605150e-03,-4.028858770619042629e-02,-4.555639508101585328e-03,4.537609305722908187e-02,-4.117116248994256295e-03,-3.594714733644840260e-02,-1.959914032399184564e-03
8.479528294772767372e-02,6.909667570877605150e-03,-4.028858770619042629e-02,-4.555639508101585328e-03,4.537609305722908187e-02,-4.117116248994256295e-03,-3.594714733644840260e-02,-1.959914032399184564e-03
8.479528294772767372e-02,6.909667570877605150e-03,-4.028858770619042629e-02,-4.555639508101585328e-03,4.537609305722908187e-02,-4.117116248994256295e-03,-3.594714733644840260e-02,-1.959914032399184564e-03
6.196197406328116802e-02,2.721967623707853643e-03,-5.555334457471038101e-02,-1.128033099559009982e-02,4.944211307978702702e-02,6.180018590277915752e-03,-3.684993648520465404e-02,-8.091101207509511159e-03
-7.713732331390357744e-02,3.996983490985843435e-02,1.904091901577457556e-03,-4.683134758869694661e-04,1.206911835693124935e-01,2.560716224545207288e-03,-8.060195908236064688e-02,-1.501132052068601674e-03
1.323440241225946890e-01,3.718010206758196046e-02,-1.109968144180981412e-03,2.785029953181444168e-02,-5.437070192199720819e-02,2.069730567515760662e-04,-1.506383958638508047e-01,-8.700003922651152952e-03
8.527171849312653595e-02,3.860277997593210275e-02,1.378717474755896278e-03,2.016665649776795341e-02,-5.254183739793362451e-02,-2.046672813187259271e-02,-7.703515407680727733e-02,1.923874316938048445e-02
-1.592550100986822592e-01,1.873370193612342027e-01,-2.791592701642383462e-02,-2.514933017523216657e-02,-2.479975460392832426e-02,1.630643277093046101e-02,4.293631119634847698e-02,-2.192606773016613636e-02
-2.355051105702304567e-02,1.109494183574257359e-01,-4.566695395749889412e-03,2.812802408068978965e-02,-6.456895380826516151e-02,-2.789843664404230601e-04,-2.266285600689984386e-02,-1.005326762104345913e-02
-7.951338777359118204e-02,1.243759845308003431e-01,1.118809028890725352e-02,-2.732279753228095132e-02,-4.382282908441569036e-02,-7.140254505280223436e-03,-9.597185537551661001e-04,3.017405004565194490e-02
6.223963641884019266e-02,1.644857158831194294e-02,4.846342954559677840e-02,-3.850234667636007364e-03,-1.046119545023601605e-01,1.182960795329088786e-02,7.234903145716120587e-03,-1.742380878812817974e-02
-1.902550802924715678e-01,1.257883090965838946e-01,-8.709785983588090585e-03,1.377641213628418883e-02,-6.035212584237903410e-02,-1.715488489765786689e-02,1.197524225758422461e-01,3.180884796145074661e-02
-1.108704774645829366e-01,3.728813676461023574e-02,-4.240516868326816430e-02,-4.688417103399695226e-04,4.561703743856046489e-02,-1.990538243772908833e-02,1.166890456131973626e-02,2.778128678907180321e-02
-3.649427461710134241e-02,3.312843043529971332e-02,1.025496956434096378e-02,9.045952129780526069e-03,-3.327615512152021227e-02,1.983311510147786338e-01,2.089003468574309255e-02,-2.064619342636219435e-01
-8.625287050542342071e-02,4.628147909078346445e-02,1.211443666567245045e-02,2.842339072569912209e-02,5.557848884772640524e-02,-4.553889110037794702e-02,1.227763124225838415e-01,-9.038382186213647640e-02
4.831558942817211488e-02,2.476329831751388020e-03,-2.221105664353037468e-02,5.048112324484280850e-02,-4.455165437752315466e-02,-2.445615289120966693e-02,-2.398769707081890683e-03,1.566342424014029872e-02
4.830162568030745007e-02,-1.832268225672608469e-02,-2.568719817607939548e-02,-1.447050735726932227e-02,-4.746713277272151046e-03,5.819528354496519785e-05,4.115130814487815564e-02,4.145021429802360838e-03
1.746297888072355087e-01,-6.317675670092248730e-02,-2.430808967850308158e-02,-5.161630902809664911e-02,-3.445768494569417806e-02,1.959487752957616430e-02,-6.483719941610878446e-02,-1.654158713689677165e-02
4.837013168353203330e-02,-6.510274577536438734e-02,-1.723378840000296813e-02,-2.637682311962361026e-02,2.864209587972731466e-02,1.820204960554966042e-02,2.738476758374212144e-02,-1.123068548365826862e-02
-8.403321666665941603e-02,7.491112090702886639e-02,-2.512676115850699318e-02,-1.324987092026040647e-02,5.888943548997092187e-02,9.063459138612839361e-03,-2.161131931164585532e-02,-1.106211589133049289e-02
-1.272340401955488198e-01,1.653543065605485585e-01,-1.114693639467426341e-02,5.619054687053171362e-03,-5.214877664033343990e-02,4.508058102311179177e-03,6.200737440897228017e-03,5.795151369282279356e-03
7.249835867032203458e-03,-3.247202158140160416e-02,6.579238011456514656e-02,-3.979190144967214085e-03,-1.918483527259015001e-03,-1.228654939078335610e-02,5.112326303780556636e-02,1.119157137910088348e-02
2.038070348345249333e-02,-1.782742996383492387e-02,7.905559005675533157e-02,-1.880886830850156703e-03,-4.537876531036883453e-03,-5.324128659925068605e-03,8.248919221532815052e-03,5.316467396571651453e-03
1.815113458427618492e-03,2.797201238925301012e-03,-1.402700342924957655e-01,-1.258712676296131015e-03,-6.955156637456385085e-03,-3.416379283533347612e-03,4.004082451967403561e-03,3.177256441590260716e-03
1.815113458427618492e-03,2.797201238925301012e-03,-1.402700342924957655e-01,-1.258712676296131015e-03,-6.955156637456385085e-03,-3.416379283533347612e-03,4.004082451967403561e-03,3.177256441590260716e-03
1.815113458427618492e-03,2.797201238925301012e-03,-1.402700342924957655e-01,-1.258712676296131015e-03,-6.955156637456385085e-03,-3.416379283533347612e-03,4.004082451967403561e-03,3.177256441590260716e-03
1.815113458427618492e-03,2.797201238925301012e-03,-1.402700342924957655e-01,-1.258712676296131015e-03,-6.955156637456385085e-03,-3.416379283533347612e-03,4.004082451967403561e-03,3.177256441590260716e-03
4.101359913372699950e-02,-6.192160784986548011e-02,-7.872399970396053159e-02,-2.562802615002595166e-02,-1.327916094992466836e-02,2.467697610043440848e-01,2.314348792972904800e-02,-2.166611985880403102e-01
5.663964533585336136e-02,-5.124553282374359753e-02,-1.325303323278787804e-01,1.943149718286320314e-03,1.470814405676180645e-02,-4.328107472009615209e-02,-7.861508176701162073e-03,4.025544811527909800e-02
-5.752575930609626909e-02,-3.997700100841767440e-02,-6.399422919161497358e-02,1.561614620995276925e-01,2.145475005517885961e-02,-2.049621443485690267e-02,6.402497388390195054e-03,6.953295414774207997e-03
-6.868150682045023880e-02,-1.184465084484258475e-02,-5.118433830428901349e-02,1.236635870132626741e-01,-1.165934814722940048e-02,-4.130393586228013614e-02,7.858146574609809268e-03,1.788589552089657475e-02
1.686541528982323998e-02,-3.160643760398267055e-02,-3.398008594705535096e-02,5.209039641945786142e-02,-1.139071421575812010e-01,1.442874465082809310e-01,-5.510025266802510632e-03,-1.471122910910308279e-01
-2.947501106203267301e-02,-4.660626689844012821e-02,-5.934626098914393827e-02,5.186240888408753802e-02,4.912566493109966209e-02,1.183813659520510653e-02,6.114741282715492610e-02,-1.588516572915407059e-03
-5.802604775771796897e-02,1.149252292920849164e-03,-4.125368374495218260e-02,9.130809972030505539e-02,1.012496447312843662e-01,-2.673456237235661941e-03,-7.986763338898386633e-02,2.574999465148958278e-02
-8.078410862733581554e-02,-3.984550023186672618e-02,-5.323422659613750996e-02,1.126151344266992788e-01,2.368076224473810582e-02,1.014518724948409653e-02,5.370075328727243191e-02,1.468127040331509894e-03
1.068665240838249063e-02,-5.279735310912614388e-02,2.366990115236788125e-04,1.230993521369130317e-01,-4.722875528565968067e-02,1.037793393145193532e-02,-7.369793469468123581e-03,-8.068539000873389475e-03
2.387455066777109149e-03,-7.325189261031632426e-02,5.904915021994389980e-03,9.145561084846742794e-02,-9.344894810804431351e-02,1.049912313333297570e-02,4.497199152812839107e-03,-8.555317200878358869e-03
1.459990264879840183e-02,-4.258821257846060609e-02,1.186058474672966115e-02,9.630445374210781784e-02,1.064213553265339202e-01,-3.664158854455030860e-03,-2.678535616670090630e-02,1.314882136848632326e-03
1.048072573113787570e-02,-7.293445113848642802e-02,6.739073341571202684e-03,2.738534312931930129e-02,-3.048221978194331008e-02,4.143252607577183923e-03,-2.021649369724252965e-02,2.782324018300904103e-02
2.367572843387008574e-02,-5.318891720866667644e-02,-3.612190252414188701e-02,4.968033244150128758e-02,-2.669411596418345273e-03,3.421421113600346155e-03,-4.823570142401959263e-03,4.604778606702813332e-03
-1.573269183720429551e-02,7.240259880083155415e-03,1.837270835396709670e-02,-1.016197922036149101e-02,-1.612979451470946887e-02,-4.160293428708530805e-02,1.554701392838617191e-02,4.765931782548627621e-02
2.367572843387008574e-02,-5.318891720866667644e-02,-3.612190252414188701e-02,4.968033244150128758e-02,-2.669411596418345273e-03,3.421421113600346155e-03,-4.823570142401959263e-03,4.604778606702813332e-03
-3.064883169695053165e-03,1.109979843439113170e-02,1.500597286385138042e-02,-1.686370018340532448e-02,2.506829879752090484e-01,2.323503756951504282e-02,4.632551959415875356e-04,-1.759446237498016319e-02
4.353605677700519289e-02,9.603570408108060225e-04,2.001495560798956241e-02,1.044863638012052953e-02,8.465437126664653728e-03,-1.304916491637482176e-02,-7.645791695674700184e-02,1.258413274217215494e-02
-3.621773591957788783e-03,-4.875984940646776317e-02,-1.739322582815631263e-02,2.437389803803684599e-02,-5.173357700574247181e-02,2.551450275627304906e-02,5.422195514971014235e-02,-2.249585175224375760e-02
-1.014523400644259422e-02,-3.666766624323412101e-03,1.686681399808112602e-02,2.256982903697018344e-02,-2.941884502268778817e-02,-2.790009905262392804e-03,-3.196087613958885267e-03,-1.424180025246041086e-03
-1.121913398000798645e-01,2.681853017542520923e-02,1.837425082863487422e-02,-4.568960510614786946e-02,2.389170991196453570e-02,1.134564252595947516e-02,2.234792660243167250e-01,-1.608292113022385950e-01
6.140808950672355278e-03,2.373492583982646231e-02,1.888164426229772472e-02,1.533572228961790906e-01,3.942480465784985871e-02,-2.639603747470454370e-02,-4.491155521954079410e-02,4.167962287119762743e-02
1.307015792190748850e-02,2.116713177867070306e-02,1.931776307151670743e-02,3.981902133328069082e-02,2.646819209275367429e-02,4.393463972810475633e-03,-7.444174049678572991e-02,3.439062658305858111e-02
1.659871734330219117e-02,-2.002284504193025186e-02,-2.869288566235288912e-03,5.454389445238211342e-02,-3.698689351374663536e-02,1.840002282968727226e-02,5.545635860804855322e-02,-3.285909507003769575e-02
-2.247504025031930863e-02,-1.281617397144085499e-02,1.200663950698683743e-02,5.420668072843148888e-02,1.861049683705386787e-02,1.187826368932758635e-02,2.780343302165921154e-02,-4.569710381387357551e-02
-3.436580770130698986e-02,-8.832336013820460061e-03,1.622027303183044833e-02,3.442164874281251896e-02,-1.367270595440551149e-02,-7.949074084580688704e-02,1.849003471562252893e-02,6.843669530575188786e-02
5.123179913035984245e-02,3.808147771365378263e-03,-2.641240620530287738e-03,-8.950394000671922992e-03,1.241342884803866339e-03,-7.051181688287322391e-02,-1.594098887469859709e-03,5.805434768801589346e-02
1.360299975632175973e-02,-5.785268241987736801e-03,-8.059050388755650829e-04,8.645183035890949275e-02,6.019421740501979673e-03,1.295122405386950337e-02,-8.072704456048658897e-03,-1.446064949203891212e-02
-1.325358016471623601e-01,8.724132778840324592e-03,-4.157840422090742019e-03,-2.394879123432801585e-02,-2.220402876504399062e-02,2.208083240444375095e-02,1.758757221624206168e-01,-4.705111036751007114e-02
-8.723033049422037472e-03,-6.522169680987325961e-03,-2.401906491705831960e-03,-5.185187331142847578e-01,2.346233628477019661e-01,-5.141865789237870825e-04,1.061086531356915733e-02,-1.223821922815288097e-03
-5.718668417674486679e-03,-7.755769872379740526e-03,1.367194015472402401e-03,-1.725664345243881903e-01,2.439207501419319857e-01,-4.437704503379082122e-03,2.085707413265355109e-02,-1.274493745243142177e-03
-1.127931045238572856e-02,7.238357872856929047e-03,-3.580844381573860310e-03,-1.509798138428939951e-01,1.023469150089052898e-01,4.294472041698847199e-03,-1.760713707149751421e-03,5.946728375362827709e-03
-3.014174395954593005e-03,2.203704311051735837e-02,1.012254312790351364e-02,-1.907928635693920127e-02,2.640643369881600158e-02,3.633906724427418689e-02,1.313082848116576889e-03,-3.519376298526630253e-02
1.537875917301446092e-02,-8.385458785274234675e-03,-5.678446534011683151e-03,6.758174286093446281e-02,8.647947778468950339e-03,2.212787713634150125e-02,-2.038762988030997682e-03,-9.732549219881699715e-03
-5.337503874225314748e-02,5.671805355463016909e-03,-4.049732370447257403e-03,3.673337552211947826e-02,1.006688459864700791e-01,-2.021108863992878563e-02,-3.005785242477445468e-02,1.354222208276563075e-02
-1.609608774430587586e-02,-2.161095767704123566e-02,-6.234042844025624100e-03,3.522548305441542543e-02,-3.321246212739981107e-02,1.093483863573921078e-01,-4.033041007536428829e-02,-4.502022744153622025e-02
-5.600980867465881440e-03,-2.221419095176401654e-02,1.731618074048129480e-02,-5.459224164314603958e-03,3.505996002852530824e-02,-1.179774611613678970e-01,-3.777524305916775405e-02,1.544704595556169457e-01
7.659983533259294430e-02,2.213158166610085589e-02,1.358584045574019218e-02,-5.822721879578339477e-02,-3.703900024951323894e-02,-3.171591823554361506e-02,-2.919781158168963803e-02,3.673978785640932831e-02
-1.350797313330537840e-02,1.878350219180268971e-03,4.380751908444615976e-03,-1.451755797479934752e-02,1.037994225887686195e-01,1.570196914243642827e-01,1.655307232674247536e-02,-1.421634597982413539e-01
-3.618560404997297249e-03,-2.066621263281262152e-02,1.528269173398189105e-03,4.399947333335016419e-02,1.528251379525519607e-02,1.580810226972761273e-02,-4.248557879494544581e-02,8.753141341734098357e-03
-4.779143385469347000e-03,1.848142110783565495e-02,3.502209551797470094e-02,2.583320998205208656e-03,8.189229120248572510e-03,4.640885454621800250e-03,-5.799671492997084815e-02,1.914312263987674647e-03
-1.320715041865580183e-02,1.740111933279565957e-03,1.480573441266067394e-02,1.558939654778968842e-01,-7.242875350350143349e-02,3.198278577585591392e-02,-3.965069016375580291e-02,8.701745188646862333e-03
-3.837727877579103115e-03,7.669009867736787875e-03,3.689542908601332926e-04,3.035562369869209132e-01,8.343969598377926327e-04,-8.673252743889333163e-03,1.748483519217845436e-02,-1.173397867245768757e-03
1.049348187896975530e-02,-2.322144667390580938e-02,-1.838600414559700760e-02,2.001172415470453547e-01,-1.155711977904407169e-02,8.133547138816547839e-02,1.382841837072912609e-03,-9.347293703299437706e-02
8.915740951594716343e-03,1.002099341753798743e-02,5.607068694590191561e-03,6.391959079459606785e-02,4.437750174320203959e-03,1.836680288516673309e-02,-2.103624171968957596e-02,-2.828748298047214366e-03
-1.204831889172377699e-02,8.003662846635346828e-03,-2.115089686556547409e-03,8.890614206447394752e-02,3.061661713833021062e-02,1.186070007474051245e-02,-4.950345218219477650e-02,3.465518767924528876e-04
7.553714319485189607e-03,-1.811200319363628214e-02,-7.582901202345205876e-04,1.318937211114626362e-01,1.272179829459769117e-02,-7.994170425367860822e-03,-5.868443836961020552e-03,3.625761830325755115e-03
4.567148214331639283e-03,-5.720543456143699010e-03,-1.963461936335165331e-02,-1.502112066211479767e-02,-3.698126182581534110e-02,4.837509115329536105e-03,1.009352937823764992e-02,-4.307406437474489529e-03
3.935714279977169106e-02,4.435477583726940218e-03,-6.092400646452422394e-03,1.688097100715314075e-02,-2.972449097901769255e-02,-3.961352982100256603e-02,-5.674418254897425516e-04,3.211152308147251916e-02
3.290313200462981896e-02,-5.044532290644490255e-03,1.259949897013895950e-04,1.458813048943514122e-02,-4.762177254348935046e-02,3.247235820050166453e-03,5.862738442316003419e-03,-7.667922222913741044e-03
4.989293230329159938e-03,9.752333907405175487e-03,-3.562066242119883296e-04,8.836239311008702024e-02,-9.890615686343184887e-02,-3.333644103436367995e-02,1.934503460086287735e-02,-1.058174660262793058e-03
2.187344833887872042e-02,-9.509856514746725241e-05,-2.238436744616393616e-03,2.005042353850287201e-02,-1.105249369338666687e-01,-1.202285666656640120e-02,4.403611512063368254e-03,1.698864089774982863e-02
-1.820029588145871124e-01,4.374294959134771010e-02,4.382308553222781511e-03,6.364393494091837196e-03,1.962498311089712899e-01,6.701996984578201082e-03,-2.123316782511164638e-02,-1.167214000027875370e-02
1.633005754776227850e-02,6.041615673994389993e-03,2.124516336480761561e-02,9.544042833846115570e-02,-1.647825441641047883e-01,4.319514016486147162e-02,-2.037090011365576617e-02,-5.315931262461617152e-02
2.644735773976959834e-03,1.533090983038697640e-02,-5.726415094664651442e-03,4.147093142417788633e-03,-4.693971141626617632e-02,3.622470603238358601e-03,2.535012115704306582e-02,3.155425081819054900e-03
-5.487778552964396074e-03,1.670763225541967503e-02,-4.468835562687826016e-03,-3.395274926612481398e-02,3.373808153280955652e-02,-2.256544915383142461e-02,1.027088147599388226e-02,2.486884651285554623e-02
4.234067182555187325e-03,-1.488833365329817349e-03,1.390651875288052321e-02,1.836998414721099969e-03,-2.695440221258830604e-03,-1.003011481343262391e-03,-2.916240784316050973e-03,-2.158208747433740390e-04
-2.658387146123136063e-03,8.208517965466958360e-04,1.623281728927771991e-02,-1.059598912040452326e-02,-1.577636063203089606e-02,4.615666804785421157e-02,8.605159267449279115e-03,3.625261283062558050e-03
5.209837734379925075e-04,8.097825582285467574e-03,-1.745828563628570862e-02,2.139077716947254335e-02,-1.441137845549965088e-02,7.914050349823995023e-03,1.654383457189911952e-03,-9.300058730360381484e-03
7.544566748178182982e-04,-3.641855438801735317e-02,7.269483727183952571e-04,2.526478147981796665e-02,-5.570963240815340889e-02,-8.823882489871618870e-03,7.417886551705982386e-03,8.443588885037102768e-03
1.514618925022348239e-01,1.794797645779557319e-03,1.031482200348130332e-02,-3.461557248398487718e-02,1.923029573956793609e-02,-7.003465956120583265e-03,-1.558606830369275442e-01,6.134628433222699510e-03
4.331887525843319819e-03,7.715852653554263266e-03,5.323612135583655550e-03,3.880146148563590192e-02,-2.044583037335766934e-02,1.558653294397110544e-03,-4.046018686039536127e-02,-6.125065172029651658e-03
5.846660442494960863e-03,-6.087604971759787154e-03,-7.735709322791410256e-03,5.403718623422877620e-03,-3.968645406238396900e-02,8.166045037090490649e-03,-4.925506432383990225e-03,-4.402305804713380587e-03
2.043755826615594948e-02,-7.109163797379377744e-03,5.994235114149757673e-04,2.498363450095490990e-01,-2.887378704552013842e-01,6.411530890088943009e-03,5.811955532866975097e-03,-5.233265083688294975e-03
-4.239346182376455691e-03,9.374252322755712583e-04,-7.851599973160398199e-05,3.112269615880048912e-01,-3.044923414411125906e-01,-9.664383317886688241e-04,-5.679856919247268420e-04,8.550483277768875174e-04
1.041598845854105858e-03,-3.996732409473628678e-02,1.043933967837221751e-03,1.960006290424819858e-02,-4.394392382888675369e-02,-1.351191912501273872e-02,5.579419827616342170e-03,1.233914808388674594e-02
-2.634412859014486751e-03,1.885681243918231609e-02,-2.863090773681854686e-03,3.665098458845785639e-02,-6.198945178539523593e-02,2.601671272822676101e-02,1.045931375787495163e-02,-1.962261484070391276e-02
2.471077803133755373e-04,1.234082327489136391e-02,-4.223345169589515702e-04,-5.131480984570733345e-02,1.714691332227640322e-02,2.967610318803750626e-03,1.735503773688252356e-03,-1.000849288099518470e-03
-9.584133454944609998e-02,5.117013472896251441e-02,3.845155809342350791e-03,-4.008697265135394844e-02,-1.792091033438189280e-03,1.137822044823150078e-04,6.645661452056422780e-02,5.901878423652942747e-03
1.189219422583727426e-02,2.979070608393858538e-02,3.178882111713206976e-02,-1.890033465522208619e-02,-5.063506453648114469e-02,1.037300521831518649e-02,-8.094861436760908760e-03,-1.913644308455245135e-02
-1.839983009031389768e-02,7.757546750334352523e-03,5.336922088459768176e-03,3.203325591801806094e-02,-9.910042623544385379e-03,-9.048211509529148489e-03,-1.598249642335983906e-02,5.991805709896082244e-03
-1.839983009031389768e-02,7.757546750334352523e-03,5.336922088459768176e-03,3.203325591801806094e-02,-9.910042623544385379e-03,-9.048211509529148489e-03,-1.598249642335983906e-02,5.991805709896082244e-03
-1.597438054902071761e-02,-4.391291676434984706e-03,1.412426734238697058e-02,-1.057621292250773143e-02,1.202418479402989331e-03,2.529299856814633610e-02,1.774339334052928707e-01,-2.024153100808448458e-01
-2.853705177963990116e-03,-5.070299607155485944e-02,1.547266591444190764e-02,2.521538558772645593e-03,-4.408648105036984399e-02,-1.355628495995639046e-02,-1.879533185814608737e-02,4.678435282583631727e-02
2.539634421387372901e-02,-1.241151563447851283e-02,-5.558547116760277629e-02,1.531756040628851415e-02,-4.424735800335722474e-02,1.812018851511085563e-02,5.574754059097172115e-02,-2.061218131660311897e-02
-1.864884957674673425e-04,3.015113620270572573e-03,2.905795843788420638e-02,-2.852775759857818436e-02,2.475056471852455503e-02,-2.812832324894353614e-02,-2.052915414557873047e-02,2.361508782008460081e-02
-1.278832588556065054e-02,3.303799764487644341e-02,1.483199492945851995e-02,1.119218482901553624e-01,-1.069597897712353529e-01,-2.944094569777873718e-02,-6.029965988166545443e-02,-1.210273614469562116e-02
-1.520112992094566594e-02,1.466469333804718347e-02,-3.665417401324485604e-03,-2.183160885614622397e-03,-1.413163678987668006e-03,8.891945502247195279e-03,3.510248254501518918e-03,-2.194808117826774901e-02
-8.676797341301851346e-03,-2.044089261757511128e-02,-2.069003792521586366e-02,8.172423014383867201e-02,1.443531156203297638e-01,3.085800450827149571e-02,-3.975575612945683734e-02,-4.181111236941191522e-02
-2.147122506597313324e-02,4.370177935641762247e-03,-5.318036290918977393e-02,-1.657777338402254344e-02,1.614591138478562241e-02,-1.133953712597662519e-02,2.390497623720460457e-02,5.422169192966118031e-04
6.682732776480093673e-02,-2.519593908208658806e-02,-6.117108433472443277e-03,2.737728066377168035e-02,-6.521020878684510858e-02,7.570721493194507157e-02,-2.500495592646238482e-02,-4.499952081754240302e-02
2.956787420258503649e-02,-3.739721767881894893e-02,-8.976665767087037978e-03,-1.564630439478636309e-02,-1.256505588119575800e-01,-2.763089753935661363e-01,1.115762576033281495e-01,2.718375155782636887e-01
-2.872842158322028855e-02,3.019661328899356928e-02,-6.307159644794486800e-04,6.378445480834842377e-05,-3.330213064345422663e-02,1.185750682366424301e-02,-3.644563220480906938e-03,-1.835823407958351444e-02
1.991125454183885202e-01,-9.913853248276557548e-03,-4.011121191909425288e-03,-1.289786907721519361e-02,-1.106926882410397550e-01,-3.850713833055992297e-02,-2.783052828382271901e-02,3.279272756042621306e-02
-5.057584975777146968e-03,5.901790902544914313e-03,2.215429446301053935e-03,-2.027802894258508293e-02,5.774666251745351475e-02,-2.196248790361019724e-03,-3.028233076568527180e-02,-2.531563571825483361e-03
2.168234904769287819e-01,-3.216980902370021600e-02,-8.113415592261793985e-04,-5.501905411423055423e-04,-1.624801008700975380e-01,1.590198023335770081e-03,-1.124591747482529824e-02,-6.408850219269511192e-03
-1.586301761115668091e-02,1.966572196964041196e-03,3.686978520623807130e-03,-1.484736656323100532e-04,3.335419028466671959e-02,-5.706127472649626109e-03,-8.753003302208142711e-03,5.538771297561026659e-03
-1.192831733320071363e-01,7.608314075859669377e-04,-3.186714822326758983e-03,-7.583986857612280696e-03,6.438744390835346443e-02,-1.580577042673673993e-02,6.329490022869338484e-02,3.639382128244270792e-02
2.044898386043240424e-01,9.464682941850290770e-03,1.185942266734752934e-02,-4.847464473851976346e-02,3.656872000895777797e-02,-7.151017185255040438e-03,-2.106700338745563228e-01,6.373262200575510392e-03
-2.841791134078613251e-02,2.176568017270636146e-01,8.834127897664443424e-03,-1.744379393640581311e-02,-3.496950006322940840e-02,1.092333829301150513e-02,-1.368942392986491896e-01,-3.373582191929459708e-03
-7.392875336044354984e-02,-6.146154138476186274e-02,-2.480383265430804139e-03,4.225508117554860159e-03,2.233495854411519377e-01,-4.539519407109222741e-03,-1.127954311560455947e-01,-2.091837916968318587e-03
2.933759374652812890e-01,-1.611133545319269264e-02,-4.858462371959573409e-03,-1.093958630486441784e-02,-1.706481428398868849e-01,-1.403786711954986208e-02,-9.042716281521170907e-02,1.582178338582138077e-02
4.001735722941084095e-02,-5.080305873449045967e-02,-1.284287592199251891e-02,2.821557137519760481e-03,-1.197565377793620087e-02,-1.023844498207955242e-02,4.062620704080616152e-02,2.693800421992164490e-02
4.001735722941084095e-02,-5.080305873449045967e-02,-1.284287592199251891e-02,2.821557137519760481e-03,-1.197565377793620087e-02,-1.023844498207955242e-02,4.062620704080616152e-02,2.693800421992164490e-02
1.542429455856408338e-01,-4.566209923953151728e-02,-7.440731653364703393e-03,-9.872484947453050858e-03,-1.861643516883614707e-02,3.371076654296165619e-03,-5.295102395357254021e-02,-1.198738063434652557e-02
-2.842160467950390901e-01,5.175766944681377962e-02,1.537701455305467979e-02,-5.211680771960890135e-02,-1.136586000543235303e-01,1.225008891087322194e-01,2.452056184291420970e-01,-1.048037526339156977e-01
4.137994564486228988e-02,-1.319931485498247118e-04,-5.043517295938713604e-03,3.671259152755732176e-03,-8.965004560884354962e-03,-5.306692949156945754e-02,9.315499810937042649e-04,4.928600394517196337e-02
-1.317860969778016610e-02,-2.779685417941232892e-03,-2.078256158329239850e-02,4.085528805875990668e-03,9.150249851636567400e-02,-3.809564416778862816e-03,1.898178355483741073e-02,4.524128423867023602e-03
-2.100344583122299574e-02,2.279846416873850413e-03,-1.392869031231132836e-02,-4.305583125016325396e-03,-2.914483219563649419e-01,3.601837937695479691e-02,-8.764867611776553866e-03,-3.262859732982014566e-02
-2.401996136260493506e-02,-1.040645890651087889e-02,5.305542618106646492e-03,-2.685898912025084725e-02,-9.262151007347840803e-02,-1.041486560794950209e-02,3.699362843689128766e-02,5.495150306590568245e-02
-3.951072534426110054e-03,5.981588247654118055e-03,9.306181399452030222e-04,2.215634678377854591e-02,4.254026168451104095e-02,-1.264808057445705389e-02,1.605811956299812299e-03,-3.163392626113942924e-03
5.807719876747188120e-04,-2.813328638837209184e-02,2.488659694046707963e-02,7.734846576814094835e-03,3.733680423952453944e-03,-8.149615047403692761e-03,-2.488248367441346642e-03,7.427275146674487336e-03
-1.541135020883405669e-02,2.069651633785586989e-03,9.234265817465862544e-03,2.672293138376875994e-03,1.627381324698287668e-02,7.679144034320686834e-06,-1.085522774733684720e-02,-5.289192727357131191e-04
-1.542722883103473351e-02,3.738835686415702738e-03,3.321405996675044769e-02,1.475990945960504730e-01,-2.233945873080050298e-02,-1.627528057445465359e-02,-1.085423287176431051e-01,8.752347687075974839e-03
-2.492040874107128313e-03,9.058642515315226684e-03,1.252133216842461760e-02,-2.439414732327313887e-02,4.397165129982165410e-02,-2.268126167226703835e-02,2.572866285568249298e-02,3.256651350907224796e-02
4.522182446418768903e-02,-1.820839648316537399e-02,-2.607362349426654152e-02,-2.332944709356517543e-01,1.518106691963496237e-03,1.514188560509426539e-02,1.821427654391590267e-01,-1.246817368018287783e-02
5.164572701687345641e-02,-2.187403580919963439e-02,-2.794441442164807832e-02,2.553991248867619121e-02,6.373306999340115631e-02,1.819440400860363599e-02,-8.322022374275180046e-02,-7.727927378868048799e-03
4.980407242008678959e-02,-2.663773018857209379e-02,-2.083656658773357442e-02,1.727185073608598909e-02,3.835251020378749320e-02,-3.709199607993023812e-02,-6.419322733012713944e-02,-3.084623901282042367e-03
-5.655413388232022678e-03,-3.302304483729060110e-04,2.875043733676016511e-03,-1.907323180441546639e-01,-5.040810320676216566e-02,8.906053390614964566e-03,2.042669524134476389e-01,-1.603398265523784533e-02
-1.819047148610739711e-02,1.601925405731739749e-02,9.548260119475783254e-04,-2.483333665055034722e-01,-5.618550718994188425e-02,1.271785413530139650e-04,2.575823017773692380e-01,-6.384650592466525887e-03
1.551044298643555535e-03,1.711133379094563478e-02,-2.498654049374338104e-02,-1.851329324321954739e-01,2.258800799238872281e-01,3.581089402172417391e-02,2.029593661967168949e-01,-4.710754000151433363e-02
-1.886913338681213068e-02,-1.653003811850712202e-03,-9.952303446895663722e-03,3.467997757591559371e-02,2.103557442870801833e-02,-1.791526514511961130e-03,-3.164697327078130895e-02,2.779261780955415238e-03
5.510152234253636039e-02,5.218690696332604906e-02,-6.946793956241581296e-03,3.509185600780591330e-02,-5.494362188833688126e-02,-3.040494657139400977e-03,-6.489072681443747159e-02,4.063328270091897364e-03
-6.174660747701160579e-02,-2.512080972907602613e-02,-6.661197949417429001e-03,3.973969611435122090e-02,9.064734815913742458e-03,-1.034314274153399008e-02,4.473918340601534122e-02,3.598865412604214387e-02
-3.163894297422986668e-02,2.940749053595319035e-03,-1.456530413379144217e-03,7.414801988396786669e-03,4.855340472939055629e-02,3.152210575021851535e-01,-2.065944022609440909e-03,-3.175546935167665175e-01
-5.995509264104888561e-03,2.601516853267267157e-02,6.932801832743339283e-03,-2.752062157686738786e-01,2.600719152525704514e-01,4.976567118111976246e-02,8.119033056305851800e-03,-4.713679640841336727e-02
1.100780789137375919e-02,2.815106354426628616e-03,9.776800699624627750e-03,-4.028359916226120080e-02,-1.966410017723535172e-02,-9.123326564707420760e-03,1.491207480584318470e-02,-1.473708178366958796e-03
1.137143092637187599e-03,1.216363664520113755e-02,-1.551065074388337586e-02,-4.429084854770223151e-02,2.486314649079129913e-02,3.302718647299281163e-02,1.153848967112073090e-02,-3.565646812303644581e-02
-2.717845175831825125e-02,2.347992923138176452e-02,1.431384512079561522e-02,3.764632046641071261e-02,-3.960365734494679379e-02,-1.182809834333748561e-01,-5.877159258729045856e-03,1.145691526173863856e-01
-1.395061172860004306e-02,8.598933026056661613e-03,-2.632576445256180203e-02,6.041399936558862482e-02,2.031098279470951729e-01,7.169833403890456258e-02,-3.727560585822435602e-02,-6.993984606927297620e-02
-1.603365006006272908e-02,-2.225950953342622704e-03,-2.718034315852925660e-03,8.085291912920837326e-04,3.363720149749736127e-02,2.557742454655970860e-02,-2.972232259116015969e-03,-2.573006985528966672e-02
-1.377571391987846526e-02,4.111899107551284308e-03,1.184811991122551892e-03,2.027562631729591669e-02,-1.657325150083085313e-02,-5.937215010279631340e-03,1.139310376629394106e-01,-1.161694392238719759e-01
7.441175736592832261e-03,6.039695859799544368e-04,-7.252967100735605542e-04,4.319579735234248090e-04,-2.735394868939009546e-04,-1.042312010129878806e-02,-1.416676335311833597e-03,9.725054382930925154e-03
2.107386200352701772e-02,5.942746054799838765e-03,-2.724480936505703846e-02,5.476075670287942204e-02,2.411456879300545031e-01,3.596639927202404524e-02,-5.045247739433848105e-02,-4.140501473592601844e-02
2.236648556457841719e-01,3.511020231132672142e-02,-5.355103312182250483e-03,4.010468210689573099e-03,-2.403109930030197516e-01,-2.368449403079871118e-02,2.144818632106790593e-02,2.184740727759101539e-02
2.830616614436614054e-01,8.331568871184632597e-04,9.911235886406860249e-03,-5.525931760294504856e-03,-2.632477242689300057e-01,1.544555064465575819e-02,-3.394280652458571412e-02,-1.344636058542665255e-02
-2.573641603451414656e-02,-3.796910621463537444e-03,1.008085122450905723e-02,-1.363307713585446002e-02,7.792204476591679807e-02,2.822702559728595267e-02,-3.691463672917311145e-02,-2.433291032361070347e-02
5.442949138292316885e-02,3.136117613255533232e-02,-1.955231660906155307e-03,8.418114895246676249e-03,-7.997586152586742825e-02,3.336611302884134878e-02,-2.160390570051629738e-02,-3.480827704330571176e-02
8.802494050957024307e-02,-4.729317301118966810e-02,6.058728630394117319e-03,2.817178913485255884e-02,-1.375675805010554420e-01,-3.184109871979850376e-03,-6.434645345301459596e-02,4.198098551456452832e-02
-1.420607932881239599e-01,-5.881039695529215183e-03,1.372058069144223812e-02,7.074830233727246159e-04,-5.959106995834830001e-04,-2.000608282917904976e-02,1.497697109829522755e-01,1.667885427538346593e-02
-1.420607932881239599e-01,-5.881039695529215183e-03,1.372058069144223812e-02,7.074830233727246159e-04,-5.959106995834830001e-04,-2.000608282917904976e-02,1.497697109829522755e-01,1.667885427538346593e-02
-1.420607932881239599e-01,-5.881039695529215183e-03,1.372058069144223812e-02,7.074830233727246159e-04,-5.959106995834830001e-04,-2.000608282917904976e-02,1.497697109829522755e-01,1.667885427538346593e-02
-1.987202512036058966e-01,3.070971877567154479e-02,1.468512137698114658e-02,2.683629480347774973e-02,5.612083784928525304e-02,-3.251350465303131515e-02,1.149665864918983094e-01,3.700056372346657158e-02
9.476394943080432287e-03,-9.358240366403576191e-03,-2.825718349630901988e-03,2.139385650045989417e-03,-6.986517208273655515e-03,-5.370774603289788819e-04,3.222580746421519707e-03,-1.241588452174329513e-03
-3.151425342608642211e-02,-5.878765754484009329e-03,-5.394649979659139026e-03,2.697512425644055245e-02,8.782178583512045833e-02,1.490898454439957832e-01,2.677334843388501362e-02,-1.447017030502726898e-01
-2.046430462946161738e-02,2.451836288453204671e-03,1.099560992788771625e-03,-8.806801027613732000e-04,4.351285330257156914e-02,1.445039155703349912e-02,1.190615793176098662e-02,-1.868492590561320749e-02
8.972267394054015896e-03,-2.055295648689915646e-04,7.781728887757986823e-03,-5.606419519383363387e-02,2.263699922625865210e-02,1.232709226752506937e-02,-7.604507572405373728e-02,4.852539320148914481e-02
-3.977383798767612083e-03,-9.490235657981136233e-03,-1.329019760640969862e-02,3.677477808291796518e-03,1.654387871951014943e-01,-3.111818921518512693e-01,-2.301292953524316284e-03,-6.620783897796490673e-03
-1.942470504432228934e-02,-3.739762514719414260e-02,5.580498175958696107e-04,2.375344750412743469e-02,3.743942350105151137e-03,2.318966929055580727e-03,9.715779738341558808e-03,-5.005821583597335964e-03
-8.582403990064373100e-03,-5.362948937852702810e-03,7.192162204078707266e-03,-3.700861342248386483e-03,-3.063215313676673213e-02,-1.049174367342975856e-03,2.173922423317929328e-03,4.928509735327115358e-03
1.615282507452322353e-02,6.602969657903674447e-03,-1.563345344289358493e-02,7.989187861078861017e-03,-1.907778582703904824e-03,1.003141418949117514e-02,-4.569525471717222204e-03,-8.014562603234484314e-03
-6.588236931504815042e-03,2.290882514552024934e-02,1.376030861149181352e-03,-2.945950871383120478e-02,4.128232047762992601e-02,-4.126448965541344716e-02,-2.576873021614208177e-04,3.738649403871145693e-02
-3.750322660890670345e-02,-6.040808714065901835e-03,1.732013639512105380e-02,1.797447054722428605e-02,8.894082749021523177e-04,-1.541393576907059380e-02,1.465814307628770033e-02,1.764868049627748431e-02
2.652559784490468760e-03,1.938148998587466490e-02,2.118590409245799805e-02,-4.298299432707047146e-02,1.973162094019520821e-02,7.949815967635149791e-03,-8.527495614467035800e-03,8.976415958081511003e-04
4.803590684798847432e-02,-7.438742737794603981e-03,-2.924295947074339024e-03,-1.507424703274543379e-02,-1.339040753062639144e-01,1.308585751239583206e-01,-5.430625207959993705e-02,-1.040790186929001770e-01
4.195693540478578789e-04,1.115678459246606611e-03,-1.402626836905641167e-04,4.940608748945367334e-02,-6.049018373643259144e-02,6.126206182880631354e-04,-2.530376634985734112e-03,8.229369091817929720e-05
-2.105994565740278331e-03,-2.027161754696480203e-03,5.977004992119709474e-03,8.680994940222109407e-04,-1.003924711882089177e-02,-3.284252382079173860e-02,2.529751324237825179e-03,4.137508499628977238e-02
2.013156012637635356e-02,5.770132019183489731e-03,-1.027632054884456206e-02,-6.389377078709822418e-03,-1.757108388456850301e-03,-6.525069865310057209e-04,7.419412720326236171e-04,5.203724976204136907e-04
-3.190825982764593921e-02,1.031289362004176799e-02,1.822319675897584451e-02,7.211049283107650795e-03,2.029295052194242041e-02,4.829638288030463009e-03,-3.190399700951221992e-03,-6.964482191428681204e-03
4.867380708576309056e-02,-1.328129234490024214e-02,-2.856409449803479911e-03,1.397723516466483074e-01,-2.718818856952021634e-01,1.407679339753488690e-01,-4.579942638996286480e-02,-1.475298077735406055e-01
5.208628214460984951e-02,6.530608798922615810e-03,4.881599215376491302e-03,-3.303647045063626969e-02,-2.042726765091258945e-01,2.197110780007177355e-01,-4.260054670431182716e-02,-2.287242038067485994e-01
-4.740206157169123483e-03,-3.662086836103674303e-02,-1.897640739508381965e-03,4.557057667961753045e-02,-2.576075316552475791e-02,5.500257578169681638e-02,1.557482580899004730e-02,-5.668517171197451354e-02
-3.401559348874445832e-02,-1.261452066201235699e-02,-4.578564643285813057e-02,5.223938353115297438e-03,-4.638728007771804329e-02,2.187875698708284522e-01,9.374345938650942289e-02,-2.227149369352772745e-01
-9.145408390580693492e-03,7.274002995232211211e-04,1.668473605568186052e-02,1.135039812537977236e-03,-1.574498189237055479e-01,2.811424620369127811e-02,3.803081984122512471e-02,-3.632681888760379285e-02
3.409495091129203376e-04,1.716993067635835118e-02,3.039170296536060356e-03,5.106000029972160986e-02,-3.160577795735850654e-02,-2.137952427788541304e-02,-3.487665779011349387e-02,9.916089396942304873e-03
6.185042389415322875e-03,3.302710814337180001e-02,2.930675786640557588e-03,1.890727673359527405e-01,-1.779485145635383292e-01,-6.466163399443429494e-02,-2.096029508059909369e-02,1.039160815544762015e-02
1.165992651374296411e-02,-1.008409976805220952e-02,-6.470545325326230654e-03,7.653072476536734725e-02,-5.810545427456494105e-02,-1.983352163961186326e-02,-1.511032876365457286e-02,6.141980926649013607e-03
1.190277490410146348e-02,-3.549128249700812029e-03,1.539643141824792102e-02,1.066689888086892468e-01,-1.116597434494961683e-01,-3.233764847969371192e-02,-9.980234947182354405e-03,7.803182154881497905e-03
-1.752571510006538727e-02,3.396962155761549390e-03,1.478046136592054294e-03,2.400154125575191047e-02,4.026723459803051991e-02,-3.282435804462444789e-02,-8.114675609668269007e-03,4.572817084982172542e-02
9.810929381507547259e-03,-9.584692050388959189e-03,-7.997571581464534701e-03,2.009013893387066180e-02,-7.016206885311324082e-02,3.668559911181872718e-02,-5.239075264637504774e-03,-2.467142913783151870e-02
7.357615854031883049e-03,3.540071481143244707e-03,-5.252062105018740282e-03,-5.218641714229467488e-02,-2.039107934357146587e-02,6.297086345295135890e-02,-2.526519995230933069e-02,-5.399567339456898957e-02
-2.453313527475663343e-03,1.312476353153219609e-02,2.745509476445793552e-03,-7.227655607616532973e-02,4.977098950954174372e-02,2.628526434113260396e-02,-2.002612468767182158e-02,-2.932424425673742577e-02
-3.277028902047939007e-02,1.135179052275701395e-03,1.435555660887011600e-02,1.821290928423018388e-02,-1.700867493831219324e-02,7.810499865077180290e-03,1.807458839176114343e-02,-8.969863714599467935e-03
-3.277028902047939007e-02,1.135179052275701395e-03,1.435555660887011600e-02,1.821290928423018388e-02,-1.700867493831219324e-02,7.810499865077180290e-03,1.807458839176114343e-02,-8.969863714599467935e-03
1.510534979210325160e-02,2.963297213233948013e-02,4.982921307973221976e-03,-3.305317375552602188e-02,4.934041067811910722e-03,1.149228232883785922e-02,1.889416139385333843e-02,-9.373237913540086869e-03
4.546444547307608441e-02,-1.279623130159105761e-02,-1.557265252272383750e-02,3.849629227099094636e-02,2.130793112444802351e-03,-1.275005710715340591e-03,-4.853983718120930685e-02,2.791502172014706257e-03
4.546444547307608441e-02,-1.279623130159105761e-02,-1.557265252272383750e-02,3.849629227099094636e-02,2.130793112444802351e-03,-1.275005710715340591e-03,-4.853983718120930685e-02,2.791502172014706257e-03
-1.176656893342159504e-02,1.235361473128314055e-02,-9.159649154339552166e-04,1.050101691882457042e-02,6.029456111495785572e-03,3.179696944862393272e-03,-7.780687404541719240e-03,-1.644404291151696420e-03
-1.176656893342159504e-02,1.235361473128314055e-02,-9.159649154339552166e-04,1.050101691882457042e-02,6.029456111495785572e-03,3.179696944862393272e-03,-7.780687404541719240e-03,-1.644404291151696420e-03
-4.832058727142805876e-02,9.095093805360542419e-03,1.460821298357471189e-02,7.786297446068129666e-03,2.555075780676367009e-02,-6.017887175180119085e-03,9.408205250182082729e-03,1.150921712455613317e-02
-6.117978422143489046e-03,2.604987776357361312e-02,-1.688390599227873601e-03,-1.360106769268731343e-02,5.504736857478666201e-02,1.000715904093683536e-02,-9.886032579831411510e-03,-5.688300159831574491e-03
