2.490364254303418720e-03,-1.134433342923583422e-02,-9.428219145430627446e-03,-5.409766829554903816e-02,8.750671768547702012e-01,4.231961000750149304e-02,-1.085032263602346211e-03,4.454027473272383908e-01
1.400404773074579237e-02,2.224885558707535155e-02,-2.263864216150415429e-02,2.642305202945402498e-02,-1.989297978937272227e-01,1.374065617947290985e-01,7.139496317018814708e-02,-8.219503936243230391e-02
5.150809979507473511e-03,7.492660768203385224e-02,1.656497946469938278e-03,7.097610644542480876e-03,-1.173553121391557597e-01,-2.943844995787437465e-03,-1.559305558097423029e-02,-6.824810415685708676e-02
-5.365663180018946654e-02,1.370583688028810809e-01,-2.665954519276772516e-03,-6.849363672298177871e-03,-3.150328151642362018e-01,2.275725449193769130e-03,1.324498216388660665e-01,-3.389738049060399272e-02
-4.085450527945304333e-02,-1.749704001004400919e-02,-1.808456504616670277e-02,1.802388610780039299e-02,2.140628317326710994e-01,-4.332683192367668690e-02,-2.101042141221681064e-02,9.860744176057303911e-02
6.179523986371265876e-02,5.249941898933402351e-02,-2.748135543644500585e-03,1.284778027445724171e-03,-6.325125050631409673e-02,-9.898387427747604508e-03,-8.087596712590393658e-03,-8.403943163726042276e-02
4.108270669442358122e-03,2.496773042946633450e-02,7.079578040098076334e-03,-6.145024956394570543e-04,-1.863552928981722645e-01,-2.287171349111892862e-02,-2.923416816361894179e-03,7.608736455824312295e-02
5.792681988221003164e-02,5.478951508422338218e-02,-2.013641780310453013e-03,8.199029525357524341e-05,-4.741201415900962723e-02,-3.768548726248356628e-02,-1.629679488675971066e-02,-7.062127869736647967e-02
2.397226947506082145e-02,1.010729742533170300e-01,9.878486906669273204e-02,3.574724403111139565e-03,-6.359109069525835378e-02,2.530999546071968642e-02,-9.629934573034468334e-04,-6.123865161713461930e-02
6.179523986371265876e-02,5.249941898933402351e-02,-2.748135543644500585e-03,1.284778027445724171e-03,-6.325125050631409673e-02,-9.898387427747604508e-03,-8.087596712590393658e-03,-8.403943163726042276e-02
2.370803808872268964e-04,5.291567738767628815e-02,-1.364128300991843644e-02,-1.387383252143901437e-02,-6.118236747579031132e-02,-1.281406536271756900e-02,-7.116690855443362149e-03,-3.361484788130884860e-02
-3.322876747691700938e-01,1.867637067172042697e-01,-9.682466101269698172e-03,-1.137106147787364692e-02,1.622401602447199886e-01,-1.979440319566756062e-02,-1.109830373895434874e-01,7.679024392845049465e-03
6.179523986371265876e-02,5.249941898933402351e-02,-2.748135543644500585e-03,1.284778027445724171e-03,-6.325125050631409673e-02,-9.898387427747604508e-03,-8.087596712590393658e-03,-8.403943163726042276e-02
6.179523986371265876e-02,5.249941898933402351e-02,-2.748135543644500585e-03,1.284778027445724171e-03,-6.325125050631409673e-02,-9.898387427747604508e-03,-8.087596712590393658e-03,-8.403943163726042276e-02
-7.880088970722476382e-02,3.790128073268887732e-02,7.955594420420043777e-02,-5.764168281866198854e-03,-2.435132201577509536e-01,-6.624934397848973242e-03,-5.167927647543359322e-03,-7.791521382614052804e-02
-2.485170496778073626e-02,1.060385906744998052e-01,1.567658257451383375e-01,1.105459892089552705e-02,-2.274780120130531214e-01,-2.872862099105449180e-02,1.533953254117365397e-02,-1.090488200540061514e-01
-1.059773228014726336e-02,5.085342723238178188e-03,1.093846521807367439e-01,-3.113252049576934605e-02,-1.045939850868400356e-01,4.642993980822703037e-02,-2.409030391919923450e-02,-1.364954380995410110e-01
-8.109810520883513341e-02,4.320284491828114970e-02,7.755188191022262256e-02,-7.784593412694017223e-03,-2.342735038969205319e-01,-8.621305066895424210e-03,1.811890337506652862e-02,-8.765946488862466635e-02
-1.430292381866235529e-02,2.534178777590848260e-03,-4.901150383088774543e-02,-1.464496988165656533e-03,-1.033550699209450363e-01,-9.675148311015948840e-03,1.307648954774845093e-02,-3.306869244447516870e-02
-4.674859662352333356e-02,1.369861078233939634e-02,-3.719712232629610038e-02,-3.105133235683947990e-03,-1.226172106334438433e-01,-2.741237334475434342e-02,-1.668152816142755290e-02,-1.238919195491092369e-02
-3.648514957421351845e-02,3.633761224118667310e-03,-5.064525971783242347e-02,-4.037366434277944900e-03,-1.058855067444691017e-01,1.087195024977037627e-02,4.109968563865684481e-03,-4.083267813865126827e-02
6.409380700240485500e-03,-4.725581927384479505e-03,-4.414178306203493662e-02,-8.547997452067187391e-03,-7.417708350463284028e-02,-2.761078436011995055e-02,2.269439220678489528e-04,-2.028041729488061148e-02
-4.196169467911551459e-02,5.915041707988457492e-02,-3.474593297360113742e-02,-9.361772272020041016e-03,-9.312832195676126745e-02,7.414180158787265704e-03,9.955055523360355901e-03,-5.977548253258153921e-02
-1.037915636267816924e-02,6.016366684038608297e-03,-5.417010452826465094e-02,3.074732762665754321e-02,2.858805683899166006e-01,3.918693886047573682e-02,-1.355429198504164157e-02,-7.907169494158487744e-02
-1.334804732800995430e-02,2.177643545267761438e-03,-5.196610965758526046e-02,-2.541735743946760794e-03,-1.321075696592509952e-01,1.533996866551744567e-03,5.644046312924274819e-03,-3.873363643904951387e-02
-1.334804732800995430e-02,2.177643545267761438e-03,-5.196610965758526046e-02,-2.541735743946760794e-03,-1.321075696592509952e-01,1.533996866551744567e-03,5.644046312924274819e-03,-3.873363643904951387e-02
2.834141666377670149e-02,7.078114396746488894e-03,-4.774373759688903263e-02,-3.212637498558291397e-03,-1.344756835715428533e-01,1.687286806187312735e-03,-8.621312394581892233e-03,-2.604490921269066520e-02
-1.334804732800995430e-02,2.177643545267761438e-03,-5.196610965758526046e-02,-2.541735743946760794e-03,-1.321075696592509952e-01,1.533996866551744567e-03,5.644046312924274819e-03,-3.873363643904951387e-02
-1.241734127461665074e-02,-5.867929505204255713e-02,-2.154155369548562196e-02,-1.552985348993390609e-03,-4.136685317817188901e-02,-1.121956592907167281e-02,7.775727011403012201e-02,-2.266618931684635102e-02
-1.241734127461665074e-02,-5.867929505204255713e-02,-2.154155369548562196e-02,-1.552985348993390609e-03,-4.136685317817188901e-02,-1.121956592907167281e-02,7.775727011403012201e-02,-2.266618931684635102e-02
-1.241734127461665074e-02,-5.867929505204255713e-02,-2.154155369548562196e-02,-1.552985348993390609e-03,-4.136685317817188901e-02,-1.121956592907167281e-02,7.775727011403012201e-02,-2.266618931684635102e-02
-1.241734127461665074e-02,-5.867929505204255713e-02,-2.154155369548562196e-02,-1.552985348993390609e-03,-4.136685317817188901e-02,-1.121956592907167281e-02,7.775727011403012201e-02,-2.266618931684635102e-02
-1.241734127461665074e-02,-5.867929505204255713e-02,-2.154155369548562196e-02,-1.552985348993390609e-03,-4.136685317817188901e-02,-1.121956592907167281e-02,7.775727011403012201e-02,-2.266618931684635102e-02
-1.241734127461665074e-02,-5.867929505204255713e-02,-2.154155369548562196e-02,-1.552985348993390609e-03,-4.136685317817188901e-02,-1.121956592907167281e-02,7.775727011403012201e-02,-2.266618931684635102e-02
-1.241734127461665074e-02,-5.867929505204255713e-02,-2.154155369548562196e-02,-1.552985348993390609e-03,-4.136685317817188901e-02,-1.121956592907167281e-02,7.775727011403012201e-02,-2.266618931684635102e-02
-1.241734127461665074e-02,-5.867929505204255713e-02,-2.154155369548562196e-02,-1.552985348993390609e-03,-4.136685317817188901e-02,-1.121956592907167281e-02,7.775727011403012201e-02,-2.266618931684635102e-02
-1.241734127461665074e-02,-5.867929505204255713e-02,-2.154155369548562196e-02,-1.552985348993390609e-03,-4.136685317817188901e-02,-1.121956592907167281e-02,7.775727011403012201e-02,-2.266618931684635102e-02
-1.241734127461665074e-02,-5.867929505204255713e-02,-2.154155369548562196e-02,-1.552985348993390609e-03,-4.136685317817188901e-02,-1.121956592907167281e-02,7.775727011403012201e-02,-2.266618931684635102e-02
-1.241734127461665074e-02,-5.867929505204255713e-02,-2.154155369548562196e-02,-1.552985348993390609e-03,-4.136685317817188901e-02,-1.121956592907167281e-02,7.775727011403012201e-02,-2.266618931684635102e-02
-1.241734127461665074e-02,-5.867929505204255713e-02,-2.154155369548562196e-02,-1.552985348993390609e-03,-4.136685317817188901e-02,-1.121956592907167281e-02,7.775727011403012201e-02,-2.266618931684635102e-02
-1.594599519424447914e-02,-3.547921817810743839e-02,6.195960697244178028e-02,-8.612258173528377237e-04,-6.810558432562119346e-02,-8.561352997432682826e-03,-2.946673593672080051e-04,-2.820582953130740256e-02
-1.386579736660036553e-02,-3.683436904461843270e-02,6.351985945217283880e-02,1.543180861150835435e-03,-6.935285504840478510e-02,-1.708519009064522060e-02,-1.225417444090523599e-03,-1.184886194065775701e-02
-2.325272936569708349e-02,-3.759049689009224399e-02,5.980913871826126771e-02,1.204924568498430418e-03,-1.318586048063931926e-01,8.078502879820706473e-02,8.480261926397322791e-03,-1.060321303630512857e-01
-1.386579736660036553e-02,-3.683436904461843270e-02,6.351985945217283880e-02,1.543180861150835435e-03,-6.935285504840478510e-02,-1.708519009064522060e-02,-1.225417444090523599e-03,-1.184886194065775701e-02
-1.386579736660036553e-02,-3.683436904461843270e-02,6.351985945217283880e-02,1.543180861150835435e-03,-6.935285504840478510e-02,-1.708519009064522060e-02,-1.225417444090523599e-03,-1.184886194065775701e-02
-1.386579736660036553e-02,-3.683436904461843270e-02,6.351985945217283880e-02,1.543180861150835435e-03,-6.935285504840478510e-02,-1.708519009064522060e-02,-1.225417444090523599e-03,-1.184886194065775701e-02
-3.036579843994502838e-04,-3.681358235864800460e-02,6.270070898318463870e-02,-3.983491927914360395e-03,-8.595512818280706679e-02,-1.200656610181752640e-02,1.153378347671974802e-03,-2.637043884666042531e-02
-7.831591566828957629e-03,-7.492457113010475220e-04,-6.710513648735913494e-02,5.243492875706017887e-04,3.054735314828711523e-01,1.256003054811685206e-02,-9.051784250561989778e-03,-5.066694354912282261e-02
-7.831591566828957629e-03,-7.492457113010475220e-04,-6.710513648735913494e-02,5.243492875706017887e-04,3.054735314828711523e-01,1.256003054811685206e-02,-9.051784250561989778e-03,-5.066694354912282261e-02
2.747219390968899111e-01,3.090842468731546744e-04,-3.824244745490566928e-03,2.266590022034642958e-03,-3.575335215907576303e-01,7.053389474211094190e-03,-9.587465364925912281e-03,-1.598325954871204421e-02
2.747219390968899111e-01,3.090842468731546744e-04,-3.824244745490566928e-03,2.266590022034642958e-03,-3.575335215907576303e-01,7.053389474211094190e-03,-9.587465364925912281e-03,-1.598325954871204421e-02
8.442271201845477635e-02,-5.552624727792793461e-05,-2.532784401686614039e-04,7.774072188553914162e-04,-2.397555829818850959e-01,-7.606784545074994370e-04,1.274648275384286959e-03,-5.383184225726487257e-04
8.442271201845477635e-02,-5.552624727792793461e-05,-2.532784401686614039e-04,7.774072188553914162e-04,-2.397555829818850959e-01,-7.606784545074994370e-04,1.274648275384286959e-03,-5.383184225726487257e-04
7.921252982675566767e-02,1.620123990693731700e-03,-1.199750118265647354e-03,-7.954733662230680305e-03,-2.097436016009602555e-01,1.157805168645374173e-02,-2.069140440800382869e-02,-1.922749017790470125e-02
-1.189563628527198214e-01,7.639419658338382491e-02,-4.081689965891436601e-05,-6.814780703212619528e-03,-1.074050820219608904e-01,1.996198710059661138e-02,1.254156251974209747e-02,-4.092763243580862381e-02
-1.189563628527198214e-01,7.639419658338382491e-02,-4.081689965891436601e-05,-6.814780703212619528e-03,-1.074050820219608904e-01,1.996198710059661138e-02,1.254156251974209747e-02,-4.092763243580862381e-02
-1.189563628527198214e-01,7.639419658338382491e-02,-4.081689965891436601e-05,-6.814780703212619528e-03,-1.074050820219608904e-01,1.996198710059661138e-02,1.254156251974209747e-02,-4.092763243580862381e-02
-1.859222953070371331e-01,1.006626726112659076e-01,-7.019220771453759007e-03,-1.185840620033333861e-02,-1.254867894980860044e-01,-1.201975377735679459e-02,-2.401210612996019719e-02,-2.720719074718136454e-02
-1.030608871886264620e-02,1.262731935652340078e-02,9.823960830568195454e-03,6.023766638200712953e-02,-2.908390725392355214e-01,-6.286879856433577607e-02,-6.142059184222210463e-03,1.907213358095591060e-01
-1.015018102321605803e-01,6.981529343594281012e-02,1.047925253766457052e-02,-9.695204179225385202e-03,-8.478104591628712883e-02,3.184601461167047010e-02,-3.831534352725786408e-02,-5.489523706849772783e-02
-1.216070375202797232e-01,7.165249227469346061e-02,1.462068861999375399e-02,-1.492613897926183507e-02,-5.590156119912646077e-02,2.953016286518874225e-02,1.971266540595213376e-02,-6.833277920059224742e-02
-1.947258707329425076e-01,1.933472429944516763e-02,5.267636709546637882e-05,5.895480450245504760e-03,-3.278212436679588948e-01,-5.602690172733086962e-03,1.527891378065333351e-03,1.827568331340218358e-02
-1.947258707329425076e-01,1.933472429944516763e-02,5.267636709546637882e-05,5.895480450245504760e-03,-3.278212436679588948e-01,-5.602690172733086962e-03,1.527891378065333351e-03,1.827568331340218358e-02
6.679174129775818092e-02,5.791654572120850247e-02,-6.575196326092756912e-04,-1.257433987239783835e-02,1.923819472852160428e-01,-5.807270626608872222e-03,-2.772725535754726883e-02,-6.033128804717804126e-03
-2.313710224620355374e-02,1.456117678850906956e-03,1.320849939752833952e-03,-1.495630690331183890e-03,2.622206291478187956e-02,9.337953383218633441e-03,-1.534077749058584484e-03,-2.099041699601744866e-03
-2.313710224620355374e-02,1.456117678850906956e-03,1.320849939752833952e-03,-1.495630690331183890e-03,2.622206291478187956e-02,9.337953383218633441e-03,-1.534077749058584484e-03,-2.099041699601744866e-03
-2.313710224620355374e-02,1.456117678850906956e-03,1.320849939752833952e-03,-1.495630690331183890e-03,2.622206291478187956e-02,9.337953383218633441e-03,-1.534077749058584484e-03,-2.099041699601744866e-03
-1.806445524225747806e-02,-1.231847682813410130e-02,-5.043299991022424933e-03,5.065137664583992810e-02,-1.210505154601937833e-01,-4.743058231143867237e-02,1.321155439857110703e-02,1.955426530937020430e-02
8.179987394284311819e-02,1.056517661348159096e-02,3.987886384222818353e-02,-1.369361247320854090e-02,-2.256903087877828451e-01,-4.522436179822607316e-02,5.644029123960723690e-03,-2.279737843726983154e-02
-2.313710224620355374e-02,1.456117678850906956e-03,1.320849939752833952e-03,-1.495630690331183890e-03,2.622206291478187956e-02,9.337953383218633441e-03,-1.534077749058584484e-03,-2.099041699601744866e-03
-2.313710224620355374e-02,1.456117678850906956e-03,1.320849939752833952e-03,-1.495630690331183890e-03,2.622206291478187956e-02,9.337953383218633441e-03,-1.534077749058584484e-03,-2.099041699601744866e-03
-2.313710224620355374e-02,1.456117678850906956e-03,1.320849939752833952e-03,-1.495630690331183890e-03,2.622206291478187956e-02,9.337953383218633441e-03,-1.534077749058584484e-03,-2.099041699601744866e-03
-7.458229264716409457e-02,2.073442136642914338e-02,4.029851755397299493e-03,7.157521866108366472e-04,-4.747070901319959402e-02,-3.315552647538459958e-04,-2.549146171307092867e-02,2.206646999211887145e-02
-2.313710224620355374e-02,1.456117678850906956e-03,1.320849939752833952e-03,-1.495630690331183890e-03,2.622206291478187956e-02,9.337953383218633441e-03,-1.534077749058584484e-03,-2.099041699601744866e-03
-2.313710224620355374e-02,1.456117678850906956e-03,1.320849939752833952e-03,-1.495630690331183890e-03,2.622206291478187956e-02,9.337953383218633441e-03,-1.534077749058584484e-03,-2.099041699601744866e-03
-2.313710224620355374e-02,1.456117678850906956e-03,1.320849939752833952e-03,-1.495630690331183890e-03,2.622206291478187956e-02,9.337953383218633441e-03,-1.534077749058584484e-03,-2.099041699601744866e-03
-1.747232644475594371e-02,-4.805115574117171939e-02,-4.746106358377036533e-04,1.723026718242429405e-03,-9.103617643398037584e-03,-1.481940668386998259e-03,4.688933621412254282e-02,8.557439976151779218e-04
-1.747232644475594371e-02,-4.805115574117171939e-02,-4.746106358377036533e-04,1.723026718242429405e-03,-9.103617643398037584e-03,-1.481940668386998259e-03,4.688933621412254282e-02,8.557439976151779218e-04
-1.747232644475594371e-02,-4.805115574117171939e-02,-4.746106358377036533e-04,1.723026718242429405e-03,-9.103617643398037584e-03,-1.481940668386998259e-03,4.688933621412254282e-02,8.557439976151779218e-04
-1.747232644475594371e-02,-4.805115574117171939e-02,-4.746106358377036533e-04,1.723026718242429405e-03,-9.103617643398037584e-03,-1.481940668386998259e-03,4.688933621412254282e-02,8.557439976151779218e-04
-1.747232644475594371e-02,-4.805115574117171939e-02,-4.746106358377036533e-04,1.723026718242429405e-03,-9.103617643398037584e-03,-1.481940668386998259e-03,4.688933621412254282e-02,8.557439976151779218e-04
4.085172642103220009e-02,-4.751352033919699347e-02,-9.548905659734924787e-04,-2.687142651907632046e-02,-2.508603179685967577e-01,-7.276822501049867893e-03,2.420596541825925097e-01,1.528460501926392698e-02
-1.747232644475594371e-02,-4.805115574117171939e-02,-4.746106358377036533e-04,1.723026718242429405e-03,-9.103617643398037584e-03,-1.481940668386998259e-03,4.688933621412254282e-02,8.557439976151779218e-04
-1.747232644475594371e-02,-4.805115574117171939e-02,-4.746106358377036533e-04,1.723026718242429405e-03,-9.103617643398037584e-03,-1.481940668386998259e-03,4.688933621412254282e-02,8.557439976151779218e-04
2.575438317693885468e-02,-4.548657605521561759e-02,8.393086505980277981e-04,7.624722519259902014e-03,-2.605324594259936927e-02,2.829632362131813579e-03,4.008429399554279404e-02,9.045842736345030208e-03
-1.747232644475594371e-02,-4.805115574117171939e-02,-4.746106358377036533e-04,1.723026718242429405e-03,-9.103617643398037584e-03,-1.481940668386998259e-03,4.688933621412254282e-02,8.557439976151779218e-04
-1.747232644475594371e-02,-4.805115574117171939e-02,-4.746106358377036533e-04,1.723026718242429405e-03,-9.103617643398037584e-03,-1.481940668386998259e-03,4.688933621412254282e-02,8.557439976151779218e-04
-1.747232644475594371e-02,-4.805115574117171939e-02,-4.746106358377036533e-04,1.723026718242429405e-03,-9.103617643398037584e-03,-1.481940668386998259e-03,4.688933621412254282e-02,8.557439976151779218e-04
-1.747232644475594371e-02,-4.805115574117171939e-02,-4.746106358377036533e-04,1.723026718242429405e-03,-9.103617643398037584e-03,-1.481940668386998259e-03,4.688933621412254282e-02,8.557439976151779218e-04
-1.747232644475594371e-02,-4.805115574117171939e-02,-4.746106358377036533e-04,1.723026718242429405e-03,-9.103617643398037584e-03,-1.481940668386998259e-03,4.688933621412254282e-02,8.557439976151779218e-04
-1.747232644475594371e-02,-4.805115574117171939e-02,-4.746106358377036533e-04,1.723026718242429405e-03,-9.103617643398037584e-03,-1.481940668386998259e-03,4.688933621412254282e-02,8.557439976151779218e-04
-1.747232644475594371e-02,-4.805115574117171939e-02,-4.746106358377036533e-04,1.723026718242429405e-03,-9.103617643398037584e-03,-1.481940668386998259e-03,4.688933621412254282e-02,8.557439976151779218e-04
-1.747232644475594371e-02,-4.805115574117171939e-02,-4.746106358377036533e-04,1.723026718242429405e-03,-9.103617643398037584e-03,-1.481940668386998259e-03,4.688933621412254282e-02,8.557439976151779218e-04
3.547515535513887097e-02,-2.581375491853005189e-02,-5.089261621561532367e-04,-2.983856200636201238e-03,2.286165191451637602e-02,-9.670482228555083923e-03,4.969072873219433639e-02,-6.003204032778670929e-02
3.412919324874193194e-02,-2.544214108908950459e-02,-4.981918989879627812e-04,-4.028919534649635058e-03,6.012654175792529927e-03,-5.881976525871279379e-03,-6.880120309904001752e-03,1.090353748983837433e-02
3.412919324874193194e-02,-2.544214108908950459e-02,-4.981918989879627812e-04,-4.028919534649635058e-03,6.012654175792529927e-03,-5.881976525871279379e-03,-6.880120309904001752e-03,1.090353748983837433e-02
3.412919324874193194e-02,-2.544214108908950459e-02,-4.981918989879627812e-04,-4.028919534649635058e-03,6.012654175792529927e-03,-5.881976525871279379e-03,-6.880120309904001752e-03,1.090353748983837433e-02
3.412919324874193194e-02,-2.544214108908950459e-02,-4.981918989879627812e-04,-4.028919534649635058e-03,6.012654175792529927e-03,-5.881976525871279379e-03,-6.880120309904001752e-03,1.090353748983837433e-02
3.412919324874193194e-02,-2.544214108908950459e-02,-4.981918989879627812e-04,-4.028919534649635058e-03,6.012654175792529927e-03,-5.881976525871279379e-03,-6.880120309904001752e-03,1.090353748983837433e-02
3.412919324874193194e-02,-2.544214108908950459e-02,-4.981918989879627812e-04,-4.028919534649635058e-03,6.012654175792529927e-03,-5.881976525871279379e-03,-6.880120309904001752e-03,1.090353748983837433e-02
6.600035912946033978e-02,-2.748390254486107048e-02,-8.860511762244291725e-03,-6.485950904249045308e-03,-6.286715584499394383e-02,-2.523329662277913003e-03,-3.090303968846825765e-04,1.617429725033936406e-03
3.412919324874193194e-02,-2.544214108908950459e-02,-4.981918989879627812e-04,-4.028919534649635058e-03,6.012654175792529927e-03,-5.881976525871279379e-03,-6.880120309904001752e-03,1.090353748983837433e-02
2.506851305410762176e-02,-2.465831543180964716e-02,-5.101405625414928442e-04,-2.677038789397078161e-03,6.003352652929065843e-03,-6.403212212785875865e-03,-2.219997281252604569e-03,1.989812966698898539e-02
3.412919324874193194e-02,-2.544214108908950459e-02,-4.981918989879627812e-04,-4.028919534649635058e-03,6.012654175792529927e-03,-5.881976525871279379e-03,-6.880120309904001752e-03,1.090353748983837433e-02
2.338345012392994970e-02,-9.613046370905851956e-02,-4.176208143842980759e-03,8.165143736639393635e-02,-2.468253810640983707e-03,3.688749828596586591e-03,-3.821214680993524019e-03,-1.000164300704426204e-02
3.412919324874193194e-02,-2.544214108908950459e-02,-4.981918989879627812e-04,-4.028919534649635058e-03,6.012654175792529927e-03,-5.881976525871279379e-03,-6.880120309904001752e-03,1.090353748983837433e-02
3.412919324874193194e-02,-2.544214108908950459e-02,-4.981918989879627812e-04,-4.028919534649635058e-03,6.012654175792529927e-03,-5.881976525871279379e-03,-6.880120309904001752e-03,1.090353748983837433e-02
3.412919324874193194e-02,-2.544214108908950459e-02,-4.981918989879627812e-04,-4.028919534649635058e-03,6.012654175792529927e-03,-5.881976525871279379e-03,-6.880120309904001752e-03,1.090353748983837433e-02
3.412919324874193194e-02,-2.544214108908950459e-02,-4.981918989879627812e-04,-4.028919534649635058e-03,6.012654175792529927e-03,-5.881976525871279379e-03,-6.880120309904001752e-03,1.090353748983837433e-02
3.412919324874193194e-02,-2.544214108908950459e-02,-4.981918989879627812e-04,-4.028919534649635058e-03,6.012654175792529927e-03,-5.881976525871279379e-03,-6.880120309904001752e-03,1.090353748983837433e-02
3.412919324874193194e-02,-2.544214108908950459e-02,-4.981918989879627812e-04,-4.028919534649635058e-03,6.012654175792529927e-03,-5.881976525871279379e-03,-6.880120309904001752e-03,1.090353748983837433e-02
1.917056191223452319e-02,-2.247545831680188705e-02,1.921202145113991028e-03,1.836251339209585666e-03,-3.026215727184712254e-02,-3.246824258385796417e-03,-1.547011833643232269e-02,-1.008498195239009671e-03
3.412919324874193194e-02,-2.544214108908950459e-02,-4.981918989879627812e-04,-4.028919534649635058e-03,6.012654175792529927e-03,-5.881976525871279379e-03,-6.880120309904001752e-03,1.090353748983837433e-02
3.412919324874193194e-02,-2.544214108908950459e-02,-4.981918989879627812e-04,-4.028919534649635058e-03,6.012654175792529927e-03,-5.881976525871279379e-03,-6.880120309904001752e-03,1.090353748983837433e-02
3.412919324874193194e-02,-2.544214108908950459e-02,-4.981918989879627812e-04,-4.028919534649635058e-03,6.012654175792529927e-03,-5.881976525871279379e-03,-6.880120309904001752e-03,1.090353748983837433e-02
-1.226298662636112619e-02,-2.020863928435189319e-02,-4.122480676839217141e-04,-2.172484937722432823e-03,-1.804698249344960023e-02,1.678567985673371510e-01,8.304162040586534482e-03,-9.809699373456213720e-03
-1.170640833694900490e-02,-1.656073542552835218e-02,-4.327246745609719669e-04,-2.914271040593554955e-03,1.847851225276560608e-02,1.145852890385939543e-01,-5.254682250205853361e-02,-3.525921441895234383e-03
-1.226298662636112619e-02,-2.020863928435189319e-02,-4.122480676839217141e-04,-2.172484937722432823e-03,-1.804698249344960023e-02,1.678567985673371510e-01,8.304162040586534482e-03,-9.809699373456213720e-03
-1.200330269970173447e-02,-1.774918492440583431e-02,1.386138071580835310e-03,-3.761269022093777139e-03,-5.832025935847819781e-02,1.474051065483520107e-01,1.211633211999334041e-02,-3.725517411325999367e-02
-1.843795402941064698e-03,-1.689130207698764929e-02,1.668569478339894342e-03,-9.508915022779267784e-03,-1.010981744923400427e-01,5.343785635375697396e-02,2.619047552776574903e-02,7.246993444839171239e-02
-8.697218916686004497e-03,-3.215901226808659530e-02,-2.401311805199821906e-03,7.476782005300650069e-02,-1.108981336197533973e-01,9.017663067069348060e-02,-1.097995015540402693e-02,2.872428979134186711e-02
-1.226298662636112619e-02,-2.020863928435189319e-02,-4.122480676839217141e-04,-2.172484937722432823e-03,-1.804698249344960023e-02,1.678567985673371510e-01,8.304162040586534482e-03,-9.809699373456213720e-03
-5.311759241771045123e-03,6.325200415456092018e-02,6.832079636864181460e-02,3.680581784704808988e-03,8.864374914391254939e-03,-2.302299385912901300e-02,-1.808464976745873280e-03,2.903522859057005093e-02
-5.311759241771045123e-03,6.325200415456092018e-02,6.832079636864181460e-02,3.680581784704808988e-03,8.864374914391254939e-03,-2.302299385912901300e-02,-1.808464976745873280e-03,2.903522859057005093e-02
-5.311759241771045123e-03,6.325200415456092018e-02,6.832079636864181460e-02,3.680581784704808988e-03,8.864374914391254939e-03,-2.302299385912901300e-02,-1.808464976745873280e-03,2.903522859057005093e-02
-5.311759241771045123e-03,6.325200415456092018e-02,6.832079636864181460e-02,3.680581784704808988e-03,8.864374914391254939e-03,-2.302299385912901300e-02,-1.808464976745873280e-03,2.903522859057005093e-02
-5.311759241771045123e-03,6.325200415456092018e-02,6.832079636864181460e-02,3.680581784704808988e-03,8.864374914391254939e-03,-2.302299385912901300e-02,-1.808464976745873280e-03,2.903522859057005093e-02
-5.311759241771045123e-03,6.325200415456092018e-02,6.832079636864181460e-02,3.680581784704808988e-03,8.864374914391254939e-03,-2.302299385912901300e-02,-1.808464976745873280e-03,2.903522859057005093e-02
-4.247447805627987960e-02,2.460115865848579858e-02,2.816692836745756517e-02,1.868217157954855500e-03,-6.153294245340103219e-02,-7.527027075181018378e-02,2.819168443476376650e-03,-2.790533653725573576e-02
-1.022055524216925262e-02,2.728385515569400812e-03,8.933941919443656125e-04,2.318564628274770098e-02,-5.032599087178925290e-02,-7.694486104384809511e-02,-2.740954371600986400e-02,4.637953494213357258e-02
2.367225753942816396e-02,-3.523535708127328858e-03,5.994774880359965072e-03,-1.562714188750852565e-02,5.787841145421194350e-02,-4.048783866240492774e-02,-2.505467395878087020e-02,2.720574727131560427e-02
3.914829511177723292e-03,3.379689764524912519e-03,-1.829551715190363970e-03,-9.620880179388094713e-03,-5.207470040623305568e-05,-1.134305743573322742e-02,-1.963757156792443614e-02,8.752528127146703626e-03
-1.215291680314629398e-02,2.065879984871821316e-03,5.640199472146591175e-03,-8.064393287777400429e-03,3.336880620091335625e-02,-9.474984109226735826e-03,-9.130566167005804701e-03,8.208171949498589345e-03
-4.925834957316210100e-02,1.167704253432122127e-02,6.607060931935156145e-02,1.178878405631889363e-03,1.511097927545320130e-01,3.331113011154589860e-04,-2.057370991852863393e-04,-3.152594649700023177e-02
-4.556977946768264037e-02,-1.995525582753907706e-02,3.132090171560874409e-02,1.350733489774576523e-01,-4.931534402279724727e-02,-3.794861034930618188e-02,4.646176421255181210e-02,2.695763697692287407e-04
2.202042588374414703e-03,2.525578786670551294e-03,2.406107204903990254e-03,-6.389398839946873465e-03,2.520057009876409265e-02,-1.475137772395147904e-03,-1.258865968740751837e-02,-7.521758224604232698e-03
8.223922659196448992e-03,7.745494895894840422e-03,4.735070613361137782e-04,-1.761014377182899826e-02,1.545665496605603314e-03,-1.461768209409149664e-02,-1.777603875683291326e-02,-1.824086510313914110e-03
8.524941526473497899e-02,-3.989737159250589249e-02,-6.170639527753661591e-02,9.071061613171137183e-03,-1.693008472215545845e-01,-4.877973337754869937e-03,4.519341414468345391e-02,-6.968995821671640847e-03
1.241866500965526331e-03,-9.361684620736623452e-04,1.057016048326115927e-03,1.432834769566075639e-02,5.992335348358638486e-02,-1.887847140249790390e-02,-4.300309366269877698e-02,3.192157278505284961e-03
1.241866500965526331e-03,-9.361684620736623452e-04,1.057016048326115927e-03,1.432834769566075639e-02,5.992335348358638486e-02,-1.887847140249790390e-02,-4.300309366269877698e-02,3.192157278505284961e-03
1.907760188430603771e-02,-3.917304641879312127e-02,4.879460400612015830e-02,1.320890632036404722e-02,-5.283778237360230445e-01,-6.485875336630993367e-03,-1.271410590278585495e-01,-1.610407290652072360e-02
1.241866500965526331e-03,-9.361684620736623452e-04,1.057016048326115927e-03,1.432834769566075639e-02,5.992335348358638486e-02,-1.887847140249790390e-02,-4.300309366269877698e-02,3.192157278505284961e-03
1.241866500965526331e-03,-9.361684620736623452e-04,1.057016048326115927e-03,1.432834769566075639e-02,5.992335348358638486e-02,-1.887847140249790390e-02,-4.300309366269877698e-02,3.192157278505284961e-03
1.241866500965526331e-03,-9.361684620736623452e-04,1.057016048326115927e-03,1.432834769566075639e-02,5.992335348358638486e-02,-1.887847140249790390e-02,-4.300309366269877698e-02,3.192157278505284961e-03
4.069218711586379544e-03,-9.336587976356277435e-03,-1.153325411285211800e-02,1.626212942255948063e-02,4.317994987881382252e-02,-1.909777669042674389e-02,-3.937906799982550388e-02,2.598308101282645333e-02
1.241866500965526331e-03,-9.361684620736623452e-04,1.057016048326115927e-03,1.432834769566075639e-02,5.992335348358638486e-02,-1.887847140249790390e-02,-4.300309366269877698e-02,3.192157278505284961e-03
1.241866500965526331e-03,-9.361684620736623452e-04,1.057016048326115927e-03,1.432834769566075639e-02,5.992335348358638486e-02,-1.887847140249790390e-02,-4.300309366269877698e-02,3.192157278505284961e-03
1.511679784071657629e-04,-1.481380271622110461e-03,1.637858966595806282e-03,-1.217159264940399499e-01,2.294735882982038011e-02,-3.282065307848943542e-02,4.536611386222292319e-01,2.597959392713073898e-02
1.975742802825044414e-02,-6.903225472652240943e-03,7.824326595550330776e-03,-6.006261708120430066e-03,5.793048615461814099e-02,-2.914478122667169685e-02,-5.417102390856423644e-03,1.845321914416891279e-02
2.133541034289060390e-02,-2.108772052494331875e-03,6.122258168536664005e-03,3.814043486706310965e-02,5.486204795550410351e-02,-4.642812797032192657e-02,-1.057050640613696121e-02,1.032597830703152995e-02
1.975742802825044414e-02,-6.903225472652240943e-03,7.824326595550330776e-03,-6.006261708120430066e-03,5.793048615461814099e-02,-2.914478122667169685e-02,-5.417102390856423644e-03,1.845321914416891279e-02
-6.284997453950039170e-02,7.723844106335477078e-02,1.478763124999621370e-02,1.097892656952263908e-03,-8.697848598568284559e-03,-2.587823126706815385e-02,-1.578265493501422936e-02,4.060784729582379848e-02
1.975742802825044414e-02,-6.903225472652240943e-03,7.824326595550330776e-03,-6.006261708120430066e-03,5.793048615461814099e-02,-2.914478122667169685e-02,-5.417102390856423644e-03,1.845321914416891279e-02
1.975742802825044414e-02,-6.903225472652240943e-03,7.824326595550330776e-03,-6.006261708120430066e-03,5.793048615461814099e-02,-2.914478122667169685e-02,-5.417102390856423644e-03,1.845321914416891279e-02
-1.445292739565621131e-03,4.503932047176881746e-03,-5.614923828928411118e-03,3.431598504969912786e-03,-5.533446658481270403e-02,-2.074318643847467003e-02,-1.156408095704295966e-02,7.695765240542482011e-03
-1.445292739565621131e-03,4.503932047176881746e-03,-5.614923828928411118e-03,3.431598504969912786e-03,-5.533446658481270403e-02,-2.074318643847467003e-02,-1.156408095704295966e-02,7.695765240542482011e-03
1.065908843141679350e-02,-6.145007069421332471e-03,-1.302355077589891809e-02,-2.488428268044406977e-02,1.401252706368613654e-01,8.689583039400193901e-03,1.116278436813912360e-02,7.530069466664746254e-03
2.827352210620852346e-03,-8.400419514282615741e-03,-1.259027016117823285e-02,1.933781726898727059e-03,-1.674340360477257275e-02,-2.193052879288375260e-04,3.624025662873226698e-03,2.279092373432115709e-02
2.827352210620852346e-03,-8.400419514282615741e-03,-1.259027016117823285e-02,1.933781726898727059e-03,-1.674340360477257275e-02,-2.193052879288375260e-04,3.624025662873226698e-03,2.279092373432115709e-02
-8.140958551818634412e-03,5.286463986418543648e-02,-1.208136984015734106e-02,2.507569152945142953e-03,3.306444230739331858e-02,-2.513733682643635829e-03,3.295733288231961211e-03,2.489182229046547207e-02
2.827352210620852346e-03,-8.400419514282615741e-03,-1.259027016117823285e-02,1.933781726898727059e-03,-1.674340360477257275e-02,-2.193052879288375260e-04,3.624025662873226698e-03,2.279092373432115709e-02
2.827352210620852346e-03,-8.400419514282615741e-03,-1.259027016117823285e-02,1.933781726898727059e-03,-1.674340360477257275e-02,-2.193052879288375260e-04,3.624025662873226698e-03,2.279092373432115709e-02
2.827352210620852346e-03,-8.400419514282615741e-03,-1.259027016117823285e-02,1.933781726898727059e-03,-1.674340360477257275e-02,-2.193052879288375260e-04,3.624025662873226698e-03,2.279092373432115709e-02
2.827352210620852346e-03,-8.400419514282615741e-03,-1.259027016117823285e-02,1.933781726898727059e-03,-1.674340360477257275e-02,-2.193052879288375260e-04,3.624025662873226698e-03,2.279092373432115709e-02
2.827352210620852346e-03,-8.400419514282615741e-03,-1.259027016117823285e-02,1.933781726898727059e-03,-1.674340360477257275e-02,-2.193052879288375260e-04,3.624025662873226698e-03,2.279092373432115709e-02
2.091659559058161796e-02,3.511960055480603353e-03,1.007017624422773885e-02,-5.314595184042173077e-03,-7.763100759759317300e-03,4.750589646998689373e-03,-9.067057252822554453e-03,-1.038109846534614189e-02
-7.270550320409688294e-02,2.540533411745434303e-02,7.838325091575981327e-03,-1.812683066490776689e-03,-1.423282543816206669e-01,2.167634932947129500e-02,9.698445096469079929e-02,-3.001366622230493622e-02
2.091659559058161796e-02,3.511960055480603353e-03,1.007017624422773885e-02,-5.314595184042173077e-03,-7.763100759759317300e-03,4.750589646998689373e-03,-9.067057252822554453e-03,-1.038109846534614189e-02
2.091659559058161796e-02,3.511960055480603353e-03,1.007017624422773885e-02,-5.314595184042173077e-03,-7.763100759759317300e-03,4.750589646998689373e-03,-9.067057252822554453e-03,-1.038109846534614189e-02
2.091659559058161796e-02,3.511960055480603353e-03,1.007017624422773885e-02,-5.314595184042173077e-03,-7.763100759759317300e-03,4.750589646998689373e-03,-9.067057252822554453e-03,-1.038109846534614189e-02
9.180071006353926477e-02,-3.459998468119084708e-02,4.509787862658065985e-03,2.576492035793322491e-02,-2.244998597513813213e-02,9.372583317919720367e-03,-1.760044921810557245e-02,-5.872937797423543813e-03
5.687196018252369673e-02,8.476751382256331874e-03,3.662180388854280495e-03,-6.567366976011833682e-03,-3.756580915458246350e-02,5.853431297426974628e-03,-1.543759109937209092e-02,-8.623977552179895242e-03
2.091659559058161796e-02,3.511960055480603353e-03,1.007017624422773885e-02,-5.314595184042173077e-03,-7.763100759759317300e-03,4.750589646998689373e-03,-9.067057252822554453e-03,-1.038109846534614189e-02
-1.712786922803309891e-03,-8.541109778543610077e-04,4.235658920094354657e-03,3.231481339441220815e-03,2.525264479917028321e-02,9.867919663338079947e-03,7.048911880516900430e-03,-1.627428635175093979e-02
-1.712786922803309891e-03,-8.541109778543610077e-04,4.235658920094354657e-03,3.231481339441220815e-03,2.525264479917028321e-02,9.867919663338079947e-03,7.048911880516900430e-03,-1.627428635175093979e-02
-1.712786922803309891e-03,-8.541109778543610077e-04,4.235658920094354657e-03,3.231481339441220815e-03,2.525264479917028321e-02,9.867919663338079947e-03,7.048911880516900430e-03,-1.627428635175093979e-02
-2.767575960634897567e-02,6.086036686545283347e-02,6.794330084425800886e-03,4.522803087417156566e-03,1.272837167882557609e-02,6.179927190981440721e-03,4.188818204742940886e-03,-9.910985680499358880e-03
-8.119034161685393172e-03,2.534950003563882161e-04,-1.199354968531379144e-03,2.566985616080596187e-03,5.073489780892465051e-02,-2.223784489056304658e-02,-3.344123911474673142e-03,2.626896405941729976e-02
1.163227643801188586e-02,1.775938534431308361e-03,1.683856944932674363e-02,2.259902226664764913e-03,-8.496691220533694744e-02,1.655447021789506132e-02,-1.499839665950673806e-02,-2.600195061094586618e-02
-1.211733944067580268e-02,-7.374611795780992851e-03,-7.577284307248748248e-03,2.250294325175079477e-03,6.692662628853557338e-02,4.171757860746208579e-02,1.383719250136459557e-02,-5.826668995454464643e-03
-8.119034161685393172e-03,2.534950003563882161e-04,-1.199354968531379144e-03,2.566985616080596187e-03,5.073489780892465051e-02,-2.223784489056304658e-02,-3.344123911474673142e-03,2.626896405941729976e-02
-8.119034161685393172e-03,2.534950003563882161e-04,-1.199354968531379144e-03,2.566985616080596187e-03,5.073489780892465051e-02,-2.223784489056304658e-02,-3.344123911474673142e-03,2.626896405941729976e-02
-8.119034161685393172e-03,2.534950003563882161e-04,-1.199354968531379144e-03,2.566985616080596187e-03,5.073489780892465051e-02,-2.223784489056304658e-02,-3.344123911474673142e-03,2.626896405941729976e-02
-9.354047418916677792e-02,2.914704084640978160e-02,1.204606729066330087e-03,1.567752889426981405e-02,-1.420835023598172597e-01,-7.939525508107253549e-03,-7.012275940559824575e-03,2.790780532025490673e-02
-3.961552892533462544e-02,6.594974042638904188e-02,3.206276468291155510e-03,-1.595067105197755034e-02,5.019892033102597850e-02,-4.275370676258383185e-03,-4.727435045580753031e-05,5.046994680083809540e-03
-1.096831076243948849e-02,6.126505937846805916e-02,5.089003210208924415e-04,5.737874260464155681e-04,4.980784591216592255e-02,-2.294428394714799306e-03,-3.282923746412718833e-04,2.100898556144301533e-03
-1.096831076243948849e-02,6.126505937846805916e-02,5.089003210208924415e-04,5.737874260464155681e-04,4.980784591216592255e-02,-2.294428394714799306e-03,-3.282923746412718833e-04,2.100898556144301533e-03
-1.096831076243948849e-02,6.126505937846805916e-02,5.089003210208924415e-04,5.737874260464155681e-04,4.980784591216592255e-02,-2.294428394714799306e-03,-3.282923746412718833e-04,2.100898556144301533e-03
-1.096831076243948849e-02,6.126505937846805916e-02,5.089003210208924415e-04,5.737874260464155681e-04,4.980784591216592255e-02,-2.294428394714799306e-03,-3.282923746412718833e-04,2.100898556144301533e-03
-1.096831076243948849e-02,6.126505937846805916e-02,5.089003210208924415e-04,5.737874260464155681e-04,4.980784591216592255e-02,-2.294428394714799306e-03,-3.282923746412718833e-04,2.100898556144301533e-03
2.301541013402112201e-01,5.570505188344149206e-02,1.862076983783868874e-03,-3.464936124447456304e-03,-1.795106876363203041e-01,-1.408658810863624208e-03,-1.208590828752817078e-03,5.687984426675006620e-04
-1.096831076243948849e-02,6.126505937846805916e-02,5.089003210208924415e-04,5.737874260464155681e-04,4.980784591216592255e-02,-2.294428394714799306e-03,-3.282923746412718833e-04,2.100898556144301533e-03
-1.096831076243948849e-02,6.126505937846805916e-02,5.089003210208924415e-04,5.737874260464155681e-04,4.980784591216592255e-02,-2.294428394714799306e-03,-3.282923746412718833e-04,2.100898556144301533e-03
-1.096831076243948849e-02,6.126505937846805916e-02,5.089003210208924415e-04,5.737874260464155681e-04,4.980784591216592255e-02,-2.294428394714799306e-03,-3.282923746412718833e-04,2.100898556144301533e-03
-7.328337636648920086e-03,-4.565501439468333533e-02,2.364137478483444802e-03,2.075749229579722851e-03,-5.787268373172396035e-02,4.890280332799461227e-02,2.151434815257604605e-01,-4.161874800617861025e-02
-1.894554996647445158e-02,-3.941413342658371677e-02,-2.875854355900478963e-03,1.831263368193502064e-02,-5.998863752954105566e-01,-3.030523115908070886e-01,6.629352823907971870e-02,3.264681341622873711e-01
7.662845762287710805e-02,-6.010616069107094228e-02,3.879626650198029483e-04,5.366913919374966847e-03,-1.141842092538672970e-01,4.657401071709300899e-02,1.730095977175999944e-01,-4.789361181475780549e-02
-7.328337636648920086e-03,-4.565501439468333533e-02,2.364137478483444802e-03,2.075749229579722851e-03,-5.787268373172396035e-02,4.890280332799461227e-02,2.151434815257604605e-01,-4.161874800617861025e-02
-4.433371604033863912e-03,3.592144991095561068e-02,-3.935832928837459943e-02,-3.866685919905625546e-02,1.118520040305723620e-02,-6.484912365401575111e-03,1.443923638413598977e-02,5.805314850678617612e-03
1.122987745840927157e-02,-4.019159646062388930e-02,2.173842297741460984e-04,1.255459615996286707e-02,-2.936654726422516237e-02,-1.322285294626602756e-02,6.692202067497932116e-02,-1.058215465082858013e-02
-7.328337636648920086e-03,-4.565501439468333533e-02,2.364137478483444802e-03,2.075749229579722851e-03,-5.787268373172396035e-02,4.890280332799461227e-02,2.151434815257604605e-01,-4.161874800617861025e-02
1.162276549317924415e-02,-1.124048522325624133e-02,-2.205456486337135230e-03,7.742805996839031979e-02,-5.438555609647238720e-02,-2.936149059310654702e-02,-1.067906351223376488e-02,2.744800978621616467e-05
5.079926411060001808e-04,-1.343079904122800906e-02,2.092667482163974274e-05,5.984436008351405600e-02,-5.082348986150698198e-04,6.532478271659387936e-02,-5.569658022666622819e-03,-6.920722210137596198e-02
1.162276549317924415e-02,-1.124048522325624133e-02,-2.205456486337135230e-03,7.742805996839031979e-02,-5.438555609647238720e-02,-2.936149059310654702e-02,-1.067906351223376488e-02,2.744800978621616467e-05
-2.269877788029740079e-02,-2.995631266371825280e-02,-9.677362718161233723e-03,6.407293354879145530e-02,-8.435173047297997440e-02,-6.590521112667978472e-03,4.018729145255715840e-02,8.300683416737539982e-03
7.976253189709009775e-03,-1.141537506996057223e-02,1.011321155123862895e-03,8.043701301226288680e-02,-6.037671385579927025e-02,-6.385359054865800965e-02,-1.633452028284619606e-02,4.541450694734701365e-02
1.162276549317924415e-02,-1.124048522325624133e-02,-2.205456486337135230e-03,7.742805996839031979e-02,-5.438555609647238720e-02,-2.936149059310654702e-02,-1.067906351223376488e-02,2.744800978621616467e-05
2.620953605716745335e-02,-1.169490566334814401e-02,-7.610122597868162293e-04,7.948355931048878276e-02,-1.489870330489234673e-01,-1.006720528800006918e-02,1.471675134458797808e-02,-3.074860864788770548e-02
1.162276549317924415e-02,-1.124048522325624133e-02,-2.205456486337135230e-03,7.742805996839031979e-02,-5.438555609647238720e-02,-2.936149059310654702e-02,-1.067906351223376488e-02,2.744800978621616467e-05
1.162276549317924415e-02,-1.124048522325624133e-02,-2.205456486337135230e-03,7.742805996839031979e-02,-5.438555609647238720e-02,-2.936149059310654702e-02,-1.067906351223376488e-02,2.744800978621616467e-05
1.502301613172726076e-03,-2.299607731501124817e-03,4.476022690442197846e-03,5.435312525692124336e-02,-1.464215774450113861e-01,-1.412283220666417892e-02,-3.003363817041193595e-03,2.367255653256528786e-02
-2.297852436663287961e-03,-7.005706942459372262e-03,-6.560878001828007386e-04,3.355375003043857551e-02,-8.234578791488596228e-02,-3.011908989000797046e-04,-5.149091088764306406e-03,2.174441795240791495e-02
2.276294771763372714e-03,-4.091127683769920850e-03,4.379752033065200528e-03,3.142775206640469055e-02,-5.450290306325682177e-02,-1.129090929910347464e-02,-6.317879695743986064e-03,2.085751947180505828e-02
6.219173401792393863e-02,-8.134729536452946566e-03,-1.442165751490614989e-03,1.902558415275142772e-02,-7.013577226499717598e-02,5.670370342713182410e-02,6.794504023939574103e-03,-4.750067821047306710e-02
2.276294771763372714e-03,-4.091127683769920850e-03,4.379752033065200528e-03,3.142775206640469055e-02,-5.450290306325682177e-02,-1.129090929910347464e-02,-6.317879695743986064e-03,2.085751947180505828e-02
2.276294771763372714e-03,-4.091127683769920850e-03,4.379752033065200528e-03,3.142775206640469055e-02,-5.450290306325682177e-02,-1.129090929910347464e-02,-6.317879695743986064e-03,2.085751947180505828e-02
2.276294771763372714e-03,-4.091127683769920850e-03,4.379752033065200528e-03,3.142775206640469055e-02,-5.450290306325682177e-02,-1.129090929910347464e-02,-6.317879695743986064e-03,2.085751947180505828e-02
2.276294771763372714e-03,-4.091127683769920850e-03,4.379752033065200528e-03,3.142775206640469055e-02,-5.450290306325682177e-02,-1.129090929910347464e-02,-6.317879695743986064e-03,2.085751947180505828e-02
2.276294771763372714e-03,-4.091127683769920850e-03,4.379752033065200528e-03,3.142775206640469055e-02,-5.450290306325682177e-02,-1.129090929910347464e-02,-6.317879695743986064e-03,2.085751947180505828e-02
2.276294771763372714e-03,-4.091127683769920850e-03,4.379752033065200528e-03,3.142775206640469055e-02,-5.450290306325682177e-02,-1.129090929910347464e-02,-6.317879695743986064e-03,2.085751947180505828e-02
2.276294771763372714e-03,-4.091127683769920850e-03,4.379752033065200528e-03,3.142775206640469055e-02,-5.450290306325682177e-02,-1.129090929910347464e-02,-6.317879695743986064e-03,2.085751947180505828e-02
6.973235569697875183e-03,-2.579616882499280971e-03,4.951744767858839991e-03,7.827806795016570285e-02,-7.458297630264867917e-02,-3.361863240956627225e-02,4.863471191668877237e-03,-1.786734779252981044e-03
2.276294771763372714e-03,-4.091127683769920850e-03,4.379752033065200528e-03,3.142775206640469055e-02,-5.450290306325682177e-02,-1.129090929910347464e-02,-6.317879695743986064e-03,2.085751947180505828e-02
-3.742428938489943211e-03,-4.490253175844279715e-03,5.261794034228306147e-03,1.563006492609178844e-01,-2.968122061249935384e-01,-1.775991651866110077e-02,-2.484925388960187650e-03,2.759295169568929534e-02
9.583073419247500543e-03,-1.242309927935105634e-04,-1.514365346093670588e-03,2.320446514697088042e-02,-8.247355681760369650e-02,-2.140807836390342181e-03,9.668739131493863303e-04,3.798207085807447144e-03
9.583073419247500543e-03,-1.242309927935105634e-04,-1.514365346093670588e-03,2.320446514697088042e-02,-8.247355681760369650e-02,-2.140807836390342181e-03,9.668739131493863303e-04,3.798207085807447144e-03
9.583073419247500543e-03,-1.242309927935105634e-04,-1.514365346093670588e-03,2.320446514697088042e-02,-8.247355681760369650e-02,-2.140807836390342181e-03,9.668739131493863303e-04,3.798207085807447144e-03
9.583073419247500543e-03,-1.242309927935105634e-04,-1.514365346093670588e-03,2.320446514697088042e-02,-8.247355681760369650e-02,-2.140807836390342181e-03,9.668739131493863303e-04,3.798207085807447144e-03
9.583073419247500543e-03,-1.242309927935105634e-04,-1.514365346093670588e-03,2.320446514697088042e-02,-8.247355681760369650e-02,-2.140807836390342181e-03,9.668739131493863303e-04,3.798207085807447144e-03
9.583073419247500543e-03,-1.242309927935105634e-04,-1.514365346093670588e-03,2.320446514697088042e-02,-8.247355681760369650e-02,-2.140807836390342181e-03,9.668739131493863303e-04,3.798207085807447144e-03
9.583073419247500543e-03,-1.242309927935105634e-04,-1.514365346093670588e-03,2.320446514697088042e-02,-8.247355681760369650e-02,-2.140807836390342181e-03,9.668739131493863303e-04,3.798207085807447144e-03
1.428001421718200215e-02,1.387279808477128937e-03,-9.423726113000315593e-04,7.005478103073187190e-02,-1.025536300569955400e-01,-2.446853094685314672e-02,1.214822480056226839e-02,-1.884604716525058871e-02
9.583073419247500543e-03,-1.242309927935105634e-04,-1.514365346093670588e-03,2.320446514697088042e-02,-8.247355681760369650e-02,-2.140807836390342181e-03,9.668739131493863303e-04,3.798207085807447144e-03
9.583073419247500543e-03,-1.242309927935105634e-04,-1.514365346093670588e-03,2.320446514697088042e-02,-8.247355681760369650e-02,-2.140807836390342181e-03,9.668739131493863303e-04,3.798207085807447144e-03
-8.998694068786979028e-02,1.252159529253920114e-02,-2.052506555355714489e-03,2.346647031308820089e-02,5.812499210773782593e-02,-1.005024672228425897e-02,-5.153415716407938607e-02,1.351661334552740033e-02
9.583073419247500543e-03,-1.242309927935105634e-04,-1.514365346093670588e-03,2.320446514697088042e-02,-8.247355681760369650e-02,-2.140807836390342181e-03,9.668739131493863303e-04,3.798207085807447144e-03
9.583073419247500543e-03,-1.242309927935105634e-04,-1.514365346093670588e-03,2.320446514697088042e-02,-8.247355681760369650e-02,-2.140807836390342181e-03,9.668739131493863303e-04,3.798207085807447144e-03
9.583073419247500543e-03,-1.242309927935105634e-04,-1.514365346093670588e-03,2.320446514697088042e-02,-8.247355681760369650e-02,-2.140807836390342181e-03,9.668739131493863303e-04,3.798207085807447144e-03
9.583073419247500543e-03,-1.242309927935105634e-04,-1.514365346093670588e-03,2.320446514697088042e-02,-8.247355681760369650e-02,-2.140807836390342181e-03,9.668739131493863303e-04,3.798207085807447144e-03
9.583073419247500543e-03,-1.242309927935105634e-04,-1.514365346093670588e-03,2.320446514697088042e-02,-8.247355681760369650e-02,-2.140807836390342181e-03,9.668739131493863303e-04,3.798207085807447144e-03
-9.844255426120034763e-03,6.980714673936769255e-02,-3.208291585276587337e-04,-6.933224352798564305e-02,8.128685852004487872e-03,-7.233343455621513325e-03,-6.806510376129259673e-03,1.778849106505494410e-02
-9.844255426120034763e-03,6.980714673936769255e-02,-3.208291585276587337e-04,-6.933224352798564305e-02,8.128685852004487872e-03,-7.233343455621513325e-03,-6.806510376129259673e-03,1.778849106505494410e-02
-1.739592171321198855e-03,6.901330930051957635e-02,-1.523731550462156933e-03,-7.558870627373220907e-02,1.313044872715501098e-02,-1.623402698539757466e-02,-1.027315075760327177e-02,2.583222161071424029e-03
-9.844255426120034763e-03,6.980714673936769255e-02,-3.208291585276587337e-04,-6.933224352798564305e-02,8.128685852004487872e-03,-7.233343455621513325e-03,-6.806510376129259673e-03,1.778849106505494410e-02
-9.844255426120034763e-03,6.980714673936769255e-02,-3.208291585276587337e-04,-6.933224352798564305e-02,8.128685852004487872e-03,-7.233343455621513325e-03,-6.806510376129259673e-03,1.778849106505494410e-02
8.036665601713896545e-02,6.445455289322163384e-02,-1.269727553862510551e-03,-6.922851606519495049e-02,-5.738623946257333241e-02,-1.202559800504899093e-02,-2.143338080323557715e-02,-6.550297280721993458e-03
-9.844255426120034763e-03,6.980714673936769255e-02,-3.208291585276587337e-04,-6.933224352798564305e-02,8.128685852004487872e-03,-7.233343455621513325e-03,-6.806510376129259673e-03,1.778849106505494410e-02
-9.844255426120034763e-03,6.980714673936769255e-02,-3.208291585276587337e-04,-6.933224352798564305e-02,8.128685852004487872e-03,-7.233343455621513325e-03,-6.806510376129259673e-03,1.778849106505494410e-02
4.214293716117423205e-03,2.526848388210433533e-02,-6.679560318322006092e-03,-4.429725094292693427e-02,2.247867538138999949e-02,-1.297416152452960866e-02,-1.247699522841697224e-02,3.202478988347913502e-02
4.214293716117423205e-03,2.526848388210433533e-02,-6.679560318322006092e-03,-4.429725094292693427e-02,2.247867538138999949e-02,-1.297416152452960866e-02,-1.247699522841697224e-02,3.202478988347913502e-02
4.214293716117423205e-03,2.526848388210433533e-02,-6.679560318322006092e-03,-4.429725094292693427e-02,2.247867538138999949e-02,-1.297416152452960866e-02,-1.247699522841697224e-02,3.202478988347913502e-02
4.214293716117423205e-03,2.526848388210433533e-02,-6.679560318322006092e-03,-4.429725094292693427e-02,2.247867538138999949e-02,-1.297416152452960866e-02,-1.247699522841697224e-02,3.202478988347913502e-02
4.214293716117423205e-03,2.526848388210433533e-02,-6.679560318322006092e-03,-4.429725094292693427e-02,2.247867538138999949e-02,-1.297416152452960866e-02,-1.247699522841697224e-02,3.202478988347913502e-02
7.593955219029610570e-02,7.941272434295730976e-04,1.916625307882937387e-03,-3.019219521036168793e-02,3.610930074269760176e-02,-1.237198701025116112e-03,-1.417329017511363178e-02,9.747819925768220345e-03
-2.864721816289513348e-02,4.684681047920974048e-03,2.697376147270262418e-03,-1.652445847802396298e-02,3.910744188601532573e-04,-1.980942281543583879e-03,2.810180241854556794e-04,2.946096123939505838e-03
3.133928700716070298e-02,-1.876940832912594309e-02,8.952859106127190880e-03,-1.172144728766082340e-02,1.258437697151879378e-02,7.334673325589238834e-04,-2.342555893132100900e-02,-1.644936945103934621e-03
-1.996203156796457975e-02,-1.485259359062354994e-03,1.650275392745404216e-03,2.641606454757029071e-02,3.500210450749444147e-02,-3.435062098210880932e-02,-4.783165276974962743e-02,4.183424066443512668e-02
5.545705790218652398e-02,-2.606680902294570418e-02,1.039214270188092495e-03,-1.972254157992362963e-02,-7.531113455244951849e-02,3.702809094432496506e-02,4.154141472153023359e-03,-5.782392709171836620e-02
-2.864721816289513348e-02,4.684681047920974048e-03,2.697376147270262418e-03,-1.652445847802396298e-02,3.910744188601532573e-04,-1.980942281543583879e-03,2.810180241854556794e-04,2.946096123939505838e-03
6.498274667526169820e-04,-9.841569427175909934e-02,5.541946571470625360e-02,3.115617515268357882e-02,-7.311060747838915574e-02,-9.460677085038072523e-04,7.058001010494713116e-03,9.244079417383189307e-03
6.332884055740245315e-03,-6.060240859667378327e-02,6.156342637084830788e-02,-3.463288173598555366e-03,-7.188289018058875712e-02,-4.282263700123185683e-03,-2.019030117123235806e-03,1.084028537548567712e-02
6.332884055740245315e-03,-6.060240859667378327e-02,6.156342637084830788e-02,-3.463288173598555366e-03,-7.188289018058875712e-02,-4.282263700123185683e-03,-2.019030117123235806e-03,1.084028537548567712e-02
6.332884055740245315e-03,-6.060240859667378327e-02,6.156342637084830788e-02,-3.463288173598555366e-03,-7.188289018058875712e-02,-4.282263700123185683e-03,-2.019030117123235806e-03,1.084028537548567712e-02
6.332884055740245315e-03,-6.060240859667378327e-02,6.156342637084830788e-02,-3.463288173598555366e-03,-7.188289018058875712e-02,-4.282263700123185683e-03,-2.019030117123235806e-03,1.084028537548567712e-02
6.332884055740245315e-03,-6.060240859667378327e-02,6.156342637084830788e-02,-3.463288173598555366e-03,-7.188289018058875712e-02,-4.282263700123185683e-03,-2.019030117123235806e-03,1.084028537548567712e-02
1.654562310411892764e-02,-5.651385444518172013e-02,5.528097771195776555e-02,-5.015602209711508656e-03,-1.035435133129405105e-01,-2.457611696607813270e-03,-5.323102129141139838e-02,9.372738452587202340e-03
6.332884055740245315e-03,-6.060240859667378327e-02,6.156342637084830788e-02,-3.463288173598555366e-03,-7.188289018058875712e-02,-4.282263700123185683e-03,-2.019030117123235806e-03,1.084028537548567712e-02
6.332884055740245315e-03,-6.060240859667378327e-02,6.156342637084830788e-02,-3.463288173598555366e-03,-7.188289018058875712e-02,-4.282263700123185683e-03,-2.019030117123235806e-03,1.084028537548567712e-02
6.332884055740245315e-03,-6.060240859667378327e-02,6.156342637084830788e-02,-3.463288173598555366e-03,-7.188289018058875712e-02,-4.282263700123185683e-03,-2.019030117123235806e-03,1.084028537548567712e-02
6.332884055740245315e-03,-6.060240859667378327e-02,6.156342637084830788e-02,-3.463288173598555366e-03,-7.188289018058875712e-02,-4.282263700123185683e-03,-2.019030117123235806e-03,1.084028537548567712e-02
1.021273904837868493e-02,4.088554151492047525e-03,-6.282448658890531050e-03,-1.552314036112951556e-03,-3.166062313235175341e-02,1.824652003515371112e-03,-5.121199117428813091e-02,-1.467546922898471749e-03
1.021273904837868493e-02,4.088554151492047525e-03,-6.282448658890531050e-03,-1.552314036112951556e-03,-3.166062313235175341e-02,1.824652003515371112e-03,-5.121199117428813091e-02,-1.467546922898471749e-03
3.571229156233606764e-03,8.363977198046313594e-03,-7.006978446854580760e-03,-1.146054661266886383e-02,-8.494550026629335560e-02,-1.296639148413800992e-02,3.815400640846381558e-02,6.576667726148933968e-03
8.271548748155714559e-03,1.127748405755615120e-03,-1.397351028126551931e-02,-1.702471205203365603e-02,-4.522874612635699454e-02,4.469773548242197275e-02,-2.175026080478683482e-02,-1.893635511350921091e-02
1.021273904837868493e-02,4.088554151492047525e-03,-6.282448658890531050e-03,-1.552314036112951556e-03,-3.166062313235175341e-02,1.824652003515371112e-03,-5.121199117428813091e-02,-1.467546922898471749e-03
1.782667977939852988e-02,9.933427598969324108e-04,-8.370027246712513636e-03,1.095770559519633350e-03,-1.493550873510796628e-01,3.535443401305658762e-02,9.315734849714923937e-02,-2.770046072542777654e-02
2.297215501610391699e-03,-5.301564185592275852e-03,2.004062293977845570e-03,2.020425130827819670e-03,-9.239716260830286437e-03,1.996370669046455739e-03,-2.328683102260992524e-02,9.744251062484153916e-03
4.267803501450857795e-02,-1.403269789857876371e-02,2.687386917015461662e-04,-2.041626417130818112e-03,-1.005914198372963586e-01,1.230162173944615751e-02,-2.039422654502267424e-02,-2.211745012845937886e-02
2.297215501610391699e-03,-5.301564185592275852e-03,2.004062293977845570e-03,2.020425130827819670e-03,-9.239716260830286437e-03,1.996370669046455739e-03,-2.328683102260992524e-02,9.744251062484153916e-03
2.297215501610391699e-03,-5.301564185592275852e-03,2.004062293977845570e-03,2.020425130827819670e-03,-9.239716260830286437e-03,1.996370669046455739e-03,-2.328683102260992524e-02,9.744251062484153916e-03
2.297215501610391699e-03,-5.301564185592275852e-03,2.004062293977845570e-03,2.020425130827819670e-03,-9.239716260830286437e-03,1.996370669046455739e-03,-2.328683102260992524e-02,9.744251062484153916e-03
9.342522544622417283e-03,-7.108483660637088079e-03,1.867904521521901061e-03,1.092574722446892693e-03,-8.823771845927706747e-02,-4.963625723313567183e-03,-5.512879511385458328e-03,9.743240230365978263e-03
1.086826317426129729e-01,-2.190798633835126623e-03,-6.852481899259013631e-02,-1.847090202246238211e-01,2.781704408082799063e-01,-7.550217090955779926e-03,-4.814967293843246815e-02,-3.849777366685404236e-03
1.671042072411199064e-01,3.707672129676252881e-04,-8.269252183422592939e-02,1.140552722061446804e-02,-1.481867366146643328e-01,4.376723570465924397e-03,-1.905385943335199256e-02,-1.564602627341969698e-02
1.671042072411199064e-01,3.707672129676252881e-04,-8.269252183422592939e-02,1.140552722061446804e-02,-1.481867366146643328e-01,4.376723570465924397e-03,-1.905385943335199256e-02,-1.564602627341969698e-02
1.247991341539153309e-01,6.001540831045626065e-03,-7.012187706302593082e-02,6.836723151133127993e-03,-1.140737207063246827e-01,2.173093004148429937e-03,-2.133349308967511654e-02,9.958857079417291966e-03
1.253433923220957369e-01,5.906821142132315716e-04,-7.100965135499269498e-02,1.492256874719076129e-02,-8.283228776325678167e-02,2.262969920641774713e-03,-2.428109979845259961e-02,-2.788160585300551112e-03
1.352330413604015402e-01,2.412528668739185710e-03,-7.433020197096959492e-02,1.386255859021388002e-02,-7.930692659387773846e-02,1.018076706872560189e-03,-2.562494934637131114e-02,-6.359918508615265351e-03
3.187116588071842171e-02,-2.041761455771560693e-03,-8.362319863256329269e-03,-2.457031369599409817e-03,-6.887981002078644166e-02,3.358646863593364208e-03,6.571089913019323783e-03,-9.286107764804436837e-03
5.718983572165292628e-02,5.066613247883539062e-02,-2.650241747226774261e-02,-3.669880107623625654e-02,-4.919779900003668632e-02,2.040220474012651580e-02,-8.290263215152858176e-03,-9.497985444833663415e-03
7.718671019668423006e-02,-5.384661225326588252e-02,2.186604662884850721e-03,3.813779000572067781e-03,-1.173116728598578018e-01,1.432363478523666564e-02,-8.926432289774972667e-04,-3.525055422106990882e-02
3.187116588071842171e-02,-2.041761455771560693e-03,-8.362319863256329269e-03,-2.457031369599409817e-03,-6.887981002078644166e-02,3.358646863593364208e-03,6.571089913019323783e-03,-9.286107764804436837e-03
3.187116588071842171e-02,-2.041761455771560693e-03,-8.362319863256329269e-03,-2.457031369599409817e-03,-6.887981002078644166e-02,3.358646863593364208e-03,6.571089913019323783e-03,-9.286107764804436837e-03
3.187116588071842171e-02,-2.041761455771560693e-03,-8.362319863256329269e-03,-2.457031369599409817e-03,-6.887981002078644166e-02,3.358646863593364208e-03,6.571089913019323783e-03,-9.286107764804436837e-03
4.233602414506963674e-02,3.601616548352573610e-02,-2.331806599607623084e-02,4.797309444891661306e-02,-6.944271027680895547e-02,6.406413995697732289e-03,-1.990424889207979137e-02,-1.541512266330383185e-02
9.748004012861653800e-02,-1.819266498401293048e-03,-2.546452128856731625e-02,-1.109091831343392461e-02,-7.957103237491625070e-02,-3.984704767063179838e-03,-5.566513810712493378e-04,-6.283609581258090167e-03
2.965350965595600630e-02,-4.742296369405460225e-03,-1.069420556993752776e-02,-7.381115151864852883e-03,1.911148604069333110e-02,-8.446193281084830168e-03,-7.572074475410471659e-04,1.245377270380102191e-03
6.906710766575267779e-02,-2.296847221740694334e-02,-1.211072935375272219e-02,-1.226850779151872394e-03,-3.491563022503989255e-02,-5.432846541587208963e-03,-2.067598084788521348e-02,-1.742144326377851465e-02
2.965350965595600630e-02,-4.742296369405460225e-03,-1.069420556993752776e-02,-7.381115151864852883e-03,1.911148604069333110e-02,-8.446193281084830168e-03,-7.572074475410471659e-04,1.245377270380102191e-03
6.906710766575267779e-02,-2.296847221740694334e-02,-1.211072935375272219e-02,-1.226850779151872394e-03,-3.491563022503989255e-02,-5.432846541587208963e-03,-2.067598084788521348e-02,-1.742144326377851465e-02
2.965350965595600630e-02,-4.742296369405460225e-03,-1.069420556993752776e-02,-7.381115151864852883e-03,1.911148604069333110e-02,-8.446193281084830168e-03,-7.572074475410471659e-04,1.245377270380102191e-03
6.560887424789804689e-02,2.224949573702675635e-04,-1.710220142531099219e-02,-8.633886943834512620e-03,-1.069122235412981944e-02,-7.343351630656547516e-03,-7.127741294090573880e-03,3.002498183546345803e-03
2.165090263758611550e-02,-4.323840310234777773e-03,-1.004526075363083859e-02,-8.768545897179924956e-03,-3.829903194669113942e-02,-5.563501728792841390e-03,-5.679958663041331096e-02,1.154334176459643688e-02
2.965350965595600630e-02,-4.742296369405460225e-03,-1.069420556993752776e-02,-7.381115151864852883e-03,1.911148604069333110e-02,-8.446193281084830168e-03,-7.572074475410471659e-04,1.245377270380102191e-03
1.729620225805767603e-02,-3.236213309983054787e-03,-1.165454138495929277e-02,-4.850372279590712925e-03,-1.136401694747541102e-01,1.227888664245143646e-01,5.064883218344745641e-02,-6.087503874980446789e-02
2.965350965595600630e-02,-4.742296369405460225e-03,-1.069420556993752776e-02,-7.381115151864852883e-03,1.911148604069333110e-02,-8.446193281084830168e-03,-7.572074475410471659e-04,1.245377270380102191e-03
2.965350965595600630e-02,-4.742296369405460225e-03,-1.069420556993752776e-02,-7.381115151864852883e-03,1.911148604069333110e-02,-8.446193281084830168e-03,-7.572074475410471659e-04,1.245377270380102191e-03
2.965350965595600630e-02,-4.742296369405460225e-03,-1.069420556993752776e-02,-7.381115151864852883e-03,1.911148604069333110e-02,-8.446193281084830168e-03,-7.572074475410471659e-04,1.245377270380102191e-03
6.560887424789804689e-02,2.224949573702675635e-04,-1.710220142531099219e-02,-8.633886943834512620e-03,-1.069122235412981944e-02,-7.343351630656547516e-03,-7.127741294090573880e-03,3.002498183546345803e-03
6.560887424789804689e-02,2.224949573702675635e-04,-1.710220142531099219e-02,-8.633886943834512620e-03,-1.069122235412981944e-02,-7.343351630656547516e-03,-7.127741294090573880e-03,3.002498183546345803e-03
2.965350965595600630e-02,-4.742296369405460225e-03,-1.069420556993752776e-02,-7.381115151864852883e-03,1.911148604069333110e-02,-8.446193281084830168e-03,-7.572074475410471659e-04,1.245377270380102191e-03
2.965350965595600630e-02,-4.742296369405460225e-03,-1.069420556993752776e-02,-7.381115151864852883e-03,1.911148604069333110e-02,-8.446193281084830168e-03,-7.572074475410471659e-04,1.245377270380102191e-03
8.127090890790784894e-02,-4.684005947071859244e-02,4.140928670767719463e-03,5.018038578201816993e-03,-7.823457123389446211e-02,1.206782957207157628e-02,-1.383426698854638495e-02,-2.420732554309921319e-02
3.595536459194205448e-02,4.964791326775728521e-03,-6.407995855373460961e-03,-1.252771791969659954e-03,-2.980270839482315054e-02,1.102841650428282652e-03,-6.370533846549531268e-03,1.757120913166245997e-03
3.595536459194205448e-02,4.964791326775728521e-03,-6.407995855373460961e-03,-1.252771791969659954e-03,-2.980270839482315054e-02,1.102841650428282652e-03,-6.370533846549531268e-03,1.757120913166245997e-03
3.595536459194205448e-02,4.964791326775728521e-03,-6.407995855373460961e-03,-1.252771791969659954e-03,-2.980270839482315054e-02,1.102841650428282652e-03,-6.370533846549531268e-03,1.757120913166245997e-03
3.595536459194205448e-02,4.964791326775728521e-03,-6.407995855373460961e-03,-1.252771791969659954e-03,-2.980270839482315054e-02,1.102841650428282652e-03,-6.370533846549531268e-03,1.757120913166245997e-03
3.595536459194205448e-02,4.964791326775728521e-03,-6.407995855373460961e-03,-1.252771791969659954e-03,-2.980270839482315054e-02,1.102841650428282652e-03,-6.370533846549531268e-03,1.757120913166245997e-03
3.595536459194205448e-02,4.964791326775728521e-03,-6.407995855373460961e-03,-1.252771791969659954e-03,-2.980270839482315054e-02,1.102841650428282652e-03,-6.370533846549531268e-03,1.757120913166245997e-03
3.595536459194205448e-02,4.964791326775728521e-03,-6.407995855373460961e-03,-1.252771791969659954e-03,-2.980270839482315054e-02,1.102841650428282652e-03,-6.370533846549531268e-03,1.757120913166245997e-03
3.595536459194205448e-02,4.964791326775728521e-03,-6.407995855373460961e-03,-1.252771791969659954e-03,-2.980270839482315054e-02,1.102841650428282652e-03,-6.370533846549531268e-03,1.757120913166245997e-03
6.397496388318804628e-02,1.372896583870475808e-03,-7.772318969333164365e-03,-1.138056074000065587e-02,1.937468584659266663e-02,5.607875516450944956e-04,-3.214418952947639772e-03,2.454478088969865718e-03
4.454319724972941735e-02,3.775029551613864887e-03,-5.596510296484461184e-04,-2.863099682917735842e-03,-2.284409256409958636e-03,-5.342139350399238359e-03,-2.221511040781642618e-02,1.239195672557940123e-02
8.395679525952608191e-02,-1.445114629638761736e-02,-1.976174813463641745e-03,3.291164689795243563e-03,-5.631152552214320484e-02,-2.328792610901621058e-03,-4.213388380816061873e-02,-6.274863808579216051e-03
8.395679525952608191e-02,-1.445114629638761736e-02,-1.976174813463641745e-03,3.291164689795243563e-03,-5.631152552214320484e-02,-2.328792610901621058e-03,-4.213388380816061873e-02,-6.274863808579216051e-03
8.395679525952608191e-02,-1.445114629638761736e-02,-1.976174813463641745e-03,3.291164689795243563e-03,-5.631152552214320484e-02,-2.328792610901621058e-03,-4.213388380816061873e-02,-6.274863808579216051e-03
4.454319724972941735e-02,3.775029551613864887e-03,-5.596510296484461184e-04,-2.863099682917735842e-03,-2.284409256409958636e-03,-5.342139350399238359e-03,-2.221511040781642618e-02,1.239195672557940123e-02
4.454319724972941735e-02,3.775029551613864887e-03,-5.596510296484461184e-04,-2.863099682917735842e-03,-2.284409256409958636e-03,-5.342139350399238359e-03,-2.221511040781642618e-02,1.239195672557940123e-02
4.454319724972941735e-02,3.775029551613864887e-03,-5.596510296484461184e-04,-2.863099682917735842e-03,-2.284409256409958636e-03,-5.342139350399238359e-03,-2.221511040781642618e-02,1.239195672557940123e-02
4.454319724972941735e-02,3.775029551613864887e-03,-5.596510296484461184e-04,-2.863099682917735842e-03,-2.284409256409958636e-03,-5.342139350399238359e-03,-2.221511040781642618e-02,1.239195672557940123e-02
4.454319724972941735e-02,3.775029551613864887e-03,-5.596510296484461184e-04,-2.863099682917735842e-03,-2.284409256409958636e-03,-5.342139350399238359e-03,-2.221511040781642618e-02,1.239195672557940123e-02
9.160859402582945121e-02,-1.450867726865812980e-02,-5.095291206810656330e-03,-7.669775034473509320e-04,3.101658026681938241e-01,1.697991711005491372e-02,-1.588756269507374599e-02,-3.982489243953352132e-02
-1.273496755252475666e-02,2.944745435659432056e-03,-1.759561886909306178e-03,3.077049595082169734e-04,-1.915012186209187894e-01,1.037049714134887987e-02,-9.869483151777385874e-03,3.730213406981720912e-03
-1.273496755252475666e-02,2.944745435659432056e-03,-1.759561886909306178e-03,3.077049595082169734e-04,-1.915012186209187894e-01,1.037049714134887987e-02,-9.869483151777385874e-03,3.730213406981720912e-03
-1.273496755252475666e-02,2.944745435659432056e-03,-1.759561886909306178e-03,3.077049595082169734e-04,-1.915012186209187894e-01,1.037049714134887987e-02,-9.869483151777385874e-03,3.730213406981720912e-03
-4.239324078386544348e-02,-1.440040672768763512e-03,1.361574544855672243e-03,9.355626202363869067e-04,-1.015627057224879337e-01,5.085772823960920883e-03,-3.952983221031184866e-03,-1.009165627975219803e-02
9.104438028108838288e-02,-4.228054832958745568e-03,1.726595435956551931e-03,6.940985884044540040e-03,-1.840272593362671238e-01,4.605091305052254683e-03,-2.538489586671723724e-02,-2.624034588679929197e-02
-2.342434156870951134e-02,-1.370891206596402912e-03,1.836173832167262805e-03,1.580724327708207724e-03,-6.115983928904206168e-02,-5.859040231960885650e-03,-4.994490119300747100e-02,-1.046400637628236256e-02
-2.342434156870951134e-02,-1.370891206596402912e-03,1.836173832167262805e-03,1.580724327708207724e-03,-6.115983928904206168e-02,-5.859040231960885650e-03,-4.994490119300747100e-02,-1.046400637628236256e-02
-2.342434156870951134e-02,-1.370891206596402912e-03,1.836173832167262805e-03,1.580724327708207724e-03,-6.115983928904206168e-02,-5.859040231960885650e-03,-4.994490119300747100e-02,-1.046400637628236256e-02
3.922053430905689253e-02,-1.361099758960333762e-03,1.104569382549773450e-03,1.389646907803109618e-03,-1.253023988541387967e-01,-8.051466226522774675e-03,-4.295785191136514136e-02,-1.028680308733001883e-02
-6.625150645698851815e-02,1.051038016923570712e-01,-3.694413544972753680e-03,-2.892551827263666574e-03,-5.293988790724367399e-02,-1.621628374016997540e-02,-6.278967950179624100e-03,6.197721554172320665e-03
-4.706652181355461262e-02,6.018210688269105824e-02,1.161544487507041061e-03,-3.461191837645314403e-03,-4.280797279478194828e-02,-1.753595862547391651e-02,-4.919584462405672196e-03,6.756795702498439964e-03
-4.706652181355461262e-02,6.018210688269105824e-02,1.161544487507041061e-03,-3.461191837645314403e-03,-4.280797279478194828e-02,-1.753595862547391651e-02,-4.919584462405672196e-03,6.756795702498439964e-03
-4.706652181355461262e-02,6.018210688269105824e-02,1.161544487507041061e-03,-3.461191837645314403e-03,-4.280797279478194828e-02,-1.753595862547391651e-02,-4.919584462405672196e-03,6.756795702498439964e-03
-4.706652181355461262e-02,6.018210688269105824e-02,1.161544487507041061e-03,-3.461191837645314403e-03,-4.280797279478194828e-02,-1.753595862547391651e-02,-4.919584462405672196e-03,6.756795702498439964e-03
-3.667832695215745425e-02,5.556435848330411320e-02,1.865424574174740380e-03,1.901172556678027478e-03,2.290836345416306322e-03,-1.922341766558648829e-02,-3.236237227989886139e-02,1.247304807795394889e-03
-5.695617085186040207e-02,5.836026032816508946e-02,4.482095103483926465e-03,-2.401181680668431837e-03,-4.633333396416099148e-02,-1.629106541170469852e-02,-3.575734914486985386e-03,1.032855362581314683e-02
-1.750977497588852849e-03,8.377256085196724267e-03,1.171046901364821910e-02,2.809618532526163628e-03,-9.123983563385326678e-02,-6.570970703830621151e-03,-1.238331760440253976e-02,-1.920765075376702075e-02
-1.120169177328121102e-01,6.051147535129268451e-02,-9.320913678773145661e-04,-4.388233194352233156e-03,-1.264626058863895786e-01,-1.658603399720621346e-02,8.870353283689894064e-02,1.966873168154046475e-02
-1.130033498837859363e-01,1.969456208592049867e-02,-8.184145650629474217e-03,-1.294722767194271540e-02,-7.162388889745771592e-02,-1.258518658294245120e-02,-2.298647810686529208e-02,7.459009544767221389e-02
-3.991222214045777456e-02,1.735451945367273013e-02,1.221556660250788231e-03,1.048897859232780089e-02,-2.301426862207540253e-02,6.340511375291826845e-02,3.484492864261239022e-03,-4.763694364104865964e-02
-4.830111069332447549e-02,1.808170273535474742e-02,2.413374147715326764e-03,5.344321524377543091e-03,-4.614468276848786299e-02,-3.000371067485655546e-02,3.255261126694615481e-02,-3.155691445850258847e-02
-5.144519040096051654e-02,1.927830368757823751e-02,2.709001815644464673e-03,2.211382876942020320e-03,-7.369277192798144582e-02,-9.669508647972481497e-03,-2.395738396401232012e-02,2.416551169172062932e-02
4.531554431596579446e-02,-5.180485079749432009e-02,1.054892452614118042e-02,6.270810370171476730e-03,-4.843186283907131851e-02,1.096498792164329189e-02,-7.463733141996824194e-03,-2.596444645626546505e-02
4.531554431596579446e-02,-5.180485079749432009e-02,1.054892452614118042e-02,6.270810370171476730e-03,-4.843186283907131851e-02,1.096498792164329189e-02,-7.463733141996824194e-03,-2.596444645626546505e-02
4.531554431596579446e-02,-5.180485079749432009e-02,1.054892452614118042e-02,6.270810370171476730e-03,-4.843186283907131851e-02,1.096498792164329189e-02,-7.463733141996824194e-03,-2.596444645626546505e-02
4.531554431596579446e-02,-5.180485079749432009e-02,1.054892452614118042e-02,6.270810370171476730e-03,-4.843186283907131851e-02,1.096498792164329189e-02,-7.463733141996824194e-03,-2.596444645626546505e-02
4.531554431596579446e-02,-5.180485079749432009e-02,1.054892452614118042e-02,6.270810370171476730e-03,-4.843186283907131851e-02,1.096498792164329189e-02,-7.463733141996824194e-03,-2.596444645626546505e-02
4.531554431596579446e-02,-5.180485079749432009e-02,1.054892452614118042e-02,6.270810370171476730e-03,-4.843186283907131851e-02,1.096498792164329189e-02,-7.463733141996824194e-03,-2.596444645626546505e-02
3.941359800979661598e-02,-1.822617584800148224e-02,-1.416523783815195302e-03,6.154264372712979839e-03,-5.402711626573323406e-02,3.013346739497617301e-03,-1.991877340034416827e-02,-1.866682053415861728e-02
3.941359800979661598e-02,-1.822617584800148224e-02,-1.416523783815195302e-03,6.154264372712979839e-03,-5.402711626573323406e-02,3.013346739497617301e-03,-1.991877340034416827e-02,-1.866682053415861728e-02
3.941359800979661598e-02,-1.822617584800148224e-02,-1.416523783815195302e-03,6.154264372712979839e-03,-5.402711626573323406e-02,3.013346739497617301e-03,-1.991877340034416827e-02,-1.866682053415861728e-02
4.038081951289819449e-02,-8.731133712986487855e-03,-1.735323602276299349e-03,-4.062051547958637349e-03,-9.135170357646613115e-02,1.030525107039970134e-02,2.892604477587243199e-03,-3.186170119094354491e-02
4.104051065844625812e-02,-3.909159403772790101e-03,-3.147115306812023512e-03,3.168937427825063713e-02,-4.593023153292684346e-02,-3.457225357931535681e-02,-2.061466069889738087e-02,-2.276329027278831477e-02
4.038081951289819449e-02,-8.731133712986487855e-03,-1.735323602276299349e-03,-4.062051547958637349e-03,-9.135170357646613115e-02,1.030525107039970134e-02,2.892604477587243199e-03,-3.186170119094354491e-02
4.038081951289819449e-02,-8.731133712986487855e-03,-1.735323602276299349e-03,-4.062051547958637349e-03,-9.135170357646613115e-02,1.030525107039970134e-02,2.892604477587243199e-03,-3.186170119094354491e-02
4.038081951289819449e-02,-8.731133712986487855e-03,-1.735323602276299349e-03,-4.062051547958637349e-03,-9.135170357646613115e-02,1.030525107039970134e-02,2.892604477587243199e-03,-3.186170119094354491e-02
4.038081951289819449e-02,-8.731133712986487855e-03,-1.735323602276299349e-03,-4.062051547958637349e-03,-9.135170357646613115e-02,1.030525107039970134e-02,2.892604477587243199e-03,-3.186170119094354491e-02
1.097464391869202444e-01,-1.389160039709042005e-02,-2.556914632346564409e-03,-7.559293887007652139e-03,-2.471291034691103575e-02,3.793353024472460693e-03,1.262770643780128897e-02,-5.923470909641617363e-03
7.271570349683401102e-02,1.941304853076284906e-02,-5.235302582100671322e-03,-1.635738705043019272e-03,-2.195826137772499687e-02,4.375516397689098317e-04,-3.379789353364671955e-02,-4.826361158281792553e-03
-1.918498464343389512e-02,4.492169480966605455e-02,-4.855958032479793657e-03,5.686400103816466366e-04,-1.013191511246173612e-02,1.319674885303934175e-03,-1.359383487773939327e-03,-5.590741483261264539e-04
-1.918498464343389512e-02,4.492169480966605455e-02,-4.855958032479793657e-03,5.686400103816466366e-04,-1.013191511246173612e-02,1.319674885303934175e-03,-1.359383487773939327e-03,-5.590741483261264539e-04
-1.918498464343389512e-02,4.492169480966605455e-02,-4.855958032479793657e-03,5.686400103816466366e-04,-1.013191511246173612e-02,1.319674885303934175e-03,-1.359383487773939327e-03,-5.590741483261264539e-04
-6.226727514543813763e-02,6.736967018833626974e-02,-1.270475011353574407e-03,8.547998384132078371e-04,-8.083824987970571196e-02,1.335284130609180539e-02,-6.486046564395268887e-03,7.106764260745220560e-04
-1.918498464343389512e-02,4.492169480966605455e-02,-4.855958032479793657e-03,5.686400103816466366e-04,-1.013191511246173612e-02,1.319674885303934175e-03,-1.359383487773939327e-03,-5.590741483261264539e-04
-1.918498464343389512e-02,4.492169480966605455e-02,-4.855958032479793657e-03,5.686400103816466366e-04,-1.013191511246173612e-02,1.319674885303934175e-03,-1.359383487773939327e-03,-5.590741483261264539e-04
-5.664442988420520519e-02,2.242718869269981832e-02,4.404633490114438429e-03,5.812832617096755188e-03,-5.410406163284169068e-02,6.954542431960168344e-03,-7.505458868383827094e-03,1.579132748040333253e-02
-1.012360395256982903e-01,2.498858545356885327e-02,-1.442725648297778966e-04,8.538275219188114825e-04,-1.687068940313351736e-02,-1.660402232706863906e-02,-3.831783145392383960e-02,6.600346045570483142e-03
-1.012360395256982903e-01,2.498858545356885327e-02,-1.442725648297778966e-04,8.538275219188114825e-04,-1.687068940313351736e-02,-1.660402232706863906e-02,-3.831783145392383960e-02,6.600346045570483142e-03
-2.650674667559884973e-03,-4.741704308690371239e-03,1.466150551965266988e-02,-8.111358276049217275e-03,5.150352082283442268e-02,9.568175764592165566e-03,7.171102886210048433e-03,-2.740514676478358197e-02
-5.685748985856392199e-03,-3.030018209856288371e-03,1.605585886661911946e-02,-9.438526198771784656e-03,8.150329128392394540e-02,6.882867680237011662e-03,1.553429620575751124e-02,-3.809717036085887021e-02
-7.559891328144691114e-03,-6.379534721621974054e-03,1.363050773534633074e-02,-6.769571715625736889e-03,7.194384469942038951e-02,9.495395620644849974e-03,1.734043054319509003e-02,-2.694984252065650218e-02
-2.650674667559884973e-03,-4.741704308690371239e-03,1.466150551965266988e-02,-8.111358276049217275e-03,5.150352082283442268e-02,9.568175764592165566e-03,7.171102886210048433e-03,-2.740514676478358197e-02
-3.069561134899178451e-02,-4.981307564130277137e-03,-5.573392947731296843e-02,7.673047595227022732e-03,-1.359721577004449622e-02,-2.874863764422179706e-03,2.560659098311179362e-03,-1.299103338401907948e-02
-2.650674667559884973e-03,-4.741704308690371239e-03,1.466150551965266988e-02,-8.111358276049217275e-03,5.150352082283442268e-02,9.568175764592165566e-03,7.171102886210048433e-03,-2.740514676478358197e-02
-3.069561134899178451e-02,-4.981307564130277137e-03,-5.573392947731296843e-02,7.673047595227022732e-03,-1.359721577004449622e-02,-2.874863764422179706e-03,2.560659098311179362e-03,-1.299103338401907948e-02
-3.069561134899178451e-02,-4.981307564130277137e-03,-5.573392947731296843e-02,7.673047595227022732e-03,-1.359721577004449622e-02,-2.874863764422179706e-03,2.560659098311179362e-03,-1.299103338401907948e-02
-3.069561134899178451e-02,-4.981307564130277137e-03,-5.573392947731296843e-02,7.673047595227022732e-03,-1.359721577004449622e-02,-2.874863764422179706e-03,2.560659098311179362e-03,-1.299103338401907948e-02
-5.768403609821468742e-02,1.236982339368583941e-02,7.685265498138227347e-02,-5.557286756223036271e-03,-9.475902551877123103e-02,5.902990477147400036e-03,-7.190498071276273107e-03,-5.433593663920505829e-03
-5.768403609821468742e-02,1.236982339368583941e-02,7.685265498138227347e-02,-5.557286756223036271e-03,-9.475902551877123103e-02,5.902990477147400036e-03,-7.190498071276273107e-03,-5.433593663920505829e-03
-5.768403609821468742e-02,1.236982339368583941e-02,7.685265498138227347e-02,-5.557286756223036271e-03,-9.475902551877123103e-02,5.902990477147400036e-03,-7.190498071276273107e-03,-5.433593663920505829e-03
-2.804493668143189650e-02,-2.396032554399063854e-04,-7.039543499696565565e-02,1.578440587127624001e-02,-6.510073659287898828e-02,-1.244303952901434224e-02,-4.610443787898878612e-03,1.441411338076451810e-02
2.879063971800027450e-03,-5.793407859335717586e-03,-1.637709065614261633e-02,-1.537908259430238300e-04,-5.536963335950036147e-02,8.648732748308576856e-02,2.002485663046596129e-02,-7.643323705298579740e-02
1.335351148079940743e-02,-4.232069481167353119e-03,-1.690430755119280704e-02,-5.828578349973583591e-04,6.552082686767662575e-03,-2.012830819788345021e-02,1.083122005704412368e-02,1.750119410840290241e-02
1.335351148079940743e-02,-4.232069481167353119e-03,-1.690430755119280704e-02,-5.828578349973583591e-04,6.552082686767662575e-03,-2.012830819788345021e-02,1.083122005704412368e-02,1.750119410840290241e-02
1.335351148079940743e-02,-4.232069481167353119e-03,-1.690430755119280704e-02,-5.828578349973583591e-04,6.552082686767662575e-03,-2.012830819788345021e-02,1.083122005704412368e-02,1.750119410840290241e-02
8.143329289100307428e-03,-2.556419243195694364e-03,-1.785077922928979266e-02,-9.314998716083430080e-03,3.656406406769244222e-02,-7.789578056922208393e-03,-1.113483262634397744e-02,-1.187977646929152609e-03
1.335351148079940743e-02,-4.232069481167353119e-03,-1.690430755119280704e-02,-5.828578349973583591e-04,6.552082686767662575e-03,-2.012830819788345021e-02,1.083122005704412368e-02,1.750119410840290241e-02
-5.023365443439571643e-03,-3.299131136587159924e-02,-7.555752360677779958e-03,7.037088915249141430e-02,4.419375474573894458e-02,-4.154130865809568807e-02,-1.443023404886666430e-02,7.502204960052727585e-03
-5.683056588987628333e-03,-3.781328567508530913e-02,-6.143960656142053410e-03,3.461946332628213635e-02,-1.227717297800407295e-03,3.336195991619377889e-03,9.077031127617939815e-03,-1.596205958102488469e-03
-5.956124855940572033e-02,-3.091494559524526897e-02,-5.021050822751732187e-03,6.562808860255121834e-02,1.879728104474490680e-01,-4.295966358194967805e-02,-7.013606466499423819e-02,1.586644315870566410e-02
1.913530406170795700e-02,-3.411451051362947295e-02,-5.537316633478051725e-03,2.383601733568155301e-02,-2.132327815973114882e-01,9.320695756616084737e-02,-1.550831594803783742e-02,-8.153865280625290091e-02
-1.373963440968908271e-03,-3.344748054371537299e-02,-3.840901879615576421e-03,2.663019973384123801e-02,3.700228992114232740e-04,6.157133326110982691e-05,1.093856393870945923e-02,-1.217282059556310837e-02
-5.683056588987628333e-03,-3.781328567508530913e-02,-6.143960656142053410e-03,3.461946332628213635e-02,-1.227717297800407295e-03,3.336195991619377889e-03,9.077031127617939815e-03,-1.596205958102488469e-03
-5.683056588987628333e-03,-3.781328567508530913e-02,-6.143960656142053410e-03,3.461946332628213635e-02,-1.227717297800407295e-03,3.336195991619377889e-03,9.077031127617939815e-03,-1.596205958102488469e-03
-5.683056588987628333e-03,-3.781328567508530913e-02,-6.143960656142053410e-03,3.461946332628213635e-02,-1.227717297800407295e-03,3.336195991619377889e-03,9.077031127617939815e-03,-1.596205958102488469e-03
-5.683056588987628333e-03,-3.781328567508530913e-02,-6.143960656142053410e-03,3.461946332628213635e-02,-1.227717297800407295e-03,3.336195991619377889e-03,9.077031127617939815e-03,-1.596205958102488469e-03
-1.745259514006201190e-02,-3.335892743475542960e-02,1.025265797047456061e-03,6.448646732070292820e-02,-6.214037180810445815e-02,2.521111100147724240e-03,-2.019775789070055519e-02,-5.486003762135996387e-03
-6.726033412538021290e-03,-3.173642380435637983e-02,3.157692891996093879e-03,5.032236234820453014e-02,-4.484551305233723528e-02,2.925550778991033510e-02,-4.817877349528621247e-03,-5.104593657735186085e-02
-5.683056588987628333e-03,-3.781328567508530913e-02,-6.143960656142053410e-03,3.461946332628213635e-02,-1.227717297800407295e-03,3.336195991619377889e-03,9.077031127617939815e-03,-1.596205958102488469e-03
-5.683056588987628333e-03,-3.781328567508530913e-02,-6.143960656142053410e-03,3.461946332628213635e-02,-1.227717297800407295e-03,3.336195991619377889e-03,9.077031127617939815e-03,-1.596205958102488469e-03
-5.683056588987628333e-03,-3.781328567508530913e-02,-6.143960656142053410e-03,3.461946332628213635e-02,-1.227717297800407295e-03,3.336195991619377889e-03,9.077031127617939815e-03,-1.596205958102488469e-03
-5.683056588987628333e-03,-3.781328567508530913e-02,-6.143960656142053410e-03,3.461946332628213635e-02,-1.227717297800407295e-03,3.336195991619377889e-03,9.077031127617939815e-03,-1.596205958102488469e-03
-5.683056588987628333e-03,-3.781328567508530913e-02,-6.143960656142053410e-03,3.461946332628213635e-02,-1.227717297800407295e-03,3.336195991619377889e-03,9.077031127617939815e-03,-1.596205958102488469e-03
-5.062686535824349569e-03,-3.287503694488370931e-02,2.465944411287034673e-03,5.106089357476142204e-02,-7.253190688633106772e-03,6.234530362848493719e-03,-6.018125498707457312e-03,-1.930897453878014508e-02
-5.062686535824349569e-03,-3.287503694488370931e-02,2.465944411287034673e-03,5.106089357476142204e-02,-7.253190688633106772e-03,6.234530362848493719e-03,-6.018125498707457312e-03,-1.930897453878014508e-02
-5.062686535824349569e-03,-3.287503694488370931e-02,2.465944411287034673e-03,5.106089357476142204e-02,-7.253190688633106772e-03,6.234530362848493719e-03,-6.018125498707457312e-03,-1.930897453878014508e-02
-5.062686535824349569e-03,-3.287503694488370931e-02,2.465944411287034673e-03,5.106089357476142204e-02,-7.253190688633106772e-03,6.234530362848493719e-03,-6.018125498707457312e-03,-1.930897453878014508e-02
1.044274805888980098e-02,-2.770195519990668181e-02,2.422978735883127603e-04,6.092530220493359849e-02,-8.347754923999715915e-02,-1.922540110788729592e-02,1.317580134922329282e-01,-1.997481516142509544e-03
-5.336517010251705384e-02,-3.597487689680576445e-02,1.742014382744750452e-03,7.932878436153173451e-02,-1.487801706065198792e-01,-4.040865678707211348e-03,-4.990175423256129270e-03,1.030081090192230403e-01
-5.062686535824349569e-03,-3.287503694488370931e-02,2.465944411287034673e-03,5.106089357476142204e-02,-7.253190688633106772e-03,6.234530362848493719e-03,-6.018125498707457312e-03,-1.930897453878014508e-02
-5.062686535824349569e-03,-3.287503694488370931e-02,2.465944411287034673e-03,5.106089357476142204e-02,-7.253190688633106772e-03,6.234530362848493719e-03,-6.018125498707457312e-03,-1.930897453878014508e-02
-5.062686535824349569e-03,-3.287503694488370931e-02,2.465944411287034673e-03,5.106089357476142204e-02,-7.253190688633106772e-03,6.234530362848493719e-03,-6.018125498707457312e-03,-1.930897453878014508e-02
-5.062686535824349569e-03,-3.287503694488370931e-02,2.465944411287034673e-03,5.106089357476142204e-02,-7.253190688633106772e-03,6.234530362848493719e-03,-6.018125498707457312e-03,-1.930897453878014508e-02
-5.062686535824349569e-03,-3.287503694488370931e-02,2.465944411287034673e-03,5.106089357476142204e-02,-7.253190688633106772e-03,6.234530362848493719e-03,-6.018125498707457312e-03,-1.930897453878014508e-02
-5.062686535824349569e-03,-3.287503694488370931e-02,2.465944411287034673e-03,5.106089357476142204e-02,-7.253190688633106772e-03,6.234530362848493719e-03,-6.018125498707457312e-03,-1.930897453878014508e-02
-5.062686535824349569e-03,-3.287503694488370931e-02,2.465944411287034673e-03,5.106089357476142204e-02,-7.253190688633106772e-03,6.234530362848493719e-03,-6.018125498707457312e-03,-1.930897453878014508e-02
-5.062686535824349569e-03,-3.287503694488370931e-02,2.465944411287034673e-03,5.106089357476142204e-02,-7.253190688633106772e-03,6.234530362848493719e-03,-6.018125498707457312e-03,-1.930897453878014508e-02
4.400988451367752845e-03,-1.817663596670083398e-02,-2.895366841098630760e-03,7.602323415446679555e-02,-3.658065038594067453e-03,1.139230891985603539e-02,-1.468125089883612344e-02,-3.528309489681970973e-02
-2.002711041441018920e-03,-2.078841153825298355e-02,6.498839411653338982e-04,4.753559083504199645e-02,3.675832191133716897e-02,1.905518110567001183e-02,9.080592913992994314e-03,-5.206968849618333339e-02
2.300457149613280641e-03,-1.942714703636967688e-02,-2.908350785277699288e-03,3.078172352991147623e-02,7.136590469017270455e-02,1.579940847186803513e-02,5.665091774385386247e-03,-4.693799518667319398e-02
2.300457149613280641e-03,-1.942714703636967688e-02,-2.908350785277699288e-03,3.078172352991147623e-02,7.136590469017270455e-02,1.579940847186803513e-02,5.665091774385386247e-03,-4.693799518667319398e-02
2.300457149613280641e-03,-1.942714703636967688e-02,-2.908350785277699288e-03,3.078172352991147623e-02,7.136590469017270455e-02,1.579940847186803513e-02,5.665091774385386247e-03,-4.693799518667319398e-02
1.816561793979995206e-03,-1.582801514774671847e-02,-4.649809749972305152e-03,1.914021733300510369e-02,5.357928983283760660e-02,1.362501102200102364e-02,-1.560885763390536252e-02,-2.741069125690434594e-02
-7.589191888692526158e-03,-2.124899359089563178e-02,4.121998306991861709e-04,3.184173368688834882e-02,6.784054352079366135e-02,1.704430168563726006e-02,7.008941322304109052e-03,-4.336623726335850360e-02
-8.036288662402264055e-03,-4.860346823640881823e-03,-8.489417943421475894e-04,3.326276638420583298e-02,-5.831207767608179854e-02,3.808372766458177714e-03,7.856244020327540073e-03,1.447824561726321173e-03
-4.303168191054301296e-03,-1.361264501883304280e-03,3.558234726443033295e-03,1.675386730513050981e-02,-3.460758277883554945e-02,3.255772633801969768e-03,3.415501139607601128e-03,-5.131693309510127268e-03
-5.962765832229694959e-03,-6.929534047855080139e-04,3.745958687461601287e-03,9.095328633443642771e-03,4.745998300210357845e-03,-2.167798071661422230e-02,2.725535807540047269e-03,2.061214033051678510e-02
-8.036288662402264055e-03,-4.860346823640881823e-03,-8.489417943421475894e-04,3.326276638420583298e-02,-5.831207767608179854e-02,3.808372766458177714e-03,7.856244020327540073e-03,1.447824561726321173e-03
-4.303168191054301296e-03,-1.361264501883304280e-03,3.558234726443033295e-03,1.675386730513050981e-02,-3.460758277883554945e-02,3.255772633801969768e-03,3.415501139607601128e-03,-5.131693309510127268e-03
-4.303168191054301296e-03,-1.361264501883304280e-03,3.558234726443033295e-03,1.675386730513050981e-02,-3.460758277883554945e-02,3.255772633801969768e-03,3.415501139607601128e-03,-5.131693309510127268e-03
-4.303168191054301296e-03,-1.361264501883304280e-03,3.558234726443033295e-03,1.675386730513050981e-02,-3.460758277883554945e-02,3.255772633801969768e-03,3.415501139607601128e-03,-5.131693309510127268e-03
-1.697347841452362741e-03,2.388896549430456480e-04,1.080720548059881840e-03,-2.940770721191144667e-03,1.844564012626228877e-01,1.473539532403013094e-02,-1.259110294319087074e-02,-2.675441224191334871e-02
-4.303168191054301296e-03,-1.361264501883304280e-03,3.558234726443033295e-03,1.675386730513050981e-02,-3.460758277883554945e-02,3.255772633801969768e-03,3.415501139607601128e-03,-5.131693309510127268e-03
2.371643110019169831e-02,-4.953159244788556126e-03,2.193911612483329023e-03,6.626078357099518881e-03,1.456981146258027812e-02,2.713718535018784864e-03,6.571616033209470506e-03,-4.434336133706511668e-03
-8.301473470044704733e-03,-8.989371298020685727e-03,-2.819694612274335592e-03,1.643717601422499744e-02,-1.841585429922460923e-02,6.721119613182710562e-02,2.059681755244685553e-02,-3.722732636438189774e-02
2.124184808616417196e-03,-4.823238756868249155e-04,3.432181564703357720e-03,4.188222420271335567e-02,-7.399894925776379084e-02,6.620609090140790838e-04,-2.310235765024922297e-02,3.413214162343727355e-03
-4.303168191054301296e-03,-1.361264501883304280e-03,3.558234726443033295e-03,1.675386730513050981e-02,-3.460758277883554945e-02,3.255772633801969768e-03,3.415501139607601128e-03,-5.131693309510127268e-03
-4.303168191054301296e-03,-1.361264501883304280e-03,3.558234726443033295e-03,1.675386730513050981e-02,-3.460758277883554945e-02,3.255772633801969768e-03,3.415501139607601128e-03,-5.131693309510127268e-03
-3.733120471347964927e-03,-3.499082321757578194e-03,-4.407176520785181101e-03,1.650889907907531970e-02,-2.370449489724630460e-02,5.526001326562077296e-04,4.440742880719931139e-03,6.579517871236445839e-03
-3.733120471347964927e-03,-3.499082321757578194e-03,-4.407176520785181101e-03,1.650889907907531970e-02,-2.370449489724630460e-02,5.526001326562077296e-04,4.440742880719931139e-03,6.579517871236445839e-03
-3.733120471347964927e-03,-3.499082321757578194e-03,-4.407176520785181101e-03,1.650889907907531970e-02,-2.370449489724630460e-02,5.526001326562077296e-04,4.440742880719931139e-03,6.579517871236445839e-03
-3.733120471347964927e-03,-3.499082321757578194e-03,-4.407176520785181101e-03,1.650889907907531970e-02,-2.370449489724630460e-02,5.526001326562077296e-04,4.440742880719931139e-03,6.579517871236445839e-03
-3.733120471347964927e-03,-3.499082321757578194e-03,-4.407176520785181101e-03,1.650889907907531970e-02,-2.370449489724630460e-02,5.526001326562077296e-04,4.440742880719931139e-03,6.579517871236445839e-03
-6.058142362839202821e-02,2.377099451321415709e-03,-7.407287028041638919e-04,-9.041998014566277747e-03,-7.459864996314993779e-02,3.009587896913425674e-03,1.381177258372014438e-01,-6.055484585695927041e-02
3.023010184468586693e-03,2.419344812160311147e-03,1.363641415748382190e-03,-9.160019991872788911e-03,-7.793014610266170081e-03,5.848168971329520231e-03,-1.207624050420157483e-02,-2.531204018376194236e-03
3.023010184468586693e-03,2.419344812160311147e-03,1.363641415748382190e-03,-9.160019991872788911e-03,-7.793014610266170081e-03,5.848168971329520231e-03,-1.207624050420157483e-02,-2.531204018376194236e-03
-1.747893610371124232e-03,9.420602908705392325e-04,-4.014872410770705920e-04,1.166940455340602645e-01,4.087110705675482680e-02,-2.187319333710415620e-02,-1.467967110435450771e-02,3.476870686284014994e-02
3.023010184468586693e-03,2.419344812160311147e-03,1.363641415748382190e-03,-9.160019991872788911e-03,-7.793014610266170081e-03,5.848168971329520231e-03,-1.207624050420157483e-02,-2.531204018376194236e-03
3.023010184468586693e-03,2.419344812160311147e-03,1.363641415748382190e-03,-9.160019991872788911e-03,-7.793014610266170081e-03,5.848168971329520231e-03,-1.207624050420157483e-02,-2.531204018376194236e-03
3.023010184468586693e-03,2.419344812160311147e-03,1.363641415748382190e-03,-9.160019991872788911e-03,-7.793014610266170081e-03,5.848168971329520231e-03,-1.207624050420157483e-02,-2.531204018376194236e-03
3.023010184468586693e-03,2.419344812160311147e-03,1.363641415748382190e-03,-9.160019991872788911e-03,-7.793014610266170081e-03,5.848168971329520231e-03,-1.207624050420157483e-02,-2.531204018376194236e-03
3.023010184468586693e-03,2.419344812160311147e-03,1.363641415748382190e-03,-9.160019991872788911e-03,-7.793014610266170081e-03,5.848168971329520231e-03,-1.207624050420157483e-02,-2.531204018376194236e-03
3.023010184468586693e-03,2.419344812160311147e-03,1.363641415748382190e-03,-9.160019991872788911e-03,-7.793014610266170081e-03,5.848168971329520231e-03,-1.207624050420157483e-02,-2.531204018376194236e-03
3.023010184468586693e-03,2.419344812160311147e-03,1.363641415748382190e-03,-9.160019991872788911e-03,-7.793014610266170081e-03,5.848168971329520231e-03,-1.207624050420157483e-02,-2.531204018376194236e-03
3.023010184468586693e-03,2.419344812160311147e-03,1.363641415748382190e-03,-9.160019991872788911e-03,-7.793014610266170081e-03,5.848168971329520231e-03,-1.207624050420157483e-02,-2.531204018376194236e-03
3.023010184468586693e-03,2.419344812160311147e-03,1.363641415748382190e-03,-9.160019991872788911e-03,-7.793014610266170081e-03,5.848168971329520231e-03,-1.207624050420157483e-02,-2.531204018376194236e-03
3.023010184468586693e-03,2.419344812160311147e-03,1.363641415748382190e-03,-9.160019991872788911e-03,-7.793014610266170081e-03,5.848168971329520231e-03,-1.207624050420157483e-02,-2.531204018376194236e-03
3.023010184468586693e-03,2.419344812160311147e-03,1.363641415748382190e-03,-9.160019991872788911e-03,-7.793014610266170081e-03,5.848168971329520231e-03,-1.207624050420157483e-02,-2.531204018376194236e-03
3.023010184468586693e-03,2.419344812160311147e-03,1.363641415748382190e-03,-9.160019991872788911e-03,-7.793014610266170081e-03,5.848168971329520231e-03,-1.207624050420157483e-02,-2.531204018376194236e-03
3.023010184468586693e-03,2.419344812160311147e-03,1.363641415748382190e-03,-9.160019991872788911e-03,-7.793014610266170081e-03,5.848168971329520231e-03,-1.207624050420157483e-02,-2.531204018376194236e-03
3.023010184468586693e-03,2.419344812160311147e-03,1.363641415748382190e-03,-9.160019991872788911e-03,-7.793014610266170081e-03,5.848168971329520231e-03,-1.207624050420157483e-02,-2.531204018376194236e-03
3.023010184468586693e-03,2.419344812160311147e-03,1.363641415748382190e-03,-9.160019991872788911e-03,-7.793014610266170081e-03,5.848168971329520231e-03,-1.207624050420157483e-02,-2.531204018376194236e-03
3.023010184468586693e-03,2.419344812160311147e-03,1.363641415748382190e-03,-9.160019991872788911e-03,-7.793014610266170081e-03,5.848168971329520231e-03,-1.207624050420157483e-02,-2.531204018376194236e-03
3.023010184468586693e-03,2.419344812160311147e-03,1.363641415748382190e-03,-9.160019991872788911e-03,-7.793014610266170081e-03,5.848168971329520231e-03,-1.207624050420157483e-02,-2.531204018376194236e-03
3.023010184468586693e-03,2.419344812160311147e-03,1.363641415748382190e-03,-9.160019991872788911e-03,-7.793014610266170081e-03,5.848168971329520231e-03,-1.207624050420157483e-02,-2.531204018376194236e-03
4.407432132507106064e-04,1.746287462764967418e-03,1.063973666946278979e-03,6.976643593769378537e-03,2.952953197819629949e-02,1.169421333103573026e-02,-2.730291747768438023e-03,-3.547392849372730476e-03
-1.954647923621404340e-02,-3.036283212382906264e-03,5.154713985755603016e-03,-8.039848115306344467e-02,1.321913128119358294e-01,6.933947306008344733e-03,1.362284231642624591e-02,-1.618087735009390155e-02
-1.954647923621404340e-02,-3.036283212382906264e-03,5.154713985755603016e-03,-8.039848115306344467e-02,1.321913128119358294e-01,6.933947306008344733e-03,1.362284231642624591e-02,-1.618087735009390155e-02
-1.954647923621404340e-02,-3.036283212382906264e-03,5.154713985755603016e-03,-8.039848115306344467e-02,1.321913128119358294e-01,6.933947306008344733e-03,1.362284231642624591e-02,-1.618087735009390155e-02
-1.954647923621404340e-02,-3.036283212382906264e-03,5.154713985755603016e-03,-8.039848115306344467e-02,1.321913128119358294e-01,6.933947306008344733e-03,1.362284231642624591e-02,-1.618087735009390155e-02
-1.954647923621404340e-02,-3.036283212382906264e-03,5.154713985755603016e-03,-8.039848115306344467e-02,1.321913128119358294e-01,6.933947306008344733e-03,1.362284231642624591e-02,-1.618087735009390155e-02
-1.954647923621404340e-02,-3.036283212382906264e-03,5.154713985755603016e-03,-8.039848115306344467e-02,1.321913128119358294e-01,6.933947306008344733e-03,1.362284231642624591e-02,-1.618087735009390155e-02
-1.954647923621404340e-02,-3.036283212382906264e-03,5.154713985755603016e-03,-8.039848115306344467e-02,1.321913128119358294e-01,6.933947306008344733e-03,1.362284231642624591e-02,-1.618087735009390155e-02
1.311758517452058740e-03,3.997254405993975958e-04,-2.776480159484153321e-03,-5.974724831680211512e-02,6.772948089661741111e-01,-2.036569167573442501e-02,2.184788128568799712e-02,4.338620333942537488e-02
1.961283668126670085e-02,1.607156917104816994e-03,-3.524190911637067013e-03,9.461841437147329448e-02,-7.861251694615598029e-02,1.387002376075151255e-02,1.028762930476685624e-03,-1.379904607724872709e-02
6.050697299065791943e-03,1.586370231134390197e-03,-2.705040442648848700e-03,1.001450871605384513e-01,-6.201024381175366390e-02,8.791399771923811418e-03,-1.350032861285809958e-03,7.225308287539434918e-04
-1.603106232004437772e-03,-1.400178595931681575e-03,-2.058004973461906133e-05,1.008863267028686367e-01,-2.746260247681408390e-02,3.371506728796509061e-03,-1.846147896320813470e-02,1.499706300783516279e-02
