2.579885510947815819e-04,-1.120890893196476584e-02,7.810776970216979850e-04,9.939103465589528286e-01,-1.477304617067737996e-02,-9.175177843026554453e-04,1.104525663961399007e-02,6.146170679613427446e-04
2.305061067954892670e-02,1.120013519658242807e-01,7.250453949518304544e-06,-1.074841678334167716e-01,-1.289149961659195919e-03,9.493741043249993307e-05,-2.059439822749348573e-02,-3.688399402376606618e-04
-8.767222534825686031e-02,1.922606661813244244e-01,-1.187473613776691451e-02,-8.377857204666468161e-02,-1.229358528909875459e-01,-1.114578001645088762e-03,1.022783045193745161e-01,1.831222628250748011e-02
3.509093977297394334e-02,8.634789479470293683e-02,-1.306454207148947944e-02,-1.142180133255782659e-01,1.106046388251296156e-02,-5.647079453397038824e-03,-2.440891190177640825e-04,1.228900833111193358e-02
-3.011962355396085450e-02,1.593465098700189153e-01,1.551682760058313015e-01,-6.553034550808535530e-02,-2.012952530154799372e-02,-6.751774742266869467e-02,-9.531842982134690334e-02,7.395616576840020884e-03
3.469576573088210825e-02,7.961872370587830261e-02,-3.955812526972111998e-02,-1.143722397214153030e-01,-5.914973804880764921e-03,1.628291618589923148e-02,2.142849344593209665e-02,-2.001988524024523111e-02
-3.159841810000233453e-01,2.512836870831615110e-01,-2.883368110858679917e-02,-5.617272432688338174e-02,1.205170938875735620e-01,1.931478485532459001e-03,-2.711364052186518089e-03,3.239827436065111782e-03
-4.576285713021518292e-02,6.221696301689857295e-02,1.235962580255717952e-01,-3.790818553012771652e-02,-3.237905370748587336e-02,1.033471493892798923e-02,2.454131939143206972e-02,-9.361618849198659678e-03
-5.557642724893838843e-02,2.105924634723486955e-01,2.573036321489818867e-01,-3.919034744366112905e-02,1.416500010024862350e-04,-1.082838349239471781e-01,-3.866271168754605025e-03,1.311041586481320395e-02
-3.375406256036416093e-03,-1.597438653838047576e-02,1.661490472879396385e-01,-2.563631973730785482e-02,2.426966717274892105e-02,1.850724971078789027e-02,-5.228985653262935296e-02,-1.425995273096792790e-02
-4.982560902642935163e-02,8.282639942695604884e-02,1.095518102825099316e-01,-4.014290449251697174e-02,-8.658040385295278848e-03,9.122006594528966200e-03,2.318639055948761366e-02,-1.462934817628218018e-02
-2.056166623359455205e-04,1.022282822112934551e-02,-6.071781854033284770e-02,-5.363673648580377998e-03,-1.265447628895463583e-02,-7.920281551587594546e-03,-1.201026424372191471e-03,-1.140252236751977417e-03
-1.365394636187611602e-02,1.666700047381076272e-02,-3.360650196832561110e-02,-1.453746720893986030e-02,9.346552900736581292e-05,-1.536926578180893531e-02,-3.369732994768156152e-03,1.786222780833148643e-02
3.445129125742864805e-03,6.774275904694038175e-03,-5.874404660882727447e-02,-6.418987924791440605e-03,-1.130755897783843576e-02,-5.820794236331161033e-03,8.270049121507618223e-04,-3.374835482938687379e-03
1.723110569739192549e-02,-1.207002000923737897e-02,-5.421846286838534479e-02,-2.701026380167532298e-02,-2.183041324390272171e-03,-3.575692438893122473e-03,1.511683778008140154e-02,-3.504814492201717511e-03
-1.239240083407800175e-01,1.397912460133397539e-01,-1.940544280717605014e-02,-9.022346555644062543e-03,-1.341652732085351837e-02,-7.521255228773922677e-03,6.926848192658739863e-03,-5.683029027132056399e-04
-1.523455378318696804e-02,2.489948335689546807e-02,-5.460470590103585348e-02,2.369721664933249121e-04,1.032448974412277370e-01,1.493710849716778886e-02,-6.504980594539522265e-03,-1.584771725745424617e-02
9.922139718061722888e-03,1.926824472656937098e-02,-6.247657954146834669e-02,-1.292969342970788291e-02,8.778738642677768114e-03,-8.832703879328730398e-03,-1.109563001788609754e-02,6.464203902169860915e-04
4.646084733787851639e-03,-2.568006654804446537e-02,1.255437313990424575e-01,8.506261617200276334e-03,2.725343310279743168e-03,-6.201138179805567273e-03,-1.304897141482402323e-01,1.288025585348884575e-02
-1.106581121465032361e-02,-2.785070468819104625e-02,1.230781083758404615e-01,1.045364935436905382e-02,-6.132114249482657764e-03,1.357233588390854839e-01,-1.136197555967861650e-01,-1.295662378542039861e-01
1.731870596401147849e-02,-2.183204128962939333e-02,1.337534852226434645e-01,3.525522648785239625e-03,1.387339815499396330e-03,-3.298733845779724776e-03,-1.460262617433750743e-01,1.180387212424408722e-02
4.650892486275717136e-02,-1.365320110783952712e-01,-7.356293332061676626e-03,-9.154328720954313381e-03,-2.116964389391353119e-01,4.953694841078454952e-03,3.115740424270224684e-01,-4.382994309942231902e-03
1.589209706183915662e-03,9.587496892303175181e-04,-4.784020756909910556e-03,5.055245135337795709e-02,-1.206005046383304136e-01,-4.858769036364065166e-03,8.658526652077550012e-02,-7.563517526881821662e-03
-2.362546228701921153e-04,-6.833738003558099960e-02,1.454281734713117578e-02,9.681340013418604507e-02,-1.349357469983187563e-01,6.973411923525381709e-03,7.053068200028579648e-02,1.538085817513677213e-03
-7.971931479242910790e-03,1.028793667432301509e-02,-5.496880490225472191e-03,-9.911998393953539051e-04,6.004959411893978811e-03,1.865968743559256668e-03,-3.528671207119716928e-03,-1.809897025052496083e-03
-1.732850319453000387e-01,2.075870722523562861e-01,-1.501407502098326893e-02,-3.293001395343893301e-02,7.908981016564956695e-03,-1.874854793312998036e-02,-1.270215444995244749e-03,1.463262251175487250e-02
-1.219706682919074331e-01,1.311712035549153776e-01,2.473792506549795864e-02,1.247210697345692634e-02,1.976809181706487908e-02,8.186081531700034261e-03,-2.850740699717257964e-02,-6.386853841271436689e-03
-1.447656865856441488e-01,1.405964715129645326e-01,3.668242371106707894e-02,-3.885192312839169052e-03,2.785725051626040862e-03,6.159225937074855480e-05,3.894114559283912754e-03,2.032573629650046595e-04
-2.863255015807541007e-02,2.115720844374880186e-02,1.639458905214057766e-02,9.734580271887749783e-03,-1.431733145084280556e-04,-9.823034786267111768e-03,-1.440560886577276281e-02,2.229650902391014378e-02
6.633239090249216929e-02,-1.523013513473981673e-01,-5.920929495511708177e-03,3.800275689680180573e-04,-4.991054799992476754e-02,-2.302158407405761800e-03,1.373582768574871382e-01,2.329089046064886613e-03
9.645203791745647626e-02,-7.400475311198131609e-03,4.914834598967528657e-04,-7.532158343517276859e-03,-2.866194776478981493e-02,1.017384371537420965e-02,6.290377213987380367e-02,-1.352783576240393637e-01
1.058258264062609255e-01,-8.624772220363017064e-03,-3.227677966688674940e-04,-1.040686970571779064e-02,-1.957565593404733684e-02,-3.507607706469199047e-04,-7.555730404861736582e-02,9.169356714931400573e-03
1.058258264062609255e-01,-8.624772220363017064e-03,-3.227677966688674940e-04,-1.040686970571779064e-02,-1.957565593404733684e-02,-3.507607706469199047e-04,-7.555730404861736582e-02,9.169356714931400573e-03
1.058258264062609255e-01,-8.624772220363017064e-03,-3.227677966688674940e-04,-1.040686970571779064e-02,-1.957565593404733684e-02,-3.507607706469199047e-04,-7.555730404861736582e-02,9.169356714931400573e-03
1.141941945160983157e-01,-1.906086511104360809e-02,-1.719469553672030651e-02,-1.721702315893338525e-02,-1.993818322453657851e-02,-2.645381915036221741e-03,-4.638695752846133669e-02,1.059783368487471171e-02
1.058258264062609255e-01,-8.624772220363017064e-03,-3.227677966688674940e-04,-1.040686970571779064e-02,-1.957565593404733684e-02,-3.507607706469199047e-04,-7.555730404861736582e-02,9.169356714931400573e-03
9.187617271111386819e-02,-8.731765895037700911e-03,3.093618520624804354e-04,-9.070091447779992516e-03,-1.719497672887541212e-02,-9.589890845287860760e-03,-6.729332503419743761e-02,2.031042734494722252e-02
7.581113140011433438e-02,-1.646106791485360543e-01,-6.838514253446448254e-03,1.617855085780376956e-01,-1.992416553324722304e-03,1.149829585886539413e-02,-7.587866628884468168e-02,-4.116349991058790639e-03
8.378111750227724974e-02,-6.937925202401261935e-04,7.761476092195675365e-03,-1.494486927205663021e-02,-3.305381000913543144e-02,8.578572719310721250e-04,-5.854734943845169015e-02,6.813927176222154061e-03
-5.147564484890417708e-02,-5.198187155486500358e-03,-1.719605174828252813e-04,6.552540699985141825e-03,7.995541087317300632e-04,1.413878406288503475e-01,-6.304168734197446167e-02,-1.860972142177104091e-02
-5.879134298200041492e-02,-1.739730299123950358e-02,-1.046397357903080996e-03,1.050267377673382019e-02,-2.145989206953429710e-03,1.411265535191889853e-01,-5.055823820308199407e-02,-1.867096483609211738e-02
-5.000503219965897472e-02,-1.732443681591814763e-02,-9.707602293180234284e-04,7.846258671465287937e-03,-1.262655685146274985e-02,-2.424722940822012299e-02,-5.003347117002315825e-02,1.461866583378162721e-01
-4.168972766394753171e-02,-1.814541923357968281e-02,-5.981187686503334003e-04,4.575287160833483614e-03,-1.367430346280810484e-02,1.178195833042201268e-01,-4.438801982208966795e-02,-7.684351058382346555e-03
-1.921203569952379189e-02,1.218625982203705993e-01,1.210641277998804333e-01,1.341036523325837837e-02,1.733062910154654934e-04,-1.096491501373031696e-01,-4.519214132273349956e-03,9.264902777019126331e-03
-1.921203569952379189e-02,1.218625982203705993e-01,1.210641277998804333e-01,1.341036523325837837e-02,1.733062910154654934e-04,-1.096491501373031696e-01,-4.519214132273349956e-03,9.264902777019126331e-03
-8.172411695924973116e-03,3.729988094302653934e-02,3.656715786404933499e-02,-6.257968532532995820e-04,-1.351278835677617932e-02,-3.643090316321435929e-02,1.627211880736339263e-03,3.663830396675608891e-03
-1.346311127498285055e-02,3.095233191624512450e-03,-2.109403471547155635e-03,5.462782181666929124e-03,-2.534058759638865149e-02,7.298137198956324186e-03,1.252141200376021349e-02,-2.044909671288907410e-02
9.527120659473382186e-03,-1.420568102228344023e-02,9.557718335146009672e-03,-1.807235378221180508e-02,8.055036067121873825e-03,1.385410734566564373e-03,6.761206838070717498e-03,-1.750084974207139930e-03
-7.168244207182805465e-03,6.477714382540411542e-03,1.674526192150729148e-02,-6.182474267254609371e-03,3.901311060799248637e-03,-2.862928367731051166e-03,-2.382242005468841739e-02,1.516188558862618940e-02
-2.660221736651448635e-02,3.697999595051333632e-02,1.157101303844908086e-01,2.230774321883421431e-03,4.558582245405807913e-03,-2.351520900244407405e-03,-1.000394963165758891e-02,-3.824498466796929467e-05
-6.511357813368303868e-03,1.221842693094731327e-02,9.249506442623215210e-03,5.257138415519778916e-03,1.350198581579775594e-03,-2.830229619520171786e-03,-1.160958793893671591e-02,-2.549572688321045943e-03
2.742294391453158238e-03,1.721454240708480965e-02,-3.647117051866862435e-03,-9.953532133278987851e-03,-1.925613234295362689e-03,-2.422850738190474723e-03,-1.202549388146189821e-02,7.141662222561724269e-03
6.405362284771916326e-02,-6.224342208042334817e-02,-7.655061751490720157e-02,-7.786921649821100175e-03,1.331757226892527068e-02,-5.416926183827035050e-03,9.567069741996982180e-02,5.215479212295690004e-03
4.835813489659166950e-03,-4.057473003765743602e-02,5.130856879019631001e-02,1.830125001113969488e-02,-2.402754520774231031e-02,4.755376573666204453e-04,-1.235500540182741039e-02,-1.322386712338819922e-03
9.810504688439082924e-03,-3.317934308068534732e-02,-3.555957781912452709e-02,2.191863119849337196e-02,-1.002613494062212091e-02,8.573242004816072903e-03,5.848408403508162899e-03,1.304936931819766560e-03
3.619514151185567429e-03,1.760866727528206336e-03,4.197167773104064185e-03,-1.714479810678357918e-01,2.855977365119546137e-03,-9.355745513155759802e-04,1.739078690937391758e-01,3.723983237102937265e-04
1.737580054493706103e-02,-1.463331527489244999e-02,1.086390355124993920e-02,8.118475248243184339e-02,-1.046405643000172248e-01,-8.872054906713475880e-03,1.789799671249429208e-02,5.663151033205572789e-03
-1.441759613902721393e-01,1.470257628260180083e-01,3.181828831048074541e-02,1.182578978255932308e-03,-2.410031563406343368e-04,-4.493950515005811462e-03,1.028903364572084827e-03,3.665522982003400956e-04
3.843233201842576659e-03,-2.376640884969118822e-02,-3.443944319762874684e-02,-1.292467087821783621e-02,1.473984944935013419e-01,1.235451206931311753e-02,5.715745151312309411e-03,-8.067158575420268346e-03
5.363463877657221809e-03,1.204731996895332669e-01,-3.617610771506103717e-02,9.781371263724405671e-03,-1.498885460564913785e-02,8.988779969977508597e-03,1.797423383641977637e-02,6.258862975571567342e-04
-3.376303315004479388e-02,6.070410582801407523e-02,2.697193620336653039e-02,-3.446645291542539680e-02,-2.357492876448795752e-02,8.662929435939740672e-03,4.089294929614820107e-02,-1.258927734928944053e-02
1.121785078202056259e-02,1.203181295744935528e-02,3.274500364218076165e-02,-1.284331448058204442e-02,9.911585545941670877e-03,-7.428146797550190875e-03,-1.066284873101594477e-02,3.112628278381458281e-04
6.468210410542304944e-02,-6.052427298703664388e-02,1.631341453758174825e-02,6.287350180895789897e-02,3.770345627116279685e-02,-7.204421769518428928e-04,-6.928541409488871150e-02,-6.477596984795832083e-03
-1.126819191885364843e-03,3.082254994278244703e-02,1.347508931298482468e-02,-3.751370091754733984e-03,9.753022393658512118e-03,-4.439776351052959584e-03,-3.802707858558503160e-03,-1.015028955010652094e-02
-1.351080673347658245e-01,1.469707083443247964e-01,1.863239476087884955e-02,5.166191103586520970e-03,-2.945280389822001708e-03,-2.783034747987800264e-04,2.147552665021363553e-03,-1.609119451844875969e-03
4.599302395956168799e-02,7.176973284106262507e-03,4.429997366907548889e-02,-7.249434666414982138e-03,-5.957746609242357827e-02,5.339904134369843729e-03,1.411538122253815433e-02,-5.076236855285446228e-03
-8.715871384745197759e-04,-2.311604512638014766e-02,-1.801687283050488683e-02,6.521690069769832399e-03,-3.215110674456601869e-03,8.254513637503712795e-03,1.775677281659885851e-02,-8.453136636993176939e-03
-2.746706201817942714e-02,1.521941119782585228e-01,1.957746149268894259e-02,-5.879827481649895979e-03,2.720907793539700803e-03,5.633372245587651549e-04,1.278890072434755130e-02,-4.884010299393869766e-04
1.267742096122716766e-01,1.265218146070299643e-01,4.306547777860999550e-03,-2.061341480165699690e-03,-7.658618366253813758e-02,8.816447528481508381e-03,-4.137285502174301022e-02,-9.323855973199944927e-03
1.338187297954851235e-04,-9.188733020388070716e-02,-8.392521260347268058e-03,2.189562124106937679e-02,-1.864576585293946376e-01,-1.564281272450333549e-01,1.222110877060224449e-01,1.572684611392361487e-01
3.724245420320242833e-02,-1.211142643799049817e-01,-4.472982692854300321e-03,-5.001446016981245940e-03,-1.377484509220303632e-01,1.515552161408373691e-02,1.413095163374677166e-01,-1.554856549376214779e-02
3.384580528974830832e-02,-9.517121828159158525e-02,-1.017826778792587858e-02,3.896592019129571562e-03,-1.174595867015940931e-01,6.223168252766464285e-03,1.041377841702867124e-01,-1.823114931554576518e-02
2.130147657771305943e-03,1.228949749645238815e-01,-1.371614921069797639e-03,1.023886316607173098e-03,1.167897752957311741e-01,-1.226295813630603679e-02,-1.178615357296579902e-01,1.162859713612376597e-02
1.639597800920346553e-03,1.135077030541109255e-01,-1.876609103792287918e-03,8.806608820213815761e-03,8.703380232586829801e-02,-1.193038592909850815e-02,-1.076806764270619859e-01,1.008561182443123982e-02
4.333309704116324740e-02,1.077215015720297542e-01,-2.930107393019308441e-03,8.710359929162393927e-04,9.548291669082435706e-02,-1.163067870136276667e-02,-1.316201329537182441e-01,9.579328761618188456e-03
1.168108372966512321e-01,-2.741163151025088288e-03,1.847598998399095985e-02,-2.351002939987211979e-02,2.132276281013287950e-02,-9.893684280694477456e-04,-1.375733450128481805e-01,2.218980343692212882e-03
3.893056457195770426e-02,-4.746468844132917253e-02,2.470068370234748678e-02,5.353431041238671841e-03,3.025362581542082908e-03,1.881157223121588968e-03,-7.656093455258162865e-03,-7.177443657920103311e-03
-1.428322650925314963e-02,-1.684412711962984810e-02,1.255308395988600015e-02,4.861248891063291167e-02,-4.573201183805546133e-02,4.627184634371119118e-04,9.221245216037794734e-03,-6.406967605221290576e-04
5.878676542634116153e-02,-6.525003233738742303e-02,4.661127054610446525e-03,4.920152195189126700e-03,-1.330707508557138832e-02,6.515383330573222900e-03,9.780219951850950208e-03,-7.653352008370776713e-03
6.010161051789985470e-04,-2.305462901038351498e-01,1.374715109384301859e-01,8.147013699555986921e-02,-1.462929394544966455e-01,-2.278383838479784772e-04,7.835989853619504744e-03,-1.101854904895395145e-03
2.367302305636325918e-02,-1.400844530643405861e-01,1.281411331259187103e-01,-2.467365973337389863e-03,-1.451752212319674107e-01,-2.958838571344967958e-03,-1.339332551238943056e-02,-4.947563755458548457e-03
-5.989676187889063017e-03,3.001974781450125057e-02,-2.471264747983994634e-02,3.195089022894720323e-03,-1.310641772007779815e-01,-2.409940307957307397e-03,1.421390962121618085e-01,-4.680429632642501593e-03
-4.318555609204340474e-04,8.198256435384274760e-03,-3.248547780263521395e-02,1.129453956829828618e-02,4.742376144164643301e-03,-1.939629525771394527e-03,-5.932019409061287801e-02,6.070581651066768447e-02
5.001592513412671769e-03,-3.690725907406345978e-03,-3.047418601835525515e-02,4.606322885022499231e-03,-3.470180111417402007e-03,1.280004134368176692e-02,3.931516737689433327e-02,-1.991846371166623025e-02
1.411506367805689076e-02,-2.604540469443345635e-02,8.251430117585261542e-03,-3.209843358365151774e-03,-2.532408484733249601e-02,7.316131377637510261e-04,1.141271453470048096e-02,6.368376827841008662e-03
1.204252573249795302e-02,-2.830149856086273258e-02,1.387317989764764482e-02,-5.881474061171674612e-05,-3.737211285738253896e-02,9.837490397324917275e-04,3.591766562381515197e-03,4.931950806994727168e-03
1.066516709336197410e-01,8.332158220970369705e-03,-9.794608789698525109e-02,-1.795108589765357643e-01,1.496990675488202860e-01,-1.976964798025886150e-02,2.671691282916508620e-02,1.902808062252260915e-02
1.287243970154587358e-01,-1.406429008988642785e-03,-1.246610923553074929e-01,6.656160198199439007e-03,-1.987576697585790447e-02,2.731857111743810030e-04,1.792686319431344849e-02,-1.120476259466740218e-03
1.287243970154587358e-01,-1.406429008988642785e-03,-1.246610923553074929e-01,6.656160198199439007e-03,-1.987576697585790447e-02,2.731857111743810030e-04,1.792686319431344849e-02,-1.120476259466740218e-03
1.075098633894720213e-01,1.251737621247748546e-02,-9.855219489071841144e-02,1.201969071948049035e-02,-2.033106627227819485e-02,3.012479642060260625e-03,-1.195748139431362586e-02,-1.387263725748162212e-03
1.208828763586226873e-01,6.384732356368641795e-03,-1.007581883387590194e-01,3.748986659959693823e-03,-1.394923924513488331e-02,1.837028659772482406e-03,-2.735552678730666237e-02,1.405460229082028910e-02
1.212652870512434186e-02,8.520489074531081841e-02,-6.166424696048324744e-02,-1.814225152304729111e-02,-1.103721815662110292e-02,1.707513611168080467e-02,-1.927997194787202731e-02,-1.571009430908173327e-02
1.236888404716027512e-01,-1.078273752772066219e-01,7.936780988845907117e-03,-3.202687442520767841e-02,8.324541839638533586e-03,1.749880722409226071e-03,1.736629637234168508e-02,-1.341602287680442734e-03
-2.200863512118680920e-02,3.065817478563561543e-02,-5.233176263876175571e-02,1.066909638993261134e-01,1.621040545540875996e-02,6.899886508527655789e-03,-8.935118174291371840e-02,7.576925935953718154e-03
4.573953416410155709e-02,-3.031854603881029876e-03,-6.163895758260327234e-02,-1.316471183128879383e-02,7.009745210039763745e-03,-1.177023339285036396e-03,2.419269355714517844e-02,3.698853640947799386e-03
6.447476311804312132e-02,-2.371416966445968888e-02,-2.716969752563560062e-02,-1.695284970153910359e-02,1.486398028010848735e-02,-2.296553696725103615e-03,-7.195881048440091673e-03,1.130014582380975754e-02
6.447476311804312132e-02,-2.371416966445968888e-02,-2.716969752563560062e-02,-1.695284970153910359e-02,1.486398028010848735e-02,-2.296553696725103615e-03,-7.195881048440091673e-03,1.130014582380975754e-02
3.737116605426420157e-02,7.404238286799559414e-03,-4.476702984255181983e-02,-6.354558378073199218e-03,7.372272500529008024e-03,1.117597805104265929e-03,-4.977652963010894931e-03,2.270376671004489984e-03
4.450190722920121383e-02,-9.854068675138341615e-03,-2.233787216401548689e-02,-1.791393439722780562e-02,1.990546240581632376e-02,-1.511240361296341435e-03,-2.050304223251584596e-02,1.198854469410575406e-02
3.331712526202161573e-02,-9.935919381877779052e-03,-2.151106089528020265e-02,-1.260325363095959536e-02,-2.178442832796260303e-02,7.723206606796405478e-03,1.172042917120946076e-01,-1.165579752395672630e-01
3.737116605426420157e-02,7.404238286799559414e-03,-4.476702984255181983e-02,-6.354558378073199218e-03,7.372272500529008024e-03,1.117597805104265929e-03,-4.977652963010894931e-03,2.270376671004489984e-03
3.737116605426420157e-02,7.404238286799559414e-03,-4.476702984255181983e-02,-6.354558378073199218e-03,7.372272500529008024e-03,1.117597805104265929e-03,-4.977652963010894931e-03,2.270376671004489984e-03
1.029758023878594442e-01,-7.860054540119296163e-02,5.538794399701409653e-03,-1.612477658316477727e-02,8.528505977844619973e-03,7.032872313295761638e-03,-4.943909275356944515e-03,-1.323163163556841625e-02
5.355280357726214385e-02,1.733948634301823652e-02,-1.870163193188647405e-02,1.780859734893996656e-03,1.692714761962306122e-02,-5.174627116578647996e-03,-6.500161308961177609e-02,-3.035764134261340584e-03
3.456440047948110272e-02,-1.748389043263786150e-03,-4.676745873880453624e-03,-3.721754505543347497e-03,2.339742096961540743e-02,-1.094129922705349084e-03,-1.721654412776631171e-02,-1.013937346874124821e-03
3.456440047948110272e-02,-1.748389043263786150e-03,-4.676745873880453624e-03,-3.721754505543347497e-03,2.339742096961540743e-02,-1.094129922705349084e-03,-1.721654412776631171e-02,-1.013937346874124821e-03
3.456440047948110272e-02,-1.748389043263786150e-03,-4.676745873880453624e-03,-3.721754505543347497e-03,2.339742096961540743e-02,-1.094129922705349084e-03,-1.721654412776631171e-02,-1.013937346874124821e-03
6.470084551382798872e-03,-3.915182610912983086e-03,-1.286877558910039590e-02,-6.171379473661977103e-03,1.984216746401722825e-02,-3.992679186844437554e-05,-1.447862571889156104e-02,-4.107820912908364879e-04
-2.554297530606009989e-02,1.379907100291570023e-02,9.543422261033520293e-04,2.592035315569345415e-04,4.409324771255024311e-02,2.659629587257697383e-04,-3.135181376497553352e-02,-2.199600859015651865e-04
9.818656357625168973e-02,1.356115996788483623e-02,2.367413909647206967e-04,-3.568670241902112731e-04,-6.127495686874852299e-02,2.093604127426194753e-04,-5.432470136437576869e-02,-1.613736656685983099e-03
8.645285011762685046e-02,1.282591920439190257e-02,-8.259849099124380242e-04,5.419829591322780811e-03,-7.573979674109389271e-02,-9.592929902578876261e-03,-1.931574087800505199e-02,9.442986524740522303e-03
-1.682949392515578624e-01,1.559774448525777790e-01,-1.240546234625569157e-02,2.072002470456956597e-02,-4.026386445028128092e-02,8.174070652585432167e-03,2.914923086174641548e-02,-4.626524013704360477e-03
-6.359631534011556120e-02,8.849875683680129279e-02,-3.171426882403647306e-04,1.183384535621553879e-02,-4.413800958978945921e-02,-8.501860074832228711e-04,1.155176970059952277e-02,-1.527286423231297759e-03
-8.291561896260299380e-02,9.487838031341801204e-02,6.608765875141642265e-03,-2.694290742226904730e-03,-3.413382538987395215e-02,-1.855955100963547046e-03,4.844204746275381293e-03,1.521693097361658843e-02
3.187800594616106709e-02,1.320294522152619333e-04,2.438649832754198263e-02,-1.819368472276365611e-02,-3.101075669997995637e-02,2.919324961626181512e-03,9.152198059925032228e-03,-4.156703804237499821e-03
-1.297724333718922596e-01,9.919106186494301702e-02,-5.510131028761185851e-03,7.762850351885515476e-03,-3.568302373572306008e-02,-3.685017241995210829e-03,6.075561915936267265e-02,1.096460367956837365e-02
-4.397622300619471319e-02,1.714668024495341267e-02,-1.850846865432293625e-02,2.251172175057682828e-02,-9.473349097027905508e-03,-3.352979840179601094e-03,7.006580399866661583e-03,5.194039360063004707e-03
-2.587553512117143212e-02,1.944622220056566736e-02,6.540425045835626845e-03,9.875531698045340173e-03,-7.494163466969331125e-03,1.326435857472358648e-01,1.564596849882987899e-03,-1.331305760624731938e-01
-4.865563910488848037e-02,2.226244398011011788e-02,8.298238655594262353e-03,1.406813360390063959e-02,1.497675255445038087e-02,-1.348246582336806373e-02,1.109091546511306869e-01,-9.579439427229316517e-02
8.738717746466896988e-03,1.670463224130542754e-03,-5.078624677780197751e-03,2.617066211185413785e-02,-2.062784797864647759e-02,-4.168640773438902700e-03,-7.500795784743536851e-03,3.255511685126298571e-03
1.005231178184273245e-02,-5.435968284375957901e-03,-5.793017625476614210e-03,-5.444562320754410892e-03,-1.603071525141896948e-03,-4.810952066352713538e-04,1.005778570275601969e-02,1.100647500757485128e-03
5.112805648427589528e-02,-1.965425557637297954e-02,-6.968693629724513616e-03,-6.495250081552730870e-03,-2.165100036845287595e-02,9.733368469502005904e-03,-1.880140136888808211e-02,-9.760096617529733301e-03
-3.233699848979108143e-02,4.053453901032555255e-03,-1.093121086856850034e-02,1.317843307179231149e-02,-1.319707880851386881e-03,9.000570477553860443e-03,1.172330660330128671e-02,-2.997992991973881180e-03
-9.802809789898449255e-02,8.253828835656630558e-02,-2.749180566028123184e-03,2.860374913088041191e-02,-4.764368204844697356e-03,2.510572029357992577e-03,-1.160507549818496145e-02,-2.466240044911339590e-03
-5.141030258373927714e-02,6.842588851089902169e-02,-3.253288630320052242e-03,-2.347725271899264027e-02,-6.988974420418474351e-04,1.229318207389501916e-03,7.449487524367465544e-03,1.379995483638376055e-03
6.741174527378449022e-03,-1.484721910923351464e-02,3.574253577499399842e-02,-4.392399448686664168e-03,5.160684127478250630e-03,-2.892066552424600850e-03,1.643500588127477097e-02,2.277452869685490412e-03
8.400895794592428550e-03,-9.114950815364807057e-03,3.824276198511421254e-02,-5.174812009930132226e-03,5.072140536806249780e-03,-1.323681666415093411e-03,2.263019062992542400e-03,8.353721413811016202e-04
4.986971330373631862e-03,-4.601758011921207141e-03,-9.993628600490667147e-02,-4.239093136256330205e-03,3.344639985437274261e-03,-7.475395414759009819e-04,8.741020431313653149e-04,5.801399392178572655e-04
4.986971330373631862e-03,-4.601758011921207141e-03,-9.993628600490667147e-02,-4.239093136256330205e-03,3.344639985437274261e-03,-7.475395414759009819e-04,8.741020431313653149e-04,5.801399392178572655e-04
4.986971330373631862e-03,-4.601758011921207141e-03,-9.993628600490667147e-02,-4.239093136256330205e-03,3.344639985437274261e-03,-7.475395414759009819e-04,8.741020431313653149e-04,5.801399392178572655e-04
4.986971330373631862e-03,-4.601758011921207141e-03,-9.993628600490667147e-02,-4.239093136256330205e-03,3.344639985437274261e-03,-7.475395414759009819e-04,8.741020431313653149e-04,5.801399392178572655e-04
1.063604357409367492e-02,-2.235967770359893053e-02,-3.250197481583751852e-02,2.232755114495544885e-03,-4.371944624534810156e-03,1.451864946261745282e-01,3.067704308891819331e-03,-1.388963434921768048e-01
1.215811139564612273e-02,-1.252659878947566877e-02,-4.566968264103008629e-02,5.517174118562981604e-04,7.082968336414477255e-03,-1.145790256113175636e-02,-3.596255103361028962e-03,1.156535479780411782e-02
-2.581342712482135454e-02,-6.729253579806014629e-02,-1.790963644965315807e-02,1.183049360023790547e-01,9.174942080936554500e-03,-3.018262061725300507e-03,-1.120409247392985599e-03,3.626449840317028757e-04
-2.611986108613011462e-02,-4.912428162916660651e-02,-1.683184298397717715e-02,1.495133762814940259e-01,-6.096237244641972142e-02,-1.272632727728359101e-02,5.640743208164334874e-03,1.498431594606328739e-03
5.952847766915031306e-03,-5.773284577317618765e-02,-1.158389493983402393e-02,6.640579084630371387e-02,-9.264337473247624688e-02,1.104312549091908124e-01,-4.123530030976719704e-03,-1.120347485882524224e-01
-1.561622741471212564e-02,-6.371597741735643416e-02,-1.908791740404851625e-02,7.389792404753292576e-02,2.804737857370923765e-02,3.927602648447878382e-04,1.306256271883404242e-02,5.597157386939600326e-03
-3.152301723663557959e-02,-4.031176812303514934e-02,-1.070951704995870557e-02,7.783999002432583081e-02,4.203334205478571894e-02,-1.789488195733379965e-04,-2.935517359399509793e-02,1.271670838860219400e-02
-4.730613266411706763e-02,-5.116621952526083372e-02,-6.659386431833731745e-03,7.698948712783298953e-02,2.417129599167331180e-02,6.165251890552607417e-04,2.383643834752844151e-02,6.423187649607160939e-03
7.386449745737511466e-03,-1.628877036019272390e-02,6.871961522117531283e-04,4.555495973377326341e-02,-2.220037725821621261e-02,2.324101473561168002e-03,-4.205119786857241040e-03,2.616280916560187898e-03
2.950572654631573172e-03,-1.896696385225003084e-02,2.491728264593356251e-03,2.253788406500277855e-02,-3.027131662258301589e-02,1.803993490571936201e-03,5.950104440420119975e-03,-9.731865356055679431e-04
1.104366586633854889e-02,-1.479177355080827337e-02,5.068537180912886797e-03,2.793909869649252586e-02,9.371177040594758090e-02,-4.833943871965136647e-03,2.734298746494233205e-03,4.018289215092857129e-03
9.319712776018283448e-03,-2.102676570781580184e-02,6.480230335414833079e-03,8.200787569324369947e-03,-1.758246177257605930e-02,8.346898209110979999e-04,-1.503382442713936153e-02,1.469222613614507358e-02
4.513835877361339725e-03,-7.234362580338596013e-03,-1.162365999144349994e-02,6.200658589365030254e-03,5.504826435374024149e-03,-4.227317248995938852e-05,1.706187949309715649e-04,1.680694350421240574e-03
-5.894632065782435398e-03,4.747334790875543196e-05,3.918844140373295773e-03,4.026440078374453682e-03,-6.596271458888290987e-03,-1.268734260342469812e-02,2.674135320286638584e-03,1.459481704199199967e-02
4.513835877361339725e-03,-7.234362580338596013e-03,-1.162365999144349994e-02,6.200658589365030254e-03,5.504826435374024149e-03,-4.227317248995938852e-05,1.706187949309715649e-04,1.680694350421240574e-03
-2.728413626266954807e-03,2.196472003862486380e-03,2.981205476053023183e-03,-7.332942883557689966e-03,1.513691753183819544e-01,5.013358529260431365e-03,3.352107920041961456e-03,-2.835131487054552788e-03
6.005518088278267996e-02,-2.036380312072385689e-03,3.610756602984986716e-03,-2.691315149710235641e-03,9.960856362133030731e-03,-7.924472089206241465e-03,-6.698986855597374723e-02,8.363931092163025272e-03
9.337612846656160237e-04,-2.512932603797034606e-02,-1.260413460361370884e-02,1.105300913641423140e-02,-1.961649357839126764e-02,9.442811553408123754e-03,2.546732724148222798e-02,-8.481088522359812865e-03
-6.556098681656458496e-03,1.806354013043952940e-04,3.385015690589454444e-03,3.567751603795019273e-03,-7.093563586588996772e-03,-7.417827852114621152e-04,6.877587550875395757e-03,-1.008116570348771557e-05
-5.375619645321338957e-02,1.028013988119719571e-02,5.524432147107250987e-03,-1.664465931278656663e-02,9.867718179955783930e-03,6.845040263576092528e-03,1.529026578192704267e-01,-1.194718420396871927e-01
5.674071763424305909e-04,6.759417139556349319e-03,8.513833901533542428e-03,1.161191788366795208e-01,1.261936888062956466e-02,-4.895532238240461395e-03,-1.487030963100485249e-02,7.650167471740730932e-03
2.106921798831369423e-03,6.238553211744820443e-03,8.968033093075072210e-03,5.445976966509847791e-03,1.233744607476545616e-02,-4.230071546580858009e-04,-2.639603584520407858e-02,1.297602218196436744e-02
8.414585317135958586e-03,-6.468918490370098411e-03,-1.151379502571376560e-03,1.322673354188525809e-02,-1.144007352033076484e-02,4.347689923817002131e-03,2.006764791787693167e-02,-1.212865241082478410e-02
-5.354554130698826846e-03,-3.084436540484747531e-03,2.486964811189478364e-03,1.507992271722105072e-02,3.533613339973768440e-03,2.799112928166590328e-03,1.673510746570816901e-02,-1.970221941843275371e-02
-9.727554335227001775e-03,-3.306940419442756969e-03,5.428316973303893081e-03,2.154939719581571919e-02,-2.469050725029639862e-02,-2.969300432481831314e-02,1.690883555048806539e-02,2.267898515989774308e-02
1.333830861839748264e-02,3.522395763786990465e-03,-5.283836244130550065e-04,-2.992237482547388354e-03,4.841243500980220264e-03,-2.335101984472982492e-02,-4.002151814110010107e-03,2.009937450799547526e-02
1.333218338624781157e-03,-4.028719082483878068e-04,-5.125833284574334063e-05,1.923488057416104444e-02,3.830487075937048574e-04,1.338945558881565832e-03,-1.694977844610243579e-05,-1.898226387732653096e-03
-1.796679968458771495e-02,-5.349784969837481814e-03,-2.522451053778669659e-03,-2.896731562778677004e-03,-1.171105244272673852e-02,9.679227767118759457e-03,3.970777633595502093e-02,-2.014730475274178340e-02
-5.608061888395913814e-04,-9.788706177992132201e-04,-3.403624466529997202e-04,-3.112757653037917516e-01,1.485309673641356243e-01,2.974920681131935763e-05,-1.919418186004842976e-04,4.903086793753062920e-04
3.545465747648460860e-04,-1.377995852595398059e-03,6.128270981631373199e-05,-1.331686932788087030e-01,1.495155846530535348e-01,-6.915746635989771223e-04,1.987634977492974860e-03,1.672814800610543308e-04
-6.510732122530760689e-04,3.316309715898655493e-04,-1.199465475856805168e-03,-4.666859368780248291e-02,2.632662146202393444e-02,4.622989601553729446e-04,6.511267298991266260e-04,6.500951237873850430e-03
-5.382318318587268847e-04,3.693235645190301366e-03,1.679836408881936862e-03,-4.171342000842455204e-03,1.255049695436908155e-02,5.487238057799223925e-03,-1.208987822157726790e-03,-5.426280978561499532e-03
8.855795970138424095e-03,-2.173758213315470349e-03,-8.078781905490146562e-04,2.776394600008518301e-02,1.965336488592087615e-03,3.931965883078338692e-03,-5.283717164699144354e-03,3.117099810906282138e-03
-8.405697497289259246e-02,2.585999156518299907e-03,-7.027376714485351634e-04,2.234023286949624390e-02,9.379546918965447899e-02,-1.282426804567570779e-02,-3.793692574095993385e-03,1.186819541370081124e-02
-1.459038915072561129e-02,-1.756223378742802644e-03,-1.133636633472919668e-03,5.520150345988642394e-04,-2.215103128614722555e-03,3.786168425213233546e-02,-6.466302079808550554e-03,-1.395508364824017168e-02
-9.943533786316120782e-04,-9.990945560458285024e-03,8.366082116897540638e-03,5.980977685231857535e-03,1.113915785933448747e-02,-1.047843283655428281e-01,-2.055519067509182715e-02,1.180776332096936942e-01
6.904775283099302829e-02,6.441344569196087722e-03,1.671929661849115177e-03,-2.398468039382926215e-02,-5.147660953673174368e-03,-1.061268037186736783e-02,-5.622089185576034653e-02,1.128604996453792114e-02
-8.915432777744761866e-03,1.711433503713376183e-03,4.791584070133411981e-04,-8.344735999118592373e-03,1.035682837744529711e-01,5.457897479550897352e-02,9.379247825687596699e-03,-5.149253541455782457e-02
-7.372168164700705455e-03,3.234218874029826454e-04,4.750487809784186173e-03,3.102567309351804241e-03,8.850595368128270218e-03,1.026920260086626978e-02,-5.069912744709444488e-03,3.405936802596322443e-04
-7.050341567628910788e-03,2.029087382387122912e-02,1.767170974081193682e-02,-1.077711488416934968e-02,1.156822942965878530e-02,-4.503828992772060391e-03,-2.007804897779268474e-02,4.097987539533320131e-04
-4.480624578583929790e-03,8.374974924663348367e-04,3.879794688680706424e-03,1.091937245227318359e-01,-1.335477643788751147e-02,1.298213402036080787e-02,-6.944782754964688720e-02,5.389550936321423069e-02
-4.748885916375766283e-04,8.587587620999181590e-04,4.701085735148982300e-05,1.712402264629304116e-01,5.328847887396736876e-04,-6.006998642297247878e-04,3.122233653625043712e-03,-1.373769719008212289e-03
9.891102085279300255e-04,-2.175117609964066518e-03,-3.288227471130078430e-03,1.268822731425548467e-01,-4.607402936879481030e-04,2.479759392842254342e-02,9.801640740951670164e-03,-3.275168402350033675e-02
1.195051980935151826e-03,1.308201506013335555e-03,1.331669215492711300e-03,2.327059980385670634e-02,3.868313857367073998e-03,3.361478802938543120e-03,-8.273446364827834881e-03,4.174453832416277245e-03
-1.162628285133684297e-02,5.394118323025892323e-03,-1.488236713919902131e-03,3.992216585959856845e-02,1.358302988637643052e-02,2.389613421623883009e-03,-2.459978303365532859e-02,4.642246674103148348e-03
2.591698289319603783e-03,-2.920389378797647126e-03,-5.155267460202721252e-04,2.867357068910515033e-02,1.210403466278996316e-02,-1.870050184639758615e-03,-6.613540924124167598e-04,2.007618408949529264e-03
1.205695443695840603e-03,-1.637444636268821103e-03,-5.667798961183136489e-03,-1.968930287137206185e-03,-1.252934082175497302e-02,6.585460486344792141e-03,-1.761782592474379818e-03,-2.320607017788418013e-03
1.246876501278501755e-02,1.852285360974538194e-03,-9.478989933008073526e-04,9.928931620827072257e-03,-6.970543721862435330e-03,-1.768859483835035634e-02,-9.746453376589381398e-04,1.494211937308558003e-02
1.172634362333205629e-02,-2.893525929968805395e-04,-1.031978471513143435e-04,7.993053790063847641e-03,-2.025281286513174947e-02,8.991369142586488547e-04,3.512144449331660234e-04,-1.561108805280084656e-03
2.247047524394124324e-03,5.151016201947192057e-03,-5.674755906562847438e-04,9.309186464755110635e-02,-9.875224569571863786e-02,-1.208069844781414423e-02,1.691005351479238058e-03,1.604283007097312072e-04
1.128607508429212321e-02,-2.590897431160517871e-03,1.221638868424971842e-03,1.212745568830199058e-02,-4.146739076937321772e-02,-7.944777453149148502e-03,-6.599400654970898755e-04,9.789493901587164107e-03
-1.352778797771954644e-01,1.436563355036684156e-02,3.686922024985554670e-04,7.110410913732637464e-03,1.307121080871823382e-01,1.873541979372856520e-03,-4.277652676513919380e-03,-2.673822603106681527e-03
1.162841223786264394e-01,-1.353778859755427368e-02,-8.954511689912144842e-03,-2.127752542145053272e-02,-8.055672659598675511e-02,1.167195224338684473e-01,-3.697114238968502581e-03,-1.092386516889455733e-01
1.275119955150594807e-02,1.164911949212522717e-02,1.501633140685004059e-03,2.284068817675014712e-02,-5.661835418760604449e-02,2.234317587416938949e-02,-1.268767585205839155e-02,-2.396064430270054488e-02
-3.359024500594829645e-04,-7.461268741399440822e-04,3.372812252051386045e-03,-3.233864286432779761e-03,1.525752143843186939e-03,1.213480284169429213e-01,-2.456893636266085316e-03,-1.183163304292560031e-01
1.131819584946103328e-03,5.989943288220896112e-03,-7.187760174886203245e-04,-1.177626259582727555e-02,-3.584219595042605067e-03,-4.590544717191797491e-04,2.524830827869089297e-03,1.708549870608457684e-03
-9.717776133323138138e-03,8.538022139494814283e-03,-9.351682988243294322e-04,3.646093672896449055e-03,2.560652443612651021e-03,-1.068649106082344459e-02,-4.039496227381636148e-03,1.094395353601482386e-02
-2.719943061906369627e-03,9.853618225182846080e-03,1.879188812764995666e-03,-1.476558895461532826e-03,-1.111898312292020422e-02,1.807179525073750875e-02,3.139752951820350829e-03,-1.842361429739429457e-02
-8.965751699507393951e-03,1.328500425496148551e-03,9.308344779242486372e-04,3.275447843659984228e-03,-8.038822310717994024e-03,-1.016167333648666750e-03,1.118049399621711543e-01,-1.072819741138895527e-01
7.996335901766654652e-04,-3.212222998363679959e-04,2.961999525674619167e-03,-2.399397475499393168e-04,2.466647236535701271e-04,-9.904909460444468676e-05,-4.785767366598096297e-04,-5.473540534492519734e-05
-5.161707070319572184e-04,-6.692378589563060826e-04,8.177759805230055967e-03,-2.376793377417031204e-04,-1.655184259681777683e-03,1.307337049743281798e-02,-2.611106854629776102e-04,6.076397107131662574e-04
-2.029835506437898741e-04,3.052817136745299316e-03,-8.443442037957972490e-03,9.310822403262404220e-03,-4.249344893002000856e-03,1.368580705818857237e-03,6.109612100742773874e-03,-6.573745459296754037e-03
-4.757244995078222178e-04,-8.668072736627100219e-03,-4.772363997227211459e-04,7.159782569500566449e-03,-2.752613338694842593e-02,3.203046081624608631e-04,9.423920533283704215e-03,-1.460552484899456469e-03
1.291018625655847574e-01,-3.949901509544753307e-04,2.580940623551768263e-03,-1.637579088650208126e-02,1.332592824349375718e-02,-2.003018492039321252e-03,-1.311833422876201583e-01,2.217090753286178779e-03
1.678034101635409630e-03,6.379197828862316969e-03,6.149383444810017614e-04,6.258695975718099949e-03,-3.692453264607898581e-03,4.865715236285300086e-04,-1.239681541981239518e-02,-1.513315255979314237e-03
1.084974608500998989e-03,-1.561140809558122936e-03,-2.958784067383483235e-03,9.045782563759380149e-04,-1.218527647275249350e-02,7.239591768055424030e-03,-4.557714390180272676e-03,-2.032361182267481380e-03
9.675690049550539698e-03,-8.542888010247513342e-04,3.788787944588777534e-05,1.491567102446272330e-01,-1.627804786264222536e-01,1.546019960774318650e-03,8.486881445809665598e-04,-1.535649652569308094e-03
-6.768191086664603236e-04,4.140159864304951881e-05,-1.968241737990501855e-06,1.672927360323712143e-01,-1.664199247143565707e-01,-7.879923944184231879e-05,-3.333771789073653119e-05,7.904791394893522709e-05
-4.581055633569378061e-04,-9.282228230917202033e-03,-4.684594679103677955e-04,7.940410897446634544e-03,-2.716208849721449964e-02,-3.388536450584922065e-04,9.252057976683162460e-03,-8.431608473254109237e-04
-3.027823826775422988e-04,7.739982441428433155e-03,-2.555972893407380949e-04,-1.158488321110459282e-02,-3.552242026824253916e-03,9.578256492403260797e-03,3.078241929712021568e-03,-8.642455707648315222e-03
6.642487963922662480e-04,8.813070553744773231e-03,-3.585779198419760316e-04,-1.762320866804454114e-02,4.973259095282137922e-03,9.589845408793604706e-04,7.963382554740611611e-06,-8.713238431361364483e-04
-4.626276335128052392e-02,2.761240508065187019e-02,4.902303453159493653e-03,-8.211315221584547866e-03,3.140948355237222628e-07,5.255786988039737404e-05,1.543053613680675853e-02,2.065179238127563995e-03
-1.388664903551739202e-02,5.884281868713801301e-03,-7.667168287289384369e-03,1.912175956079771241e-02,2.444258372341474167e-02,-1.128162962226776297e-02,-1.586433131395580121e-03,8.075826849118833764e-03
-6.165295718321303804e-03,1.901411198407948477e-02,1.556279171832856967e-02,-1.941681033598603723e-03,-8.903504605301081412e-03,-3.660599452381947064e-03,-1.030866825190398552e-02,-3.025308989947057044e-03
-5.062911562860905254e-03,4.165784390945581096e-03,1.586327271460805013e-03,-7.952699158132927736e-05,1.479013366446821397e-03,-1.255590487177156260e-03,-3.372305305029165475e-04,9.918355505873070223e-04
-5.062911562860905254e-03,4.165784390945581096e-03,1.586327271460805013e-03,-7.952699158132927736e-05,1.479013366446821397e-03,-1.255590487177156260e-03,-3.372305305029165475e-04,9.918355505873070223e-04
-8.846941035803159575e-03,-1.420634616158420339e-03,7.845227533062623312e-03,-6.842615629254820801e-03,-3.522291390508690365e-03,9.793826290229930634e-03,1.223490327270271572e-01,-1.278441588187404221e-01
3.629759615036217031e-05,-1.203220343573621273e-02,6.525982093774515547e-03,-1.934604487848697778e-03,-2.419197252962910702e-02,-3.982059885836709790e-04,-5.931184158868042788e-03,1.506057020853781778e-02
1.124645564835679602e-02,-9.414239253342960786e-03,-1.562594502647867561e-02,9.388847988751867352e-03,-1.274797471005463013e-02,3.788732753737848128e-03,1.996742583566430904e-02,-4.760675063632387356e-03
-5.844661183511327789e-03,4.631600894385668431e-03,1.101005039686974926e-02,-1.262703905350739605e-02,1.513711982237847878e-02,-9.972755803192507110e-03,-6.094581881219978889e-03,3.596936036002375357e-03
-1.185713296977367048e-02,1.853590709236989029e-02,7.341973526478041620e-03,1.171399606261050719e-01,-1.094622994816673023e-01,-1.017370780474397343e-02,-2.951956596628305812e-02,-1.912208306978194911e-03
-2.684731155493551725e-03,1.000054405241004342e-02,-5.308400938844014261e-03,7.074710137489170769e-03,-1.524598537898187375e-02,5.308079680485970793e-03,1.358803816977197272e-03,-7.901787737624121899e-03
-2.173843107163485507e-03,9.980955848720753087e-03,-1.339526657694332414e-02,3.608107286421690513e-02,8.902520558458164313e-02,1.583407585953511276e-02,-9.348491517598827086e-03,-1.948625273436726396e-02
-8.966040886789133219e-03,1.245188074359731244e-02,-1.999648202927281279e-02,1.236343292000150439e-02,-2.052619197839286938e-02,1.147772121059265939e-03,5.666656621478650610e-03,-2.750632573349807986e-03
2.985374557599283427e-02,-4.693488711235834117e-03,-5.310521008532360053e-03,5.369868237740313410e-03,-2.268323617323573377e-02,2.248212376383473127e-02,-9.643481175380285569e-03,-1.240363620827898694e-02
1.347514192580682134e-02,-9.167573835354268438e-03,-6.395448230049649227e-03,6.289253281139869922e-03,-6.442109356549810539e-02,-1.514582542223462114e-01,4.169944933392581710e-02,1.505385840732979263e-01
-1.459056638071386768e-02,1.956447476302925273e-02,-4.746436055041348794e-03,9.538378302953679638e-03,-2.585006028364987204e-02,5.590564947605920071e-03,-8.629401565865713747e-04,-7.385675212566354675e-03
1.676940789101578899e-01,-4.775439489046807637e-03,-2.306990349176876731e-03,-2.468999633604381568e-03,-9.383001012796279849e-02,-1.803179299171397965e-02,-5.410288101122131404e-02,1.713828919236718568e-02
2.947573984962230040e-02,3.154801286989444842e-03,-1.035165105238844616e-05,-4.487637884445642641e-03,1.716480807628564462e-02,-5.099911689213317868e-03,-4.350762487903898912e-02,4.407972350447353013e-03
1.011247458816443984e-01,-1.019829662676932300e-02,-6.254814794290350973e-04,-1.808646946556484794e-03,-5.832613312106771364e-02,-4.135041759767517887e-03,-2.947766186985428805e-02,3.469426850960611285e-03
2.265333301422620474e-02,2.716496173054489677e-03,4.268768944534040541e-04,-2.135274714271114850e-03,7.754802570598044384e-03,-5.267679152378144762e-03,-3.487119251617282201e-02,4.907644980867076866e-03
-1.685422710666567223e-02,4.822551313191127120e-03,-5.098272278458212264e-03,-3.747823781788560491e-03,2.117961017067032659e-02,-7.659752026036180730e-03,-3.708253927415751296e-03,1.675920057662946827e-02
1.438615599640160059e-01,3.916307197658255163e-04,2.760722690060029259e-03,-1.828397993416388742e-02,1.667786296268622404e-02,-2.124576447555859109e-03,-1.469224915660485575e-01,2.429147631386457864e-03
-5.677393439182971957e-02,1.431267152933327902e-01,8.392099565838282565e-03,-8.225587203205226433e-03,-6.476600054185238653e-03,6.444019762284480812e-03,-6.995348136021062313e-02,-4.303901740535685458e-03
-4.281757926088637645e-02,-1.578909819497142583e-02,1.046373307568511694e-04,-8.641555567493422463e-03,1.432209747083636742e-01,3.338752529362017715e-03,-8.863431554887975239e-02,-3.561603567762331064e-03
1.797606917718378161e-01,-1.481307484651273824e-03,-6.828324537357639921e-04,-6.130810259901644903e-03,-1.113235687090889936e-01,-3.830374313118080180e-03,-5.730186465313147348e-02,4.715860336386998655e-03
5.591992890749177686e-02,-7.619137457778708822e-02,-1.137695863996244020e-02,-2.822861820989393949e-03,2.927005550795936956e-03,-2.107674067707340088e-03,2.666045085571824153e-02,1.018874007608830748e-02
5.591992890749177686e-02,-7.619137457778708822e-02,-1.137695863996244020e-02,-2.822861820989393949e-03,2.927005550795936956e-03,-2.107674067707340088e-03,2.666045085571824153e-02,1.018874007608830748e-02
1.022498958637797217e-01,-7.785912460398879131e-02,-6.289038012556616604e-03,-3.562675923646476533e-03,-1.087796543588746530e-03,4.521662691155249429e-04,-1.313892009590499586e-02,-2.162488150093818621e-03
-2.312412678607096012e-02,2.865319197201186482e-02,-8.599079450120976006e-03,1.835956072320970092e-03,1.414248366606458453e-02,1.670527244375383247e-02,-1.603546832712627462e-02,-1.267958503496384101e-02
-1.812177251896577579e-01,3.016370264085920655e-02,4.455955761780671688e-03,-1.134887759243085291e-02,-9.857003047612933333e-02,1.001285498038126942e-01,1.474071553048690864e-01,-9.264672714605316772e-02
1.304903756081092492e-02,2.538713605666849307e-03,-8.220758282433786313e-04,-1.812969870492408403e-03,4.332081323663936577e-03,-2.066479002710418927e-02,-5.455029627086159169e-03,1.942918121606527701e-02
-3.115626529167250108e-02,1.584100378010803393e-03,6.698996914692070814e-03,1.603168927909971175e-01,-1.097629491865078103e-03,1.432548525246340153e-02,-1.552191488760706339e-01,-4.821632617313531197e-03
-1.601476024284675254e-02,5.588965143201215201e-03,7.793520588047890725e-03,-1.655743648979404736e-02,6.673985336109393256e-03,8.194769566808420697e-03,7.125797828748107370e-04,8.540093245884225210e-04
-4.989419174063225784e-03,-7.469162500573561445e-03,-5.923222143985258301e-03,9.369369730276876085e-03,2.373146512513020501e-02,-5.192934758522316317e-04,7.405447068027896582e-03,1.053859332810798324e-03
-8.579506215111522976e-03,-5.497865344237309014e-03,-3.697917337230795156e-03,6.531551485999149802e-03,-1.591163751671436644e-01,1.199614614215306109e-02,-2.404331707575634372e-03,-1.121143653199942018e-02
-8.874771164824107536e-03,-1.036662257252981070e-02,5.437443305251188179e-03,-4.369365981178052923e-03,-9.571351799764911406e-02,-5.455856403372974159e-03,2.041535548644589707e-02,1.936210152910142895e-02
-2.982524386520644770e-03,1.132282506770102351e-02,-8.528490277791353350e-05,8.611969932734938465e-03,2.375747705700391801e-02,-1.893335802250135144e-03,-6.729438963208907295e-04,-5.982317806440635641e-03
7.287801940418270168e-03,-1.094443912326070398e-02,5.503333194472371376e-03,1.396417573895602973e-03,9.950311337341281089e-04,-2.053138426701197738e-03,-3.459741816891820365e-03,1.938016668929344512e-03
-1.478531815257845550e-03,1.558642650533184561e-04,-3.324438710821483360e-04,3.423894289415074397e-04,7.503856019922169537e-03,-8.030618137115294597e-05,-7.218873489690877041e-03,2.386252118494892381e-05
-2.774716681550005223e-03,3.286180361472630131e-03,1.529856444282758597e-02,1.088638493286554210e-01,-1.706109799533448920e-03,-8.803309792942077064e-03,-1.038455910957600814e-01,7.383660097755147082e-03
9.003431086865439428e-03,-2.171893761125760335e-03,3.416911265913572752e-03,3.310253720229802861e-03,9.811119336668810975e-03,-1.034712289750510869e-02,-5.013005948392357768e-03,1.274735578466937823e-02
1.633651419780690270e-02,-1.003950592468464721e-02,-1.132437132129387666e-02,-1.352809482785584383e-01,-6.236649197950303210e-03,8.484958750039416769e-03,1.279298323665883641e-01,-8.334642861153273435e-03
2.279501829373669491e-02,-9.425267958049170572e-03,-1.194449864556912030e-02,1.635729928629609670e-02,1.698236676543883605e-02,8.124489272329287956e-03,-3.240152155645649457e-02,-6.590111204236444656e-03
2.272402961573673566e-02,-9.960264091187944271e-03,-1.048164016079670621e-02,1.506240514084852822e-02,6.034682114989271991e-03,-6.734110796628093969e-03,-2.924988561777445290e-02,-5.415361152078325239e-03
-5.940480981815562597e-03,-1.097120483579765030e-03,6.356056441647259247e-04,-1.340469798552938741e-01,-2.220915970761127081e-02,1.083755070389477281e-03,1.443784185766772976e-01,-2.538883974607121161e-03
-1.771754247924726272e-02,9.034191914791900660e-03,1.447407731052890968e-04,-1.471237580405644063e-01,-2.285943267779072877e-02,5.227449778510046040e-04,1.576438688148161238e-01,-2.060591662213583954e-03
-4.769626800961671888e-03,1.143759753720412914e-02,-9.197623042743765381e-03,-1.262431516216929173e-01,1.317607500549503874e-01,1.168758475267258137e-02,1.381525928283210691e-01,-1.404374377084565903e-02
-1.256462320416953590e-02,4.021876438867882757e-03,-3.026723705031944545e-03,1.822726820749538679e-02,9.017772132836457399e-03,-2.062991960652490358e-04,-1.713376783466918213e-02,7.647947402704703126e-04
6.874065629646504416e-02,1.944096724235431367e-02,-2.397081961434909241e-03,1.931618834250373173e-02,-7.426765273248739363e-02,-9.030981500398650458e-04,-2.783364473350995530e-02,1.468721669315061797e-03
-2.648381588079917748e-02,-7.356804975738336257e-03,-4.982852914290824761e-03,5.550623209644186748e-03,-4.253816652970418620e-04,-2.284849439133740910e-03,3.039489244448335264e-02,1.221056634956457082e-02
-1.254697902807490328e-02,1.274232628739026263e-03,-1.029576842257671332e-04,1.215231652786232658e-02,7.060775539136867132e-03,1.681592271135468608e-01,7.983862827044529422e-04,-1.683710472479276743e-01
3.848194684180179619e-03,2.210797221640833639e-04,2.103640051055297513e-03,-1.121524013159165556e-02,-3.224022282055936765e-03,-6.878417845188439586e-03,7.722881187006758186e-03,-1.034848880726623246e-05
-1.068471969205509993e-03,1.257978664589672578e-02,-3.055638873141549791e-03,-5.485618923861827582e-03,1.004519258379004722e-02,6.255040762735407725e-03,-1.169462091615800685e-03,-1.176101301582233374e-02
-6.822256751359950452e-03,4.518857898121792470e-03,3.706064784049130974e-03,8.315551727930432097e-03,-8.937198599137788357e-03,-1.037272712206888103e-01,-1.800621170009948256e-03,1.024889085357129359e-01
-4.403337744592763321e-04,1.015798612068237981e-02,-1.166277041862191256e-02,2.372746767738453250e-02,1.305966603118507985e-01,2.869389422489511746e-02,-2.314059301303842200e-02,-2.425567088657713116e-02
-9.123361172939421435e-03,-1.564795232170293579e-04,-2.801741813645047450e-04,7.797908214539439695e-04,1.110256447414407349e-02,9.756297513599059695e-03,9.695021994982264938e-05,-9.709561115459754838e-03
6.832387912576967648e-03,-4.739014498088063468e-04,6.059958487432689318e-04,-1.683513310509838958e-03,-1.260478622258926883e-03,-3.535018888911462681e-02,5.620594471504330829e-03,2.344747657982454783e-02
9.569165400726831194e-04,2.072804082850432058e-04,-4.702571037109392309e-05,-1.219240170276519734e-04,4.508509609844613131e-04,-1.623345617515907545e-03,-5.229942764630563738e-04,1.539551709091447132e-03
9.668651131251915914e-03,4.359773353034365577e-03,-9.989018212433236482e-03,2.310156224016060925e-02,1.413286664831475969e-01,1.109815597029592191e-02,-1.994192336428673301e-02,-1.263499063401762879e-02
1.843231948579097390e-01,1.161137351073126059e-02,-2.034381109675454519e-03,4.378864788272719341e-03,-1.949770668762609849e-01,-1.055767740956452434e-02,8.544582575507832581e-03,1.036799275240502492e-02
1.654206427019656589e-01,7.177162261420312866e-04,3.590221615253894917e-03,-3.151448440705477590e-03,-1.501997858937222652e-01,8.004383455438777301e-03,-2.192557043716007736e-02,-7.416705054567417424e-03
-6.575110176431178677e-02,3.089944908315881453e-04,3.273216790582944395e-03,-4.988067696094345034e-03,8.673642417493940271e-02,1.094387389280204216e-02,-1.735504495203608541e-02,-1.025838023983518567e-02
7.211458400366563271e-02,5.704102462161282291e-03,-1.550362394839282913e-04,8.367386928937018548e-03,-8.382601440647279023e-02,1.167974398286888114e-02,-8.936389317112740024e-03,-1.186303092008352336e-02
3.417802710604790628e-02,-1.494719098500320309e-02,1.613310889560558205e-03,-1.843125499505306512e-04,-4.153583075493914867e-02,-2.983458028884871304e-04,-2.317758786498842760e-02,1.310854167594878439e-02
-1.242786177529954517e-01,4.413170514042081584e-03,8.054574944669866746e-03,9.723799581064201513e-04,4.610157492822784461e-03,-9.250627973289040490e-03,1.136095180297559820e-01,8.732957689538902932e-03
-1.242786177529954517e-01,4.413170514042081584e-03,8.054574944669866746e-03,9.723799581064201513e-04,4.610157492822784461e-03,-9.250627973289040490e-03,1.136095180297559820e-01,8.732957689538902932e-03
-1.242786177529954517e-01,4.413170514042081584e-03,8.054574944669866746e-03,9.723799581064201513e-04,4.610157492822784461e-03,-9.250627973289040490e-03,1.136095180297559820e-01,8.732957689538902932e-03
-1.469147901134973955e-01,1.803570400555737710e-02,8.722623210811537159e-03,3.695898143107866681e-03,2.278648056537551508e-02,-1.140394936076891477e-02,1.117966183895614252e-01,1.238404194369991523e-02
6.834103123028539839e-03,-7.004919573933149346e-03,-4.861073446813920541e-03,1.211331923292795253e-03,-1.263702467476907673e-03,3.280632262115267981e-04,7.739624087200506434e-04,-8.576290528315635032e-04
-1.334171114315951812e-02,-5.861335440004544588e-03,-1.191556364702352168e-03,1.058624782799862628e-02,9.653906170540893505e-02,5.374735377514420348e-02,1.136580588903885261e-02,-5.224129085292943120e-02
-3.509348837202855894e-03,-3.109361389088527829e-04,4.550526961474801626e-04,2.955002012302739532e-04,1.341636806195116091e-02,2.110194795820177684e-03,1.835693117768410262e-03,-2.676564538306317690e-03
5.629110522205184146e-03,7.661619628555566908e-04,1.953795217626244640e-03,-1.721739734520725748e-02,9.081269073342643910e-03,2.035749379372168988e-03,-8.903632511192852150e-02,7.348201700322917751e-02
-5.994153769732476003e-04,-1.808324090960279715e-03,-2.940453403608967418e-03,6.750019100875953972e-04,4.947554222029398874e-02,-1.672772497073217457e-01,7.161762459522895766e-04,-9.218515865473068255e-04
-4.913912296084383888e-03,-1.800900321077743629e-02,1.402857034633519118e-03,8.410814017458682901e-03,1.052767310630382770e-03,8.476208999079078415e-04,2.438684842855571352e-03,-1.056564719820074277e-03
-1.892268495105999719e-03,-1.179473916663830672e-03,1.730216676289303770e-03,-1.358124256740300510e-03,-1.008742197476527463e-02,8.478220039303296690e-05,5.810192790990237333e-04,8.148293318964884699e-04
1.151440926709700399e-02,-1.067622004483313085e-03,-8.494675182809885428e-03,1.710380621900646492e-03,-2.406828791211770434e-04,1.635969540200938157e-03,-5.293160098165493191e-04,-1.678333885699841111e-03
-8.860542379607053371e-04,9.090478335582592023e-03,-1.891453506294489160e-04,-9.882001590020391552e-03,1.311455201019116890e-02,-1.327394883424486659e-02,-6.436011067578845894e-04,1.265341712859153166e-02
-1.209956189129341234e-02,-5.716101274247849815e-04,8.029430514344069666e-03,-1.451521743295292825e-03,1.952359160789129706e-03,-1.818037081177722308e-03,1.112456712749636430e-02,2.904175793835387341e-03
3.669676875764477184e-03,1.221541991260540090e-02,2.695355342641462051e-03,-1.525921915256487835e-02,1.222228679227226403e-02,8.300903986308312142e-05,-1.204085791832003836e-02,6.645992232433306848e-03
1.210445093455795110e-02,2.761627464290548721e-03,-1.865253187853211812e-03,-7.948741014797748583e-03,-1.094853832787986425e-01,1.085735314748549618e-01,-1.583106795779240170e-02,-9.867549599424553508e-02
-3.587309431039038262e-05,8.557385364156970564e-05,-2.528252322004278420e-06,1.516835651882167402e-02,-1.631620698060544383e-02,3.944965125709695133e-05,-9.733116883455100190e-05,-1.472604340443384140e-05
-4.633532694313606710e-03,4.377041356911298177e-03,1.226140826109556542e-03,4.815280886176680555e-03,-6.854581633678457145e-03,-1.161960425492994560e-02,-1.512765084040790828e-04,1.355515599119251277e-02
1.159774479734448568e-02,-9.321860239186206603e-04,-2.784772674063231909e-03,1.683851499350552975e-03,-7.853304228816297694e-04,-5.155646104629891180e-04,-1.192242972222198622e-03,-2.054116731150490665e-04
-1.826102538503730777e-02,1.658138704319840270e-02,8.837143142907597643e-03,4.196938055849261731e-03,8.233853965756312773e-03,1.118103899850291351e-03,-1.763834396739577103e-03,-6.476868602865375017e-03
2.215684892931574571e-02,-3.432575767134478546e-03,-3.711665320957855405e-04,4.544348805818650139e-02,-1.576661266238620629e-01,1.113626656282712679e-01,-1.796423860796856828e-02,-1.053480932301234380e-01
1.654169427134903267e-02,6.152678015396299653e-03,8.017340818940990512e-04,-1.127370239476595606e-02,-1.333118013460396489e-01,1.349420091345166495e-01,-1.375247694168036348e-02,-1.368277799584584620e-01
-1.923406918605235615e-03,-9.965799537508838665e-03,-7.428506709798558556e-04,1.971413054825347719e-02,-1.798591331191905923e-02,1.051392925745324620e-02,1.554535956113528919e-02,-1.292372266116790722e-02
-1.645376971334485197e-02,-8.413670490755805614e-03,-1.431898712500989657e-02,2.489007308722093574e-03,-7.717223397592465513e-03,1.406647045507591898e-01,3.209789207185371335e-02,-1.417726345922000752e-01
-2.941365466587925886e-03,-7.629135358688690291e-03,8.384052758720303075e-03,-7.181113059697300308e-03,-1.156310959399008687e-01,4.818523817979382048e-03,1.811303574350336607e-02,-5.588100249680058237e-03
-1.223257927288573781e-03,6.704065051448745809e-03,6.634394631690295396e-04,2.925046755517804464e-02,-1.774803268159363262e-02,-3.515429011603238372e-03,-1.620290287789865474e-02,2.040371825877704791e-03
1.160976562894372802e-02,3.320992574579907566e-03,-6.744726734305588056e-03,1.151734340548598023e-01,-1.073212342907147177e-01,4.622798268281542826e-03,-1.425076736263722679e-02,-1.349234701099035448e-02
-1.540979278783970174e-02,4.283713410873567565e-03,6.541325954073660964e-03,8.168276524183042120e-02,-1.004237111779166386e-01,-5.229943357370327693e-03,1.573328237003866065e-02,2.618932611768497436e-03
1.073694563869931687e-03,1.275815496098641963e-02,1.035774854797400283e-04,1.363709999744503465e-01,-1.300082349809605631e-01,-1.659997727960930980e-02,-1.577146544609711598e-02,2.322892373050270808e-03
7.149407580247646790e-03,-5.925755726141956892e-03,-6.799801868237804092e-05,2.725148487210737186e-02,-2.320942434089046449e-02,-6.930201846089964132e-03,-2.220348127600744233e-03,1.221068405752207724e-03
7.604080021664169631e-03,-4.879542164384362626e-03,4.680716599235973906e-03,2.991437874967068505e-02,-3.881549347088163876e-02,-8.560548700261412514e-03,4.260652056298306484e-03,-3.863541147856782657e-03
-3.190521269188225512e-03,6.367460515532919006e-04,1.106903083183447310e-04,9.745820130525365346e-03,1.472794065446967823e-02,-1.176029812528583615e-02,-7.884614639244448900e-03,2.001571232805863382e-02
2.044405645098711002e-03,-1.951561428781076494e-03,-2.985058171343505425e-03,3.412678336955829277e-03,-2.424746337128968338e-02,1.867704880123802202e-02,-5.565480744195596893e-03,-1.126585600112410719e-02
3.881372981914147985e-04,2.344682679161038015e-03,-1.769465267717654482e-03,-1.630720711336389878e-02,-8.374621779888125062e-03,2.356589233610765360e-02,-1.145868184475258914e-02,-2.150876199564830810e-02
-1.656268346907296529e-03,4.296244107942115593e-03,1.215592903625851377e-03,-1.971988545031973239e-02,1.587284159140155831e-02,4.888843534869620304e-03,-5.893201100556990507e-03,-1.024290599452419397e-02
-1.138842547823820314e-02,-7.544505375532273425e-04,7.358023922367724727e-03,8.671716585762045959e-03,-8.964626574179856283e-03,2.348989015436830745e-03,1.610518670508711420e-02,-2.800991170711800236e-03
-1.138842547823820314e-02,-7.544505375532273425e-04,7.358023922367724727e-03,8.671716585762045959e-03,-8.964626574179856283e-03,2.348989015436830745e-03,1.610518670508711420e-02,-2.800991170711800236e-03
3.468745805845443834e-03,2.377666460162307718e-02,-8.637145883289645571e-04,-7.148226534453794301e-03,8.899340591933944944e-03,3.969078731201719197e-04,-4.425445849541105071e-03,-2.491815192505521812e-04
1.305984946408092484e-02,-5.051400962441007260e-03,-2.667320934311418097e-03,7.729704350647089925e-03,4.516675242019463007e-03,-9.020427796949441956e-05,-1.460567418832976749e-02,1.266501412012288174e-03
1.305984946408092484e-02,-5.051400962441007260e-03,-2.667320934311418097e-03,7.729704350647089925e-03,4.516675242019463007e-03,-9.020427796949441956e-05,-1.460567418832976749e-02,1.266501412012288174e-03
-1.125903838331747224e-02,9.648429881427379035e-03,-4.753865511699530534e-04,4.514489524290071429e-03,3.595832855984128825e-04,1.622755001408759533e-04,-2.687485108228652476e-03,-3.160600052967524635e-04
-1.125903838331747224e-02,9.648429881427379035e-03,-4.753865511699530534e-04,4.514489524290071429e-03,3.595832855984128825e-04,1.622755001408759533e-04,-2.687485108228652476e-03,-3.160600052967524635e-04
-2.270504580950219106e-02,9.670179154413725831e-03,7.011608017661656762e-03,-1.001417040081508503e-04,5.085396251032706615e-03,-8.946488403980248829e-04,8.369595206858487443e-03,1.914958389364522853e-03
-1.399670034850146808e-02,-1.771494663133395958e-02,3.466739120828044442e-04,-9.776732227654860025e-03,9.621657442933397031e-03,7.122991376946878617e-03,1.862586159829070914e-02,2.133660842254649602e-03
-1.779708138708547410e-02,-1.368010041606351410e-03,7.152141416290338886e-03,-2.307301030001138870e-02,1.055974734953933972e-02,7.682488355435354230e-03,1.394616632863622183e-02,2.450904423087040505e-03
-4.472264370322825592e-05,1.142077006989599200e-02,-8.057710840538281818e-04,6.218415949594100975e-03,1.534746249402183828e-02,9.704469500675971024e-04,-1.179041683590925822e-02,-2.961182616418937515e-04
