8.739289629960412251e-05,3.506764323789755833e-02,1.091023425876916642e-01,4.503954597246458136e-02,6.871227988758186189e-01,5.855469417242722269e-02,1.532278613174652658e-02,1.770664321181484868e-01
4.231309805983306249e-02,1.171512398737410976e-01,-2.802491592190186481e-02,1.731512714049416105e-02,-1.383030713037331494e-01,4.339000070622043431e-02,-1.017903220743122950e-01,-1.019466850149724699e-02
6.423141380279284718e-02,1.275023497175506448e-01,-3.164757150488940740e-02,-7.983620567800832346e-02,-3.807692059630113923e-01,-1.109804574304746605e-01,1.825461632296863090e-01,5.233457096552442123e-02
1.638702722982763108e-02,4.770639786661743514e-02,3.626670516942448463e-02,1.993027274179858810e-01,2.731653359021750660e-01,-3.092040293946494156e-01,-1.694672437393487247e-02,-5.935771240414663280e-02
3.012809538523916839e-03,2.100013309003590511e-01,-3.142020918590789080e-02,-5.690369507501162605e-02,-4.195149144693785526e-01,1.155924664731176749e-01,-1.667148596608948596e-02,2.086043639904552049e-01
-5.879448193764517244e-02,7.805792277267500912e-02,1.102668599664095028e-01,-6.365144732839420061e-02,-1.030340482315553752e-01,9.776697063274153443e-02,-5.323405910890750825e-02,-1.597630156164760451e-01
-1.912901096509493637e-02,1.425915734744546137e-01,-1.314522171594499078e-01,-3.448737094245738627e-02,2.212481886042807488e-01,4.698138662290417961e-02,4.403138809542317400e-02,-1.926596974922207273e-01
-4.795921904577932215e-02,2.152740408200758127e-01,-5.347281043751743457e-02,-2.336592267238551263e-02,-1.340834911021477338e-01,1.822452909375420899e-02,-4.180611977431568371e-02,-1.303578026018185031e-02
1.047063131976462974e-01,2.130984860385730373e-01,3.112899143153539661e-01,-4.046117803336640728e-02,-3.678141620581290572e-01,1.905592611515453255e-02,4.398260870077854573e-02,-7.078067812485008825e-02
5.337745085673281480e-03,4.348562328605388716e-01,3.683768031229817108e-01,2.748272022004160167e-02,-4.429187374935759647e-01,2.692805663085933755e-03,-3.562089451978817101e-02,-1.643317076737086380e-01
-1.105053171310340643e-01,2.256571463689174828e-01,2.200058123514341824e-01,-4.183999832007827269e-02,1.332352243075564102e-01,-6.509471132749729272e-02,-2.512950436250063063e-02,4.739701296380158246e-02
-1.931710270287826173e-02,-1.982933666054254376e-02,-6.274608187308226837e-02,-5.600216111612647124e-02,-9.879085358960540408e-02,-1.464188095810897575e-03,3.097269434972668711e-02,5.527050798739321577e-03
2.919316438161873722e-02,2.420790058678719825e-01,1.638573421906824035e-01,6.681839733438803275e-02,-2.911558755791880393e-01,-7.317089485950960259e-02,-7.946836945596610913e-02,-5.213157986862748672e-02
-7.312228625406294938e-03,5.532459446387774094e-01,9.582122267663795850e-03,-2.701482993854841322e-02,-6.198024438710100226e-01,6.589948978985502026e-03,3.061154116756225740e-03,-7.151742274698838497e-02
-2.181357544016162761e-02,5.951812060099035545e-02,8.848052354628849203e-02,-1.013531102424264883e-02,3.032464865249562269e-01,8.657590072686630750e-03,5.341762155084067709e-02,-3.550148832225889783e-02
-6.887122254372549102e-02,2.553088949758973714e-01,-8.740990359266262444e-02,-9.223896953648516583e-02,-2.597621816409494966e-01,-3.313199274959367086e-02,3.870081879117518581e-02,2.372564681364670580e-01
7.429815192534528238e-04,-4.213660638411620418e-02,-1.072968511326240632e-01,-1.660531450402899165e-02,4.829873602011859335e-01,1.302080528924548161e-02,-4.581848768711625774e-02,-3.564838177764953486e-01
8.761088134552377782e-02,-3.102009835947716621e-02,-5.543108465650161548e-02,7.196773782857905644e-02,-2.079018729335519455e-01,1.688795185752412636e-02,-3.341788056746457930e-02,5.338393897045492359e-02
-2.660171343570154681e-02,-6.277245191087112153e-02,3.312175343539851269e-02,2.473192767103728207e-01,-7.783537787544141384e-01,-1.161261035894778082e-01,4.638717017232304313e-02,-2.552636487167579335e-02
-9.040709710787889208e-02,-5.085977196402353961e-02,5.536572132013817260e-01,-8.501116799877739272e-02,2.365137498648719472e-01,-1.420165307346654970e-01,-9.429986072952936671e-02,-1.528194167254947611e-01
-9.885110205436325732e-05,-3.799386185934267024e-02,1.850871276426696299e-01,-6.517679719772029312e-02,-2.385431372699916841e-01,2.836751655998558941e-01,-1.462285913784977867e-02,-1.005467880490389376e-01
1.144166607575254763e-01,-7.745433461392645103e-02,6.323496878728004922e-02,-1.422632665883840665e-02,5.168952900419949703e-01,-1.380257993190754096e-01,6.028168249789448568e-02,-9.880014518675658830e-02
9.988278541512098929e-01,-4.367714265179516858e-02,-7.932829774127815592e-02,-1.101324580306493536e-02,-6.722439445996355456e-01,-7.079177860466026595e-02,-2.302685052555964590e-02,-1.728798315172604405e-01
9.998737475760226534e-01,-7.233956439718609854e-02,-1.047985928730381655e-01,9.515906522971637194e-02,-6.818859971295763156e-01,-3.546235855542777954e-02,-2.247598516677034100e-02,-1.605247411929247858e-01
1.009760182567209265e-02,5.617303740374418597e-01,-1.343779338705856363e-01,-3.128644592495909149e-02,-1.267155248901190578e-01,-8.620867006802007682e-02,-2.080442224084252945e-02,-1.207079810642394946e-01
-6.009732439347587052e-02,2.536413175472079784e-02,5.381327141974041883e-02,2.002803455909901997e-01,-2.357769399131140475e-01,7.354666507019744226e-02,-9.361823548855117971e-02,-1.779539133243054905e-01
4.821944016372448766e-02,2.633775467021468031e-01,1.771792915028515270e-02,-1.862631969154032174e-01,-3.024468236021943257e-01,-4.982291888319425460e-02,6.009687055647333631e-02,1.452380730903977957e-01
6.910890851624257487e-03,3.286264393123995431e-01,-7.690437435758076812e-02,4.132697032017152447e-04,-8.820101234402726031e-02,-2.041786537404087151e-02,-4.122327019970706968e-02,-9.898687613635515081e-02
-1.547098292635334382e-01,-3.659990114956373358e-02,-1.262220450372924796e-01,-5.926288943315534408e-02,-1.966222600248369590e-01,5.868470720656384504e-02,6.078239063324905045e-01,-9.203698609292387811e-02
1.539359110213730786e-01,-1.138749365042511161e-02,-8.125065056462151686e-04,-1.831791820146220010e-02,-4.637162637672413434e-01,-1.455126527280366233e-01,3.329830487474423895e-01,-4.737040413304110381e-02
1.929478072743912587e-01,1.451486650395406898e-02,8.860195526075007044e-02,-4.221564603523592779e-02,-7.180231862686958788e-01,-4.267042007597553199e-02,2.312913548485008852e-01,-6.682089540526568727e-02
1.820670630156842607e-01,3.232081586805969631e-03,3.791565850042272895e-02,-5.530670636815943064e-02,1.069917405974761815e-01,4.339729443751881230e-03,-3.505674084684885089e-02,-8.263361324473289526e-02
1.820670630156842607e-01,3.232081586805969631e-03,3.791565850042272895e-02,-5.530670636815943064e-02,1.069917405974761815e-01,4.339729443751881230e-03,-3.505674084684885089e-02,-8.263361324473289526e-02
1.820670630156842607e-01,3.232081586805969631e-03,3.791565850042272895e-02,-5.530670636815943064e-02,1.069917405974761815e-01,4.339729443751881230e-03,-3.505674084684885089e-02,-8.263361324473289526e-02
1.397017558645273771e-01,9.418351687057556834e-03,-1.956958591653942467e-02,-1.076728963993035526e-01,1.265110944800401094e-01,2.050586496208371343e-02,-1.028295457856136415e-02,5.810279230022116076e-02
1.820670630156842607e-01,3.232081586805969631e-03,3.791565850042272895e-02,-5.530670636815943064e-02,1.069917405974761815e-01,4.339729443751881230e-03,-3.505674084684885089e-02,-8.263361324473289526e-02
-6.264428586624414734e-05,-5.387633022647397851e-02,-9.730685332585718716e-02,-6.902431576429689242e-02,3.233660813794369537e-01,-4.404782806216932939e-02,-2.954978799634993061e-02,-1.807600731032025787e-01
-8.851508680875087853e-02,7.867295434878521926e-03,-2.859976755733177889e-01,4.277388574869379068e-01,-7.812515402387674168e-01,-6.496673049439119496e-02,-4.521325597818686565e-02,3.828641291398188207e-02
2.746189079830978902e-02,-4.191335204180010598e-02,4.199463889795655019e-02,4.008219719895704178e-03,-5.628384194736565233e-02,5.281158583964288417e-02,-2.921325438351324993e-02,3.225324688972343035e-01
-4.332348492921167830e-04,-2.483289418495147026e-03,-4.195809146337135115e-02,-5.076022012362235714e-02,-2.303874213054156184e-01,3.117597499460392774e-01,-1.128984548606940252e-01,-3.424503624611824892e-01
-5.677117726318674880e-04,-3.908261515593332985e-02,-7.171700029717004155e-02,-4.801395406863316617e-02,2.383420698945054317e-01,1.823444224498221300e-01,1.584790593036609213e-02,-2.807969491061406697e-01
-2.980946492329024605e-04,-1.004200919361221411e-02,-1.543977104791010788e-02,-6.871212248707146697e-02,-7.943987912442905808e-01,1.641403033648291543e-01,1.051200040340814637e-03,6.615614519041426167e-01
1.632141064213879153e-03,-2.128330316157670682e-02,-2.893811312066768560e-02,1.252171385748051258e-01,1.935090516261505633e-01,6.031406998550531418e-02,2.368783114046382407e-02,-9.648806122112732475e-02
-2.653063242615720171e-02,1.697309552346837613e-01,1.360840051190939926e-01,2.665736946909870106e-02,5.097683304961043715e-01,3.862002240455393587e-02,-2.183291444947451504e-02,-1.964580625597238672e-01
1.814991951147000571e-02,1.300221074253803399e-01,4.007277172491202077e-01,-5.630285605339642452e-02,-3.259860422585622031e-01,-2.488386467713860628e-01,6.397275311632519279e-02,-1.146491392493416070e-02
1.027013486502923031e-03,5.131097154565807950e-01,7.527129269813214174e-01,7.173441720528835183e-04,-6.949579108516636961e-01,-7.955030237809891658e-02,5.323142228780793767e-02,-2.034321860130218762e-01
1.119530694803273167e-03,-9.248546919956565637e-03,-8.899957730795585165e-02,2.250038773857883090e-01,6.339562713264570992e-02,8.024157321747698440e-03,-8.243909676250129465e-03,-1.312788464556957080e-01
-2.700770801667895515e-02,2.081182489324958917e-01,3.843140572705056046e-01,-6.136746652861937296e-02,1.470301620898599171e-01,-1.419532601858632982e-02,2.521378131717724735e-03,-2.237100120179902896e-01
-2.041863843917916983e-04,1.813270390600682166e-02,-4.638066560650586784e-02,-1.076032642396513028e-01,2.635272080486083524e-01,-2.238163471824853798e-02,-3.920369874329170112e-02,-1.089577539352896834e-01
-3.488342894489929462e-04,3.388463320600224593e-01,3.667380104265491325e-01,1.213542385402022021e-02,-2.019012260657264690e-01,-3.229162979391460297e-02,-3.791100933367245324e-02,-1.471301277920495365e-01
1.659759864291715514e-02,2.908284396953760842e-01,1.704912590980217635e-01,-1.524078148754087238e-02,-3.093845854076940904e-01,7.001573593453921940e-03,-9.205570009285773264e-03,1.548654915025125256e-01
-3.471726019486219561e-02,9.419112883397533220e-02,5.319754738614858314e-02,-5.446464909914346814e-02,-5.595255565272213572e-01,-1.041118937291910483e-02,-3.136966016872346635e-02,2.555529326655183175e-01
4.443025755297548562e-02,1.231213792268960258e-02,5.117515974362163433e-02,-2.831839667596660476e-02,-6.964660631192452767e-02,2.267980702267904242e-02,9.609154559773773474e-02,8.024753077889589664e-03
-1.508535954626494474e-03,1.788353222490568772e-01,7.705331196213689449e-01,-2.978708945629190280e-02,-6.513632646783450442e-01,-3.062235033030733661e-02,-2.107102497513003436e-01,-1.329790932542026793e-01
4.283950491914146480e-03,3.162832790693935747e-01,2.099163035400425925e-01,5.091268790438305963e-02,6.465049794115604875e-01,-4.402650225431441189e-02,-2.697477137660412860e-01,9.300923543164970470e-03
-1.534055124753882669e-03,1.916769339641241909e-01,-6.698024705857413830e-02,-6.664361802030625836e-02,-6.935348624438044673e-01,-8.785502167812313246e-03,6.663932987460325919e-01,-8.658558967882352964e-02
2.284130205641539055e-03,4.491510451800036913e-02,4.321587980923714128e-02,2.357750576406524544e-03,-6.486645757684357250e-01,3.215711027818170253e-02,5.855481815126076066e-03,4.479924875263002759e-01
1.696449457128267058e-02,3.682016174815128107e-01,1.730957645078608498e-01,-2.670909375521453993e-02,-1.920054735796652423e-01,-2.616714253444735877e-02,-6.458132945740263989e-03,-2.643026071324688919e-01
8.076438491996887912e-04,5.908150062472662389e-01,5.396571115471588964e-01,-4.432036665816864451e-02,-6.775520761063875685e-01,-7.280375937583920265e-02,-8.646171690819359421e-03,-1.861619864428402660e-01
9.486022295329579745e-02,-1.093356348741959944e-01,-2.209069683611623175e-02,-1.104571071041332980e-01,-2.317110551262896723e-01,3.064612415837041429e-02,4.288816946354754439e-02,-8.592740965256980001e-03
-1.043122772508392887e-01,2.243711297387108172e-01,5.190655809698396621e-03,3.741666791118548885e-02,4.478771880446512366e-02,-8.290549578559855415e-02,6.694324150590082179e-02,-1.494735877184642514e-01
-2.270705767936940025e-02,1.173468125433748677e-01,2.685780879819884420e-02,-3.712741374916175841e-02,-7.797093243886762948e-02,4.714248654960218055e-02,1.856708442209842325e-01,-1.632048378426630975e-01
-1.640764121131877418e-01,5.636879249234779538e-02,1.242543740812916686e-01,1.221500787021666083e-02,9.795783907791175138e-02,2.659305079308861217e-02,-2.771794034503653054e-02,1.469881980888543827e-01
-2.102691857467293740e-04,1.392576120332064404e-01,6.931261080420922926e-01,-4.818767493745608477e-02,-6.907750599130138003e-01,-5.409500390615743642e-02,-2.162067399887519781e-02,-1.772354798936784936e-01
1.756539348630802577e-01,-1.290911567363873733e-02,1.534673062448044800e-01,3.702017249940302290e-02,2.614764487527314052e-01,-9.531731485381841895e-02,-1.395620812883877904e-01,1.334654895044795342e-01
1.136181375288187025e-03,7.011733970234217128e-02,5.676714300789605788e-02,3.261444972782766294e-02,-1.342266635614967618e-01,1.019591461413851680e-01,5.617344877442627046e-03,-5.699729320132590309e-03
1.096819571387285322e-02,1.046292114459374811e-01,5.277824787623507374e-01,-1.171543473243844974e-01,-1.443090636821779404e-01,-2.185605507069531342e-02,1.710833303192423396e-02,-1.213141279615258944e-01
-5.689191549058068842e-02,2.639421821224451348e-01,5.522702126919184357e-02,-1.848560937363577170e-02,5.916518161378299390e-02,1.351973943173157867e-02,4.857817282868061304e-02,-1.452615577926900103e-01
-6.904474210504278793e-04,-1.140632081342809051e-01,-9.736081243845991218e-02,-3.741647627542658838e-02,3.326693075054057980e-01,1.604272503606185840e-01,-3.380977557396578487e-02,-2.060636004792382736e-01
-3.955009889193222827e-01,3.516963711965895856e-01,-6.189973615817249974e-02,2.191573846402743164e-02,9.668382972513202001e-01,8.999159835257432294e-02,2.380683941393081302e-02,1.973381411966825677e-02
-3.036328959158384692e-03,5.573427210828808542e-01,-4.903854156830693423e-02,-9.126758296811723903e-02,-6.785525071849564105e-01,-5.949098560999444008e-02,-4.040342433100321817e-02,-1.382301229412305488e-01
5.048374907783143017e-01,-4.519985966545166794e-02,-2.316647095587994962e-02,-7.972312976449371508e-03,-3.560568515564556391e-02,2.077207081474182968e-02,-4.276977772227804481e-02,5.664251726797610992e-02
1.485531824700299158e-04,-1.320518141725981510e-02,-5.147591231816345259e-02,-5.478144124360111167e-02,-7.282695654272663965e-01,1.277297624496023798e-01,1.372153699909573754e-01,6.101201446123361016e-01
6.470162017855357497e-05,-1.250703144794693480e-02,-5.625791720341279112e-02,-5.315856337662647722e-03,-3.627310718143949564e-01,-4.570960410636554921e-02,5.277297208036209053e-01,-7.825346799191399416e-01
-1.697000108089616679e-04,-3.809741416326547364e-02,7.467658452301855106e-03,-1.492956032602754321e-02,4.277566144652940605e-01,-1.716542646836118069e-01,1.577781976604691605e-01,1.071456805451006522e-01
-1.381596559755569366e-02,-4.815705780885131543e-02,2.571662325022726001e-02,-1.861617864831363947e-02,-7.146524449729121375e-01,3.613913904239642316e-01,-2.140286558804515779e-02,2.186706942844591356e-02
2.246842416276503482e-03,-1.658247689369315298e-02,-2.907146570553327189e-02,9.134698906052465817e-02,2.110542831158817856e-01,-1.521301546866536958e-01,-1.623306135525437455e-02,7.967798625508402954e-02
7.569971452730091255e-03,-3.211785810656031005e-03,-1.246598995244068142e-01,6.110469863046528172e-01,-3.314685484435361262e-01,-2.042114199885378678e-01,-2.059013469481254383e-02,-3.556742908388759172e-01
1.132082513125005907e-02,1.491849102610206222e-02,-1.029528454990164266e-01,2.892441813824295771e-01,3.220414462299011626e-01,-3.295943288776110452e-02,5.777984178437570867e-02,-2.678197674042105403e-01
-1.442833065230724279e-04,-6.245019068745779993e-03,5.422534063567422281e-04,5.372802141664164699e-01,-7.038665921599174258e-01,-8.195673063881737941e-02,-2.148716840582534648e-02,-1.471552847908423334e-01
-3.569282875703931796e-04,-5.008205306063162610e-02,-8.668994985277289622e-02,-8.315206965812442508e-02,2.792268110346597387e-01,1.029568184753900939e-01,9.938994000770105808e-03,-9.747451927487871259e-02
1.253182748444646721e-01,1.517073389050498447e-02,1.063523876011970570e-01,-3.407768834154982496e-02,-6.603615314393536107e-01,-4.848306815378988083e-02,-2.955465469220079459e-03,3.536051998784495165e-01
2.036740609010057046e-02,2.023114289152433670e-03,4.262391791953632804e-03,4.632289574452349429e-02,7.916139510123301748e-02,2.053537141098583929e-02,1.780738822374005464e-02,1.560728393858320795e-01
-1.573153202817557661e-01,-3.210443970370493918e-03,3.153045152358394804e-02,3.765453029274729579e-01,-4.653502903518657585e-01,-3.652776163432948364e-02,-3.111187490804021016e-02,1.443203346808216159e-01
4.946100228947087479e-02,-5.405899660673688795e-02,-1.170425333181035893e-01,5.176522564188530406e-01,-3.745327665784136117e-01,1.231007278127652926e-01,-1.553423645952114497e-02,-2.657842316570828145e-01
-4.790879573818449672e-02,2.467187874705707371e-02,-3.140607183798816565e-02,2.382714928217589401e-01,-2.932837037695318894e-01,-2.485209232859630080e-01,1.632489082445308815e-03,9.298166287218657955e-02
-2.136812090121707752e-01,3.183602704335705136e-01,-5.377437142400778164e-02,-6.295092968066992589e-02,7.681940017357693495e-01,6.185314087776816461e-02,-1.015327615109441143e-03,-7.051222570875875784e-02
-1.182506415346725459e-01,2.628020745848512751e-01,2.678586465242378117e-02,6.992384736952757252e-02,-2.284939244148521120e-01,-1.327675924535214880e-01,4.267305865243027629e-02,5.354055114429755527e-03
3.323083528193662151e-01,2.838247063500756173e-01,-8.100176812105601420e-02,-1.813428322984265637e-02,-2.219485992594530666e-01,-2.405765378199892224e-02,-6.506612779485224096e-02,-9.718433680525970231e-02
-4.811691650513563718e-05,5.979013505737291734e-01,-8.072514722918487651e-02,-3.322619195518366347e-02,3.193356093719897926e-01,-7.808160965986299384e-02,-6.281388391502114310e-03,-1.535614574874696603e-01
3.588878389435689042e-01,2.647974593772667307e-01,3.343823565219148503e-02,-1.529008711315818199e-03,-1.099777040611166878e+00,7.747803164010189092e-02,-4.590832179454175377e-02,-1.778180402178373976e-01
2.742354634841638952e-02,1.071116833640199245e-01,-3.134893216012894779e-03,-5.771096498463217095e-02,1.556372003121083425e-01,-1.151117064191512773e-01,-2.313401594304809530e-02,5.662039396469106117e-02
6.932619087330826706e-03,4.568286041271216180e-02,-4.927707374628727266e-02,-1.162665346447746065e-02,3.243355502500939180e-01,-1.499504948789775194e-01,-1.138832051669912485e-02,-5.944205033203781019e-02
6.644243826497961414e-02,-1.922648631937613067e-02,2.885572953775113469e-01,-1.083187837230312547e-02,-2.906639969963462633e-01,-9.675707259418339645e-02,1.787249941029447897e-01,-1.660836199648199341e-01
-6.627177291592292740e-02,-3.092388696983972701e-02,6.219381565275978740e-01,-2.359006776926933502e-02,-3.790609114395151469e-01,1.442514737233787855e-02,-2.610077623017937332e-01,1.269423976745477287e-02
1.551070590450409070e-01,-2.374785928821510940e-03,1.042269907403657464e-01,-9.777349015090034540e-03,-5.286575010981441336e-01,-7.123507687246329045e-02,2.321161527530912205e-01,6.360664180246102146e-03
-8.924001318984861597e-02,-5.258781939153095442e-02,1.121658017646212091e-01,-2.708145028303125465e-02,2.238787446959262795e-01,-1.820851827815733130e-03,1.115559913991811813e-01,-2.257063680801924543e-01
-5.243487265022669236e-02,-9.929693930539977564e-02,1.629786162020389895e-01,7.911810104075912842e-03,1.517631546369752615e-01,1.045820171147323896e-01,-3.853094017475740089e-03,-1.123326751646240018e-01
-5.235389188723998943e-02,-9.543384490296343003e-02,3.975783777606164970e-01,-5.088291106718813468e-03,-4.558783758831135846e-01,-2.115577463475457609e-01,-5.161712714718199452e-02,1.436086557446565604e-02
-2.320410139377681994e-04,-6.031744727985386550e-02,-1.292092278631273294e-01,-9.024972171427830727e-04,2.927695428509412001e-01,-8.128116901580315079e-02,-2.619370872502803718e-02,-1.043656102435369937e-01
3.891021608997470849e-01,1.347157556311687210e-02,-1.571025104142090567e-01,-9.357023645651834851e-03,-1.822792404885286710e-01,6.534858797030954070e-02,-1.671628696327395747e-02,-1.348645408799960810e-01
1.093075864010167354e-02,-8.156748974966631857e-03,3.769361895318729117e-01,-7.524562125072767338e-02,-4.268050790896300017e-01,-6.528880637383960859e-04,2.521669155270921461e-02,7.840016325741629849e-03
2.102775699601641402e-01,-3.746943242607016222e-02,-7.498135499986077757e-02,-2.193372395836452188e-02,-6.263714659319891132e-01,-1.697918931873025616e-01,-2.781330620281672467e-02,3.492712964573896350e-01
3.453106760411248644e-01,-1.292597053619714501e-03,-1.658705087272375756e-01,3.267672780456418180e-02,3.351786752554891669e-01,8.295579863396981835e-02,-7.986629179170716408e-02,-2.787754317629133616e-01
1.107141048903550057e-01,5.005249831309549480e-02,-3.303905089824645258e-01,1.182867241305011891e-01,-3.649940474563578841e-02,5.132060109415116644e-02,-1.925177573248223681e-02,5.467124434372629821e-02
2.144694047913736079e-01,-1.061337719875692781e-01,-5.285203869480603611e-02,-1.387219624854461528e-02,-7.666186944884524623e-02,-3.190319991253999510e-02,-2.869787140502865277e-02,1.670660531668677617e-01
4.256563852411577448e-02,4.864218713840700106e-03,2.256686628017615104e-01,-6.866018493307346482e-02,-4.394631074906153456e-01,-3.114353142841278996e-02,5.697867325750667622e-02,-1.834431976280138238e-02
-1.021228864536171815e-01,3.400756038764166100e-02,4.391615987980376085e-02,1.988752404262454920e-01,2.097966660752199619e-01,-2.679960525519205911e-02,-3.831958600894035116e-02,-2.830248036686944801e-01
1.949142026358094693e-01,3.984447133392876074e-03,-4.774673327425443120e-02,-7.975381056293646964e-02,-1.436591481056939679e-01,-2.006940616933997751e-02,3.036744060734333089e-02,7.358232658778329771e-02
4.397612336328596966e-02,-1.280161460967049226e-02,4.162718885289745305e-03,-1.234155733737904784e-02,-1.034436071266605917e-01,-3.680733028825107500e-02,-4.654084978124219119e-02,5.172320938851030642e-02
-7.174063770443961374e-02,-7.643344121530284974e-02,5.536679897313223631e-02,-3.188093741188684910e-02,7.140757342596508739e-01,-3.288886722164515580e-02,-4.700031074265482306e-02,-1.427920491455317298e-01
4.397612336328596966e-02,-1.280161460967049226e-02,4.162718885289745305e-03,-1.234155733737904784e-02,-1.034436071266605917e-01,-3.680733028825107500e-02,-4.654084978124219119e-02,5.172320938851030642e-02
2.372795097869659364e-01,-2.201822966858704191e-03,9.738511142707717214e-03,-2.738762053179241013e-02,-1.631785019882584509e-01,-3.623554168767176287e-02,5.593654339055845887e-03,-6.715407895717065423e-02
-1.779441005937499459e-02,-6.630319213863365355e-03,9.129546588151715714e-02,-4.844714998567730552e-02,-2.535560100518608473e-01,-6.528402533705952859e-02,-1.300705975189350716e-02,3.002514102147381680e-01
8.609561620968228524e-02,-1.789294847543852415e-02,1.899389498466168627e-02,-5.703348983779684550e-02,-4.689205013512376397e-01,2.575882017358816500e-01,1.449114120967250896e-01,-9.516958635537595135e-02
2.372795097869659364e-01,-2.201822966858704191e-03,9.738511142707717214e-03,-2.738762053179241013e-02,-1.631785019882584509e-01,-3.623554168767176287e-02,5.593654339055845887e-03,-6.715407895717065423e-02
2.372795097869659364e-01,-2.201822966858704191e-03,9.738511142707717214e-03,-2.738762053179241013e-02,-1.631785019882584509e-01,-3.623554168767176287e-02,5.593654339055845887e-03,-6.715407895717065423e-02
-2.166699281195004212e-01,-6.045738846742489125e-02,-5.184718636816108145e-02,6.796509655656593485e-02,5.574329904675174863e-01,2.038909919883110169e-02,-2.645790591978131046e-02,-1.532398954194156837e-01
-4.234263448678567132e-02,-8.770841630520043869e-03,4.581404469012164554e-02,-1.029701044804898387e-02,1.065177130208064121e-01,8.182959933500043304e-02,-4.890715151601504260e-03,-5.743975781028108629e-02
1.422060303052166963e-01,-1.830284373747859822e-02,-2.744128198682498770e-02,7.809663402792686900e-03,-4.910891923326573538e-01,-6.625028866912749392e-02,-4.688138632899745140e-02,2.077575644368793717e-01
2.989475699274241061e-01,-3.637655563244834942e-04,-8.363489451301868438e-02,-1.173144586853669923e-03,-1.303922096843528611e-01,-3.422261633756222554e-02,-4.812569696021401153e-03,-2.665897315115356436e-01
-9.027134366286419798e-02,-6.020261228622472011e-02,-2.451581071791992736e-02,1.239366156833157998e-03,4.793331302617879347e-02,-6.291525313250453944e-02,-5.447506798471743114e-03,2.516967990115276388e-01
3.039999765225621098e-01,-7.221483425959987663e-03,-1.210449137631705585e-02,-1.837303201629346058e-02,-3.604706142994184431e-02,7.316132738324950154e-03,-1.572250869773414439e-01,1.735019969036363519e-01
3.039999765225621098e-01,-7.221483425959987663e-03,-1.210449137631705585e-02,-1.837303201629346058e-02,-3.604706142994184431e-02,7.316132738324950154e-03,-1.572250869773414439e-01,1.735019969036363519e-01
3.039999765225621098e-01,-7.221483425959987663e-03,-1.210449137631705585e-02,-1.837303201629346058e-02,-3.604706142994184431e-02,7.316132738324950154e-03,-1.572250869773414439e-01,1.735019969036363519e-01
9.994322504589900902e-01,-3.559474759727409426e-02,-8.662657816239675845e-02,-2.460272395892072056e-02,-1.781698787346732149e-01,-4.044730528300384542e-02,-9.550928047551328348e-02,-1.540651847253378115e-01
4.337212444273554901e-01,-9.759216423039790075e-03,-2.451145016729007822e-02,-3.394779399009709934e-03,-4.785414378142552883e-01,6.311522901846625122e-02,-2.861407896306850107e-02,-1.863434539412087421e-01
5.653461326023132560e-01,-4.272559880379588060e-02,-1.545532206002255514e-02,-9.091909610501196920e-03,-1.955007426371870860e-01,-1.615697567135613022e-01,-1.595972835680256607e-01,9.181202486522467565e-02
-8.430656078784428686e-01,4.159852879992543412e-02,7.620872304953779652e-02,4.598929852446548977e-02,3.701912247338997597e-01,1.906555318380788802e-02,-2.294457815217908758e-01,1.240407431930305726e-01
-2.836236328266373286e-01,2.052264072278821294e-01,4.249485686412569907e-02,-5.105990880637308743e-02,1.190883527079562940e-03,-3.206332216749523123e-02,-1.776293359390286250e-02,-6.802876441225069737e-02
1.227972940245469768e-02,-4.534549287711700516e-03,-3.789078490939808835e-02,-7.837475144787274181e-03,2.082601385354274429e-02,-2.607221175826496436e-03,-2.772722184680052535e-02,5.052957948843065511e-02
1.746364626838243506e-01,9.216975795728755971e-02,-2.588876333077003156e-01,3.097307190286500145e-01,-2.091324467932582643e-01,3.346626435556748769e-02,-4.408578887127471979e-02,-3.688445980372100780e-02
-7.101018291126913549e-04,5.591755834972925859e-02,1.998672482207800027e-01,-6.587268423054559729e-02,-1.969858022543527921e-03,-6.446537400993324063e-03,1.466960143932292612e-02,-1.047314955441294888e-02
4.085800099710558131e-01,2.375975716144188288e-01,-2.486977101778400576e-02,-1.300001845437884218e-01,-3.002095492981436409e-01,-3.958592365639963112e-02,-4.589723451886565386e-02,-8.989913575218358432e-02
-2.631021431199153660e-01,1.208814512900545229e-01,3.320499713450282553e-02,-5.424326443903813161e-02,-5.308909449390033369e-02,-3.430094416137909746e-02,1.284042617715145662e-01,4.689882647493705606e-03
-3.772859858112477538e-02,7.761232930966936727e-02,-1.008815640243765355e-01,-1.787882896673166242e-03,-5.062613075092640136e-01,-1.096668541972197070e-01,-5.397601266433532663e-02,1.988131017548552468e-02
-2.664781240809030558e-04,-3.981980641029837786e-02,-5.147895370337117471e-02,-6.833724260024975905e-02,-2.409301581115456392e-01,4.266590988879619961e-01,-4.692136290994691067e-02,-1.420053940044549712e-01
-1.412192514998777959e-02,-4.129974221169136622e-03,5.567681484204469594e-03,6.404437896076606296e-02,9.949866651299860143e-01,-1.545683478251058951e-01,9.435642058375062757e-02,3.948139806037246485e-02
5.487918473248287743e-01,-8.438770982758178607e-02,-5.200709363077106462e-02,3.973078827526596579e-02,-7.865975747998781298e-01,1.329596511807366616e-03,-1.230833331654398836e-02,-1.197775371493430691e-01
-1.422336051579065931e-02,2.314135047263069650e-02,-9.025555254113530601e-02,5.594335241430861000e-02,-4.673623238274259295e-01,-4.635379439664013418e-02,-3.081459348329941648e-03,1.294009657822816073e-01
-5.506829670953572453e-02,2.542988636398073668e-02,-4.981647029228161716e-02,5.592529912252232685e-03,-4.604474188979677113e-02,4.836826981720564189e-02,1.738802999045331935e-02,-5.573498784853294502e-02
1.221621647225602098e-01,6.096528146174719177e-04,-4.457568521731117978e-02,-1.047717877377448703e-01,-1.407580977094153862e-01,-1.441852973920292602e-01,5.845473886340927377e-02,3.566496710328813380e-02
4.416726104738656344e-01,-1.263839891527154813e-02,-1.496932853708037069e-03,-6.021437972191041876e-02,-1.129296205252637852e-01,-3.059876637654745241e-02,-4.381294101332557089e-02,-1.452360451913612127e-01
-7.496590572462967506e-02,1.196462835071963882e-01,-1.474327760003754650e-01,4.877658915701506281e-02,1.611563280010331334e-01,3.278012272734098093e-02,-4.245098253333615818e-02,6.792562957577849558e-02
1.216934075805655227e-02,1.811692985375847886e-01,-7.383089328267890272e-02,1.771029933141941848e-02,-4.684704363737874355e-01,-1.142857581376369516e-02,-1.481504570931562181e-01,9.398362534365070631e-02
3.351966582979384011e-03,-9.878098421769852810e-02,-5.280270129678586721e-02,2.622362469202339508e-01,5.892570163294793550e-01,7.145242748209808259e-02,2.083526267918967348e-02,-1.610009989796623020e-01
8.036729150346659523e-02,-1.124529541881492400e-01,4.226546012137935050e-03,-1.887580937765367395e-01,1.715743365510375706e-01,5.505500423540220234e-03,-7.313235061469161753e-03,-1.238142998628403851e-01
-3.948392145242815500e-04,1.899002820126509117e-01,-2.102663420070755018e-02,-1.085839691790689392e-02,-1.639393129415383787e-01,-2.229291004344004928e-02,-8.961365658937889278e-03,-3.306822919983905956e-02
-3.948392145242815500e-04,1.899002820126509117e-01,-2.102663420070755018e-02,-1.085839691790689392e-02,-1.639393129415383787e-01,-2.229291004344004928e-02,-8.961365658937889278e-03,-3.306822919983905956e-02
-3.948392145242815500e-04,1.899002820126509117e-01,-2.102663420070755018e-02,-1.085839691790689392e-02,-1.639393129415383787e-01,-2.229291004344004928e-02,-8.961365658937889278e-03,-3.306822919983905956e-02
-3.948392145242815500e-04,1.899002820126509117e-01,-2.102663420070755018e-02,-1.085839691790689392e-02,-1.639393129415383787e-01,-2.229291004344004928e-02,-8.961365658937889278e-03,-3.306822919983905956e-02
1.479684643304116087e-02,8.298982052702831569e-02,-1.318103383714513410e-01,-6.168059205435198755e-02,-1.753575493531114513e-02,3.567856211042045866e-01,5.605847238289853951e-04,-1.361915606355940667e-01
7.390302422328562815e-04,2.776206750677340240e-02,6.017339312671324825e-01,7.633931455980935699e-02,-6.872319521711882651e-01,-1.106011676774639740e-01,-3.965593082142635471e-03,-1.523317924581116811e-01
-2.669813767351159745e-02,1.705313518071219225e-01,-2.734589626500466553e-01,-5.327539557233360729e-02,1.712799641572983200e-01,-1.549198865740731290e-01,-1.312932543919339591e-02,2.248010065901176746e-01
-6.278886253171293841e-02,1.242964105692071983e-02,-3.976198419194953287e-02,7.844736599709091485e-02,6.393542877447797035e-02,-2.249423688778236508e-01,6.449220676415425013e-02,1.652455518652976019e-01
9.654230978076414754e-03,-4.282255449328158797e-02,-8.551496675732893349e-02,-3.683385439361288455e-02,3.098446590850452709e-01,-1.305103722763774621e-01,-1.722647886606147550e-03,-8.511424128431768765e-02
9.701689090703820642e-03,2.772995216009072061e-02,-3.742470651993453495e-04,6.465689749155191512e-02,1.769991808059407645e-01,5.351927051329762319e-01,-4.327354124377478378e-02,-8.621312567653980352e-01
3.991192466174008427e-03,-4.270543873820156766e-03,-7.415620116905419223e-02,2.400845816260274365e-02,5.340359944024752892e-01,-1.210253028062319575e-01,6.289934038004950378e-02,-2.023708019138897862e-03
4.438940303976394997e-04,-4.764292040622175595e-03,-1.204934681200046515e-01,9.284947514060683249e-02,-1.114652920548030224e+00,8.810389595331494239e-02,-1.333607955732637740e-01,7.050494200492456454e-01
-1.149360873858599891e-01,-4.549068559838967407e-02,2.998468546638308890e-02,2.968828516549861241e-01,1.619184926404839131e-01,8.798882867203143554e-02,1.636014397790067423e-02,-9.844676425261224273e-02
6.516304419748644369e-03,5.780264444370275534e-02,4.406879093129071993e-03,3.630961064980966178e-03,-9.248051798691338254e-02,4.452119961413010529e-02,7.991342374079545788e-04,-9.633677037661431131e-02
5.667231965633277024e-01,-1.270255333583075463e-01,-3.161829075636108516e-02,-4.047512006553134062e-02,-3.710479929673649035e-01,-4.775968970802187130e-02,-1.334307059823950335e-02,-8.829443176769281865e-02
-1.224075382742876028e-01,2.950151396297778089e-02,-2.035677454861133800e-02,-4.927698216965233774e-02,5.827669447038250627e-01,-8.937525912958102503e-02,-2.576908006844217877e-02,1.587204051316774278e-01
-2.854321422699799271e-01,-5.160592137865734064e-02,8.382952313649470744e-02,-4.897496639086971158e-03,4.395515649449536211e-01,3.279222554684711743e-02,-3.235542661416954124e-02,1.654109037606441013e-01
4.695702698151204002e-01,-3.594614182798232249e-02,-3.358823718577490236e-02,-5.838169624696467989e-03,-7.846774654077878219e-01,3.594100620887169615e-03,-4.204409980100312638e-03,-2.036830877977321291e-02
3.617590816197498171e-02,1.963706433256815209e-01,1.430361352935841622e-02,-1.185771124128503634e-01,2.484403364798849420e-02,1.495454317001769159e-02,2.445197796476151174e-03,-3.580995878963674078e-02
4.229430918944488971e-01,-3.163241527497788474e-02,-8.190279889453111473e-02,5.064716591603000972e-02,-4.448412920077146060e-01,-1.235264898141087697e-01,3.865391149274369220e-02,4.727142130772626211e-02
-8.794604162275675152e-02,-1.038083582875043431e-02,5.733670177356155195e-02,2.633678418003168042e-01,-2.080052046642590913e-01,2.124326750277171980e-02,-4.037495831962427395e-02,-1.363446978356153139e-02
3.589253277617061588e-01,-1.063068845494604883e-02,3.394287237781018485e-02,-1.980995809622527679e-02,-4.977088207045334833e-01,-1.146372652656186576e-02,5.893853686550094839e-02,-6.700104470854080507e-02
1.520003530902497013e-01,-6.377426405596417838e-03,-3.645677753757353701e-02,-5.266428643331903803e-02,-4.796153153300132185e-03,-1.177011155735936676e-01,-3.307573523675798322e-02,-8.707700044785851579e-02
3.589253277617061588e-01,-1.063068845494604883e-02,3.394287237781018485e-02,-1.980995809622527679e-02,-4.977088207045334833e-01,-1.146372652656186576e-02,5.893853686550094839e-02,-6.700104470854080507e-02
-2.765934470254807591e-04,-1.220842650452279646e-02,4.497941844860889327e-02,1.505439643214662726e-01,3.018032608995656618e-01,-4.925007838690688422e-02,-5.256263269728381898e-02,-1.419445557091157106e-01
8.899097913172346330e-02,-6.804170478569611380e-02,2.145840873811118432e-01,8.786261912095852389e-02,-1.782892325798159094e-01,3.626607277316639538e-02,9.756602055256778649e-02,-9.946631190411621415e-02
-8.817420753535180900e-02,-3.249147799070174758e-02,-1.042886825206400768e-02,3.458159163426565152e-01,-5.585196788939583712e-01,-5.016516829338269444e-03,-2.237901392338050299e-01,-3.801712083266859526e-02
2.053115898222545310e-01,2.207404625126411363e-02,4.149986848304110937e-02,1.870013776170773578e-01,-7.966371250165774631e-01,-2.421751260233207803e-01,1.636670099369108844e-01,1.642543665161665806e-02
-7.716489005987740846e-02,-9.464846014262532845e-03,-8.279539124032360420e-02,2.873365111738999667e-01,1.463826786874907263e-02,2.720866105932225887e-01,-6.135451221939626498e-02,-2.199154306658770357e-04
-4.002827952634594594e-02,-3.583822479572740943e-02,-7.100642299368493948e-02,1.324933258458601548e-01,6.673588587034744446e-01,-6.121200051210778925e-02,5.205517201135312355e-02,-1.368808580797557239e-01
-7.876221221401203884e-03,-1.095494732862540149e-01,-2.208770861957884968e-01,3.379847764114387587e-01,-2.351222251369906591e-01,-8.427003217211574693e-02,3.178447950749940104e-02,7.155311687042102686e-02
1.537552333589136191e-02,-1.114870250794325682e-02,2.439410550376432119e-02,6.008173816780589677e-02,-2.819489804849676373e-01,-6.847700951489762988e-02,5.397693950618050185e-02,-7.819408820393883297e-02
1.431789114335562177e-02,3.124307099767016302e-02,-4.303426123648115831e-02,-3.959578529314071449e-02,9.702611341096327724e-01,-3.268529686281059776e-01,2.291142125389728293e-02,-1.148020548722571144e-01
2.266281943255534642e-02,-1.013830899059354473e-01,-1.129559792527846662e-01,2.652148910493689060e-01,-1.723394525680486400e-01,-3.471505260318269448e-02,1.353074508218999120e-02,5.814045305139157321e-02
-1.703327506741139988e-02,3.859231899008366828e-02,2.813038585306924105e-02,-1.152913721582801143e-01,5.137731119291230053e-01,4.630560904673639011e-01,2.873751198326688489e-02,-1.589546315865192072e-01
-3.016438774791631583e-01,5.736726112699075397e-02,8.165906227921643223e-02,6.490056784786292499e-02,6.203671868141852341e-02,-1.180534699731240061e-01,-1.563491349653435003e-01,9.890686113788409173e-02
-1.875993100038666648e-03,-6.823124663709981275e-02,4.407423829763740947e-02,2.563288325629705169e-02,-6.237057074107015264e-01,5.122472591454874102e-01,5.174483403241732921e-02,-1.752450050166634854e-01
7.016204640460881048e-02,3.645478603688081382e-02,3.071387187220459697e-02,1.882639877762066760e-01,-1.010798273647024875e-01,-1.134278896930761837e-01,-2.704624505538253953e-01,9.021420974504451573e-02
-1.405129036893736430e-02,-9.079165813981396327e-02,-1.140129974949222469e-01,2.372173121623984693e-01,-6.279767139298406131e-02,6.613235999410983779e-02,-9.065567906962746295e-03,-1.484613456288395028e-01
-1.898345733891699250e-01,1.309417588758471883e-02,-9.111388797723404820e-02,3.336741882977260765e-02,-4.717458434702986314e-01,-1.273066610984890587e-02,2.498435723384220264e-01,6.906186605381577255e-03
-4.984116853048510976e-04,-4.335914444159825326e-02,-1.771238672892059274e-01,6.217947635147235141e-01,3.353716168327322000e-01,-1.510048020244547373e-01,-5.296882935153359589e-02,-1.607040958965695043e-01
1.326433548370463122e-01,-3.742867266001298661e-03,-4.174756064350664819e-01,1.333511692450058649e-02,6.196091736053837007e-01,1.488092308201375072e-02,-1.623120928783959860e-01,2.267401051959958003e-01
1.705297599389495977e-04,-5.765966851658847758e-02,7.658855610827361993e-01,-4.400624660607012351e-02,-6.875166380151991330e-01,-4.727963362704086514e-02,-4.174230798569470574e-02,-1.840002296349820821e-01
-1.048852297727282112e-01,7.476148738246032877e-02,-1.664122735275604115e-01,4.538156683889586762e-02,-8.712662469109130892e-02,3.504035932448161528e-02,-9.213787280957014270e-02,9.498795313023714049e-02
7.329988123612300732e-02,-1.261358455132960410e-02,-1.885041090812202558e-01,2.491999867317106765e-01,-2.083960583344691975e-01,3.550477734433857974e-02,4.530832859702223735e-03,-4.218222414756284816e-02
2.840981365013298121e-02,-5.919632515157580849e-03,-2.142782005860058292e-01,3.093586330347621316e-01,-3.826694190634837844e-01,1.764440091210378037e-01,1.085420774434425403e-02,-1.548223186824621844e-01
-1.331191021904029083e-02,-9.118438049033018855e-02,7.702386344184918021e-02,1.955245534356340742e-01,-2.962040948421902353e-01,4.238903402269969534e-02,-2.826724418248547852e-02,9.142585277204030858e-02
-1.412370233883684413e-02,-8.734605760387049653e-03,-1.169912475195018613e-02,3.956020611419049926e-01,-2.436348401053135652e-03,-3.270215192867890197e-01,1.372856272733546067e-02,-1.173866224962787780e-01
8.902646529802021869e-02,4.365465996412770531e-05,-6.123457044427902535e-02,1.331364418913002223e-01,-2.718592694391889220e-01,6.068656426384622452e-03,3.711497458287217610e-02,-1.180963319307902354e-01
-7.030081398063706133e-02,-3.079725084758602044e-02,1.060632810155410014e-02,2.459597063004042572e-01,9.975536748961466582e-01,5.346790673889757761e-02,-1.669088134042504001e-01,2.114679589333300427e-03
-4.860716081624020862e-04,-3.595143364369951522e-02,-7.201239668847700393e-02,-3.251368936879787432e-03,-7.505080021854593220e-01,-1.020257721779452113e-02,7.115691355624229608e-01,-1.014436588963487235e-01
-1.924972342831993643e-04,-5.718041270410310906e-02,-9.954206010002339400e-02,-3.905845698437242219e-02,3.018489074153684060e-01,-4.322220661736520669e-02,-1.768091952318820437e-02,-2.277678454435017041e-01
1.190766909007743592e-04,-2.544829866432983881e-02,-3.429841251811381608e-02,-3.171396606992392397e-02,2.231707898410438540e-02,-1.891547456178504713e-02,-1.123904915039378519e-02,1.151400833918052313e-01
-1.600305730511508056e-03,-5.495173935687806127e-02,-7.609515085326160055e-02,-5.590519993508542840e-02,-4.367694793228783789e-02,-3.060450813377117371e-02,-2.182248036402201913e-02,2.783889956451160441e-01
7.042099984502226935e-04,-3.407253092254760446e-02,-8.216492159302460352e-02,-2.546958703495756995e-02,3.446040462341317112e-01,-4.892505810632168106e-02,-1.062380172075302366e-02,-3.162083411456646509e-01
-1.022505749730761443e-01,-3.389499529597837096e-02,-4.356446318187377764e-02,-5.475649504792954453e-02,2.277285834725667202e-01,3.118252897256158507e-01,-2.453543109278009601e-02,-1.669588281005684460e-01
2.790000207177904443e-04,-2.526586525008119727e-02,-5.441931585109806985e-02,-2.747201995520640733e-02,3.731391884894139088e-01,-6.851964676232255406e-03,1.010223640497915146e-02,-3.181056276628386192e-01
-1.488106335446658459e-04,-3.835548157841495165e-02,-5.697688592636659249e-02,-2.505964456669536561e-04,-6.780602401991654704e-02,-1.792941404792145615e-02,-2.358390616574725096e-02,1.833970636387359521e-01
-5.675116782728794121e-03,-4.863825518000277487e-02,-5.989410195146244176e-02,-2.463884687563044906e-02,9.043425148829390414e-01,-6.483840389333259124e-02,-4.006289149295961562e-03,-6.006121306472020915e-01
3.176048691803168896e-03,-2.151707924175977685e-02,-1.274520057187749356e-01,1.277827876641933480e-02,-5.781777273900179370e-01,3.060580220059442441e-02,-2.306652925351523192e-02,4.956924905705116791e-01
-3.753701424621941340e-02,1.286912872883947930e-03,-4.267168256184615538e-02,-8.815076378384262973e-03,-1.163125929045017715e-01,-1.629863606083901961e-02,9.053447536590401509e-03,6.868276906300840867e-02
1.882356789804933567e-02,-7.756265945969413947e-03,-1.627150020022045257e-02,-6.820281582413005930e-03,1.152726112755287219e-01,1.789077028376300782e-01,-1.828819434598524460e-02,-2.123485212468258498e-01
7.726586207143624867e-03,-1.767887959253042901e-02,3.418348198684272032e-03,-9.078099255592242400e-02,-6.017678037932391311e-01,1.418659829942700915e-02,-2.286198275721885304e-02,4.071516686751597836e-01
2.274265364906183536e-03,4.367501701489112653e-02,-3.951793578941022872e-02,-9.465821743631794294e-02,-3.994678544355357852e-01,3.621907065584552277e-02,-5.452434596231821654e-03,5.119185130745417256e-01
-1.267154444428342805e-03,-7.116522402981341477e-02,-9.560052822794841421e-02,-8.784417981870734984e-03,5.100380583367382092e-01,-6.763366889851851749e-02,-1.723528314356833485e-02,-4.219773841870042008e-01
-2.326012144199660157e-03,-1.919935560121613372e-03,6.771667424496866095e-02,3.341574115189333005e-01,-5.682131645602642722e-01,-1.539172449702265744e-01,-2.531497919197499627e-02,-3.246503021271190947e-02
3.435259739593362650e-03,5.122127666896948012e-03,3.604680313239727596e-02,1.278443638157767681e-01,1.200427129098064372e+00,-2.714074701025939174e-01,6.190069064661729570e-02,2.268942530203637564e-01
-4.537906120700659941e-04,-1.894988238985002155e-02,-3.661427052963412559e-02,-3.373603257660938437e-02,-6.862547294381379226e-01,6.895239024843059505e-01,-1.006431545490197969e-02,-1.970298488639178613e-01
2.179476767515846954e-04,7.734720498333120045e-03,-2.377042182491928210e-02,-3.802536499835110217e-02,-8.564941406379830147e-01,1.288461977228866628e-01,6.782597775866208711e-02,2.359688506386480866e-01
8.385426434366551052e-02,-2.931481269997876504e-02,-6.314435678128237084e-02,5.269270072472113098e-01,1.594352067693745600e-01,7.445187980880642320e-02,4.767647947270631931e-02,-2.778263471271793517e-01
-3.259659522337229713e-03,-1.615166694850429102e-02,2.637149356741004882e-02,3.985292813680078039e-01,-4.748691714401951924e-01,-1.056784185786898977e-01,7.804911994934646269e-02,-1.300506737698989557e-01
-8.198862216651932322e-02,-1.596606974547417485e-02,-6.793243030387378922e-02,2.698608994836707575e-01,1.183873591913346540e-01,-8.983489689256897448e-02,-2.852564179871315900e-02,3.872831534282137472e-02
-4.261221049353551560e-02,-1.322947168707175672e-02,-1.187334863100996118e-01,3.587917111510566248e-02,-4.502103632470514372e-01,-1.869426471459322003e-01,2.114192575089795800e-01,1.311940052819124125e-01
-2.092087687867118934e-02,-1.493894104954667521e-03,2.008794079503707988e-02,-2.686456729434783669e-02,4.536827889850960638e-01,3.770143743431571964e-02,-1.334187931018939455e-01,-1.121104284734545792e-01
6.355050266376185975e-02,-4.768894706211656426e-02,-3.966456316074870592e-02,-5.956986300838508497e-02,2.933457570639396161e-01,4.025092631000995458e-02,-7.175373034211540713e-02,-1.550998566880575358e-01
1.328037497081802434e-04,-5.544179123208366894e-02,3.613649807692495552e-01,-4.501384510820581608e-02,-1.895991469677027197e-01,-4.955032139854403245e-02,-1.316163275031677349e-02,-1.835807141403947018e-01
9.050992238273430912e-02,-1.506395120528193111e-02,3.790984736132287352e-04,4.897678494032550039e-02,-7.332195529850552562e-01,2.983996686913239355e-02,3.514046819113140346e-02,1.002151347348296043e-02
-1.544347175322641763e-01,-3.513306402989949031e-03,-3.529675995544966083e-02,-6.129743781774402850e-02,7.323206257466344793e-01,-6.527714220040407855e-02,-7.227329277836964591e-04,-2.491064613575626543e-02
-1.010948156779351015e-01,-8.982072980477036339e-02,2.192112865644423036e-01,-2.873555437004334800e-01,3.874198801814399129e-01,-1.644313143514680164e-01,5.338248083779735531e-02,4.339467280593940768e-02
-9.808849931379728243e-03,-7.038708920358391352e-03,-6.823619532175419569e-03,2.128686956549075138e-01,-6.712221716955064921e-02,1.500902685680983051e-03,-2.640395692535604105e-02,-2.287850922114194607e-01
-1.428241143081402373e-04,-2.708260582583498291e-02,-7.723314573533317240e-02,-1.026228624658253735e-01,2.761028015150057136e-01,-5.651166817292532091e-02,1.551930315019956928e-03,-7.213061192916891962e-02
2.832592810988864701e-02,-3.440790028646600277e-03,-5.302065316656253205e-03,-2.224419633685204012e-01,7.223229880098515077e-01,-1.190662415672620253e-02,-2.972621177254286540e-02,3.703665660404521776e-02
-9.062231143947468764e-04,-5.020521198153626852e-02,-1.034964662943825553e-01,-7.850086961084851156e-02,2.830852294076454667e-01,-1.618537252857728953e-02,-2.709390366180446791e-02,-1.392950786689740594e-01
-2.580335179727786914e-03,-1.715884211872292786e-02,-2.976056796808274757e-02,-1.123571894935669890e-01,-3.761791166134832443e-01,2.450341625559523430e-03,2.803030925940681178e-02,3.624092592207108776e-01
-5.429536422089751169e-04,-1.535728469561049511e-02,2.191449939274011868e-02,2.119491839150864070e-03,-2.129210768667825771e-01,-5.714318999503305990e-02,1.978542955211818472e-02,1.934712809943771872e-01
2.266619843989223118e-04,-7.897963945952934939e-02,-6.120327084123231703e-02,2.490871626015037782e-02,2.576401871216137951e-01,-1.033427379085526815e-01,-6.072384871927206983e-04,-1.188358850312300208e-01
-1.527187938100051934e-01,-8.979381843273362418e-02,-2.780534733192974173e-02,-1.000773844026922252e-02,2.739749547028192400e-01,4.397398804397799343e-02,-2.163943799332532919e-02,-4.142960117534155717e-02
-3.640616798916344703e-04,-4.315012263659735725e-02,-1.753388994252572108e-01,1.495882354340771214e-01,2.777343261135746810e-01,-3.191907519058716919e-02,1.500622136070555238e-02,-2.290620926153024706e-01
1.422357889285037497e-03,-1.406189662424645395e-02,1.616017612783918547e-02,7.017192177541381470e-02,-3.359876161518064036e-02,-5.108293596078159610e-02,1.843079219162355523e-02,-3.253621160720098632e-03
-1.061975482931201074e-04,-9.114882984490759246e-03,2.744724184253875430e-04,5.935185606499805422e-01,-9.062682824420289496e-01,1.406694488866331791e-02,1.544901038020420926e-02,-1.610982131578484466e-01
-6.682803657218179538e-02,-1.592383065919182952e-02,-3.669055284145307516e-02,2.093210694450612641e-01,2.694580102011329137e-02,2.314627206861194497e-02,6.238845108829371971e-04,6.526335830204967048e-02
6.690693986676744809e-02,-3.003614342551062452e-02,-5.283821628107617657e-02,1.877484830005962946e-01,1.287380939751695264e-01,-8.644243961724688841e-02,-3.752397040761758229e-02,-4.863844580049928035e-02
-8.445583010067135923e-03,-6.896050163492734031e-02,-3.675774085933697366e-02,4.333548813370092789e-01,-1.094251839105395835e-02,-1.481580036126466660e-01,1.380211845195409605e-02,-2.768985697693532866e-01
8.697921452442341356e-03,-1.647845532209425614e-03,-1.365943308681640857e-02,4.344214082766026941e-01,-7.269001057680261058e-01,7.633430421292976276e-02,-1.936442914129309772e-02,1.991993862160509332e-01
-1.312030669953431795e-05,-2.361867276367888430e-02,-4.715179996047883654e-02,1.373825559636364102e-01,2.394924173311329674e-01,-3.049092110494104960e-02,-1.523175058974539017e-02,-1.260315440918727825e-01
2.839206163199626274e-04,-4.896093206667599500e-03,-1.425377812919448664e-02,-2.826635705461693487e-02,1.660276145207523757e-01,4.937471439284838448e-01,-2.555329182637287519e-03,-1.211330635467968431e-01
-5.195771177296240259e-03,-5.175641250454143805e-02,-2.573505323155633046e-02,1.785076932574631015e-01,-4.424825941959286135e-01,-1.758079958520916419e-01,-2.997641575987672162e-03,3.232804421630778857e-01
8.333240291378234263e-05,-1.880157518396063238e-02,-4.061219395787619979e-02,4.032401379152984466e-01,-3.645803921066119724e-01,-1.439291719705624098e-02,-1.879313347039126766e-02,-6.937459166901271956e-02
8.333240291378234263e-05,-1.880157518396063238e-02,-4.061219395787619979e-02,4.032401379152984466e-01,-3.645803921066119724e-01,-1.439291719705624098e-02,-1.879313347039126766e-02,-6.937459166901271956e-02
-7.527604775107166191e-02,2.704882400663122938e-03,-1.556694596966323382e-02,2.758621751995446979e-03,-2.880376572395907386e-01,-1.323680333773524266e-02,2.279718771352040041e-01,1.263823250150394352e-02
-2.389695521111718790e-01,8.130607418043779913e-03,1.968560237978818905e-01,-4.226013969519844260e-02,5.879207059984888906e-01,8.069857911584302212e-02,-1.451011496917490110e-02,-2.475868584038143916e-01
9.273775467717879778e-03,-6.413609836520402230e-02,1.430699334644095454e-02,1.225423384692696238e-01,-4.597106565240409171e-01,-1.608473871492976104e-01,5.312167707393917332e-03,7.269179548522533563e-02
1.578823342501053245e-02,1.700318435483593946e-02,1.528130756290858351e-02,1.012682795301722838e-01,-2.751356713601628701e-01,-1.236250543739550109e-02,2.445978943016742166e-02,3.462840801084408893e-02
-7.865269572334044126e-03,1.228169935228462907e-03,4.197022104806980708e-03,1.785895486280338756e-02,4.764909546601677204e-01,4.455076984051799249e-02,-1.183737574578293435e-02,5.086918869170762442e-02
-8.052358991224663892e-03,-4.501429863497961870e-02,-5.396216210842143951e-02,1.303027728413531580e-02,8.689838939667609424e-03,2.412454012427723421e-02,-8.911067274072540650e-03,-2.582749526317214550e-01
-8.793010241098291047e-02,1.405058869645032203e-02,3.661289905197319672e-01,1.200617771508164233e-01,-4.951556766353347183e-01,-9.847087032671859863e-02,-8.679123511095568344e-02,-2.107679663719816063e-02
1.914540891551117646e-02,-9.815288007118780356e-02,-6.682683663769214966e-02,4.663096385982423153e-01,-5.228497863066015050e-01,-3.503113395888807907e-02,1.777293226211481766e-02,8.773672639706328602e-02
-1.846973597888058177e-02,9.077854439054586222e-02,-7.678436680852260277e-02,3.294215485613315453e-01,-2.054044779587954062e-01,-4.057393714386285655e-02,-2.345084293302329009e-02,-2.247074970005691341e-01
-1.793477947570817216e-02,2.146679772435207759e-02,-1.145711136438559360e-02,1.592438474754517830e-01,-4.279528629321358579e-01,-1.597010189479642489e-02,7.532105313349945694e-03,1.683374338479904642e-01
1.413792200316880097e-02,-1.871722754665072069e-02,6.981355317690877797e-03,1.708734313524380433e-01,-3.115746848589269757e-01,1.053866653558797051e-01,-6.734581913788693919e-02,6.729406585855893241e-02
-8.199804745218705962e-03,-5.049111169230145052e-02,-2.465503270633601085e-02,-1.565954733469689109e-02,-3.400949989394455031e-01,4.649377261115543447e-02,-9.639523820324484224e-03,2.326151523723321846e-01
8.563745644539391688e-03,1.429145820496629214e-02,1.383730801052615311e-01,2.995602169640456183e-02,-1.518642336668054801e-02,-1.251923935202731153e-01,-2.369223327656862221e-02,1.261942790329010911e-01
5.842334891257399939e-04,-8.719395255560650343e-03,-8.847533007037253205e-02,5.516821302927375770e-02,-7.185761365972653802e-01,-4.961719176336548687e-02,1.743189683349113950e-01,6.695647887280875565e-01
1.232390150083065988e-02,1.545640602579780032e-02,3.428094253702806266e-02,2.252282972218750123e-01,6.676314858903061866e-01,8.250566173748254475e-03,-4.245368782761278770e-02,-7.174916024990308783e-01
3.340031817688856597e-01,-3.001106816317781339e-02,-7.643293211680204924e-02,4.316196963475166411e-03,-2.973885310059144471e-01,-1.459219497664279198e-02,1.385984167701073966e-01,-1.183099797325989772e-01
3.657020460337914725e-01,-2.115544174215424136e-02,-2.828125780576157267e-02,-1.478713408962228637e-01,3.974640534618639753e-02,1.393972598550148080e-02,7.930707152790280809e-03,2.932959800643716169e-02
5.684650167841718282e-01,1.209824278659042207e-03,-4.860305028865252036e-02,-1.001253111839063986e-01,-1.293448867322962437e-01,9.215672083861476196e-03,-1.448885902961601635e-01,-1.015206943583446819e-01
8.814840862746065508e-05,-4.486278301058378715e-02,-8.329668234205662991e-02,4.763876177036750481e-01,-7.389045855812136354e-01,-2.463907702387797827e-02,-1.517682384114485070e-02,-1.029576290947938205e-01
6.490742734204596465e-02,-2.473442829051496900e-02,7.820208222506234985e-02,-1.779964950882962915e-01,1.146803211822698954e-01,-4.021880834047535797e-02,1.253351698064196218e-01,4.427557107645327394e-02
-1.896701949606151988e-02,-9.352837163784086250e-02,8.063450753666055737e-02,-4.024109207220525133e-03,5.000534504535746327e-01,-1.956544017506326241e-02,-1.090785457586685714e-01,1.077462279810391665e-01
-2.019383333141245573e-01,-3.373338516842753348e-02,1.108465782119089915e-01,-7.934018260802937206e-02,6.018052779277809350e-01,5.289001510555622204e-02,2.318014510521628629e-02,3.052657075561809874e-02
1.117121427613033402e-01,1.164632475432487296e-01,-3.864306687233311222e-02,-2.188455125703129070e-02,-2.602795347453845665e-01,-4.145232097938546939e-02,1.576298456017481420e-01,-1.198694075702845530e-01
-2.321411047972966532e-03,3.466498899404023282e-02,9.047564505103264376e-02,-5.107520361406754639e-02,-2.787278281013790826e-01,-3.598850110407406100e-02,-1.020359868970634326e-01,1.366183030329612500e-03
4.477459451592014777e-02,-1.401113182522066569e-01,-1.886696914375741302e-02,-1.204667614823342198e-01,4.019612917597211177e-01,-1.302185157497205703e-01,-2.780928997730007166e-02,-1.239828602948760405e-01
6.387432829603314488e-01,-1.067429797056209523e-02,2.561114415667972710e-02,-5.827146451428931624e-03,-5.489016159953733487e-01,3.091216905581976176e-02,-1.302722134919653829e-01,5.201555165721679502e-03
-9.744799583883942407e-02,7.890173435703758120e-03,-7.158938716357543704e-03,3.559814686900680814e-02,2.524674959843512534e-01,7.121271493898334581e-02,-1.128036603042180744e-02,-1.866793878211892299e-01
3.084160815729677929e-01,-6.165497308979143998e-02,5.466048021453954325e-03,-9.455706233695387181e-03,-3.341512038933536211e-01,-1.476290843972857467e-02,2.151576489134541387e-02,-5.774232045182924045e-02
3.084160815729677929e-01,-6.165497308979143998e-02,5.466048021453954325e-03,-9.455706233695387181e-03,-3.341512038933536211e-01,-1.476290843972857467e-02,2.151576489134541387e-02,-5.774232045182924045e-02
3.548897390881149416e-01,-9.893586951140421418e-04,-5.706491021768004407e-02,-5.043243692187018151e-02,-2.001640254675098041e-01,1.001807518488749410e-01,-3.464146235583096672e-02,-8.078454297840603759e-02
5.580241880557395007e-01,-2.403325844107535858e-02,-3.539888137332992263e-02,-3.829252701252862379e-02,-6.076053066332109953e-01,-3.207551245582819510e-02,2.672090489944952546e-02,3.137708623270594327e-02
1.115353925231602067e-01,-7.172957979492730618e-02,-9.491402214291190520e-02,-7.082237226448731549e-02,-1.611770810045606572e-01,-3.015108770636277732e-02,4.183787942375827851e-01,-3.488530831520307851e-01
1.774294499744641374e-02,-3.239397467510300721e-02,1.931089337889263791e-01,6.419589953115256709e-03,-5.594861995590467707e-01,4.640462064402990638e-02,1.766504737781408596e-01,2.284601420704585745e-02
-6.485459359513749689e-02,6.580532721551156546e-03,-4.888881441039915482e-02,-1.850467204637005758e-01,3.229288019571417978e-01,1.384148407817869519e-01,3.697811999824296425e-01,-2.155728961440206426e-02
3.221120159748609149e-04,-2.296462694732809631e-02,-6.578165398751491255e-02,-8.001911083496762722e-02,2.336074284070873419e-01,-3.524478233586387371e-02,9.537773950521985511e-02,-1.162200969694331121e-01
1.576207393919178135e-01,-4.260750172942221609e-02,-8.749580933564728158e-02,3.346758146945275625e-01,-2.792247388491179150e-01,-3.611896925034925685e-03,7.135078277987672371e-03,-2.342385689624577050e-01
-1.127042689232525194e-02,-1.694530225228381426e-02,4.032391443816878973e-01,1.826751239966820095e-01,-2.408196858998421508e-01,-5.163918289844349196e-02,-2.103532070499386682e-03,-2.502284918789823842e-01
-1.301831325148353723e-02,-4.129841505763874880e-04,-1.588869905193511789e-01,1.197751700970230287e-01,1.155212221604632994e+00,-2.227125816577218281e-02,7.317655434401675041e-02,-1.983099387410511838e-01
6.386629007784644244e-04,-2.234996372779644858e-02,6.595106462501221234e-01,5.211097516371817479e-02,-5.487309072380781583e-01,9.816704833163278701e-03,-1.774958106140254316e-02,-4.110580279953797711e-01
7.508217664962323025e-04,-1.058099839419938265e-02,-1.743607969275606240e-01,4.569056789956416759e-02,-5.690441276859512509e-01,5.935018902206725538e-02,-2.791337628474579308e-02,5.741239099147616987e-01
-2.835543609682761139e-03,-3.128591630953404812e-02,-6.992766265301400552e-02,1.697203413259375238e-01,-3.119591107937657037e-01,3.564025069565447679e-02,-2.123407239782641037e-02,2.552659263695059022e-01
6.209544790492894234e-03,-9.638685935840263924e-03,-1.430517151158527608e-02,3.064892656494898615e-01,4.057756475119780881e-02,1.882667820011712373e-02,-4.628794683062451704e-02,-2.215114729219256340e-01
1.852195549508711403e-01,-3.739039030374779939e-03,1.572266083196381756e-03,1.884490053403715115e-01,-1.657158093696492196e-01,-5.047486781432586334e-02,-6.370551489663642329e-05,-4.787377174438704752e-02
-4.034650502468240529e-01,-9.421434152096448689e-02,-2.047273168680300431e-02,4.324242850059449306e-01,-1.633949879030335492e-02,3.096898227866537543e-03,-3.511517540048801709e-03,8.389141348101217255e-02
1.075809204416337816e-01,-5.152819160618294161e-03,2.735758804034141289e-01,1.708432193669391919e-01,-5.192985106174476950e-01,-1.852318811842873156e-02,-4.825008942656892419e-04,-2.005033196352338509e-01
-1.225374692296732626e-01,-5.157910060264551261e-02,-5.928704758193259483e-01,1.193891328916984323e-01,5.745402231501415269e-01,5.268420648439310627e-02,1.343756793066441801e-02,7.977464475423330648e-02
-4.746317827410054813e-01,1.349818733732350284e-01,2.173036838638145798e-02,9.959921158614992720e-02,7.337099494259696764e-02,4.219758765206693685e-02,-6.873187988587155066e-03,2.579249227382432452e-02
1.017645098477597820e-01,-6.850146577472047971e-02,-9.229262156170423004e-02,5.964216642057024176e-01,-9.539777862118736795e-01,-8.986596677762286045e-02,6.096115629032403463e-03,2.322097943661266817e-01
-1.352449792924948282e-02,2.108108010561597356e-01,8.929526658782654946e-02,4.816176559176942040e-02,-1.821484595986082033e-01,-2.244354018573184711e-03,1.161484709406321661e-02,-5.065759348073861634e-01
-2.090561101237869701e-01,2.205522099218790513e-02,4.687768213884593860e-02,1.202379290581850543e-02,4.745945665362266697e-01,-1.011562304042229188e-01,5.353932291302704316e-02,3.214423486754330317e-01
9.741710992156991933e-02,2.180466015942799513e-02,1.031470426635502091e-01,1.383665613493763324e-01,-7.199768487825261021e-01,-2.093396521991180426e-01,-1.141209657759642733e-02,2.651534320808651701e-01
-2.019208064608833328e-02,-2.336108337436107810e-02,-9.020730975567092802e-02,1.667716928221098793e-01,-3.608849120584933234e-01,-2.082178949522775491e-01,2.709093084616859826e-01,-1.985852507312399762e-01
5.736057899492908244e-03,-1.255623908360186357e-02,7.987070842583617047e-02,2.421674744269701196e-01,-9.335431947670221747e-03,1.119954055632661760e-01,-1.571404820084594811e-01,-4.291646793662781123e-01
-4.260995466045235938e-05,-3.131468219523341617e-02,-2.408949574612232955e-02,5.452802591996900455e-02,-7.334367218084323348e-01,2.770021471229325294e-02,-7.580379872743614467e-02,8.226350206736489090e-01
7.465042242293198904e-02,2.095446995990892999e-02,-1.357894357809454333e-01,1.868576863348451744e-01,1.762776333611211499e-01,8.058042680767864285e-02,-9.360304105361960669e-02,-2.137228961538692462e-01
-3.545365254878296568e-02,-6.001811445506041905e-03,-2.508537181004973915e-01,-5.287790465945350210e-02,3.861169702956905869e-01,4.062819319838847365e-01,1.919682825606624510e-01,-6.694181212095975941e-02
3.848253404818211768e-03,-2.895568697742124595e-02,-1.111864200777888945e-01,-8.313937172398351561e-02,-5.275846195800755201e-01,-2.552867719225630494e-01,3.696292221753959550e-01,3.373746329579833669e-01
5.206111187407656132e-02,1.922573403890626142e-02,4.220001264377721273e-01,-8.881855814008143835e-02,-2.360133203473327723e-01,1.181587349747429821e-01,8.466145914537706596e-02,-2.005334389335688416e-01
1.340612852755319623e-03,-3.063113364503586983e-02,-5.757154882024926451e-02,7.982518642425744104e-02,-7.276446377847971547e-01,-2.500037990161944543e-02,-1.802422408464007114e-03,7.046763837762067828e-01
-8.664761706632492788e-02,1.623248385603549837e-02,4.856127811701069219e-02,1.859009950779180187e-01,-1.561423554927133250e-01,-8.285350564748375501e-02,-9.542158339989724458e-02,-4.405166204787145934e-01
-1.638506315797542690e-01,-3.586966642948842543e-02,-7.912595038055517116e-02,3.037236750835414223e-01,-6.175520627188945191e-03,-4.054986013500699871e-02,6.231887466446899004e-02,-1.168239631118250105e-02
-1.102766720354650051e-02,-1.053100584745004509e-01,2.997127758650567353e-01,1.815586996720593704e-01,-5.243424549553525882e-01,-3.485514570384479205e-02,-3.807898939378564357e-02,-6.512174992609653934e-02
2.017801660977840280e-04,-3.334846731953237942e-02,-3.730159797717892689e-02,5.311790007305657035e-02,-7.030862119679498479e-01,6.957042870086797004e-01,-1.108559049573332005e-02,-1.960654500093066965e-01
7.983744555826973507e-04,-1.538125551525478495e-02,-1.901152182646565977e-02,3.647059495963110853e-01,-2.197064100099634931e-01,-4.344568331967985086e-02,1.021930523657775709e-02,-8.819381740480344845e-02
3.148033781142125370e-02,-3.149538373157290128e-02,9.458586620197735606e-02,1.567670768727720820e-01,-2.392670795989021160e-01,-2.895077497344749062e-01,-1.884894021618094273e-02,-5.737758336673363935e-02
1.200072702676341883e-02,-4.197316405977123688e-02,-5.623878833155951038e-03,1.572711317926500374e-01,-5.108104748791434530e-02,-1.265300584432587673e-02,1.219327397384071046e-02,-2.407455623362039776e-01
-1.363578945564316355e-03,-3.046981460691600835e-02,-4.192714385516511932e-02,3.168849316752207074e-02,1.148719315498626312e-02,-2.073428609303796730e-02,-5.839980925348581264e-02,-5.157161439588975327e-02
4.459642580556230785e-06,-3.960438729028593202e-02,-7.126319869922222161e-02,-9.642420641377305590e-02,2.557144846211101274e-01,-4.279636192427727776e-02,-5.613253989200869560e-04,-9.478872353433845377e-02
-1.199542984621601305e-01,3.297220075717881196e-03,3.525945183652896830e-02,6.328354593532504839e-03,3.911382938594521463e-01,2.100658634356253052e-01,-5.581102473546946385e-02,-1.426199514620281050e-01
-3.144881321040187035e-03,-1.267182867085216678e-02,-4.213116234940175037e-02,-9.465247390817478623e-02,-7.287858044556770887e-01,2.994635207629150336e-02,-8.500308462727586972e-03,7.099521106911784729e-01
7.359401777934215967e-03,-4.308891031570720453e-02,-1.443877194236780140e-02,-2.108104809276943603e-02,9.535242502972796075e-01,-1.015603235447263553e-01,2.239948874159732733e-02,-6.008032932435478646e-01
-1.945744453360855704e-03,-3.008026303721880734e-02,-1.471251529276530190e-01,-4.916558525766219490e-02,2.401687006626736509e-01,-7.844227108652124247e-03,-5.868588221880014465e-03,-1.933758620867563616e-02
1.916798369984990934e-03,6.431807452414150736e-03,9.302810638009767485e-02,-4.541491546314659067e-02,5.120634721178319096e-03,-2.106705236350624871e-02,-2.159797339852981279e-02,-8.251841748507210417e-02
-9.713344826484036215e-03,-3.337187892317060312e-02,-8.504807686039002335e-02,-6.387799617259085072e-02,2.247826127777728666e-01,-1.380546514426457538e-01,-1.013259745932774437e-02,-2.779038802597328869e-02
5.243363452854776785e-02,2.609759241415027936e-02,-3.737278973602019549e-01,-7.913563388287513101e-02,6.933540855100452927e-01,2.797676271421906669e-01,-3.819187603870405345e-02,-1.374311612983790953e-01
1.521158820803832357e-01,1.345788208830701535e-02,-4.307487858139127240e-02,-3.962728245288408419e-02,4.367722598075449159e-01,-1.567014215855264125e-01,3.023213281436733929e-02,1.425783755956876175e-01
3.391306079903350645e-01,-2.076105199713709076e-02,-1.626570942269086814e-02,-5.800655505327867445e-02,-2.763833730411338063e-01,-1.092617443227148211e-01,-3.121093916914882693e-02,1.180032705421914380e-01
1.550168056317174359e-01,-6.168209141833323750e-03,-2.922955233793150722e-03,-4.167330204452100728e-02,-4.376968455278184567e-01,3.980115176692745893e-02,1.747465727802339358e-02,-2.494980004942613794e-01
-8.974273138259274965e-04,-1.937483457866516837e-02,-3.388698586814670871e-02,-7.096374594047873130e-02,-6.972519080939462155e-01,7.604666287333251562e-01,-4.721142555914593919e-02,-1.547450369334003040e-01
4.311125516002798364e-01,-2.756739512441700596e-02,-5.280233474646685299e-02,2.045077780878329018e-02,-6.191242194945297816e-01,-3.052532772111372222e-02,1.181993364123305329e-01,-3.568610953460881613e-02
-8.541746514408946056e-02,-3.110273179607479441e-02,-6.756683098168562995e-02,1.920353486451800012e-02,-2.591558277940358979e-01,5.897331166919214107e-01,-1.523813357092762832e-01,-8.639514678639911849e-02
4.445989077757449282e-02,-3.036853919191577836e-02,-9.099023290442773484e-03,-1.462834662651940967e-02,-1.535008493870528290e-01,-4.473791342752856531e-02,1.363097807687077001e-01,-7.062298134715437430e-03
4.445989077757449282e-02,-3.036853919191577836e-02,-9.099023290442773484e-03,-1.462834662651940967e-02,-1.535008493870528290e-01,-4.473791342752856531e-02,1.363097807687077001e-01,-7.062298134715437430e-03
4.445989077757449282e-02,-3.036853919191577836e-02,-9.099023290442773484e-03,-1.462834662651940967e-02,-1.535008493870528290e-01,-4.473791342752856531e-02,1.363097807687077001e-01,-7.062298134715437430e-03
-1.123622219453602328e-01,3.055795960094337838e-03,-4.376613537862091008e-02,2.360400350925008495e-01,-5.613070125285042344e-01,-1.020691746485069135e-01,9.628173277363166749e-02,-5.182732290078016779e-02
-1.123802197592188161e-04,-3.476774415856150047e-02,-6.615232964358522261e-02,-8.173045301005549268e-02,-7.327519706041141223e-01,-2.519989542916835704e-02,-2.697907960819392881e-02,8.622246288069744802e-01
-8.420594697501981407e-05,-1.393327502411129473e-02,-6.185442956772858880e-02,-6.856944736068848467e-02,-7.470990826758578951e-01,1.917147534470023951e-01,-1.900559247549698377e-02,7.606505161098169321e-01
-9.069012940824442218e-03,-2.891235075736334204e-02,-1.792360728397224545e-01,-7.993651317314537375e-02,-7.322801197794412964e-01,7.271139042140405129e-02,-5.595400006472501294e-04,7.423249674939509379e-01
2.822739035532636186e-03,-6.172747673595239959e-02,-1.512538612258062243e-01,-2.187054865282960225e-01,-3.042257027123605462e-01,5.020188208676233665e-02,-2.470796341328137125e-03,8.610003484319748157e-01
-1.963652698678610819e-03,-7.341352008025036138e-03,1.363386583241004701e-01,2.311152494419465436e-02,-2.958395251343594601e-01,-3.617812263116854110e-02,-1.553246043587823075e-02,1.778694694649249342e-02
-1.728559861633037877e-03,-1.104033184812724250e-02,-7.951056178555535037e-02,-1.077690190374073209e-01,1.387638165814158719e-01,-1.452891020931753631e-02,-1.270660356533633538e-02,-3.482739630041509216e-02
-7.245113619235756387e-05,-3.249609824383111606e-02,-9.212403031875721071e-02,-5.744986165728190042e-02,-1.997511196652657639e-01,-3.501114132645755106e-02,-1.566389759425802775e-02,3.325764697529889902e-01
-1.370419389541639374e-02,-1.877719969518340179e-02,-4.201849122414522131e-02,-1.373440749620228885e-01,-4.274297972721117778e-01,-8.445877016105506063e-02,1.947386993849009595e-02,6.639474641151366097e-01
9.223419521379649585e-03,-1.238812085752071489e-02,-5.990413794293893840e-02,-9.728329027575689791e-02,3.005808861719104774e-01,-4.659303721879173854e-02,-9.031375233742856140e-03,1.962899997493904036e-01
1.293082085128993176e-02,-1.961960761681274742e-02,-4.951891816521304668e-02,3.006015401832266040e-04,-3.015968635203272186e-01,2.437245745253151935e-02,-2.853033647872854628e-02,3.273731125358785854e-01
-8.586396386395370173e-03,-5.287419059940375726e-02,-8.313794675824537350e-02,-9.364084945294995355e-02,-8.757223017019126754e-01,2.206502016022821311e-01,1.168289996404462284e-03,7.502542848034255973e-01
-1.775168907679217577e-04,-1.124993949552536773e-02,-3.115777796896867027e-02,2.419089220402611661e-03,-7.389300988613723975e-01,2.037669419312077707e-02,1.820007045625512705e-03,7.766259468971348223e-01
1.776366483376610669e-02,-9.668669859101249736e-03,-6.076357556054458320e-02,-4.748172928705634253e-03,-2.737790270126439496e-01,5.551261355665506464e-02,-7.327784591358141655e-03,2.325842555092997033e-01
1.369364910333663830e-02,-2.742093754612889150e-02,-1.125497212348000077e-02,-1.701839251666251163e-01,-1.775199612644886571e+00,7.146463571922076485e-02,-1.278748399483216613e-01,8.956055065974647400e-01
-2.039536008555502549e-04,-5.226463608252050926e-03,-1.815992598854408377e-02,-3.681470151511534450e-02,-7.462231171879507574e-01,-2.874224312142284986e-03,-1.390076789266163869e-02,7.033201818007572825e-01
8.847969237603021259e-03,2.196276920107226860e-01,-7.136087950898784352e-03,-4.714267468058262051e-02,-1.009504505035349886e-01,-8.061145356837343123e-02,-7.962627466510248733e-03,-1.145086513765140868e-01
-9.926835055177492956e-03,-4.794776253052795284e-02,-4.189706704151988786e-02,-4.359834942276664960e-02,-6.175690655229231218e-01,4.103083643753430328e-03,-6.922222688978581229e-03,6.680747587044906233e-01
-1.207922461833094499e-02,4.564658694176799460e-03,3.180447510951869144e-02,-7.161088983056621005e-02,-4.107073469648991337e-01,-3.215190237520500205e-02,-1.001943480123333903e-02,3.785238193407277629e-01
-2.470498403432609593e-03,-1.399162172586944641e-01,1.717522353452450301e-01,-3.410905468226082399e-02,-3.027366629369713236e-01,-5.474516061854395321e-02,-8.587681203166967411e-03,5.320461861511540658e-01
-3.974425717763236288e-04,-5.221891988861175615e-02,-5.974260873660078991e-02,-4.073598245942311458e-02,-6.995892469320200702e-01,1.353259619061149277e-02,-3.287638208444559201e-02,7.876662362123435512e-01
-2.385001135856543719e-01,-5.624571894639834868e-02,4.373866160555619359e-02,4.181556798041329015e-02,-3.958573612637606987e-01,-1.474024892519898711e-01,2.777951911903266471e-02,5.150817238868525827e-01
4.778233507756642767e-02,-3.897408459899280586e-02,8.005897463635272548e-02,3.840710009894306443e-01,-6.352379211800494030e-01,-1.155787630007371058e-02,-1.883348263578620702e-02,-1.177188954746588856e-01
-6.698143571261479245e-03,7.351399850402449629e-03,-4.511339023991459835e-02,-1.103210938761730320e-01,1.185739435321441659e+00,2.583769370542545740e-01,-1.655792277793457223e-01,-9.742092952767147929e-02
-1.899103635641828311e-02,-3.857484370202925172e-02,2.794672972296606203e-02,6.767235081852969632e-03,9.170845015589750293e-01,4.360316935267644078e-01,6.093291590019285844e-03,-6.487364519470114610e-01
1.025484117292091157e-01,-2.823348030104573178e-02,-2.724296146057999385e-02,8.126905174533624598e-02,6.373591082396304341e-02,4.238473100772566227e-01,-2.258460311379511740e-02,3.947099821552364773e-02
3.515503793442550928e-02,-3.490581496405010392e-02,1.838680122110358806e-01,-6.044234857708845332e-02,-9.808792234815401356e-02,4.390365633234877274e-01,-1.502758403436837420e-01,-1.125280921212077068e-01
1.880701628261198359e-04,3.108108639092845363e-02,-1.109831479601254972e-01,1.657122807072311174e-02,-7.510097426647786012e-01,5.112239903359536708e-01,-2.178279406657800815e-02,-1.220402259272541055e-02
-4.442741598163055705e-05,-1.318485756961029244e-02,-2.366418767193503164e-02,-8.751208584099692822e-02,2.923942539813144115e-01,-2.050744666310362965e-02,-2.561057314857105235e-02,-2.143390489175863445e-01
1.302864957105984243e-03,-1.333609321278410829e-02,-2.381405787641033972e-02,-1.306750341741352850e-01,-5.525117169646955873e-01,9.056357126422327486e-01,-1.161711007219551686e-02,-3.257575408739529221e-01
-1.914346684031701523e-02,-4.613789605550725099e-03,1.024659842573420604e-01,-6.036763734934395137e-02,2.374350884163999587e-01,3.780469323644858326e-01,-3.083070568061116457e-02,-2.647370640353738924e-01
5.727407354678119150e-02,9.218658608688366438e-03,-6.495123329096938458e-02,1.838575303610024900e-02,-1.956827640896767473e-01,3.306931887266441050e-01,-3.351937555995000186e-03,-1.153418532994781864e-01
-3.731895486006362589e-02,-5.443554636247018713e-02,-8.670444457445375397e-02,-6.968962802932342562e-03,-7.624535409556978394e-01,2.040618396257057321e-01,1.949806114248368904e-03,2.405304519181894474e-01
-6.410593256061848655e-02,-1.543615549270259749e-02,-1.425290780580972805e-01,1.307514065881297816e-01,3.182053446029572408e-01,-2.570362464907017391e-02,2.933643541768727312e-04,-1.239640686180316052e-02
2.293695315299441179e-02,-6.687121868856939211e-02,1.578874031931020716e-01,2.571790593235814826e-02,4.420143449238933542e-02,-7.996128551320985656e-02,-1.252572993805881330e-01,1.655531184025962332e-01
1.058685038070162135e-02,1.725240695866997465e-02,-3.941040268850203032e-02,1.499344323069824736e-01,-3.939327556478784964e-01,1.060851729812759964e-01,2.883747685458337012e-02,-8.189103724738414081e-02
-6.566690377054701377e-02,2.616900512538598931e-03,1.478824537925533568e-02,3.897817335200900457e-01,8.618489618914444705e-02,-3.925776539995682463e-02,-1.417109392319762171e-02,-1.032129286302069932e-01
-4.763518662548407723e-02,5.234062313546252593e-04,-1.320549347547191610e-01,4.033112595234597531e-01,-5.839341288537008845e-02,-8.285467306929812648e-02,6.062366075127821954e-03,-7.350963073485748678e-02
5.638504670773001465e-02,-1.516261322754294816e-02,-7.792431265548004429e-03,2.729608170584093552e-01,-6.585562397700404080e-01,-3.208470084450143478e-02,1.352740139748972482e-02,-7.099921258170745209e-02
9.536783751746784679e-03,9.229836602573615947e-03,-3.978642145501034427e-02,2.488541885007527765e-01,-1.256594245564708057e-01,-2.637805675413558773e-02,-1.251283325055885243e-02,-2.110876598217210215e-02
1.339038207708562189e-01,-7.934765073065010513e-03,-1.965581251686282158e-03,4.422164184466795267e-02,-3.793367978348374803e-01,-5.615749315525705304e-02,3.235221958772274004e-02,1.144112220407471694e-02
-4.684826295598305823e-02,2.439244983011656931e-02,-3.199399018946236239e-02,-2.410662855765659598e-02,5.328968152135714620e-01,5.706644090365841845e-03,-2.604023464804857552e-02,4.989044659953528749e-02
5.250177979114538374e-02,1.663132656952739236e-02,-6.688349802715405634e-02,2.042147358131571333e-01,8.248063441906910986e-02,-1.939467864576593370e-01,-1.669693306198604191e-02,-1.975878303612018383e-01
5.250177979114538374e-02,1.663132656952739236e-02,-6.688349802715405634e-02,2.042147358131571333e-01,8.248063441906910986e-02,-1.939467864576593370e-01,-1.669693306198604191e-02,-1.975878303612018383e-01
9.031477569671546302e-02,-3.047970187955385477e-02,-5.573054861778834607e-02,1.026703729918383712e-01,7.749849398750227603e-02,8.076685824503658517e-02,-7.959603632599907344e-03,-9.192382524910983066e-02
2.998635668239431687e-02,-2.040250095233443403e-02,1.971703150942589189e-01,-2.169387130586408058e-02,-3.047997175574306827e-01,4.114668155364337165e-02,-2.248115110225699237e-02,-1.347628541444687023e-01
1.132332697172040714e-01,7.305715281593748271e-03,-1.024276236692667902e-02,9.637237436421999814e-02,-1.405945762489746731e-01,1.449634548308279848e-02,-5.738116310950500815e-02,-2.856088308702726605e-02
1.132332697172040714e-01,7.305715281593748271e-03,-1.024276236692667902e-02,9.637237436421999814e-02,-1.405945762489746731e-01,1.449634548308279848e-02,-5.738116310950500815e-02,-2.856088308702726605e-02
2.977639195039932796e-02,-1.815084268666203315e-02,5.889159810371815545e-02,-7.743590119123316962e-03,-1.760351394692527549e-01,6.492652859298067569e-02,-5.842056829474988333e-02,1.067952043229460912e-01
2.977639195039932796e-02,-1.815084268666203315e-02,5.889159810371815545e-02,-7.743590119123316962e-03,-1.760351394692527549e-01,6.492652859298067569e-02,-5.842056829474988333e-02,1.067952043229460912e-01
5.252551956987986520e-02,-8.770285829443402043e-03,1.068888600013567780e-02,-1.948054285678064296e-02,-8.854149903501532665e-03,4.388041012593748430e-02,-2.936769360661386011e-02,7.809540707106045476e-02
-7.755537735186480985e-02,-3.380423377557129679e-03,1.103046686048300418e-01,1.171870930401086586e-01,-6.824734296817420998e-02,1.460459295992893591e-01,4.998480244020482230e-03,-4.730282552884150782e-01
1.022989708575873929e-01,6.475719543010012829e-04,-3.686182338178570217e-02,4.008227524302470646e-01,-5.179919100273412402e-01,8.635161990335814275e-02,1.195379414474442153e-02,-2.186731583777553889e-01
-1.461269566038953492e-02,-3.409869951225451279e-02,-2.794381759661939552e-02,1.849545278245544599e-01,2.969330447789605282e-02,-2.004245247733977831e-01,3.745225740039252130e-03,5.786337336926457298e-02
1.207383286375684622e-01,-5.276519312238353576e-02,-3.738798325176174719e-01,-6.926823019272021834e-03,1.034212869221176889e-01,4.489710517206411261e-02,-2.807571170907675190e-02,1.359502839749656966e-01
1.402216354857229071e-05,5.824280578331452185e-01,5.953616064984847966e-01,-1.137390997958372119e-01,-7.076960833563610276e-01,-6.603923025759328436e-02,-8.097158283661146788e-03,-2.004080857728334775e-01
1.039462490168624048e-01,1.765206476182100970e-01,-7.558980518660457504e-02,1.897576693042576229e-03,-1.049490957468089680e-01,-6.455228609015659091e-02,-2.660893456320109198e-04,-9.632172900945107363e-02
-1.110243960555568066e-01,3.513708400951713884e-01,1.423330867847098780e-01,-5.410111226267283469e-02,-5.182971860698539768e-01,-3.067477559366147549e-02,1.610779236031073883e-02,2.978365313786569477e-02
-3.487720848195267620e-01,8.888038825213094921e-03,6.001230799785391146e-02,1.088617912748989294e-02,2.796079413576224582e-01,2.531511140294951528e-02,2.251243334175532379e-02,-1.094854401630091234e-01
1.719653119834727573e-01,2.464669466603377490e-01,3.044166367121042827e-02,1.745348963516486773e-02,-4.876186483606083089e-01,2.808102688290763441e-02,-9.673806457875125386e-02,-2.424188302448037624e-01
-1.944693200560125958e-03,1.298861122737078877e-01,2.440579732719069112e-02,3.491565844432100167e-04,3.709603159107995041e-02,-3.725181250136423705e-02,-2.036723526287620434e-02,-3.870156919687543079e-02
-1.140138553502254154e-01,2.406631592623877103e-01,4.008520628348485187e-02,1.781856479704862356e-02,-6.650376655614695376e-02,-5.019649742529215530e-02,-1.085292560329643996e-01,-2.015335247498557525e-01
-1.723168414197775306e-02,5.459428657998089962e-01,-2.721280129966158756e-01,-3.543300184016404120e-02,-5.145660506042393223e-01,-4.054438972225322263e-02,-7.313632026549618873e-03,3.896928570760253840e-02
1.727293583594836229e-02,1.804849341181699596e-01,-3.897257816331778368e-01,2.422689257828512452e-02,4.946306088136857571e-01,2.293062074545711843e-02,1.108209749558755966e-02,-3.431963114510419577e-02
1.691199306169040989e-02,-2.424094870913330937e-03,3.122944348131412307e-01,-7.232704553047120122e-02,-1.345862011280402892e-01,-4.296341942036695227e-02,-9.792059396312745301e-02,-5.171637334664679064e-02
-8.733711521456256899e-02,-3.703978056163423349e-02,2.584142187127610457e-01,3.001889706258969309e-02,1.324479488632498425e-01,-5.709866577989149844e-02,-4.513832284212530160e-02,-6.677547546251326460e-02
5.248459725504306395e-02,1.369688923467579297e-02,1.853162995136839186e-01,-4.392447764708339725e-02,-1.463864716964886348e-01,4.404901155637032037e-03,-4.997233649972818159e-02,-8.745711624156599084e-02
5.328816827343657581e-02,1.754694023753722992e-02,5.971839483942135290e-02,-8.450683809972718563e-02,2.299637621346928285e-01,2.850886110188999983e-02,1.079914026282657522e-02,-4.211246107091502766e-02
-9.501976522708479450e-03,5.573959190546966952e-03,-2.416660264592085036e-02,-2.626961385446655028e-02,-2.410896577065497343e-02,5.762905618059628240e-03,1.912635521619108353e-02,6.222231871433105826e-02
-9.501976522708479450e-03,5.573959190546966952e-03,-2.416660264592085036e-02,-2.626961385446655028e-02,-2.410896577065497343e-02,5.762905618059628240e-03,1.912635521619108353e-02,6.222231871433105826e-02
-9.501976522708479450e-03,5.573959190546966952e-03,-2.416660264592085036e-02,-2.626961385446655028e-02,-2.410896577065497343e-02,5.762905618059628240e-03,1.912635521619108353e-02,6.222231871433105826e-02
-9.501976522708479450e-03,5.573959190546966952e-03,-2.416660264592085036e-02,-2.626961385446655028e-02,-2.410896577065497343e-02,5.762905618059628240e-03,1.912635521619108353e-02,6.222231871433105826e-02
-9.501976522708479450e-03,5.573959190546966952e-03,-2.416660264592085036e-02,-2.626961385446655028e-02,-2.410896577065497343e-02,5.762905618059628240e-03,1.912635521619108353e-02,6.222231871433105826e-02
-6.802926748729495876e-03,3.542768901250140795e-02,4.148803699139326229e-01,-3.452451794026539095e-02,-3.555655924172459459e-01,5.060228392605757575e-02,2.129371591859442053e-02,-7.850461857552057943e-01
-3.353722312784401523e-05,-6.530885926338440839e-02,6.616199130297678588e-01,-1.184771690114855697e-01,-9.891370243352529679e-01,-7.758436228396431607e-03,4.485217043317119706e-02,-4.383818638303121906e-02
-8.467610211486326088e-02,2.369624925531925094e-02,-3.306095043826561691e-02,-4.059152899530460434e-02,3.804171718490535481e-01,2.073645885601333588e-02,4.341125418653104390e-02,-2.956050646067292370e-02
-8.467610211486326088e-02,2.369624925531925094e-02,-3.306095043826561691e-02,-4.059152899530460434e-02,3.804171718490535481e-01,2.073645885601333588e-02,4.341125418653104390e-02,-2.956050646067292370e-02
2.083705902174554439e-02,-3.563134482122676337e-03,-7.514837495191332983e-02,-1.830232188806767135e-02,1.818481577151973005e-01,-6.863822848214460801e-03,-1.218511398842609793e-03,2.252981796086987454e-01
7.229065336733865631e-04,-3.525967936238602607e-02,7.728441433080986966e-01,-5.691277702374991643e-02,-5.411931580421498467e-01,-6.528359375413533838e-02,-7.094041893209805313e-03,-1.850373884370967725e-01
4.133075833882122185e-01,2.426367308869226656e-03,1.804175224897068830e-01,-6.131247737760526541e-03,-6.256447082686893424e-01,-3.235797703511826551e-02,-1.393515567514430065e-01,-1.449257869019572320e-01
7.244940434151353470e-02,1.830690503008030462e-02,2.687372304970919723e-01,-1.951351658831163060e-03,-3.813526156552944357e-01,6.270947358790040886e-03,-6.883611328966934839e-02,-7.092782868608973890e-02
-3.479489765644407095e-02,1.040198561713117156e-02,2.074882080588142108e-01,-7.504852809447842832e-02,-1.320603995999036773e-01,-5.259452525375404169e-02,-3.955967104119695842e-03,3.633065950214982298e-02
1.093756456088424561e-02,-8.635103329781754211e-02,-1.108050455317827199e-02,-1.962757225525457554e-03,-6.811916553272512331e-03,1.967730455782976465e-02,5.321352685799318749e-02,2.563484362326450688e-02
-3.479489765644407095e-02,1.040198561713117156e-02,2.074882080588142108e-01,-7.504852809447842832e-02,-1.320603995999036773e-01,-5.259452525375404169e-02,-3.955967104119695842e-03,3.633065950214982298e-02
4.640249360254603862e-03,6.303504021235321886e-02,3.206633320671071763e-01,-4.289529041657495767e-02,-3.789087361098472106e-01,-1.844902993260417318e-02,2.826290518262987092e-02,-6.259091466916577584e-02
-2.077249680912268692e-02,-6.595994691377368713e-02,3.560508900540302335e-01,-2.661465531439758531e-02,-2.300597119263194656e-01,-4.091384127302837015e-02,-1.046411578205600282e-02,-1.805244758212563817e-03
-2.541274616937708869e-02,-1.289949871261269476e-01,3.538755798692307108e-02,1.628063510217737236e-02,1.488490241835269123e-01,-2.246481134042420391e-02,-3.872702096468589456e-02,6.078566991095309124e-02
-2.541274616937708869e-02,-1.289949871261269476e-01,3.538755798692307108e-02,1.628063510217737236e-02,1.488490241835269123e-01,-2.246481134042420391e-02,-3.872702096468589456e-02,6.078566991095309124e-02
1.402240084732135628e-02,-7.636193253090482747e-02,1.485626819952159117e-01,4.843387278008078056e-02,-9.799931232641589940e-02,1.168068398072567675e-02,-6.508148677936313915e-03,-3.813590426036248676e-02
-3.033714263913969418e-04,-6.457246685097187133e-02,7.767361744311577221e-01,-5.058647339259846054e-02,-6.645607160123119250e-01,-5.015590811591573439e-02,-5.025661906258219874e-02,-1.815431549848107173e-01
4.372533637563671277e-02,2.552189726095523484e-02,3.341361635896831772e-01,-5.541836171114790377e-02,-4.130769672207813548e-01,-8.735974529590562893e-03,1.896585118324327357e-02,-6.261367614582774577e-02
-4.729959896478432013e-02,-1.055087380291317399e-02,2.210218420142248674e-01,-9.638494007033423377e-03,-1.476255777619463472e-01,1.932495122962306702e-02,-2.076366199440278851e-02,1.044631300352032686e-02
4.372533637563671277e-02,2.552189726095523484e-02,3.341361635896831772e-01,-5.541836171114790377e-02,-4.130769672207813548e-01,-8.735974529590562893e-03,1.896585118324327357e-02,-6.261367614582774577e-02
-2.842190887229117187e-04,-6.067137046240216047e-02,-2.471102933244200689e-02,-1.058072026085668249e-01,3.189542783015713034e-01,-1.410308131499454498e-01,-1.788213676910385339e-02,-1.420973364503416991e-01
-4.729959896478432013e-02,-1.055087380291317399e-02,2.210218420142248674e-01,-9.638494007033423377e-03,-1.476255777619463472e-01,1.932495122962306702e-02,-2.076366199440278851e-02,1.044631300352032686e-02
-1.153766614807965329e-01,-7.996510886627068715e-02,3.510586117853471966e-01,3.065936214978845498e-02,1.480861212143397276e-01,-3.119732855412642517e-02,-2.094434695613341460e-02,-7.875175919838392491e-02
2.526029188491872302e-01,-2.298692516794390711e-02,-9.737591426472941292e-02,-1.757451964224449048e-02,-1.155843565662710432e-01,1.016429626171420735e-02,-1.724053706895859947e-02,-8.613909747713485721e-02
1.564841040584302734e-01,-4.731755909100175163e-03,-6.435037554320560682e-02,-3.330953918212196940e-02,2.689732825208040468e-01,-1.306348301529018097e-01,-9.094980230364585819e-03,-1.426016013544343375e-01
2.298537912297049512e-01,-3.236748202516254169e-02,-4.917320216114692832e-02,-5.837566904587172291e-03,-2.827653461320212003e-01,3.121041472875736231e-02,-4.629341175709453943e-02,-5.743930022524927625e-02
2.298537912297049512e-01,-3.236748202516254169e-02,-4.917320216114692832e-02,-5.837566904587172291e-03,-2.827653461320212003e-01,3.121041472875736231e-02,-4.629341175709453943e-02,-5.743930022524927625e-02
8.522191840906764848e-02,-1.921740777586216503e-02,-1.611974215739845895e-01,1.005546014987314107e-01,3.021086803273973498e-01,-7.812186783854482841e-02,-5.844584250233562234e-02,-1.290053320340469045e-01
-3.769044847701511674e-04,-3.045361191393925956e-02,-1.430185614260262306e-01,1.071327041692976025e-02,3.260514541739755745e-01,-6.031731563402622370e-02,2.650201968331391406e-02,-2.122503815138244987e-01
5.661203434896011633e-01,-1.428214262565954441e-02,-8.269174403816584307e-02,2.579645337650979253e-02,-6.765881446405976885e-01,-7.928320996896910666e-02,-1.632176603424138617e-01,9.948658616389338682e-02
3.595723789405086412e-01,2.651972199612947015e-02,-2.517053499287738583e-02,5.588381549854347721e-03,-2.192121660178193709e-01,-7.811533609348017548e-02,-4.414098770952017137e-02,8.075246321236516367e-02
2.990067072694808092e-01,4.839280864417610031e-03,1.458663801659710116e-02,-9.520700527409801939e-02,-1.477575046619689914e-01,5.617267183627662475e-02,-4.163283772554494944e-02,7.869007230174789036e-02
-1.412476272486578310e-01,2.906560473296435076e-02,2.726051127463117313e-02,-1.925982869960267060e-02,3.264784752746378582e-01,7.173987528077191422e-02,-7.692432544235273950e-02,1.036437760665770147e-01
-1.360798971111986944e-01,-4.030367834120614570e-03,5.673781960362946769e-02,-6.443183463546395262e-02,-3.764620707059601612e-01,-1.525711333355694310e-01,5.795488929732893479e-02,2.487054663227291906e-01
2.964467805152089519e-01,-8.470939490699656849e-02,-3.453281650100513411e-02,-6.004105159697879085e-02,1.708337536718942951e-01,6.314556636982784910e-02,1.603280785757632554e-02,-2.532796013621773090e-01
4.264632270120590762e-01,-8.923963147357051595e-02,-4.265985110030558886e-02,-1.524183147464612184e-02,-2.219754993989033198e-01,-2.036213551168931934e-02,1.599688657765844721e-02,6.303653345468627003e-03
