1.432574851589003481e-02,6.542310009272127302e-02,3.000150283061687323e-02,1.757019002172030206e-02,2.902782456735312697e-02,-1.430976514049830429e-02,5.946867756158565228e-03,1.304085420979531930e-02,2.396762504451896772e-02,3.002637678496758444e-02,2.651663051347462156e-03,3.452141957890339508e-02,2.334490064185169508e-02
1.054705942813139764e-02,-7.890014126404309644e-03,-6.302568229565004738e-03,2.901032185845617110e-03,2.981085036683460768e-02,2.687579486839093354e-02,5.866901435115536153e-04,8.329274310549875104e-03,3.697433733948692763e-02,-4.897537544158253597e-02,-2.136474671205139744e-02,3.202534638890986579e-02,3.556320115415274961e-03
-2.852534306766257681e-03,-7.401531062340654596e-03,-2.588804384902694457e-03,2.343609193968789785e-03,-4.601436353019270481e-03,7.561158320338969008e-03,2.442668091792590292e-03,-1.627613829559477945e-03,1.360391611768569341e-02,-4.159078427214401089e-03,2.106024873942469351e-03,-8.118454785623160919e-03,1.567767876826164268e-03
2.896291508501522196e-03,-3.223152153875611433e-03,9.162854651681769103e-03,-2.962098453797994656e-03,8.238026571944483817e-03,-1.132834446610056327e-02,-9.557611019476794020e-03,-1.351282739799267163e-02,1.162999502383190234e-02,-3.594502255323284070e-03,7.933176997781177242e-03,1.092083771412829217e-03,2.061377562637687483e-02
-5.726015227601525398e-03,2.219210357317964386e-03,-5.125067132096767196e-03,-1.081226234126324683e-03,-6.910258211459539834e-03,-1.438623363752349624e-03,-3.477291614478583009e-03,-4.482610301288888523e-03,1.629596928887281498e-02,-1.502237105794325574e-03,-5.423214113187276378e-03,-2.536511655118829818e-03,2.911555732286934609e-02
-1.201131853553876914e-03,2.054721291451138635e-03,1.642328128490928266e-04,-5.546972964988655663e-03,4.404935206107260179e-03,-3.306880668667375265e-03,3.410343779636622330e-03,1.949081085241653744e-02,-9.985342584535709248e-03,-1.633952687410086466e-02,-4.136511778252143119e-03,-9.982162163954226217e-03,6.239237717721854079e-03
1.240112536738508702e-03,6.689501933110210234e-03,-7.651811811590210517e-03,-1.457675313270713046e-03,-8.228858229438865829e-03,-6.562697738654464999e-03,-5.660947904459825118e-03,5.502048386253470535e-02,1.491114024015808073e-02,-5.139797237723638286e-03,1.923382477248995054e-03,-1.576120785660571622e-02,-2.878042317121220356e-02
-1.635366250678158689e-02,-1.757695327031786117e-02,-7.907017340191222973e-03,-5.542255562111556358e-03,9.383658833920435760e-03,2.395756116677170283e-02,1.834914771729576413e-02,-6.832899790897727435e-03,-7.514072415899642095e-03,2.452761017516471784e-02,-6.198182583656186746e-03,-1.067232086608692343e-02,-3.710796642738341429e-03
-1.078030796866443104e-02,2.053697749954791832e-02,-3.135303710574056067e-03,-1.145119603360593430e-02,-2.692361955412370198e-03,4.567791271670351878e-03,-3.917669166478872714e-03,-6.543809662436554653e-03,8.648397577898160257e-03,-2.845184740863803850e-04,1.020921267288829419e-02,-8.839137613349014322e-03,1.480815074930332854e-02
-1.771817053836341124e-02,7.233777068847715985e-03,-1.241559530908068962e-02,-3.509867120368750405e-03,7.754942425762817275e-03,-9.073219573606907187e-03,1.536478612375909679e-02,-1.945718887808026241e-03,-1.598606510512665157e-03,1.838447875066385323e-02,-3.042729602569375566e-03,-6.793505128979119949e-03,2.368010422157246914e-02
-5.494410375468646544e-03,-2.275342220108726894e-03,-3.515505141046080997e-03,-2.823672419619094841e-03,4.393349757161719125e-03,-1.064815923287448264e-02,-8.762644356524865175e-03,2.395386776541849323e-04,-7.145050423884832629e-03,-7.769223246001258007e-03,5.268472708733965351e-03,1.289205257196094365e-03,2.412987697758977451e-02
-9.511051781023540513e-03,-1.078076451950332748e-02,-9.441638598700913959e-03,2.107228722374770644e-02,2.173079455774909116e-02,1.221354875061303295e-02,-6.638540128462555763e-03,-2.987116693987626644e-03,-1.632615691219928972e-02,7.718833626930024852e-03,8.287800540981845807e-03,-7.040943306958868941e-03,-5.641704170450897310e-03
2.578920123729578186e-05,1.588716051557931275e-02,1.627211850010806468e-03,3.109703256041280311e-02,-1.696978270114393728e-02,2.450197554551561754e-02,-1.366814254540028341e-02,1.395990092504330749e-03,6.084314132499624508e-03,-9.034158307566359999e-03,-1.596825699708296492e-02,1.575365169461757572e-03,-1.537376054504794622e-02
2.619128438600765597e-03,-5.326368368348297772e-03,-1.474288686934484630e-02,-3.244133985779335070e-03,1.090391465337900434e-02,-1.316719178381092932e-03,1.404933980427436682e-02,-3.026371183558757092e-03,1.157014434477430555e-02,-3.704296909706287773e-04,1.055670451765100201e-02,-3.960446720440395987e-03,-9.661759704885938480e-03
2.652299272357142718e-02,-2.224074929737899879e-03,-6.255019471486968075e-03,-5.275894805013848707e-03,-5.367952608921985370e-03,-1.905579356273415931e-02,-6.784610868262573764e-03,-1.015882570292906198e-02,-5.682466118378093518e-03,-8.414958437945051911e-03,-6.097098684601256341e-03,1.868187715885568853e-02,2.649407662970211172e-02
-9.375720939117886251e-04,-9.770740317659704077e-03,1.356570452349930081e-02,2.191573693699360587e-02,1.473228634670300033e-02,-9.971609840429163096e-03,-1.084715607969273000e-02,1.000734839196663548e-02,-1.894370746035421368e-02,-7.351046607303676934e-03,7.167232145852053468e-03,-2.095126793201191814e-02,5.116488074420447001e-03
-1.228464919323906182e-02,-2.308511466335025700e-02,-6.175348138024895107e-03,3.288782068470027468e-03,2.496343636143687206e-02,4.987498934329195541e-03,1.531108836869579139e-02,9.136468845096636787e-03,-6.938772418318274286e-03,3.197057258805191537e-02,1.500070178117550446e-02,-1.411772961650008783e-02,-2.846888180346770006e-02
-6.817499295307588580e-03,8.906034064180360635e-04,-6.403948229707528625e-03,-4.479229356510374543e-03,3.065595667974970601e-02,-5.618068931616255861e-03,-1.198934619561346912e-03,1.483114296161123537e-02,-5.293970481601632111e-03,-1.049010079805674442e-02,1.193779270593526773e-02,-6.689062549572905372e-03,-4.809789121724651270e-03
-2.037886006178080221e-03,-5.058101848356298148e-03,-3.853641333216693051e-03,-5.812977379637781702e-03,-4.572169998589298116e-03,-4.129385165889218334e-03,1.520642029307204754e-02,1.269787617801257720e-03,2.824466071932512333e-03,1.040866952563971985e-02,4.690084025344263760e-03,6.775199036691866971e-04,-7.047801764117638326e-03
2.224266579934073076e-02,-5.797845740224774960e-03,-4.283364074715032346e-03,4.229899386564039965e-03,-3.346099579586151590e-03,-4.068340125411001179e-03,-5.263889877385385593e-03,3.072446201403486064e-04,3.446134542793529202e-04,-6.841792483159777997e-03,1.472719857342199082e-02,-7.589664340071813897e-03,-7.124208071777079002e-03
1.033236124036375214e-01,-7.649548267086160418e-03,-1.285357056299926172e-02,-8.862107833645764543e-03,-1.544730415020800513e-03,-6.250202819898888207e-03,-1.679822098049885137e-02,5.853669994557672042e-03,-5.648904704999480400e-03,-1.654686431766592622e-02,-4.202735119989257115e-04,-1.064348361964919006e-02,-7.113006162671976426e-03
1.837966541053703915e-03,-5.944513294057592739e-03,-1.155677023710191282e-03,-1.068145938103154738e-02,6.860257958221446448e-03,-1.055638964337136769e-02,-7.060012798244021288e-03,-1.209478225915303073e-02,5.571102078011952452e-03,5.466974950448233450e-03,-3.024917784110675058e-03,5.412309899322806026e-03,3.196365381631584984e-02
2.134935107358639991e-02,9.136475605160286270e-03,2.273602196173053064e-02,1.680703956727615939e-02,8.327286076669628695e-03,-1.747113826798379899e-02,-1.865793273488511317e-02,-4.291234294704413324e-03,-1.397978147105638242e-03,-6.442486901586112931e-03,-4.000541610352955496e-03,-8.729717757400206474e-03,1.894068817775543950e-02
-3.528893706521723898e-03,-3.823967618068390036e-03,-5.024497765512017872e-04,-7.216973268954316942e-03,8.626112479895109778e-03,9.901150771832444367e-03,-7.190396981739432744e-03,-5.892608718588621466e-03,-9.171274170457032046e-04,2.253823922323065082e-02,-5.336067879811777145e-03,-7.195904871707965722e-03,-1.596103542696794813e-03
-7.174363814594383708e-03,2.005239665360763340e-02,-1.525655667281518649e-02,-8.901799512222297733e-03,1.023704011385086210e-02,-5.258569895709896275e-03,-2.201607717680861831e-02,5.996977140160756822e-03,1.436416925010930955e-02,-9.855015271192308149e-03,3.965161179504280396e-04,8.706430616016459442e-03,2.853574749217896445e-02
-2.779984222754402698e-03,2.758695349327554541e-03,2.679387519270688169e-03,-1.291743738215129188e-02,1.871737981580712164e-03,-9.739297145016274221e-03,-1.243390674255779108e-02,-1.273981696244819509e-02,-3.445756121730257724e-03,1.652531223212077129e-03,-2.328703685073166274e-03,6.838901850305752553e-03,4.282152058401568484e-02
-4.537022876593905032e-03,1.922025764200831210e-02,-2.472111089835785872e-03,-8.079433089276858923e-03,2.736154010614724047e-02,-1.169293304685613093e-02,8.914180133915617157e-03,-1.322491900221933313e-03,-1.067091874635924496e-02,-7.478922117618658563e-03,-8.288438737933384723e-04,4.888414094502856709e-03,4.631891885327955004e-03
-4.203264393950664583e-03,2.201006266575734720e-03,-5.244501894724566508e-03,3.300266236202626519e-03,1.660032427958470919e-02,-5.764714795040470951e-04,-6.106455734108563217e-03,-5.768462183125550556e-03,5.939380630940312329e-03,-1.999232686313395790e-02,-5.555953570792400084e-03,-1.911206454131715929e-02,3.325792950998046615e-02
-1.367401244620765864e-02,-4.189245318330018023e-03,4.262154304348599043e-02,7.083568551889067588e-03,-1.088680541578198463e-02,-1.559420083585438474e-02,-2.164963044461112960e-03,-2.142594748865526717e-03,1.110962270546718596e-02,1.910386222516415478e-03,1.122051653612498451e-02,-5.535925221286337045e-03,-6.780569823462740016e-03
-6.309155647916101298e-03,2.517729582279467932e-03,5.724293779476152810e-02,3.824032887334992588e-04,-1.069876656943312236e-02,-1.155244239426762159e-02,1.391703797560184253e-02,-6.883490861521714133e-03,-3.717291117409369291e-03,-9.964943928803055712e-03,-5.240649781867718141e-03,3.177864607123137650e-03,-6.856909930702385393e-05
5.503590211903732887e-04,-5.359643485090864051e-03,1.749348825282348282e-03,-1.790611826361250590e-03,-1.184706395749272022e-02,1.180743969001883827e-04,-1.941354583469995145e-03,3.088073057904489787e-04,3.946199920821430451e-02,-1.936685547366607391e-03,-3.218408161946818228e-03,-6.140541367919823308e-03,-4.575625128009902639e-04
1.587048076529740809e-02,-2.880492301851477095e-03,-1.898293926552431857e-02,-1.665577921139115014e-02,-2.250180586926944825e-05,-1.367011671982074593e-02,-5.388816329881987444e-03,-9.801950765506065033e-03,1.552256719963090136e-02,-8.309104421869498852e-03,1.147019549577594708e-02,3.615824773720676538e-02,1.444102970420740005e-02
-3.456421401746993631e-03,-8.261885628815735655e-03,1.514230736864580207e-02,-8.702948749090959682e-03,-1.493891763685110952e-02,2.206828806299359139e-02,-1.598688433277140747e-02,-2.097386473646727784e-02,6.417507809625433999e-04,1.472908150624633802e-02,1.738525573284135581e-02,1.251866700430700162e-02,1.371399458257248696e-02
-4.716878028872894396e-03,-3.733680895832850680e-03,-5.042265491299794371e-05,-9.333802222155806322e-03,2.182676849028823002e-02,7.387284651348272231e-03,-2.353680728188569261e-03,-7.478391559274208573e-03,1.474149634668700179e-02,-2.065344589321067847e-03,-9.277498002929306228e-04,-3.948538942937854235e-03,-9.538484882642670609e-03
-4.942961825155854074e-04,-2.367663043828496273e-03,2.168324912688320114e-04,1.049597569470130283e-02,-1.649216744200078088e-03,6.431944941115967478e-03,-1.080099309175811201e-03,-1.574420240730718332e-03,-3.703262533267716143e-03,-6.891778518950711710e-03,2.006344512870550790e-04,-9.647497718712888786e-04,-1.204869403568559986e-03
2.554147970908914565e-03,8.346022012581282620e-04,-2.397186447002892535e-03,-5.386069180345005696e-03,1.692394414262663512e-03,-1.402275559270446063e-03,-9.950565568573380409e-04,-5.715191875512017593e-03,-9.028312888191665974e-04,-8.576303368374995836e-04,6.563572004408430374e-03,-1.730609872015532514e-04,1.453564471529047476e-02
5.637568068386826720e-04,1.580843440272720153e-03,-3.932265822718934538e-03,3.427885060602416838e-04,-2.274399030038753294e-02,9.735543909283637248e-03,-4.802858884613545737e-03,1.398042374474977277e-02,1.957274460916662295e-02,-4.895401147420682178e-03,1.476723001451505334e-02,-1.332759149118632747e-02,-5.034358616666011720e-03
-7.665662189860841629e-03,1.316641604070719132e-03,1.762357568964619675e-02,-9.030284917849271814e-03,2.372850189896971598e-04,-8.011765767264408811e-03,-3.085455765664502255e-03,3.537850632973914972e-03,3.708664157722414202e-04,-8.309531676698681674e-03,-6.804075427105926721e-04,1.899024720056610716e-03,1.045161764574234833e-02
1.232517473856604637e-02,-2.844670704398280514e-02,1.003351032596129771e-03,2.686011431963763324e-02,-2.149326167765627099e-02,2.283095512271469257e-02,1.094407995647756274e-02,-2.484324901310807493e-02,-1.063504469242490189e-02,4.373984430790967166e-03,-2.862843293244901282e-05,1.022565024357640316e-02,-3.769452942506189373e-04
1.023996185907550052e-02,-3.325366048893068499e-02,-2.375531036087224351e-02,3.837565116683687265e-03,-5.091218571398976531e-03,-2.279515740646584614e-03,3.248673143104550964e-02,-4.510601346021203377e-03,1.199467812690656852e-02,2.246677894600785513e-02,2.687087255185393979e-03,-1.486091546293519770e-02,-4.289997576783397340e-03
-3.914353099981795168e-03,-2.489076487566249316e-03,5.169212409801209746e-03,-1.901486870667444149e-03,-2.014074759279632469e-03,-6.234636275954740826e-03,-6.534412164191384306e-03,1.589999439343429272e-02,4.078795259301838325e-03,1.730196470548829579e-02,2.649823372262395758e-03,-2.015018472485358928e-03,-3.051638679887135920e-03
1.700088929964114343e-02,-1.349868462380234349e-02,7.293663483013029455e-03,2.869101219723601930e-03,1.220363109478120323e-02,-1.703923035010138434e-02,-1.311759209020458249e-02,-1.076826523648345690e-02,1.484692306208832378e-02,1.650782490437696995e-02,8.355208836884153376e-03,-1.231000278029742781e-02,-1.271548699613271952e-02
-2.462194495484831781e-04,1.715378210253406090e-03,-6.057643279485945597e-04,-1.157975375535435104e-03,1.609541166052265090e-02,-4.373158966575251515e-03,-1.213119182297483882e-03,1.006855663003963265e-02,-3.442495263686807475e-03,-7.633987470605074939e-03,-1.151342162819648249e-03,-6.200125046656489343e-03,-3.525041495902534773e-03
-4.480199380191776312e-03,7.798079905180668563e-03,-4.953028172963520187e-03,1.286083808566397882e-02,-3.863518865178806015e-03,1.560146301199693240e-02,-1.711754996326203190e-02,-1.293416960223781574e-02,-1.173996989564390567e-02,3.256224675835885790e-02,9.304309353968901201e-05,-9.490935482139178231e-03,2.076765338722772435e-03
1.507756932691099987e-03,-8.345028489120607726e-03,2.289990508820264128e-03,-4.375946354880832535e-03,1.031324176981940691e-02,2.215002562743086795e-02,-1.936730681517894858e-03,-4.459474783154081245e-03,-7.527300597597036749e-03,-9.049044531154085136e-03,-7.350188576787709295e-04,-2.191753211099793305e-03,-6.363805629848021117e-03
4.670844735716964298e-03,-2.407644892401153425e-03,-3.410752477891413476e-03,-2.994345671713157788e-04,3.266910258492673746e-02,-8.232579984204362392e-03,-4.655482982340254997e-03,-8.527957321964391851e-03,-1.049584324702085639e-02,1.269373530756492431e-02,-2.154398009803029125e-03,-5.969971243526116071e-03,2.824984325950282392e-03
1.171298483600275754e-02,-7.476139685446024294e-03,3.964184932907026393e-02,-7.478351185668334275e-03,2.695185876422610469e-02,-4.393232600391037621e-03,-1.333071132283661364e-02,-1.958564213375312696e-02,6.245632648642738410e-05,-1.187925803949796237e-02,-2.049409761314474436e-03,-4.844728208793209687e-03,1.598084994365318173e-02
1.938205588536573779e-03,-9.250486866606184855e-03,1.720133378424470311e-02,-5.184544199747270939e-03,1.381373637076238614e-02,-3.915257593831799818e-03,1.457091838962201735e-02,-1.440579727984526819e-03,4.961420171301943183e-02,-4.256020938180364241e-03,-1.831571685509634367e-02,-1.329461225617105738e-02,-9.330508860616362407e-03
-2.197209087034925588e-03,-1.163841137694400854e-02,4.037770347569592799e-02,-8.487860322773346095e-03,-1.124767028136283709e-02,1.475319557002149895e-02,-6.734132255854143739e-04,4.017959665750168302e-02,-1.640913244308910696e-02,-1.571920512579853130e-02,-1.017197826654510709e-02,-1.313001269217056906e-03,-2.311398415822942583e-03
-8.547213917207054784e-03,7.584018427213653005e-03,-4.843824031669367695e-03,-5.190175939556765719e-03,-1.169143907129638511e-02,1.415749244379780822e-02,-1.440421502222585456e-02,-1.642278023358393398e-03,2.476800247372317604e-02,2.358477946672979733e-02,1.136239993516526686e-02,-1.478784900279851364e-02,-2.423268429206109145e-02
-3.238414031286021739e-03,-2.830916742265762471e-03,1.724975377362397005e-02,-3.356126437239175062e-03,-1.090687792705307552e-02,-9.048251149205687946e-03,-6.517416521354539236e-03,-1.168103048099834382e-02,1.925926186515382679e-02,-5.282900117554947643e-03,-6.184909561110379234e-03,-1.374583240247805906e-02,6.487398765294945246e-02
-1.749801035823397161e-02,-1.190364625851176835e-03,-1.865420911333681275e-03,2.673164543636009482e-03,-4.878806211512158771e-03,-6.091324496511904898e-03,1.784076024149264597e-02,2.539673353936143518e-03,-1.594412394976875121e-03,1.445818067635276302e-02,-7.514291779305945929e-04,-5.535295723085047540e-03,3.584637427595000099e-03
5.049747191952090770e-03,-4.490484928914755328e-03,-1.152141488947972317e-02,-2.246543286136680039e-03,3.050715383417362814e-02,-6.736276274077655779e-03,-2.070552042472782912e-03,5.112443298232201977e-02,-1.021392327747339818e-02,-3.631960817074976304e-03,-6.886097275368397233e-03,6.264155999614924456e-04,-8.223693693271666438e-03
-9.044386750754581511e-03,-4.787077531114122993e-03,2.420073658579112268e-03,-1.245108301929204533e-02,-1.107982905795544667e-03,-1.133043121816827356e-02,9.088282229760132405e-03,-2.139265256262250383e-05,2.054816199714797759e-02,6.772611265629062578e-03,-5.548983606012457617e-03,-1.771567428694190648e-04,1.358583799937574180e-02
-3.057841154305253849e-03,-7.848650048193031581e-03,-1.894412775145189838e-03,-5.430779485984110755e-04,-2.096740765300517985e-03,2.296927678503814241e-02,-5.089602035912772250e-03,1.715279380975517215e-02,-1.006153395364888826e-02,-2.463435824752510141e-03,-1.743794510740249906e-03,-4.407445324719629076e-03,1.084016675363257435e-03
8.031589674229551098e-03,-4.153117290919167669e-03,-1.483949687690109534e-03,1.565941986237543576e-02,-3.671836328296346208e-03,-6.360440630869874760e-03,-9.819910968832596451e-04,-6.184753822350731864e-04,-8.213114190464583650e-04,-3.865648017026690562e-03,-1.528008714842272111e-05,-8.247934950074520960e-03,-1.034338231135768175e-03
7.298412951325715034e-03,3.177162069574327070e-03,-3.723529930950107529e-03,3.993658050907847139e-03,-7.654896371329790276e-03,-1.901083953757382733e-02,1.870782233251196830e-02,3.853418884882035822e-02,-1.606128468861340794e-02,-1.711216101896213468e-02,8.284596586013595262e-03,-1.901195561399070255e-02,-3.294048683486429287e-03
5.566498685500720356e-02,-2.311113694036973087e-02,-8.032147310253621303e-03,-9.991106490274286045e-03,-1.708858257731819819e-02,1.567152127580187862e-02,7.966527134787834480e-04,-1.917861177928744526e-02,1.461437838535317724e-02,1.959098045585493456e-02,-1.338815888503302673e-02,-5.411638639977317533e-03,1.176040194858591140e-02
-4.045669635779583495e-03,-1.276256067129867555e-02,-5.339802051371942554e-03,2.035979307508505899e-03,-1.058420918934458062e-03,-6.053465661131065753e-03,3.130518789657276563e-02,-3.420132680609019003e-03,7.069176872739987849e-03,-5.962889429060753803e-03,-1.143699937664980574e-03,1.788290807887496590e-03,-6.776702853187661912e-03
-1.955783510219008883e-02,4.947216738341866232e-02,-5.588579735855503904e-03,-5.856365516543559323e-03,2.061349980840412183e-02,-9.256069831143864252e-03,-2.892607040704768713e-03,8.352488290923415709e-04,-1.161267330649154092e-02,1.518510940260808448e-02,-4.665207116148566667e-03,-5.785459219237855041e-03,3.837048046616663242e-03
-2.504255508232942646e-03,-1.043993966080207850e-02,1.845630319311378567e-02,-9.745671183586199215e-03,6.816522982292304300e-02,-6.139431054521622341e-03,1.127950359639396868e-02,-1.706883263142308996e-02,-7.826665874000668724e-03,2.814832655121169737e-03,-8.336462741867802645e-03,-1.488779305589988831e-03,-7.012926525990470852e-03
3.043136773748163909e-02,-5.184021022106732705e-03,7.138124467989308362e-04,-7.085455111958653338e-03,-8.589953933495183061e-03,-5.122349029500434213e-03,-3.781576788079147548e-03,6.375754495479974944e-04,2.020735135932143212e-02,-6.660172424418691825e-03,-6.948754863427769948e-03,-6.298496554320085275e-03,-4.587423798466740837e-03
4.987802311696401536e-02,-1.767755913563754137e-03,9.240136229885844224e-03,2.879951694951938396e-02,1.161242440832209628e-02,-1.129497769451926967e-02,9.776541856101052599e-03,-2.451123763048124876e-02,-2.098805479133515617e-02,5.930783816814157346e-03,-1.450772590293512333e-02,-1.120176700330599226e-02,2.267664287200104462e-02
-3.153854642448174726e-03,4.194158624892216879e-03,-1.468507572345327788e-03,-1.086251294088225660e-03,-5.366507195757051589e-03,-4.852961512455259904e-03,1.227391000003228740e-03,7.464703716185489002e-03,-7.746064484040345553e-04,1.024542153672235167e-02,-5.412353129962980871e-04,-4.670134886863161298e-03,-3.353200382905946290e-03
-8.689098327307683695e-03,6.012404279744119201e-02,-4.593011197976141699e-03,3.331712301142904231e-02,-1.653287362678374645e-02,-1.375591441134006200e-02,-7.090438838067621499e-03,-6.409568742967497457e-03,-1.327560410956432277e-03,3.146461994211137425e-02,7.807589263668675630e-03,-5.822603350917285661e-03,-9.488715890555736790e-03
-1.101038890780651515e-02,-1.425886183401515149e-02,-4.986403970698641405e-04,3.408236661643049194e-03,-8.113740071575335430e-03,-1.115318503341232101e-02,2.859825594330832679e-02,2.308844566562559021e-03,4.449651280232697070e-03,1.830833524214028202e-02,-2.961955636205890544e-03,-4.794370199645288204e-03,-5.411066019657350366e-03
-1.303313589752565574e-02,1.399709571387298436e-02,-5.784786020903689464e-03,-1.722268178075590187e-03,-1.852621431971267826e-03,-2.901472403517804232e-03,2.157174148913284725e-02,-5.473183165691603187e-03,-7.272499978804710004e-03,-3.033717253271233857e-03,-2.566136257034274185e-03,-9.079466114898463586e-03,2.073585316652219387e-02
-5.273671773731654008e-03,4.550089270005846023e-03,-7.129286373643363081e-03,-9.297497567841440588e-03,-1.182629223523826850e-02,-7.719497980212824614e-03,-3.748400725470042803e-03,2.835335425206310725e-02,3.675511150448902697e-02,9.482749625633880158e-03,6.821068127002477555e-03,4.003833039782954753e-03,-8.695397127325255049e-03
4.940180074993073996e-03,-8.626245568250909268e-03,-4.259372025069704977e-03,-9.246196010164537543e-03,-2.340141497628372112e-03,3.102672009063525693e-02,-6.034217752591687460e-03,-1.218200100398700303e-02,-1.568995551332002299e-03,8.636384289255783376e-04,-1.998024145274373414e-04,1.668359060358187013e-02,-1.956068717370783533e-04
5.535271008501207145e-03,-1.165777775632462036e-02,-3.692429343529299302e-03,-3.234893646035531247e-04,-1.344291728808560613e-02,1.427398744189230500e-03,-1.458039343238249318e-02,5.263873764262040449e-03,3.255639148101939495e-02,-4.107018191086669531e-03,8.413835042911418927e-03,-9.538794577130265198e-03,2.983906932820913974e-03
-8.924388018408283690e-03,-2.150355524588455636e-03,-9.173947865291258788e-03,-2.938791552675173481e-03,-1.649663333559308470e-02,-1.093695177646846969e-02,-1.166676229886474958e-02,2.559580371699158793e-02,2.328387517706324763e-03,5.947734307902555889e-02,-2.401957906539441850e-04,-7.529048809127689319e-03,-9.184415206692327777e-03
9.842079475245147160e-03,5.012298594317467215e-02,-1.697848268524079773e-02,-3.643318942297257834e-02,2.672644915872472542e-03,2.870887265883081962e-02,-1.141706774552497979e-02,1.187780014322576023e-02,-3.102763292558636740e-02,2.464866798412439913e-02,-8.648491829167397407e-03,1.121881827255332906e-02,3.654589968623591506e-02
3.717284190838075764e-02,1.788254237747619393e-02,-1.605585717701077039e-02,-7.291113775240722419e-03,-2.075703493096845396e-03,3.674161483064398493e-04,-1.326082786889241395e-02,3.045435856857093941e-03,-1.012926870080488925e-03,-7.392655965921356501e-03,1.808697992273599177e-03,-7.177957412265480001e-03,-1.148589599548337806e-04
1.779732839133837258e-02,7.240664957663381709e-03,-3.991873416451874670e-03,7.475688842313745093e-03,-7.326549120305734034e-03,7.195239582401658993e-03,-9.682590412881735345e-03,5.967532850940230390e-04,-1.056072608356649475e-03,-1.023372479938016583e-02,-1.692371289782647337e-03,-4.458644645126287782e-03,-1.225651439481660826e-03
-1.283096709902000759e-05,-7.611969467405092392e-04,-2.982909794767530601e-03,2.172212848522321257e-02,-2.651642831924428279e-04,-5.898144310547797677e-03,1.021807567484724370e-03,3.088686206055768686e-04,-3.665710580768067077e-04,-1.420223647837405654e-03,-4.069043211558387614e-03,-2.372968225310786994e-03,-5.556133916089435638e-03
8.355060679805127863e-04,-2.566252441317623707e-03,-1.054295366611158156e-02,2.700313622585237029e-03,1.015705764746291373e-02,3.521323084826712309e-03,-7.102395767361448318e-04,1.520549057801943472e-02,-8.463106434004642742e-03,-8.973989816456379859e-03,-8.288138136222816463e-03,-4.765412501887980080e-03,1.592729455817405021e-02
-5.204578343147026054e-03,-4.331911627511881788e-03,-1.658148257519305793e-02,-3.784524786897263543e-03,-1.503770263093134364e-02,8.210909430646834341e-04,2.319506618880124230e-02,2.698049075118638673e-02,-6.190370804549309713e-03,-7.871226547419316738e-03,8.143580906090529953e-03,3.299987380667995102e-02,-1.055281754107214448e-02
-1.546650407738417790e-02,1.372790285620453972e-03,-3.249875203307853785e-03,-8.764132161369226140e-03,-8.158402196681260182e-03,2.783926554719971282e-03,2.405642607661897386e-02,2.284303990073584430e-03,8.053666753832134859e-03,-7.587112503932872884e-03,-3.470933476295383173e-03,3.899394170592428242e-03,2.084870518830486338e-02
-7.806304224041028805e-03,1.566356546263553834e-02,-2.565987478391129704e-03,1.316880322595781125e-02,-5.193825574136968874e-04,-1.130092663776366933e-02,5.695576278283582530e-04,2.814969383030342318e-03,8.076550807359533009e-04,-9.005480026515005204e-03,-1.060350776539112361e-03,3.440657583011708315e-04,-1.752438943818115881e-04
1.856896148643578243e-02,-9.701257264075226552e-03,7.051711053462183902e-03,3.344353941368954138e-03,-5.697308200350024651e-03,-1.118091076001372390e-03,2.009517745686021165e-02,1.360861240625430056e-03,-4.591658698887008359e-03,-9.434436773340430793e-03,1.316946920842973533e-03,-1.187131878263868005e-02,-4.989100107312530175e-03
-8.899589577208072205e-05,2.613653364506310188e-03,-1.801198294346205778e-03,-2.204022181949562287e-02,-1.561035299676726256e-03,1.926883925624703342e-02,-2.596582401517516341e-03,-1.074593724998283185e-02,-3.855802571678661195e-03,9.147952332357074797e-04,-7.840433933759731813e-03,4.895441165574628602e-04,1.697903242663634238e-02
-1.776195594444004294e-02,1.727311798809778517e-02,-2.765718228175217779e-03,5.329219123145252516e-05,-3.631687702216956221e-03,-2.472821964528758559e-03,-7.774847321581528428e-03,-6.663638653552637729e-03,-1.303720774775633589e-03,1.140542066758275588e-02,2.531158719801745484e-03,-2.488298346644031954e-03,1.765827462357381222e-02
-1.272970514739991607e-02,-8.661765471275006956e-03,3.459296894857600505e-03,-1.875305201856073811e-03,-8.127997311963725338e-03,-4.618207164684770202e-03,1.769672435015843745e-02,-1.331423020875136844e-02,-3.270556500017644027e-03,3.018671762433404807e-02,-2.015710027024744406e-03,-1.047993845608069345e-03,1.230055132473568090e-02
5.464537419453394974e-03,-6.086514786172366256e-03,-3.336053395121523456e-03,-1.391498702841831824e-02,-5.671359706627778809e-04,4.060695208928409572e-02,-1.057171624561038976e-02,-7.639125334098598478e-04,-7.047569675784363854e-04,-1.333985365966802858e-03,-1.160257444229743283e-04,-5.374849264069176367e-03,1.172936752262229776e-05
-1.531106450668994964e-02,-2.137357188272102221e-02,2.996810712272251521e-03,-8.091208899572514476e-03,-3.081113178596965249e-02,-3.415169333760059017e-02,1.134007636971661945e-02,3.990100721323332905e-02,3.145097456968710178e-03,4.180893442076736438e-02,8.391779758370312764e-04,-2.324972616483105686e-02,4.403296600054482091e-02
-4.566429209895897859e-03,-1.362314471550226877e-02,8.277929055459020899e-03,-5.810519101330344389e-03,-5.498209748553024682e-03,-4.516482894088475614e-03,2.593039107052802061e-03,-8.343355306330747442e-03,5.039130474801494300e-03,4.389893541160281264e-03,-7.190871606095531124e-03,3.656188918709937091e-02,-5.467929722529704531e-04
3.647457301592473868e-03,-3.844077205801548543e-03,-2.765454146469434327e-03,3.989049386054155377e-03,-2.133190046512409895e-03,9.991194415848451277e-03,-2.690590856639690255e-03,-1.232445301594981609e-03,1.421966226273988984e-02,2.886886088662574124e-02,-1.305202121377856649e-02,-1.572390563086040888e-02,-1.832576516388313009e-02
-7.051893825569061081e-03,1.273568377754633399e-02,-8.521313368055815837e-03,-6.233953078548938598e-03,2.990062247018017514e-03,5.419063842811284309e-03,1.020347947156328983e-02,-5.260445700352070486e-03,4.434324246358050184e-03,7.954788781601445855e-03,-4.352430518454112121e-03,-5.027932434912851106e-03,-4.623786290587242158e-03
-3.928626983722463897e-03,-1.713803915453528375e-03,-5.491503346398233024e-03,-1.787965792694764730e-03,-2.118954777873292351e-04,1.561720874972191350e-02,-6.149854536659784057e-03,-1.503744152567271317e-03,-6.320870724765821277e-03,-8.892438708925342813e-03,1.517432823211371275e-02,1.271346241377841434e-02,-6.711690248035443070e-03
-8.684717001144176551e-03,1.370780375772925885e-02,-3.790933604769575801e-03,-5.160880729133417340e-03,-2.919176219060016977e-03,2.816945455436610860e-02,-6.715418070202582371e-03,-1.377695778513234395e-02,-8.525255598121384698e-03,-3.651064097780136290e-04,3.613585010935936506e-03,-3.224276232796764816e-03,7.840349132225456208e-03
1.393508916794346719e-03,-1.282424901671742890e-02,-1.308313968529640006e-02,1.737932296858252148e-03,1.993689627989961993e-02,3.180934126863709660e-02,-8.918979219102807568e-03,2.357988040541493177e-02,1.464888353281799342e-03,-9.506056583493847564e-03,-4.607418246115327180e-03,-2.202834148175511833e-02,1.487147671302239960e-02
1.698985726690416947e-02,-5.195625118866535261e-03,-1.673633125601665895e-03,-4.380726080483455555e-03,-1.105120795023536388e-03,-5.464276725024519270e-03,-1.182211001230191842e-02,4.089373246837859494e-03,-2.715837024780194415e-03,5.097166708471888991e-03,7.040417773117632616e-03,-3.066594627650537624e-03,3.675697067159559069e-03
-2.729848978978328521e-03,2.152063743516550304e-02,-1.476726794720628101e-02,-2.213455912654400254e-02,-1.298230344128079028e-02,1.140680233892770769e-02,4.985875388167109422e-03,3.486838923901722925e-02,-1.110002484548527728e-03,-1.851965779801607176e-02,3.428595409233077540e-03,-2.948538357176892777e-03,2.493352859015783313e-03
-1.348521729940346282e-02,-2.257174560600466034e-03,-2.400153967058208521e-02,5.903523883616089082e-03,-1.278817638859659420e-02,1.494079521308160595e-02,2.528963739312858894e-02,1.113314963774510055e-04,1.052335746788974832e-02,-8.766878782438465231e-03,2.861475295863808929e-02,-1.027575939524284429e-02,-4.129583448648682480e-03
-5.971191403089025525e-03,1.097530829779151500e-02,-4.436844233565389803e-03,-2.164215371421190220e-02,-1.713694497674942254e-03,1.723628797280352815e-02,7.450514263914688375e-04,-3.310389771748400382e-03,-1.374978233669438624e-03,-7.841625757936235980e-03,1.944225258430477138e-02,-4.496536839492609738e-03,-7.201409500026264079e-03
6.904715164217260304e-04,-8.984706091228341143e-03,-5.220512874884283144e-03,4.280643205909968538e-03,-2.285237345408847216e-03,-3.692468148203430830e-03,4.539666172580324524e-03,1.365245682470394781e-02,6.971300249928973070e-03,-1.163232321443856930e-03,-6.896364744302091628e-03,-1.185784232211042726e-02,7.349274027216322336e-03
-4.579993065890232591e-03,5.113722929973891097e-04,1.883310744252028298e-03,-3.356578956094861087e-03,-6.361951408781092547e-03,2.014288279664277776e-03,3.894211174345037912e-02,8.663320812995159870e-04,-6.011789977650689593e-03,-1.791367979945219374e-02,2.313469909255788572e-03,4.575074590548873195e-04,-9.202094444365873163e-03
2.027024588913792918e-02,-9.923076937429133743e-03,-5.869965365887656536e-03,1.224866962950481959e-03,-5.202213867848327726e-03,-3.411924713867907268e-03,-1.209974918422299095e-02,1.603789352710639077e-02,5.328822346377549025e-04,2.446882025750691733e-02,1.108358408257052122e-03,-1.556170852923164987e-03,-7.676261455516549155e-03
4.937119632499714292e-03,-9.599891997498234339e-03,-6.518238903335334469e-03,1.839235969193020806e-02,-6.261896031337128507e-03,-4.793699446177591625e-03,1.611716917728755333e-02,-3.778408723459164564e-03,1.401223499920012383e-02,-5.345742968952738039e-03,-8.198095427384137490e-03,-4.580717954509003730e-03,-7.802982048303047299e-03
1.077321917178365555e-02,1.563132317011585101e-02,1.537203475663054307e-03,-2.708588989309799501e-03,9.748378355665420544e-04,1.278895480425584676e-03,-7.442709831715131272e-03,-9.476952967444813788e-03,-1.471888657075798648e-02,5.397971681726593252e-03,-3.975636220331626373e-04,4.743828232416769271e-03,-1.360264785223341821e-02
2.851154559636416477e-03,-3.748675566227736714e-04,1.607316519035283412e-03,2.777740824942842449e-04,-1.404392688114474656e-03,1.065296833900517080e-03,-4.283016153251558746e-03,-3.338207787178046424e-03,-2.287933264097335821e-03,1.646548194368115808e-02,1.940294740329417955e-03,5.707081591051614035e-04,-9.127836783815564820e-03
-3.895861327508853833e-03,-1.593339463884636473e-02,-3.544079634546005910e-03,-1.146390088073265864e-03,-1.258701984943112404e-02,-1.316825376850988029e-02,-7.665185390641908285e-03,4.391229532121762417e-03,3.600132933301396915e-03,1.617119089120606229e-02,1.974359927944115481e-02,2.734504513535811893e-02,-1.357231665126590846e-02
7.781793653455426011e-04,-1.864450315819421791e-02,1.079685396949336615e-02,1.590752415493839386e-03,-1.318331309291633294e-02,-3.789259055875369986e-03,-3.469937688252222770e-03,2.336510766666561462e-02,-6.074048062820302206e-03,1.566200950287609944e-02,2.830194930447366142e-02,-1.669597536191167603e-02,-9.118734256103535761e-05
-1.130870083693415531e-02,-7.355358191201220863e-03,-1.184796294185906272e-04,-4.284111815952644162e-03,5.650609019147280129e-03,1.109118367618799894e-02,-1.339790755839427583e-02,-4.809649422021028409e-03,1.766145244588889288e-03,3.254777636954549191e-02,-5.312965715191733315e-03,-9.253253213128590643e-03,6.553539520904148744e-04
2.035131397052479182e-02,7.578711310552545266e-02,1.879954114128788017e-02,3.089929858373463827e-03,-1.097070205866592686e-02,5.382383695302481088e-04,-1.817705787206224180e-02,1.575812566553634955e-03,-2.331546973425048346e-03,-1.391878645025224071e-02,-1.406538419810090482e-03,-9.090828058127536221e-03,-4.109605403035209922e-03
8.233277085558763850e-03,3.830498085408218147e-03,-1.244836872877180464e-02,3.027076348888294629e-03,-1.065020445381723545e-02,1.824302154723097483e-03,2.886440655784242720e-02,2.664953410183338103e-03,-3.069326125841815526e-03,-1.870721158185201932e-02,-5.832469967897565763e-03,2.559413399015019342e-03,1.012652870658567114e-02
2.322657223496141514e-04,-3.705175586125220738e-04,1.328474411295579340e-02,1.338048144973109140e-03,-2.358617317921598688e-03,-1.506825320321496155e-03,1.432091163212007631e-03,-5.863993850453428670e-03,-1.123303967924468676e-02,9.192086201082101411e-05,6.838930844835669313e-03,-1.148955729990160015e-03,-1.246576269221469878e-02
-1.905881596224208354e-03,-4.762340198722658444e-03,-9.884847551989230791e-03,-4.278223343180545014e-03,3.443243204047279765e-02,-6.402456252733205837e-03,3.509513753510351032e-03,1.924462660751803667e-02,1.031396444262428803e-02,-2.887233213148997051e-03,-6.903532651600213441e-03,-9.912172796976844238e-03,-1.129753687626007877e-02
-1.254664308488552191e-02,2.326934054127079848e-02,-1.231588067714468361e-02,-7.334141404329882694e-03,-1.099309132125725688e-02,8.179196142227890612e-03,-1.686167230160280986e-02,-5.434045093881941478e-03,-6.296059926247703220e-03,3.389038212386946171e-03,1.686171242657103983e-02,3.050569314738735271e-02,9.995944848121573502e-04
1.528876323985347251e-02,-1.576931629178001878e-02,-7.860522037327106679e-03,2.682946222309019052e-02,3.624145010888737278e-02,-9.414891584019435128e-03,-7.773710470390928114e-03,-7.693780329675413594e-03,-4.369835840221137323e-03,1.574044617755256809e-03,3.244088389728015057e-03,-5.877047496053564371e-03,-1.145761943992132208e-02
2.419249650760648546e-02,-3.006287481723387590e-03,-1.062645967949165868e-02,-7.101623758008733522e-03,-9.380692388627922748e-03,-3.554383622270640333e-03,-4.956964499227656078e-03,1.126884321455360639e-02,-9.215378165660332438e-03,-7.165027929308674312e-03,2.803088468830984038e-03,1.265469924276443892e-02,1.423348306201481853e-02
1.587987177387175514e-02,-6.664099161560551980e-03,-5.006957594452511769e-03,-4.769242963917628801e-03,2.225548692177740408e-03,-4.565569198697211686e-03,-1.565380152730566979e-02,2.195597454194704069e-03,-2.155686817425108803e-04,2.767129420912734644e-02,-2.822242172224985989e-03,-7.541203151492969006e-03,2.416665458451956652e-03
-1.183094689165115152e-03,-3.312304001748082871e-03,-5.319453719562891938e-03,6.142391529482990956e-03,-7.516164394190509752e-03,3.140565387869029279e-02,2.434724642759411757e-03,-3.988997177464481680e-03,-7.341702812266240677e-03,-5.766797210194218523e-03,7.592315080308586692e-03,-9.621433106154356554e-03,-9.217387724451528777e-03
-1.290636544683568775e-02,5.602531714504399574e-02,-3.486890712163581880e-03,-9.216278965142161994e-03,1.411454544400622332e-02,4.954190433251898576e-03,-1.947470051237765523e-03,-2.429476193626294977e-03,8.318049307251959221e-03,3.229557205305534640e-02,-7.874108491666622234e-04,-1.451563654352176422e-02,-5.641006817369581365e-03
-4.371259703304561893e-03,-1.429567783117448657e-02,-7.866473836993861392e-05,3.708337346730865985e-02,4.271201925343615785e-02,-1.863114556878803230e-02,-4.971007853039583792e-03,-5.111951211407919811e-03,-1.400569806290079614e-02,-2.780632926857140846e-03,-1.520197078514008183e-02,2.033159356919601608e-03,-2.473656866872590713e-04
-8.921971060361851696e-03,-5.674349617195333442e-03,-4.929587887163918748e-03,-8.467534401209380474e-03,1.030073454009568495e-03,2.039932205941032833e-02,1.504838987184840826e-02,-4.083864257887262310e-03,-7.391374969717645627e-03,-1.912347349529110521e-03,-5.460516535470752702e-04,1.386636923906278478e-04,1.561570833475896779e-02
1.538722531533114144e-03,-8.532090142493781518e-03,-1.004310100021498908e-03,-8.038233421356677511e-03,8.210447381978517450e-03,1.895240897354799614e-02,-1.408479546827033115e-03,2.955042663010498671e-03,-9.817751684647451141e-03,-4.275101155505368900e-03,3.317118831563172030e-03,-5.773420555625040362e-03,-9.758962473710910274e-03
1.419053810307650473e-02,-3.729209477063348717e-03,-9.241544227413132570e-03,9.857631117600534291e-04,-1.366705719121247102e-03,-1.539740706293906206e-02,2.187723012080851695e-02,-5.433050555373898811e-03,-6.341915374382387123e-03,9.546945266762051074e-03,-2.598279847598307293e-03,-8.797972856048476287e-03,7.327246775115043914e-04
1.797960690357720479e-02,-2.491840360493054185e-02,5.138061558154201000e-03,2.116202189007405227e-02,1.762014929018282383e-02,1.983026183221430361e-03,-1.159947080229763346e-02,8.008659888969076740e-03,5.111987425243880384e-04,2.056766682063351087e-02,-1.020106744066770835e-02,-1.400394625919464987e-02,-1.761571017286396590e-02
-4.079461998502930016e-03,-2.995223932702466892e-03,-1.700858604704704683e-03,-1.156731684614047996e-03,1.321353472877582168e-02,-8.760097230808755464e-03,-1.392032710315516553e-03,-5.232778469008216374e-03,-3.196964692244402047e-03,-9.350695501805712014e-04,-5.955728158163715391e-04,1.335833481880877244e-03,1.872532819108133420e-02
2.058108343805580692e-02,-8.045914276538650850e-03,-4.140499540950115173e-03,2.884005317245677893e-03,-1.147735027042845989e-02,3.062909507574142903e-02,-7.597284991113522137e-03,5.374779161553600623e-05,-6.503718771882214741e-03,-9.866929382700406065e-03,-6.837077581418449408e-03,2.700475896660440266e-03,-2.653410942383093579e-03
-8.916870983870612069e-03,3.680771224352060583e-03,-7.926845341913754325e-03,7.969824536942649983e-04,2.406623393527468520e-04,7.550766956456063210e-03,-5.521015769131118814e-03,2.251628168659572035e-02,-2.318025093801376422e-03,2.971700115511392154e-02,-1.206482038506521449e-02,-4.394191244432373196e-03,-1.365403356499578745e-02
-1.049149322493193696e-03,-6.570279346565920109e-03,2.081274370310288307e-02,-4.381669554163456805e-03,-3.266800188329867152e-03,-5.635013039239981404e-03,-9.361245450287178013e-03,2.785386275196858816e-02,-2.010759498008795818e-02,-8.683691342127680679e-03,-2.961751091871368900e-03,2.704344122367430270e-02,-1.542986941328747252e-02
-6.855540880614624218e-04,-8.497826129024572267e-03,-4.636355850615161631e-03,-3.700135019305946828e-03,7.259880201603823024e-02,-7.423370529091857448e-03,-7.392287120477942716e-03,-8.468347457367344719e-03,-8.912805842192266653e-03,-6.230931963558321990e-03,9.747880178355639502e-04,-8.217746136574943794e-03,-5.077103789330469387e-03
-5.264064847260651117e-03,5.268699578538897296e-03,-2.167433790388994565e-03,2.852787118574398421e-03,-4.831535771945135935e-03,5.295125239625353766e-03,3.559708061626808140e-02,2.354740373410010943e-03,-1.247017093329369085e-04,-1.636541451528929908e-02,-3.388475572173367013e-03,-1.285927583293007548e-02,-1.161870740145811050e-02
1.029319123083763908e-02,-4.399722123527110423e-03,4.140125776613279296e-02,-4.269197649029445388e-03,-1.200856348922811970e-02,-8.419493187382401378e-03,-9.165801126939050747e-03,1.815421036782593144e-04,-4.788859604974523947e-03,-3.814542580895780022e-03,-2.561897214676913011e-03,1.379174693718939436e-03,1.055407981006734573e-02
-6.781223621231823213e-03,8.406853180932993136e-03,-1.172806955993862393e-02,-5.452254423583329998e-03,-4.915559521007259805e-03,-1.881212564722448480e-02,-5.936264501872837683e-03,-5.814376993522069742e-05,1.333638511900490931e-02,-5.288910107868659283e-03,5.214035216633053187e-03,1.873549774700915271e-02,2.144516481733736712e-02
3.952692053180135306e-02,-5.592085884359029695e-03,-1.208659526010197501e-02,9.554534535790193406e-03,-4.651159596300263703e-03,7.861455410682834793e-03,-1.359780972739329553e-02,1.912158162105110758e-03,-2.652149394548841861e-03,-1.043148883132160795e-02,-2.957313222771353924e-03,6.565257297029507451e-03,-1.395170547290714748e-02
-4.396104029866276623e-03,-1.206687457917866510e-02,1.491663539310822753e-02,2.190583243284874998e-02,-8.295426780563072353e-03,8.837744760595993981e-03,-1.293532252507197632e-02,2.825113522774715807e-02,1.196045372546185662e-02,9.465551853754488112e-03,1.088136435582661918e-02,-2.835503657892452997e-02,-1.586405569557845438e-02
7.253623385698305601e-03,2.389055114363559246e-02,-6.136225181859542976e-04,-3.062331859372669982e-03,-9.396940132298022691e-03,2.331880314144956293e-03,-2.087208541955665533e-02,4.228517710374010696e-03,-3.545662778158437632e-03,-4.135980084633427041e-03,-1.899794052791087696e-03,-6.824294235496640264e-03,2.074512186645776149e-02
-4.456433441830174105e-03,1.236207646027410664e-02,-7.619075147691516461e-03,4.339573041069787196e-02,8.224378241330987382e-03,-1.627997773600301391e-03,-2.158012484414142604e-02,-2.693506738461821579e-02,2.603819963688387001e-02,3.391368717510464398e-02,4.820507862587899463e-03,-2.017449555068065795e-02,-1.144663989660567316e-02
-9.554255135014326267e-05,-1.274577864699912889e-02,1.266473425741739336e-02,-5.833755963270538351e-03,-9.756357663399413752e-03,-6.277804858749373371e-03,3.792612147380090837e-02,1.451740402686722484e-02,2.481389709409712475e-03,-1.075094771571681943e-02,1.170397881949020516e-02,-2.226915489480621457e-02,-1.036048914414992340e-02
1.184535699807058671e-03,-1.118694218607300603e-02,-7.844931629102044196e-03,1.048069810371985225e-03,3.367505758585283369e-03,-9.125263859338029332e-03,8.876639076705577624e-04,1.319356257389722384e-02,-1.147370055872313707e-02,2.713700930377421078e-02,-6.286075616723636912e-03,-5.405718983348431657e-03,1.073260138176576270e-02
-2.122439329751955070e-04,3.500156304559142589e-03,-7.394605663882290562e-03,-1.602080116543581944e-03,9.123610912247512653e-05,3.671140686560597690e-04,-1.504350636249924059e-03,6.756954461604250395e-03,-6.303348874378532102e-04,-7.870338894409105099e-03,-2.058504387986282488e-03,-9.195518751407106639e-04,2.232528262472182473e-02
6.718082993209821899e-03,-4.664030582295514973e-04,-7.582138520497436369e-03,-4.809338411876536157e-03,1.192462733610200401e-02,1.340908514286807398e-03,-6.077531244794865534e-03,1.248694791501863549e-02,-6.060123885240603202e-04,-2.615167799243453810e-03,-1.048976404679099767e-03,-6.157427090413948936e-03,-2.628425686754076555e-03
-1.158784233147563611e-02,1.500010008674704763e-02,4.574426054720617286e-03,-7.019086321636602670e-03,-1.263857406565097041e-02,-1.085765202095048329e-02,1.470685867573541528e-02,8.476058727302695356e-03,-7.960504189875079392e-03,-6.381668734665247103e-03,1.515526355914126842e-02,-4.838361180216057579e-03,-4.046497714249618245e-03
2.225082881684225383e-02,1.823751596644020406e-03,-4.475101301401863962e-03,-1.241638340082051916e-03,-7.528035040361704192e-03,9.708156316624774046e-03,4.928565257352276845e-03,-8.969197271510810296e-04,1.341842901997589892e-03,-1.015070919137948599e-02,-3.337057046378466649e-03,-3.286674525915146781e-03,-6.845210988371683118e-03
-8.209168455818515939e-03,7.747817223944746153e-03,-5.031039023303968301e-03,-3.458410148485570931e-03,8.762199156388117546e-04,-3.441481188241098197e-03,-6.313429345073807812e-03,-7.099221180251936818e-03,-3.782435587912361813e-03,-4.209906589304850816e-03,3.251153215949210452e-03,3.127041788631557736e-03,2.006264050462570198e-02
-4.071756948096069695e-03,1.807501009273193961e-03,-4.014617557861376723e-03,-5.275844796366320130e-03,-2.442248621938575455e-03,-4.852218919790281422e-03,-5.683583237999967688e-03,3.920881982391812189e-03,2.868405546072058665e-02,-3.892407836616071197e-03,1.653933578797744941e-02,-6.354693307935171953e-03,-5.560397728572540749e-03
-4.160860273842660953e-03,1.486686767665542329e-02,-6.972037750808990006e-03,1.827820658141801656e-03,-3.404050953426831887e-03,-1.268717052099800624e-02,-1.715401032754346883e-02,-5.116147818789563935e-05,-6.477198005515563684e-03,-7.265172329574609220e-03,3.590397474496579561e-03,2.879313352694443107e-02,1.343376027740030530e-02
-2.095539279865400381e-03,-1.505604901988812864e-03,3.585390653209370032e-02,1.716422871141099361e-03,-1.537591764460673194e-03,8.730614428569398108e-03,-1.589577112838739398e-02,2.399245763485287949e-03,-3.902710658896131439e-03,-7.656573903721672000e-03,1.862385681068347981e-02,-1.738366286020402371e-02,-1.140079330467799051e-02
3.979489889687107089e-03,6.461768909686829883e-03,-8.150097691020530971e-03,-6.129799355639763310e-03,-9.248277554676987561e-03,-3.381061225579331565e-03,-2.030346868702121669e-03,3.946042540013296185e-02,1.397616234160559828e-03,-1.066298299074850374e-02,-7.098840677227355499e-04,-3.883255859289095994e-03,9.749201227250250609e-03
-1.164891992855730286e-02,1.373967971712169653e-02,1.862230433975780100e-03,2.621131390303715197e-02,1.156531290545899111e-03,-8.348013694494376552e-03,-1.105812637495107165e-02,-3.479789036350546764e-03,-1.965669053890881958e-03,1.604442966013927205e-02,-3.628063251281751864e-03,-6.788341668302599712e-03,-3.315225570713731360e-04
-8.971006744505632610e-03,-6.136074551460347047e-03,2.632095992108250682e-03,3.542614631369849550e-03,-1.074510792604776131e-02,-4.811578900880557168e-03,-5.468449761376502002e-03,-7.059902444692502284e-03,-7.478368859157988671e-03,-5.777921261025060172e-03,-7.438812540246701917e-03,5.775953960552111799e-02,2.155686181547024783e-03
-1.029788114718530045e-02,7.800457631879158249e-02,-8.860314061574548622e-03,-4.504886728216724381e-03,-1.264293227170501868e-02,4.393359498030747936e-04,4.589837652218964337e-02,2.307059544172011031e-03,1.623561058409875605e-03,-3.276218054253259016e-02,5.647255496480478587e-03,-1.028079684990303513e-02,-7.135869443570481974e-03
-1.494701224308294133e-03,1.449049652879947671e-02,-4.641091237268009785e-04,1.893967446632443402e-02,-1.509570557426511859e-03,-4.094823980768510716e-03,-5.519679236527161130e-03,1.678905943357547528e-03,-1.562616959738453385e-03,-5.288682622697077340e-03,-4.931824543536835782e-03,-3.925578873702310900e-03,-6.600310751451484229e-03
-1.050333728614032038e-03,-5.089046819729597416e-03,-9.506638162391547455e-04,1.325195001759867444e-02,-6.368896783395991933e-04,7.455255170284047321e-03,1.152986645099725966e-03,-7.498979409938407240e-03,-1.132939241488622193e-03,-4.064437819243343908e-03,-2.668992858220610269e-03,-2.356054169791334425e-03,-5.357729265132048571e-03
2.212206769027496092e-02,-7.437350883614937853e-03,-4.964282619658000675e-03,2.768112156738287803e-03,-8.347619713252178372e-03,-7.672206292706195210e-03,-3.321275151030909402e-03,1.971554827888357536e-02,-5.435302541808443959e-03,-7.765216782786677841e-04,-4.723945299794293513e-05,2.418873614740057673e-02,-1.065660140644072648e-02
-7.676300242201319164e-04,3.539511661892800294e-04,3.193359797210482132e-02,-2.568643007720365808e-03,-2.286278710783545397e-03,2.062375718745623754e-03,-2.308247737250977098e-03,-4.164804376334512413e-03,-6.119641825304010345e-03,-4.877808487945935363e-03,-1.314639409847386540e-03,-6.095197195361612419e-03,-5.476343952688421043e-03
-3.675800888774199103e-03,1.901806786598543575e-02,-3.084057121161446618e-03,-6.385280512531311785e-03,4.190963363154234789e-03,4.904261619992345694e-03,-6.030724200402939363e-03,-6.341236561903079716e-03,-9.663024959198800775e-04,1.048637899665063287e-02,-2.585243271814701479e-03,-7.703500647914141020e-03,-3.176791509221726408e-03
-3.236857879983037929e-03,2.058852807806987005e-03,-4.031815374154067329e-03,3.008915861367416657e-03,-1.224202371120452354e-02,-5.307989453262530744e-03,1.555199164198971425e-03,-5.296757199451647066e-03,3.228185612410980343e-02,3.014247547006171542e-03,5.265046399609562243e-03,-3.464438699132898949e-03,6.310441735374870990e-04
-4.969949979790033376e-03,-3.907282624652510042e-03,-2.350489765721979624e-04,-1.683348995804962583e-02,-7.087271657908504607e-03,2.808557228431372149e-02,-1.205152833422094838e-02,-1.135447381853772492e-03,9.155565067585264699e-03,-7.162785879231553521e-03,6.119857462338074323e-03,-2.753601637167680215e-03,1.657451589183208535e-02
-1.129306450398037936e-03,-5.132104955010526569e-03,-3.065901104389832064e-03,-8.413623135372794853e-03,-1.875933871169822246e-03,1.831685777237420168e-02,-9.558730887298232809e-03,-2.711837274748169456e-03,2.485174285883171713e-02,-1.062598817826451844e-03,1.685936041244560230e-02,-2.166512407705233935e-03,-1.755673050893452949e-02
4.812891197982259450e-02,-3.684535869213474918e-04,-4.535741639338092268e-03,-7.163526505058179228e-03,3.247521876944238495e-02,-6.804832977894613617e-03,-1.690124460709708371e-02,2.028640531616887621e-03,-2.556693939701953043e-03,-1.106794961257765407e-02,2.504762853185637378e-02,-1.454674852870689247e-02,-1.708942100089862193e-02
-9.692782336967686874e-03,2.305960363872431099e-02,2.901753668077555748e-02,-6.740146566371727974e-03,9.679062417236152308e-04,-5.780021294961316426e-03,-9.880511958015501806e-03,-8.939270824999475881e-03,5.038682949942029608e-03,9.353081386655404811e-03,-5.030447069716151645e-03,-5.482910967198597815e-04,7.978479814084678322e-05
-4.322384337664669091e-03,-4.622506347466469843e-03,-1.074763156729079995e-02,-5.341255546556887904e-03,4.154382916857010536e-04,3.668172873095151224e-03,1.387396260699155434e-02,-1.000251062892801822e-03,4.042466923456412668e-03,7.885932462795952613e-03,1.406939577763724469e-02,-7.213701767132341472e-03,-3.125021837865162196e-03
-8.844609960542357263e-03,-2.430334067731796527e-02,1.896384644517563195e-02,6.642873562316567101e-03,-1.667411440590149327e-02,1.747253904502572841e-02,4.858003007703837412e-04,-1.149298701971374417e-02,6.991946651639509465e-03,-1.129131499087689290e-02,4.212731824751804119e-03,7.753893500471296767e-03,2.523367211377689542e-03
-1.351005677797145407e-02,-1.483200694991070392e-02,4.021179163192459965e-02,2.056301269938826028e-03,3.252707366402206183e-04,4.350106157932975143e-03,4.308458975559877058e-02,2.063881014029161215e-02,2.688987141613223900e-02,-2.188121277107002785e-02,-3.485258830493416417e-03,-1.508501167195982736e-03,-3.146453462727274303e-02
6.863877597796617762e-03,-4.680828274690884347e-03,-3.645090304989030694e-03,1.595041487170763533e-03,-1.431688424232715334e-03,-6.714957626972920327e-03,-7.300308908444508348e-04,2.030657802792909528e-02,-3.565114442843766518e-04,-1.973786484206919729e-03,7.618182966507724800e-03,-6.755226682613517386e-03,-1.064814240629605342e-02
-3.664183314489170059e-03,-4.122020107755272264e-03,2.279645527328803475e-02,-1.267684577570717466e-02,-6.918473097078938275e-03,3.505216986508426832e-03,-4.002500182686106675e-03,-1.414364179067408370e-02,-1.178549647224341745e-02,-3.050258736847733139e-03,1.713739010037750726e-02,1.079755023832363551e-03,1.271521778091797353e-02
4.483707764895226012e-04,2.465989611030765510e-03,5.085875015061431604e-04,1.143107905923342179e-03,-2.941832518356969888e-03,9.695649114600579654e-03,3.812088533859946202e-03,-8.924498596752653695e-03,2.278452114186951816e-03,-1.104449445684883672e-02,-1.187604446379206258e-03,-1.567293299814557714e-02,8.572030728767698546e-03
1.588953572158360123e-03,-7.301281173663670861e-04,-6.945554707527864038e-03,-9.816044587434606065e-04,7.481553995097757828e-03,-7.421457977832526982e-04,-1.279058355003904156e-02,-7.767582577416902792e-03,-8.280467900525217018e-04,3.241133916076652938e-02,-2.997710751769876170e-03,-2.372376443493773215e-03,-1.693723176674269458e-03
-2.978031417102744178e-03,-1.179111636235217120e-03,1.905490111116126678e-02,-2.278018786304705518e-03,-3.672004681596402996e-03,-4.954241322066981444e-03,-2.821977435644842068e-03,-8.803944059465902000e-03,-2.485365538275003793e-03,-1.946823881493966232e-03,-7.511419928511614032e-04,-1.211564272366935299e-02,2.114397517278485822e-02
-3.782327232921461023e-03,1.312549757508358651e-02,-4.470002036113504378e-03,-6.317628007663521339e-03,-5.017597571604825914e-04,-5.841634368401902797e-03,-8.340107235371865477e-03,-2.610856538581970629e-03,-3.400799816815209577e-03,1.108602031937069507e-02,-1.507668606118759119e-03,1.968570175920125037e-02,4.366030721473455542e-03
-9.630162076815450972e-03,-1.373845207879909394e-02,-1.441327224447492119e-03,-4.762670908256716462e-03,7.884581495581511473e-03,-1.416475623797014416e-02,-1.487272130287237582e-03,-2.181943949492410467e-03,-1.011643681074264958e-02,3.082972798619465493e-02,1.251199032302415318e-02,1.302449872972945635e-02,-1.045351489487315183e-02
2.119178473966084036e-03,3.285290755423678211e-03,-1.834771287876071303e-03,7.040785352120773437e-03,-1.339544114161835497e-04,-5.403500556561884570e-03,1.724898374518851632e-04,-7.681538969236486984e-03,-1.264870152213356039e-02,3.364617557503293832e-03,1.055136224974033941e-02,2.718712341552136373e-04,7.606424502524774915e-03
3.416669766806937347e-02,-6.086841261417177788e-03,4.022689699389270929e-02,-9.349059794120772454e-03,-9.527795785396956166e-03,-5.886469512017789354e-03,-9.766811014389881890e-03,2.486064773731813064e-03,-2.600810248907940107e-03,-5.705055444332708323e-04,-2.031471447159823463e-03,-1.101207687819976029e-02,-3.629788129095983147e-03
4.100557392038388198e-03,-7.126090052632991570e-03,-6.856410698916416344e-03,1.396761333185206864e-02,-1.081661440562887988e-02,4.224325539736486362e-02,-1.031521072131877381e-02,8.313294360609666412e-05,-7.267636986968324837e-03,-2.561653278142649211e-03,-1.823439257392878762e-03,-6.945529735058232797e-03,-9.160078488504792328e-05
5.171910729857258880e-03,1.168044442725828897e-03,1.023526263026451610e-02,-6.308315838563216364e-03,-7.448251414547193798e-03,-2.941707740125138696e-03,-1.085251223964705446e-04,-6.376661721068377364e-03,3.570182022601944925e-03,-3.149204499023023707e-04,-2.555683202957384839e-03,1.415204021456357986e-02,-3.208733460315112921e-03
-3.495160674781828264e-03,-3.203727067629304898e-03,2.548251628648334072e-02,3.418993500394231638e-02,7.304646902661739334e-03,8.121880580732068061e-03,-1.183490087419915640e-02,-1.884423230196234644e-02,-1.597267488643074745e-02,-4.785898299065670033e-03,-7.496539084164764548e-03,-4.286307734058604317e-03,7.007548750440889714e-03
-1.976055661312530951e-02,-6.187396409153078126e-03,-5.265303494094337317e-03,3.632597683333056715e-02,1.223754486420952636e-03,3.750484932416862233e-02,6.652857003310653702e-03,1.497698742794268366e-02,-2.812657834307889099e-02,-1.238396104954125583e-03,-4.486897687466957492e-04,-1.351344805701142418e-02,-1.072396070081169453e-02
-6.577794633791484227e-03,1.861043521424964736e-02,3.060388680773086165e-02,-3.641124289626600837e-03,-2.041014047431485672e-03,-3.395197801636128110e-03,-3.869911428959364741e-03,-7.305617502393492023e-05,-6.283309917552641448e-03,-1.094955776993787426e-02,-1.395356338689063931e-03,-4.193699407665509374e-03,-4.713259203282867127e-03
-9.499164785286066254e-03,8.821181365821561399e-03,-2.969836806727215416e-03,-1.117974749761643447e-02,-9.392599602383753729e-03,2.596844880941927627e-02,-1.516891966306564699e-02,-1.242876921377043288e-02,4.403488558607458465e-04,3.102998530272898375e-02,-1.874656809887054925e-03,-1.389584898712287447e-03,1.465251458538884000e-02
-3.334601848066484414e-04,-7.422197257747118089e-03,-6.152766900794015385e-03,-2.052138291226842347e-03,4.856219280561348620e-03,-1.695255852118602354e-03,2.695897060283237306e-02,-7.805677838089478474e-03,-4.257410325416487802e-05,1.727859390217578728e-02,-3.819733682362927516e-03,-4.750214133890614740e-03,-1.338691894516421191e-02
3.216543040564638547e-03,-1.873093250003678070e-03,-1.904692832442922033e-03,-7.950792978046473600e-03,-9.973555071632628916e-03,1.710180770083060547e-02,-1.586132233013352617e-04,2.180832285074615559e-03,-1.431425260578147486e-02,-9.249192374231886629e-03,1.720431098622076868e-02,-7.618707490066463708e-03,1.257120703266983476e-02
1.945545198339793114e-02,7.092079622469779632e-02,-8.485816883426321872e-03,-1.191822908322384342e-02,2.329999232451099994e-02,-2.182937522819251505e-02,-1.303057971501243341e-02,-1.393624119166369732e-02,-1.581070731779189720e-02,8.682659088714879750e-03,1.509488539224220806e-02,-2.379131354265406201e-02,-6.352228314560476319e-03
-7.289285733885405086e-03,-9.307556819254334543e-04,1.947460068840098715e-02,-6.995153256580034611e-03,-9.122172290082017007e-03,-1.194013024454308042e-02,-9.088139512678210935e-04,2.833625884519975352e-02,-1.083256344009949843e-02,-8.172479092171981707e-03,3.269562052534361139e-03,-2.096638677321869745e-02,1.373001468873712161e-02
-2.113457162954498862e-03,-4.377287050213667097e-03,-5.804864165643115401e-03,-1.094359295834477878e-02,3.062841166216759715e-03,7.617590624835556164e-03,1.029998038409273443e-03,1.219595121875979502e-02,3.430122534268721657e-02,-8.005814478726587871e-03,-1.666931647983478908e-03,-1.673531651463508116e-02,-7.973425222989201019e-03
6.141761214594215583e-03,-8.560234460117246286e-03,4.072746565666059138e-02,-3.786248030224919660e-03,6.181433554189845123e-03,-1.231738840833991860e-03,-6.203843158499284562e-03,-6.217277636772397184e-03,-4.592351017308045347e-03,-5.332209229369774123e-03,1.239193393887887649e-02,-1.339556649312667082e-02,-8.468547912706670538e-03
1.100222813025603964e-02,-9.489977942329018770e-03,-7.740702091150742899e-04,2.035396860085149449e-03,1.612896556250921574e-03,-6.434870445371819805e-03,1.745181979730292890e-02,-1.950166065311751155e-03,-2.078399954449635084e-03,-3.863961857124206204e-03,-3.204318528969254953e-03,6.484918688377194762e-03,-4.831970404048294490e-03
1.048255889668995265e-02,-4.953762106306419839e-03,-5.105893404216894568e-03,2.579927464220616029e-02,-8.999283156008505008e-03,-1.082583393835296129e-02,-1.508487665050677051e-02,-2.986718943445472538e-03,2.666048315064149105e-02,-4.264117322549157083e-03,1.306025265887764651e-02,-6.199739669169559292e-03,-7.369446898507918224e-03
-4.529023317569372785e-03,-8.271285030211409281e-06,-7.743525422442359973e-03,2.010479774225832662e-03,5.778154728987147312e-03,1.538665844145549119e-02,-9.783145875262033025e-03,-1.474911978124789601e-02,9.865363388657852686e-03,-5.336790004270550170e-03,-2.599756963152651760e-03,5.902681170958938746e-03,6.172430385414992039e-03
-6.519735015923439135e-05,4.063293288509810600e-03,-7.283462439892612883e-03,-2.551825777067705074e-03,-4.180642281986037857e-03,-1.162263521049807305e-02,1.970184605081410148e-02,3.037752996662854144e-02,6.790884930382367138e-03,-9.708001537509568929e-03,-4.690236884706263515e-03,1.369749070286090976e-02,-1.263986055274847475e-02
3.330444982148541427e-03,2.004056975859332731e-03,1.691160991388269627e-02,-1.183813186935154561e-03,-2.198476655335355849e-03,3.877237534765976684e-03,-4.392497801318226598e-03,2.515145303063949858e-02,-6.887039744882525634e-03,-7.684937110635307531e-03,-2.349491562374924833e-03,-1.038669003888176290e-02,-3.717708351468521945e-03
-6.689961340561890665e-03,-1.760874181430460012e-03,2.429949555863236232e-04,-8.743698824142057818e-03,-5.476133409317353665e-03,-8.243277508500576958e-03,1.282771623624763546e-02,1.218740914810430157e-03,-1.908542354540596151e-03,1.301164535093790077e-02,1.341095382143337768e-02,-2.360804289515685932e-03,-3.690743284917116611e-03
3.115309753469146931e-02,-6.451994607726392605e-03,-3.605767651962735274e-03,-5.683558843727890518e-03,-5.466846355084611052e-03,1.093992523892621006e-02,-1.612705659725823665e-02,2.772289555274005425e-03,-6.592274039703201194e-03,-1.311326698352461781e-02,1.234888880265826508e-02,-5.811859469220982330e-03,-2.079404778466776259e-03
4.459115221646327634e-03,5.659988560409151938e-04,-7.657449101941547417e-03,-4.877239280622040589e-03,-8.280152844488646371e-03,1.148849937856389128e-02,-1.681252396818554195e-03,3.978502964573708833e-02,-1.020212736015573083e-03,-7.093007035811145847e-03,-2.982769354181796437e-03,1.940489642023850581e-04,-1.087980792268394489e-02
3.613429463247209983e-02,-1.000031616259406016e-02,1.164652889037613644e-04,-7.010820632381771153e-03,1.184607787373708268e-02,2.075281519988935591e-02,-8.356051731224006449e-03,4.462068873395002612e-03,-7.090467920673680993e-03,-1.303801674280256548e-02,-2.044540482171586585e-03,-1.939746624220160115e-02,-7.854158282952545048e-03
-1.013039870767781965e-02,-7.822307570630092355e-03,-1.334001149617152979e-02,2.352209660322534743e-02,-1.254433536586712847e-02,3.003611232296279909e-02,1.651345718681581157e-02,-3.592603718290174938e-03,-1.544660863428669274e-03,-8.623773663064137826e-03,-1.700246862409283239e-04,-7.478888607992363428e-03,3.143646759801703265e-03
6.432030248951514824e-03,-6.993434212119957645e-03,-1.561389213982192561e-02,2.601968189740374443e-02,3.766989425869892404e-03,-1.065226782481616024e-03,-6.652315866597492341e-03,2.989408720658061000e-02,-1.815833434639973955e-03,3.256054411298608432e-03,-6.226560963167439809e-03,1.931956179669313796e-03,-5.208100800553217696e-03
-1.437447843244556156e-02,8.233051749595383722e-04,1.493560591628219011e-02,-9.972243147207017835e-03,6.007807407132558127e-03,-7.420248419714746413e-03,2.409964908102921188e-02,-1.535837123923159374e-02,2.364334295757446192e-02,-9.809063818613891761e-03,-7.435438207404387878e-03,1.707854987980170214e-02,-1.521605307744225216e-04
4.361378723795398572e-03,-1.452024422546595306e-02,3.455546395357061984e-02,-2.908322597851870084e-03,2.361418602613902032e-02,8.571461719204937629e-03,2.812603622232198817e-03,-4.882520883585884583e-03,-1.341403202796891472e-02,-3.461919997456325369e-03,-7.539025980473216051e-03,-1.778433133021820739e-02,-5.820413723008351949e-03
5.554519975885549403e-04,-4.568084162648288968e-03,-1.287214239511177971e-02,2.403525050291017984e-03,9.561321388701072427e-03,1.405119043737542393e-02,1.775290073401922242e-02,1.240524288172686548e-02,-3.322861864647142817e-03,-1.748136496503042286e-02,-1.146902272459047502e-03,-1.459704807660918216e-02,-1.342457342914316065e-02
-1.229237347062869801e-02,6.867852764590114123e-03,-2.917792282668509908e-03,6.947781740397456114e-03,6.692467257762763078e-03,-2.203417909512758125e-03,9.412102189864584439e-03,-1.343793222031272085e-02,2.476181462728651098e-02,-1.356547453045298980e-02,-1.280343158939398727e-02,6.269970782923989239e-03,-8.022179700500587166e-03
-1.093760866822767949e-02,1.188175199085499817e-02,4.593600718412887973e-02,-3.985546372217305990e-03,-3.552215356364774122e-03,6.931018696286675614e-03,-1.138312265531331302e-02,-1.867509161045583302e-02,-5.514610986368282709e-03,-3.230750876268155374e-03,-8.326390548019998658e-03,2.155278040337886211e-02,9.341355778632904217e-04
-8.059493696625733700e-03,-3.007142018604069648e-03,-6.304499593644506683e-03,-4.291728360237144664e-04,-1.189902539421275850e-02,-6.276693135280309380e-03,-6.315738002699303015e-03,4.229591497970012007e-03,-5.039760307827241027e-03,3.768145004743361781e-02,-3.171880934331674281e-03,2.003180635174071217e-02,-3.432743582865031666e-03
-1.240492726785859257e-02,-1.153267331942464148e-02,-1.736716284821873332e-02,2.354496670807450925e-02,1.309832273825635961e-02,-6.738346450362244118e-03,-1.115763391929121620e-02,-7.481084982158009260e-03,-1.242704688233661411e-02,-9.909663082220781377e-03,2.520951614964267451e-02,5.937622519588418163e-02,-1.248704207896835991e-02
4.941290901887017200e-04,8.573320026138236266e-03,-1.279800134795963142e-02,-5.132831368649084375e-03,6.877722870450092389e-03,1.584772028730097732e-02,-4.303077146273143541e-03,-2.879741898335506575e-03,7.655670669599641195e-03,8.952239953176762202e-03,-2.742778031421559334e-03,-6.722092822240675544e-03,-6.529946120745692972e-03
-1.492332233929361505e-02,2.021948555591615712e-04,2.669518478349734367e-02,4.448347210146562543e-03,1.339115953647158387e-02,2.432961353666399790e-02,-5.280279136658858410e-03,2.398440184878335678e-03,-2.584755595890143517e-02,3.231768005392431824e-04,-8.211287835273436628e-04,2.297021208398131870e-02,-1.386787519764809753e-02
-3.106770336129769002e-03,-8.743189949045793510e-03,-6.903924142428770686e-03,2.321515996870606585e-02,-1.545210619628339943e-02,-6.617614006348132918e-03,2.779484094231236130e-03,2.141640809054524541e-03,1.645907977854054946e-02,-8.703619842007048182e-04,7.055547319977489504e-03,-6.243467789143996617e-03,-4.723806084879266474e-03
1.292585982320585379e-02,-1.855299567809107555e-02,-7.575596699204496798e-03,2.576535242019494312e-02,-2.142886435385671709e-02,8.466164238715618434e-03,1.655206830831840170e-02,-1.129890330689712653e-02,3.822779479721561628e-03,-9.642643958355465519e-03,-5.236618647085136517e-03,7.347676414735607002e-03,4.254218404814465518e-03
-9.804010669278580628e-03,1.725068406060940862e-02,-5.083324403353297119e-03,2.270687763773995144e-02,-1.009205341528675304e-02,1.506600359907137032e-02,-3.801833300672223352e-03,-3.829197320302635439e-03,-6.601670791930649984e-03,-6.410146573023548129e-03,6.548124883900227969e-03,-7.111213487559986217e-03,-9.646424769226887713e-03
6.142033090192746368e-03,-1.401881420904507736e-02,-6.470883190321075062e-03,7.946187552694107883e-03,-1.037100389636401963e-02,5.675453834138207559e-02,-1.309619042687263854e-02,-3.006830255210031326e-03,-7.396433701344172842e-03,1.888162390287974335e-02,-6.712057849897342179e-03,-1.042819723172542026e-02,-7.899275267441236564e-03
4.605280974413552240e-03,1.742031598647314841e-02,-1.402416970343025844e-03,2.195648040097820594e-02,-1.550226161852479370e-02,-9.298120193526413640e-03,-4.783572710496518214e-03,1.487672233937120149e-02,-5.715135081948119825e-03,-3.917191854195795249e-03,-2.618152556340138347e-03,-1.359511193015948806e-03,-2.360161731070879558e-03
-1.248533360365702838e-02,1.332619533024423895e-02,-7.930745980130507466e-03,-6.413257589660413711e-03,1.283261009150912443e-02,-1.529439039441803962e-02,2.029523820774353782e-02,2.340449789210907652e-03,-4.572874699417770437e-03,-1.469556233839284728e-02,2.313175973838883792e-02,-9.576237906079280646e-03,-4.229962605743612693e-03
-3.378346509319558703e-03,-4.491814389021607577e-04,-1.130904711768994288e-03,2.346313130096671327e-03,-9.001006624456381333e-03,-1.064086845957107341e-02,-7.111217315059923001e-03,-1.934895473554711131e-03,-2.855774452485988942e-03,1.969187089663932896e-02,-3.272604019361945345e-03,2.416611961349476520e-03,1.869475487475020375e-02
-2.865951589040544034e-03,-9.706064840555656686e-03,-7.138109291706625122e-03,-3.443769489089957506e-03,-1.490425598701836107e-02,-1.591932119643868981e-04,4.539585451564196470e-04,1.867292440552787217e-02,-1.125858065098865081e-03,-4.522911292671626636e-03,-4.282312329681647357e-03,4.953232197771174905e-02,-7.846770193413718508e-03
-1.477867817603218878e-02,1.503947727776701847e-02,-4.662970311560947836e-03,-1.229789345910720609e-02,8.338941007768116767e-03,7.180597884238150083e-03,7.923809562352723823e-03,-2.829658400495279388e-03,-6.320074715164524133e-03,4.032623060573911275e-03,-1.043203312912866550e-03,-5.532987795859671196e-03,4.520132864917500090e-03
5.844168487134195240e-03,-1.415023397864432434e-03,9.105249855972486622e-03,-1.912322871250207333e-03,-1.561869482467069872e-02,-3.509212850501999825e-03,-1.131179173597154615e-03,-7.238481584701123191e-03,2.652036967621604346e-02,1.599552170571174117e-02,1.419757723729088168e-03,-8.966091780332526712e-03,-6.211934438215428039e-03
-7.990249845491417813e-03,-8.631015977182494772e-04,-1.460426905945211816e-02,1.556621151354812063e-02,-4.380866181026702930e-03,2.381684111576054530e-02,-8.074059854556486088e-03,2.000607264408015007e-02,-1.962230519341413501e-02,-2.247123216227720280e-02,9.974154304221876689e-04,-8.519518632301641831e-03,1.568876162270455704e-02
1.003088448767657653e-02,-2.370744286382936287e-04,-9.151687726399290040e-03,-8.095510721649542413e-03,5.681832733210096312e-03,-8.874930927147932705e-03,-1.276730069218804178e-02,1.539476507559150477e-02,-1.250055816024467879e-02,1.734603531053948572e-03,2.967524580606314966e-02,-8.056971758151719801e-03,9.134049474376567529e-03
-3.732307413879130432e-03,-9.012458798707949706e-03,-7.581318260814745753e-03,3.476423162736282102e-03,1.543172708121852421e-02,-7.144590144120589736e-03,5.289781001057423590e-03,-8.527148267415697244e-03,1.571314311521913171e-02,3.016885030860839458e-03,-2.220220689526844222e-03,-8.522407393710046408e-03,-4.357295542487362935e-03
2.909621292567680841e-03,-2.218830753132835804e-03,-7.044853464560999270e-03,-3.272914610875516436e-03,1.135859963062870771e-02,-7.230180299023418120e-03,-2.039226233326424387e-02,-3.731981644039057862e-04,-5.714348017477927262e-03,1.671533491501698415e-02,1.684628461330346400e-03,4.632955236613025413e-03,1.947724591669042563e-02
-9.023405797833995018e-03,1.066140246771903922e-02,-1.610649742535482515e-02,-5.713223062904834032e-03,-1.005426657918529268e-02,1.079591898823170117e-02,1.725465961597578632e-02,-1.600847651744414027e-02,2.105362358594696504e-02,-6.787211396289382845e-03,9.281174311165967666e-03,-3.571335559615155565e-03,-6.180807271921834843e-03
9.025370701423746783e-03,-5.741660553125369989e-05,-2.343577212092834081e-04,9.325088501391798346e-03,-1.111279150694411896e-02,-4.016456199828453977e-03,-2.212219611930458206e-03,-6.981293081121275890e-03,-5.031296484568039545e-03,-5.878492729927103921e-03,-1.810165436134389752e-03,-1.610200527130230957e-02,2.584355291124670190e-02
1.783768752944722659e-03,-1.240437545831550754e-02,7.269310900576328102e-03,-6.300276712647423331e-03,5.068727964478239329e-04,-3.026827377615236118e-03,-2.956281340757734288e-05,-1.162982258225414914e-03,6.369330564633275335e-03,-1.463382952485830059e-03,-2.036053895654897812e-03,1.335979326305580805e-02,-8.814393185543414194e-03
-5.707832849568232961e-03,-1.518329165487011800e-02,-5.106831268453507731e-03,-7.448863471628206986e-03,2.012275341860598424e-03,-1.203898562154337090e-02,-1.233943346056047899e-02,2.983602085148737149e-03,-1.113882869286972506e-02,4.270961561866816469e-02,-1.660449667271905088e-03,2.958396800926715864e-02,9.604069396728752081e-03
1.723200257614415729e-03,5.984077123326619896e-02,-4.455841150359068394e-03,5.514196990512291834e-03,1.871641481462807399e-02,2.438053604802634805e-02,-8.888841037709564394e-03,2.178334280946758565e-03,3.619628838923816261e-02,-1.644318101028506562e-02,-2.458025932588030898e-02,3.120378678665550187e-02,1.448912065879176363e-04
1.257584507737342927e-02,1.990974500137435849e-02,1.486709328866546789e-02,-3.417183855778911129e-03,2.000211017125452795e-02,-3.298301287643285590e-02,3.667012586875716129e-02,-1.357575888745910994e-02,1.435458647867898264e-02,5.167669273983554329e-03,1.617286282086356775e-02,-1.560291264922293239e-02,-1.176927496399543527e-02
1.071948653131852246e-02,-1.130141344199675491e-02,-7.209898578977996797e-03,-6.297276275225178674e-03,2.723442292387789898e-02,-6.384430215485655327e-03,2.602422362947167181e-03,-2.723580867111755847e-03,-3.752833554202805733e-03,5.770445328881426564e-04,-5.976706795311722328e-04,-8.027299091987048405e-05,3.491364938603872849e-03
1.788219127909181083e-02,3.766585411215582491e-02,4.657185428143212173e-03,-1.207560108015843375e-02,2.361689334515227300e-03,1.442479754620989985e-02,-1.510989495606814871e-02,1.131441463759029210e-04,-3.435005123828357380e-03,-5.766689812770121361e-03,-3.201895871114608140e-04,-1.013923606175005585e-02,-1.447805751034610643e-02
-7.200998322264620492e-03,-1.645865713972518088e-02,-6.094861646208296971e-03,-1.309760138348821205e-03,-1.069918269630258309e-02,2.221462506032869690e-03,2.684734956349906290e-02,-4.368255607704201772e-03,2.478919246554894991e-03,-1.555596402936712443e-03,-2.148284625168504942e-03,-1.951286392010349088e-03,1.453298048814095390e-02
4.963225810203052840e-02,3.616305009636187028e-03,1.460319484369525592e-02,-9.675463989797261979e-03,-3.911299799520516485e-02,2.281277630580512243e-03,-1.864322022913447036e-02,1.041152448735377899e-02,-2.303303530380625130e-02,-1.390797722422121817e-02,2.125901815270678924e-02,2.395265364556503629e-02,1.632454190714909339e-02
-1.023651906905302493e-02,-8.054074160298733964e-03,-3.739887437480345685e-03,9.888856184270294891e-03,-6.250723594600523896e-03,2.438810473116653083e-02,-9.587759142314751515e-03,-2.356212216412443411e-03,-4.004025838727323303e-03,-6.556912212893185529e-03,-2.589441022900144072e-03,3.080941475996063113e-03,1.421993748365705558e-02
5.085267717508080813e-03,-2.882559370136245688e-03,8.490681343790247929e-03,-6.583566156128142430e-03,-1.164868397164960448e-02,-7.492218630961021419e-03,-7.910079216449128134e-03,-1.863079786688399877e-03,2.246115237094231665e-02,3.185432684696193274e-04,1.369100063909821710e-02,-4.173775230849059714e-03,-1.283710426943496241e-02
-9.171648622994103481e-03,-2.916029993761120459e-02,4.667535523897874822e-02,-1.124988035490140023e-02,-1.704773564093842175e-02,1.754009387180215443e-02,2.489917480819264090e-02,6.102173912027395244e-03,-1.546323144485859909e-04,7.939043054328399429e-04,-8.138230984688962083e-03,-1.961212638324127955e-02,2.702710164372232327e-02
-3.438754860157354661e-03,-2.103118411901320952e-03,-5.863705023500915062e-03,-2.908892316181928999e-05,-6.444838651049439662e-03,-4.883109302331501908e-03,-1.868691220099214260e-03,-1.610138499510260085e-02,-1.232864638850729617e-02,4.244119561407110053e-02,8.833697577134704340e-03,2.487317854387749200e-04,1.610708331816195979e-02
1.271343810338156945e-02,-9.578367349870258590e-03,1.790940183512669884e-03,4.188651674057469396e-03,9.893362290475851001e-03,-9.103473265169215525e-03,5.803640387641822822e-04,-1.081486632623597510e-02,-1.681501923281945865e-02,-1.378784134251877756e-02,9.356850013739724525e-03,5.870698733685113246e-03,1.332407868036874707e-02
-6.095924097832912739e-03,-9.402172053101150520e-03,-3.001363407723954806e-03,-8.011513427417883693e-03,1.556021947894712341e-02,-9.922914155450403978e-03,1.633354884247788241e-02,1.086688931776725806e-02,1.601333304007374406e-02,-7.207794800258284992e-03,-4.560012473136049009e-03,8.244928169049928895e-03,-7.331191831848377430e-03
-9.099320098954867889e-03,1.491792239937411724e-02,-5.070272133897059906e-03,3.201967054425784200e-03,3.360979162842509058e-03,-8.904916782883645632e-03,2.292422909355920982e-02,2.812948060911947372e-03,5.150241970484199794e-03,-7.828591959644273096e-03,-9.911005884556808518e-04,-1.173157025968266359e-03,-1.068598089160821725e-02
1.980319078536372200e-03,-4.185896395627107178e-03,-4.707452579874220680e-03,3.943361776360328197e-02,-1.046274784761745853e-03,-1.023794344370688655e-02,-3.965571412851282007e-04,2.413315236397766891e-03,3.212482793869640826e-04,4.236666260436124966e-03,-5.645454542414712375e-03,-1.751936121214300477e-03,-9.963865884957349289e-03
-4.087582207155401534e-03,-6.880641928453922959e-03,-7.823839495869320398e-03,2.812632259109345417e-02,-3.747540611360353126e-03,-7.976260692010756631e-03,1.272985726348631851e-02,-6.739603568812940586e-03,-7.751733630096818706e-03,4.125771187128092835e-03,-8.215185677169011685e-03,2.769258034823499580e-04,2.864473982796191323e-02
1.813489598409429374e-02,-5.307044021188133190e-03,4.475390433615903697e-03,-4.101477939092842626e-03,-1.440276969089675143e-03,8.987553298721305192e-03,-7.078492726760844678e-03,-1.249390653159705754e-03,-4.808167225797931044e-03,3.854401154643641997e-03,-1.068404285953834625e-03,-7.888270424384797447e-03,-1.779724232651181196e-03
2.326393710509695387e-02,-1.549609799445639778e-02,-9.436390508109324810e-03,-1.261771491967907891e-03,2.143167704779505231e-03,1.953062422788931843e-02,4.464637571078831392e-03,-1.218979406454776329e-03,9.560637434710580335e-03,8.882947125858606935e-03,-6.519550065063477000e-03,-1.800056560992183835e-02,-1.135140218506035421e-02
1.085678428858117715e-03,-8.305637730010971206e-03,-1.144766083896400603e-02,-7.569108351258561256e-04,3.403680592924678613e-03,7.884591787071900315e-04,4.544871597901165017e-03,1.076602392052752183e-02,2.956019833598092297e-03,-1.100351408737334363e-02,2.032086165193515773e-03,-1.356949284932089037e-02,1.222003638828850561e-02
-1.726758388075186681e-03,-2.232826425652856533e-03,-1.418555865293626194e-03,6.590565607580189771e-03,-4.184231349035880988e-03,-1.066620558038731438e-03,1.491382549690355381e-03,-5.847818179408358248e-03,-5.757187490571508311e-03,2.031880332994893121e-04,7.488168139848596153e-03,6.308752335155532820e-04,1.124603767293973558e-02
-3.957602272708403771e-03,-1.356131182509870718e-03,-7.528709269418305990e-03,-5.753662604891062252e-03,-9.413856006955495168e-03,1.753005532175758076e-03,-6.068797817556702365e-04,-1.602202970281252012e-02,-1.102029156345640457e-02,7.335094696199297767e-04,-3.400411686756798883e-04,4.417949880396736251e-02,2.189037684824373525e-02
-2.279580247236584478e-02,-2.985367917990824210e-02,5.855675203648288626e-04,6.958892390449361587e-03,5.501902199064852977e-02,5.794832822793068682e-03,-1.232577011588286905e-02,3.295871731362071729e-03,4.841784535990174138e-03,-9.855134912409883527e-04,7.507433069686468390e-03,-4.021830720795244347e-03,-5.414021514634298482e-03
-6.832789643216559579e-03,-8.706094433177814090e-04,-1.758993858518615588e-02,4.431655911332526209e-04,-1.043563276071609799e-02,-2.828741390036990620e-03,-1.696188766308339216e-02,6.159276720479190184e-03,1.136183928602811123e-02,-1.066649916274258099e-02,1.157409018833575540e-02,-1.100890716479391990e-02,6.538112419052546920e-02
-8.932101041721858189e-04,6.258029354478663675e-04,-9.696228969620917723e-03,-8.255212737826264982e-03,-2.144382094457370543e-03,-1.021767582563402540e-02,-3.569602885364100454e-03,-1.385223778229935886e-02,3.252467780764176173e-03,-2.717378536254720645e-03,-4.767103959970794662e-03,5.614373351738982665e-02,1.438189109942221953e-02
1.883110354558779551e-02,-1.299949641020288482e-02,-1.289965592839225966e-04,3.396165638733342727e-03,-7.092597688176789606e-04,-4.664487864264228040e-03,-5.705716853665165900e-03,-3.983676303640925134e-03,3.886316416929631781e-03,3.934576181231094760e-03,-6.803902059578668948e-03,1.513440613568051672e-02,2.176491681531643962e-04
6.809235640885134746e-04,-6.174509141116192633e-04,-2.723301786181319718e-03,-5.099941963929529275e-03,-6.018996571605252262e-03,-1.226532555151499740e-02,-3.502914273946934783e-03,1.876314143319543753e-03,2.186808146151358878e-02,6.225192728382849747e-03,3.921076078329704603e-03,2.720392651333762915e-02,-1.359198757612017569e-02
-2.541326851418403664e-03,-6.083098521250034779e-03,-2.704003455977505282e-03,7.950548326021557397e-04,-7.231089859316386717e-03,-5.120768093998753594e-03,-3.287233199474535929e-03,-4.653043864564854540e-03,2.741311445319066786e-02,-4.423267330345465216e-03,-1.075182768525833818e-02,-6.343675638818296880e-03,3.893001060984024181e-02
6.337766366536106907e-03,2.705964457526423370e-03,-3.305119372274559295e-03,-2.863233810476744062e-03,2.340894645631102361e-02,-3.837748447089557417e-03,-6.017894255834051404e-04,-1.959104522186617438e-03,-4.408061512012112840e-03,-3.550871392344071877e-03,5.025670195542483558e-03,-8.674471053240052562e-03,-3.828125635074585732e-03
-4.776872491497272284e-03,7.269546730441342822e-03,-1.408004227241160464e-02,-9.977282052385832295e-03,3.582728325679350456e-02,6.012703567808945493e-02,-1.779834760067832214e-02,-5.492668815476854476e-03,-3.515651617046425953e-02,-8.157582644297070584e-03,6.778972745353127605e-03,2.086496871763010227e-02,-1.408272067960196147e-02
-4.195681497580938842e-03,-5.553497478839106291e-04,-1.019092419942741259e-02,-5.043547409537662250e-03,-2.180803293417939940e-03,2.919181675883645785e-03,2.545709380109773684e-02,-1.916641604787332155e-03,2.870068344007928839e-03,-5.655036017477100933e-03,2.868982944272343086e-02,-1.270710228704909593e-02,-1.268783229836723328e-02
-5.582461752320764213e-03,-4.962583721192920065e-03,2.405113308786525905e-02,1.121909877617985850e-02,-8.382683780870359407e-04,-8.839524707941628576e-03,-9.640315248770915321e-03,3.658078155062859300e-04,-3.306738735614207607e-03,9.079008723977981254e-03,-5.094736528496134759e-03,-5.220030675478433239e-03,5.635315912301625853e-03
8.820711416781300621e-04,-8.744960402360491686e-03,-5.654406504551291214e-03,3.017911487061038581e-02,7.686367593416665138e-03,-9.346886572353774181e-03,2.519932668482036120e-03,-1.946597177063749077e-03,-9.497771570552553675e-04,4.773615958145983819e-04,-3.309164862344451345e-03,-3.720343889145104419e-03,-6.298526062845142756e-03
4.842581006419369692e-03,1.737508232813784765e-03,-3.700482688766412124e-03,1.149063513864434808e-03,-1.741094526242192072e-03,-1.774152508600395067e-03,-3.439644656536550334e-03,-4.878010541785849155e-03,-1.750095435899199497e-02,-2.731014659870800287e-03,3.604661022001823256e-02,1.849965762141659101e-03,-1.176925695246809449e-03
-8.083715999157156315e-03,1.357136833965111311e-02,-5.082082016660093363e-03,-3.681568984030526848e-03,1.981588513104658167e-02,-1.149560196079669420e-03,8.447303660712059256e-04,-1.499714602165084804e-03,-3.503096391824578239e-03,-6.177913199531474830e-03,-7.661704546585854569e-04,-6.932680278096135622e-03,-2.064927462009914956e-03
-1.089881015965624492e-02,1.731733227877772785e-02,9.950065191013791714e-04,-2.252813704917095827e-03,-2.292261126847184964e-03,-3.833239211190442308e-03,-8.134314943399304984e-03,-4.201381029986545057e-03,-3.504788380253964601e-03,2.280000592402604831e-02,-2.584616785218299320e-03,-4.795275189629860310e-03,2.913521210105914951e-03
-1.334051582484202005e-02,1.318673849892232006e-02,-2.614725363992380976e-03,-5.462758032371147279e-03,1.803370324543173472e-03,1.951107161150890390e-02,-1.010635343715938703e-02,3.946399942727141751e-03,-2.694217008061839443e-03,5.378002138672994745e-03,1.762233047108505558e-04,-1.748533509297120134e-03,-2.378924223838786245e-04
1.916419797451365467e-02,1.664554390658265492e-02,1.987679034942057416e-02,-4.772890781500410511e-03,-2.975735448065682399e-03,-7.858353297340333124e-03,-1.542790955423635826e-02,2.308692704568858500e-02,-9.111718858542885643e-03,-4.701432106540688778e-03,-5.819340844209889597e-03,1.909477341379421308e-02,-1.028219563091131369e-02
-3.230581777394088937e-03,-1.072747126088231633e-02,-8.826105442024751108e-04,4.753752086413779864e-04,-5.138236610827503180e-03,-1.234321793776787558e-02,3.480576651996319243e-02,1.225885269994968999e-03,1.766378618598105771e-03,8.298798095825437454e-03,-2.985057800825935241e-03,-2.737021858224667620e-03,-7.662523514444558211e-03
1.225550159531246276e-02,-3.828733064792454161e-05,-3.131042777290872405e-03,1.095897950955291786e-02,5.717111120682691686e-03,-9.513292001247043717e-03,-5.226454009074782761e-03,2.544932557237790383e-03,1.085866686151787733e-02,3.948086412576073088e-04,-4.779626558633656187e-03,-5.443722036395750793e-03,-1.272872318763334544e-02
-1.251736842389816751e-02,-3.705971406137585546e-03,-1.995562617561412368e-03,-2.614496833989340377e-04,1.940677268043345879e-02,-2.753684579727250746e-03,-1.244366003026245449e-02,-3.765793150125335692e-03,-2.352560121185350885e-03,4.148636293314221513e-02,-1.942238817819068970e-03,-6.567685986733964691e-03,-3.463812821781710096e-03
1.555980463361951666e-03,-8.057471349953475998e-03,8.190112199270589005e-04,2.986740723552399300e-03,-1.253777498257862243e-02,-1.095552892913501455e-02,4.682059596119371447e-02,-1.973836333863337664e-03,3.748520807022602368e-03,-1.298785490731723356e-02,5.643274636276679121e-03,-1.634159407800047162e-02,-2.367055414523029037e-03
-1.276968567163480096e-02,1.497024201060158225e-04,-3.964794015765583934e-03,8.460741055851940182e-03,-1.478132378888808926e-02,-5.445643868932210051e-03,1.968776076023667776e-02,2.497987768747694532e-03,1.263548317354764097e-02,-1.028839389885974863e-02,-6.606404127221169979e-03,-8.036712207085290865e-04,1.505227442066346330e-02
6.129431801953973136e-03,-2.582008118953959055e-02,1.932912855263376264e-02,-1.833562150859331316e-02,1.462830002568352161e-02,1.331253085025440631e-02,-1.647418637775513060e-03,-1.647485138175140695e-02,6.759916773361127063e-02,-3.961856758993470215e-03,4.883580703563895724e-03,-2.617722341103547248e-02,-1.138817270341231994e-02
-9.125647252426594136e-03,-3.633104042638141129e-03,-2.233162014489338456e-03,-7.401216349618791775e-03,5.506219813484703124e-04,-1.327636825815440257e-02,-3.467368358565310008e-03,-6.585955468882411304e-03,-2.534875243033698870e-03,-4.877581530360208632e-03,1.884691266175977931e-02,2.343928811241947213e-02,2.310141891892274896e-02
-7.676300242201319164e-04,3.539511661892800294e-04,3.193359797210482132e-02,-2.568643007720365808e-03,-2.286278710783545397e-03,2.062375718745623754e-03,-2.308247737250977098e-03,-4.164804376334512413e-03,-6.119641825304010345e-03,-4.877808487945935363e-03,-1.314639409847386540e-03,-6.095197195361612419e-03,-5.476343952688421043e-03
-4.692949038635774346e-03,2.708908723536482786e-03,8.719861480115588537e-03,-1.112908020673904989e-03,1.268946247449785018e-03,-8.026677715511012709e-03,-1.181292127057145466e-02,-4.888413283075081044e-03,-1.563005443156097185e-02,-1.584495621831278744e-03,1.157369432093513506e-02,3.405111361552726201e-02,-9.052146106554753366e-03
3.192621282543455733e-03,6.804483363421766698e-03,1.978128309314678215e-02,-2.193337466019485652e-03,-6.281746536226616440e-03,-4.768659212792668647e-03,1.223932893163689768e-03,-4.482356232025878386e-03,-8.767499179203797413e-03,-2.188250628446996790e-03,1.015591145919929284e-03,-1.237230897941228938e-02,2.081724743015091368e-03
-3.230581777394088937e-03,-1.072747126088231633e-02,-8.826105442024751108e-04,4.753752086413779864e-04,-5.138236610827503180e-03,-1.234321793776787558e-02,3.480576651996319243e-02,1.225885269994968999e-03,1.766378618598105771e-03,8.298798095825437454e-03,-2.985057800825935241e-03,-2.737021858224667620e-03,-7.662523514444558211e-03
5.595415106378455808e-03,-2.478736505599391394e-03,6.907368295904649626e-04,-2.896339067460047909e-03,-1.917944241854231072e-03,3.504786814572906362e-02,-9.671580090758764153e-03,8.088451785921620943e-04,-4.113642806855848447e-03,-3.322386502690555070e-03,-1.020297011921775720e-03,-6.285449616263633250e-03,-1.404280768516499075e-03
6.718082993209821899e-03,-4.664030582295514973e-04,-7.582138520497436369e-03,-4.809338411876536157e-03,1.192462733610200401e-02,1.340908514286807398e-03,-6.077531244794865534e-03,1.248694791501863549e-02,-6.060123885240603202e-04,-2.615167799243453810e-03,-1.048976404679099767e-03,-6.157427090413948936e-03,-2.628425686754076555e-03
-1.135131120046671202e-02,1.789427950415907118e-02,-5.724299728808387305e-03,4.190705406187164930e-03,2.472947408289580262e-02,1.559057225707117036e-03,-4.649335760991297746e-04,-1.548708592351097195e-03,-7.248260308426875478e-03,-1.685630255940105291e-03,-2.176491820987349300e-03,-7.716597576749706540e-03,-4.405257909178477501e-04
-1.341724916259003954e-02,-5.717501293537023514e-03,9.593805114731047750e-04,-5.804770231500841829e-03,1.101013119116361558e-02,1.982529913616325190e-02,2.759659482217677491e-03,-4.122006473938095474e-03,-1.351734864267275030e-02,-1.047470126870526583e-02,-4.672036044688558480e-03,1.415268502575270891e-02,-2.357291246908009303e-04
-5.904122534651357404e-03,-1.453682907322015674e-03,-5.812626060371422695e-03,-1.117132953423754377e-02,-1.773692131665949301e-03,2.182731761494161732e-02,-1.001020429014045504e-02,-3.748026750668270713e-04,-3.426910848441456440e-03,-9.322496741391694125e-03,4.115697600630286584e-02,-9.341419594846245289e-03,-9.379931370942489605e-03
-4.017058951733644585e-03,1.625497536435744836e-02,4.846862715910881317e-03,-6.251023030812308083e-03,-6.529285648879157127e-03,2.004405149941319679e-03,-1.056434883529868557e-02,-3.050561913590626572e-03,-7.949980218372383264e-03,-7.992855836276140449e-03,-1.778812755807782737e-03,1.064688179725596477e-02,1.815718205479045083e-02
-3.054580875784056702e-03,-5.391614940763076250e-03,2.820717785171929920e-02,1.870291260540290351e-02,-1.678759829376890583e-02,4.138819639320287860e-03,-2.964452974149862571e-02,-1.265630250930380694e-02,2.821362734129356786e-02,-3.927945290955693960e-03,-2.226505883714294221e-04,-8.781552269124259097e-03,2.229157730847373259e-02
-3.654705062696798987e-03,-3.461036414810833703e-04,-2.329031181792325621e-03,2.647403152603921075e-02,-7.409540518971226286e-03,-7.104025166350422076e-03,-4.770184347597939377e-03,-3.272572077019825915e-03,6.723813485096858441e-04,-5.538845956516742254e-03,-5.278015892120953116e-03,1.269112905485813084e-02,1.108312040976195192e-02
-4.556293427459091883e-03,1.328944079441961822e-02,-1.379145715411277118e-02,7.665773853297861914e-03,-1.737435916582759365e-02,-1.924431240868049869e-02,-9.694770271728046437e-03,-7.825111017115853052e-03,2.039811406770441864e-03,-2.360886004230615778e-04,1.249025258988893281e-04,1.574653022000552932e-02,4.344404249060816042e-02
5.070376763261989338e-04,-1.564335740730738930e-03,8.017415071793152978e-03,-7.976595937926522425e-03,-3.455634769633376090e-03,-7.165647345287290762e-03,-4.211141994822105612e-03,-1.267366506160123385e-03,3.381686099870536560e-02,-2.952206660092617473e-03,-1.210952908136390949e-02,9.771056309000060100e-03,-8.034714111571191614e-03
-6.319497400153840927e-03,-5.703871114416990754e-03,-3.276214570668082617e-03,-3.129473563845081539e-03,-2.431459428068868944e-03,3.906161458556602073e-02,-7.935637060636184167e-03,-3.348311509167958312e-03,-3.601076377727352364e-03,-3.589135318410385106e-03,-8.761762987824514657e-04,-4.240968978283347901e-03,1.403534860989975874e-02
3.829059538174780456e-03,-9.057518442993553812e-03,-4.508742828935079910e-03,-3.961707824345352472e-03,-4.817681876428875527e-03,4.082651045029889875e-02,-7.571646283879325881e-03,-2.396714530883884038e-03,-2.300542264913027317e-03,-3.838863895662277068e-03,-2.553787982271989946e-03,-6.367101922444669271e-03,3.011354808772157259e-03
3.703989767315657607e-03,1.349727968026393984e-02,-1.547994203128079263e-03,-2.499962287118770270e-03,-9.247554585224030538e-03,-8.929397857209173811e-03,2.186659364360002411e-02,-6.084138671155001586e-03,2.422511568165234500e-03,3.796163165729028559e-03,-3.489314841241660187e-04,-3.894963179010284444e-03,-7.693403185497676815e-03
-7.027229472023001702e-03,1.366962372487304667e-03,5.921782190279514108e-02,-9.736271843020284991e-03,-1.471519715937795068e-03,-6.858491889548155385e-04,-2.858810327254435396e-04,-5.830806562163689741e-03,-1.012542685973066500e-02,5.667419153257783346e-04,1.667076805400575091e-04,-1.334929733756407520e-02,-5.552033669874385617e-03
3.897426783524880756e-02,-1.795915009584276786e-02,-1.519871749471062017e-02,-6.670233667790717927e-03,-1.106299499477220866e-02,5.697569188837384516e-04,-1.859311173905744269e-02,2.857822145501471775e-02,-6.237269734708050621e-04,3.347867050869438033e-02,-2.702894827310760653e-03,4.710987523924813937e-03,-5.072007206483908869e-03
1.266378167111063303e-02,2.281275058481344910e-03,-1.332932269947416891e-02,-1.741496237113365070e-02,2.885760767675870503e-02,1.610666686816802917e-02,-1.381840177958170834e-03,9.211043714536874469e-03,1.202823312129023582e-03,-1.522564706363302087e-02,-3.699467089906224079e-03,-2.195872785917568279e-02,2.924011101964558231e-05
-7.955382202906074313e-03,-1.297580384236717531e-02,-7.709983460378724840e-03,-1.223160552619424659e-03,3.368642082570686563e-02,1.456366793060940266e-02,2.526664081188237376e-02,-6.543831008823700404e-03,-5.604455327284521907e-03,-3.842534010138222607e-03,-7.686170710103248753e-03,-2.247252281642392498e-03,-6.568596350921111944e-03
-1.328511624455129027e-02,-3.832427398991747856e-03,5.533093190408277899e-03,-5.671609469285509957e-03,5.417268800292077656e-03,-4.275565706509994006e-03,1.849821144141711561e-03,-4.919835555665844073e-03,8.835767410671107377e-04,-1.686986133084497977e-03,-2.506326192780549030e-03,3.150613054114320688e-02,3.787891428386697037e-03
-7.676300242201319164e-04,3.539511661892800294e-04,3.193359797210482132e-02,-2.568643007720365808e-03,-2.286278710783545397e-03,2.062375718745623754e-03,-2.308247737250977098e-03,-4.164804376334512413e-03,-6.119641825304010345e-03,-4.877808487945935363e-03,-1.314639409847386540e-03,-6.095197195361612419e-03,-5.476343952688421043e-03
4.459115221646327634e-03,5.659988560409151938e-04,-7.657449101941547417e-03,-4.877239280622040589e-03,-8.280152844488646371e-03,1.148849937856389128e-02,-1.681252396818554195e-03,3.978502964573708833e-02,-1.020212736015573083e-03,-7.093007035811145847e-03,-2.982769354181796437e-03,1.940489642023850581e-04,-1.087980792268394489e-02
2.580090632459073122e-03,-5.142579710291857002e-03,5.033415899223328029e-03,3.962378426317889751e-03,-4.456729508746990268e-03,1.752293156363918941e-02,-5.077362596764745453e-03,-8.058873853074938198e-03,-1.278248179684193277e-02,5.584995648388951458e-05,-9.261755152074283709e-03,-1.059924881303524365e-03,6.068635532487885557e-03
-1.059895549958161584e-02,-7.271924691721014591e-03,-4.143097566989231055e-04,2.890395072395344350e-02,-2.018378553806530942e-03,-1.039378744661017748e-02,1.995604515464374958e-03,-1.103576894204436401e-02,1.501890257108556316e-02,5.188846078899199236e-03,4.246451597070499857e-03,9.846956279527229947e-03,-8.960892300533870175e-03
-1.201183688567212214e-02,1.347866812199020013e-02,-4.095817301393409222e-03,-3.111864084430718269e-03,-1.204106452949874409e-02,-2.071728855178150194e-03,-9.353824561400983159e-03,-1.849065479859513233e-03,1.640843790126486970e-02,9.998788728155199104e-03,-6.631822891325052718e-03,5.255206925508021897e-03,5.723637285867231098e-03
-3.190514474679868092e-04,-2.675468323978782287e-02,4.019994340337789025e-03,3.625836733979244907e-03,-5.092631355610795392e-03,-8.530122316511378963e-03,-3.707008314403876983e-03,-1.135603984714151846e-02,1.346002404574851707e-02,3.961814471747039657e-02,-7.847416281184261058e-03,1.160431186625787356e-02,-3.832733068235524062e-03
1.082738721339503076e-03,2.445426832517643041e-03,-2.281355410520742501e-03,-3.151679551103118114e-03,-7.505776290749681737e-03,-1.075729794823688298e-03,-3.427008157905839063e-03,-1.098807578020724249e-02,1.652991030326340580e-02,6.430298716609659723e-03,-9.125540005515783053e-05,-8.308575846094606171e-03,1.597913251152988101e-02
-7.630839500388422909e-03,1.820930739730000029e-03,-6.438047381559253504e-03,9.285873893881123678e-03,-4.681860330133307338e-03,-1.698120219634764033e-02,-6.082914317622640241e-04,1.926129305100037631e-02,2.449347591826078058e-02,-5.502122377000078640e-03,-8.809976364196531184e-03,-2.642394514549823055e-03,6.113184497431852459e-03
7.047700615405072880e-03,-1.003094362067110876e-02,-7.176117449958119461e-03,3.668454578961218189e-03,-2.725580839706573822e-03,-1.167989014587124397e-02,2.246270939743183828e-02,-6.155957383509134268e-03,-5.427600189704035773e-03,4.614851111099664734e-04,-5.446262449063456234e-04,1.209375425998682196e-02,-4.116142469815772050e-04
-9.451453644862019970e-03,4.005067501528931234e-02,1.552471263394742361e-03,-2.992275696056598397e-04,-1.295516922111376347e-02,-1.048902547057155917e-04,1.282498389440522987e-03,1.025216527192512363e-02,-1.033915971485043286e-02,1.642294830532087940e-02,-7.400909799057371272e-03,-1.213539863371660213e-02,-2.477511245708038587e-02
-2.725419902898842690e-03,-1.358377668656458870e-02,-1.918797767249231373e-02,2.093741708297566437e-02,1.258058652425323755e-02,3.460519188257418083e-02,-1.168952090439716492e-02,4.138499601452358748e-03,2.292926290091217706e-02,-6.139187924459588684e-03,1.242473502938399796e-02,-1.580366815959705767e-02,-1.526930575099510502e-02
-1.615504706533796341e-03,1.250594536031513979e-02,2.799220042513181177e-03,3.425516372011443329e-03,-6.379521703434487719e-03,1.429817674929197494e-02,-6.752737470993380557e-03,-5.604060971725352645e-04,-7.466416905248543685e-03,-1.033138527898279195e-02,-2.120275270842973507e-03,-1.952181049243362308e-03,1.688907846106293877e-03
-8.939212002815680180e-03,1.813896388831413159e-02,2.322859208213279292e-02,1.032685406734104756e-02,2.097366065655323873e-03,-3.058655654713907796e-02,2.710461741288378024e-02,9.218839546227880141e-03,8.268813892722434028e-03,-2.968511526159307509e-02,1.214897540509957477e-02,2.835561257215701847e-02,-3.637811554390589508e-02
9.380746271624143995e-05,-3.187871016918840568e-03,-1.462439158845479058e-02,-7.320011656993787247e-04,-5.538689595727282894e-03,-1.426137235767738556e-02,3.262587872098030896e-03,-1.083241358702974333e-02,4.213503819351559210e-02,-7.249144417715879581e-04,-8.215169485118705003e-04,2.295740296919869181e-02,1.475967684728604450e-03
3.461876317164273159e-02,-4.496542235415190020e-03,-5.419259586996424613e-03,-4.380587271591481965e-03,5.693229927667853730e-04,5.306143393255872455e-03,-1.161454709824949125e-02,5.882848869845884107e-03,-2.197314292658903746e-03,-2.265748700283156704e-03,6.337504070490378172e-03,-1.987546422225306558e-02,-2.378956054879995292e-03
-7.118064617190166931e-04,-1.081013662267263364e-02,2.111855955529546441e-02,5.121948047174766996e-03,-1.604276570496697765e-02,3.281346713896011406e-03,-2.352480103798697958e-02,-2.756762566844696977e-02,-1.526411274332858427e-02,2.104775849341675512e-02,1.606495092152675913e-02,2.080508791371020114e-02,2.341416520279027830e-02
-4.048209436280836640e-03,2.734133499741269596e-02,-8.543201245626023043e-04,-6.587488393547948854e-04,-1.319351869937970302e-02,6.317976687355555607e-03,2.148391732073263657e-02,-5.000946597467090596e-03,-1.092637129925033354e-02,-1.340875566164666244e-02,1.033011210805257710e-03,1.339474718213442661e-04,-7.257840579820784913e-03
-2.396076607798737143e-02,3.293468695478959929e-02,-1.586659493465250245e-02,-1.924974057129999125e-02,-1.210267899787475371e-02,-1.657683359267471098e-03,4.164217578350316168e-02,-6.307668736589705245e-04,6.435089494697440737e-03,2.134892446562787482e-02,-4.541660923281253849e-03,1.745933440503790943e-02,-1.514931472316694352e-02
