1.233610506945020772e-02,1.368621013598403033e-02,7.546913609608157936e-03,4.501542623631066276e-02,-9.691753461767732558e-03,1.893652150239364881e-02,1.689800728752164499e-02,2.990454928825170278e-02,2.299304786947384965e-02,2.137268695621864084e-02,8.982268252244180254e-03,2.760126698677093510e-02,5.643020701786734955e-02
2.219114405084787051e-02,-2.587052187401422780e-03,-1.192877835437984764e-02,6.320013481131103901e-03,-1.129686892600547353e-02,5.620074239163204075e-03,9.168263590147324518e-03,3.931762125626947317e-04,-5.057724531410355377e-03,-5.547587261675533329e-03,-1.873119588021854970e-04,-1.035968513156464849e-02,1.053568954151368111e-03
2.625502167527477698e-02,3.380074808761831216e-03,-2.369286334524330941e-03,-1.424695358200978035e-02,-1.487866057597009642e-02,-2.868668010267016837e-03,-8.898008323645626577e-03,-5.340837840271572996e-03,1.837566653505893696e-02,2.727548879113070746e-03,4.364471336046734512e-02,-1.259783491556491254e-02,-8.561213803989001919e-03
-1.663980477007840145e-03,9.271771706934746685e-03,-8.918788559340969785e-03,6.933583874591380545e-04,-1.184401031134187793e-02,2.240176505752168416e-03,-2.691744336062967639e-03,5.147972941307967561e-04,2.066017803874642053e-02,1.724884772598117566e-02,-7.598150506762255119e-03,1.824864585356758117e-03,-9.501643450455891926e-03
-7.122592782927911377e-03,-7.435148922318282443e-03,8.039870130277784396e-03,-6.048813242003644661e-03,-5.723024511410602401e-03,-4.890187281487056586e-03,1.744876560542020505e-02,1.405190700619512447e-03,-6.472555728295835593e-03,-2.339269607929126468e-03,1.713738752445185046e-02,-5.552615703974348761e-03,-7.260709173558740903e-03
4.790227677462032853e-03,-1.168410942064412351e-02,4.165290222429798850e-03,-1.679517721402244354e-02,2.096642634397847746e-02,-5.764555325964879420e-03,-7.114676413705016758e-03,-5.462972360623432125e-03,-1.248510572902468072e-03,-7.294934468903969786e-03,-4.022739549013927204e-03,2.306443430146298476e-02,-1.464109984227063288e-02
-6.569724222875400303e-03,-8.974338221462464793e-03,-5.931021374090290725e-03,1.744818325850501940e-03,-7.943442308118893458e-03,5.421524897463960400e-03,1.680083856011120938e-02,-1.473092874449245500e-03,1.338696332508322075e-02,-8.793328359809284359e-03,7.139674446375987756e-03,9.474304556378743006e-04,-9.136769128563124436e-04
9.375478648616850791e-03,1.857406871635070792e-03,-5.483226339874289201e-03,-1.009686384075294402e-02,-1.015500396774490430e-02,-2.345856194165308294e-03,1.149195873459529782e-02,-1.894520666858783052e-03,-7.842165582660255447e-04,9.963508512982744217e-03,9.025329159128710980e-04,-5.945059853269456761e-03,2.251097737913585351e-03
3.732791737915266278e-02,4.189154596331057939e-03,-5.423341289387095376e-04,-1.043182238334845746e-02,-8.193455968879300236e-03,-1.213510913722125198e-03,-1.270026546669365472e-02,-2.296772236437804541e-03,-1.054111776666713518e-03,1.117578312933605825e-03,-4.981909997946393567e-04,1.769991369915715736e-03,-3.576389854450068989e-03
-3.166446150439356563e-03,2.402435539323233716e-03,-1.467394677467942542e-03,-8.226531570314455852e-03,-6.199551543403147326e-03,3.031765910211731141e-02,5.306094415555905004e-05,1.430357520294211083e-03,-2.930075867681707167e-03,-6.665762176108600348e-03,-7.765674037808567229e-03,-5.599776597146409029e-04,4.139077300507364165e-02
-9.317148606815638459e-03,-6.456200473949754055e-03,2.069447325331429804e-02,-8.475531864697167725e-03,-8.340864234197050558e-03,4.292986364677685990e-03,-6.051423067912248960e-03,-1.028513628442015958e-02,2.354169913489229798e-02,-2.406282787963202191e-02,-1.696607698904662939e-02,4.223873172577613522e-02,2.167706661603740689e-02
7.151818049787900689e-04,-1.110210827424987050e-02,4.133485954878579095e-03,-1.715031994845532884e-02,1.317956228308968768e-02,-8.824840874889276071e-03,1.051319829291003614e-02,-2.033167930473869724e-04,-5.038734879161245114e-03,-5.618021840470359060e-03,3.023570871988073838e-02,-7.762606728350498857e-03,-7.993078647697798855e-03
1.843182832834841869e-02,-5.839579617132745204e-03,-7.020146184584423812e-03,-1.485480280391481347e-02,4.006397590912493499e-03,6.320903815612643291e-04,1.693427474246619185e-02,2.913715410976989648e-02,6.705635452414690501e-03,-3.134757887059869130e-02,-4.875901698245905733e-03,-9.291013052080989570e-03,2.898217590946350255e-03
2.016655064288177396e-02,-4.688730041556576217e-03,-1.130504949838859186e-02,2.506192562252815975e-02,-9.163521343048630294e-03,-1.066147066972451991e-02,-2.767234466744403470e-03,-3.213937217185980182e-03,-3.771688195639400117e-03,6.281139509287281437e-03,6.580354048627940280e-03,-7.189099793715907245e-03,4.352337794985818888e-03
1.960018529770658074e-02,-2.954842524678064075e-03,3.992625526892656929e-02,-1.359797575573120244e-03,-1.611649826629744583e-02,-5.234294695148251041e-03,-6.301897246184030507e-03,-5.887410283490631183e-03,-3.192648123642245067e-03,3.022821885800276200e-03,5.675717238068268486e-03,-4.743106351487503571e-03,-8.002762062484914882e-03
-4.597648595347777339e-03,-3.615403307070815496e-03,-4.136401051334953269e-03,-1.152849270728395145e-02,6.616975510678908649e-03,-2.984915956907504501e-03,-5.471755062369078673e-03,1.188335564304756134e-02,-2.132671743213647355e-03,-1.398119926416830586e-03,-1.162019418866287821e-03,-3.661397481373764029e-03,2.149316787049997818e-02
-3.881722885945176373e-03,3.250991392026987645e-03,-7.613984565296445794e-03,-3.003244399774520745e-03,2.942615799657478590e-02,6.078417344582992370e-03,3.014779112199182654e-03,-1.035434098063123601e-02,1.184041903440231523e-03,-5.308341340269409278e-03,-6.860281235678300851e-03,-4.824033031465323543e-03,-2.919599687633508747e-07
-7.775969613911299164e-03,2.069199074398166312e-03,1.634960296282660791e-02,5.878806035265878201e-03,-2.137041650553386102e-02,2.530921318752504812e-02,-3.149864634445653940e-04,-1.674173909145144912e-02,6.683028627130512163e-03,-2.276369430204009010e-03,-1.640794899006858126e-02,1.162435986315724264e-03,2.571753463910677120e-02
-1.072544313922161804e-02,-1.009205859636196946e-02,2.213977099141208917e-03,-3.587122022351331430e-02,-1.560720022150277261e-02,-1.120743214562697557e-02,3.483989985148881058e-02,2.358208043868102385e-03,2.977805273740660383e-03,4.950593399148561953e-03,3.745405550020768082e-02,1.815595389438720911e-02,-2.968225447935526895e-03
8.156415833010528804e-03,2.112137639011247604e-03,-7.794302237678352174e-04,-1.426181593630542963e-02,4.375391122281750873e-03,-6.779305324276502578e-03,1.760510169324883134e-02,-4.735284149377553056e-03,-1.771321769848980057e-02,1.672723252360326651e-02,-7.527317817622637512e-03,-1.191294757718494059e-02,1.777222809617747326e-02
3.598181525378559877e-03,-8.480728731477236732e-04,-3.263558919736528428e-03,-3.131503491622700339e-03,-6.128387867979692358e-03,-3.978637522253264435e-04,-4.552356290718608499e-03,1.605929788203456360e-02,9.891683553893464154e-03,-9.172619796453434365e-03,1.411539870608586635e-02,5.268766993964613338e-04,-1.808676835735350055e-02
4.049383323404415203e-02,4.895499453571656133e-03,2.537743887330139452e-04,-6.092079562070224809e-03,2.027971310116557374e-03,-1.255813263904238004e-06,-1.466118631168347210e-02,-1.675009112028843323e-03,-1.460834906388471920e-03,-3.320089856675102844e-03,-7.193350265915973967e-04,1.669809542127414755e-03,-4.684639323110881791e-03
-2.185977727894933536e-03,-4.357065677938068773e-03,8.692845182636643048e-03,-5.246914253310525425e-03,1.505475827957128681e-03,-7.565096592166869246e-04,-2.872850337023471774e-03,2.021220947340697516e-02,-8.386934830712547764e-03,-7.587284435201802242e-03,-1.942952945984584030e-03,-7.377620290914195175e-03,-3.073286257866861704e-03
-8.726695904468164885e-03,2.634628328191326516e-03,-2.951853774736804600e-03,-8.790777028514272159e-03,-8.216680829211880227e-03,-8.280240983561401938e-04,3.425963869336256379e-02,-4.901049602976810179e-03,3.820693920858783676e-02,-3.017418257929324610e-03,-4.352695037148308910e-03,-1.194567672845414305e-02,-2.837296749633030132e-03
5.303262315035925725e-03,-4.847428526951779934e-03,-1.541875238816495935e-03,-9.223295591736891536e-03,1.455883310763768021e-02,-1.789280174436113204e-03,1.891407165882400682e-02,1.586601905261628490e-02,-6.581604926605576569e-03,-6.200011839394966792e-03,-7.306055319384651206e-03,-8.342619486404353329e-03,-7.683779323573012958e-03
-6.261490752302677383e-03,2.916989135342197212e-02,-7.205765411326873864e-03,5.168415882248218914e-03,2.095728831834977463e-02,1.164252099433189455e-02,9.376105835988015821e-03,5.141602237188895884e-05,-8.593497309475568724e-03,-4.181264998692891047e-03,-1.610476266536783191e-02,-1.260012635066955732e-02,-1.470968566389497731e-02
-7.464366845713217395e-03,4.221977733900742283e-03,-7.189863712122442074e-03,-1.333453208331471934e-03,3.810427855156344086e-03,-4.079994826402534060e-03,2.399432016469867784e-02,-5.806457887175384483e-03,7.660515079404683902e-03,-9.207024852768664128e-03,-6.341942660341199842e-03,-1.011933174775886748e-02,9.083264935355732719e-03
-1.029348505685947872e-02,-2.051523643695486385e-02,1.915139817866380254e-02,3.482173769772307827e-03,9.536426169209900189e-03,-2.138918640363388426e-02,3.762759927630347084e-02,4.276096909771213983e-02,-2.751843283213220581e-02,9.015633992422633983e-03,2.824064817837028743e-02,-6.048094879688782274e-03,-1.705924389294673910e-02
-5.752937082218236194e-03,-1.633975063722196280e-02,-7.304763182450943818e-03,2.244965372351118149e-02,-7.208689752367175400e-03,2.607303250481521339e-02,-7.138998452759115487e-03,-8.601270890817261372e-03,3.938102130518212306e-03,9.579685643663146547e-04,-8.551226354487458580e-04,-8.252707591594915168e-03,2.816861510319097414e-02
-1.805607543425263428e-03,6.625738159936354682e-04,2.520150477375054281e-04,2.733214347416641440e-04,-7.810433355291081584e-03,2.258885203443378002e-03,-2.146526305662309429e-03,-5.553843196007554953e-03,2.158957702831703143e-02,-9.459995014576706718e-03,-1.177692219113425989e-02,3.790548283154126369e-03,4.510172992057226958e-03
-6.292779905730573956e-03,1.058344672366365400e-03,3.126712187724718650e-02,-1.405106110526246899e-02,-9.638997023131022981e-03,-4.305361742849017279e-03,-1.029833441998329741e-02,-4.557251940595620499e-03,1.536085162337293142e-02,3.591006209075171818e-02,-4.338350391649988848e-03,-4.319866102824899967e-03,2.159790266623945985e-03
3.574227035984012561e-04,-7.686932630482722073e-03,-8.414781616322874330e-03,5.078309782514361069e-03,1.389340844914072406e-02,-8.463027524966654919e-03,-1.431981187783727162e-02,-8.809616836776017548e-03,1.371941579046196714e-02,-2.154790567211754305e-03,3.290771230273284442e-02,-9.001890524889972003e-03,-6.902880979733455949e-03
-3.568199243037935894e-03,8.902209034903232985e-04,-1.130482269462770167e-02,5.122352918730971880e-04,-2.850138291209663478e-03,1.057974648358844458e-02,-1.090683336070782591e-02,4.280771068840558201e-04,2.771073433767547861e-02,-2.229429317948788665e-04,-1.126047942717991329e-02,-6.046178982146960257e-03,1.132059715968184235e-02
1.451656170684256775e-04,-6.294899427563033657e-04,-6.070099688529664514e-03,2.941941683044325268e-02,1.799940195257113476e-02,-6.146731738077284516e-04,-6.406478665700649291e-03,-5.952707547172617335e-04,2.461670081264131062e-04,-2.887231004534278420e-03,3.828770343733277955e-03,-6.743235784666868141e-03,-2.054987832228929653e-02
-7.805695816343484646e-03,4.799248997682197156e-03,2.833792291362251595e-02,-1.744064138685911744e-03,-1.025940323879418262e-02,-2.766782256794470853e-03,-4.118974704048066447e-03,-1.360745145516673547e-02,-6.330313055773688358e-03,3.901300010196361023e-02,-3.756309582686960524e-03,-2.948636861366820891e-03,-5.362050204661815856e-04
4.184870710968324211e-05,2.046487695847133866e-03,3.206043718487789772e-04,1.427853379542078733e-03,1.205369806823287189e-03,-1.251428246126704805e-04,4.769036579749657938e-03,-5.534157475804797957e-03,2.293412648613157162e-02,-1.478065889272026090e-02,-6.299863419400556115e-04,7.888657391989444087e-05,-2.234923849340814843e-04
7.106762483140506743e-03,5.218881902882922807e-03,-2.061492566789975556e-02,4.706809606348007560e-03,-2.074466006143652064e-03,-7.963537324484109420e-03,3.361095403483912222e-03,-2.264500207961633177e-02,3.465451610496400603e-02,7.161851574604858814e-03,4.043689251675041725e-05,1.786479375332936798e-02,-1.075658429718322380e-02
-5.323684290906948238e-03,1.501349432920582108e-02,1.076989254014038000e-02,-1.479213597965335115e-02,-1.147895865837171743e-02,-1.346135269766294065e-02,-3.128364799056383011e-02,4.650288237551875731e-02,1.094398144661626110e-03,-9.935144957556280715e-03,1.847024796127424984e-02,1.935127172246631916e-02,-1.144904463721358942e-02
1.590858368673580756e-02,-6.991843574259841258e-03,-2.280694365220402656e-02,-1.420871625845779480e-03,1.806946562966698158e-02,-7.438800582324663069e-03,2.147751608890570603e-03,-4.372187001731447052e-03,-7.876783356772994876e-03,-5.729608282207463744e-03,3.629594766391099764e-03,-2.766690829186294856e-04,1.344605202548281031e-02
-9.228474853423974250e-03,-1.321193530430436747e-02,-5.138959569117999057e-04,-1.353396686059570378e-02,1.187089148879745017e-02,-1.079212244494840225e-02,5.433243293710605937e-02,-6.890004800452651131e-03,-5.800030141722790911e-03,-5.556017254867028424e-03,-1.128193105143733901e-02,-6.746523413649849546e-03,2.801313300617628774e-02
6.408484975450557015e-03,-1.966786268792890605e-03,3.054998941487120320e-04,1.773449961903663134e-03,1.192205006959390096e-03,1.630996260168621897e-03,-6.419061147393123959e-03,1.163681251742146403e-03,1.228051018542548022e-02,-3.157180229304700110e-03,-2.949569779924739784e-04,1.970482848323156042e-03,-8.062629817981148070e-03
4.788744011861145906e-03,4.414223119923337858e-03,2.058733885833743255e-03,7.680784712048390915e-04,-1.826242523989227498e-03,-6.705399064123406363e-04,-8.223047861224670393e-03,1.027332617052599366e-02,-1.070414763076208732e-02,-1.216800453314466693e-02,1.006569066237701648e-03,-5.300860947427540187e-03,3.747893817160432607e-03
-1.761204856451777795e-02,-5.639002694504631485e-03,4.058754845958190832e-02,3.842105039177976661e-02,-1.888227319452150804e-02,-7.377236346535786735e-03,-8.385837061646117183e-03,1.667163781866311256e-02,5.308098895249966850e-03,-1.123918751856245457e-02,-9.231886685464043077e-03,-1.001172201692709755e-02,-1.038276439507516968e-02
1.422671751268102594e-02,-3.266748521867771093e-03,-1.242801339082673720e-02,-6.809935398951835576e-03,3.487122210978434861e-03,5.139812087282350297e-03,-1.095945161257226574e-02,2.770256714327632569e-02,3.213684831084517683e-03,-1.292105917205900803e-02,-5.702973525180892768e-03,2.558933409067622872e-03,-4.507485148104835998e-03
-1.218589311066291779e-02,-1.944001661463096208e-03,3.615619024495659445e-03,-7.193060135601214537e-03,-3.807878746882176115e-03,1.371183243345696289e-04,-3.852023312665161982e-03,2.859113099634479419e-02,4.162146791726174452e-03,7.707021628257405832e-03,-7.492013627367818127e-04,2.108941489653737983e-02,-1.487233852841589321e-02
-8.085559141542155576e-03,2.004797822041382829e-04,5.378211729640173730e-03,1.016195502781591653e-02,-1.498438999401748538e-02,1.513996978163702212e-02,2.528858333579170076e-03,-6.103613008829463990e-03,-2.200604598698370062e-03,5.024053566865281824e-03,4.563366470745870577e-04,-2.949910899875832736e-03,-4.534772442626271854e-03
-5.088939790860200034e-03,-2.180100810767542866e-03,-1.037724825115935758e-02,2.426367405458641942e-03,2.524750064683139311e-02,9.943290256064062776e-03,-2.040428783704585983e-03,-2.575013731916395241e-03,4.123489899435337988e-03,-5.273237126181704254e-04,-1.273961840947196097e-02,-3.198426305733204252e-03,-5.240107008290814737e-05
-2.749078033431787246e-04,-9.945222196000283368e-04,-2.253839276026732390e-03,1.030688450253124284e-02,5.985191298055232353e-03,-3.381200063866379637e-03,1.400650766977127801e-02,-1.626431416255953027e-02,-6.629545484715222096e-04,-7.255730177388332487e-03,-1.026104323283003744e-02,1.611478776640324836e-02,-8.181017237674483022e-03
3.670946221494361499e-03,1.268396587360318345e-03,1.244325038193080111e-03,-3.260200578677455337e-03,5.346659650486706734e-04,1.102302312702779351e-03,-8.081308471007044719e-03,-1.106731506321929903e-02,2.366406191872794280e-03,-9.783341976530721823e-03,4.964183113543356625e-03,2.468474398772511555e-02,-3.195525768449296441e-04
1.072357610210086451e-02,1.102797305309559037e-02,5.678978237384158662e-03,-1.528001980310121632e-02,-1.182665962171806570e-02,-9.972960144533905141e-03,-8.039225653824959988e-03,-7.060171996743339409e-03,-7.477121688894527995e-03,1.266621332722475332e-02,3.016828105694647523e-03,-1.218875430423560502e-02,1.421370502135144696e-04
2.795239689336521602e-02,3.598458064117018244e-03,-4.336564001325662887e-03,-9.945644125896891882e-03,-6.458996940044407602e-03,5.873947887626729952e-04,7.807355031947291364e-03,1.054168525401168177e-03,-8.234603799952673608e-03,-1.517488453481641558e-03,1.492592970682076652e-03,-1.210490832821036573e-03,-1.584833383352669172e-03
-4.685292662203459357e-03,-3.977867605119199922e-03,-1.858651425560580578e-02,-8.601816667375444814e-03,1.401691765046037333e-02,-8.735538901293211228e-03,-1.971566209004853472e-03,-1.545116529997858298e-02,-1.038509863695042702e-02,3.793545817339736420e-02,5.805422769318690536e-03,-1.109263464530288457e-03,2.354600206041954080e-02
-1.997668797274139202e-04,4.434358616491494362e-03,3.697700909806012591e-03,-4.769959352869735866e-03,1.507925633699254420e-02,-6.096082425852294463e-03,7.472938232887140061e-04,-6.935753123016928472e-03,-1.228102636992525580e-02,1.305545112577966883e-02,1.815291335267362176e-03,-6.266817206551663841e-03,-1.571917586916498147e-02
-3.935048343695365589e-03,9.665799613591803761e-04,1.638077146840093840e-02,-1.071476053773076816e-02,1.401386066072176826e-04,-4.244225877134293924e-03,2.538842016302562303e-04,-2.063128331374493394e-03,-1.357409550861987668e-02,3.111111187253454233e-03,1.305827724800199575e-02,-1.811323267775873189e-03,7.052750816935409936e-03
-3.036315334958597685e-03,9.235015904222810407e-03,1.082069032925762550e-02,-2.601909802010245014e-03,4.169510219070896376e-03,-6.580181026995787601e-03,-5.264660347276041040e-04,-6.548153516315689988e-03,-7.432584556475859208e-03,3.960204791661190750e-03,-9.363252655869878233e-03,-4.362444286645705480e-03,9.932268812684070386e-03
-6.476432833859228910e-03,-2.262010939461544645e-03,-1.959706080434703637e-02,2.780572837215632490e-02,6.541001589932857185e-03,9.052545223923551525e-04,-4.628128081262655909e-03,-3.239792400859031751e-03,-2.554672307954278417e-03,1.193035193435128954e-02,3.110625829825635616e-05,-4.224577346822148451e-03,-4.068273539521319836e-03
-1.991135075882020933e-03,2.316378793785566859e-04,-3.272753200705419939e-03,5.080222820282672552e-02,9.181602867120594591e-03,-2.043972395494665032e-03,-4.875070958266319171e-03,4.415712772232010782e-04,-3.383006595520507507e-03,-1.405857979111159450e-02,-4.974768138326068553e-03,-5.772299238674131507e-03,-1.122757961246229758e-02
-2.546465656933061261e-03,-4.443545014392249679e-03,-9.372450562892562041e-04,5.272346009612213389e-04,1.260430222276372539e-02,-4.929180535699186419e-03,-4.288719761666325361e-03,-5.148602782484328587e-03,6.609987001624083140e-03,-1.562924588398185641e-02,1.784004297764617969e-02,3.109306598611513706e-03,-1.326109676360118575e-02
-3.609655062033317093e-03,-8.528169930190503123e-03,-3.243658837386469151e-03,-5.463855903384713490e-03,-2.695735483807529731e-04,-1.922386155821028493e-03,-1.654837124316393699e-03,-3.457280001713287140e-03,-2.905095979368822051e-03,1.321308299403606496e-03,-6.355092598160789466e-04,-7.601396472481640899e-04,3.595826027219634069e-02
-2.974236122282914157e-03,1.351809361470047120e-02,-5.451362038255613482e-03,1.746172645445994657e-03,-1.983364412703647345e-03,4.393449638782516257e-03,-3.908522413907173504e-03,-2.390152409226245327e-03,2.752790744608546447e-02,-1.352775931280147470e-03,-1.333323431637674708e-02,-9.192132248035961989e-03,-8.041691817869211709e-03
-5.611379699608429021e-03,1.743284333783915981e-03,-3.800971058604282662e-03,-4.048510292384469023e-03,1.041982613399284122e-02,-5.757994805134646239e-03,-1.306334678367499901e-03,-9.439983919789432867e-03,-8.152795651202110472e-03,3.583891425638506545e-02,-3.282159115569158181e-03,-1.077472750536644227e-03,5.820163510543938448e-03
2.435645657137954900e-03,-1.962028631960377033e-03,7.077795421601710642e-06,-4.967785984762869943e-03,2.061278731681156790e-03,1.877560846092815290e-03,8.100810279006866177e-03,5.701060406402177518e-03,-9.620644994356318883e-03,-8.013993957855262626e-03,-1.959030809480505689e-03,-1.972786558460779167e-03,2.976107799092862598e-03
1.490481231688390099e-02,-1.577617423525873308e-02,-1.461369296783328851e-02,2.632800946148990823e-02,-4.635016743396625991e-03,-1.881236897516055939e-03,-1.007373097121385362e-02,3.809313042693573959e-02,2.519022749334315185e-03,-6.270976904744492153e-03,-8.738086774246981575e-04,-5.091343872299319492e-03,-4.487528412669982564e-03
8.797021653635463817e-03,-5.445102263150774016e-03,2.018022343025914142e-02,-6.841708033459547580e-04,2.756475032753523402e-04,-6.092952870858123031e-03,1.449007385894987565e-02,1.727184925559520356e-02,-1.888275910187679069e-02,3.697546416928187973e-02,-1.214498311942699242e-02,-1.693347741322467209e-02,-1.449732461519416885e-02
1.660367096545980331e-02,-1.328547982643219980e-02,6.329737563429017194e-04,-9.847878993925243338e-03,-1.870544078823148989e-03,-1.965549282001907531e-03,-1.086518152041367029e-02,-1.294001533462710665e-04,-2.020827620126709051e-02,2.699162103736763713e-02,-5.259642629684476572e-03,2.769984240612118412e-02,-1.067289889186678539e-02
1.014700893295098372e-03,-4.114909515869936973e-03,-4.258590793729868755e-03,-4.936247968064047704e-03,-1.239927985690020794e-02,-1.248380526825453030e-02,-3.150442403363402834e-03,3.260063433531584873e-03,-6.774496418065492458e-03,1.138922513872497400e-03,3.314157930595179602e-02,-2.843931619552158771e-03,8.967411935734090692e-03
-1.210550081945861462e-03,-9.927009816907608059e-04,-2.747716125342743870e-03,-4.720730398604598352e-03,1.532654046486795364e-03,-4.161891025927745222e-03,-3.624549803852376937e-03,3.064599448702263335e-02,-4.652551221650778890e-03,-4.108570247688801517e-03,-3.066237710654209827e-03,-6.136689112800015715e-03,1.952183406101418899e-03
-6.874227111237478545e-03,-1.035675029529847455e-02,-3.170322251796886450e-03,-7.549028977847207882e-03,7.221766225678502918e-03,6.336077345509700783e-04,-2.170484439377190315e-03,2.243752248893679524e-02,-1.492908884666070690e-03,1.779472052549585818e-03,-7.597712627603324734e-03,-1.887201114616456109e-03,1.403682987776956950e-02
1.172532261611359400e-02,-4.085880074424043384e-03,1.492286375482165112e-03,3.302214465649448076e-04,-8.155459886094690997e-03,-7.606926438399505899e-03,-5.701773448749415489e-03,-9.981093032475865656e-03,-6.132682856124722741e-03,-3.990141394790016650e-03,2.521778167267401186e-02,-7.984391226004413505e-03,4.098684240951888658e-03
-7.073604495483292245e-03,8.271960370218928507e-03,1.031846784034252951e-02,2.369465250231532483e-02,-1.178947361256897815e-02,-5.440236747177855381e-03,-1.029740684082058270e-03,2.541120322083361208e-02,2.503042309451754613e-02,-1.259022286799017266e-02,-1.685945781320608017e-02,-2.652174366316686384e-03,5.449799729224864484e-03
-7.379115951500987702e-03,7.787728537719520658e-03,5.050395477990335738e-03,3.547844343949271926e-03,-4.013819092362895177e-03,-2.842196143285419078e-03,4.337995722199375695e-03,2.244699431602041172e-03,-2.647778197905926393e-03,1.262521243238226044e-02,-1.673501921018495609e-03,-1.451757342022468901e-02,-6.028094581465784710e-03
6.491755903276012459e-04,-1.983632414007134061e-03,2.458038950902615392e-03,1.340254368094793719e-03,-3.112948809771701880e-03,8.791047969611326309e-04,-1.168817909125955713e-02,-4.377972677739029768e-03,5.245315336281380914e-02,-1.590485037177796074e-02,-2.016439139850454646e-03,5.348379978120726885e-04,-7.083202469414340112e-03
-6.728504903706399379e-04,2.789556320175651076e-03,-3.420669017724403856e-03,6.230054857006593616e-02,-2.687819756007820728e-03,3.521680984045807419e-04,-3.781244021956921969e-03,-6.107755469839671811e-03,-1.318176419840952915e-03,-6.388368082791179466e-03,-1.023030625873283701e-02,-7.392884039875420414e-03,-8.545003240228419422e-03
-3.542721669430969837e-03,-5.239471398400545078e-03,-4.516513349009025451e-03,-3.756960165253966813e-04,7.251319916242860222e-03,8.064637814281137244e-04,-5.924551656726706993e-03,3.214287699153737209e-03,7.888475202800778602e-03,1.084043645812245334e-02,-2.343797597756250642e-03,1.682246515430746783e-03,-1.113459815165596806e-02
9.621836919521894321e-03,-1.234488151549304087e-02,-9.284596840628031155e-04,1.616455657165479301e-02,9.161447577474231274e-03,-5.426770051675107800e-03,5.297003010742383500e-02,2.425755398194992529e-02,-1.334709907676024689e-02,-2.472547616746323396e-02,4.904822774687001702e-03,-1.022994201592718373e-02,-2.246119687384668176e-02
1.251689450621956690e-02,-4.459511693430592556e-04,-1.584713772858837438e-03,-6.025808261109655284e-03,-5.949785843851486920e-03,-4.969183043117816672e-04,8.031083507702530683e-03,-1.945210917856484562e-03,-5.408308466129314526e-03,-6.389360540664896712e-03,9.038930698947224025e-04,-1.514405737425568877e-03,2.643196072755130480e-03
5.994916941094667780e-03,-4.969770803662655612e-03,-1.093606005358986610e-02,4.033027296535542094e-02,3.678153002360898781e-03,-3.439612582193166818e-03,-4.641811703304451163e-03,1.364125500182428782e-03,9.186546495662308368e-03,3.215511062421911280e-03,-2.952153374630451122e-03,-6.599496218188478838e-04,-7.314192258650857419e-03
-6.618223932572641841e-03,5.035853893205506637e-02,-1.980705922085270257e-03,-6.627727926323205565e-03,-1.282386513369175021e-03,3.332747201926940239e-02,1.355706839590514008e-03,-1.628610992631109727e-02,-4.407629031950679663e-03,2.615995666000168335e-02,-2.139817149126541779e-02,-3.123751211986402956e-03,-2.415443665781603563e-02
3.072826061388816629e-03,3.536823968265036255e-02,-3.715662613025865531e-03,-1.829901783906967214e-03,-8.799808382232193055e-03,-6.441149244672735377e-03,-3.296471155521939114e-03,1.209486504597225183e-02,-5.556997973036815336e-03,-5.156801700378276995e-03,-4.367471147077707158e-03,-5.350689283540975040e-03,-9.154964777744049528e-03
-5.438995899343265945e-03,-2.100780519874508034e-03,6.077776158468657479e-03,-4.173896570113674875e-03,-7.694460627339843673e-04,4.903791381408496592e-04,-2.799560695744895272e-03,-3.054303830251300835e-03,1.814075225637394248e-02,-7.477826044268076969e-03,2.385915408493330045e-02,-4.234971144227541937e-03,-9.097903612618956498e-03
3.101856400980988488e-03,-7.237870196324368635e-03,2.709107254414593394e-02,-1.112115591529193662e-02,5.192086703418506005e-03,-6.385180894815395240e-03,-9.608886465591494688e-03,-2.778026775093137522e-03,-6.436033994251797070e-03,-4.535935310848835875e-03,2.992931103333070614e-04,1.459721178318792480e-02,-1.388018336523729260e-02
8.094685014131755563e-03,-8.837014281108380304e-03,2.497174166166350393e-02,-4.573176225583937791e-03,5.388295349359883447e-03,-3.417819303461310659e-03,-5.076037816566660900e-03,4.739677897311266042e-02,2.024534195106572534e-03,-1.703007914666457984e-02,-1.260719429968251704e-02,-8.282532036657904578e-03,-5.288432912459937497e-03
-2.002315079759594933e-03,-9.759524885668103633e-04,2.341085116839515621e-03,-1.477240443340077430e-03,9.887520344673574740e-03,1.018926987214277633e-03,-3.431348876597843656e-03,-2.008677393418728963e-03,1.838908250108379962e-03,4.515745648381194050e-03,-5.249119640513616111e-03,-6.125770474394428254e-03,-3.936895812527185443e-03
-6.377063428258796136e-03,-1.495082898624850234e-02,6.209167402569258122e-03,-3.710562726808181062e-03,5.195092398257017755e-03,3.772684366341763629e-02,3.405134871382393849e-04,-1.441131429482253807e-03,4.042156573970189610e-04,-7.343818599258507621e-03,-1.093863045920065447e-02,-3.102369228426702253e-03,7.157384964668700097e-03
1.591222206697014488e-02,-1.845688166575585416e-03,1.909727665374642142e-02,1.351596308122430829e-03,5.530392031789865305e-03,-7.051934352887462461e-03,-1.076669130502611472e-03,-6.882218916525449995e-03,-1.193035547539069915e-02,-7.297467732154397195e-03,-2.134280362841586322e-03,-2.682580565705140665e-03,-3.539346214005129228e-03
1.483570158061743062e-02,5.115703660367807836e-04,2.233238066146207238e-03,-4.078873951569346110e-03,1.727898515488370370e-03,-6.208824471266296760e-04,-2.459373108202023671e-03,-2.837887328838087711e-03,-2.819263005144346992e-03,-4.248869494652927621e-04,-9.918501419082495409e-04,-2.561569295500346934e-03,-4.656115394551471956e-03
-5.594294962809305896e-03,1.772315295847923635e-03,1.503477996738735757e-02,-6.687149705165834884e-04,-8.797363662610585208e-03,3.886030533387098331e-03,-6.467178902754310184e-03,-6.237593390977944074e-03,2.929729624588842118e-02,-3.160999403788668140e-03,1.128023988430577537e-02,-1.042762448609008911e-03,-1.079087527803732245e-02
-9.339659239761592896e-04,-8.232332526280208623e-04,-5.932969824606334347e-03,1.025518225269088715e-02,1.350452011446580738e-02,1.970168797577932958e-03,-3.263389781701252126e-03,3.776136936834943204e-03,-9.599898613581386159e-03,1.870857681503341249e-03,-6.433553808513172052e-03,-6.015889503758926893e-03,-4.121461775630562256e-03
2.926207528419720941e-02,-4.599248218069345792e-03,-8.480699832488208106e-03,-7.692477142969856956e-03,-3.577881228700272032e-03,-2.918731762710683169e-03,4.922110427179391193e-03,-5.378714521659613661e-03,-1.104435726763630145e-02,-2.641154258133325203e-03,2.402453014464863215e-02,-8.332049901460147207e-03,-1.876723085843640202e-03
-1.104988606382793434e-02,2.571382773455727945e-03,-1.630186415491836557e-02,5.017733359112767216e-02,7.706166525821676536e-03,7.615523281841255106e-03,-5.922820182992821064e-03,1.783040912601276118e-02,-3.056442853699758489e-04,-1.306394762752570958e-02,-1.351517382931785929e-02,-3.009610019459630324e-03,-2.450370701008813823e-03
2.135590615586962018e-02,7.194188593922938406e-03,-1.472780913999084673e-02,3.565074818728837525e-02,-2.600557145792693411e-02,-2.242220689614105728e-02,9.527986656459401169e-03,8.667349187642264113e-03,-4.510109430040321271e-04,-8.438638681587973820e-04,4.576095036206787731e-02,-1.745094603366604755e-02,1.133564745672131259e-02
-4.223606203693783603e-03,-3.312467174468675113e-03,-5.719523202558032642e-03,-1.284909388254300809e-02,3.457925434918151554e-03,5.814738812082047292e-03,4.666211052118529601e-02,-7.299299207686331219e-03,5.955525045453389024e-03,-1.078175139149947434e-02,-8.556089263020188324e-03,5.358254042368440582e-04,-2.136823990846894485e-03
7.614954105272800193e-03,-3.412256462261341956e-04,-1.197910021977011477e-02,4.454875711194337257e-02,-1.624502916405163016e-03,-8.615073789497999096e-03,-9.261888543195919907e-03,-1.228248224744146570e-02,1.021248612379229348e-03,-8.254352754558004360e-04,-1.189642368985945574e-02,-4.750826351087106096e-03,1.497649612132579203e-02
-4.815606584955105240e-03,7.866686435484621575e-04,1.326756663872255895e-02,-3.463673193110091732e-03,2.776490711403746189e-03,-5.384145116303493649e-03,-3.768527501722746063e-03,-1.213290994751459488e-03,-1.821794726376185173e-03,3.971707749371055328e-03,-8.017193298031672841e-03,-3.480270178081514530e-03,1.242372125419771364e-02
-1.788059610938588827e-03,-1.750921347690602122e-03,-1.266257979118272890e-02,-3.727211003291733445e-03,3.107732341574998697e-02,1.674604608110680844e-03,4.902839603472238308e-03,2.044918276416330533e-02,-3.179081844481855372e-03,-1.032606743755267072e-02,-8.164617053722811671e-03,-6.868483177589692831e-03,-5.338921630722996345e-03
-5.998346622718678158e-04,1.182298635423028460e-02,-1.046417453347739911e-02,-6.258105224855712093e-03,-1.232631677653394341e-02,1.293333103169644685e-02,-6.980888071782260888e-03,3.902088102098215383e-02,1.470400451331163811e-03,-2.547877372630299488e-03,-5.456566863879837824e-03,-2.024929633155682362e-03,-3.320051489355746975e-03
-8.390747772750136932e-03,-1.729790090588071913e-03,3.698970441444351335e-03,5.581129179520934874e-02,1.027877022736209923e-06,1.425671002545976767e-03,-1.131783837279798192e-02,-6.942357010720247301e-03,6.444361127033185199e-03,-5.361095307661803769e-03,-2.093269130092880945e-02,1.313751696635336030e-02,-1.010541941823387899e-02
-3.741382444725095853e-03,-2.213649325709524281e-03,-2.251178868313337032e-04,-5.786419214661118852e-03,-1.133956057099161103e-03,-1.646826093918900323e-03,2.207176681403143909e-02,6.999854518063855502e-03,-1.711638259831272518e-02,-7.037526540942119768e-03,-7.481212168626011697e-03,1.783649281920847082e-02,2.219792875932751625e-03
-1.010892116554752869e-02,-1.188047876574776325e-03,-7.274620440681010651e-03,3.559916532719770155e-02,1.231316682577509854e-04,-1.769256767242169837e-03,-1.617442070477994112e-02,2.906328380964122091e-02,-2.233660275876732642e-03,-1.155358159394542436e-02,-9.076176552374672513e-04,-1.893342190360647673e-02,8.902143004498545148e-03
1.521710792210135763e-02,3.259289351109015409e-03,4.295262331823702299e-04,-1.135060640688049551e-02,1.105602441739507100e-02,-9.147027812243545275e-03,-5.843948513540584040e-03,-1.769965332353259230e-02,-1.059188719247341343e-02,-1.030853334255009239e-02,1.028904099065553954e-02,-5.819851053119504472e-03,6.908163221236209191e-03
-7.501572856495426420e-03,4.085701544503274676e-03,1.619435243449286049e-02,-1.226641645953149146e-03,-5.751240078044372525e-03,-1.338182009775955045e-03,-6.556829508482051733e-04,-5.868692795047637974e-03,-1.115950296755464401e-02,1.582929787281362605e-02,1.379292968193227963e-04,-4.353404431513233086e-03,2.254535418342686667e-03
-2.635469967773661215e-03,-1.076348752740347199e-02,-2.440748663241218365e-04,-4.796795793450703976e-03,-1.516914785677082704e-03,-8.732535741288171074e-03,-9.625810016454010515e-04,-1.322833256557013303e-02,-1.581509533832503242e-02,-1.239137018954052614e-02,4.550369725516852787e-02,5.793454219657794739e-04,3.457737616798337021e-02
1.585960987441355566e-02,2.668035072534325359e-03,-9.073095874340223474e-04,-1.114706399105524180e-02,-9.359540156520761156e-03,1.725258144697979640e-03,-8.693252762339004694e-03,-5.086791229067176264e-04,2.259061836638994944e-02,-2.174620536451866981e-02,5.259449030728010656e-03,-7.997388768387738225e-03,2.243951941447868206e-02
-2.841228326591204063e-03,2.612889622307181664e-02,-2.600267332304732198e-03,9.861686015929752025e-03,-1.018651602801641260e-03,-3.951178428546550311e-03,-4.669885218103781918e-03,-1.281803499534135693e-02,-5.034125097228424502e-04,-2.631212333221026253e-03,-1.347138064919763470e-03,-7.376886588724958574e-03,-6.578973039515888070e-03
2.444555895469921469e-02,-2.557053099727344108e-03,-9.679216569808760107e-03,-1.321460070487705078e-04,5.720768458739411248e-03,-6.790959100376488429e-03,2.133079956533961920e-04,-4.274406159248086740e-04,-5.729010332072376199e-03,6.912928577201568267e-03,-1.240383778282215001e-02,-2.776047990837659119e-03,1.655819350025019426e-02
-6.824309889709960844e-03,-8.816460826068177326e-03,3.981346089212765837e-02,-1.521697424762456438e-02,-1.025959271847801633e-02,-7.431707316301365378e-03,2.929529045400968215e-02,-5.180715740139891015e-03,-1.458067019639540038e-02,2.498124241308518310e-03,1.013885621059521479e-03,3.192583391174834417e-03,-5.708517504672805040e-03
4.649760063577517560e-03,-4.549677907221547253e-03,-8.450630958424992789e-03,1.184343129729535302e-02,-1.595635895711850633e-02,1.864308842958588980e-02,1.539166464855098223e-03,1.950062410518618033e-02,-2.949940580680923772e-03,-8.158157878489009918e-03,-9.286450849053599910e-03,2.274131353308210535e-02,-4.518386941643819446e-03
2.349012415089565819e-02,5.736030283539752042e-03,-4.061778353473427007e-03,4.425679792773083363e-03,-1.131654086100950668e-02,-1.084582336549432327e-02,6.176720591269534871e-05,-6.459270284510694113e-03,-3.194917723432840785e-03,-3.909594928570936032e-03,-7.039232079506713147e-03,-6.990655995414887802e-03,1.964479630246986769e-02
2.848148272040800909e-03,-4.259683896933134754e-03,-1.163385804992375649e-02,5.153404483541955058e-03,-9.852545903956306389e-03,7.112405342079309786e-03,-3.422589011759061793e-03,4.449268837959452841e-03,1.007248306171222400e-02,-7.799311199939524750e-03,1.125298188544051128e-02,3.235242715881674839e-03,-5.803056214265492514e-03
6.823985087195593054e-03,1.326402018953841758e-02,1.867086748683862568e-02,2.343768768800357991e-02,-1.026834325154364277e-02,7.652020866747256478e-04,-3.325967363297523127e-03,-5.890449024464899583e-03,-1.279984243348505392e-02,-1.449902000747558227e-02,-1.056617077453302772e-02,-5.425014273538707014e-03,1.441180457669407125e-02
5.620664632080430573e-03,1.714606716854578244e-02,-3.956893812810888538e-04,-1.062653634438318062e-02,-1.124422362626886253e-02,-1.079466180063003503e-02,-8.701664516443913255e-03,-5.184630950825921437e-03,-5.479925579582671860e-03,1.027661743403673542e-02,2.490236871252348924e-02,-2.155513280545819609e-03,6.931985599475205470e-04
4.015292164701789179e-02,-1.555576408843520851e-02,1.177313158923648864e-02,2.309210604481238063e-02,-1.310085204766987810e-02,-6.819157966109235317e-03,-4.476969883249225408e-03,-2.021873087740504865e-02,-1.148366784735525836e-02,-1.111861135978847726e-02,-1.440815098657742023e-02,3.105064701915359257e-02,1.804027406817935303e-02
-3.035078052803268350e-03,2.054292934461595527e-02,-4.151005606229904096e-03,4.193920506684042720e-05,-2.147087658926389794e-03,-2.163831512789926147e-03,-2.170108273004986259e-03,-1.061339663407029343e-02,-1.028828538372828470e-02,-9.622892144177462581e-03,-1.003026034243550014e-03,-3.961622794633534034e-03,3.092438064484742677e-02
-3.332861098938499217e-03,-8.292469735665051675e-03,1.827696235996908655e-02,-1.189473884473799502e-02,-7.089518632367444381e-03,-9.352918488944648653e-03,-6.771194630291179836e-03,-6.045502845687561987e-03,-2.995791002012305939e-03,-3.359496049275458723e-04,2.660330480207979617e-02,1.542454652652971644e-02,3.134650319236182738e-03
-9.846411630584341046e-03,-5.489930416063376964e-03,2.770316463540515792e-02,-5.175412120330015811e-03,1.293980110228456527e-02,-2.981417337355082332e-03,-4.080405252368364544e-03,-7.286313444179483116e-03,1.164941370464512085e-02,-1.203627891562736914e-03,-2.646068544074089979e-02,-2.533581147951325697e-03,2.348955849170462212e-02
-4.340806195967390757e-03,-4.862893833037723948e-03,1.393892135390820478e-02,-1.045210978127384359e-02,4.053637378853401640e-02,-2.400028376288867484e-03,-7.849640001324204377e-03,-1.135626793744391218e-02,-6.180900533014936464e-03,-1.517567483080264640e-03,1.800768416439511854e-02,-4.287808873456980946e-03,-1.698107703795048024e-02
1.115134514158880666e-02,-7.785533605819279154e-03,-2.282769239629601349e-03,-7.270836315364960847e-03,1.013119845160556642e-02,-7.408186272980780973e-03,-1.417262632611598037e-02,-2.646655397722034488e-03,6.486784950436813232e-03,1.924562783739721230e-03,1.229259238201016111e-03,-1.174023905821243961e-02,3.264597857838008686e-03
-1.321399110764365573e-03,1.189121647977708397e-03,2.382930991410598526e-02,1.020548654629244503e-02,-8.854263387979999927e-03,1.595694180119522354e-02,-3.915164862255290229e-03,-1.430256084186649033e-02,-9.346998828055095437e-03,-3.662699499621478900e-03,4.242769581860114311e-03,-3.924977220196472667e-03,-1.123816478281806572e-02
2.882868530916993439e-04,4.031077778057256741e-03,-1.779431931350667490e-02,5.757002283887939411e-04,-1.313544047682710728e-02,-2.549114820190053789e-03,1.301289442486388767e-02,2.325077775557802054e-03,1.668795636535370247e-02,-1.251517580700522774e-03,3.083756625064960726e-03,-1.430354654587352422e-03,-6.060847102580216306e-03
-1.528003261285467871e-03,-7.572856448130367221e-03,2.711336767758963998e-03,-1.432423337113624372e-02,-1.515413177394066800e-02,2.968118241641507990e-02,3.752139236916777251e-03,-6.814646892393863824e-04,-7.516325897380461522e-03,2.222607406408774343e-04,2.547524688556616207e-02,-4.009205676011930522e-03,-1.325483755458414792e-02
2.144253005967553319e-03,1.795570667684246238e-02,2.591527016486963597e-02,-1.147328929753504978e-02,-1.190278755646406554e-02,-1.108230401547460019e-02,-6.331959874542788733e-03,-3.584219461598796980e-03,-3.615923782074607386e-03,6.324874163456817170e-04,1.381605751425955819e-02,3.005018597843447416e-03,-1.073149303989662066e-02
-1.248637713368556598e-02,5.465258355598153102e-04,-5.660149287730361842e-03,2.604348140455959443e-02,8.702829456056812140e-04,7.793381146361509388e-05,-2.567548960106887448e-03,-1.207848316073771577e-02,-1.157766935734714890e-02,3.069545800217125461e-02,-4.551346353773682608e-03,-7.432505876739182830e-03,2.873000181281843281e-04
-1.319158622376729760e-03,-1.403458587001751509e-02,2.821104936354654029e-03,-1.432896746420969647e-02,1.855935097301270389e-02,-8.336774644722223446e-03,-1.036329194664851669e-02,1.837262294885933650e-02,-1.252492524075072590e-02,1.414851104878227586e-02,-6.373023991031140194e-03,1.700380580745473533e-02,-9.885460040340325258e-03
-1.013712741405384298e-03,-5.689093984004822170e-03,5.793087368585719821e-03,-7.562234160482827691e-03,-1.190142713552668277e-02,-9.620049297766362223e-03,1.212496180659851028e-02,6.049869456205305123e-04,-5.475866951040199090e-03,2.207034355603841157e-03,-8.038338589671324697e-03,2.907782117717372123e-03,3.250212905183812867e-02
1.233470153580471310e-02,6.020231965647748415e-03,3.034600349811760259e-02,-7.610302937312675604e-03,-4.566142027403611962e-03,-3.793859276086360057e-03,3.486313119818456371e-03,-1.397306667731785558e-02,-1.129307568459158445e-02,1.585120798932429954e-03,8.663901139137071550e-03,-7.283720703764384264e-04,-1.214411835759808544e-02
-9.321228059627180776e-03,-1.734749155759513634e-03,2.499512356534403998e-02,-8.071782242356330753e-03,-5.865958870268464173e-03,-5.742233477424032832e-03,2.504480190693528143e-03,-4.125251323139130931e-04,1.318390678893035552e-02,-3.796450050680608406e-04,-7.062456716351935178e-03,1.538604714035413101e-02,-5.347149031321603123e-03
2.283584260837722476e-03,3.127681043425282331e-02,-3.819955965320430240e-03,-5.460062296913900486e-03,-1.200664125675652075e-02,-1.298352994727506801e-02,9.346991008935855768e-04,-8.296850947182656671e-03,-4.051804152623890085e-03,-5.657262654782663561e-03,2.846691278215862653e-02,2.171590406851390837e-03,-1.883336870148286449e-02
2.084918609540720690e-03,-1.688439103765543379e-03,1.931912552263884836e-02,-4.738742978229078251e-03,1.064209202599867860e-03,-2.627877397373183654e-03,-8.071198928707747772e-03,-3.656290002590962575e-03,1.124683686688083151e-03,9.718823615693126389e-03,1.984954867345128590e-03,-1.380427109531004969e-02,-1.207528261389590341e-03
-2.712759877005652045e-03,-4.017481407494891826e-03,2.570047284462188136e-02,3.617720851810298129e-03,-1.394644152740503497e-02,2.294615000953920819e-02,-3.124977851594324275e-03,-2.190262870522830582e-03,3.043864288727948959e-03,-9.323141626203930790e-03,-7.015093176496180541e-03,-1.406352433785559158e-03,7.198691985354887645e-04
-8.166259856307330964e-03,2.339593283953454728e-02,-7.167329944619398388e-03,-7.156210781836061692e-03,-4.657592616310333826e-03,-4.602675069064116921e-03,2.173090366151775657e-02,2.499866175169867220e-03,-1.457050449328204733e-03,-2.426046295980814789e-03,-2.187140773839795806e-03,-4.771585165057166782e-03,-2.850714392078923000e-03
3.161666359391508696e-02,-6.248343888094533847e-04,-4.774863805939340289e-03,4.895924951406671610e-03,-7.658837053233132248e-03,-3.364715095933037774e-04,-1.259220009589818480e-02,6.569910967258732297e-03,4.377584015361256006e-03,-9.210911007502934483e-03,5.391671816633941683e-03,-8.584124252565277988e-03,7.272004893661101110e-05
-1.149334325877955122e-02,-8.765303390377333220e-03,-3.320381706791640693e-03,-9.743588011224647155e-03,-1.083197344645827481e-02,-8.429476033043181021e-03,1.392596460353116850e-02,-1.231096806537792208e-02,-1.000013750860087938e-02,2.513149637875623441e-02,2.581938472288740002e-02,2.674209011389676663e-02,1.033533293977355674e-02
8.660090718131134915e-03,7.041386908729763486e-03,2.954161435741917141e-02,-2.785712211397752686e-03,1.749126592856066129e-02,-7.014520015510480704e-03,-7.493458688350414579e-03,-1.279621134713455552e-02,-1.130709016542424429e-02,1.706479381186871980e-02,-1.421089940251705000e-02,-8.223789521822646303e-03,-5.192732283997089984e-03
1.011006668452030591e-02,-6.483661918576426667e-03,3.204259996059940357e-02,-8.876667144024725717e-03,-1.861123927833669561e-02,-7.078541188119976887e-03,-4.568614781352123115e-03,-1.164000336483831787e-03,-2.500360026450332892e-03,-4.805201208314931541e-03,-7.627994072053946063e-04,7.205974190449533721e-04,1.736545399770901207e-02
7.931023719631323434e-05,1.559623196917528896e-02,3.026743112399201240e-05,-1.272015979478985717e-02,1.281174716831499916e-02,-8.579788581672288111e-03,2.906059552838130555e-02,-2.778146055735894199e-03,-1.845184625789083807e-02,-1.250029156229164051e-02,1.223832106587305173e-02,-5.181717542227616069e-04,-1.940690654177296831e-02
2.200211252013771490e-03,7.092123126083069422e-04,8.015279979786442887e-04,-1.150269518175305559e-02,-8.863009939902586135e-03,-1.344822264301011056e-03,2.332309900319311236e-02,-9.856141752840384337e-03,-2.501615482736201795e-02,4.531076201440133872e-02,-1.640968487152440159e-03,-8.830990242073084168e-03,-7.079992745261084845e-03
-1.051626865350548806e-02,-1.905064824551299784e-03,5.498238953450913791e-02,-9.953180725112167199e-03,1.372772023356176076e-02,-1.363609597664732160e-03,-3.341854684858508451e-03,-9.476510592242737979e-03,-1.510395392643000025e-02,9.247165886224070156e-04,-5.640756871707537125e-03,-2.401032191043094531e-03,-1.057456574585821131e-02
-1.565775478558755276e-02,9.127114087713817520e-03,-1.972634540180397827e-02,1.188129171462025142e-03,3.426594821889319964e-02,1.476900143828028568e-02,-2.357086166844624825e-02,-5.508243476971240622e-03,3.602781425420915895e-02,9.585574533509923223e-03,-2.676824682208223810e-02,1.272327577369444275e-02,3.358625649530277285e-02
-1.053271890207403694e-02,-2.019478273993273454e-02,-1.269318303097198130e-03,-1.519419988541205122e-02,-3.573686967709451597e-03,3.186476001186967083e-02,3.080314239637890490e-03,-2.866353255295025007e-03,-1.660816740253075532e-02,1.087414813296606539e-02,1.192951655904061700e-02,1.248308860322236034e-03,3.367253205385107445e-02
1.987658599283259955e-03,6.315200575888381233e-03,5.482863828573022839e-03,-1.606176338423093153e-02,-1.611924874503072730e-02,2.734633263079738752e-03,1.446036707352120997e-02,-1.546603831065176959e-02,-6.603552404541470147e-03,1.443548941069658625e-03,-1.034013364205733226e-02,1.983840237928993083e-02,1.959735850398959187e-02
-6.229422575650771926e-03,-1.270069757992733396e-02,-7.731825245875870341e-03,3.447382387692075195e-02,1.062120962178155631e-02,-8.502405509149536106e-03,-1.263292377206972315e-02,-8.669835191923805926e-04,-6.913654420696665852e-03,-1.055808622561672447e-02,2.673976405972216391e-02,6.319082741206252796e-03,-9.283248963273113205e-03
-8.997933650017952284e-03,-9.083540542866311990e-03,3.274846863420653210e-03,-1.463990253459316812e-02,1.289149968626775687e-02,-2.475598542490125599e-03,-3.644375705069677167e-03,2.717612310896411892e-02,-1.834993218285561108e-03,3.603480455718213217e-03,-7.133684148107323660e-03,-1.372764572268975972e-03,9.754999053286177862e-03
-7.153215966028707642e-03,-2.994345272432704687e-03,9.110984438143194392e-03,-9.733401207021661131e-03,-8.380824968932118826e-03,-2.170283143055719895e-03,2.662882199414241466e-02,3.364510871312872790e-03,-7.401390841031744994e-03,-2.616762588347031158e-03,1.766712291396032013e-03,-2.480883441781560686e-03,-2.891009483004584619e-03
-2.930557062079004564e-03,1.155525677340307235e-02,-5.699366376064050541e-03,-6.534755542743709081e-03,-5.310484870742732989e-03,1.237712235334835357e-03,-3.438403871162986399e-03,3.433455304213533371e-02,-2.998667341067868392e-03,3.853181747418332531e-04,-5.138880676719189550e-03,-5.014286085246163170e-03,-4.614522730596390919e-03
-1.261990011068028598e-03,-1.039071351520147110e-02,-8.285714267205632200e-03,-1.438057513121643316e-02,7.511050514395452900e-04,-2.051058717582728702e-02,2.837292063281881844e-03,-8.946355698883409063e-03,-9.549280859546521033e-03,-3.308445879445976682e-03,4.909058343412224523e-02,-3.900671385462664478e-03,6.621565694903844279e-02
-3.609655062033317093e-03,-8.528169930190503123e-03,-3.243658837386469151e-03,-5.463855903384713490e-03,-2.695735483807529731e-04,-1.922386155821028493e-03,-1.654837124316393699e-03,-3.457280001713287140e-03,-2.905095979368822051e-03,1.321308299403606496e-03,-6.355092598160789466e-04,-7.601396472481640899e-04,3.595826027219634069e-02
3.936740693294657240e-04,-3.657966352440465609e-03,-4.999616974116544502e-03,-8.472214881389055971e-03,-1.462145384205348550e-02,-1.066781198728483822e-02,-7.158680068152257006e-03,-1.132176694160149863e-02,-2.783164723413848220e-03,5.062751914238598078e-02,2.082143253621774812e-02,-6.086300044065002732e-03,-4.272110635109903874e-03
-2.304606422436225274e-04,-2.088157072293531612e-03,-3.243750454803411183e-03,-5.476592456559511296e-03,5.178274416892168427e-03,-1.531309375387135668e-03,-3.790714807000905053e-03,2.635571895891886118e-02,-1.258114872689217829e-03,5.086682339805703680e-04,-6.498601745028783142e-03,-2.412009579460854848e-03,7.284918619735195272e-04
-3.452935213595780678e-03,-4.219450052568953988e-03,1.730623275280544424e-02,-5.065329442236144114e-04,1.554208562906710632e-02,-5.970431414889428370e-03,-5.062413554556886505e-03,-3.269247600059672389e-03,7.488119600783949828e-04,-1.003567880301216644e-02,2.568844802784066468e-03,-8.381183276632869772e-03,-1.674542039150275080e-02
1.620411799835650823e-03,-1.259345446229671525e-02,-7.870674131628877315e-03,-5.003221557922518485e-03,1.848745826640613155e-02,-1.216019473363650141e-02,-8.396843222886911698e-05,4.074907099846808997e-04,-9.948916099639210434e-03,-3.603657135602769592e-03,1.183288794290899941e-02,2.289004113624093940e-03,1.236514650211862493e-02
-1.455839635827990090e-03,2.195318383616258820e-02,2.908301959738649627e-04,-1.280362869546472753e-03,3.016929689862872781e-03,-6.487366061593789583e-03,-3.391239318005843766e-03,-2.155962942883056510e-02,-6.776091314827330367e-04,-6.120863480526548064e-03,3.013762553926431324e-03,-1.149066443443191908e-03,1.256394491776570421e-02
-1.051014395896400326e-02,2.676325441241519248e-02,-4.494813408060481519e-03,7.833362415429746123e-03,-4.941089941763964193e-04,1.651321612110349599e-02,9.202790821694655649e-03,-1.167565671313168692e-02,-3.176148032755748366e-03,-3.488154694829642861e-03,-9.893443056177356199e-03,-5.892071173995150346e-03,-1.887544927017945811e-03
-6.447671537335729168e-03,-5.283574041721121432e-04,-9.982727287562080318e-03,1.067470068455509194e-02,6.258399705137976214e-03,2.453579513223622111e-02,-2.431358312276949742e-03,-3.649383102641728851e-03,2.576587435966186520e-04,-1.094582660674141110e-02,-7.100568221234995411e-03,-2.571803168012269571e-03,9.101903666275219188e-04
-7.451300862388149718e-03,-7.623893598876457615e-03,6.856481439780973131e-03,-1.425902337817686093e-03,-5.578621769763925098e-03,5.221346239760657482e-04,-1.473509905129802939e-03,1.831200869404183557e-02,6.504506572685970871e-03,-9.393193526314366423e-03,-3.003118817176555957e-03,4.228669729767409700e-03,-2.870213954871102258e-03
-7.020198517417121364e-03,-2.749848421048860757e-03,3.201462266980533572e-03,-1.156188818086550073e-02,1.948331160634964379e-02,1.989145958056586297e-02,1.129433173243557303e-03,-1.115781428818083884e-02,-5.399494164402074761e-03,-6.710387677494876121e-03,-2.214896754653097009e-03,1.093976602418677939e-02,-1.228445386826519312e-02
1.040008886538830012e-03,5.023868403545370641e-03,1.599535889815902751e-02,-2.878793417906129991e-03,-2.087589631761776511e-03,-1.653360252289079371e-03,3.144873876294532883e-02,-4.518622928950528396e-03,-7.733576596103486703e-03,-5.586212466788953099e-03,-5.853034522585339600e-03,-7.371232409639151724e-03,-3.011442003122220823e-03
-5.622617204722577325e-03,-1.649365250058754812e-03,2.342641014692384803e-03,-1.274573965758570536e-03,-7.309227569908916889e-04,-4.842999139890918035e-03,-2.796128044660643828e-03,-2.098537645104659073e-03,1.542629258296583997e-02,5.612284592453256962e-03,-1.663989976437501087e-02,5.248927892799766862e-03,1.284981000103013228e-02
-4.299312183873582605e-04,4.995085784508840234e-05,-7.345933361823038348e-03,-2.272646248770904178e-03,-1.833289204381645388e-02,2.267176288466785788e-02,-1.804653856767715180e-03,-1.128544533515410918e-02,-1.959022902407567875e-03,3.898587635282704279e-03,1.949635161641022699e-02,6.607880913999176261e-04,1.945677824413887674e-02
1.958828831147270497e-03,5.983407985670284590e-03,1.567725474339054428e-03,-2.741068067090541606e-03,-7.645428556897222901e-03,-2.662529141264242775e-03,1.683111869471465684e-03,-1.573454669139210576e-03,-5.665284256453397178e-03,1.295747120916693716e-02,-6.944153714131364504e-04,-2.888989478363559495e-03,-8.432043699054609298e-04
3.164538992494549813e-02,-5.198652697252153588e-04,-1.821561818553376483e-02,3.496565888602769928e-02,2.296130804105950621e-02,-1.371780513947584192e-02,-9.251598174541892424e-04,-2.342615534984221135e-02,-8.071231211524778487e-03,-1.636107834106991302e-02,-3.973488799289476466e-03,-1.414243229781778077e-02,4.251139215107611891e-02
-5.813674990889555749e-03,-1.355606365932845742e-03,-1.520506815195655712e-02,3.145771247910877227e-02,-1.068698593824444999e-03,9.870995804247431702e-04,4.195491647949345197e-03,2.163071736982009625e-03,1.588075481885370399e-02,-1.373530836488998097e-02,-1.052459393955395943e-02,-1.989507071262196398e-03,3.505258931468178442e-03
-1.272632680835222721e-03,-1.007471227612677898e-02,3.153257901028506949e-02,-1.709262816591343090e-02,-5.861570433555743365e-03,-1.844097350742563909e-02,-5.505803418907961357e-03,-6.599465846805106610e-03,-7.264813393127749278e-03,2.506572143271303121e-03,-8.430656463612734922e-03,-1.769844188651447780e-03,8.139061703854509611e-02
5.486406626945558931e-03,2.188400587711310675e-03,-1.073968641615877240e-02,2.566649627185653947e-03,-1.871914632365043879e-02,1.645962997574684089e-02,-1.291319885067510054e-02,-1.692472305388160320e-02,1.401758568136815021e-02,3.763470670155900921e-02,-1.984940096956415087e-02,4.001022796205929224e-03,-2.924563977355433813e-03
7.752786682146735157e-03,-3.471464967840688729e-03,-9.039222309102925082e-03,-5.337933152033496470e-03,6.535411482501593886e-03,-5.176346027980541567e-03,-4.640336167265400429e-03,1.997227162917190185e-02,1.629789104091013076e-04,-8.531787012813991716e-04,-7.556599392875951171e-03,-3.763323629877719269e-03,7.216579390453790703e-03
2.855675583643567730e-02,-8.477992705280143482e-03,-7.908022125840706573e-03,-4.521797067152315101e-03,2.454008557419258899e-02,-2.717725182698129023e-03,-5.609634398433149165e-04,-6.148642042623243646e-03,-6.943680017818416698e-03,-5.437433498529696888e-03,-8.535643443711393025e-03,-4.555690473125295278e-03,2.083958537630909314e-03
6.081472257479497018e-03,-5.680979419666733719e-03,1.143707469275789292e-02,-1.459255224431368902e-02,-1.240979348628346891e-02,-1.009254216781200683e-02,-5.708806130314444428e-03,1.244006700362644373e-02,1.056624838371789804e-02,5.894313983232065540e-02,-6.091098180584656255e-03,5.050614679698477334e-03,3.231896833645379018e-03
-1.756170917407484005e-03,2.558060679245734506e-02,-1.095597384218011117e-02,1.883886182041994524e-03,-3.490017370202664303e-03,7.894639435365516378e-04,-8.289436240126971112e-03,1.034418432637773753e-03,1.980028761098555704e-02,-6.496059483645512736e-03,-9.966096209828901459e-03,2.640381659889434740e-02,-5.854316108173294141e-03
9.042127944663325059e-04,2.968620019490573678e-02,-1.221786722217159914e-02,-6.755344453803370681e-03,-3.721928161608860705e-05,4.328287910533405725e-03,-1.220955935298729048e-02,-1.103710385545402135e-02,-5.874335588773003068e-03,3.178249886424865112e-02,-4.403010092209697947e-03,-6.206119722903150927e-03,-4.895685606534597167e-03
3.639646508101718105e-03,-1.437992501906572643e-02,1.303700037723220552e-02,-8.761083130855107370e-03,-1.470334011638104246e-02,-1.345012588324485080e-02,1.256863999270637147e-03,-1.058694472429074288e-02,-8.865147023386081571e-03,4.646659441280667421e-03,4.712366410169870068e-02,4.886684080077806878e-03,3.121021288767988986e-03
-3.192569809444675919e-03,-8.837359067748601360e-03,-1.153713554676332950e-02,4.962889554557827453e-03,-4.709202464576638450e-03,3.307535455634812160e-02,-7.157761309598741073e-03,-1.088715547887792075e-02,1.745101521878435202e-02,-1.732085683628684872e-03,1.956782831862871955e-02,-3.032871699093515633e-03,-1.691062331149746200e-03
3.765506462255907572e-02,-5.363620841746808907e-03,-8.828108977540247843e-03,-6.566811772666832081e-03,5.759712929370419926e-05,-4.925056452307367480e-03,1.129639436615814023e-03,-3.182050748523138073e-03,-1.538566724664821965e-03,-2.160137881609412551e-03,-8.045376528672586527e-04,-5.381124992031948058e-03,-2.174159771932028930e-04
2.650277171464767226e-03,7.949365435694435295e-03,-6.018589767984455080e-03,-1.614248813233372121e-03,-1.123914173277872595e-02,-8.246853032640624748e-03,-4.314651369075840279e-04,-9.990124457974812553e-04,-1.432549878493738884e-03,3.122827552865106455e-03,-8.614158103184731824e-03,-6.100745222922796841e-04,2.955130300785594952e-02
-4.191192982405896050e-03,-6.044084021510455658e-03,-5.880020009460493711e-03,-4.124690820638937314e-03,5.291106456978952356e-03,2.332724906252617650e-02,-1.479824307302088533e-03,8.780050747984730758e-03,-5.107286325737637328e-03,-5.746960058635754414e-04,-2.335710830710103353e-02,-3.359510658953095662e-03,1.243326192566610207e-02
-3.124390014454376824e-03,-1.312825137548463391e-03,1.290824797632245504e-03,-1.367780032234047413e-02,-1.670829423592758156e-02,-5.920754895459125547e-03,-2.426473931675504712e-03,5.530631619150207928e-02,8.592694910598680774e-04,-9.576493161778188226e-03,1.610178899888920975e-02,-1.660119489917333529e-03,-3.831654003445141617e-03
-6.048134254435489320e-03,-6.373297577923177186e-03,-5.340595833748055035e-03,1.042808747030714300e-03,-5.057458316096405046e-03,2.698607196164461589e-05,5.276686217987312550e-05,1.614001015823723515e-03,4.528609989949320715e-03,-8.381253808823620893e-03,3.617639079310509299e-03,3.835687218055795766e-02,-4.482614617368358909e-03
-1.739931300686528961e-03,-1.602472633876988626e-03,-1.138693714018470084e-03,-3.332217315566615538e-03,-1.763431583530284839e-03,4.157846953424444193e-03,1.336650561073247923e-02,-3.893612361501053772e-03,6.095627006315553625e-02,-2.733480273857825243e-02,-5.900144916295357693e-03,-6.223606991392677604e-03,-8.585442042574647353e-03
-2.252009915156365748e-03,1.462972188440717428e-02,-5.842154975367420955e-03,2.331800351707126809e-02,-6.301078253602467039e-03,9.442108704868130281e-03,-8.542257420731806964e-05,-6.806715324970983791e-03,3.753982371276695044e-03,-1.787236000041278819e-03,1.077100998663299515e-04,8.521436616464884420e-04,-1.660663857258349099e-02
-7.918018871608121373e-03,5.181431966927944194e-03,-7.439012151643981281e-03,5.237731207266381472e-02,2.979770657326845373e-03,-1.710476633804065057e-03,-1.416237492469152315e-02,-8.125875180782468274e-03,-5.671749907988892642e-03,1.351819138660534034e-02,-1.192339195676998202e-03,-1.369424371638756389e-02,-1.251084139489647140e-02
4.353683044844912364e-02,7.078148850481032206e-03,8.486916192172979300e-04,-8.081619987760703047e-03,-8.244183915745644659e-03,-2.960638128131939766e-04,-1.721758682812570343e-02,-3.205011766902883443e-03,-3.543942280218993855e-03,-4.182974115857655828e-03,-4.138404400288316315e-04,1.678025359425220795e-03,-1.005836453563725393e-03
6.452252159624656709e-03,-1.547084172163547744e-03,2.829660968436416985e-02,-1.093674521773040087e-02,8.864272231765551058e-04,-3.401115781891177366e-03,-1.008323819555241238e-02,4.428225708899459143e-03,-6.865550085579666395e-03,4.982593608800579615e-04,-1.481330832357966509e-03,-2.186779010305757356e-03,-7.095802197849586553e-03
-7.830344559483627762e-04,4.973013346563632045e-03,-4.117912245315058679e-03,1.664366596834073939e-02,-1.150336687226696450e-02,-5.792565234259631178e-03,-9.713882511000927625e-04,-2.345540840126379180e-03,1.885712719280139421e-02,-6.920327604583964912e-03,-4.099167052116924406e-03,2.187546257017528202e-03,-4.772341490250414306e-03
-1.851726013068315246e-02,-1.915948640392679120e-02,1.535387305193664821e-02,-1.252374567282802179e-02,2.021918429271624476e-03,4.724302092292576027e-02,-1.553461065359615888e-02,1.938910537182720814e-02,-6.373385452390266381e-03,2.745997514484956395e-02,3.926656916080423047e-03,-9.366615113228584505e-03,-5.716020997492299305e-03
-1.263490071902100345e-02,1.922210016117902737e-02,1.485629272956130384e-02,-4.720892898293465624e-03,-3.761291079559561570e-03,3.370334962849751148e-02,7.744998225799701319e-03,6.790849922965672483e-03,-9.519782471415346933e-03,7.177087038751998535e-03,-1.108193083033357992e-02,-1.131551137005675292e-02,-1.849920140733021801e-02
-5.415357042711942473e-03,-1.101698350440416356e-02,-3.705684609662089797e-03,-3.646556217959534552e-03,-3.865177874925748193e-03,-1.903211041228873536e-03,-1.001056033864407280e-02,-2.648502244074064406e-03,2.552984481320016291e-02,-7.122019873416976163e-03,1.930489299860696506e-02,-1.133019948256604355e-02,1.925450500444541441e-02
-5.816048555556444476e-03,-9.764699329964394298e-03,-5.631471822052391309e-03,9.620630462709413777e-04,5.070849796101062346e-03,1.823698488087793432e-02,-3.159967253162308896e-03,-4.472663705193440846e-04,-2.434310515909721053e-03,-8.348622403509085507e-03,5.998687619120028625e-03,1.832320824302699838e-02,-1.484592726611430255e-02
-7.610888971474513362e-03,-2.996700089464630727e-03,2.190220637335424120e-03,-5.958618934196799506e-03,1.037316559402071819e-02,-5.069155912420650854e-03,-8.506529895754963346e-04,-9.649314571436046900e-03,1.270509496567048813e-02,2.369105712416278917e-02,-1.050877247003794389e-02,5.707602860430062257e-03,2.432545351023056854e-04
-2.271627111185763742e-03,-1.037556758204155778e-02,-1.005170520753770856e-02,-1.181589461403631264e-03,-9.895650189065032919e-04,-1.066778819313709756e-03,-6.567371377301772957e-03,5.511323572674645815e-02,-3.636298271957336906e-03,-8.530268437879974172e-03,-2.039087936174170494e-03,-7.164908081475851453e-03,3.405524312163053270e-03
2.778433032468968777e-02,6.465643496742392964e-03,-1.526287015134609147e-02,4.754517634811608433e-03,-1.219355579444816526e-02,-2.532709650236202731e-03,-8.392743226241972457e-03,-7.505558415462187938e-03,1.579889366379394824e-02,1.154660328831575052e-02,-1.382005168634673452e-02,-2.580804070516067288e-03,3.769606936975818980e-03
4.953889080227277461e-03,4.379431716935534087e-04,5.569040052492268272e-04,2.002096497742706944e-03,-7.356688888861932958e-03,-2.017840108450521912e-03,-1.463841044112862075e-02,6.535550490364370850e-03,-7.272819392289668443e-03,-7.301816869559041127e-03,-1.173947044038521625e-02,3.769311733909220391e-02,1.030803750863891737e-03
-1.626066334774318740e-03,-3.393690651848273805e-04,1.758462421479676727e-02,-4.874547726703945191e-03,-2.945585618288279646e-03,1.381567083180013727e-05,-2.619559273484562724e-03,4.557725587803404359e-03,-1.396832657714278635e-02,-7.739474295157785025e-04,-2.952767289109781059e-03,2.121212791049168801e-03,-1.319601937552411031e-03
3.214556676495128502e-03,6.274204233978683889e-03,-2.770697641103099778e-03,-1.028518765004827161e-02,-7.307848763539491000e-04,-1.787055689012793935e-03,-2.322396893849135776e-03,6.232880539239936228e-03,-1.897154626020552525e-03,-4.547928984746199207e-03,-1.245049366753830759e-02,3.208665194620895222e-02,1.203735241484554623e-02
5.245902742533903058e-04,-1.555200964948776012e-04,-9.708157024956226566e-03,2.030976251439401293e-03,-7.793553431882059568e-03,4.866574241252065447e-03,-8.481060093548636186e-03,3.855200286572769454e-03,4.569691962093391097e-02,-9.368839450782266015e-03,-8.459304305552179867e-03,-5.604002070997324628e-03,-8.465929489544466238e-03
-2.115595022362932748e-03,-8.745641102167692887e-03,-9.654213869597919745e-03,-3.346072825273280335e-04,-9.181263605331547312e-03,-6.693944487326965306e-04,-3.158201121919199800e-03,1.273839075859505530e-02,1.120501260833446297e-02,6.170054504707905146e-03,1.896172701904148827e-02,-1.208875841784289723e-02,-6.153212048745078204e-03
-1.361232345928487224e-03,5.397140396809523011e-02,2.490528662680382022e-03,-3.465525881082230728e-03,5.025892629143347348e-03,-7.187926958774884870e-03,-1.346650624548118317e-03,-1.086427232430645443e-02,-5.940984433118039545e-03,2.474960246131823263e-03,-1.211054515114641343e-02,-2.158303040882635689e-03,-1.129250217391536415e-02
-4.240811346985614433e-03,-5.817315318682577709e-03,5.828710764315484785e-04,-7.282621496984902423e-03,1.963750351156500623e-02,1.606909103201630690e-02,-4.858186921508801139e-03,-5.778012936284476070e-03,-1.050852643120040245e-02,-6.190868300184997931e-03,1.634783952009221178e-02,-4.202194580769143956e-03,2.963416043179717147e-03
-4.335704779202326047e-03,1.391263201434018125e-03,-1.313752516805394809e-02,-3.555851936517187648e-03,2.147916614460319146e-03,1.126373012816834357e-03,-1.788332759076361606e-02,2.190041246456576537e-02,3.762723463386961984e-03,2.599135704648014578e-02,-7.567772284841347945e-03,-5.062138207925416349e-03,-2.874968371813723354e-03
-1.404518680057059926e-03,-1.610562575058545982e-03,-8.045996700063987386e-03,-9.976400419089651722e-03,2.125251492602022937e-02,-4.589155423676388387e-03,4.204630341097934793e-02,-6.799069410582521573e-03,-2.317476160179941097e-02,2.440399247633339569e-02,-4.553299154964467708e-03,-1.364260420386986805e-02,-2.501210043015878424e-03
-1.084799872398571445e-02,-7.929550125444226674e-03,-1.772274833427995785e-02,4.780525911726445087e-03,1.848223199950748546e-02,1.334601441585641333e-02,9.798529085236647868e-03,-2.902382249992559865e-03,-1.609342128312688316e-03,-4.332344671382648386e-03,9.046626687845515241e-03,-7.450869701977946846e-03,6.984814701112278257e-03
-2.550588443142045095e-03,-8.906701583275880227e-03,8.220384930027321499e-03,-3.311753828692667401e-04,-4.454162449587460368e-03,-5.872572447131503212e-03,-2.828627577565854308e-03,-7.723364342825033042e-03,-9.216312390988200959e-03,-4.961893757405877806e-03,2.937242828584550863e-03,-1.595882768013577287e-03,3.207459961451802205e-02
-8.286239206819395742e-03,-1.537287309649759161e-02,1.869930969780690677e-02,-5.369951634011607515e-03,2.295387326974964587e-02,-1.018593155607405015e-02,-1.014480010547173447e-02,-4.518163424015766462e-03,2.407825095037495131e-02,-1.213795580285719627e-02,2.549680846404929827e-02,-1.189749112405980285e-03,-2.161331210143162609e-02
-1.222607216589821633e-02,2.728978074808333099e-04,-1.569708250549929770e-04,3.441776416612819106e-02,3.043459257191766243e-02,-9.240589062344334997e-03,-9.483618153930221950e-03,-1.388936660909478524e-02,1.413072280371232767e-02,-9.538359717624005085e-03,-9.190486395358047830e-03,1.381413645373666139e-03,-1.923310817148851312e-02
1.475117456855281825e-02,-3.553610849719783700e-03,-7.781815257313149173e-03,9.800273211247750166e-03,-4.122827270851480048e-03,2.579876490465988353e-02,5.824051225067353654e-04,-1.735627046448307703e-02,8.000551381894868003e-03,5.830574681046973851e-02,-3.636025735493842673e-03,-1.637211791283980922e-02,-4.138008419120087905e-02
-4.636169876065698164e-03,-1.190950002843346300e-03,5.532816736491875161e-04,3.118928914108295980e-02,-3.704677215057625757e-03,4.132270879761366922e-02,-3.591249771133914886e-03,9.274706203511704633e-03,-4.201166026639642254e-05,-1.355111983988804836e-02,-1.106689812910183549e-02,-5.794025287924928214e-03,-2.492876533133101674e-02
-2.249771057148496241e-03,-4.288805268552048355e-03,3.739045695344762107e-03,-4.868608586485063602e-03,-1.550097543524881806e-02,1.909258740126944156e-03,-2.621623672472820927e-04,1.200760683424107952e-02,-3.887424744661307878e-03,-2.353774339783622129e-03,-2.659119568895297126e-04,-6.613726049743580242e-03,2.538472473168326693e-02
-1.104811110383691931e-02,-1.357544044336851316e-02,-7.550783656827697414e-03,-4.427976685805563514e-03,2.183070021604161665e-02,1.540393230833771512e-02,-2.840283743810787138e-03,1.694687065849099367e-02,1.126050762543780517e-02,-2.559359594785750452e-02,-1.320236870222212845e-02,-3.342005360906381926e-03,1.059157237886736852e-02
-1.615234941550976839e-03,2.513911382900688857e-02,-5.267679216487922578e-04,1.645897148702706080e-03,2.279246851716234396e-02,-5.196687479592394625e-03,-3.020051434613351109e-03,5.279320681538371201e-04,-1.024891717448751793e-02,-1.246104446141603960e-03,-8.640976117994412717e-03,-8.851577551972734242e-03,-7.923714058503016772e-03
-1.210550081945861462e-03,-9.927009816907608059e-04,-2.747716125342743870e-03,-4.720730398604598352e-03,1.532654046486795364e-03,-4.161891025927745222e-03,-3.624549803852376937e-03,3.064599448702263335e-02,-4.652551221650778890e-03,-4.108570247688801517e-03,-3.066237710654209827e-03,-6.136689112800015715e-03,1.952183406101418899e-03
-5.611379699608429021e-03,1.743284333783915981e-03,-3.800971058604282662e-03,-4.048510292384469023e-03,1.041982613399284122e-02,-5.757994805134646239e-03,-1.306334678367499901e-03,-9.439983919789432867e-03,-8.152795651202110472e-03,3.583891425638506545e-02,-3.282159115569158181e-03,-1.077472750536644227e-03,5.820163510543938448e-03
-6.435793950233822600e-03,-1.221441645202769877e-02,5.982830287586135207e-03,-7.739489345656444877e-03,-1.123391168646946554e-02,1.533877320709250069e-03,-1.363287540387732202e-04,4.543674051477858584e-03,-4.944107439834348298e-03,-1.477872532063109756e-02,2.661333794565028457e-03,6.160890200661077454e-02,-1.884098709338455444e-03
1.158360468176097054e-03,2.734753085641182177e-02,-7.209713354755278836e-05,-2.783859271952757262e-03,-1.691078106095187912e-03,-8.426992541687255284e-03,3.338123319127315851e-03,-7.804560986353471438e-03,-3.774857226327500096e-03,-2.091807622851709660e-03,-1.758241402220805591e-02,-4.452726395844841881e-03,1.555467120625227649e-02
-5.309829912345670217e-05,2.531174207703205600e-02,-5.829961680675821954e-03,-3.867697814022954313e-03,-2.949759525162733327e-03,-1.247098747756821176e-02,-5.672915681842726106e-03,4.374648140661385395e-03,-3.589917571388017391e-03,-2.481302919646182024e-03,-5.827318569821905540e-03,-2.994294103373579003e-03,1.344372915170290519e-02
8.374652382992330349e-03,-4.260496215953879680e-03,-7.596472084557522389e-03,-4.774650828520793713e-03,1.205098528760175768e-03,-8.344459741823838719e-03,-1.303618649218502620e-03,4.149092122054586114e-03,-6.899458258622224896e-05,2.455208050559010927e-03,7.231593224544211052e-03,8.483466566932466955e-04,4.704153281264447477e-03
-1.288325058846825520e-03,5.182958339549368493e-02,1.513680406575944836e-04,1.118054740581936757e-03,-3.366261612934515375e-03,1.909512156103618350e-04,-6.666968502742155744e-03,-2.417340871005644459e-02,3.140515941835261664e-03,9.307194964785312375e-04,-6.670582288705434112e-03,-4.921298081274793484e-03,-9.678034863254667691e-03
4.841875129382770815e-02,-1.675818176778498189e-02,-1.448185589400425265e-02,-8.074982323322611386e-03,3.989777688702481236e-03,-5.181280866695192958e-03,-7.475871713920312009e-03,1.675903171206852976e-02,-1.641522713905761710e-02,-1.605807791385438499e-02,3.694346925893585154e-03,-1.398024245269468765e-02,3.921019413351611166e-02
2.453408664852956347e-03,2.243443550273343037e-02,5.125503336472999640e-04,-7.300269493197295359e-03,-7.318719233322152837e-03,-7.720589531718222327e-03,1.406283146242941564e-04,4.261685563981124254e-03,-5.973452532062403439e-03,-2.015445982391401557e-03,1.909103113087974590e-02,-6.382888388008600700e-03,-6.120850090548496381e-03
8.817561243069862650e-03,2.419471385650449197e-02,-1.652101324963929987e-02,-9.287898511188469319e-03,-4.358820910309159878e-03,-1.570699136383317453e-03,-4.388973757657265926e-03,2.489276007523074166e-02,7.855270722404366496e-03,-6.725651528005430202e-03,7.683776333458815049e-03,-1.767371293840037157e-03,2.609817549498504377e-03
-6.234783736814035818e-03,-4.501018526338204651e-03,-8.455098839058077659e-03,1.206058445648999560e-03,5.827392380308687135e-03,1.264340194951898630e-02,-2.012157835955150249e-03,-2.237545707883844496e-03,-2.300947216803821659e-03,-4.350290207829165048e-03,-5.251301402389100224e-03,-2.651838790047894839e-03,2.037454885035388033e-02
-1.094317991233475758e-03,3.050180534550002995e-04,2.322291495651921875e-02,4.539271900194232628e-03,-9.788939169192035356e-03,-7.236629135110597905e-04,-2.268782366953907368e-03,-3.690742201083298344e-03,-3.527161746903672603e-03,-5.434775238699388576e-03,5.405140196788874377e-03,-1.590906847076581625e-03,-8.322320091070287834e-03
8.308998366524412982e-03,-6.721075000046249429e-03,1.477845760047870978e-03,-4.834496210222687107e-03,-3.904583285769555687e-03,-6.268921114912832937e-03,-1.121503031010398152e-02,-5.335517424189709958e-03,2.411833740383012657e-03,-2.869114689558441463e-03,3.808254420264757523e-03,3.134142501755296517e-02,-7.378417574152760020e-03
3.234875245285977891e-02,-1.227392107112364357e-02,-1.304726084014061135e-02,-1.499124055933356847e-02,2.517232717906382061e-02,-5.861738811717198683e-03,-2.271845829192447805e-02,-5.333253319280514826e-03,5.117765384366253917e-04,-8.287729995646761841e-03,-2.459394592342973446e-02,4.032041108448984612e-02,2.189704193707272747e-02
3.719248413685453166e-03,-8.812594626892385208e-03,3.632915560356373081e-04,-9.901041029128655399e-03,-1.385527794881689923e-02,-9.774327532845707850e-03,3.634618212041477309e-03,2.428119985298775199e-04,-1.624688164944284360e-03,-6.543895729099811001e-03,5.384569692478359537e-02,-1.035243068753693811e-02,4.750592591716871560e-04
5.121256769255610845e-03,-1.772593921429383573e-02,-3.551414830144380887e-03,-1.934183433966949611e-02,1.725705875167223317e-03,2.357410875519939594e-02,-4.905020374502493639e-03,4.761877644718929409e-02,2.149864622398476449e-02,1.064298489972819676e-03,2.025498812393586312e-02,-1.073468523612505082e-02,-2.692585367732487980e-02
5.399994947854308905e-03,-6.710045180786443526e-03,-1.026342763405898272e-02,-1.099652933065055349e-02,9.143661011998439545e-03,-5.402678900102119743e-03,-9.693771810975369222e-04,-8.586657697279882360e-05,-4.130593054138851717e-04,-4.567656191852031457e-03,3.713384892194250553e-02,-4.105599321023313542e-03,-2.073455427046629052e-03
8.144260092045014360e-03,-8.203540559586043135e-04,-3.362117546488443878e-03,4.595985420393519064e-04,9.670264509769942868e-03,-1.726918406321614405e-03,-1.446844712536913668e-03,3.009395334836070975e-03,-2.646562894376529741e-03,-3.743477827342750561e-03,-3.174023126299277235e-03,-7.677078876305242720e-04,-5.825506337430365160e-03
-5.792920046957551576e-03,-6.565560708959461249e-03,-2.983263542733700317e-03,-4.101839228853135580e-03,-3.011375953701933995e-03,-2.717518794888095597e-04,1.810604768828254912e-03,-5.150349672104087041e-03,1.271095466017367354e-03,-1.249883632752735695e-02,2.005088754242794966e-02,2.684197212758115307e-04,2.766419885191576111e-02
-9.826710351911602942e-03,-4.473068351142996807e-03,-9.480290759086532071e-03,2.779477984567994484e-02,-1.308635175079183623e-02,-5.460855599891940512e-03,2.508245419881875368e-02,1.825635267639663661e-02,7.024925053217866318e-03,-2.928247106707639828e-03,7.969406611087710007e-03,-1.168960480316417160e-02,-1.209794209028789737e-02
-4.579979055321517847e-03,6.459128134039074723e-03,-9.075495302117769433e-03,4.407625708775764206e-02,-3.225753259414577967e-03,2.106090560521414745e-02,1.364065105190432822e-02,-1.109246995251020849e-02,-4.371125695670960085e-03,-1.065676248171589305e-02,-6.770838763815499942e-03,-1.234889804340320862e-02,-9.383335955211711404e-03
-5.695677784427704768e-03,2.323771998692166808e-03,-6.482451912456090037e-03,3.094791033516759021e-02,-8.142573456089107625e-03,-5.912006175635079429e-03,-8.715734978352646448e-03,-1.071841138575716640e-02,-1.876228729577557406e-03,4.425076309265275898e-02,-1.374654810315854457e-03,-6.146237234743910866e-04,6.139677144947060933e-03
-7.761317378876338505e-03,-1.424367916155488620e-02,-1.620340378174234264e-02,3.034331456138136818e-02,2.784459732984192852e-04,2.948777832669046209e-02,-1.866549389655827382e-02,-9.455011519383034121e-03,1.584177645319449421e-02,4.256582151466238931e-03,3.576754459137895109e-02,-9.711350261731916192e-03,-1.840421492268189477e-02
1.133636343257061682e-02,-4.255683148708873029e-03,-8.173183977932431529e-04,-1.339369433108249241e-02,3.534142675938440302e-03,7.208647494056615382e-03,5.355046958831124332e-04,2.098447864354770296e-03,3.711439455519128378e-02,-1.131444580817812622e-02,-2.502274144306000821e-03,-3.490598052827237948e-03,-9.756254060640390940e-03
9.656921109446008414e-03,3.117317541851456070e-02,-2.054081495873010671e-02,1.446369941555842621e-02,-6.460901387948891558e-03,-1.118046103975931481e-02,1.777234374297257183e-02,-3.545512570549762266e-02,1.912248444973207659e-03,9.568440868494409307e-03,-9.553349750227412354e-03,3.292872503407502649e-02,-7.278956783127035930e-03
1.489537121151283602e-02,4.802832594346775202e-02,-1.908995898651111994e-02,1.174065588255516091e-03,1.653894632584069352e-02,3.957205526720623812e-02,-4.780940553456707563e-03,-8.885068976006403607e-03,-7.564881100879203291e-03,-2.790909573089196162e-03,-3.337954630614631962e-02,-1.818821534882616303e-02,3.734786285647172070e-03
-1.145932899188519156e-02,2.063691327747343464e-03,8.303767038682147855e-03,4.944600494195249343e-03,-8.080116960113889468e-03,3.224761631624268546e-03,-3.957051241194782520e-03,2.320162474867236424e-02,1.073888219747556189e-02,-1.171048144827763551e-02,1.261735162514606746e-02,-1.257682035171825939e-02,3.062855029282641160e-03
3.273406011665341148e-02,8.704533100414713412e-03,5.765558306855914647e-04,1.712447805811365088e-03,-3.926086607283151356e-03,-3.605610596868034142e-03,-1.842236597408544035e-02,-5.854747953358802916e-03,-3.625063375435045557e-04,-6.733089758604329789e-03,-4.005550527927217649e-03,9.429051294002905714e-04,-2.275376295271505124e-03
-3.812644286143743264e-03,-7.467807371921192545e-03,7.630104954862168901e-03,-2.247795107913174405e-03,-1.149703985250816358e-02,3.888809879836319485e-04,-6.285593309767995669e-04,-4.543418637657536605e-03,-3.135050885296561222e-03,-7.554839350147092569e-03,-1.122302390044912970e-03,5.208578880645876874e-02,-5.297170511198047568e-04
1.116074374058765098e-02,-3.936562520618079250e-03,5.067543977127006785e-03,-5.956408675007437807e-03,1.632624741603527123e-03,-8.287199084729614251e-03,-1.025704290448459233e-02,-1.044413775285237336e-02,-1.499692471321696294e-02,2.832760246007141533e-02,-6.869340545712783810e-03,-1.101750476555890361e-02,1.783064606007529404e-02
6.491755903276012459e-04,-1.983632414007134061e-03,2.458038950902615392e-03,1.340254368094793719e-03,-3.112948809771701880e-03,8.791047969611326309e-04,-1.168817909125955713e-02,-4.377972677739029768e-03,5.245315336281380914e-02,-1.590485037177796074e-02,-2.016439139850454646e-03,5.348379978120726885e-04,-7.083202469414340112e-03
-1.337312912308949962e-02,-1.019583450074632372e-02,-2.394339165885691484e-02,7.910950887852591720e-03,-1.400195659906509991e-03,1.989003189483214834e-02,-1.772459534112465294e-03,5.805632672054694254e-04,-3.878141355852711436e-04,-2.693360452761783472e-03,4.939187873324087097e-02,1.870554382606366695e-02,1.431357735282535147e-02
-2.911778361981867073e-03,-7.661482001314584567e-03,6.206343070358394040e-03,-8.357252545820327214e-03,-1.020560587632091207e-03,-1.452725990219647632e-04,-4.701588692225656604e-03,-3.553565408970337479e-03,1.504188933860555952e-02,-6.688937302508521539e-03,-9.649863727168124169e-04,4.897029116100072056e-03,1.393133113380152013e-02
-3.945795249507944892e-03,1.588627099107147844e-03,1.105849585047386733e-03,-6.797068146452771645e-03,-3.554211693628211120e-03,-5.355959253443396892e-03,-5.675798340565052849e-03,2.126299268718328736e-02,7.172080538261927166e-03,-6.633253559386575668e-03,5.681539269954267697e-04,-1.183524080779992799e-02,4.971455892862162301e-03
-1.060030954336325937e-02,4.399314902637604247e-02,-3.854091014328647671e-03,-2.113158153799130426e-02,1.519552798709476217e-02,2.114868057395304438e-02,-8.299176681905020420e-03,-3.800362979326066259e-03,5.715883000152245999e-03,-3.063941652618724400e-03,8.815750009128459075e-03,-2.996938564050526978e-03,-2.450131884151511910e-02
-2.055010087617306115e-03,2.259314494031939170e-03,-6.529546664843547191e-03,-8.599725362623020924e-03,-7.922272306603476283e-03,8.033536081306798943e-03,-2.931571373064508542e-03,4.885357746062113105e-05,2.262477692832401063e-02,2.089450928362822455e-03,-1.934408647169766696e-02,-6.466174121585432574e-03,2.234338812082752729e-02
-2.790887051523673491e-03,3.192076369140664505e-02,-1.026447277363517693e-02,2.387498005368754103e-02,-6.933006160988489271e-03,1.909223413531151853e-02,-6.255223480848474613e-03,2.440546702329435096e-03,-3.709674763778742120e-03,4.683382013530915794e-03,2.141656613547380898e-03,-1.440813692359219945e-02,-2.555324038950423926e-02
2.094669090402356566e-03,-2.594132173305807587e-02,2.070273036752443008e-02,2.415469559485963064e-02,1.605157284100054704e-02,-1.607002266492308512e-02,-2.642660977329833877e-02,-7.643489478461854177e-03,1.324050476793704224e-02,-2.310179752155461924e-02,2.735649336669503801e-02,4.165264763543772425e-02,-2.490415374379611677e-02
-6.385339700330395097e-04,2.901384451331783920e-03,-9.487805557816643767e-03,-6.940974385502054686e-03,-8.083086460169657331e-03,3.894635216091489778e-03,3.817664779182254609e-02,-3.251200269382144292e-03,2.161220458416864693e-02,-5.966326339033831486e-03,-8.525280198264793136e-03,-7.666683641542893120e-03,-5.339295405837564054e-03
-1.518902863499694764e-02,-5.540080836008596729e-03,7.542922036899424136e-03,-1.148491730310278666e-02,-3.217647445558404536e-03,-1.535253908272510032e-03,5.125706395144287789e-03,-2.534593156300444535e-05,-8.904010587345915356e-03,-1.413896532045281953e-03,3.353664107851934105e-03,4.472550977287553103e-02,-5.245142364757966399e-03
2.661570864462399141e-02,-2.681751561471018563e-03,1.077766605725410769e-02,-7.617912848802134602e-03,3.038048585516277614e-02,-4.740711464794502249e-03,-1.533615015608943109e-02,4.821786399351458800e-03,1.015614805277249497e-02,-1.394333935908764234e-02,-1.805610669124641660e-02,1.551524250946604774e-02,-1.537710175031642423e-02
-6.635772196231959352e-03,-1.054011160813171644e-02,-1.968344314880241669e-02,-9.585464645390380165e-03,6.316560411351946139e-03,-2.197377206671059097e-03,-2.918045927553590546e-03,-9.921956855402579937e-04,-1.206268768797076792e-02,2.323206355749415225e-02,2.202871614221871624e-02,-8.197851900650922688e-03,3.325585134798338810e-02
-5.607837021421677864e-03,-3.940783988371265693e-03,4.310892942120199867e-04,9.623967661327890652e-04,2.591473307724345698e-02,1.362900433985656445e-03,-1.317489702841659859e-02,-3.239027489900650654e-03,7.655116593132354000e-03,1.253353326491194776e-02,-6.271406147822712607e-03,-2.307754265862133492e-03,-1.440643391143448318e-02
-9.060405653633345907e-03,-6.919127195208674055e-04,-7.172177901567431237e-04,-5.042448190749787215e-03,-1.096804913131653979e-02,-2.790600425270464962e-03,7.639508980392830870e-03,-2.234960388022433440e-03,2.961134639632369628e-02,1.001661683833528216e-02,-9.893813888733742415e-03,-4.953329978406193108e-03,6.518134086267694674e-04
-1.399640581843392476e-02,-8.685166207556072396e-03,4.669022864244368014e-03,-1.761572931639413713e-03,1.619718671366419949e-02,-3.073516219076144148e-04,2.306538405009391987e-02,4.426325093882315515e-02,-1.154147099123923811e-03,-1.154782702398861154e-02,-1.748599026976334347e-02,-2.702948892906770813e-03,-1.682296842626639782e-02
-1.695144320040293737e-02,4.300807421598092789e-02,3.377147824476468829e-02,4.705290623760292543e-03,-2.154752568613146815e-03,-1.764007464568745007e-02,-1.842337034850324504e-02,5.203625035146498476e-03,1.473869625089702703e-03,-3.896932631746761327e-03,-3.688245823228515023e-03,-2.265355017215639824e-02,4.364751375819520690e-02
2.209328360260742752e-02,-1.352439596991890022e-02,2.142853067021877750e-02,-8.625846801566491515e-03,-1.289453985028921577e-02,2.574124028695206484e-02,-1.395585853243314078e-03,-5.278685132089349849e-03,-5.457617757787377663e-03,-9.203551360562464353e-03,-2.116441280119945949e-04,-9.182703420137331568e-03,3.905324729280591073e-02
1.569812970659725804e-02,-2.656471552429957774e-03,1.465735016171439749e-03,-1.012704533043817107e-02,-7.209218603660107021e-03,-1.191322770844068782e-03,3.448368309651776709e-02,-1.449781711615817127e-02,8.890489458389983640e-03,2.532305565798919321e-03,-1.028917441095769485e-02,2.853530926425941125e-03,-7.284697555728572235e-03
6.124862207676598155e-03,3.649064655256657047e-02,-1.608965327215727131e-02,3.673657101691136509e-04,3.867523263459425598e-02,-1.243483667687112285e-02,8.966413358536474282e-03,2.845966292177289428e-03,-6.671666186873270905e-03,-5.305170894497415052e-03,-2.293157231952515362e-02,-1.958488980755507605e-02,-9.681002466742211904e-03
-1.496030434503233322e-02,1.908829425356887641e-02,1.003491052648216534e-03,3.401993681560244731e-02,2.179240313470689333e-02,-3.320662848236089620e-02,2.718118940694945820e-02,-1.052716398251926991e-02,-9.131468930447630625e-03,1.751036838784716249e-02,-1.768698107454631048e-04,3.590214699332611864e-02,-7.889781201027238483e-03
-6.046865061205597240e-03,1.719992310277975583e-02,-7.532350755475307469e-03,4.102962784565952759e-02,3.416380439547485326e-02,-4.200263547712811824e-03,-9.733473025800794959e-03,-1.421773719612596729e-02,-7.904242513628322725e-03,-1.075851268739031440e-02,-1.163790412543345802e-02,-4.092419783531215521e-03,-1.092671795731640569e-02
-2.932218353876339906e-04,4.970324837359097782e-03,-1.795871467565734276e-03,3.869066132907204858e-02,-3.283680196407014109e-03,-3.838021800383470492e-03,-5.125029267890780435e-03,1.957530927656853451e-02,1.082536759471299046e-03,-8.451180005255867767e-03,-6.559424755309239963e-03,-1.293486909900814705e-02,-1.132340275356054880e-02
1.460260812463564338e-02,-4.730520498131939554e-03,-8.081014895608633342e-03,4.384679980051713055e-02,-3.203859001687246570e-03,3.881207309168185969e-04,9.744409174088310491e-03,1.385303480105590755e-03,-3.640190895716151169e-03,-9.647291947464614256e-03,1.187575747962754408e-03,-9.787861637999665382e-03,-1.389085056226671902e-02
-1.177165792783397939e-03,2.299179362275000776e-02,2.876245310589765208e-03,-3.413145453263399711e-03,8.285177238672699132e-03,-3.269437393729914595e-03,1.322281198723158175e-03,-1.236445796696800277e-02,-4.529966613618353032e-03,4.695012910620228672e-03,-1.488827091820366447e-02,-5.152770744103732717e-03,1.247916603654580445e-02
1.373144620821804829e-02,3.675396890717933917e-04,2.271252264442543550e-02,-1.212766064849272974e-04,-5.022775601785286689e-03,1.744841474786003278e-03,-2.425492312132813098e-03,-1.010112137362495846e-02,-3.420543132503861463e-03,-9.100960330075867849e-04,-1.862691272851685451e-04,-2.196865421327592275e-03,-5.889920016266635486e-03
-9.781865950174871774e-03,4.245714090920050393e-02,-6.672262243323008428e-03,-9.541202575727183305e-03,1.569936655463894520e-02,-4.584234318715737361e-03,-5.257109044287471521e-04,1.124412824618934229e-02,1.080349321468549242e-03,-1.181767440974160893e-02,-1.320025473690191777e-02,5.861502725238042569e-03,-1.216887152528391483e-02
-5.083026179668445957e-03,-5.379260214661921993e-04,-4.641881330102504187e-04,-1.047101912525154853e-02,2.166489914524803717e-03,-4.409397439912432666e-03,-9.310620995077815423e-04,1.921017567554933513e-03,-2.138541882811803140e-03,1.943163114140500358e-02,-9.991878656083487929e-04,2.230310092087235685e-02,-1.790738167318410221e-02
-5.864565515854257283e-03,-8.176051145330912387e-03,4.505331097935863635e-04,-1.309681017704756104e-02,3.751342599344466809e-03,-1.358645467583086738e-03,-8.408233265994952826e-03,-1.199982643786186125e-02,6.730649061038829380e-03,-5.409286519948317169e-03,-1.461209145610093850e-03,5.111060717781516077e-02,-4.260959285550708006e-03
7.480500243580919277e-04,-4.652616766340943871e-03,-5.915858246673249068e-03,-6.001476558966087338e-03,-1.654731150345030476e-03,-1.624656224892551777e-03,-2.943604758577649319e-03,1.019675708507023285e-02,-1.305867181538513874e-02,-1.017777761932140302e-03,-2.173429329455215005e-03,-1.426169928499639071e-03,3.918307502063039099e-02
7.038771341955666130e-03,1.967154405107137197e-02,-6.856817074489096608e-03,1.144048313641133491e-02,-1.132948737247618798e-02,-2.317567429992455682e-03,-4.105872220115663537e-03,1.826130521644833259e-03,-1.529931779905280547e-03,-1.118072094020319644e-02,2.998098863047235062e-03,4.956552237072418474e-03,-4.871625367952231271e-03
-2.852341151271631063e-03,-2.099731012073555343e-03,4.587086616797723948e-02,-1.757973493794042288e-02,2.846292439031809438e-03,4.403251976824391727e-03,-2.943498548394165703e-03,-1.618541800511842611e-03,3.659108489887136391e-03,2.049797472287818133e-03,-1.003514954790146914e-02,-2.941147599797835823e-03,-1.575929232641035127e-02
3.470119479231320667e-03,3.348036854564645590e-03,-1.177179478032750739e-03,-5.447098185350802459e-03,-2.183096526323082161e-03,9.503091822178080794e-03,-8.057941724729688476e-03,-2.619569402560330620e-02,1.890816452952918600e-02,-4.151228381246498643e-03,3.491803922792240111e-03,-1.784127940750251289e-03,2.394374254630647278e-02
-9.035902568328140361e-04,2.145676721270396367e-02,-1.392726237919742665e-03,1.986285775933203934e-03,1.088691145143155418e-04,-1.547644835856899466e-03,8.516907828603197551e-04,-4.627067185783106246e-03,3.205328250015072791e-03,6.562307679031363986e-03,-5.664617194403183051e-03,-2.664377112725657692e-03,-8.947425074150933827e-03
2.795239689336521602e-02,3.598458064117018244e-03,-4.336564001325662887e-03,-9.945644125896891882e-03,-6.458996940044407602e-03,5.873947887626729952e-04,7.807355031947291364e-03,1.054168525401168177e-03,-8.234603799952673608e-03,-1.517488453481641558e-03,1.492592970682076652e-03,-1.210490832821036573e-03,-1.584833383352669172e-03
-1.172893482426149965e-03,-2.791977398753267559e-03,-1.007276343176922821e-02,-1.004255368571953591e-02,8.860128410688516282e-03,2.532163545348881974e-03,3.635157218455484923e-02,-8.637658056333522363e-03,-1.933045377160821281e-04,-3.811567148588097202e-03,4.942921095209649052e-04,-3.867045952586307955e-03,-5.250528123679308948e-03
-4.452122149433274112e-03,-8.544864939971009987e-03,-2.807577365820083330e-03,2.184478780962077413e-02,-9.521092355824056080e-03,-9.394704300363109634e-03,-1.246790868362965266e-02,1.431309064482810811e-02,-7.772621304772649349e-03,-1.086517827429570385e-02,3.966911937018359480e-02,1.063331479303018454e-02,-1.443213366766748010e-02
-2.791082034437373594e-04,-6.267177484918314348e-03,3.613473008942720555e-02,2.659641349347318523e-02,-1.312326875897353029e-02,-9.606426132233917767e-03,-1.006118249608531010e-02,-8.480407547073815638e-03,-3.842069057778132145e-03,2.369754500564346929e-04,3.025061482442862465e-03,2.931744840614260075e-03,-4.358278461774879771e-03
-1.288325058846825520e-03,5.182958339549368493e-02,1.513680406575944836e-04,1.118054740581936757e-03,-3.366261612934515375e-03,1.909512156103618350e-04,-6.666968502742155744e-03,-2.417340871005644459e-02,3.140515941835261664e-03,9.307194964785312375e-04,-6.670582288705434112e-03,-4.921298081274793484e-03,-9.678034863254667691e-03
3.273406011665341148e-02,8.704533100414713412e-03,5.765558306855914647e-04,1.712447805811365088e-03,-3.926086607283151356e-03,-3.605610596868034142e-03,-1.842236597408544035e-02,-5.854747953358802916e-03,-3.625063375435045557e-04,-6.733089758604329789e-03,-4.005550527927217649e-03,9.429051294002905714e-04,-2.275376295271505124e-03
-8.972178202878107467e-03,-2.576339446880636201e-03,-5.421625241695870144e-03,-5.219135533836788757e-03,1.607349604644859459e-02,-3.814052958738654723e-04,9.272993910116799840e-03,-3.406365638772625680e-03,-7.144171126137523545e-03,-8.410035179471342034e-03,-2.864775038362274255e-03,-3.736940761458159340e-03,1.628385948524506063e-02
2.883369623671099783e-03,-5.311544682503420607e-03,3.272202016711200923e-02,-1.738188805177226515e-02,-1.089068235880007521e-02,1.439646515762033931e-03,1.422566290299531397e-02,-4.483037821506319180e-03,-4.711601503598781757e-03,-2.685736577269684944e-03,-5.113640037639683496e-04,-1.029227448044954616e-03,-7.084050908689626738e-03
3.732791737915266278e-02,4.189154596331057939e-03,-5.423341289387095376e-04,-1.043182238334845746e-02,-8.193455968879300236e-03,-1.213510913722125198e-03,-1.270026546669365472e-02,-2.296772236437804541e-03,-1.054111776666713518e-03,1.117578312933605825e-03,-4.981909997946393567e-04,1.769991369915715736e-03,-3.576389854450068989e-03
2.919458168061461224e-03,5.813804646090282510e-03,-6.957764053997920681e-03,4.735188107862058765e-02,6.850081910727330190e-04,1.665392297992943386e-03,-9.595607588489398626e-03,-1.020273394827446792e-02,5.083246494346297653e-04,-1.315517243291218497e-02,-3.010712080052970786e-03,-4.699178517801807543e-03,-2.389732374152386037e-03
-3.970120006299229960e-03,-7.098901558748750736e-03,7.555694029387436013e-03,-5.230193598542754591e-03,-4.784874716666491501e-03,-9.194461227937577794e-03,-7.612434945608518959e-04,2.591759064339790863e-02,-7.655025353559564635e-03,-3.841946908537180981e-03,-2.918210526904130211e-03,-8.183036313829158276e-03,2.132239376238228429e-02
-6.914508163866692550e-03,-2.200712457340836710e-03,-1.137402296503965682e-02,4.246101141208869639e-02,2.802475772823426366e-03,-2.759411070257713951e-03,7.880879980038998228e-03,-1.150645849683500782e-02,-7.552583909984751480e-03,2.248124428085582910e-02,-3.171100116234462640e-03,-7.991699071148718539e-03,-2.835601459927013018e-04
-5.197749886598093325e-03,-2.470203509975062639e-04,1.586486996221902297e-03,-2.809836526813415825e-03,9.885752482971970831e-03,-4.333690366084531030e-03,-2.603524153909338688e-03,-5.027342378822593702e-03,-1.794183818450270987e-02,2.461783509401246212e-02,3.021298307638661026e-03,-5.631022973236136063e-03,7.649401563652388498e-05
9.082992893267624601e-03,2.117687215017480251e-02,-2.055151256098674412e-02,-8.575236558002300585e-03,-1.567701718174974515e-02,1.784148826469748178e-02,3.247717449839275516e-02,-1.717283756579993451e-02,-8.233789017246875841e-05,3.494239229955956733e-02,-1.555133069341925467e-02,-1.147192125666273745e-02,1.296763857309804827e-02
-5.084497606699108592e-04,-1.116509325236452431e-02,9.135929571895374038e-03,-1.567611002272880152e-02,-7.049204127259367861e-03,8.809679944522483611e-03,-3.605203035678240710e-03,1.822169247045339916e-03,6.595579078859788343e-03,9.887692185825468303e-04,1.957594238797526892e-02,-1.117398642338466100e-02,-2.408301028394296307e-03
2.690969603054372476e-04,-1.688328112517743090e-02,-4.435849092322869357e-03,-1.022848721223607905e-02,-1.566050665928580415e-02,2.877098606250575157e-03,3.200724391519619520e-03,6.562154449324575367e-02,1.082027048991665748e-02,-6.509290282110775754e-03,-9.630781731185840758e-03,-4.168326590277115357e-03,-7.565577351073467585e-03
2.116008634339197061e-04,-5.692763696799786263e-03,-4.295107239516338452e-03,1.460060674699271109e-02,1.322261480107897588e-03,-4.994045638916701571e-03,-3.586536380614742392e-03,2.281009581948770010e-04,-1.175786364865793673e-02,2.391468927239797856e-03,1.395193625442949815e-02,-2.693588275896167147e-04,-6.714991150042334475e-03
1.532856210707803828e-04,-7.877424670280639210e-03,-5.207444011423717316e-03,-1.940454664237800317e-02,-7.950432560173206764e-03,2.590449274516094455e-02,-3.051288508485866784e-04,-8.254088100384110449e-03,-5.537023663707011517e-03,3.086331152304281830e-02,-2.039321673600713591e-02,-7.275184717305977281e-03,2.165764337303548170e-02
1.495222839104276558e-02,6.777396180109250198e-03,-1.902617989277947952e-02,-1.020462139265271295e-02,3.012836888021685339e-02,6.247439591896972004e-03,3.348512848957314273e-03,1.102688534469915653e-02,2.421122317443293731e-02,-9.979197551465091021e-03,4.047005488559814179e-02,-2.003217213379828582e-02,-3.451173023411743812e-02
-4.540149975785182958e-03,-4.591316003265445873e-03,2.169662062254313403e-03,-6.450793719632627599e-03,-8.002331967282245301e-03,-7.552559870742592101e-03,8.701289070423993965e-03,1.593701464581179618e-03,3.307772868556575676e-03,-2.239110244038454314e-04,2.520053467528239957e-02,-9.866365924491572043e-03,2.212567048713180544e-03
-1.108860615518698391e-02,-1.155241568572845309e-02,-3.114719691248255418e-03,1.032926022836479218e-02,-3.965340457351343786e-03,1.229239894376093177e-03,6.602587648738281016e-03,-1.717625343375907970e-02,1.376453349605990216e-02,2.404948486730679527e-02,1.634165319558246801e-02,-5.062821121171322443e-03,-1.449137665236720739e-02
-3.704988297012588774e-03,-7.782820096566554421e-03,3.456614119595881156e-03,3.481358184432623015e-02,2.811035717486076117e-03,-3.077110975231534939e-03,-9.561052754654162517e-03,-7.050038133758073852e-03,3.244284373586308647e-03,-3.537096950262102937e-03,-4.331845348377967933e-03,-1.149490304800893439e-02,1.571324334709420928e-02
-3.314399975819182827e-03,-1.046015041503071778e-02,-4.236755587247138972e-03,-4.777579540759070882e-03,3.074212356660753140e-02,2.909441865243546539e-03,-1.056714246390352829e-02,-3.125535131811532641e-03,7.726929390512280935e-03,-9.157425867031757441e-03,-5.501731250452479224e-03,3.336522223058548597e-04,9.978207694900868840e-03
-2.377164594388876846e-03,2.158215076109997431e-03,-1.192982434616770074e-02,4.468596068741735421e-03,9.174457809583558623e-03,4.196667269089169629e-03,1.334659698026365374e-02,-6.949173611074973070e-03,5.789522370872899953e-04,-8.179957763329772508e-03,8.226498027931676126e-04,-6.072989739683954703e-03,-1.516693221970218412e-03
-3.416367193646133865e-03,-2.499015341773083189e-03,2.185676395186482608e-03,-8.729733567929635549e-03,-2.529431530787831610e-03,-2.068893646837997695e-03,-6.039763854018798464e-03,-8.152912938371517648e-03,7.918553189816011700e-04,-5.127546615194039994e-03,1.941180987996500183e-03,4.437974944581718484e-02,-2.658822852874825372e-03
6.960572151117533357e-03,-4.020207783355899712e-03,-1.215333265045873135e-03,-8.325136898107494965e-03,-1.406412575106336972e-02,2.238759073932932581e-02,5.879600730126660103e-03,-4.153726200253922765e-03,-1.681464079689867080e-02,-7.250013987716170602e-03,3.671898083848433580e-02,-1.137033756603909873e-02,8.102323229655109199e-04
-3.012435390767685076e-03,6.989702253504911922e-02,-1.155610376781010182e-02,9.640045442596900183e-04,-7.568095804193287861e-03,-6.796293307798831687e-03,1.055147426939292282e-02,-1.484077998671485231e-02,-2.949756270386373440e-03,-1.163682285026220158e-03,-1.321245153278317874e-02,-7.561524686314537343e-03,1.040901106878957053e-02
-1.240384748570373848e-02,-8.858348665550946216e-03,-5.877555556113946145e-03,-1.068291614659179836e-02,-2.667433753769773465e-03,1.296451917331329284e-03,2.944834008122296926e-02,6.184573127083063324e-03,-6.978540910256224652e-03,2.330767159105343045e-02,-1.711578345867470138e-03,-4.868628750059415464e-03,-6.115717211563660369e-03
-7.638990902924723721e-03,2.929216792864414859e-03,1.256968041983042537e-02,-3.664154099415209333e-03,-3.521493788848014360e-03,1.230684817378656891e-02,-4.160682315972155307e-03,1.592777788775767700e-02,5.118797790146879800e-03,2.565604027706565315e-03,-9.408955349878438817e-03,-6.381412857096984033e-03,-1.138612315357194135e-02
-9.603564521826271627e-03,-1.241118534849695171e-02,-1.563465355151540809e-02,2.113701207836569951e-02,-9.369986537016344874e-03,-6.334531518348030313e-03,-9.787953239722329071e-03,2.446215279803461498e-02,-3.532415841750403962e-02,9.028121313831824479e-02,-1.097268223981468990e-02,-1.512389596142823568e-02,2.486905533603277901e-02
1.628625388522767295e-02,-1.548832337670916822e-03,1.335067153773360563e-02,8.401883075642635132e-03,-5.396762419863809779e-03,-5.806902972148309840e-03,1.815227122859713275e-03,-8.579002449744870321e-03,-9.363911958933986840e-03,1.180206076201605189e-03,9.861819883157953420e-04,-6.959969352393677484e-03,3.950734528283468311e-04
