-9.974441053845818160e+102,1.287179539492206710e+103,2.026458299897865303e+103,1.101145149168167806e+100,3.704930342328937550e+102,-4.851436837656840720e+102,-7.426187223316596307e+102
-1.504520290659846709e+99,1.941550132417225132e+99,3.056660131543777890e+99,1.660940408531874989e+96,5.588426304214841468e+98,-7.317788657736451512e+98,-1.120147915998850204e+99
-1.409644368260117948e+101,1.819114854646663078e+101,2.863905370279947706e+101,1.556200542749553458e+98,5.236016899258998980e+100,-6.856324659451308916e+100,-1.049510738544816040e+101
-1.504520290659846709e+99,1.941550132417225132e+99,3.056660131543777890e+99,1.660940408531874989e+96,5.588426304214841468e+98,-7.317788657736451512e+98,-1.120147915998850204e+99
-1.504520290659846709e+99,1.941550132417225132e+99,3.056660131543777890e+99,1.660940408531874989e+96,5.588426304214841468e+98,-7.317788657736451512e+98,-1.120147915998850204e+99
-1.504520290659846709e+99,1.941550132417225132e+99,3.056660131543777890e+99,1.660940408531874989e+96,5.588426304214841468e+98,-7.317788657736451512e+98,-1.120147915998850204e+99
-1.504520290659846709e+99,1.941550132417225132e+99,3.056660131543777890e+99,1.660940408531874989e+96,5.588426304214841468e+98,-7.317788657736451512e+98,-1.120147915998850204e+99
-1.504520290659846709e+99,1.941550132417225132e+99,3.056660131543777890e+99,1.660940408531874989e+96,5.588426304214841468e+98,-7.317788657736451512e+98,-1.120147915998850204e+99
-1.504520290659846709e+99,1.941550132417225132e+99,3.056660131543777890e+99,1.660940408531874989e+96,5.588426304214841468e+98,-7.317788657736451512e+98,-1.120147915998850204e+99
2.251610626163866506e+97,-2.905653673479810826e+97,-4.574486948087013976e+97,-2.485703314532985083e+94,-8.363436590533562289e+96,1.095153771210044488e+97,1.676372838702167322e+97
2.251610626163866506e+97,-2.905653673479810826e+97,-4.574486948087013976e+97,-2.485703314532985083e+94,-8.363436590533562289e+96,1.095153771210044488e+97,1.676372838702167322e+97
-2.035321235428629969e+98,2.626537002319136422e+98,4.135062394200466559e+98,2.246927014047638803e+95,7.560046082600769641e+97,-9.899534585165076839e+97,-1.515340706540868977e+98
2.809209697180187026e+99,-3.625222932125348745e+99,-5.707333650349680975e+99,-3.101274160975124586e+96,-1.043459597270830088e+99,1.366362619822994375e+99,2.091517414178605971e+99
-5.585922813176752706e+100,7.208509745547625185e+100,1.134864558950541188e+101,6.166673176123360390e+97,2.074848586374327372e+100,-2.716919330302186773e+100,-4.158840420401467104e+100
3.694645019412611298e+102,-4.767857616283225267e+102,-7.506229195547924729e+102,-4.078765335382773776e+99,-1.372347820059395787e+102,1.797026705805506335e+102,2.750743173450636930e+102
2.809209697180187026e+99,-3.625222932125348745e+99,-5.707333650349680975e+99,-3.101274160975124586e+96,-1.043459597270830088e+99,1.366362619822994375e+99,2.091517414178605971e+99
1.499493042560915750e+103,-1.935062580024107240e+103,-3.046446517988144928e+103,-1.655390493676567079e+100,-5.569752973128293474e+102,7.293336784706632650e+102,1.116405020993582682e+103
2.645965579984730811e+101,-3.414560012306497689e+101,-5.375678578737678338e+101,-2.921058079883716814e+98,-9.828238102889401274e+100,1.286962829958336922e+101,1.969978636130385647e+101
2.809209697180187026e+99,-3.625222932125348745e+99,-5.707333650349680975e+99,-3.101274160975124586e+96,-1.043459597270830088e+99,1.366362619822994375e+99,2.091517414178605971e+99
-2.810014484855890936e+99,3.626261492806803886e+99,5.708968698024314140e+99,3.102162619827533480e+96,1.043758529538087204e+99,-1.366754057955249343e+99,-2.092116596019726955e+99
-2.810014484855890936e+99,3.626261492806803886e+99,5.708968698024314140e+99,3.102162619827533480e+96,1.043758529538087204e+99,-1.366754057955249343e+99,-2.092116596019726955e+99
8.354010242745226419e+95,-1.078066530156131847e+96,-1.697243314432866839e+96,-9.222549720068848256e+92,-3.103033629793712903e+95,4.063280620442881296e+95,6.219741416409051119e+95
8.354010242745226419e+95,-1.078066530156131847e+96,-1.697243314432866839e+96,-9.222549720068848256e+92,-3.103033629793712903e+95,4.063280620442881296e+95,6.219741416409051119e+95
8.354010242745226419e+95,-1.078066530156131847e+96,-1.697243314432866839e+96,-9.222549720068848256e+92,-3.103033629793712903e+95,4.063280620442881296e+95,6.219741416409051119e+95
8.889512744165016221e+98,-1.147171942625568770e+99,-1.806038732918810410e+99,-9.813726687904805695e+95,-3.301941965126785525e+98,4.323741988452964438e+98,6.618434617624510554e+98
2.188033251156601501e+103,-2.823608478323183930e+103,-4.445319911484365240e+103,-2.415516005080583210e+100,-8.127283261761430494e+102,1.064230572858653243e+103,1.629038107119399761e+103
8.889512744165016221e+98,-1.147171942625568770e+99,-1.806038732918810410e+99,-9.813726687904805695e+95,-3.301941965126785525e+98,4.323741988452964438e+98,6.618434617624510554e+98
8.889512744165016221e+98,-1.147171942625568770e+99,-1.806038732918810410e+99,-9.813726687904805695e+95,-3.301941965126785525e+98,4.323741988452964438e+98,6.618434617624510554e+98
-6.128073896481961065e+102,7.908143717994623965e+102,1.245010737230755711e+103,6.765189957439679742e+99,2.276226486932418500e+102,-2.980614481030293404e+102,-4.562483634714329690e+102
-6.714535480394656959e+102,8.664959410658997210e+102,1.364159262734639136e+103,7.412624059072811974e+99,2.494063186264121049e+102,-3.265861676006459189e+102,-4.999116975661215560e+102
-1.528720387600671424e+102,1.972779821848243842e+102,3.105826282347934040e+102,1.687656511431202018e+99,5.678315725546154513e+101,-7.435494743861754635e+101,-1.138165411890074921e+102
-1.528720387600671424e+102,1.972779821848243842e+102,3.105826282347934040e+102,1.687656511431202018e+99,5.678315725546154513e+101,-7.435494743861754635e+101,-1.138165411890074921e+102
-7.151871938439838135e+98,9.229332429288266925e+98,1.453010767342202229e+99,7.895428976893514942e+95,2.656508490664786097e+98,-3.478576372655324952e+98,-5.324723433155238412e+98
-7.151871938439838135e+98,9.229332429288266925e+98,1.453010767342202229e+99,7.895428976893514942e+95,2.656508490664786097e+98,-3.478576372655324952e+98,-5.324723433155238412e+98
1.170924689191202602e+102,-1.511052392887779872e+102,-2.378910298990586774e+102,-1.292661949259805664e+99,-4.349310789594472894e+101,5.695223562501085226e+101,8.717787713011699702e+101
2.542566398006397399e+100,-3.281125656712671760e+100,-5.165607528749618482e+100,-2.806908818738570552e+97,-9.444169697837786633e+99,1.236670828860197583e+100,1.892995707466635448e+100
1.484096884001531224e+99,-1.915194178198439140e+99,-3.015166897274799425e+99,-1.638393646212173453e+96,-5.512565111979968684e+98,7.218451896029491807e+98,1.104942247755003713e+99
-3.466012613870662587e+98,4.472812557727563362e+98,7.041727943463017309e+98,3.826362756685433308e+95,1.287424050200018717e+98,-1.685822913177877926e+98,-2.580521399648398642e+98
1.574205585272306560e+100,-2.031477462624879786e+100,-3.198236329032886690e+100,-1.737870658273874193e+97,-5.847267036272060819e+99,7.656728758240094460e+99,1.172030125910196011e+100
-2.034951916438945613e+98,2.626060404337854699e+98,4.134312066911031653e+98,2.246519298154797166e+95,7.558674275274931445e+97,-9.897738266211735981e+97,-1.515065740560548282e+98
-4.840821824205898243e+100,6.246973412151886426e+100,9.834860430807275600e+100,5.344106442592629600e+97,1.798086485396946091e+100,-2.354512016834328279e+100,-3.604096609244003654e+100
1.077826978804147344e+99,-1.390911858358699759e+99,-2.189768243915148870e+99,-1.189885170452900671e+96,-4.003506418048917524e+98,5.242408553384248733e+98,8.024655111731965725e+98
3.380372155558313575e+99,-4.362295441934679749e+99,-6.867736421915677329e+99,-3.731818536379017519e+96,-1.255613552667494314e+99,1.644168521517489736e+99,2.516760225073803139e+99
-1.529812834066731805e+102,1.974189599831303284e+102,3.108045752287543775e+102,1.688862536029808125e+99,5.682373534938808290e+101,-7.440808259676828136e+101,-1.138978761925893403e+102
-2.034951916438945613e+98,2.626060404337854699e+98,4.134312066911031653e+98,2.246519298154797166e+95,7.558674275274931445e+97,-9.897738266211735981e+97,-1.515065740560548282e+98
-2.034951916438945613e+98,2.626060404337854699e+98,4.134312066911031653e+98,2.246519298154797166e+95,7.558674275274931445e+97,-9.897738266211735981e+97,-1.515065740560548282e+98
2.472446426666904216e+101,-3.190637385810393628e+101,-5.023148219859538627e+101,-2.729498700333403895e+98,-9.183714392105301046e+100,1.202565397771335904e+101,1.840789871325088561e+101
-2.034951916438945613e+98,2.626060404337854699e+98,4.134312066911031653e+98,2.246519298154797166e+95,7.558674275274931445e+97,-9.897738266211735981e+97,-1.515065740560548282e+98
2.054452929540782621e+98,-2.651226030089262613e+98,-4.173931319401776622e+98,-2.268047768637536866e+95,-7.631109306728952213e+97,9.992588627072204487e+97,1.529584666839906557e+98
2.054452929540782621e+98,-2.651226030089262613e+98,-4.173931319401776622e+98,-2.268047768637536866e+95,-7.631109306728952213e+97,9.992588627072204487e+97,1.529584666839906557e+98
2.054452929540782621e+98,-2.651226030089262613e+98,-4.173931319401776622e+98,-2.268047768637536866e+95,-7.631109306728952213e+97,9.992588627072204487e+97,1.529584666839906557e+98
2.054452929540782621e+98,-2.651226030089262613e+98,-4.173931319401776622e+98,-2.268047768637536866e+95,-7.631109306728952213e+97,9.992588627072204487e+97,1.529584666839906557e+98
2.054452929540782621e+98,-2.651226030089262613e+98,-4.173931319401776622e+98,-2.268047768637536866e+95,-7.631109306728952213e+97,9.992588627072204487e+97,1.529584666839906557e+98
2.054452929540782621e+98,-2.651226030089262613e+98,-4.173931319401776622e+98,-2.268047768637536866e+95,-7.631109306728952213e+97,9.992588627072204487e+97,1.529584666839906557e+98
2.054452929540782621e+98,-2.651226030089262613e+98,-4.173931319401776622e+98,-2.268047768637536866e+95,-7.631109306728952213e+97,9.992588627072204487e+97,1.529584666839906557e+98
5.296472202799734786e+100,-6.834980139869027824e+100,-1.076058297161774211e+101,-5.847129320161966238e+97,-1.967334356433776001e+100,2.576134363376761946e+100,3.943338176921464200e+100
2.054452929540782621e+98,-2.651226030089262613e+98,-4.173931319401776622e+98,-2.268047768637536866e+95,-7.631109306728952213e+97,9.992588627072204487e+97,1.529584666839906557e+98
2.054452929540782621e+98,-2.651226030089262613e+98,-4.173931319401776622e+98,-2.268047768637536866e+95,-7.631109306728952213e+97,9.992588627072204487e+97,1.529584666839906557e+98
2.054452929540782621e+98,-2.651226030089262613e+98,-4.173931319401776622e+98,-2.268047768637536866e+95,-7.631109306728952213e+97,9.992588627072204487e+97,1.529584666839906557e+98
2.054452929540782621e+98,-2.651226030089262613e+98,-4.173931319401776622e+98,-2.268047768637536866e+95,-7.631109306728952213e+97,9.992588627072204487e+97,1.529584666839906557e+98
2.054452929540782621e+98,-2.651226030089262613e+98,-4.173931319401776622e+98,-2.268047768637536866e+95,-7.631109306728952213e+97,9.992588627072204487e+97,1.529584666839906557e+98
1.281322170448042057e+99,-1.653517898792485381e+99,-2.603199450606251853e+99,-1.414537100268380566e+96,-4.759373845576410516e+98,6.232182380005422786e+98,9.539720852292514006e+98
1.281322170448042057e+99,-1.653517898792485381e+99,-2.603199450606251853e+99,-1.414537100268380566e+96,-4.759373845576410516e+98,6.232182380005422786e+98,9.539720852292514006e+98
1.281322170448042057e+99,-1.653517898792485381e+99,-2.603199450606251853e+99,-1.414537100268380566e+96,-4.759373845576410516e+98,6.232182380005422786e+98,9.539720852292514006e+98
8.885433513762727865e+102,-1.146645526971552414e+103,-1.805209975672028741e+103,-9.809223353085664683e+99,-3.300426765988365165e+102,4.321757904479116883e+102,6.615397542310629136e+102
-8.372572232664601681e+98,1.080461913868554357e+99,1.701014462944231092e+99,9.243041540160098212e+95,3.109928339912220039e+98,-4.072308928010545572e+98,-6.233561219607153886e+98
-1.539618806387737304e+102,1.986843990055562088e+102,3.127968065619386797e+102,1.699688003638332994e+99,5.718797074054441782e+101,-7.488503218311954108e+101,-1.146279520531746777e+102
1.281322170448042057e+99,-1.653517898792485381e+99,-2.603199450606251853e+99,-1.414537100268380566e+96,-4.759373845576410516e+98,6.232182380005422786e+98,9.539720852292514006e+98
1.281322170448042057e+99,-1.653517898792485381e+99,-2.603199450606251853e+99,-1.414537100268380566e+96,-4.759373845576410516e+98,6.232182380005422786e+98,9.539720852292514006e+98
1.281322170448042057e+99,-1.653517898792485381e+99,-2.603199450606251853e+99,-1.414537100268380566e+96,-4.759373845576410516e+98,6.232182380005422786e+98,9.539720852292514006e+98
-4.801218860954603053e+100,6.195866664690906720e+100,9.754401031480639592e+100,5.300386087094576755e+97,1.783376265605804053e+100,-2.335249656792245677e+100,-3.574611346048342485e+100
1.281322170448042057e+99,-1.653517898792485381e+99,-2.603199450606251853e+99,-1.414537100268380566e+96,-4.759373845576410516e+98,6.232182380005422786e+98,9.539720852292514006e+98
1.281322170448042057e+99,-1.653517898792485381e+99,-2.603199450606251853e+99,-1.414537100268380566e+96,-4.759373845576410516e+98,6.232182380005422786e+98,9.539720852292514006e+98
1.281322170448042057e+99,-1.653517898792485381e+99,-2.603199450606251853e+99,-1.414537100268380566e+96,-4.759373845576410516e+98,6.232182380005422786e+98,9.539720852292514006e+98
-4.116854295875980172e+99,5.312709341922469436e+99,8.364011088251827995e+99,4.544870347384645179e+96,1.529174247799808293e+99,-2.002383740448070489e+99,-3.065087116886857930e+99
-4.116854295875980172e+99,5.312709341922469436e+99,8.364011088251827995e+99,4.544870347384645179e+96,1.529174247799808293e+99,-2.002383740448070489e+99,-3.065087116886857930e+99
-4.116854295875980172e+99,5.312709341922469436e+99,8.364011088251827995e+99,4.544870347384645179e+96,1.529174247799808293e+99,-2.002383740448070489e+99,-3.065087116886857930e+99
-4.116854295875980172e+99,5.312709341922469436e+99,8.364011088251827995e+99,4.544870347384645179e+96,1.529174247799808293e+99,-2.002383740448070489e+99,-3.065087116886857930e+99
-4.116854295875980172e+99,5.312709341922469436e+99,8.364011088251827995e+99,4.544870347384645179e+96,1.529174247799808293e+99,-2.002383740448070489e+99,-3.065087116886857930e+99
-4.116854295875980172e+99,5.312709341922469436e+99,8.364011088251827995e+99,4.544870347384645179e+96,1.529174247799808293e+99,-2.002383740448070489e+99,-3.065087116886857930e+99
-4.116854295875980172e+99,5.312709341922469436e+99,8.364011088251827995e+99,4.544870347384645179e+96,1.529174247799808293e+99,-2.002383740448070489e+99,-3.065087116886857930e+99
-4.116854295875980172e+99,5.312709341922469436e+99,8.364011088251827995e+99,4.544870347384645179e+96,1.529174247799808293e+99,-2.002383740448070489e+99,-3.065087116886857930e+99
-4.116854295875980172e+99,5.312709341922469436e+99,8.364011088251827995e+99,4.544870347384645179e+96,1.529174247799808293e+99,-2.002383740448070489e+99,-3.065087116886857930e+99
-4.116854295875980172e+99,5.312709341922469436e+99,8.364011088251827995e+99,4.544870347384645179e+96,1.529174247799808293e+99,-2.002383740448070489e+99,-3.065087116886857930e+99
-4.116854295875980172e+99,5.312709341922469436e+99,8.364011088251827995e+99,4.544870347384645179e+96,1.529174247799808293e+99,-2.002383740448070489e+99,-3.065087116886857930e+99
-4.116854295875980172e+99,5.312709341922469436e+99,8.364011088251827995e+99,4.544870347384645179e+96,1.529174247799808293e+99,-2.002383740448070489e+99,-3.065087116886857930e+99
-4.116854295875980172e+99,5.312709341922469436e+99,8.364011088251827995e+99,4.544870347384645179e+96,1.529174247799808293e+99,-2.002383740448070489e+99,-3.065087116886857930e+99
-4.116854295875980172e+99,5.312709341922469436e+99,8.364011088251827995e+99,4.544870347384645179e+96,1.529174247799808293e+99,-2.002383740448070489e+99,-3.065087116886857930e+99
-4.116854295875980172e+99,5.312709341922469436e+99,8.364011088251827995e+99,4.544870347384645179e+96,1.529174247799808293e+99,-2.002383740448070489e+99,-3.065087116886857930e+99
-4.116854295875980172e+99,5.312709341922469436e+99,8.364011088251827995e+99,4.544870347384645179e+96,1.529174247799808293e+99,-2.002383740448070489e+99,-3.065087116886857930e+99
1.701948046152040893e+99,-2.196326280800464452e+99,-3.457764425596522211e+99,-1.878894090445286593e+96,-6.321756701168678280e+98,8.278051273556366397e+98,1.267137152533444569e+99
1.701948046152040893e+99,-2.196326280800464452e+99,-3.457764425596522211e+99,-1.878894090445286593e+96,-6.321756701168678280e+98,8.278051273556366397e+98,1.267137152533444569e+99
1.701948046152040893e+99,-2.196326280800464452e+99,-3.457764425596522211e+99,-1.878894090445286593e+96,-6.321756701168678280e+98,8.278051273556366397e+98,1.267137152533444569e+99
1.701948046152040893e+99,-2.196326280800464452e+99,-3.457764425596522211e+99,-1.878894090445286593e+96,-6.321756701168678280e+98,8.278051273556366397e+98,1.267137152533444569e+99
1.701948046152040893e+99,-2.196326280800464452e+99,-3.457764425596522211e+99,-1.878894090445286593e+96,-6.321756701168678280e+98,8.278051273556366397e+98,1.267137152533444569e+99
1.701948046152040893e+99,-2.196326280800464452e+99,-3.457764425596522211e+99,-1.878894090445286593e+96,-6.321756701168678280e+98,8.278051273556366397e+98,1.267137152533444569e+99
1.701948046152040893e+99,-2.196326280800464452e+99,-3.457764425596522211e+99,-1.878894090445286593e+96,-6.321756701168678280e+98,8.278051273556366397e+98,1.267137152533444569e+99
-1.540069236796516986e+100,1.987425260527776779e+100,3.128883183003381099e+100,1.700185263842678903e+97,5.720470163583559772e+99,-7.490694052531282631e+99,-1.146614875718932356e+100
1.701948046152040893e+99,-2.196326280800464452e+99,-3.457764425596522211e+99,-1.878894090445286593e+96,-6.321756701168678280e+98,8.278051273556366397e+98,1.267137152533444569e+99
1.701948046152040893e+99,-2.196326280800464452e+99,-3.457764425596522211e+99,-1.878894090445286593e+96,-6.321756701168678280e+98,8.278051273556366397e+98,1.267137152533444569e+99
1.701948046152040893e+99,-2.196326280800464452e+99,-3.457764425596522211e+99,-1.878894090445286593e+96,-6.321756701168678280e+98,8.278051273556366397e+98,1.267137152533444569e+99
2.361709538008141974e+102,-3.047733882166328449e+102,-4.798169510861216103e+102,-2.607248854830971108e+99,-8.772390633117548343e+101,1.148704432728139331e+102,1.758343861241100684e+102
1.701948046152040893e+99,-2.196326280800464452e+99,-3.457764425596522211e+99,-1.878894090445286593e+96,-6.321756701168678280e+98,8.278051273556366397e+98,1.267137152533444569e+99
1.701948046152040893e+99,-2.196326280800464452e+99,-3.457764425596522211e+99,-1.878894090445286593e+96,-6.321756701168678280e+98,8.278051273556366397e+98,1.267137152533444569e+99
1.701948046152040893e+99,-2.196326280800464452e+99,-3.457764425596522211e+99,-1.878894090445286593e+96,-6.321756701168678280e+98,8.278051273556366397e+98,1.267137152533444569e+99
1.701948046152040893e+99,-2.196326280800464452e+99,-3.457764425596522211e+99,-1.878894090445286593e+96,-6.321756701168678280e+98,8.278051273556366397e+98,1.267137152533444569e+99
1.701948046152040893e+99,-2.196326280800464452e+99,-3.457764425596522211e+99,-1.878894090445286593e+96,-6.321756701168678280e+98,8.278051273556366397e+98,1.267137152533444569e+99
1.701948046152040893e+99,-2.196326280800464452e+99,-3.457764425596522211e+99,-1.878894090445286593e+96,-6.321756701168678280e+98,8.278051273556366397e+98,1.267137152533444569e+99
1.701948046152040893e+99,-2.196326280800464452e+99,-3.457764425596522211e+99,-1.878894090445286593e+96,-6.321756701168678280e+98,8.278051273556366397e+98,1.267137152533444569e+99
1.701948046152040893e+99,-2.196326280800464452e+99,-3.457764425596522211e+99,-1.878894090445286593e+96,-6.321756701168678280e+98,8.278051273556366397e+98,1.267137152533444569e+99
1.701948046152040893e+99,-2.196326280800464452e+99,-3.457764425596522211e+99,-1.878894090445286593e+96,-6.321756701168678280e+98,8.278051273556366397e+98,1.267137152533444569e+99
1.701948046152040893e+99,-2.196326280800464452e+99,-3.457764425596522211e+99,-1.878894090445286593e+96,-6.321756701168678280e+98,8.278051273556366397e+98,1.267137152533444569e+99
1.126519888260565532e+99,-1.453748980190679113e+99,-2.288695241409490901e+99,-1.243640524519724859e+96,-4.184372530473118793e+98,5.479244455661149456e+98,8.387184360357795344e+98
1.126519888260565532e+99,-1.453748980190679113e+99,-2.288695241409490901e+99,-1.243640524519724859e+96,-4.184372530473118793e+98,5.479244455661149456e+98,8.387184360357795344e+98
1.126519888260565532e+99,-1.453748980190679113e+99,-2.288695241409490901e+99,-1.243640524519724859e+96,-4.184372530473118793e+98,5.479244455661149456e+98,8.387184360357795344e+98
1.126519888260565532e+99,-1.453748980190679113e+99,-2.288695241409490901e+99,-1.243640524519724859e+96,-4.184372530473118793e+98,5.479244455661149456e+98,8.387184360357795344e+98
1.126519888260565532e+99,-1.453748980190679113e+99,-2.288695241409490901e+99,-1.243640524519724859e+96,-4.184372530473118793e+98,5.479244455661149456e+98,8.387184360357795344e+98
1.126519888260565532e+99,-1.453748980190679113e+99,-2.288695241409490901e+99,-1.243640524519724859e+96,-4.184372530473118793e+98,5.479244455661149456e+98,8.387184360357795344e+98
1.126519888260565532e+99,-1.453748980190679113e+99,-2.288695241409490901e+99,-1.243640524519724859e+96,-4.184372530473118793e+98,5.479244455661149456e+98,8.387184360357795344e+98
1.651575592308163075e+99,-2.131321744113283497e+99,-3.355425180091850447e+99,-1.823284575182767754e+96,-6.134652048731231628e+98,8.033046288452817402e+98,1.229633770527072599e+99
1.651575592308163075e+99,-2.131321744113283497e+99,-3.355425180091850447e+99,-1.823284575182767754e+96,-6.134652048731231628e+98,8.033046288452817402e+98,1.229633770527072599e+99
1.651575592308163075e+99,-2.131321744113283497e+99,-3.355425180091850447e+99,-1.823284575182767754e+96,-6.134652048731231628e+98,8.033046288452817402e+98,1.229633770527072599e+99
1.651575592308163075e+99,-2.131321744113283497e+99,-3.355425180091850447e+99,-1.823284575182767754e+96,-6.134652048731231628e+98,8.033046288452817402e+98,1.229633770527072599e+99
1.651575592308163075e+99,-2.131321744113283497e+99,-3.355425180091850447e+99,-1.823284575182767754e+96,-6.134652048731231628e+98,8.033046288452817402e+98,1.229633770527072599e+99
1.651575592308163075e+99,-2.131321744113283497e+99,-3.355425180091850447e+99,-1.823284575182767754e+96,-6.134652048731231628e+98,8.033046288452817402e+98,1.229633770527072599e+99
-5.652896832590793344e+99,7.294938235126137984e+99,1.148471342206506823e+100,6.240610268136732936e+96,2.099725577008215810e+99,-2.749494611783853131e+99,-4.208704027252404928e+99
-5.020072380638937803e+99,6.478292287503074668e+99,1.019903500047399600e+100,5.541993100738531815e+96,1.864667742614561611e+99,-2.441697128055623611e+99,-3.737552527702939670e+99
-1.436205033436729271e+99,1.853390805134609540e+99,2.917867371867214226e+99,1.585522634544034401e+96,5.334674471943179377e+98,-6.985512238760162274e+98,-1.069285728573081702e+99
-5.020072380638937803e+99,6.478292287503074668e+99,1.019903500047399600e+100,5.541993100738531815e+96,1.864667742614561611e+99,-2.441697128055623611e+99,-3.737552527702939670e+99
-5.020072380638937803e+99,6.478292287503074668e+99,1.019903500047399600e+100,5.541993100738531815e+96,1.864667742614561611e+99,-2.441697128055623611e+99,-3.737552527702939670e+99
-2.307774935401831424e+103,2.978132471349709974e+103,4.688593222312083691e+103,2.547706845698187199e+100,8.572054649758827014e+102,-1.122471351947361974e+103,-1.718188382391964889e+103
-7.515151998262162918e+99,9.698137305255067305e+99,1.526816596504978641e+100,8.296478091829696270e+96,2.791446108635838712e+99,-3.655271011993397334e+99,-5.595193299504101523e+99
-5.020072380638937803e+99,6.478292287503074668e+99,1.019903500047399600e+100,5.541993100738531815e+96,1.864667742614561611e+99,-2.441697128055623611e+99,-3.737552527702939670e+99
3.447372626299281976e+101,-4.448758066365036674e+101,-7.003857994339764291e+101,-3.805784829778474120e+98,-1.280500368445797450e+101,1.676756668576393112e+101,2.566643525510053193e+101
5.648908039422144808e+99,-7.289790785834259679e+99,-1.147660958649217452e+100,-6.236206773018579766e+96,-2.098243970093100039e+99,2.747554515290052257e+99,4.205734284416132976e+99
5.648908039422144808e+99,-7.289790785834259679e+99,-1.147660958649217452e+100,-6.236206773018579766e+96,-2.098243970093100039e+99,2.747554515290052257e+99,4.205734284416132976e+99
-2.717963449049304946e+99,3.507471668655556217e+99,5.521953120392006994e+99,3.000541334978436340e+96,1.009566871703671485e+99,-1.321981645782407071e+99,-2.023582607768191075e+99
5.648908039422144808e+99,-7.289790785834259679e+99,-1.147660958649217452e+100,-6.236206773018579766e+96,-2.098243970093100039e+99,2.747554515290052257e+99,4.205734284416132976e+99
5.648908039422144808e+99,-7.289790785834259679e+99,-1.147660958649217452e+100,-6.236206773018579766e+96,-2.098243970093100039e+99,2.747554515290052257e+99,4.205734284416132976e+99
5.648908039422144808e+99,-7.289790785834259679e+99,-1.147660958649217452e+100,-6.236206773018579766e+96,-2.098243970093100039e+99,2.747554515290052257e+99,4.205734284416132976e+99
2.270945974874481217e+99,-2.930605513001233831e+99,-4.613769628353933000e+99,-2.507048897032550910e+96,-8.435256274193182442e+98,1.104558230316743632e+99,1.690768424256992608e+99
5.648908039422144808e+99,-7.289790785834259679e+99,-1.147660958649217452e+100,-6.236206773018579766e+96,-2.098243970093100039e+99,2.747554515290052257e+99,4.205734284416132976e+99
5.648908039422144808e+99,-7.289790785834259679e+99,-1.147660958649217452e+100,-6.236206773018579766e+96,-2.098243970093100039e+99,2.747554515290052257e+99,4.205734284416132976e+99
5.648908039422144808e+99,-7.289790785834259679e+99,-1.147660958649217452e+100,-6.236206773018579766e+96,-2.098243970093100039e+99,2.747554515290052257e+99,4.205734284416132976e+99
3.583867347202208046e+99,-4.624901482368465128e+99,-7.281167628606780798e+99,-3.956470466194497414e+96,-1.331200295420243674e+99,1.743145904179607141e+99,2.668266799129857967e+99
3.583867347202208046e+99,-4.624901482368465128e+99,-7.281167628606780798e+99,-3.956470466194497414e+96,-1.331200295420243674e+99,1.743145904179607141e+99,2.668266799129857967e+99
3.583867347202208046e+99,-4.624901482368465128e+99,-7.281167628606780798e+99,-3.956470466194497414e+96,-1.331200295420243674e+99,1.743145904179607141e+99,2.668266799129857967e+99
4.523982564916016394e+101,-5.838099361301238639e+101,-9.191153637358421228e+101,-4.994326428304253874e+98,-1.680398949920269672e+101,2.200405571587247173e+101,3.368202923925531711e+101
3.583867347202208046e+99,-4.624901482368465128e+99,-7.281167628606780798e+99,-3.956470466194497414e+96,-1.331200295420243674e+99,1.743145904179607141e+99,2.668266799129857967e+99
3.583867347202208046e+99,-4.624901482368465128e+99,-7.281167628606780798e+99,-3.956470466194497414e+96,-1.331200295420243674e+99,1.743145904179607141e+99,2.668266799129857967e+99
-3.591582765985969410e+99,4.634858059527485628e+99,7.296842666784000815e+99,3.964988032163034787e+96,1.334066129104701207e+99,-1.746898582320010679e+99,-2.674011095385178406e+99
-3.591582765985969410e+99,4.634858059527485628e+99,7.296842666784000815e+99,3.964988032163034787e+96,1.334066129104701207e+99,-1.746898582320010679e+99,-2.674011095385178406e+99
-3.377962064547663105e+99,4.359185272833025362e+99,6.862839958138241518e+99,3.729157875986028856e+96,1.254718342673781795e+99,-1.642996284973308382e+99,-2.514965860159140368e+99
-3.377962064547663105e+99,4.359185272833025362e+99,6.862839958138241518e+99,3.729157875986028856e+96,1.254718342673781795e+99,-1.642996284973308382e+99,-2.514965860159140368e+99
-3.377962064547663105e+99,4.359185272833025362e+99,6.862839958138241518e+99,3.729157875986028856e+96,1.254718342673781795e+99,-1.642996284973308382e+99,-2.514965860159140368e+99
2.310493988667354761e+98,-2.981641349402386574e+98,-4.694117389559187954e+98,-2.550708590154329493e+95,-8.582154366516316711e+97,1.123793863665542465e+98,1.720212776391672862e+98
-3.377962064547663105e+99,4.359185272833025362e+99,6.862839958138241518e+99,3.729157875986028856e+96,1.254718342673781795e+99,-1.642996284973308382e+99,-2.514965860159140368e+99
-3.377962064547663105e+99,4.359185272833025362e+99,6.862839958138241518e+99,3.729157875986028856e+96,1.254718342673781795e+99,-1.642996284973308382e+99,-2.514965860159140368e+99
-3.377962064547663105e+99,4.359185272833025362e+99,6.862839958138241518e+99,3.729157875986028856e+96,1.254718342673781795e+99,-1.642996284973308382e+99,-2.514965860159140368e+99
-3.377962064547663105e+99,4.359185272833025362e+99,6.862839958138241518e+99,3.729157875986028856e+96,1.254718342673781795e+99,-1.642996284973308382e+99,-2.514965860159140368e+99
-3.377962064547663105e+99,4.359185272833025362e+99,6.862839958138241518e+99,3.729157875986028856e+96,1.254718342673781795e+99,-1.642996284973308382e+99,-2.514965860159140368e+99
5.993937129398634124e+99,-7.735043189201864625e+99,-1.217758827724245137e+100,-6.617107423690150404e+96,-2.226402403988212922e+99,2.915372123127813061e+99,4.462615908742143400e+99
-4.481155201725052401e+101,5.782831597090441640e+101,9.104143382716051673e+101,4.947046442413552366e+98,1.664491051270963071e+101,-2.179574905856432550e+101,-3.336317025194944808e+101
5.993937129398634124e+99,-7.735043189201864625e+99,-1.217758827724245137e+100,-6.617107423690150404e+96,-2.226402403988212922e+99,2.915372123127813061e+99,4.462615908742143400e+99
5.993937129398634124e+99,-7.735043189201864625e+99,-1.217758827724245137e+100,-6.617107423690150404e+96,-2.226402403988212922e+99,2.915372123127813061e+99,4.462615908742143400e+99
5.993937129398634124e+99,-7.735043189201864625e+99,-1.217758827724245137e+100,-6.617107423690150404e+96,-2.226402403988212922e+99,2.915372123127813061e+99,4.462615908742143400e+99
-7.891921841710792205e+101,1.018435044839437321e+102,1.603363078887893890e+102,8.712419479649389938e+98,2.931394404237719476e+101,-3.838526904524850689e+101,-5.875706601697622969e+101
-2.908922807853923051e+101,3.753900494291953343e+101,5.909915889938437454e+101,3.211354121881310638e+98,1.080497274597186916e+101,-1.414861764357350676e+101,-2.165755982985123543e+101
5.993937129398634124e+99,-7.735043189201864625e+99,-1.217758827724245137e+100,-6.617107423690150404e+96,-2.226402403988212922e+99,2.915372123127813061e+99,4.462615908742143400e+99
-2.495079617623225601e+99,3.219845017751992152e+99,5.069130964575791387e+99,2.754484991091164929e+96,9.267783660212773433e+98,-1.213573883937773722e+99,-1.857640771801162097e+99
-2.495079617623225601e+99,3.219845017751992152e+99,5.069130964575791387e+99,2.754484991091164929e+96,9.267783660212773433e+98,-1.213573883937773722e+99,-1.857640771801162097e+99
-2.495079617623225601e+99,3.219845017751992152e+99,5.069130964575791387e+99,2.754484991091164929e+96,9.267783660212773433e+98,-1.213573883937773722e+99,-1.857640771801162097e+99
-2.495079617623225601e+99,3.219845017751992152e+99,5.069130964575791387e+99,2.754484991091164929e+96,9.267783660212773433e+98,-1.213573883937773722e+99,-1.857640771801162097e+99
1.130692701299359493e+99,-1.459133903051666400e+99,-2.297172941132964493e+99,-1.248247171459878795e+96,-4.199872127449837918e+98,5.499540469025501032e+98,8.418251856477852499e+98
-1.528478646173788754e+102,1.972467859887817815e+102,3.105335148139719758e+102,1.687389636928532642e+99,5.677417795383830817e+101,-7.434318945381181659e+101,-1.137985430166189612e+102
1.130692701299359493e+99,-1.459133903051666400e+99,-2.297172941132964493e+99,-1.248247171459878795e+96,-4.199872127449837918e+98,5.499540469025501032e+98,8.418251856477852499e+98
1.130692701299359493e+99,-1.459133903051666400e+99,-2.297172941132964493e+99,-1.248247171459878795e+96,-4.199872127449837918e+98,5.499540469025501032e+98,8.418251856477852499e+98
1.130692701299359493e+99,-1.459133903051666400e+99,-2.297172941132964493e+99,-1.248247171459878795e+96,-4.199872127449837918e+98,5.499540469025501032e+98,8.418251856477852499e+98
1.130692701299359493e+99,-1.459133903051666400e+99,-2.297172941132964493e+99,-1.248247171459878795e+96,-4.199872127449837918e+98,5.499540469025501032e+98,8.418251856477852499e+98
3.609011463414398581e+99,-4.657349407773264020e+99,-7.332251697094160314e+99,-3.984228735001461805e+96,-1.340539886338944962e+99,1.755375671339862629e+99,2.686987137798307654e+99
-4.104715159337035657e+99,5.297044054919703046e+99,8.339348599536789698e+99,4.531469144006121146e+96,1.524665257767176885e+99,-1.996479424219777271e+99,-3.056049267028309213e+99
3.609011463414398581e+99,-4.657349407773264020e+99,-7.332251697094160314e+99,-3.984228735001461805e+96,-1.340539886338944962e+99,1.755375671339862629e+99,2.686987137798307654e+99
3.609011463414398581e+99,-4.657349407773264020e+99,-7.332251697094160314e+99,-3.984228735001461805e+96,-1.340539886338944962e+99,1.755375671339862629e+99,2.686987137798307654e+99
3.609011463414398581e+99,-4.657349407773264020e+99,-7.332251697094160314e+99,-3.984228735001461805e+96,-1.340539886338944962e+99,1.755375671339862629e+99,2.686987137798307654e+99
3.609011463414398581e+99,-4.657349407773264020e+99,-7.332251697094160314e+99,-3.984228735001461805e+96,-1.340539886338944962e+99,1.755375671339862629e+99,2.686987137798307654e+99
3.609011463414398581e+99,-4.657349407773264020e+99,-7.332251697094160314e+99,-3.984228735001461805e+96,-1.340539886338944962e+99,1.755375671339862629e+99,2.686987137798307654e+99
3.609011463414398581e+99,-4.657349407773264020e+99,-7.332251697094160314e+99,-3.984228735001461805e+96,-1.340539886338944962e+99,1.755375671339862629e+99,2.686987137798307654e+99
3.609011463414398581e+99,-4.657349407773264020e+99,-7.332251697094160314e+99,-3.984228735001461805e+96,-1.340539886338944962e+99,1.755375671339862629e+99,2.686987137798307654e+99
3.609011463414398581e+99,-4.657349407773264020e+99,-7.332251697094160314e+99,-3.984228735001461805e+96,-1.340539886338944962e+99,1.755375671339862629e+99,2.686987137798307654e+99
3.609011463414398581e+99,-4.657349407773264020e+99,-7.332251697094160314e+99,-3.984228735001461805e+96,-1.340539886338944962e+99,1.755375671339862629e+99,2.686987137798307654e+99
-2.645697871603711336e+99,3.414214540566473469e+99,5.375134688741579716e+99,2.920762538726619545e+96,9.827243720449189909e+98,-1.286832620125582022e+99,-1.969779321447188391e+99
-2.645697871603711336e+99,3.414214540566473469e+99,5.375134688741579716e+99,2.920762538726619545e+96,9.827243720449189909e+98,-1.286832620125582022e+99,-1.969779321447188391e+99
-1.160037326247285690e+102,1.497002492001321216e+102,2.356790977333767086e+102,1.280642662336149767e+99,4.308870507175530775e+101,-5.642268862216707297e+101,-8.636728939739837207e+101
-2.645697871603711336e+99,3.414214540566473469e+99,5.375134688741579716e+99,2.920762538726619545e+96,9.827243720449189909e+98,-1.286832620125582022e+99,-1.969779321447188391e+99
6.133871218961255143e+102,-7.915625034329946030e+102,-1.246188550823710996e+103,-6.771590008822787170e+99,-2.278379858318530074e+102,2.983434222375596177e+102,4.566799866761091849e+102
-2.645697871603711336e+99,3.414214540566473469e+99,5.375134688741579716e+99,2.920762538726619545e+96,9.827243720449189909e+98,-1.286832620125582022e+99,-1.969779321447188391e+99
-2.645697871603711336e+99,3.414214540566473469e+99,5.375134688741579716e+99,2.920762538726619545e+96,9.827243720449189909e+98,-1.286832620125582022e+99,-1.969779321447188391e+99
2.823378697253945792e+99,-3.643507713088535497e+99,-5.736120113316114453e+99,-3.116916266247534488e+96,-1.048722564690289498e+99,1.373254234956066133e+99,2.102066541367483246e+99
2.823378697253945792e+99,-3.643507713088535497e+99,-5.736120113316114453e+99,-3.116916266247534488e+96,-1.048722564690289498e+99,1.373254234956066133e+99,2.102066541367483246e+99
2.823378697253945792e+99,-3.643507713088535497e+99,-5.736120113316114453e+99,-3.116916266247534488e+96,-1.048722564690289498e+99,1.373254234956066133e+99,2.102066541367483246e+99
2.823378697253945792e+99,-3.643507713088535497e+99,-5.736120113316114453e+99,-3.116916266247534488e+96,-1.048722564690289498e+99,1.373254234956066133e+99,2.102066541367483246e+99
2.823378697253945792e+99,-3.643507713088535497e+99,-5.736120113316114453e+99,-3.116916266247534488e+96,-1.048722564690289498e+99,1.373254234956066133e+99,2.102066541367483246e+99
2.823378697253945792e+99,-3.643507713088535497e+99,-5.736120113316114453e+99,-3.116916266247534488e+96,-1.048722564690289498e+99,1.373254234956066133e+99,2.102066541367483246e+99
2.823378697253945792e+99,-3.643507713088535497e+99,-5.736120113316114453e+99,-3.116916266247534488e+96,-1.048722564690289498e+99,1.373254234956066133e+99,2.102066541367483246e+99
2.823378697253945792e+99,-3.643507713088535497e+99,-5.736120113316114453e+99,-3.116916266247534488e+96,-1.048722564690289498e+99,1.373254234956066133e+99,2.102066541367483246e+99
7.191888658077150680e+98,-9.280973120206749219e+98,-1.461140768131816012e+99,-7.939606105693332114e+95,-2.671372397121726348e+98,3.498039978357385140e+98,5.354516746934430231e+98
7.191888658077150680e+98,-9.280973120206749219e+98,-1.461140768131816012e+99,-7.939606105693332114e+95,-2.671372397121726348e+98,3.498039978357385140e+98,5.354516746934430231e+98
7.191888658077150680e+98,-9.280973120206749219e+98,-1.461140768131816012e+99,-7.939606105693332114e+95,-2.671372397121726348e+98,3.498039978357385140e+98,5.354516746934430231e+98
7.191888658077150680e+98,-9.280973120206749219e+98,-1.461140768131816012e+99,-7.939606105693332114e+95,-2.671372397121726348e+98,3.498039978357385140e+98,5.354516746934430231e+98
7.191888658077150680e+98,-9.280973120206749219e+98,-1.461140768131816012e+99,-7.939606105693332114e+95,-2.671372397121726348e+98,3.498039978357385140e+98,5.354516746934430231e+98
-7.713726622751433753e+99,9.954393462692966095e+99,1.567160029663095001e+100,8.515697879007582951e+96,2.865205144106121847e+99,-3.751855095559639657e+99,-5.743036404826616867e+99
-7.713726622751433753e+99,9.954393462692966095e+99,1.567160029663095001e+100,8.515697879007582951e+96,2.865205144106121847e+99,-3.751855095559639657e+99,-5.743036404826616867e+99
-7.713726622751433753e+99,9.954393462692966095e+99,1.567160029663095001e+100,8.515697879007582951e+96,2.865205144106121847e+99,-3.751855095559639657e+99,-5.743036404826616867e+99
-7.713726622751433753e+99,9.954393462692966095e+99,1.567160029663095001e+100,8.515697879007582951e+96,2.865205144106121847e+99,-3.751855095559639657e+99,-5.743036404826616867e+99
1.219832789135606428e+102,-1.574167213281252493e+102,-2.478274488451968671e+102,-1.346654866474999495e+99,-4.530976210735854383e+101,5.933106122986614956e+101,9.081919101390383459e+101
-7.713726622751433753e+99,9.954393462692966095e+99,1.567160029663095001e+100,8.515697879007582951e+96,2.865205144106121847e+99,-3.751855095559639657e+99,-5.743036404826616867e+99
-7.890344535691682688e+101,1.018231496989050846e+102,1.603042625355044407e+102,8.710678186215181596e+98,2.930808525901501139e+101,-3.837759723638817763e+101,-5.874532263231623929e+101
6.151667731309661625e+99,-7.938591039588279937e+99,-1.249804181009204733e+100,-6.791236767111070948e+96,-2.284990237610090289e+99,2.992090211731077586e+99,4.580049755342100801e+99
6.151667731309661625e+99,-7.938591039588279937e+99,-1.249804181009204733e+100,-6.791236767111070948e+96,-2.284990237610090289e+99,2.992090211731077586e+99,4.580049755342100801e+99
6.151667731309661625e+99,-7.938591039588279937e+99,-1.249804181009204733e+100,-6.791236767111070948e+96,-2.284990237610090289e+99,2.992090211731077586e+99,4.580049755342100801e+99
6.151667731309661625e+99,-7.938591039588279937e+99,-1.249804181009204733e+100,-6.791236767111070948e+96,-2.284990237610090289e+99,2.992090211731077586e+99,4.580049755342100801e+99
6.151667731309661625e+99,-7.938591039588279937e+99,-1.249804181009204733e+100,-6.791236767111070948e+96,-2.284990237610090289e+99,2.992090211731077586e+99,4.580049755342100801e+99
2.479650645659514115e+99,-3.199934270954438704e+99,-5.037784678477175768e+99,-2.737451918718746615e+96,-9.210473916167338261e+98,1.206069435062114392e+99,1.846153568272926852e+99
6.151667731309661625e+99,-7.938591039588279937e+99,-1.249804181009204733e+100,-6.791236767111070948e+96,-2.284990237610090289e+99,2.992090211731077586e+99,4.580049755342100801e+99
6.151667731309661625e+99,-7.938591039588279937e+99,-1.249804181009204733e+100,-6.791236767111070948e+96,-2.284990237610090289e+99,2.992090211731077586e+99,4.580049755342100801e+99
6.151667731309661625e+99,-7.938591039588279937e+99,-1.249804181009204733e+100,-6.791236767111070948e+96,-2.284990237610090289e+99,2.992090211731077586e+99,4.580049755342100801e+99
6.151667731309661625e+99,-7.938591039588279937e+99,-1.249804181009204733e+100,-6.791236767111070948e+96,-2.284990237610090289e+99,2.992090211731077586e+99,4.580049755342100801e+99
-3.672017085650147996e+99,4.738656768633841233e+99,7.460257131614871560e+99,4.053784848392324808e+96,1.363942845993356706e+99,-1.786020776668963194e+99,-2.733896187069173948e+99
-3.672017085650147996e+99,4.738656768633841233e+99,7.460257131614871560e+99,4.053784848392324808e+96,1.363942845993356706e+99,-1.786020776668963194e+99,-2.733896187069173948e+99
-3.672017085650147996e+99,4.738656768633841233e+99,7.460257131614871560e+99,4.053784848392324808e+96,1.363942845993356706e+99,-1.786020776668963194e+99,-2.733896187069173948e+99
-3.672017085650147996e+99,4.738656768633841233e+99,7.460257131614871560e+99,4.053784848392324808e+96,1.363942845993356706e+99,-1.786020776668963194e+99,-2.733896187069173948e+99
-3.672017085650147996e+99,4.738656768633841233e+99,7.460257131614871560e+99,4.053784848392324808e+96,1.363942845993356706e+99,-1.786020776668963194e+99,-2.733896187069173948e+99
-3.672017085650147996e+99,4.738656768633841233e+99,7.460257131614871560e+99,4.053784848392324808e+96,1.363942845993356706e+99,-1.786020776668963194e+99,-2.733896187069173948e+99
9.683608127340908388e+99,-1.249648194087792362e+100,-1.967371199716731403e+100,-1.069038160464696359e+97,-3.596902661565724843e+99,4.709979530361881373e+99,7.209655815564396319e+99
1.237230123885698873e+102,-1.596618088684823330e+102,-2.513619800745766562e+102,-1.365860945958654107e+99,-4.595597288792572880e+101,6.017724469245830933e+101,9.211446023594293951e+101
9.683608127340908388e+99,-1.249648194087792362e+100,-1.967371199716731403e+100,-1.069038160464696359e+97,-3.596902661565724843e+99,4.709979530361881373e+99,7.209655815564396319e+99
9.683608127340908388e+99,-1.249648194087792362e+100,-1.967371199716731403e+100,-1.069038160464696359e+97,-3.596902661565724843e+99,4.709979530361881373e+99,7.209655815564396319e+99
9.683608127340908388e+99,-1.249648194087792362e+100,-1.967371199716731403e+100,-1.069038160464696359e+97,-3.596902661565724843e+99,4.709979530361881373e+99,7.209655815564396319e+99
9.683608127340908388e+99,-1.249648194087792362e+100,-1.967371199716731403e+100,-1.069038160464696359e+97,-3.596902661565724843e+99,4.709979530361881373e+99,7.209655815564396319e+99
-1.239705425930525128e+100,1.599812411182662638e+100,2.518648750585078602e+100,1.368593597166553543e+97,4.604791610161369943e+99,-6.029764012574390661e+99,-9.229875183002742605e+99
-1.239705425930525128e+100,1.599812411182662638e+100,2.518648750585078602e+100,1.368593597166553543e+97,4.604791610161369943e+99,-6.029764012574390661e+99,-9.229875183002742605e+99
-1.239705425930525128e+100,1.599812411182662638e+100,2.518648750585078602e+100,1.368593597166553543e+97,4.604791610161369943e+99,-6.029764012574390661e+99,-9.229875183002742605e+99
4.705586154811959230e+99,-6.072454774251605864e+99,-9.560108749779547662e+99,-5.194810757206541618e+96,-1.747854223539058142e+99,2.288735167312528003e+99,3.503410726720023582e+99
4.705586154811959230e+99,-6.072454774251605864e+99,-9.560108749779547662e+99,-5.194810757206541618e+96,-1.747854223539058142e+99,2.288735167312528003e+99,3.503410726720023582e+99
4.705586154811959230e+99,-6.072454774251605864e+99,-9.560108749779547662e+99,-5.194810757206541618e+96,-1.747854223539058142e+99,2.288735167312528003e+99,3.503410726720023582e+99
-1.710264041411721246e+100,2.207057888607823225e+100,3.474659625563033369e+100,1.888074672887207705e+97,6.352645833700427600e+99,-8.318499179886919149e+99,-1.273328590972276813e+100
6.269801649621520245e+100,-8.091040246265792906e+100,-1.273804870167641923e+101,-6.921652687561306807e+97,-2.328870183969907482e+100,3.049548994632376688e+100,4.668003014083305208e+100
3.279491084416379773e+101,-4.232110652636768904e+101,-6.662781294290404583e+101,-3.620449185925072967e+98,-1.218142045299548196e+101,1.595101296384954746e+101,2.441652084422654726e+101
-1.710264041411721246e+100,2.207057888607823225e+100,3.474659625563033369e+100,1.888074672887207705e+97,6.352645833700427600e+99,-8.318499179886919149e+99,-1.273328590972276813e+100
-1.710264041411721246e+100,2.207057888607823225e+100,3.474659625563033369e+100,1.888074672887207705e+97,6.352645833700427600e+99,-8.318499179886919149e+99,-1.273328590972276813e+100
-1.710264041411721246e+100,2.207057888607823225e+100,3.474659625563033369e+100,1.888074672887207705e+97,6.352645833700427600e+99,-8.318499179886919149e+99,-1.273328590972276813e+100
-7.280979924622190146e+100,9.395943427640865731e+100,1.479241004081250238e+101,8.037959903624718306e+97,2.704464671152543822e+100,-3.541372797720110970e+100,-5.420847122917866356e+100
-2.500977359796054041e+101,3.227455923479029133e+101,5.081113118274679787e+101,2.760995902479174833e+98,9.289690375395502984e+100,-1.216442468100215469e+101,-1.862031768482954778e+101
6.389112234930271649e+100,-8.245007915657252468e+100,-1.298044616992486139e+101,-7.053367609277581457e+97,-2.373187194345231397e+100,3.107580092872825682e+100,4.756832326868179291e+100
-1.340948643884713577e+102,1.730464542925655360e+102,2.724339634138422153e+102,1.480362745667803237e+99,4.980851850658616439e+101,-6.522197698326126384e+101,-9.983652850904196879e+101
6.389112234930271649e+100,-8.245007915657252468e+100,-1.298044616992486139e+101,-7.053367609277581457e+97,-2.373187194345231397e+100,3.107580092872825682e+100,4.756832326868179291e+100
-1.340948643884713577e+102,1.730464542925655360e+102,2.724339634138422153e+102,1.480362745667803237e+99,4.980851850658616439e+101,-6.522197698326126384e+101,-9.983652850904196879e+101
6.389112234930271649e+100,-8.245007915657252468e+100,-1.298044616992486139e+101,-7.053367609277581457e+97,-2.373187194345231397e+100,3.107580092872825682e+100,4.756832326868179291e+100
-2.329950955654881936e+101,3.006750134618246577e+101,4.733647155718376062e+101,2.572188435190454176e+98,8.654425792025459642e+100,-1.133257476301346287e+101,-1.734698909385726922e+101
6.389112234930271649e+100,-8.245007915657252468e+100,-1.298044616992486139e+101,-7.053367609277581457e+97,-2.373187194345231397e+100,3.107580092872825682e+100,4.756832326868179291e+100
6.389112234930271649e+100,-8.245007915657252468e+100,-1.298044616992486139e+101,-7.053367609277581457e+97,-2.373187194345231397e+100,3.107580092872825682e+100,4.756832326868179291e+100
6.389112234930271649e+100,-8.245007915657252468e+100,-1.298044616992486139e+101,-7.053367609277581457e+97,-2.373187194345231397e+100,3.107580092872825682e+100,4.756832326868179291e+100
6.389112234930271649e+100,-8.245007915657252468e+100,-1.298044616992486139e+101,-7.053367609277581457e+97,-2.373187194345231397e+100,3.107580092872825682e+100,4.756832326868179291e+100
6.389112234930271649e+100,-8.245007915657252468e+100,-1.298044616992486139e+101,-7.053367609277581457e+97,-2.373187194345231397e+100,3.107580092872825682e+100,4.756832326868179291e+100
6.389112234930271649e+100,-8.245007915657252468e+100,-1.298044616992486139e+101,-7.053367609277581457e+97,-2.373187194345231397e+100,3.107580092872825682e+100,4.756832326868179291e+100
-2.329950955654881936e+101,3.006750134618246577e+101,4.733647155718376062e+101,2.572188435190454176e+98,8.654425792025459642e+100,-1.133257476301346287e+101,-1.734698909385726922e+101
-2.329950955654881936e+101,3.006750134618246577e+101,4.733647155718376062e+101,2.572188435190454176e+98,8.654425792025459642e+100,-1.133257476301346287e+101,-1.734698909385726922e+101
6.389112234930271649e+100,-8.245007915657252468e+100,-1.298044616992486139e+101,-7.053367609277581457e+97,-2.373187194345231397e+100,3.107580092872825682e+100,4.756832326868179291e+100
6.389112234930271649e+100,-8.245007915657252468e+100,-1.298044616992486139e+101,-7.053367609277581457e+97,-2.373187194345231397e+100,3.107580092872825682e+100,4.756832326868179291e+100
4.816553094096426216e+100,-6.215655153135788578e+100,-9.785554841358456408e+100,-5.317314570955819085e+97,-1.789072049994833879e+100,2.342708025951949947e+100,3.586028014473375751e+100
-2.968862179147909256e+101,3.831250926183971980e+101,6.031691772710862667e+101,3.277525196118212322e+98,1.102761298637069143e+101,-1.444015485588628777e+101,-2.210382142072545007e+101
-2.968862179147909256e+101,3.831250926183971980e+101,6.031691772710862667e+101,3.277525196118212322e+98,1.102761298637069143e+101,-1.444015485588628777e+101,-2.210382142072545007e+101
-2.968862179147909256e+101,3.831250926183971980e+101,6.031691772710862667e+101,3.277525196118212322e+98,1.102761298637069143e+101,-1.444015485588628777e+101,-2.210382142072545007e+101
-2.968862179147909256e+101,3.831250926183971980e+101,6.031691772710862667e+101,3.277525196118212322e+98,1.102761298637069143e+101,-1.444015485588628777e+101,-2.210382142072545007e+101
-2.968862179147909256e+101,3.831250926183971980e+101,6.031691772710862667e+101,3.277525196118212322e+98,1.102761298637069143e+101,-1.444015485588628777e+101,-2.210382142072545007e+101
-2.968862179147909256e+101,3.831250926183971980e+101,6.031691772710862667e+101,3.277525196118212322e+98,1.102761298637069143e+101,-1.444015485588628777e+101,-2.210382142072545007e+101
-2.968862179147909256e+101,3.831250926183971980e+101,6.031691772710862667e+101,3.277525196118212322e+98,1.102761298637069143e+101,-1.444015485588628777e+101,-2.210382142072545007e+101
-2.968862179147909256e+101,3.831250926183971980e+101,6.031691772710862667e+101,3.277525196118212322e+98,1.102761298637069143e+101,-1.444015485588628777e+101,-2.210382142072545007e+101
-2.968862179147909256e+101,3.831250926183971980e+101,6.031691772710862667e+101,3.277525196118212322e+98,1.102761298637069143e+101,-1.444015485588628777e+101,-2.210382142072545007e+101
2.474481378583343044e+101,-3.193263446214731093e+101,-5.027282531926449749e+101,-2.731745219631558694e+98,-9.191273066380575934e+100,1.203555171597957109e+101,1.842304937065648983e+101
-1.157391628375682036e+102,1.493588277460754667e+102,2.351415842645025652e+102,1.277721899797423121e+99,4.299043263455081247e+101,-5.629400536015451610e+101,-8.617031146525366292e+101
-1.157391628375682036e+102,1.493588277460754667e+102,2.351415842645025652e+102,1.277721899797423121e+99,4.299043263455081247e+101,-5.629400536015451610e+101,-8.617031146525366292e+101
-1.157391628375682036e+102,1.493588277460754667e+102,2.351415842645025652e+102,1.277721899797423121e+99,4.299043263455081247e+101,-5.629400536015451610e+101,-8.617031146525366292e+101
2.474481378583343044e+101,-3.193263446214731093e+101,-5.027282531926449749e+101,-2.731745219631558694e+98,-9.191273066380575934e+100,1.203555171597957109e+101,1.842304937065648983e+101
2.474481378583343044e+101,-3.193263446214731093e+101,-5.027282531926449749e+101,-2.731745219631558694e+98,-9.191273066380575934e+100,1.203555171597957109e+101,1.842304937065648983e+101
2.474481378583343044e+101,-3.193263446214731093e+101,-5.027282531926449749e+101,-2.731745219631558694e+98,-9.191273066380575934e+100,1.203555171597957109e+101,1.842304937065648983e+101
2.474481378583343044e+101,-3.193263446214731093e+101,-5.027282531926449749e+101,-2.731745219631558694e+98,-9.191273066380575934e+100,1.203555171597957109e+101,1.842304937065648983e+101
2.474481378583343044e+101,-3.193263446214731093e+101,-5.027282531926449749e+101,-2.731745219631558694e+98,-9.191273066380575934e+100,1.203555171597957109e+101,1.842304937065648983e+101
1.171397200032146756e+102,-1.511662157668952260e+102,-2.379870276106350796e+102,-1.293183585527568380e+99,-4.351065895211160995e+101,5.697521793036084135e+101,8.721305658479476129e+101
-2.426763528998638026e+98,3.131684617563374731e+98,4.930336515782763967e+98,2.679066299265006648e+95,9.014028739764479400e+97,-1.180345837657478528e+98,-1.806777965378833650e+98
-2.426763528998638026e+98,3.131684617563374731e+98,4.930336515782763967e+98,2.679066299265006648e+95,9.014028739764479400e+97,-1.180345837657478528e+98,-1.806777965378833650e+98
-2.426763528998638026e+98,3.131684617563374731e+98,4.930336515782763967e+98,2.679066299265006648e+95,9.014028739764479400e+97,-1.180345837657478528e+98,-1.806777965378833650e+98
-5.585449985199527971e+100,7.207899571509117615e+100,1.134768496807938777e+101,6.166151189747656111e+97,2.074672958014794744e+100,-2.716689352997773489e+100,-4.158488389739867984e+100
-5.585449985199527971e+100,7.207899571509117615e+100,1.134768496807938777e+101,6.166151189747656111e+97,2.074672958014794744e+100,-2.716689352997773489e+100,-4.158488389739867984e+100
-5.455158353307173488e+100,7.039761104567912436e+100,1.108297784571519708e+101,6.022313557482408663e+97,2.026277121321429418e+100,-2.653317218239679380e+100,-4.061483450130641811e+100
-5.455158353307173488e+100,7.039761104567912436e+100,1.108297784571519708e+101,6.022313557482408663e+97,2.026277121321429418e+100,-2.653317218239679380e+100,-4.061483450130641811e+100
-5.455158353307173488e+100,7.039761104567912436e+100,1.108297784571519708e+101,6.022313557482408663e+97,2.026277121321429418e+100,-2.653317218239679380e+100,-4.061483450130641811e+100
-5.455158353307173488e+100,7.039761104567912436e+100,1.108297784571519708e+101,6.022313557482408663e+97,2.026277121321429418e+100,-2.653317218239679380e+100,-4.061483450130641811e+100
-6.989910551904303470e+100,9.020324844992775684e+100,1.420105866281940064e+101,7.716628987827480959e+97,2.596349164240062960e+100,-3.399800486099425950e+100,-5.204139675843139389e+100
4.969917566236436497e+100,-6.413568609697519291e+100,-1.009713792235493054e+101,-5.486623852187609202e+97,-1.846038117887669304e+100,2.417302486504819273e+100,3.700211182970630028e+100
4.969917566236436497e+100,-6.413568609697519291e+100,-1.009713792235493054e+101,-5.486623852187609202e+97,-1.846038117887669304e+100,2.417302486504819273e+100,3.700211182970630028e+100
3.273960585246869662e+101,-4.224973665876632691e+101,-6.651545250201134112e+101,-3.614343698609819988e+98,-1.216087783404470611e+101,1.592411334385413021e+101,2.437534508104402707e+101
4.969917566236436497e+100,-6.413568609697519291e+100,-1.009713792235493054e+101,-5.486623852187609202e+97,-1.846038117887669304e+100,2.417302486504819273e+100,3.700211182970630028e+100
4.969917566236436497e+100,-6.413568609697519291e+100,-1.009713792235493054e+101,-5.486623852187609202e+97,-1.846038117887669304e+100,2.417302486504819273e+100,3.700211182970630028e+100
4.969917566236436497e+100,-6.413568609697519291e+100,-1.009713792235493054e+101,-5.486623852187609202e+97,-1.846038117887669304e+100,2.417302486504819273e+100,3.700211182970630028e+100
4.969917566236436497e+100,-6.413568609697519291e+100,-1.009713792235493054e+101,-5.486623852187609202e+97,-1.846038117887669304e+100,2.417302486504819273e+100,3.700211182970630028e+100
3.947509245181195605e+101,-5.094173302467303155e+101,-8.019961049082201673e+101,-4.357919038432554847e+98,-1.466272315425319383e+101,1.920016536834305777e+101,2.939006061816945662e+101
4.969917566236436497e+100,-6.413568609697519291e+100,-1.009713792235493054e+101,-5.486623852187609202e+97,-1.846038117887669304e+100,2.417302486504819273e+100,3.700211182970630028e+100
-3.338397621896437878e+100,4.308128235353790697e+100,6.782458819226671723e+100,3.685480045950481852e+97,1.240022431066849332e+100,-1.623752660844057203e+100,-2.485509276383864810e+100
-4.929351077999407526e+100,6.361218454570155914e+100,1.001472097654126449e+101,5.441839797121414527e+97,1.830970004061567982e+100,-2.397571480592299832e+100,-3.670008554571267734e+100
-4.929351077999407526e+100,6.361218454570155914e+100,1.001472097654126449e+101,5.441839797121414527e+97,1.830970004061567982e+100,-2.397571480592299832e+100,-3.670008554571267734e+100
-4.929351077999407526e+100,6.361218454570155914e+100,1.001472097654126449e+101,5.441839797121414527e+97,1.830970004061567982e+100,-2.397571480592299832e+100,-3.670008554571267734e+100
-2.225714320675342975e+99,2.872235064462765145e+99,4.521874693515373875e+99,2.457114653759960994e+96,8.267246731433360455e+98,-1.082558149086539822e+99,-1.657092478838958512e+99
4.306791402626943564e+101,-5.557818973911289329e+101,-8.749896998405740493e+101,-4.754554601987616117e+98,-1.599724942935161801e+101,2.094766649079761355e+101,3.206499403327103127e+101
-1.813524888170504334e+100,2.340313725662640566e+100,3.684449626666129374e+100,2.002071216546929913e+97,6.736200403090523523e+99,-8.820746346568966114e+99,-1.350208526071298775e+100
-1.813524888170504334e+100,2.340313725662640566e+100,3.684449626666129374e+100,2.002071216546929913e+97,6.736200403090523523e+99,-8.820746346568966114e+99,-1.350208526071298775e+100
-1.813524888170504334e+100,2.340313725662640566e+100,3.684449626666129374e+100,2.002071216546929913e+97,6.736200403090523523e+99,-8.820746346568966114e+99,-1.350208526071298775e+100
-1.813524888170504334e+100,2.340313725662640566e+100,3.684449626666129374e+100,2.002071216546929913e+97,6.736200403090523523e+99,-8.820746346568966114e+99,-1.350208526071298775e+100
-1.813524888170504334e+100,2.340313725662640566e+100,3.684449626666129374e+100,2.002071216546929913e+97,6.736200403090523523e+99,-8.820746346568966114e+99,-1.350208526071298775e+100
3.450517488557551878e+101,-4.452816441497551459e+101,-7.010247256846708308e+101,-3.809256653213794230e+98,-1.281668503636552531e+101,1.678286288183824083e+101,2.568984943519882582e+101
3.450517488557551878e+101,-4.452816441497551459e+101,-7.010247256846708308e+101,-3.809256653213794230e+98,-1.281668503636552531e+101,1.678286288183824083e+101,2.568984943519882582e+101
3.450517488557551878e+101,-4.452816441497551459e+101,-7.010247256846708308e+101,-3.809256653213794230e+98,-1.281668503636552531e+101,1.678286288183824083e+101,2.568984943519882582e+101
3.450517488557551878e+101,-4.452816441497551459e+101,-7.010247256846708308e+101,-3.809256653213794230e+98,-1.281668503636552531e+101,1.678286288183824083e+101,2.568984943519882582e+101
3.450517488557551878e+101,-4.452816441497551459e+101,-7.010247256846708308e+101,-3.809256653213794230e+98,-1.281668503636552531e+101,1.678286288183824083e+101,2.568984943519882582e+101
3.450517488557551878e+101,-4.452816441497551459e+101,-7.010247256846708308e+101,-3.809256653213794230e+98,-1.281668503636552531e+101,1.678286288183824083e+101,2.568984943519882582e+101
-1.404839766234016247e+102,1.812914622082227900e+102,2.854144095837670689e+102,1.550896421760578991e+99,5.218170570093139462e+101,-6.832955707613408720e+101,-1.045933608359101527e+102
-1.404839766234016247e+102,1.812914622082227900e+102,2.854144095837670689e+102,1.550896421760578991e+99,5.218170570093139462e+101,-6.832955707613408720e+101,-1.045933608359101527e+102
-1.404839766234016247e+102,1.812914622082227900e+102,2.854144095837670689e+102,1.550896421760578991e+99,5.218170570093139462e+101,-6.832955707613408720e+101,-1.045933608359101527e+102
1.227546515758357837e+102,-1.584121606743945469e+102,-2.493946088748599485e+102,-1.355170564354007121e+99,-4.559628262176915786e+101,5.970624673942211663e+101,9.139349465438650026e+101
1.227546515758357837e+102,-1.584121606743945469e+102,-2.493946088748599485e+102,-1.355170564354007121e+99,-4.559628262176915786e+101,5.970624673942211663e+101,9.139349465438650026e+101
1.227546515758357837e+102,-1.584121606743945469e+102,-2.493946088748599485e+102,-1.355170564354007121e+99,-4.559628262176915786e+101,5.970624673942211663e+101,9.139349465438650026e+101
1.227546515758357837e+102,-1.584121606743945469e+102,-2.493946088748599485e+102,-1.355170564354007121e+99,-4.559628262176915786e+101,5.970624673942211663e+101,9.139349465438650026e+101
1.227546515758357837e+102,-1.584121606743945469e+102,-2.493946088748599485e+102,-1.355170564354007121e+99,-4.559628262176915786e+101,5.970624673942211663e+101,9.139349465438650026e+101
1.227546515758357837e+102,-1.584121606743945469e+102,-2.493946088748599485e+102,-1.355170564354007121e+99,-4.559628262176915786e+101,5.970624673942211663e+101,9.139349465438650026e+101
1.227546515758357837e+102,-1.584121606743945469e+102,-2.493946088748599485e+102,-1.355170564354007121e+99,-4.559628262176915786e+101,5.970624673942211663e+101,9.139349465438650026e+101
-1.195982811814074074e+101,1.543389345469029575e+101,2.429819658517433118e+101,1.320325284001509016e+98,4.442387282127732653e+100,-5.817102972604244834e+100,-8.904350858813770194e+100
-1.195982811814074074e+101,1.543389345469029575e+101,2.429819658517433118e+101,1.320325284001509016e+98,4.442387282127732653e+100,-5.817102972604244834e+100,-8.904350858813770194e+100
-1.195982811814074074e+101,1.543389345469029575e+101,2.429819658517433118e+101,1.320325284001509016e+98,4.442387282127732653e+100,-5.817102972604244834e+100,-8.904350858813770194e+100
-1.195982811814074074e+101,1.543389345469029575e+101,2.429819658517433118e+101,1.320325284001509016e+98,4.442387282127732653e+100,-5.817102972604244834e+100,-8.904350858813770194e+100
3.292161079629920273e+101,-4.248461001008523577e+101,-6.688522302554920779e+101,-3.634436439640800130e+98,-1.222848218753293888e+101,1.601263815285026397e+101,2.451085170052856394e+101
-1.195982811814074074e+101,1.543389345469029575e+101,2.429819658517433118e+101,1.320325284001509016e+98,4.442387282127732653e+100,-5.817102972604244834e+100,-8.904350858813770194e+100
-1.195982811814074074e+101,1.543389345469029575e+101,2.429819658517433118e+101,1.320325284001509016e+98,4.442387282127732653e+100,-5.817102972604244834e+100,-8.904350858813770194e+100
4.488143891443993881e+101,-5.791850346477553153e+101,-9.118341961072353585e+101,-4.954761723642308843e+98,-1.667086946966067075e+101,2.182974112545450958e+101,3.341520255934232947e+101
-4.541094573019038606e+101,5.860182028982460898e+101,9.225919265488475643e+101,5.013217516650454050e+98,1.686755075310845142e+101,-2.208728627087710651e+101,-3.380943184282366271e+101
-4.541094573019038606e+101,5.860182028982460898e+101,9.225919265488475643e+101,5.013217516650454050e+98,1.686755075310845142e+101,-2.208728627087710651e+101,-3.380943184282366271e+101
-1.529609338875088108e+102,1.973926993790869537e+102,3.107632321080852725e+102,1.688637884099992706e+99,5.681617667511280335e+101,-7.439818485850206775e+101,-1.138827255351837205e+102
-1.529609338875088108e+102,1.973926993790869537e+102,3.107632321080852725e+102,1.688637884099992706e+99,5.681617667511280335e+101,-7.439818485850206775e+101,-1.138827255351837205e+102
-1.529609338875088108e+102,1.973926993790869537e+102,3.107632321080852725e+102,1.688637884099992706e+99,5.681617667511280335e+101,-7.439818485850206775e+101,-1.138827255351837205e+102
-1.529609338875088108e+102,1.973926993790869537e+102,3.107632321080852725e+102,1.688637884099992706e+99,5.681617667511280335e+101,-7.439818485850206775e+101,-1.138827255351837205e+102
4.603365010394709034e+102,-5.940540650054534247e+102,-9.352431060963551094e+102,-5.081962010384704958e+99,-1.709884956135044152e+102,2.239016148177909346e+102,3.427304872514641143e+102
-1.529609338875088108e+102,1.973926993790869537e+102,3.107632321080852725e+102,1.688637884099992706e+99,5.681617667511280335e+101,-7.439818485850206775e+101,-1.138827255351837205e+102
4.603365010394709034e+102,-5.940540650054534247e+102,-9.352431060963551094e+102,-5.081962010384704958e+99,-1.709884956135044152e+102,2.239016148177909346e+102,3.427304872514641143e+102
4.603365010394709034e+102,-5.940540650054534247e+102,-9.352431060963551094e+102,-5.081962010384704958e+99,-1.709884956135044152e+102,2.239016148177909346e+102,3.427304872514641143e+102
4.603365010394709034e+102,-5.940540650054534247e+102,-9.352431060963551094e+102,-5.081962010384704958e+99,-1.709884956135044152e+102,2.239016148177909346e+102,3.427304872514641143e+102
1.532722846375347573e+102,-1.977944906302212761e+102,-3.113957881662778689e+102,-1.692075092924328024e+99,-5.693182554552577173e+101,7.454962176508701303e+101,1.141145329065774045e+102
1.532722846375347573e+102,-1.977944906302212761e+102,-3.113957881662778689e+102,-1.692075092924328024e+99,-5.693182554552577173e+101,7.454962176508701303e+101,1.141145329065774045e+102
1.532722846375347573e+102,-1.977944906302212761e+102,-3.113957881662778689e+102,-1.692075092924328024e+99,-5.693182554552577173e+101,7.454962176508701303e+101,1.141145329065774045e+102
6.132974349269797640e+102,-7.914467643845403038e+102,-1.246006338204440481e+103,-6.770599894484697421e+99,-2.278046722886172061e+102,2.982997996762930272e+102,4.566132127866478348e+102
-5.680847327583872137e+102,7.331007730228205123e+102,1.154149907276887075e+103,6.271466685867115072e+99,2.110107576001834930e+102,-2.763089364643495176e+102,-4.229513775656597431e+102
-5.680847327583872137e+102,7.331007730228205123e+102,1.154149907276887075e+103,6.271466685867115072e+99,2.110107576001834930e+102,-2.763089364643495176e+102,-4.229513775656597431e+102
-5.680847327583872137e+102,7.331007730228205123e+102,1.154149907276887075e+103,6.271466685867115072e+99,2.110107576001834930e+102,-2.763089364643495176e+102,-4.229513775656597431e+102
-5.680847327583872137e+102,7.331007730228205123e+102,1.154149907276887075e+103,6.271466685867115072e+99,2.110107576001834930e+102,-2.763089364643495176e+102,-4.229513775656597431e+102
-5.680847327583872137e+102,7.331007730228205123e+102,1.154149907276887075e+103,6.271466685867115072e+99,2.110107576001834930e+102,-2.763089364643495176e+102,-4.229513775656597431e+102
-5.680847327583872137e+102,7.331007730228205123e+102,1.154149907276887075e+103,6.271466685867115072e+99,2.110107576001834930e+102,-2.763089364643495176e+102,-4.229513775656597431e+102
-7.951861213004779654e+101,1.026170088028639122e+102,1.615540667165136411e+102,8.778590553886292230e+98,2.953658428277601858e+101,-3.867680625756128480e+101,-5.920332760785044432e+101
-7.951861213004779654e+101,1.026170088028639122e+102,1.615540667165136411e+102,8.778590553886292230e+98,2.953658428277601858e+101,-3.867680625756128480e+101,-5.920332760785044432e+101
-7.951861213004779654e+101,1.026170088028639122e+102,1.615540667165136411e+102,8.778590553886292230e+98,2.953658428277601858e+101,-3.867680625756128480e+101,-5.920332760785044432e+101
-7.951861213004779654e+101,1.026170088028639122e+102,1.615540667165136411e+102,8.778590553886292230e+98,2.953658428277601858e+101,-3.867680625756128480e+101,-5.920332760785044432e+101
-7.951861213004779654e+101,1.026170088028639122e+102,1.615540667165136411e+102,8.778590553886292230e+98,2.953658428277601858e+101,-3.867680625756128480e+101,-5.920332760785044432e+101
-7.951861213004779654e+101,1.026170088028639122e+102,1.615540667165136411e+102,8.778590553886292230e+98,2.953658428277601858e+101,-3.867680625756128480e+101,-5.920332760785044432e+101
-7.951861213004779654e+101,1.026170088028639122e+102,1.615540667165136411e+102,8.778590553886292230e+98,2.953658428277601858e+101,-3.867680625756128480e+101,-5.920332760785044432e+101
-7.951861213004779654e+101,1.026170088028639122e+102,1.615540667165136411e+102,8.778590553886292230e+98,2.953658428277601858e+101,-3.867680625756128480e+101,-5.920332760785044432e+101
-7.951861213004779654e+101,1.026170088028639122e+102,1.615540667165136411e+102,8.778590553886292230e+98,2.953658428277601858e+101,-3.867680625756128480e+101,-5.920332760785044432e+101
-7.951861213004779654e+101,1.026170088028639122e+102,1.615540667165136411e+102,8.778590553886292230e+98,2.953658428277601858e+101,-3.867680625756128480e+101,-5.920332760785044432e+101
-7.951861213004779654e+101,1.026170088028639122e+102,1.615540667165136411e+102,8.778590553886292230e+98,2.953658428277601858e+101,-3.867680625756128480e+101,-5.920332760785044432e+101
-7.951861213004779654e+101,1.026170088028639122e+102,1.615540667165136411e+102,8.778590553886292230e+98,2.953658428277601858e+101,-3.867680625756128480e+101,-5.920332760785044432e+101
-7.951861213004779654e+101,1.026170088028639122e+102,1.615540667165136411e+102,8.778590553886292230e+98,2.953658428277601858e+101,-3.867680625756128480e+101,-5.920332760785044432e+101
-7.951861213004779654e+101,1.026170088028639122e+102,1.615540667165136411e+102,8.778590553886292230e+98,2.953658428277601858e+101,-3.867680625756128480e+101,-5.920332760785044432e+101
-7.951861213004779654e+101,1.026170088028639122e+102,1.615540667165136411e+102,8.778590553886292230e+98,2.953658428277601858e+101,-3.867680625756128480e+101,-5.920332760785044432e+101
-7.951861213004779654e+101,1.026170088028639122e+102,1.615540667165136411e+102,8.778590553886292230e+98,2.953658428277601858e+101,-3.867680625756128480e+101,-5.920332760785044432e+101
-7.951861213004779654e+101,1.026170088028639122e+102,1.615540667165136411e+102,8.778590553886292230e+98,2.953658428277601858e+101,-3.867680625756128480e+101,-5.920332760785044432e+101
3.155193711262467894e+102,-4.071707643914167224e+102,-6.410252413600755886e+102,-3.483229016129155071e+99,-1.171972730469398012e+102,1.534644690176396553e+102,2.349110000167071675e+102
3.155193711262467894e+102,-4.071707643914167224e+102,-6.410252413600755886e+102,-3.483229016129155071e+99,-1.171972730469398012e+102,1.534644690176396553e+102,2.349110000167071675e+102
3.155193711262467894e+102,-4.071707643914167224e+102,-6.410252413600755886e+102,-3.483229016129155071e+99,-1.171972730469398012e+102,1.534644690176396553e+102,2.349110000167071675e+102
3.155193711262467894e+102,-4.071707643914167224e+102,-6.410252413600755886e+102,-3.483229016129155071e+99,-1.171972730469398012e+102,1.534644690176396553e+102,2.349110000167071675e+102
-3.258167897289875477e+102,4.204593551640530868e+102,6.619460020146301413e+102,3.596909095866462006e+99,1.210221709457799040e+102,-1.584729978838108463e+102,-2.425776510147934340e+102
3.155193711262467894e+102,-4.071707643914167224e+102,-6.410252413600755886e+102,-3.483229016129155071e+99,-1.171972730469398012e+102,1.534644690176396553e+102,2.349110000167071675e+102
3.155193711262467894e+102,-4.071707643914167224e+102,-6.410252413600755886e+102,-3.483229016129155071e+99,-1.171972730469398012e+102,1.534644690176396553e+102,2.349110000167071675e+102
3.155193711262467894e+102,-4.071707643914167224e+102,-6.410252413600755886e+102,-3.483229016129155071e+99,-1.171972730469398012e+102,1.534644690176396553e+102,2.349110000167071675e+102
3.155193711262467894e+102,-4.071707643914167224e+102,-6.410252413600755886e+102,-3.483229016129155071e+99,-1.171972730469398012e+102,1.534644690176396553e+102,2.349110000167071675e+102
3.155193711262467894e+102,-4.071707643914167224e+102,-6.410252413600755886e+102,-3.483229016129155071e+99,-1.171972730469398012e+102,1.534644690176396553e+102,2.349110000167071675e+102
3.155193711262467894e+102,-4.071707643914167224e+102,-6.410252413600755886e+102,-3.483229016129155071e+99,-1.171972730469398012e+102,1.534644690176396553e+102,2.349110000167071675e+102
3.155193711262467894e+102,-4.071707643914167224e+102,-6.410252413600755886e+102,-3.483229016129155071e+99,-1.171972730469398012e+102,1.534644690176396553e+102,2.349110000167071675e+102
3.155193711262467894e+102,-4.071707643914167224e+102,-6.410252413600755886e+102,-3.483229016129155071e+99,-1.171972730469398012e+102,1.534644690176396553e+102,2.349110000167071675e+102
-1.021304859689014450e+103,1.317971314762336194e+103,2.074935024900318545e+103,1.127486629072636035e+100,3.793559301221088910e+102,-4.967492405865516331e+102,-7.603835702863184197e+102
2.474462600125586221e+102,-3.193239213030666289e+102,-5.027244380654239432e+102,-2.731724488838171198e+99,-9.191203315226034406e+101,1.203546038003280295e+102,1.842290956097463953e+102
-6.413361608552343371e+102,8.276301195554698091e+102,1.302971243374705630e+103,7.080138111995617077e+99,2.382194439927197052e+102,-3.119374669014505016e+102,-4.774886510315005518e+102
-6.413361608552343371e+102,8.276301195554698091e+102,1.302971243374705630e+103,7.080138111995617077e+99,2.382194439927197052e+102,-3.119374669014505016e+102,-4.774886510315005518e+102
-6.413361608552343371e+102,8.276301195554698091e+102,1.302971243374705630e+103,7.080138111995617077e+99,2.382194439927197052e+102,-3.119374669014505016e+102,-4.774886510315005518e+102
-6.413361608552343371e+102,8.276301195554698091e+102,1.302971243374705630e+103,7.080138111995617077e+99,2.382194439927197052e+102,-3.119374669014505016e+102,-4.774886510315005518e+102
-6.413361608552343371e+102,8.276301195554698091e+102,1.302971243374705630e+103,7.080138111995617077e+99,2.382194439927197052e+102,-3.119374669014505016e+102,-4.774886510315005518e+102
-1.571762791933509229e+103,2.028325091892644492e+103,3.193273425538184652e+103,1.735173895597167342e+100,5.838193466021668862e+102,-7.644847332978647892e+102,-1.170211413404525125e+103
8.887824208677929593e+102,-1.146954040858536438e+103,-1.805695681440129773e+103,-9.811862600833788275e+99,-3.301314771449800990e+102,4.322920707017785312e+102,6.617177466412469471e+102
8.887824208677929593e+102,-1.146954040858536438e+103,-1.805695681440129773e+103,-9.811862600833788275e+99,-3.301314771449800990e+102,4.322920707017785312e+102,6.617177466412469471e+102
-1.571762791933509229e+103,2.028325091892644492e+103,3.193273425538184652e+103,1.735173895597167342e+100,5.838193466021668862e+102,-7.644847332978647892e+102,-1.170211413404525125e+103
8.887824208677929593e+102,-1.146954040858536438e+103,-1.805695681440129773e+103,-9.811862600833788275e+99,-3.301314771449800990e+102,4.322920707017785312e+102,6.617177466412469471e+102
8.887824208677929593e+102,-1.146954040858536438e+103,-1.805695681440129773e+103,-9.811862600833788275e+99,-3.301314771449800990e+102,4.322920707017785312e+102,6.617177466412469471e+102
8.887824208677929593e+102,-1.146954040858536438e+103,-1.805695681440129773e+103,-9.811862600833788275e+99,-3.301314771449800990e+102,4.322920707017785312e+102,6.617177466412469471e+102
8.887824208677929593e+102,-1.146954040858536438e+103,-1.805695681440129773e+103,-9.811862600833788275e+99,-3.301314771449800990e+102,4.322920707017785312e+102,6.617177466412469471e+102
8.887824208677929593e+102,-1.146954040858536438e+103,-1.805695681440129773e+103,-9.811862600833788275e+99,-3.301314771449800990e+102,4.322920707017785312e+102,6.617177466412469471e+102
8.887824208677929593e+102,-1.146954040858536438e+103,-1.805695681440129773e+103,-9.811862600833788275e+99,-3.301314771449800990e+102,4.322920707017785312e+102,6.617177466412469471e+102
8.887824208677929593e+102,-1.146954040858536438e+103,-1.805695681440129773e+103,-9.811862600833788275e+99,-3.301314771449800990e+102,4.322920707017785312e+102,6.617177466412469471e+102
5.088137220340128465e+102,-6.566128456516700531e+102,-1.033731899914516858e+103,-5.617134422103045005e+99,-1.889949910155909133e+102,2.474802970166773500e+102,3.788228273864291786e+102
8.887824208677929593e+102,-1.146954040858536438e+103,-1.805695681440129773e+103,-9.811862600833788275e+99,-3.301314771449800990e+102,4.322920707017785312e+102,6.617177466412469471e+102
8.887824208677929593e+102,-1.146954040858536438e+103,-1.805695681440129773e+103,-9.811862600833788275e+99,-3.301314771449800990e+102,4.322920707017785312e+102,6.617177466412469471e+102
-2.460545212801302189e+103,3.175279132751180930e+103,4.998969106978314026e+103,2.716360155680546170e+100,9.139508237471470349e+102,-1.196776803999643271e+103,-1.831929160045772072e+103
-2.460545212801302189e+103,3.175279132751180930e+103,4.998969106978314026e+103,2.716360155680546170e+100,9.139508237471470349e+102,-1.196776803999643271e+103,-1.831929160045772072e+103
-2.460545212801302189e+103,3.175279132751180930e+103,4.998969106978314026e+103,2.716360155680546170e+100,9.139508237471470349e+102,-1.196776803999643271e+103,-1.831929160045772072e+103
-2.460545212801302189e+103,3.175279132751180930e+103,4.998969106978314026e+103,2.716360155680546170e+100,9.139508237471470349e+102,-1.196776803999643271e+103,-1.831929160045772072e+103
-2.460545212801302189e+103,3.175279132751180930e+103,4.998969106978314026e+103,2.716360155680546170e+100,9.139508237471470349e+102,-1.196776803999643271e+103,-1.831929160045772072e+103
1.183692750464950954e+103,-1.527529293339478008e+103,-2.404850543263034438e+103,-1.306757464647553983e+100,-4.396736783061624288e+102,5.757325731910413241e+102,8.812848692354577055e+102
1.183692750464950954e+103,-1.527529293339478008e+103,-2.404850543263034438e+103,-1.306757464647553983e+100,-4.396736783061624288e+102,5.757325731910413241e+102,8.812848692354577055e+102
1.183692750464950954e+103,-1.527529293339478008e+103,-2.404850543263034438e+103,-1.306757464647553983e+100,-4.396736783061624288e+102,5.757325731910413241e+102,8.812848692354577055e+102
1.183692750464950954e+103,-1.527529293339478008e+103,-2.404850543263034438e+103,-1.306757464647553983e+100,-4.396736783061624288e+102,5.757325731910413241e+102,8.812848692354577055e+102
1.183692750464950954e+103,-1.527529293339478008e+103,-2.404850543263034438e+103,-1.306757464647553983e+100,-4.396736783061624288e+102,5.757325731910413241e+102,8.812848692354577055e+102
1.183692750464950954e+103,-1.527529293339478008e+103,-2.404850543263034438e+103,-1.306757464647553983e+100,-4.396736783061624288e+102,5.757325731910413241e+102,8.812848692354577055e+102
1.183692750464950954e+103,-1.527529293339478008e+103,-2.404850543263034438e+103,-1.306757464647553983e+100,-4.396736783061624288e+102,5.757325731910413241e+102,8.812848692354577055e+102
1.183692750464950954e+103,-1.527529293339478008e+103,-2.404850543263034438e+103,-1.306757464647553983e+100,-4.396736783061624288e+102,5.757325731910413241e+102,8.812848692354577055e+102
1.183692750464950954e+103,-1.527529293339478008e+103,-2.404850543263034438e+103,-1.306757464647553983e+100,-4.396736783061624288e+102,5.757325731910413241e+102,8.812848692354577055e+102
1.183692750464950954e+103,-1.527529293339478008e+103,-2.404850543263034438e+103,-1.306757464647553983e+100,-4.396736783061624288e+102,5.757325731910413241e+102,8.812848692354577055e+102
1.183692750464950954e+103,-1.527529293339478008e+103,-2.404850543263034438e+103,-1.306757464647553983e+100,-4.396736783061624288e+102,5.757325731910413241e+102,8.812848692354577055e+102
1.183692750464950954e+103,-1.527529293339478008e+103,-2.404850543263034438e+103,-1.306757464647553983e+100,-4.396736783061624288e+102,5.757325731910413241e+102,8.812848692354577055e+102
1.183692750464950954e+103,-1.527529293339478008e+103,-2.404850543263034438e+103,-1.306757464647553983e+100,-4.396736783061624288e+102,5.757325731910413241e+102,8.812848692354577055e+102
1.183692750464950954e+103,-1.527529293339478008e+103,-2.404850543263034438e+103,-1.306757464647553983e+100,-4.396736783061624288e+102,5.757325731910413241e+102,8.812848692354577055e+102
1.183692750464950954e+103,-1.527529293339478008e+103,-2.404850543263034438e+103,-1.306757464647553983e+100,-4.396736783061624288e+102,5.757325731910413241e+102,8.812848692354577055e+102
1.183692750464950954e+103,-1.527529293339478008e+103,-2.404850543263034438e+103,-1.306757464647553983e+100,-4.396736783061624288e+102,5.757325731910413241e+102,8.812848692354577055e+102
1.183692750464950954e+103,-1.527529293339478008e+103,-2.404850543263034438e+103,-1.306757464647553983e+100,-4.396736783061624288e+102,5.757325731910413241e+102,8.812848692354577055e+102
1.183692750464950954e+103,-1.527529293339478008e+103,-2.404850543263034438e+103,-1.306757464647553983e+100,-4.396736783061624288e+102,5.757325731910413241e+102,8.812848692354577055e+102
1.183692750464950954e+103,-1.527529293339478008e+103,-2.404850543263034438e+103,-1.306757464647553983e+100,-4.396736783061624288e+102,5.757325731910413241e+102,8.812848692354577055e+102
1.183692750464950954e+103,-1.527529293339478008e+103,-2.404850543263034438e+103,-1.306757464647553983e+100,-4.396736783061624288e+102,5.757325731910413241e+102,8.812848692354577055e+102
1.183692750464950954e+103,-1.527529293339478008e+103,-2.404850543263034438e+103,-1.306757464647553983e+100,-4.396736783061624288e+102,5.757325731910413241e+102,8.812848692354577055e+102
1.183692750464950954e+103,-1.527529293339478008e+103,-2.404850543263034438e+103,-1.306757464647553983e+100,-4.396736783061624288e+102,5.757325731910413241e+102,8.812848692354577055e+102
1.183692750464950954e+103,-1.527529293339478008e+103,-2.404850543263034438e+103,-1.306757464647553983e+100,-4.396736783061624288e+102,5.757325731910413241e+102,8.812848692354577055e+102
1.319530714700804554e+102,-1.702825179401446983e+102,-2.680825877200103221e+102,-1.456718063525949184e+99,-4.901296580067594357e+101,6.418023709961023557e+101,9.824191733036234667e+101
1.319530714700804554e+102,-1.702825179401446983e+102,-2.680825877200103221e+102,-1.456718063525949184e+99,-4.901296580067594357e+101,6.418023709961023557e+101,9.824191733036234667e+101
1.319530714700804554e+102,-1.702825179401446983e+102,-2.680825877200103221e+102,-1.456718063525949184e+99,-4.901296580067594357e+101,6.418023709961023557e+101,9.824191733036234667e+101
1.319530714700804554e+102,-1.702825179401446983e+102,-2.680825877200103221e+102,-1.456718063525949184e+99,-4.901296580067594357e+101,6.418023709961023557e+101,9.824191733036234667e+101
1.319530714700804554e+102,-1.702825179401446983e+102,-2.680825877200103221e+102,-1.456718063525949184e+99,-4.901296580067594357e+101,6.418023709961023557e+101,9.824191733036234667e+101
-3.799686988337801128e+102,4.903411952068662855e+102,7.719637815256129142e+102,4.194728178730743270e+99,1.411364861293891858e+102,-1.848117736851011315e+102,-2.828949192548177685e+102
-3.799686988337801128e+102,4.903411952068662855e+102,7.719637815256129142e+102,4.194728178730743270e+99,1.411364861293891858e+102,-1.848117736851011315e+102,-2.828949192548177685e+102
-3.799686988337801128e+102,4.903411952068662855e+102,7.719637815256129142e+102,4.194728178730743270e+99,1.411364861293891858e+102,-1.848117736851011315e+102,-2.828949192548177685e+102
-3.799686988337801128e+102,4.903411952068662855e+102,7.719637815256129142e+102,4.194728178730743270e+99,1.411364861293891858e+102,-1.848117736851011315e+102,-2.828949192548177685e+102
-3.799686988337801128e+102,4.903411952068662855e+102,7.719637815256129142e+102,4.194728178730743270e+99,1.411364861293891858e+102,-1.848117736851011315e+102,-2.828949192548177685e+102
-3.799686988337801128e+102,4.903411952068662855e+102,7.719637815256129142e+102,4.194728178730743270e+99,1.411364861293891858e+102,-1.848117736851011315e+102,-2.828949192548177685e+102
-3.799686988337801128e+102,4.903411952068662855e+102,7.719637815256129142e+102,4.194728178730743270e+99,1.411364861293891858e+102,-1.848117736851011315e+102,-2.828949192548177685e+102
