5.211079493165016174e-02
4.867229145020246506e-03
-4.529677797108888626e-03
8.222216740250587463e-03
-3.084533615037798882e-03
-7.604338461533188820e-04
1.207438064739108086e-03
1.101068570278584957e-03
-3.535108698997646570e-04
2.808585995808243752e-04
1.547885360196232796e-03
-9.373825378133915365e-06
6.256598979234695435e-02
4.873468074947595596e-03
1.560162566602230072e-02
1.236961456015706062e-03
-5.187711212784051895e-04
3.629141720011830330e-03
1.411313889548182487e-03
1.113524287939071655e-02
1.188834547065198421e-03
8.573520928621292114e-03
3.778145648539066315e-03
8.433677139692008495e-04
8.937834762036800385e-03
6.924686022102832794e-03
2.586560556665062904e-03
-6.001401925459504128e-04
-5.920380819588899612e-03
1.894325367175042629e-03
5.054842215031385422e-03
5.582103505730628967e-03
-5.826883716508746147e-04
8.627039380371570587e-03
-2.597004640847444534e-03
2.543384581804275513e-02
7.073883898556232452e-03
7.675214670598506927e-03
1.567503996193408966e-02
4.283085931092500687e-03
6.662681233137845993e-03
4.317061102483421564e-04
8.949289098381996155e-03
2.713017165660858154e-02
-1.341612194664776325e-03
5.847262218594551086e-03
1.977013424038887024e-03
-2.053036005236208439e-04
-5.552450893446803093e-04
3.693038132041692734e-03
1.960464986041188240e-03
-1.022470067255198956e-03
-8.908951422199606895e-04
-7.406781078316271305e-04
3.036723705008625984e-03
-6.183238001540303230e-04
1.370945107191801071e-02
-3.974357619881629944e-03
1.720593776553869247e-03
-1.509734545834362507e-03
1.390979858115315437e-03
-1.218977500684559345e-03
6.420488934963941574e-04
4.999740514904260635e-03
3.211019327864050865e-03
1.214527804404497147e-02
7.125706877559423447e-03
2.326093148440122604e-03
6.160018499940633774e-03
1.080832630395889282e-02
-1.575951464474201202e-03
-1.425703056156635284e-03
-5.920346360653638840e-03
1.966971671208739281e-03
7.130352314561605453e-04
-3.065111115574836731e-03
5.048231221735477448e-03
3.541035111993551254e-03
4.271449986845254898e-03
1.238263212144374847e-03
6.619391497224569321e-03
1.742268912494182587e-03
1.969583332538604736e-03
-4.717088304460048676e-03
2.575366757810115814e-03
5.018830415792763233e-04
1.241685543209314346e-02
1.326935831457376480e-02
2.786467666737735271e-04
-3.696220228448510170e-04
-1.607238082215189934e-04
1.580369425937533379e-04
-1.725454116240143776e-03
4.126871004700660706e-03
5.054689245298504829e-04
2.494054846465587616e-03
1.086881849914789200e-03
6.260726600885391235e-03
-8.721440099179744720e-04
2.811066806316375732e-03
8.699459140188992023e-04
8.859603665769100189e-03
7.371754851192235947e-03
-2.014454512391239405e-04
-3.111604368314146996e-03
3.336440073326230049e-03
6.367570022121071815e-04
-2.338883467018604279e-03
-1.430400297977030277e-04
-2.522547729313373566e-03
1.009240280836820602e-02
6.440746365115046501e-04
-2.766393590718507767e-03
1.413546968251466751e-03
2.399208489805459976e-03
6.393856834620237350e-03
-1.406301744282245636e-04
-3.755652578547596931e-04
-7.782314438372850418e-03
2.914007753133773804e-03
1.314033987000584602e-03
6.019301246851682663e-03
-3.903134260326623917e-03
-3.171871649101376534e-04
3.467469708994030952e-03
4.609961528331041336e-03
8.528546313755214214e-04
7.312006200663745403e-04
4.024516791105270386e-03
1.713270787149667740e-03
-1.237015239894390106e-03
-7.127149729058146477e-04
1.298717688769102097e-03
-2.366476459428668022e-03
1.991754397749900818e-03
6.269259029068052769e-04
1.807356253266334534e-03
2.171329688280820847e-03
4.498364287428557873e-04
-1.868211664259433746e-03
-3.129869583062827587e-04
3.193640615791082382e-03
4.751741886138916016e-03
1.027181860990822315e-04
-3.344952594488859177e-03
4.695246927440166473e-03
2.485177712514996529e-03
3.853208036161959171e-04
-6.940851453691720963e-04
6.347903981804847717e-03
-1.913899672217667103e-03
-2.196088433265686035e-03
-1.510392641648650169e-03
2.705156803131103516e-03
2.011604141443967819e-03
1.219164114445447922e-03
1.030397368595004082e-03
5.117042921483516693e-03
-2.055064542219042778e-04
-2.736679278314113617e-03
-7.775965059408918023e-05
-1.295405207201838493e-03
3.704022150486707687e-03
3.497509518638253212e-03
-9.133421117439866066e-04
3.703247057273983955e-05
4.685500636696815491e-03
1.169911236502230167e-03
5.782830994576215744e-04
3.925301600247621536e-03
3.613153006881475449e-03
2.689872635528445244e-03
2.444281475618481636e-03
1.751772710122168064e-03
-3.301918972283601761e-03
9.047863073647022247e-03
-3.281788667663931847e-04
-2.643953543156385422e-03
2.466695383191108704e-03
-1.978783169761300087e-03
1.411748467944562435e-03
-1.444443478249013424e-03
-5.435565020889043808e-03
1.575018977746367455e-03
1.425598864443600178e-03
-2.053812611848115921e-03
-1.988241681829094887e-03
4.645566921681165695e-03
-2.993487287312746048e-04
-3.297483781352639198e-03
-8.166364859789609909e-04
4.640650935471057892e-03
1.566646387800574303e-03
-2.939871745184063911e-03
7.959383074194192886e-04
2.142949728295207024e-03
1.820117817260324955e-03
1.275040791369974613e-03
-2.410114742815494537e-03
4.061108920723199844e-03
-8.731167763471603394e-04
-7.206934387795627117e-04
1.311384985456243157e-04
3.052925691008567810e-03
-2.708661369979381561e-03
-9.521663305349647999e-04
2.504468662664294243e-03
1.051698345690965652e-03
-1.730092801153659821e-03
1.582266180776059628e-03
1.047202153131365776e-03
4.201606847345829010e-03
3.328608581796288490e-03
7.766505004838109016e-04
-2.562482142820954323e-03
-3.193931770510971546e-04
3.206845605745911598e-03
2.672685310244560242e-03
-7.779992884024977684e-04
3.087516408413648605e-03
-1.320703537203371525e-03
3.836496267467737198e-03
-3.758881939575076103e-03
3.968895412981510162e-03
5.525589454919099808e-03
5.793008022010326385e-03
9.622370125725865364e-04
-5.497878300957381725e-04
8.358864579349756241e-05
2.228053985163569450e-03
-1.041330164298415184e-03
1.020949915982782841e-03
3.031394910067319870e-03
-6.374674849212169647e-04
7.236307021230459213e-03
-1.388520118780434132e-03
0.000000000000000000e+00
4.803950898349285126e-03
4.296126135159283876e-04
-1.304297125898301601e-03
3.095789346843957901e-03
3.905864898115396500e-03
5.171966273337602615e-03
8.537885150872170925e-04
6.840563379228115082e-03
9.647933766245841980e-03
1.181279658339917660e-03
-3.753857745323330164e-04
3.847039770334959030e-03
1.124308444559574127e-03
1.388633390888571739e-03
-2.483875141479074955e-04
2.738393843173980713e-03
5.849357694387435913e-03
-4.977412172593176365e-04
2.877382561564445496e-03
2.850210061296820641e-03
-2.032755408436059952e-03
6.070801522582769394e-03
2.286606701090931892e-03
2.475560875609517097e-03
3.637725021690130234e-03
1.497329445555806160e-03
4.740618634968996048e-03
-3.554887836799025536e-03
1.779461454134434462e-04
2.521829912438988686e-03
4.755783360451459885e-03
1.301431795582175255e-03
3.634484484791755676e-03
5.242585670202970505e-03
4.585956223309040070e-03
4.115486983209848404e-03
-1.983956026379019022e-04
5.425568670034408569e-03
-8.933971403166651726e-04
1.402437337674200535e-04
1.729005307424813509e-04
-3.038377501070499420e-03
1.486342516727745533e-04
5.282824393361806870e-03
1.402097404934465885e-04
-1.411158009432256222e-04
2.896523103117942810e-03
8.656686171889305115e-03
1.537558855488896370e-03
2.220898866653442383e-03
2.595673780888319016e-03
5.892721004784107208e-03
1.554180053062736988e-03
2.153958776034414768e-04
1.817210344597697258e-03
2.334742108359932899e-03
-1.546934945508837700e-03
-1.738940132781863213e-03
6.318800617009401321e-03
-1.679587876424193382e-03
3.660119546111673117e-04
-3.479087958112359047e-03
-1.106489449739456177e-03
-9.942712495103478432e-04
-9.942712495103478432e-04
-4.503060190472751856e-04
1.789802219718694687e-03
-3.496597288176417351e-03
-4.329485818743705750e-04
3.330251434817910194e-03
2.269569085910916328e-03
2.827116986736655235e-05
-6.193126318976283073e-04
3.804660867899656296e-03
5.528965499252080917e-03
-1.127019058912992477e-03
9.844487067312002182e-04
2.183667151257395744e-03
1.819756143959239125e-04
6.471757078543305397e-04
1.865037600509822369e-03
-2.700451528653502464e-03
-4.704258753918111324e-04
1.430311007425189018e-03
9.556040749885141850e-04
2.999253920279443264e-04
6.167195970192551613e-04
-6.469169748015701771e-04
5.885345162823796272e-04
-1.235367963090538979e-03
-1.069152494892477989e-03
3.469652147032320499e-04
2.625346649438142776e-03
-1.979400549316778779e-04
3.932504041586071253e-04
1.200055470690131187e-03
3.008198458701372147e-03
-3.090830286964774132e-04
9.456605184823274612e-04
-4.963309620507061481e-04
5.984543822705745697e-03
3.262729849666357040e-03
1.754933618940412998e-03
1.179745653644204140e-03
1.364269992336630821e-03
-4.060490522533655167e-03
-8.155402611009776592e-04
-1.678344095125794411e-03
-5.550798494368791580e-03
4.037940525449812412e-04
-6.468537612818181515e-04
-2.100554993376135826e-03
-2.221486298367381096e-03
8.437920478172600269e-04
8.812837768346071243e-04
-7.588242879137396812e-04
-3.655140753835439682e-04
-1.396703417412936687e-03
6.213653978193178773e-05
2.264770912006497383e-03
-2.676151925697922707e-03
1.946098520420491695e-03
1.189938979223370552e-03
2.906292211264371872e-03
4.954749252647161484e-03
1.884064869955182076e-03
-3.190019924659281969e-04
-9.162176866084337234e-07
2.202196512371301651e-03
3.719109110534191132e-03
1.212562783621251583e-04
2.034931210801005363e-03
-4.508900747168809175e-04
-1.586676458828151226e-03
2.808362478390336037e-03
-3.142180386930704117e-03
3.676043823361396790e-03
1.988146454095840454e-03
2.437299845041707158e-04
7.218392565846443176e-04
2.530122175812721252e-03
-2.268623939016833901e-04
-1.485818298533558846e-03
-2.349290298298001289e-06
3.833872906398028135e-04
7.125074043869972229e-04
1.125351642258465290e-03
-3.285325947217643261e-04
-4.320472944527864456e-04
2.252041595056653023e-04
1.589538296684622765e-04
1.213918003486469388e-04
-1.229188172146677971e-03
3.523804014548659325e-03
-3.202691907063126564e-03
1.030542887747287750e-03
1.936862361617386341e-03
-8.071271004155278206e-04
-9.186809184029698372e-04
-3.356570145115256310e-03
1.677798456512391567e-03
-3.749530005734413862e-04
-1.733837649226188660e-03
-8.529847254976630211e-04
5.534709780476987362e-04
2.224915428087115288e-03
1.230572699569165707e-03
2.549547236412763596e-03
-4.692982183769345284e-04
7.115668850019574165e-04
1.818891847506165504e-03
9.456699481233954430e-04
-6.663122330792248249e-04
2.080275909975171089e-03
-5.815378390252590179e-04
-6.824272568337619305e-04
-5.173837998881936073e-04
3.866282990202307701e-03
-1.691016077529639006e-04
-5.668995436280965805e-05
-7.034713635221123695e-04
-5.907990853302180767e-04
2.344230015296489000e-04
-2.229027741122990847e-04
-6.477298447862267494e-04
-4.217437002807855606e-03
-7.542865932919085026e-05
2.850371412932872772e-03
-5.813476745970547199e-04
-9.732103208079934120e-04
-2.241647802293300629e-03
-2.435242495266720653e-04
2.589629963040351868e-03
2.758545335382223129e-03
-5.913324421271681786e-04
-3.919671755284070969e-03
2.354126889258623123e-03
1.085682306438684464e-03
3.188492555636912584e-04
1.536948373541235924e-03
-1.031090854667127132e-03
-4.779384471476078033e-04
-9.277304343413561583e-05
-2.465485362336039543e-03
-2.992155030369758606e-03
1.442885026335716248e-03
-9.945597266778349876e-04
3.561567747965455055e-03
1.837199321016669273e-03
4.202389973215758801e-04
3.613351611420512199e-03
3.486632369458675385e-03
3.147756448015570641e-03
-6.563476636074483395e-04
2.531861420720815659e-03
2.719851909205317497e-04
4.696149844676256180e-04
-1.321964431554079056e-03
5.879721604287624359e-03
-1.979700289666652679e-03
2.524052979424595833e-04
2.728555584326386452e-03
8.355884347110986710e-05
9.340408723801374435e-06
-1.499281264841556549e-03
-3.375136293470859528e-03
-1.591544569237157702e-04
1.975585473701357841e-03
-1.265262253582477570e-03
-1.331121893599629402e-03
1.566253951750695705e-03
1.444128458388149738e-03
1.809890731237828732e-03
1.135051017627120018e-03
-2.157496521249413490e-03
-7.215384976007044315e-04
-4.402090562507510185e-04
-2.681906335055828094e-03
-1.369678182527422905e-03
-1.735403202474117279e-03
-1.651591155678033829e-03
1.781894126906991005e-03
1.781559782102704048e-03
4.026732931379228830e-04
9.096586145460605621e-04
-1.506671833340078592e-04
1.256604678928852081e-03
3.318202681839466095e-03
9.657027549110352993e-04
-7.410001708194613457e-04
-4.504486278165131807e-04
8.532644133083522320e-04
3.556545707397162914e-04
1.744278939440846443e-03
-4.127720021642744541e-04
6.375608500093221664e-04
1.078188768588006496e-03
2.802517265081405640e-03
2.446353901177644730e-03
1.481967046856880188e-03
-2.316200407221913338e-03
1.490135793574154377e-03
-2.016057027503848076e-03
1.434640260413289070e-03
-6.659057107754051685e-04
9.933441178873181343e-04
-8.160611614584922791e-04
2.625832275953143835e-04
2.794811036437749863e-03
-2.802658127620816231e-05
-5.159633001312613487e-04
1.626287237741053104e-03
4.964802647009491920e-04
-1.125300652347505093e-03
1.397090381942689419e-03
2.539553912356495857e-03
-1.153261982835829258e-03
-8.247892255894839764e-04
1.388436299748718739e-03
0.000000000000000000e+00
5.162466550245881081e-04
-2.615813165903091431e-03
-4.737749986816197634e-05
3.469782415777444839e-03
2.791389124467968941e-05
6.096417200751602650e-04
-1.360320253297686577e-03
4.742721561342477798e-03
6.673468276858329773e-03
-1.510190428234636784e-03
2.672668080776929855e-03
-2.785431919619441032e-03
-8.251130930148065090e-04
-1.312409760430455208e-03
2.400941448286175728e-03
-1.600779942236840725e-03
