-7.363581808189792634e+56,9.322601017754308969e+56,3.918654177643039885e+56,7.990964806657497540e+55,4.687751760900172410e+56,1.309576266519731532e+56,-4.004582412425291990e+56
3.503492466590828132e+55,-4.435567266789623519e+55,-1.864442569956602178e+55,-3.801992797822852332e+54,-2.230368780760387945e+55,-6.230786461929622484e+54,1.905326059957656268e+55
-1.868868796864930141e+55,2.366065673138128613e+55,9.945500313660287803e+54,2.028097897601720360e+54,1.189746134639420543e+55,3.323689863663311478e+54,-1.016358520894267407e+55
-2.432189514708983625e+54,3.079253145524760544e+54,1.294330646538571349e+54,2.639413986484757541e+53,1.548363415714238784e+54,4.325527640092912957e+53,-1.322712724323380925e+54
8.200260587872696246e+54,-1.038187117271205210e+55,-4.363906893067909579e+54,-8.898929280615966906e+53,-5.220392332422594969e+54,-1.458375410891942711e+54,4.459598627800412786e+54
-2.679677284508060905e+55,3.392582961735194500e+55,1.426035434819740713e+55,2.907987910161821763e+54,1.705917342444100288e+55,4.765672284404869843e+54,-1.457305534730599516e+55
-2.533300701389257515e+55,3.207264115784299314e+55,1.348138668831529623e+55,2.749139926301548434e+54,1.612732109612633334e+55,4.505348838261528974e+54,-1.377700648736596417e+55
3.327370421262461694e+55,-4.212589427770973138e+55,-1.770716254872625652e+55,-3.610865014828684124e+54,-2.118247200580055215e+55,-5.917562196102337479e+54,1.809544514571969751e+55
-1.164114740762058951e+53,1.473817708515340894e+53,6.195032812794567585e+52,1.263298238093144080e+52,7.410905545760509140e+52,2.070319955313304367e+52,-6.330877470141033465e+52
0.000000000000000000e+00,0.000000000000000000e+00,0.000000000000000000e+00,0.000000000000000000e+00,0.000000000000000000e+00,0.000000000000000000e+00,0.000000000000000000e+00
-8.066509058415974154e+55,1.021253617011147234e+56,4.292728762190246481e+55,8.753782014982748323e+54,5.135244372629917738e+55,1.434588369048742552e+55,-4.386859703123611055e+55
3.545385246459677089e+56,-4.488605269546315460e+56,-1.886736518896446876e+56,-3.847454875695430912e+55,-2.257038268207486455e+56,-6.305290679691913313e+55,1.928108870530061748e+56
2.425146976599576115e+53,-3.070336999190466752e+53,-1.290582841176655466e+53,-2.631771418554127664e+52,-1.543880044539238088e+53,-4.313002837619909993e+52,1.318882737098899030e+53
3.042335651479848456e+54,-3.851723546996031281e+54,-1.619030197668794659e+54,-3.301545057050348428e+53,-1.936790366287791580e+54,-5.410642086618293488e+53,1.654532286048667073e+54
7.769263751354646214e+52,-9.836211240978815739e+52,-4.134544661756150145e+52,-8.431211172485448676e+51,-4.946014151809265905e+52,-1.381724774998829197e+52,4.225206942301530512e+52
3.610516738358360760e+55,-4.571064448853211286e+55,-1.921397340148005585e+55,-3.918135622256651105e+54,-2.298501821379195659e+55,-6.421123786752220224e+54,1.963529734145971546e+55
0.000000000000000000e+00,0.000000000000000000e+00,0.000000000000000000e+00,0.000000000000000000e+00,0.000000000000000000e+00,0.000000000000000000e+00,0.000000000000000000e+00
6.809839236403886015e+56,-8.621539876888915255e+56,-3.623970734341813029e+56,-7.390042929458038361e+55,-4.335232051933578229e+56,-1.211095914340322278e+56,3.703437151634045266e+56
1.288819578204602209e+55,-1.631699222531708360e+55,-6.858670625133132817e+54,-1.398628026391947223e+54,-8.204792728033094701e+54,-2.292101283597519756e+54,7.009067530053449366e+54
1.219221648330767600e+56,-1.543585346869488470e+56,-6.488293510082848002e+55,-1.323100297804825173e+55,-7.761723272407288315e+55,-2.168324839557328482e+55,6.630568786949941491e+55
1.218317438500032622e+56,-1.542440579593473357e+56,-6.483481605057586732e+55,-1.322119048580813019e+55,-7.755966955255305464e+55,-2.166716747510375193e+55,6.625651366488508030e+55
1.091899278994532898e+56,-1.382389928542403259e+56,-5.810726060568087416e+55,-1.184929961823155283e+55,-6.951172542334471937e+55,-1.941888361464092872e+55,5.938143640827277633e+55
-8.837752234229400711e+54,1.118896212735113956e+55,4.703158818052274310e+54,9.590735719828586012e+53,5.626227789352548714e+54,1.571750117919004811e+54,-4.806289667781628765e+54
-8.431188952756329018e+55,1.067423609315037953e+56,4.486799314902766902e+55,9.149532924971720172e+54,5.367404327036554443e+55,1.499444867821376646e+55,-4.585185834221421147e+55
1.125005059280119396e+56,-1.424303224140028470e+56,-5.986904050572841416e+55,-1.220856380792904916e+55,-7.161928236875851150e+55,-2.000765339103427503e+55,6.118184861166302856e+55
-1.236607072934771870e+54,1.565596017943601985e+54,6.580812977550198941e+53,1.341966974345965441e+53,7.872401142123845073e+53,2.199243949357188466e+53,-6.725117020968783290e+53
1.016670345226915532e+53,-1.287146967606317400e+53,-5.410382609151009503e+52,-1.103291463353419956e+52,-6.472255384997763068e+52,-1.808097458091384316e+52,5.529021459640324705e+52
-5.553248383539162758e+54,7.030643561893362079e+54,2.955254731256228796e+54,6.026389541314553457e+53,3.535270004021494819e+54,9.876175039005555951e+53,-3.020057546426176533e+54
-6.012150018715142394e+54,7.611632130035912452e+54,3.199466971528962497e+54,6.524389959036580346e+53,3.827412741674463612e+54,1.069230868937821108e+54,-3.269624871829559293e+54
1.471459137727326186e+55,-1.862928505758385824e+55,-7.830617826331602514e+54,-1.596828620948565319e+54,-9.367499871193297590e+54,-2.616916623073425195e+54,8.002327586001136961e+54
6.994900955986272707e+55,-8.855835715553635012e+55,-3.722454447764641156e+55,-7.590872054028585280e+54,-4.453044744784041517e+55,-1.244008217363408529e+55,3.804080415572330837e+55
-1.053496719507681354e+57,1.333770690041065262e+57,5.606360367233947243e+56,1.143255473871694040e+56,6.706696863857807192e+56,1.873591326423808898e+56,-5.729296617301143406e+56
1.558933033216187795e+55,-1.973674097829410515e+55,-8.296124905523569829e+54,-1.691755361570272030e+54,-9.924370044285771078e+54,-2.772484579614406963e+54,8.478042302759532381e+54
1.894215834113130346e+53,-2.398156077156510549e+53,-1.008038884480013211e+53,-2.055604522486103042e+52,-1.205882387564811329e+53,-3.368768304117279599e+52,1.030143157531064399e+53
-1.161278297774431738e+56,1.470226653649322150e+56,6.179938203332964804e+55,1.260220127917865715e+55,7.392848381520872140e+55,2.065275483051483973e+55,-6.315451866137271237e+55
-7.574896711213837089e+55,9.590134479229201687e+55,4.031108965150448043e+55,8.220283906678808989e+54,4.822277571104884369e+55,1.347157567165352859e+55,-4.119503108110681004e+55
0.000000000000000000e+00,0.000000000000000000e+00,0.000000000000000000e+00,0.000000000000000000e+00,0.000000000000000000e+00,0.000000000000000000e+00,0.000000000000000000e+00
-3.721255117684435389e+55,4.711263845655121926e+55,1.980328635280614749e+55,4.038308999152765436e+54,2.368999311080156072e+55,6.618066466464142697e+54,-2.023753274507330131e+55
-1.372296713732445890e+52,1.737384750159224690e+52,7.302908272507230473e+51,1.489217479939937669e+51,8.736219008418642116e+51,2.440561202060015866e+51,-7.463046418970223173e+51
7.652723599741148039e+54,-9.688666559009508229e+54,-4.072525855707881253e+54,-8.304741707710046107e+53,-4.871823178560957830e+54,-1.360998690787974079e+54,4.161828188096019918e+54
2.489033861106018578e+55,-3.151220453742234513e+55,-1.324581323625689808e+55,-2.701101516188162679e+54,-1.584551264489619035e+55,-4.426622472562331617e+54,1.353626738149395650e+55
-1.259496205670080646e+55,1.594574612558571852e+55,6.702621355527431152e+54,1.366806279307498731e+54,8.018116332204437990e+54,2.239951129330454857e+54,-6.849596412622342281e+54
0.000000000000000000e+00,0.000000000000000000e+00,0.000000000000000000e+00,0.000000000000000000e+00,0.000000000000000000e+00,0.000000000000000000e+00,0.000000000000000000e+00
-3.670478901367756879e+56,4.646979042655432394e+56,1.953307215898411943e+56,3.983206609015600155e+55,2.336674512680330520e+56,6.527763500429276669e+55,-1.996139329537625505e+56
-1.563057483398830605e+56,1.978895823406983410e+56,8.318073862375933949e+55,1.696231218173050971e+55,9.950626829516175439e+55,2.779819708376911433e+55,-8.500472556259214215e+55
-1.295226627527616891e+55,1.639810813615422765e+55,6.892766818059337801e+54,1.405580961388578970e+54,8.245580835680292877e+54,2.303495900986723837e+54,-7.043911384176106386e+54
-1.517936206196530149e+56,1.921770408666469932e+56,8.077953380231320997e+55,1.647265572438797156e+55,9.663378921950460815e+55,2.699573769269572731e+55,-8.255086713041540590e+55
6.233651268325301838e+55,-7.892061930211805835e+55,-3.317342595070299661e+55,-6.764763290435825618e+54,-3.968423312338156184e+55,-1.108623760474832917e+55,3.390085271622028052e+55
8.735865369214325867e+55,-1.105996911603850302e+56,-4.648938005458841885e+55,-9.480168013268905520e+54,-5.561365288557649431e+55,-1.553630047582387767e+55,4.750879901403709176e+55
8.343858316059181687e+54,-1.056367187267163758e+55,-4.440324844564308751e+54,-9.054761648904169219e+53,-5.311808510133662673e+54,-1.483913550028255963e+54,4.537692271863724679e+54
1.125102892985473839e+56,-1.424427085682531283e+56,-5.987424689126453014e+55,-1.220962550007392947e+55,-7.162551058943287902e+55,-2.000939331464666133e+55,6.118716916280255090e+55
-8.900435384935976228e+53,1.126832160481674447e+54,4.736516713269922119e+53,9.658759524590222574e+52,5.666132696741058658e+53,1.582898003365829657e+53,-4.840379034806219856e+53
0.000000000000000000e+00,0.000000000000000000e+00,0.000000000000000000e+00,0.000000000000000000e+00,0.000000000000000000e+00,0.000000000000000000e+00,0.000000000000000000e+00
-7.053620122581861059e+55,8.930176624166463648e+55,3.753702842021848939e+55,7.654594140095414716e+54,4.490426128433630233e+55,1.254451128023798080e+55,-3.836014024506970559e+55
-7.053620122581861059e+55,8.930176624166463648e+55,3.753702842021848939e+55,7.654594140095414716e+54,4.490426128433630233e+55,1.254451128023798080e+55,-3.836014024506970559e+55
2.394267588698532623e+55,-3.031242409006964358e+55,-1.274149854411043261e+55,-2.598261082362317411e+54,-1.524221825376435024e+55,-4.258085387697792318e+54,1.302089407858308043e+55
-1.212523259052650636e+56,1.535104907277979484e+56,6.452646902478138716e+55,1.315831200458313901e+55,7.719080456788992859e+55,2.156412088601297928e+55,-6.594140520661255534e+55
6.786252837844439716e+53,-8.591678514722567646e+53,-3.611418834782822568e+53,-7.364446951072242303e+52,-4.320216644451114394e+53,-1.206901191096825116e+53,3.690610014066467856e+53
-9.724248909672016725e+56,1.231130381160124267e+57,5.174922966421786744e+56,1.055276261369727506e+56,6.190583079968907436e+56,1.729409126367462717e+56,-5.288398658708114874e+56
-2.785548983546316571e+56,3.526620938757151213e+56,1.482376844005825878e+56,3.022879961757527094e+55,1.773316640302663096e+56,4.953959816163415578e+55,-1.514882398135667439e+56
4.355544619266332798e+55,-5.514300751746328493e+55,-2.317876484948634522e+55,-4.726640468321200343e+54,-2.772796241081531943e+55,-7.746118682099784973e+54,2.368702872214765012e+55
-4.016832330443879276e+56,5.085476897981294548e+56,2.137625031214949299e+56,4.359069624394093856e+55,2.557167601415980510e+56,7.143735784517090520e+55,-2.184498865248738871e+56
-8.577747543733162536e+55,1.085978536862412277e+56,4.564792939440500033e+55,9.308578423903591068e+54,5.460705428432968156e+55,1.525509581624701444e+55,-4.664889702678877284e+55
1.539776803951046524e+56,-1.949421514359104165e+56,-8.194181802570253329e+55,-1.670967006409231439e+55,-9.802419002239884953e+55,-2.738416182121029864e+55,8.373863791809529880e+55
1.285059924075347736e+55,-1.626939343939359591e+55,-6.838662991967827706e+54,-1.394548046755044771e+54,-8.180858281830315246e+54,-2.285414926405809994e+54,6.988621169579703139e+54
-1.054654341446083406e+57,1.335236287591583294e+57,5.612520847504574390e+56,1.144511726115526895e+56,6.714066435380955849e+56,1.875650099254237472e+56,-5.735592184561096090e+56
0.000000000000000000e+00,0.000000000000000000e+00,0.000000000000000000e+00,0.000000000000000000e+00,0.000000000000000000e+00,0.000000000000000000e+00,0.000000000000000000e+00
2.482175432286524332e+56,-3.142537397431010654e+56,-1.320931495125694674e+56,-2.693658743804674845e+55,-1.580185099678380804e+56,-4.414425099270934740e+55,1.349896876223115265e+56
-1.279169707958509508e+56,1.619482085203597346e+56,6.807317214064207873e+55,1.388155979562838698e+55,8.143360401460357159e+55,2.274939471074135177e+55,-6.956588041570401351e+55
3.907005782519775391e+56,-4.946431917681768152e+56,-2.079178982532466460e+56,-4.239885767657130209e+55,-2.487250595421397680e+56,-6.948414751436104129e+55,2.124771211819928342e+56
