2.806838101123112313e+144,-1.523082042674424959e+144,-2.734137205735030348e+144,2.116814089639915239e+144,2.113937147349410692e+144,-5.537964249976228374e+143,-1.624398849260168421e+144
-2.365240570554029142e+139,1.283456797231704443e+139,2.303977647259644076e+139,-1.783777469435579334e+139,-1.781353154110193189e+139,4.666680888035376363e+138,1.368833513943324352e+139
-7.212489537048477809e+143,3.913732428122639114e+143,7.025676322880250285e+143,-5.439394408710511713e+143,-5.432001778490524781e+143,1.423042860702214091e+143,4.174077478709791966e+143
-2.365240570554029142e+139,1.283456797231704443e+139,2.303977647259644076e+139,-1.783777469435579334e+139,-1.781353154110193189e+139,4.666680888035376363e+138,1.368833513943324352e+139
-2.365240570554029142e+139,1.283456797231704443e+139,2.303977647259644076e+139,-1.783777469435579334e+139,-1.781353154110193189e+139,4.666680888035376363e+138,1.368833513943324352e+139
-2.365240570554029142e+139,1.283456797231704443e+139,2.303977647259644076e+139,-1.783777469435579334e+139,-1.781353154110193189e+139,4.666680888035376363e+138,1.368833513943324352e+139
-2.365240570554029142e+139,1.283456797231704443e+139,2.303977647259644076e+139,-1.783777469435579334e+139,-1.781353154110193189e+139,4.666680888035376363e+138,1.368833513943324352e+139
-2.365240570554029142e+139,1.283456797231704443e+139,2.303977647259644076e+139,-1.783777469435579334e+139,-1.781353154110193189e+139,4.666680888035376363e+138,1.368833513943324352e+139
-2.365240570554029142e+139,1.283456797231704443e+139,2.303977647259644076e+139,-1.783777469435579334e+139,-1.781353154110193189e+139,4.666680888035376363e+138,1.368833513943324352e+139
2.016520183284280396e+139,-1.094229723695673710e+139,-1.964289588710475131e+139,1.520785375655061815e+139,1.518718490431991620e+139,-3.978646534659288326e+138,-1.167018882893631129e+139
2.016520183284280396e+139,-1.094229723695673710e+139,-1.964289588710475131e+139,1.520785375655061815e+139,1.518718490431991620e+139,-3.978646534659288326e+138,-1.167018882893631129e+139
-1.618841749873581789e+140,8.784364150455257564e+139,1.576911563497223429e+140,-1.220870923641296476e+140,-1.219211649353321559e+140,3.194016688593843053e+139,9.368708065406481955e+139
-1.179226401939125374e+139,6.398867666511152367e+138,1.148682846451326279e+139,-8.893291926959786887e+138,-8.881205136829823860e+138,2.326644224315419150e+138,6.824526179689938818e+138
-1.364724160916060897e+143,7.405439101968362278e+142,1.329375963092803699e+143,-1.029224781843736102e+143,-1.027825972039974276e+143,2.692636105804539141e+142,7.898055665065116555e+142
-8.774861188984044367e+143,4.761526323358162110e+143,8.547580440197694028e+143,-6.617677660868108331e+143,-6.608683636867287332e+143,1.731302833022433222e+143,5.078267397075710958e+143
-1.179226401939125374e+139,6.398867666511152367e+138,1.148682846451326279e+139,-8.893291926959786887e+138,-8.881205136829823860e+138,2.326644224315419150e+138,6.824526179689938818e+138
1.314743384841864876e+141,-7.134227084120456726e+140,-1.280689756580907135e+141,9.915311183001767652e+140,9.901835376030995540e+140,-2.594022740475525135e+140,-7.608802376433426209e+140
-7.193001650004220868e+143,3.903157664015335320e+143,7.006693198414492813e+143,-5.424697360862940379e+143,-5.417324705263636391e+143,1.419197850129089871e+143,4.162799271649496951e+143
-1.179226401939125374e+139,6.398867666511152367e+138,1.148682846451326279e+139,-8.893291926959786887e+138,-8.881205136829823860e+138,2.326644224315419150e+138,6.824526179689938818e+138
4.079777506580296685e+138,-2.213820546290975620e+138,-3.974105762422259377e+138,3.076818183802452306e+138,3.072636508899507842e+138,-8.049506656709863416e+137,-2.361085908115933796e+138
4.079777506580296685e+138,-2.213820546290975620e+138,-3.974105762422259377e+138,3.076818183802452306e+138,3.072636508899507842e+138,-8.049506656709863416e+137,-2.361085908115933796e+138
4.079777506580296685e+138,-2.213820546290975620e+138,-3.974105762422259377e+138,3.076818183802452306e+138,3.072636508899507842e+138,-8.049506656709863416e+137,-2.361085908115933796e+138
4.079777506580296685e+138,-2.213820546290975620e+138,-3.974105762422259377e+138,3.076818183802452306e+138,3.072636508899507842e+138,-8.049506656709863416e+137,-2.361085908115933796e+138
4.079777506580296685e+138,-2.213820546290975620e+138,-3.974105762422259377e+138,3.076818183802452306e+138,3.072636508899507842e+138,-8.049506656709863416e+137,-2.361085908115933796e+138
4.079777506580296685e+138,-2.213820546290975620e+138,-3.974105762422259377e+138,3.076818183802452306e+138,3.072636508899507842e+138,-8.049506656709863416e+137,-2.361085908115933796e+138
4.079777506580296685e+138,-2.213820546290975620e+138,-3.974105762422259377e+138,3.076818183802452306e+138,3.072636508899507842e+138,-8.049506656709863416e+137,-2.361085908115933796e+138
-1.367700451137706433e+143,7.421589424954792099e+142,1.332275163380418748e+143,-1.031469390491992687e+143,-1.030067530061547535e+143,2.698508403475868831e+142,7.915280322266290702e+142
4.079777506580296685e+138,-2.213820546290975620e+138,-3.974105762422259377e+138,3.076818183802452306e+138,3.072636508899507842e+138,-8.049506656709863416e+137,-2.361085908115933796e+138
4.079777506580296685e+138,-2.213820546290975620e+138,-3.974105762422259377e+138,3.076818183802452306e+138,3.072636508899507842e+138,-8.049506656709863416e+137,-2.361085908115933796e+138
4.079777506580296685e+138,-2.213820546290975620e+138,-3.974105762422259377e+138,3.076818183802452306e+138,3.072636508899507842e+138,-8.049506656709863416e+137,-2.361085908115933796e+138
-8.759633614762750451e+143,4.753263344157234163e+143,8.532747280702356592e+143,-6.606193584301748343e+143,-6.597215168202304090e+143,1.728298393200355238e+143,5.069454756962193018e+143
-8.960835468248539519e+140,4.862442042377345929e+140,8.728737734605951210e+140,-6.757932624095328915e+140,-6.748747980882121900e+140,1.767996039857781272e+140,5.185896121762107996e+140
2.815677483271856995e+141,-1.527878580178287375e+141,-2.742747635955264370e+141,2.123480426636221579e+141,2.120594424189223968e+141,-5.555404579830865211e+140,-1.629514456813502150e+141
-8.793432793734363440e+143,4.771603882761226598e+143,8.565671015317691578e+143,-6.631683682300896727e+143,-6.622670622846949319e+143,1.734967058726466268e+143,5.089015324921372399e+143
3.087530619890689321e+139,-1.675394972542476484e+139,-3.007559409397234910e+139,2.328502066351512021e+139,2.325337420905888822e+139,-6.091777857375780409e+138,-1.786843774137791165e+139
3.087530619890689321e+139,-1.675394972542476484e+139,-3.007559409397234910e+139,2.328502066351512021e+139,2.325337420905888822e+139,-6.091777857375780409e+138,-1.786843774137791165e+139
-1.820493768202009988e+140,9.878593874150931802e+139,1.773340522368270889e+140,-1.372949461206802658e+140,-1.371083498396520774e+140,3.591881342059771886e+139,1.053572694830011308e+140
-8.805970490723699453e+143,4.778407246707764627e+143,8.577883969032070124e+143,-6.641139152364540491e+143,-6.632113242069399599e+143,1.737440778805874994e+143,5.096271254842551676e+143
-1.109008229843961950e+141,6.017840927046686387e+140,1.080283419791394617e+141,-8.363732291937282616e+140,-8.352365221369232111e+140,2.188101952637516463e+140,6.418153194005898659e+140
-1.222894392734840873e+141,6.635824449283838266e+140,1.191219777343913402e+141,-9.222619857009094486e+140,-9.210085480360326921e+140,2.412802300835089682e+140,7.077245543765859395e+140
3.620295701939588726e+144,-1.964490709524445004e+144,-3.526525156714581548e+144,2.730293901690347301e+144,2.726583184707819586e+144,-7.142937158955379252e+143,-2.095170423210049207e+144
-1.820493768202009988e+140,9.878593874150931802e+139,1.773340522368270889e+140,-1.372949461206802658e+140,-1.371083498396520774e+140,3.591881342059771886e+139,1.053572694830011308e+140
-1.820493768202009988e+140,9.878593874150931802e+139,1.773340522368270889e+140,-1.372949461206802658e+140,-1.371083498396520774e+140,3.591881342059771886e+139,1.053572694830011308e+140
5.089687168054689179e+142,-2.761830518615469565e+142,-4.957857400525560434e+142,3.838454916543500388e+142,3.833238108258979374e+142,-1.004208456803090740e+142,-2.945550003605129758e+142
-1.820493768202009988e+140,9.878593874150931802e+139,1.773340522368270889e+140,-1.372949461206802658e+140,-1.371083498396520774e+140,3.591881342059771886e+139,1.053572694830011308e+140
3.619254856923673818e+144,-1.963925913018258075e+144,-3.525511270989474279e+144,2.729508934650766945e+144,2.725799284509623160e+144,-7.140883544788749757e+143,-2.094568055925155722e+144
-1.820493768202009988e+140,9.878593874150931802e+139,1.773340522368270889e+140,-1.372949461206802658e+140,-1.371083498396520774e+140,3.591881342059771886e+139,1.053572694830011308e+140
-1.369561742680974340e+143,7.431689400883571409e+142,1.334088244960411255e+143,-1.032873108135037354e+143,-1.031469339925032952e+143,2.702180779884495954e+142,7.926052157805402098e+142
-1.820493768202009988e+140,9.878593874150931802e+139,1.773340522368270889e+140,-1.372949461206802658e+140,-1.371083498396520774e+140,3.591881342059771886e+139,1.053572694830011308e+140
2.736644342633062444e+144,-1.484992616347612209e+144,-2.665761560334880494e+144,2.063876537980963371e+144,2.061071542623290269e+144,-5.399470146973344724e+143,-1.583775679555133316e+144
-1.820493768202009988e+140,9.878593874150931802e+139,1.773340522368270889e+140,-1.372949461206802658e+140,-1.371083498396520774e+140,3.591881342059771886e+139,1.053572694830011308e+140
-1.820493768202009988e+140,9.878593874150931802e+139,1.773340522368270889e+140,-1.372949461206802658e+140,-1.371083498396520774e+140,3.591881342059771886e+139,1.053572694830011308e+140
3.484848112697173005e+144,-1.890992423030429422e+144,-3.394585842855823051e+144,2.628144310233191411e+144,2.624572423807895789e+144,-6.875695558283854302e+143,-2.016782963665301150e+144
3.620295701939588726e+144,-1.964490709524445004e+144,-3.526525156714581548e+144,2.730293901690347301e+144,2.726583184707819586e+144,-7.142937158955379252e+143,-2.095170423210049207e+144
3.620295701939588726e+144,-1.964490709524445004e+144,-3.526525156714581548e+144,2.730293901690347301e+144,2.726583184707819586e+144,-7.142937158955379252e+143,-2.095170423210049207e+144
3.135010636905289063e+140,-1.701159180770899179e+140,-3.053809629884328399e+140,2.364309749364156955e+140,2.361096438030452813e+140,-6.185457160328765332e+139,-1.814321840995471701e+140
3.135010636905289063e+140,-1.701159180770899179e+140,-3.053809629884328399e+140,2.364309749364156955e+140,2.361096438030452813e+140,-6.185457160328765332e+139,-1.814321840995471701e+140
3.135010636905289063e+140,-1.701159180770899179e+140,-3.053809629884328399e+140,2.364309749364156955e+140,2.361096438030452813e+140,-6.185457160328765332e+139,-1.814321840995471701e+140
3.135010636905289063e+140,-1.701159180770899179e+140,-3.053809629884328399e+140,2.364309749364156955e+140,2.361096438030452813e+140,-6.185457160328765332e+139,-1.814321840995471701e+140
3.135010636905289063e+140,-1.701159180770899179e+140,-3.053809629884328399e+140,2.364309749364156955e+140,2.361096438030452813e+140,-6.185457160328765332e+139,-1.814321840995471701e+140
3.135010636905289063e+140,-1.701159180770899179e+140,-3.053809629884328399e+140,2.364309749364156955e+140,2.361096438030452813e+140,-6.185457160328765332e+139,-1.814321840995471701e+140
3.135010636905289063e+140,-1.701159180770899179e+140,-3.053809629884328399e+140,2.364309749364156955e+140,2.361096438030452813e+140,-6.185457160328765332e+139,-1.814321840995471701e+140
3.135010636905289063e+140,-1.701159180770899179e+140,-3.053809629884328399e+140,2.364309749364156955e+140,2.361096438030452813e+140,-6.185457160328765332e+139,-1.814321840995471701e+140
3.135010636905289063e+140,-1.701159180770899179e+140,-3.053809629884328399e+140,2.364309749364156955e+140,2.361096438030452813e+140,-6.185457160328765332e+139,-1.814321840995471701e+140
3.135010636905289063e+140,-1.701159180770899179e+140,-3.053809629884328399e+140,2.364309749364156955e+140,2.361096438030452813e+140,-6.185457160328765332e+139,-1.814321840995471701e+140
3.135010636905289063e+140,-1.701159180770899179e+140,-3.053809629884328399e+140,2.364309749364156955e+140,2.361096438030452813e+140,-6.185457160328765332e+139,-1.814321840995471701e+140
3.135010636905289063e+140,-1.701159180770899179e+140,-3.053809629884328399e+140,2.364309749364156955e+140,2.361096438030452813e+140,-6.185457160328765332e+139,-1.814321840995471701e+140
3.135010636905289063e+140,-1.701159180770899179e+140,-3.053809629884328399e+140,2.364309749364156955e+140,2.361096438030452813e+140,-6.185457160328765332e+139,-1.814321840995471701e+140
3.135010636905289063e+140,-1.701159180770899179e+140,-3.053809629884328399e+140,2.364309749364156955e+140,2.361096438030452813e+140,-6.185457160328765332e+139,-1.814321840995471701e+140
3.135010636905289063e+140,-1.701159180770899179e+140,-3.053809629884328399e+140,2.364309749364156955e+140,2.361096438030452813e+140,-6.185457160328765332e+139,-1.814321840995471701e+140
3.135010636905289063e+140,-1.701159180770899179e+140,-3.053809629884328399e+140,2.364309749364156955e+140,2.361096438030452813e+140,-6.185457160328765332e+139,-1.814321840995471701e+140
3.135010636905289063e+140,-1.701159180770899179e+140,-3.053809629884328399e+140,2.364309749364156955e+140,2.361096438030452813e+140,-6.185457160328765332e+139,-1.814321840995471701e+140
3.135010636905289063e+140,-1.701159180770899179e+140,-3.053809629884328399e+140,2.364309749364156955e+140,2.361096438030452813e+140,-6.185457160328765332e+139,-1.814321840995471701e+140
3.135010636905289063e+140,-1.701159180770899179e+140,-3.053809629884328399e+140,2.364309749364156955e+140,2.361096438030452813e+140,-6.185457160328765332e+139,-1.814321840995471701e+140
3.135010636905289063e+140,-1.701159180770899179e+140,-3.053809629884328399e+140,2.364309749364156955e+140,2.361096438030452813e+140,-6.185457160328765332e+139,-1.814321840995471701e+140
3.135010636905289063e+140,-1.701159180770899179e+140,-3.053809629884328399e+140,2.364309749364156955e+140,2.361096438030452813e+140,-6.185457160328765332e+139,-1.814321840995471701e+140
3.135010636905289063e+140,-1.701159180770899179e+140,-3.053809629884328399e+140,2.364309749364156955e+140,2.361096438030452813e+140,-6.185457160328765332e+139,-1.814321840995471701e+140
3.135010636905289063e+140,-1.701159180770899179e+140,-3.053809629884328399e+140,2.364309749364156955e+140,2.361096438030452813e+140,-6.185457160328765332e+139,-1.814321840995471701e+140
-7.206543513827572954e+143,3.910505921688420561e+143,7.019884309686496236e+143,-5.434910136630015835e+143,-5.427523600942399595e+143,1.421869694924903139e+143,4.170636342124876146e+143
3.135010636905289063e+140,-1.701159180770899179e+140,-3.053809629884328399e+140,2.364309749364156955e+140,2.361096438030452813e+140,-6.185457160328765332e+139,-1.814321840995471701e+140
3.135010636905289063e+140,-1.701159180770899179e+140,-3.053809629884328399e+140,2.364309749364156955e+140,2.361096438030452813e+140,-6.185457160328765332e+139,-1.814321840995471701e+140
3.135010636905289063e+140,-1.701159180770899179e+140,-3.053809629884328399e+140,2.364309749364156955e+140,2.361096438030452813e+140,-6.185457160328765332e+139,-1.814321840995471701e+140
3.135010636905289063e+140,-1.701159180770899179e+140,-3.053809629884328399e+140,2.364309749364156955e+140,2.361096438030452813e+140,-6.185457160328765332e+139,-1.814321840995471701e+140
3.135010636905289063e+140,-1.701159180770899179e+140,-3.053809629884328399e+140,2.364309749364156955e+140,2.361096438030452813e+140,-6.185457160328765332e+139,-1.814321840995471701e+140
-6.386346941304408330e+140,3.465440468652661429e+140,6.220931935462162385e+140,-4.816348039907504269e+140,-4.809802186197827228e+140,1.260042787460195457e+140,3.695964729236500064e+140
-6.386346941304408330e+140,3.465440468652661429e+140,6.220931935462162385e+140,-4.816348039907504269e+140,-4.809802186197827228e+140,1.260042787460195457e+140,3.695964729236500064e+140
-6.386346941304408330e+140,3.465440468652661429e+140,6.220931935462162385e+140,-4.816348039907504269e+140,-4.809802186197827228e+140,1.260042787460195457e+140,3.695964729236500064e+140
-6.386346941304408330e+140,3.465440468652661429e+140,6.220931935462162385e+140,-4.816348039907504269e+140,-4.809802186197827228e+140,1.260042787460195457e+140,3.695964729236500064e+140
-6.386346941304408330e+140,3.465440468652661429e+140,6.220931935462162385e+140,-4.816348039907504269e+140,-4.809802186197827228e+140,1.260042787460195457e+140,3.695964729236500064e+140
-6.386346941304408330e+140,3.465440468652661429e+140,6.220931935462162385e+140,-4.816348039907504269e+140,-4.809802186197827228e+140,1.260042787460195457e+140,3.695964729236500064e+140
-6.386346941304408330e+140,3.465440468652661429e+140,6.220931935462162385e+140,-4.816348039907504269e+140,-4.809802186197827228e+140,1.260042787460195457e+140,3.695964729236500064e+140
-9.548402092124183875e+141,5.181274886118318997e+141,9.301085589848808295e+141,-7.201053767250827686e+141,-7.191266882223634722e+141,1.883924456113931020e+141,5.525938017056832585e+141
-6.386346941304408330e+140,3.465440468652661429e+140,6.220931935462162385e+140,-4.816348039907504269e+140,-4.809802186197827228e+140,1.260042787460195457e+140,3.695964729236500064e+140
-6.386346941304408330e+140,3.465440468652661429e+140,6.220931935462162385e+140,-4.816348039907504269e+140,-4.809802186197827228e+140,1.260042787460195457e+140,3.695964729236500064e+140
-1.377664260420425698e+143,7.475656308930279780e+142,1.341980896553922301e+143,-1.038983729088046832e+143,-1.037571655990085439e+143,2.718167257180041591e+142,7.972943784674814307e+142
-6.386346941304408330e+140,3.465440468652661429e+140,6.220931935462162385e+140,-4.816348039907504269e+140,-4.809802186197827228e+140,1.260042787460195457e+140,3.695964729236500064e+140
-6.386346941304408330e+140,3.465440468652661429e+140,6.220931935462162385e+140,-4.816348039907504269e+140,-4.809802186197827228e+140,1.260042787460195457e+140,3.695964729236500064e+140
-6.386346941304408330e+140,3.465440468652661429e+140,6.220931935462162385e+140,-4.816348039907504269e+140,-4.809802186197827228e+140,1.260042787460195457e+140,3.695964729236500064e+140
-6.386346941304408330e+140,3.465440468652661429e+140,6.220931935462162385e+140,-4.816348039907504269e+140,-4.809802186197827228e+140,1.260042787460195457e+140,3.695964729236500064e+140
-6.386346941304408330e+140,3.465440468652661429e+140,6.220931935462162385e+140,-4.816348039907504269e+140,-4.809802186197827228e+140,1.260042787460195457e+140,3.695964729236500064e+140
-6.386346941304408330e+140,3.465440468652661429e+140,6.220931935462162385e+140,-4.816348039907504269e+140,-4.809802186197827228e+140,1.260042787460195457e+140,3.695964729236500064e+140
-6.386346941304408330e+140,3.465440468652661429e+140,6.220931935462162385e+140,-4.816348039907504269e+140,-4.809802186197827228e+140,1.260042787460195457e+140,3.695964729236500064e+140
-6.386346941304408330e+140,3.465440468652661429e+140,6.220931935462162385e+140,-4.816348039907504269e+140,-4.809802186197827228e+140,1.260042787460195457e+140,3.695964729236500064e+140
-6.386346941304408330e+140,3.465440468652661429e+140,6.220931935462162385e+140,-4.816348039907504269e+140,-4.809802186197827228e+140,1.260042787460195457e+140,3.695964729236500064e+140
-6.386346941304408330e+140,3.465440468652661429e+140,6.220931935462162385e+140,-4.816348039907504269e+140,-4.809802186197827228e+140,1.260042787460195457e+140,3.695964729236500064e+140
-6.386346941304408330e+140,3.465440468652661429e+140,6.220931935462162385e+140,-4.816348039907504269e+140,-4.809802186197827228e+140,1.260042787460195457e+140,3.695964729236500064e+140
-6.386346941304408330e+140,3.465440468652661429e+140,6.220931935462162385e+140,-4.816348039907504269e+140,-4.809802186197827228e+140,1.260042787460195457e+140,3.695964729236500064e+140
1.326535648861256121e+141,-7.198215760785568580e+140,-1.292176585045420390e+141,1.000424410227136623e+141,9.990647427399293937e+140,-2.617289182718679201e+140,-7.677047638230325505e+140
1.326535648861256121e+141,-7.198215760785568580e+140,-1.292176585045420390e+141,1.000424410227136623e+141,9.990647427399293937e+140,-2.617289182718679201e+140,-7.677047638230325505e+140
1.326535648861256121e+141,-7.198215760785568580e+140,-1.292176585045420390e+141,1.000424410227136623e+141,9.990647427399293937e+140,-2.617289182718679201e+140,-7.677047638230325505e+140
1.326535648861256121e+141,-7.198215760785568580e+140,-1.292176585045420390e+141,1.000424410227136623e+141,9.990647427399293937e+140,-2.617289182718679201e+140,-7.677047638230325505e+140
1.326535648861256121e+141,-7.198215760785568580e+140,-1.292176585045420390e+141,1.000424410227136623e+141,9.990647427399293937e+140,-2.617289182718679201e+140,-7.677047638230325505e+140
1.772264944687574356e+141,-9.616888523190815740e+140,-1.726360890480264214e+141,1.336577055865266073e+141,1.334760526451941665e+141,-3.496724624493934308e+140,-1.025661271870868708e+141
1.772264944687574356e+141,-9.616888523190815740e+140,-1.726360890480264214e+141,1.336577055865266073e+141,1.334760526451941665e+141,-3.496724624493934308e+140,-1.025661271870868708e+141
1.326535648861256121e+141,-7.198215760785568580e+140,-1.292176585045420390e+141,1.000424410227136623e+141,9.990647427399293937e+140,-2.617289182718679201e+140,-7.677047638230325505e+140
1.326535648861256121e+141,-7.198215760785568580e+140,-1.292176585045420390e+141,1.000424410227136623e+141,9.990647427399293937e+140,-2.617289182718679201e+140,-7.677047638230325505e+140
1.772264944687574356e+141,-9.616888523190815740e+140,-1.726360890480264214e+141,1.336577055865266073e+141,1.334760526451941665e+141,-3.496724624493934308e+140,-1.025661271870868708e+141
1.326535648861256121e+141,-7.198215760785568580e+140,-1.292176585045420390e+141,1.000424410227136623e+141,9.990647427399293937e+140,-2.617289182718679201e+140,-7.677047638230325505e+140
1.326535648861256121e+141,-7.198215760785568580e+140,-1.292176585045420390e+141,1.000424410227136623e+141,9.990647427399293937e+140,-2.617289182718679201e+140,-7.677047638230325505e+140
1.326535648861256121e+141,-7.198215760785568580e+140,-1.292176585045420390e+141,1.000424410227136623e+141,9.990647427399293937e+140,-2.617289182718679201e+140,-7.677047638230325505e+140
1.326535648861256121e+141,-7.198215760785568580e+140,-1.292176585045420390e+141,1.000424410227136623e+141,9.990647427399293937e+140,-2.617289182718679201e+140,-7.677047638230325505e+140
1.326535648861256121e+141,-7.198215760785568580e+140,-1.292176585045420390e+141,1.000424410227136623e+141,9.990647427399293937e+140,-2.617289182718679201e+140,-7.677047638230325505e+140
-8.372050010202618966e+143,4.542947819402049347e+143,8.155202614646733510e+143,-6.313892281024575552e+143,-6.305311128900783789e+143,1.651827144464204093e+143,4.845148851684774262e+143
1.326535648861256121e+141,-7.198215760785568580e+140,-1.292176585045420390e+141,1.000424410227136623e+141,9.990647427399293937e+140,-2.617289182718679201e+140,-7.677047638230325505e+140
1.326535648861256121e+141,-7.198215760785568580e+140,-1.292176585045420390e+141,1.000424410227136623e+141,9.990647427399293937e+140,-2.617289182718679201e+140,-7.677047638230325505e+140
1.326535648861256121e+141,-7.198215760785568580e+140,-1.292176585045420390e+141,1.000424410227136623e+141,9.990647427399293937e+140,-2.617289182718679201e+140,-7.677047638230325505e+140
1.326535648861256121e+141,-7.198215760785568580e+140,-1.292176585045420390e+141,1.000424410227136623e+141,9.990647427399293937e+140,-2.617289182718679201e+140,-7.677047638230325505e+140
1.326535648861256121e+141,-7.198215760785568580e+140,-1.292176585045420390e+141,1.000424410227136623e+141,9.990647427399293937e+140,-2.617289182718679201e+140,-7.677047638230325505e+140
1.326535648861256121e+141,-7.198215760785568580e+140,-1.292176585045420390e+141,1.000424410227136623e+141,9.990647427399293937e+140,-2.617289182718679201e+140,-7.677047638230325505e+140
1.326535648861256121e+141,-7.198215760785568580e+140,-1.292176585045420390e+141,1.000424410227136623e+141,9.990647427399293937e+140,-2.617289182718679201e+140,-7.677047638230325505e+140
1.326535648861256121e+141,-7.198215760785568580e+140,-1.292176585045420390e+141,1.000424410227136623e+141,9.990647427399293937e+140,-2.617289182718679201e+140,-7.677047638230325505e+140
1.326535648861256121e+141,-7.198215760785568580e+140,-1.292176585045420390e+141,1.000424410227136623e+141,9.990647427399293937e+140,-2.617289182718679201e+140,-7.677047638230325505e+140
1.326535648861256121e+141,-7.198215760785568580e+140,-1.292176585045420390e+141,1.000424410227136623e+141,9.990647427399293937e+140,-2.617289182718679201e+140,-7.677047638230325505e+140
1.326535648861256121e+141,-7.198215760785568580e+140,-1.292176585045420390e+141,1.000424410227136623e+141,9.990647427399293937e+140,-2.617289182718679201e+140,-7.677047638230325505e+140
1.326535648861256121e+141,-7.198215760785568580e+140,-1.292176585045420390e+141,1.000424410227136623e+141,9.990647427399293937e+140,-2.617289182718679201e+140,-7.677047638230325505e+140
1.326535648861256121e+141,-7.198215760785568580e+140,-1.292176585045420390e+141,1.000424410227136623e+141,9.990647427399293937e+140,-2.617289182718679201e+140,-7.677047638230325505e+140
1.326535648861256121e+141,-7.198215760785568580e+140,-1.292176585045420390e+141,1.000424410227136623e+141,9.990647427399293937e+140,-2.617289182718679201e+140,-7.677047638230325505e+140
1.326535648861256121e+141,-7.198215760785568580e+140,-1.292176585045420390e+141,1.000424410227136623e+141,9.990647427399293937e+140,-2.617289182718679201e+140,-7.677047638230325505e+140
1.326535648861256121e+141,-7.198215760785568580e+140,-1.292176585045420390e+141,1.000424410227136623e+141,9.990647427399293937e+140,-2.617289182718679201e+140,-7.677047638230325505e+140
1.326535648861256121e+141,-7.198215760785568580e+140,-1.292176585045420390e+141,1.000424410227136623e+141,9.990647427399293937e+140,-2.617289182718679201e+140,-7.677047638230325505e+140
-9.269588530237609086e+140,5.029981539631593418e+140,9.029493675545675071e+140,-6.990782830730480382e+140,-6.981281722972710703e+140,1.828913818431539063e+140,5.364580499175887350e+140
-9.269588530237609086e+140,5.029981539631593418e+140,9.029493675545675071e+140,-6.990782830730480382e+140,-6.981281722972710703e+140,1.828913818431539063e+140,5.364580499175887350e+140
-9.269588530237609086e+140,5.029981539631593418e+140,9.029493675545675071e+140,-6.990782830730480382e+140,-6.981281722972710703e+140,1.828913818431539063e+140,5.364580499175887350e+140
-9.269588530237609086e+140,5.029981539631593418e+140,9.029493675545675071e+140,-6.990782830730480382e+140,-6.981281722972710703e+140,1.828913818431539063e+140,5.364580499175887350e+140
-9.269588530237609086e+140,5.029981539631593418e+140,9.029493675545675071e+140,-6.990782830730480382e+140,-6.981281722972710703e+140,1.828913818431539063e+140,5.364580499175887350e+140
-9.269588530237609086e+140,5.029981539631593418e+140,9.029493675545675071e+140,-6.990782830730480382e+140,-6.981281722972710703e+140,1.828913818431539063e+140,5.364580499175887350e+140
-9.269588530237609086e+140,5.029981539631593418e+140,9.029493675545675071e+140,-6.990782830730480382e+140,-6.981281722972710703e+140,1.828913818431539063e+140,5.364580499175887350e+140
-9.269588530237609086e+140,5.029981539631593418e+140,9.029493675545675071e+140,-6.990782830730480382e+140,-6.981281722972710703e+140,1.828913818431539063e+140,5.364580499175887350e+140
-9.269588530237609086e+140,5.029981539631593418e+140,9.029493675545675071e+140,-6.990782830730480382e+140,-6.981281722972710703e+140,1.828913818431539063e+140,5.364580499175887350e+140
2.452959044137510558e+141,-1.331055706436053098e+141,-2.389424093978966944e+141,1.849931516841758000e+141,1.847417292167262298e+141,-4.839751707679425956e+140,-1.419598746000284300e+141
2.652114053285063889e+144,-1.439123720055911855e+144,-2.583420719576936361e+144,2.000126901897007082e+144,1.997408548075287439e+144,-5.232689697377037960e+143,-1.534855542447982633e+144
-9.269588530237609086e+140,5.029981539631593418e+140,9.029493675545675071e+140,-6.990782830730480382e+140,-6.981281722972710703e+140,1.828913818431539063e+140,5.364580499175887350e+140
-9.269588530237609086e+140,5.029981539631593418e+140,9.029493675545675071e+140,-6.990782830730480382e+140,-6.981281722972710703e+140,1.828913818431539063e+140,5.364580499175887350e+140
-9.269588530237609086e+140,5.029981539631593418e+140,9.029493675545675071e+140,-6.990782830730480382e+140,-6.981281722972710703e+140,1.828913818431539063e+140,5.364580499175887350e+140
-8.803011135326588743e+143,4.776801403798112167e+143,8.575001264934177274e+143,-6.638907315338262413e+143,-6.629884438312012022e+143,1.736856890323471372e+143,5.094558589797961733e+143
-9.269588530237609086e+140,5.029981539631593418e+140,9.029493675545675071e+140,-6.990782830730480382e+140,-6.981281722972710703e+140,1.828913818431539063e+140,5.364580499175887350e+140
-9.269588530237609086e+140,5.029981539631593418e+140,9.029493675545675071e+140,-6.990782830730480382e+140,-6.981281722972710703e+140,1.828913818431539063e+140,5.364580499175887350e+140
-9.269588530237609086e+140,5.029981539631593418e+140,9.029493675545675071e+140,-6.990782830730480382e+140,-6.981281722972710703e+140,1.828913818431539063e+140,5.364580499175887350e+140
-4.675526195257744669e+140,2.537093245670421793e+140,4.554423755942502226e+140,-3.526109939380517833e+140,-3.521317636242123518e+140,9.224934244979086762e+139,2.705863002294612853e+140
5.732923963888653651e+140,-3.110871816198323081e+140,-5.584433495128361542e+140,4.323560456421773572e+140,4.317684345721681995e+140,-1.131120742131203605e+140,-3.317809846641235234e+140
-4.675526195257744669e+140,2.537093245670421793e+140,4.554423755942502226e+140,-3.526109939380517833e+140,-3.521317636242123518e+140,9.224934244979086762e+139,2.705863002294612853e+140
5.732923963888653651e+140,-3.110871816198323081e+140,-5.584433495128361542e+140,4.323560456421773572e+140,4.317684345721681995e+140,-1.131120742131203605e+140,-3.317809846641235234e+140
5.732923963888653651e+140,-3.110871816198323081e+140,-5.584433495128361542e+140,4.323560456421773572e+140,4.317684345721681995e+140,-1.131120742131203605e+140,-3.317809846641235234e+140
5.732923963888653651e+140,-3.110871816198323081e+140,-5.584433495128361542e+140,4.323560456421773572e+140,4.317684345721681995e+140,-1.131120742131203605e+140,-3.317809846641235234e+140
-4.675526195257744669e+140,2.537093245670421793e+140,4.554423755942502226e+140,-3.526109939380517833e+140,-3.521317636242123518e+140,9.224934244979086762e+139,2.705863002294612853e+140
5.732923963888653651e+140,-3.110871816198323081e+140,-5.584433495128361542e+140,4.323560456421773572e+140,4.317684345721681995e+140,-1.131120742131203605e+140,-3.317809846641235234e+140
-8.336475001604878439e+141,4.523643657633221054e+141,8.120549046789755395e+141,-6.287062917617900155e+141,-6.278518229031683631e+141,1.644808103154790987e+141,4.824560559469058759e+141
5.732923963888653651e+140,-3.110871816198323081e+140,-5.584433495128361542e+140,4.323560456421773572e+140,4.317684345721681995e+140,-1.131120742131203605e+140,-3.317809846641235234e+140
5.732923963888653651e+140,-3.110871816198323081e+140,-5.584433495128361542e+140,4.323560456421773572e+140,4.317684345721681995e+140,-1.131120742131203605e+140,-3.317809846641235234e+140
3.953210293550137085e+141,-2.145141042019044790e+141,-3.850816811046370606e+141,2.981365845556983480e+141,2.977313899036701483e+141,-7.799786268242169681e+140,-2.287837780581996432e+141
5.732923963888653651e+140,-3.110871816198323081e+140,-5.584433495128361542e+140,4.323560456421773572e+140,4.317684345721681995e+140,-1.131120742131203605e+140,-3.317809846641235234e+140
5.732923963888653651e+140,-3.110871816198323081e+140,-5.584433495128361542e+140,4.323560456421773572e+140,4.317684345721681995e+140,-1.131120742131203605e+140,-3.317809846641235234e+140
5.732923963888653651e+140,-3.110871816198323081e+140,-5.584433495128361542e+140,4.323560456421773572e+140,4.317684345721681995e+140,-1.131120742131203605e+140,-3.317809846641235234e+140
-4.675526195257744669e+140,2.537093245670421793e+140,4.554423755942502226e+140,-3.526109939380517833e+140,-3.521317636242123518e+140,9.224934244979086762e+139,2.705863002294612853e+140
5.732923963888653651e+140,-3.110871816198323081e+140,-5.584433495128361542e+140,4.323560456421773572e+140,4.317684345721681995e+140,-1.131120742131203605e+140,-3.317809846641235234e+140
5.732923963888653651e+140,-3.110871816198323081e+140,-5.584433495128361542e+140,4.323560456421773572e+140,4.317684345721681995e+140,-1.131120742131203605e+140,-3.317809846641235234e+140
5.732923963888653651e+140,-3.110871816198323081e+140,-5.584433495128361542e+140,4.323560456421773572e+140,4.317684345721681995e+140,-1.131120742131203605e+140,-3.317809846641235234e+140
-1.040845015914639832e+141,5.647965061868745297e+140,1.013885725107086461e+141,-7.849670395802291405e+140,-7.839001981963806359e+140,2.053614166629112493e+140,6.023672848935848086e+140
-1.040845015914639832e+141,5.647965061868745297e+140,1.013885725107086461e+141,-7.849670395802291405e+140,-7.839001981963806359e+140,2.053614166629112493e+140,6.023672848935848086e+140
-1.040845015914639832e+141,5.647965061868745297e+140,1.013885725107086461e+141,-7.849670395802291405e+140,-7.839001981963806359e+140,2.053614166629112493e+140,6.023672848935848086e+140
-1.040845015914639832e+141,5.647965061868745297e+140,1.013885725107086461e+141,-7.849670395802291405e+140,-7.839001981963806359e+140,2.053614166629112493e+140,6.023672848935848086e+140
-1.040845015914639832e+141,5.647965061868745297e+140,1.013885725107086461e+141,-7.849670395802291405e+140,-7.839001981963806359e+140,2.053614166629112493e+140,6.023672848935848086e+140
-1.040845015914639832e+141,5.647965061868745297e+140,1.013885725107086461e+141,-7.849670395802291405e+140,-7.839001981963806359e+140,2.053614166629112493e+140,6.023672848935848086e+140
-1.040845015914639832e+141,5.647965061868745297e+140,1.013885725107086461e+141,-7.849670395802291405e+140,-7.839001981963806359e+140,2.053614166629112493e+140,6.023672848935848086e+140
-8.804149996955498021e+143,4.777419387320349368e+143,8.576110628509702636e+143,-6.639766202903333564e+143,-6.630742158571003721e+143,1.737081590671669032e+143,5.095217682147721707e+143
-1.040845015914639832e+141,5.647965061868745297e+140,1.013885725107086461e+141,-7.849670395802291405e+140,-7.839001981963806359e+140,2.053614166629112493e+140,6.023672848935848086e+140
-1.040845015914639832e+141,5.647965061868745297e+140,1.013885725107086461e+141,-7.849670395802291405e+140,-7.839001981963806359e+140,2.053614166629112493e+140,6.023672848935848086e+140
-1.040845015914639832e+141,5.647965061868745297e+140,1.013885725107086461e+141,-7.849670395802291405e+140,-7.839001981963806359e+140,2.053614166629112493e+140,6.023672848935848086e+140
-1.040845015914639832e+141,5.647965061868745297e+140,1.013885725107086461e+141,-7.849670395802291405e+140,-7.839001981963806359e+140,2.053614166629112493e+140,6.023672848935848086e+140
-1.040845015914639832e+141,5.647965061868745297e+140,1.013885725107086461e+141,-7.849670395802291405e+140,-7.839001981963806359e+140,2.053614166629112493e+140,6.023672848935848086e+140
-1.040845015914639832e+141,5.647965061868745297e+140,1.013885725107086461e+141,-7.849670395802291405e+140,-7.839001981963806359e+140,2.053614166629112493e+140,6.023672848935848086e+140
-1.040845015914639832e+141,5.647965061868745297e+140,1.013885725107086461e+141,-7.849670395802291405e+140,-7.839001981963806359e+140,2.053614166629112493e+140,6.023672848935848086e+140
-5.951157200883214282e+140,3.229292299463498983e+140,5.797014196722423831e+140,-4.488143939420996065e+140,-4.482044144843681955e+140,1.174178724853857387e+140,3.444107768457486513e+140
-1.040845015914639832e+141,5.647965061868745297e+140,1.013885725107086461e+141,-7.849670395802291405e+140,-7.839001981963806359e+140,2.053614166629112493e+140,6.023672848935848086e+140
-1.040845015914639832e+141,5.647965061868745297e+140,1.013885725107086461e+141,-7.849670395802291405e+140,-7.839001981963806359e+140,2.053614166629112493e+140,6.023672848935848086e+140
-1.040845015914639832e+141,5.647965061868745297e+140,1.013885725107086461e+141,-7.849670395802291405e+140,-7.839001981963806359e+140,2.053614166629112493e+140,6.023672848935848086e+140
-1.040845015914639832e+141,5.647965061868745297e+140,1.013885725107086461e+141,-7.849670395802291405e+140,-7.839001981963806359e+140,2.053614166629112493e+140,6.023672848935848086e+140
-1.040845015914639832e+141,5.647965061868745297e+140,1.013885725107086461e+141,-7.849670395802291405e+140,-7.839001981963806359e+140,2.053614166629112493e+140,6.023672848935848086e+140
-1.040845015914639832e+141,5.647965061868745297e+140,1.013885725107086461e+141,-7.849670395802291405e+140,-7.839001981963806359e+140,2.053614166629112493e+140,6.023672848935848086e+140
3.619436906300494307e+144,-1.964024698956999514e+144,-3.525688605041711548e+144,2.729646229596887638e+144,2.725936392859462575e+144,-7.141242732922955936e+143,-2.094673413194638719e+144
-1.040845015914639832e+141,5.647965061868745297e+140,1.013885725107086461e+141,-7.849670395802291405e+140,-7.839001981963806359e+140,2.053614166629112493e+140,6.023672848935848086e+140
-1.040845015914639832e+141,5.647965061868745297e+140,1.013885725107086461e+141,-7.849670395802291405e+140,-7.839001981963806359e+140,2.053614166629112493e+140,6.023672848935848086e+140
-1.040845015914639832e+141,5.647965061868745297e+140,1.013885725107086461e+141,-7.849670395802291405e+140,-7.839001981963806359e+140,2.053614166629112493e+140,6.023672848935848086e+140
-1.040845015914639832e+141,5.647965061868745297e+140,1.013885725107086461e+141,-7.849670395802291405e+140,-7.839001981963806359e+140,2.053614166629112493e+140,6.023672848935848086e+140
4.871154039259119620e+142,-2.643247304263077339e+142,-4.744984574733992459e+142,3.673645266174831808e+142,3.668652449149313188e+142,-9.610913046516726460e+141,-2.819078525681767983e+142
-1.040845015914639832e+141,5.647965061868745297e+140,1.013885725107086461e+141,-7.849670395802291405e+140,-7.839001981963806359e+140,2.053614166629112493e+140,6.023672848935848086e+140
-2.374003655965805226e+141,1.288211933633648989e+141,2.312513756931065096e+141,-1.790386266238265033e+141,-1.787952968958783548e+141,4.683970682452197330e+140,1.373904966355550293e+141
3.618103747660443133e+144,-1.963301283529552783e+144,-3.524389977009887219e+144,2.728640810370229549e+144,2.724932340088700192e+144,-7.138612376407133277e+143,-2.093901875513176484e+144
-2.374003655965805226e+141,1.288211933633648989e+141,2.312513756931065096e+141,-1.790386266238265033e+141,-1.787952968958783548e+141,4.683970682452197330e+140,1.373904966355550293e+141
-2.374003655965805226e+141,1.288211933633648989e+141,2.312513756931065096e+141,-1.790386266238265033e+141,-1.787952968958783548e+141,4.683970682452197330e+140,1.373904966355550293e+141
-2.374003655965805226e+141,1.288211933633648989e+141,2.312513756931065096e+141,-1.790386266238265033e+141,-1.787952968958783548e+141,4.683970682452197330e+140,1.373904966355550293e+141
-2.374003655965805226e+141,1.288211933633648989e+141,2.312513756931065096e+141,-1.790386266238265033e+141,-1.787952968958783548e+141,4.683970682452197330e+140,1.373904966355550293e+141
2.806838101123112313e+144,-1.523082042674424959e+144,-2.734137205735030348e+144,2.116814089639915239e+144,2.113937147349410692e+144,-5.537964249976228374e+143,-1.624398849260168421e+144
4.457292958263183193e+140,-2.418672762405246314e+140,-4.341843054348439091e+140,3.361526456381294917e+140,3.356957837120123982e+140,-8.794354417752545778e+139,-2.579565080478361574e+140
4.457292958263183193e+140,-2.418672762405246314e+140,-4.341843054348439091e+140,3.361526456381294917e+140,3.356957837120123982e+140,-8.794354417752545778e+139,-2.579565080478361574e+140
4.457292958263183193e+140,-2.418672762405246314e+140,-4.341843054348439091e+140,3.361526456381294917e+140,3.356957837120123982e+140,-8.794354417752545778e+139,-2.579565080478361574e+140
4.457292958263183193e+140,-2.418672762405246314e+140,-4.341843054348439091e+140,3.361526456381294917e+140,3.356957837120123982e+140,-8.794354417752545778e+139,-2.579565080478361574e+140
4.457292958263183193e+140,-2.418672762405246314e+140,-4.341843054348439091e+140,3.361526456381294917e+140,3.356957837120123982e+140,-8.794354417752545778e+139,-2.579565080478361574e+140
4.457292958263183193e+140,-2.418672762405246314e+140,-4.341843054348439091e+140,3.361526456381294917e+140,3.356957837120123982e+140,-8.794354417752545778e+139,-2.579565080478361574e+140
4.457292958263183193e+140,-2.418672762405246314e+140,-4.341843054348439091e+140,3.361526456381294917e+140,3.356957837120123982e+140,-8.794354417752545778e+139,-2.579565080478361574e+140
4.457292958263183193e+140,-2.418672762405246314e+140,-4.341843054348439091e+140,3.361526456381294917e+140,3.356957837120123982e+140,-8.794354417752545778e+139,-2.579565080478361574e+140
4.457292958263183193e+140,-2.418672762405246314e+140,-4.341843054348439091e+140,3.361526456381294917e+140,3.356957837120123982e+140,-8.794354417752545778e+139,-2.579565080478361574e+140
4.457292958263183193e+140,-2.418672762405246314e+140,-4.341843054348439091e+140,3.361526456381294917e+140,3.356957837120123982e+140,-8.794354417752545778e+139,-2.579565080478361574e+140
4.457292958263183193e+140,-2.418672762405246314e+140,-4.341843054348439091e+140,3.361526456381294917e+140,3.356957837120123982e+140,-8.794354417752545778e+139,-2.579565080478361574e+140
4.457292958263183193e+140,-2.418672762405246314e+140,-4.341843054348439091e+140,3.361526456381294917e+140,3.356957837120123982e+140,-8.794354417752545778e+139,-2.579565080478361574e+140
4.457292958263183193e+140,-2.418672762405246314e+140,-4.341843054348439091e+140,3.361526456381294917e+140,3.356957837120123982e+140,-8.794354417752545778e+139,-2.579565080478361574e+140
4.457292958263183193e+140,-2.418672762405246314e+140,-4.341843054348439091e+140,3.361526456381294917e+140,3.356957837120123982e+140,-8.794354417752545778e+139,-2.579565080478361574e+140
4.457292958263183193e+140,-2.418672762405246314e+140,-4.341843054348439091e+140,3.361526456381294917e+140,3.356957837120123982e+140,-8.794354417752545778e+139,-2.579565080478361574e+140
3.619887352220752683e+144,-1.964269125627731308e+144,-3.526127383804638692e+144,2.729985939347244257e+144,2.726275640913465324e+144,-7.142131474386861103e+143,-2.094934099350433546e+144
4.457292958263183193e+140,-2.418672762405246314e+140,-4.341843054348439091e+140,3.361526456381294917e+140,3.356957837120123982e+140,-8.794354417752545778e+139,-2.579565080478361574e+140
4.457292958263183193e+140,-2.418672762405246314e+140,-4.341843054348439091e+140,3.361526456381294917e+140,3.356957837120123982e+140,-8.794354417752545778e+139,-2.579565080478361574e+140
-1.363283955954509173e+143,7.397624079385367872e+142,1.327973061383694532e+143,-1.028138632217449301e+143,-1.026741298589516340e+143,2.689794544124683657e+142,7.889720780052319283e+142
4.457292958263183193e+140,-2.418672762405246314e+140,-4.341843054348439091e+140,3.361526456381294917e+140,3.356957837120123982e+140,-8.794354417752545778e+139,-2.579565080478361574e+140
1.036479156079044466e+141,-5.624274480237185235e+140,-1.009632946934436891e+141,7.816744686230025281e+140,7.806121021415837129e+140,-2.045000212130046763e+140,-5.998406348208824665e+140
1.036479156079044466e+141,-5.624274480237185235e+140,-1.009632946934436891e+141,7.816744686230025281e+140,7.806121021415837129e+140,-2.045000212130046763e+140,-5.998406348208824665e+140
5.078886456458488643e+142,-2.755969699684136721e+142,-4.947336441938144558e+142,3.830309416995154603e+142,3.825103679183109623e+142,-1.002077448439264255e+142,-2.939299317653214744e+142
1.036479156079044466e+141,-5.624274480237185235e+140,-1.009632946934436891e+141,7.816744686230025281e+140,7.806121021415837129e+140,-2.045000212130046763e+140,-5.998406348208824665e+140
1.036479156079044466e+141,-5.624274480237185235e+140,-1.009632946934436891e+141,7.816744686230025281e+140,7.806121021415837129e+140,-2.045000212130046763e+140,-5.998406348208824665e+140
1.036479156079044466e+141,-5.624274480237185235e+140,-1.009632946934436891e+141,7.816744686230025281e+140,7.806121021415837129e+140,-2.045000212130046763e+140,-5.998406348208824665e+140
-2.072607547561704157e+141,1.124664559719257254e+141,2.018924214548983059e+141,-1.563084403484872901e+141,-1.560960030047404187e+141,4.089308356629199999e+140,1.199478271967440930e+141
-2.072607547561704157e+141,1.124664559719257254e+141,2.018924214548983059e+141,-1.563084403484872901e+141,-1.560960030047404187e+141,4.089308356629199999e+140,1.199478271967440930e+141
-2.072607547561704157e+141,1.124664559719257254e+141,2.018924214548983059e+141,-1.563084403484872901e+141,-1.560960030047404187e+141,4.089308356629199999e+140,1.199478271967440930e+141
-2.072607547561704157e+141,1.124664559719257254e+141,2.018924214548983059e+141,-1.563084403484872901e+141,-1.560960030047404187e+141,4.089308356629199999e+140,1.199478271967440930e+141
-2.072607547561704157e+141,1.124664559719257254e+141,2.018924214548983059e+141,-1.563084403484872901e+141,-1.560960030047404187e+141,4.089308356629199999e+140,1.199478271967440930e+141
-2.072607547561704157e+141,1.124664559719257254e+141,2.018924214548983059e+141,-1.563084403484872901e+141,-1.560960030047404187e+141,4.089308356629199999e+140,1.199478271967440930e+141
-2.072607547561704157e+141,1.124664559719257254e+141,2.018924214548983059e+141,-1.563084403484872901e+141,-1.560960030047404187e+141,4.089308356629199999e+140,1.199478271967440930e+141
-2.072607547561704157e+141,1.124664559719257254e+141,2.018924214548983059e+141,-1.563084403484872901e+141,-1.560960030047404187e+141,4.089308356629199999e+140,1.199478271967440930e+141
3.379917897161271805e+141,-1.834053860399212355e+141,-3.292373461533534451e+141,2.549009799914806292e+141,2.545545464464533114e+141,-6.668665526110965230e+140,-1.956056795917872866e+141
3.379917897161271805e+141,-1.834053860399212355e+141,-3.292373461533534451e+141,2.549009799914806292e+141,2.545545464464533114e+141,-6.668665526110965230e+140,-1.956056795917872866e+141
3.379917897161271805e+141,-1.834053860399212355e+141,-3.292373461533534451e+141,2.549009799914806292e+141,2.545545464464533114e+141,-6.668665526110965230e+140,-1.956056795917872866e+141
3.379917897161271805e+141,-1.834053860399212355e+141,-3.292373461533534451e+141,2.549009799914806292e+141,2.545545464464533114e+141,-6.668665526110965230e+140,-1.956056795917872866e+141
3.379917897161271805e+141,-1.834053860399212355e+141,-3.292373461533534451e+141,2.549009799914806292e+141,2.545545464464533114e+141,-6.668665526110965230e+140,-1.956056795917872866e+141
3.379917897161271805e+141,-1.834053860399212355e+141,-3.292373461533534451e+141,2.549009799914806292e+141,2.545545464464533114e+141,-6.668665526110965230e+140,-1.956056795917872866e+141
3.379917897161271805e+141,-1.834053860399212355e+141,-3.292373461533534451e+141,2.549009799914806292e+141,2.545545464464533114e+141,-6.668665526110965230e+140,-1.956056795917872866e+141
3.379917897161271805e+141,-1.834053860399212355e+141,-3.292373461533534451e+141,2.549009799914806292e+141,2.545545464464533114e+141,-6.668665526110965230e+140,-1.956056795917872866e+141
3.379917897161271805e+141,-1.834053860399212355e+141,-3.292373461533534451e+141,2.549009799914806292e+141,2.545545464464533114e+141,-6.668665526110965230e+140,-1.956056795917872866e+141
3.379917897161271805e+141,-1.834053860399212355e+141,-3.292373461533534451e+141,2.549009799914806292e+141,2.545545464464533114e+141,-6.668665526110965230e+140,-1.956056795917872866e+141
3.379917897161271805e+141,-1.834053860399212355e+141,-3.292373461533534451e+141,2.549009799914806292e+141,2.545545464464533114e+141,-6.668665526110965230e+140,-1.956056795917872866e+141
3.379917897161271805e+141,-1.834053860399212355e+141,-3.292373461533534451e+141,2.549009799914806292e+141,2.545545464464533114e+141,-6.668665526110965230e+140,-1.956056795917872866e+141
3.379917897161271805e+141,-1.834053860399212355e+141,-3.292373461533534451e+141,2.549009799914806292e+141,2.545545464464533114e+141,-6.668665526110965230e+140,-1.956056795917872866e+141
3.379917897161271805e+141,-1.834053860399212355e+141,-3.292373461533534451e+141,2.549009799914806292e+141,2.545545464464533114e+141,-6.668665526110965230e+140,-1.956056795917872866e+141
3.379917897161271805e+141,-1.834053860399212355e+141,-3.292373461533534451e+141,2.549009799914806292e+141,2.545545464464533114e+141,-6.668665526110965230e+140,-1.956056795917872866e+141
3.379917897161271805e+141,-1.834053860399212355e+141,-3.292373461533534451e+141,2.549009799914806292e+141,2.545545464464533114e+141,-6.668665526110965230e+140,-1.956056795917872866e+141
3.379917897161271805e+141,-1.834053860399212355e+141,-3.292373461533534451e+141,2.549009799914806292e+141,2.545545464464533114e+141,-6.668665526110965230e+140,-1.956056795917872866e+141
3.379917897161271805e+141,-1.834053860399212355e+141,-3.292373461533534451e+141,2.549009799914806292e+141,2.545545464464533114e+141,-6.668665526110965230e+140,-1.956056795917872866e+141
-1.333942069941159703e+143,7.238405420969499887e+142,1.299391169822707482e+143,-1.006010060674682693e+143,-1.004642801781991196e+143,2.631902243281326581e+142,7.719910751265315088e+142
3.379917897161271805e+141,-1.834053860399212355e+141,-3.292373461533534451e+141,2.549009799914806292e+141,2.545545464464533114e+141,-6.668665526110965230e+140,-1.956056795917872866e+141
3.379917897161271805e+141,-1.834053860399212355e+141,-3.292373461533534451e+141,2.549009799914806292e+141,2.545545464464533114e+141,-6.668665526110965230e+140,-1.956056795917872866e+141
3.379917897161271805e+141,-1.834053860399212355e+141,-3.292373461533534451e+141,2.549009799914806292e+141,2.545545464464533114e+141,-6.668665526110965230e+140,-1.956056795917872866e+141
3.379917897161271805e+141,-1.834053860399212355e+141,-3.292373461533534451e+141,2.549009799914806292e+141,2.545545464464533114e+141,-6.668665526110965230e+140,-1.956056795917872866e+141
4.084261801051209384e+142,-2.216253870956459731e+142,-3.978473907614441917e+142,3.080200073806846616e+142,3.076013802608566238e+142,-8.058354285811726277e+141,-2.363681099757808113e+142
-8.909767397993743719e+141,4.834730839253053150e+141,8.678992396302591549e+141,-6.719418963260077005e+141,-6.710286663603851999e+141,1.757920177367911432e+141,5.156341544133182324e+141
-8.909767397993743719e+141,4.834730839253053150e+141,8.678992396302591549e+141,-6.719418963260077005e+141,-6.710286663603851999e+141,1.757920177367911432e+141,5.156341544133182324e+141
-8.909767397993743719e+141,4.834730839253053150e+141,8.678992396302591549e+141,-6.719418963260077005e+141,-6.710286663603851999e+141,1.757920177367911432e+141,5.156341544133182324e+141
-8.909767397993743719e+141,4.834730839253053150e+141,8.678992396302591549e+141,-6.719418963260077005e+141,-6.710286663603851999e+141,1.757920177367911432e+141,5.156341544133182324e+141
-8.909767397993743719e+141,4.834730839253053150e+141,8.678992396302591549e+141,-6.719418963260077005e+141,-6.710286663603851999e+141,1.757920177367911432e+141,5.156341544133182324e+141
1.511760145452387325e+143,-8.203304385272803045e+142,-1.472603517165758289e+143,1.140113914931260336e+143,1.138564396740732884e+143,-2.982741910445140692e+142,-8.748995674697543930e+142
-8.909767397993743719e+141,4.834730839253053150e+141,8.678992396302591549e+141,-6.719418963260077005e+141,-6.710286663603851999e+141,1.757920177367911432e+141,5.156341544133182324e+141
-8.909767397993743719e+141,4.834730839253053150e+141,8.678992396302591549e+141,-6.719418963260077005e+141,-6.710286663603851999e+141,1.757920177367911432e+141,5.156341544133182324e+141
-8.909767397993743719e+141,4.834730839253053150e+141,8.678992396302591549e+141,-6.719418963260077005e+141,-6.710286663603851999e+141,1.757920177367911432e+141,5.156341544133182324e+141
-8.909767397993743719e+141,4.834730839253053150e+141,8.678992396302591549e+141,-6.719418963260077005e+141,-6.710286663603851999e+141,1.757920177367911432e+141,5.156341544133182324e+141
-8.909767397993743719e+141,4.834730839253053150e+141,8.678992396302591549e+141,-6.719418963260077005e+141,-6.710286663603851999e+141,1.757920177367911432e+141,5.156341544133182324e+141
-8.909767397993743719e+141,4.834730839253053150e+141,8.678992396302591549e+141,-6.719418963260077005e+141,-6.710286663603851999e+141,1.757920177367911432e+141,5.156341544133182324e+141
-8.909767397993743719e+141,4.834730839253053150e+141,8.678992396302591549e+141,-6.719418963260077005e+141,-6.710286663603851999e+141,1.757920177367911432e+141,5.156341544133182324e+141
-8.909767397993743719e+141,4.834730839253053150e+141,8.678992396302591549e+141,-6.719418963260077005e+141,-6.710286663603851999e+141,1.757920177367911432e+141,5.156341544133182324e+141
-8.909767397993743719e+141,4.834730839253053150e+141,8.678992396302591549e+141,-6.719418963260077005e+141,-6.710286663603851999e+141,1.757920177367911432e+141,5.156341544133182324e+141
-8.909767397993743719e+141,4.834730839253053150e+141,8.678992396302591549e+141,-6.719418963260077005e+141,-6.710286663603851999e+141,1.757920177367911432e+141,5.156341544133182324e+141
-8.909767397993743719e+141,4.834730839253053150e+141,8.678992396302591549e+141,-6.719418963260077005e+141,-6.710286663603851999e+141,1.757920177367911432e+141,5.156341544133182324e+141
-8.909767397993743719e+141,4.834730839253053150e+141,8.678992396302591549e+141,-6.719418963260077005e+141,-6.710286663603851999e+141,1.757920177367911432e+141,5.156341544133182324e+141
2.009283999537445660e+143,-1.090303134015456782e+143,-1.957240831890228328e+143,1.515328111944545672e+143,1.513268643637628028e+143,-3.964369356763104496e+142,-1.162831092886867021e+143
4.084261801051209384e+142,-2.216253870956459731e+142,-3.978473907614441917e+142,3.080200073806846616e+142,3.076013802608566238e+142,-8.058354285811726277e+141,-2.363681099757808113e+142
4.975238540850583350e+142,-2.699726954881764775e+142,-4.846373147244700936e+142,3.752141970132854451e+142,3.747042468968951438e+142,-9.816274463179638047e+141,-2.879315254171126278e+142
4.975238540850583350e+142,-2.699726954881764775e+142,-4.846373147244700936e+142,3.752141970132854451e+142,3.747042468968951438e+142,-9.816274463179638047e+141,-2.879315254171126278e+142
4.975238540850583350e+142,-2.699726954881764775e+142,-4.846373147244700936e+142,3.752141970132854451e+142,3.747042468968951438e+142,-9.816274463179638047e+141,-2.879315254171126278e+142
4.975238540850583350e+142,-2.699726954881764775e+142,-4.846373147244700936e+142,3.752141970132854451e+142,3.747042468968951438e+142,-9.816274463179638047e+141,-2.879315254171126278e+142
4.975238540850583350e+142,-2.699726954881764775e+142,-4.846373147244700936e+142,3.752141970132854451e+142,3.747042468968951438e+142,-9.816274463179638047e+141,-2.879315254171126278e+142
4.975238540850583350e+142,-2.699726954881764775e+142,-4.846373147244700936e+142,3.752141970132854451e+142,3.747042468968951438e+142,-9.816274463179638047e+141,-2.879315254171126278e+142
4.975238540850583350e+142,-2.699726954881764775e+142,-4.846373147244700936e+142,3.752141970132854451e+142,3.747042468968951438e+142,-9.816274463179638047e+141,-2.879315254171126278e+142
4.975238540850583350e+142,-2.699726954881764775e+142,-4.846373147244700936e+142,3.752141970132854451e+142,3.747042468968951438e+142,-9.816274463179638047e+141,-2.879315254171126278e+142
4.975238540850583350e+142,-2.699726954881764775e+142,-4.846373147244700936e+142,3.752141970132854451e+142,3.747042468968951438e+142,-9.816274463179638047e+141,-2.879315254171126278e+142
4.975238540850583350e+142,-2.699726954881764775e+142,-4.846373147244700936e+142,3.752141970132854451e+142,3.747042468968951438e+142,-9.816274463179638047e+141,-2.879315254171126278e+142
4.975238540850583350e+142,-2.699726954881764775e+142,-4.846373147244700936e+142,3.752141970132854451e+142,3.747042468968951438e+142,-9.816274463179638047e+141,-2.879315254171126278e+142
4.975238540850583350e+142,-2.699726954881764775e+142,-4.846373147244700936e+142,3.752141970132854451e+142,3.747042468968951438e+142,-9.816274463179638047e+141,-2.879315254171126278e+142
4.975238540850583350e+142,-2.699726954881764775e+142,-4.846373147244700936e+142,3.752141970132854451e+142,3.747042468968951438e+142,-9.816274463179638047e+141,-2.879315254171126278e+142
4.975238540850583350e+142,-2.699726954881764775e+142,-4.846373147244700936e+142,3.752141970132854451e+142,3.747042468968951438e+142,-9.816274463179638047e+141,-2.879315254171126278e+142
4.975238540850583350e+142,-2.699726954881764775e+142,-4.846373147244700936e+142,3.752141970132854451e+142,3.747042468968951438e+142,-9.816274463179638047e+141,-2.879315254171126278e+142
4.975238540850583350e+142,-2.699726954881764775e+142,-4.846373147244700936e+142,3.752141970132854451e+142,3.747042468968951438e+142,-9.816274463179638047e+141,-2.879315254171126278e+142
4.975238540850583350e+142,-2.699726954881764775e+142,-4.846373147244700936e+142,3.752141970132854451e+142,3.747042468968951438e+142,-9.816274463179638047e+141,-2.879315254171126278e+142
4.975238540850583350e+142,-2.699726954881764775e+142,-4.846373147244700936e+142,3.752141970132854451e+142,3.747042468968951438e+142,-9.816274463179638047e+141,-2.879315254171126278e+142
4.975238540850583350e+142,-2.699726954881764775e+142,-4.846373147244700936e+142,3.752141970132854451e+142,3.747042468968951438e+142,-9.816274463179638047e+141,-2.879315254171126278e+142
4.975238540850583350e+142,-2.699726954881764775e+142,-4.846373147244700936e+142,3.752141970132854451e+142,3.747042468968951438e+142,-9.816274463179638047e+141,-2.879315254171126278e+142
4.975238540850583350e+142,-2.699726954881764775e+142,-4.846373147244700936e+142,3.752141970132854451e+142,3.747042468968951438e+142,-9.816274463179638047e+141,-2.879315254171126278e+142
4.975238540850583350e+142,-2.699726954881764775e+142,-4.846373147244700936e+142,3.752141970132854451e+142,3.747042468968951438e+142,-9.816274463179638047e+141,-2.879315254171126278e+142
4.975238540850583350e+142,-2.699726954881764775e+142,-4.846373147244700936e+142,3.752141970132854451e+142,3.747042468968951438e+142,-9.816274463179638047e+141,-2.879315254171126278e+142
4.975238540850583350e+142,-2.699726954881764775e+142,-4.846373147244700936e+142,3.752141970132854451e+142,3.747042468968951438e+142,-9.816274463179638047e+141,-2.879315254171126278e+142
4.975238540850583350e+142,-2.699726954881764775e+142,-4.846373147244700936e+142,3.752141970132854451e+142,3.747042468968951438e+142,-9.816274463179638047e+141,-2.879315254171126278e+142
4.975238540850583350e+142,-2.699726954881764775e+142,-4.846373147244700936e+142,3.752141970132854451e+142,3.747042468968951438e+142,-9.816274463179638047e+141,-2.879315254171126278e+142
4.975238540850583350e+142,-2.699726954881764775e+142,-4.846373147244700936e+142,3.752141970132854451e+142,3.747042468968951438e+142,-9.816274463179638047e+141,-2.879315254171126278e+142
4.975238540850583350e+142,-2.699726954881764775e+142,-4.846373147244700936e+142,3.752141970132854451e+142,3.747042468968951438e+142,-9.816274463179638047e+141,-2.879315254171126278e+142
4.975238540850583350e+142,-2.699726954881764775e+142,-4.846373147244700936e+142,3.752141970132854451e+142,3.747042468968951438e+142,-9.816274463179638047e+141,-2.879315254171126278e+142
4.975238540850583350e+142,-2.699726954881764775e+142,-4.846373147244700936e+142,3.752141970132854451e+142,3.747042468968951438e+142,-9.816274463179638047e+141,-2.879315254171126278e+142
4.975238540850583350e+142,-2.699726954881764775e+142,-4.846373147244700936e+142,3.752141970132854451e+142,3.747042468968951438e+142,-9.816274463179638047e+141,-2.879315254171126278e+142
4.975238540850583350e+142,-2.699726954881764775e+142,-4.846373147244700936e+142,3.752141970132854451e+142,3.747042468968951438e+142,-9.816274463179638047e+141,-2.879315254171126278e+142
4.975238540850583350e+142,-2.699726954881764775e+142,-4.846373147244700936e+142,3.752141970132854451e+142,3.747042468968951438e+142,-9.816274463179638047e+141,-2.879315254171126278e+142
4.975238540850583350e+142,-2.699726954881764775e+142,-4.846373147244700936e+142,3.752141970132854451e+142,3.747042468968951438e+142,-9.816274463179638047e+141,-2.879315254171126278e+142
4.975238540850583350e+142,-2.699726954881764775e+142,-4.846373147244700936e+142,3.752141970132854451e+142,3.747042468968951438e+142,-9.816274463179638047e+141,-2.879315254171126278e+142
4.975238540850583350e+142,-2.699726954881764775e+142,-4.846373147244700936e+142,3.752141970132854451e+142,3.747042468968951438e+142,-9.816274463179638047e+141,-2.879315254171126278e+142
4.975238540850583350e+142,-2.699726954881764775e+142,-4.846373147244700936e+142,3.752141970132854451e+142,3.747042468968951438e+142,-9.816274463179638047e+141,-2.879315254171126278e+142
-1.367741248912772259e+143,7.421810807009420987e+142,1.332314904438042901e+143,-1.031500158673830644e+143,-1.030098256426636425e+143,2.698588898542436335e+142,7.915516430857102408e+142
-1.367741248912772259e+143,7.421810807009420987e+142,1.332314904438042901e+143,-1.031500158673830644e+143,-1.030098256426636425e+143,2.698588898542436335e+142,7.915516430857102408e+142
-1.367741248912772259e+143,7.421810807009420987e+142,1.332314904438042901e+143,-1.031500158673830644e+143,-1.030098256426636425e+143,2.698588898542436335e+142,7.915516430857102408e+142
-1.367741248912772259e+143,7.421810807009420987e+142,1.332314904438042901e+143,-1.031500158673830644e+143,-1.030098256426636425e+143,2.698588898542436335e+142,7.915516430857102408e+142
-1.367741248912772259e+143,7.421810807009420987e+142,1.332314904438042901e+143,-1.031500158673830644e+143,-1.030098256426636425e+143,2.698588898542436335e+142,7.915516430857102408e+142
-1.367741248912772259e+143,7.421810807009420987e+142,1.332314904438042901e+143,-1.031500158673830644e+143,-1.030098256426636425e+143,2.698588898542436335e+142,7.915516430857102408e+142
-1.367741248912772259e+143,7.421810807009420987e+142,1.332314904438042901e+143,-1.031500158673830644e+143,-1.030098256426636425e+143,2.698588898542436335e+142,7.915516430857102408e+142
-1.367741248912772259e+143,7.421810807009420987e+142,1.332314904438042901e+143,-1.031500158673830644e+143,-1.030098256426636425e+143,2.698588898542436335e+142,7.915516430857102408e+142
-1.367741248912772259e+143,7.421810807009420987e+142,1.332314904438042901e+143,-1.031500158673830644e+143,-1.030098256426636425e+143,2.698588898542436335e+142,7.915516430857102408e+142
-1.367741248912772259e+143,7.421810807009420987e+142,1.332314904438042901e+143,-1.031500158673830644e+143,-1.030098256426636425e+143,2.698588898542436335e+142,7.915516430857102408e+142
-1.367741248912772259e+143,7.421810807009420987e+142,1.332314904438042901e+143,-1.031500158673830644e+143,-1.030098256426636425e+143,2.698588898542436335e+142,7.915516430857102408e+142
-1.367741248912772259e+143,7.421810807009420987e+142,1.332314904438042901e+143,-1.031500158673830644e+143,-1.030098256426636425e+143,2.698588898542436335e+142,7.915516430857102408e+142
-1.367741248912772259e+143,7.421810807009420987e+142,1.332314904438042901e+143,-1.031500158673830644e+143,-1.030098256426636425e+143,2.698588898542436335e+142,7.915516430857102408e+142
-1.367741248912772259e+143,7.421810807009420987e+142,1.332314904438042901e+143,-1.031500158673830644e+143,-1.030098256426636425e+143,2.698588898542436335e+142,7.915516430857102408e+142
-1.367741248912772259e+143,7.421810807009420987e+142,1.332314904438042901e+143,-1.031500158673830644e+143,-1.030098256426636425e+143,2.698588898542436335e+142,7.915516430857102408e+142
-1.367741248912772259e+143,7.421810807009420987e+142,1.332314904438042901e+143,-1.031500158673830644e+143,-1.030098256426636425e+143,2.698588898542436335e+142,7.915516430857102408e+142
1.600857819432324884e+143,-8.686777469198108089e+142,-1.559393441128784191e+143,1.207308104563861011e+143,1.205667263376771242e+143,-3.158533928181932004e+142,-9.264629829110861554e+142
1.600857819432324884e+143,-8.686777469198108089e+142,-1.559393441128784191e+143,1.207308104563861011e+143,1.205667263376771242e+143,-3.158533928181932004e+142,-9.264629829110861554e+142
1.600857819432324884e+143,-8.686777469198108089e+142,-1.559393441128784191e+143,1.207308104563861011e+143,1.205667263376771242e+143,-3.158533928181932004e+142,-9.264629829110861554e+142
1.600857819432324884e+143,-8.686777469198108089e+142,-1.559393441128784191e+143,1.207308104563861011e+143,1.205667263376771242e+143,-3.158533928181932004e+142,-9.264629829110861554e+142
1.600857819432324884e+143,-8.686777469198108089e+142,-1.559393441128784191e+143,1.207308104563861011e+143,1.205667263376771242e+143,-3.158533928181932004e+142,-9.264629829110861554e+142
-7.192883727364026872e+143,3.903093675338669924e+143,7.006578330129847490e+143,-5.424608427943670939e+143,-5.417235893212268654e+143,1.419174583686846824e+143,4.162731026387699181e+143
-7.192883727364026872e+143,3.903093675338669924e+143,7.006578330129847490e+143,-5.424608427943670939e+143,-5.417235893212268654e+143,1.419174583686846824e+143,4.162731026387699181e+143
1.600857819432324884e+143,-8.686777469198108089e+142,-1.559393441128784191e+143,1.207308104563861011e+143,1.205667263376771242e+143,-3.158533928181932004e+142,-9.264629829110861554e+142
1.600857819432324884e+143,-8.686777469198108089e+142,-1.559393441128784191e+143,1.207308104563861011e+143,1.205667263376771242e+143,-3.158533928181932004e+142,-9.264629829110861554e+142
1.600857819432324884e+143,-8.686777469198108089e+142,-1.559393441128784191e+143,1.207308104563861011e+143,1.205667263376771242e+143,-3.158533928181932004e+142,-9.264629829110861554e+142
1.600857819432324884e+143,-8.686777469198108089e+142,-1.559393441128784191e+143,1.207308104563861011e+143,1.205667263376771242e+143,-3.158533928181932004e+142,-9.264629829110861554e+142
1.600857819432324884e+143,-8.686777469198108089e+142,-1.559393441128784191e+143,1.207308104563861011e+143,1.205667263376771242e+143,-3.158533928181932004e+142,-9.264629829110861554e+142
1.600857819432324884e+143,-8.686777469198108089e+142,-1.559393441128784191e+143,1.207308104563861011e+143,1.205667263376771242e+143,-3.158533928181932004e+142,-9.264629829110861554e+142
1.600857819432324884e+143,-8.686777469198108089e+142,-1.559393441128784191e+143,1.207308104563861011e+143,1.205667263376771242e+143,-3.158533928181932004e+142,-9.264629829110861554e+142
1.600857819432324884e+143,-8.686777469198108089e+142,-1.559393441128784191e+143,1.207308104563861011e+143,1.205667263376771242e+143,-3.158533928181932004e+142,-9.264629829110861554e+142
1.600857819432324884e+143,-8.686777469198108089e+142,-1.559393441128784191e+143,1.207308104563861011e+143,1.205667263376771242e+143,-3.158533928181932004e+142,-9.264629829110861554e+142
-8.793741546796352406e+143,4.771771422258480950e+143,8.565971771258631680e+143,-6.631916532507531733e+143,-6.622903156589039463e+143,1.735027976505039970e+143,5.089194009298785986e+143
-8.793741546796352406e+143,4.771771422258480950e+143,8.565971771258631680e+143,-6.631916532507531733e+143,-6.622903156589039463e+143,1.735027976505039970e+143,5.089194009298785986e+143
-8.793741546796352406e+143,4.771771422258480950e+143,8.565971771258631680e+143,-6.631916532507531733e+143,-6.622903156589039463e+143,1.735027976505039970e+143,5.089194009298785986e+143
-8.793741546796352406e+143,4.771771422258480950e+143,8.565971771258631680e+143,-6.631916532507531733e+143,-6.622903156589039463e+143,1.735027976505039970e+143,5.089194009298785986e+143
-8.793741546796352406e+143,4.771771422258480950e+143,8.565971771258631680e+143,-6.631916532507531733e+143,-6.622903156589039463e+143,1.735027976505039970e+143,5.089194009298785986e+143
-8.793741546796352406e+143,4.771771422258480950e+143,8.565971771258631680e+143,-6.631916532507531733e+143,-6.622903156589039463e+143,1.735027976505039970e+143,5.089194009298785986e+143
-8.793741546796352406e+143,4.771771422258480950e+143,8.565971771258631680e+143,-6.631916532507531733e+143,-6.622903156589039463e+143,1.735027976505039970e+143,5.089194009298785986e+143
-8.793741546796352406e+143,4.771771422258480950e+143,8.565971771258631680e+143,-6.631916532507531733e+143,-6.622903156589039463e+143,1.735027976505039970e+143,5.089194009298785986e+143
-8.793741546796352406e+143,4.771771422258480950e+143,8.565971771258631680e+143,-6.631916532507531733e+143,-6.622903156589039463e+143,1.735027976505039970e+143,5.089194009298785986e+143
-8.793741546796352406e+143,4.771771422258480950e+143,8.565971771258631680e+143,-6.631916532507531733e+143,-6.622903156589039463e+143,1.735027976505039970e+143,5.089194009298785986e+143
-8.793741546796352406e+143,4.771771422258480950e+143,8.565971771258631680e+143,-6.631916532507531733e+143,-6.622903156589039463e+143,1.735027976505039970e+143,5.089194009298785986e+143
-8.793741546796352406e+143,4.771771422258480950e+143,8.565971771258631680e+143,-6.631916532507531733e+143,-6.622903156589039463e+143,1.735027976505039970e+143,5.089194009298785986e+143
3.620477751316409215e+144,-1.964589495463186443e+144,-3.526702490766818123e+144,2.730431196636467994e+144,2.726720293057659001e+144,-7.143296347089585431e+143,-2.095275780479532204e+144
3.620477751316409215e+144,-1.964589495463186443e+144,-3.526702490766818123e+144,2.730431196636467994e+144,2.726720293057659001e+144,-7.143296347089585431e+143,-2.095275780479532204e+144
3.620477751316409215e+144,-1.964589495463186443e+144,-3.526702490766818123e+144,2.730431196636467994e+144,2.726720293057659001e+144,-7.143296347089585431e+143,-2.095275780479532204e+144
3.620477751316409215e+144,-1.964589495463186443e+144,-3.526702490766818123e+144,2.730431196636467994e+144,2.726720293057659001e+144,-7.143296347089585431e+143,-2.095275780479532204e+144
3.620477751316409215e+144,-1.964589495463186443e+144,-3.526702490766818123e+144,2.730431196636467994e+144,2.726720293057659001e+144,-7.143296347089585431e+143,-2.095275780479532204e+144
3.620477751316409215e+144,-1.964589495463186443e+144,-3.526702490766818123e+144,2.730431196636467994e+144,2.726720293057659001e+144,-7.143296347089585431e+143,-2.095275780479532204e+144
3.620477751316409215e+144,-1.964589495463186443e+144,-3.526702490766818123e+144,2.730431196636467994e+144,2.726720293057659001e+144,-7.143296347089585431e+143,-2.095275780479532204e+144
3.620477751316409215e+144,-1.964589495463186443e+144,-3.526702490766818123e+144,2.730431196636467994e+144,2.726720293057659001e+144,-7.143296347089585431e+143,-2.095275780479532204e+144
3.620477751316409215e+144,-1.964589495463186443e+144,-3.526702490766818123e+144,2.730431196636467994e+144,2.726720293057659001e+144,-7.143296347089585431e+143,-2.095275780479532204e+144
3.620477751316409215e+144,-1.964589495463186443e+144,-3.526702490766818123e+144,2.730431196636467994e+144,2.726720293057659001e+144,-7.143296347089585431e+143,-2.095275780479532204e+144
3.620477751316409215e+144,-1.964589495463186443e+144,-3.526702490766818123e+144,2.730431196636467994e+144,2.726720293057659001e+144,-7.143296347089585431e+143,-2.095275780479532204e+144
3.620477751316409215e+144,-1.964589495463186443e+144,-3.526702490766818123e+144,2.730431196636467994e+144,2.726720293057659001e+144,-7.143296347089585431e+143,-2.095275780479532204e+144
