1.787034591400033607e-03,1.983243625154971611e-03,1.089846316824480237e-02,-1.923044127572069609e-04,2.407421085146334728e-03,2.200007309200926933e-03,3.977246838995173936e-03
7.036337450075091926e-03,9.149049404380260857e-04,-1.769541515950147749e-03,-6.405480408719249272e-03,1.640880543250313947e-02,-7.643631467046040420e-03,-8.185436570189063427e-03
2.338234679361029795e-04,-1.035914798313478449e-03,-2.672152249850719488e-02,-8.192986961566738752e-03,2.460955822868133441e-02,3.048557508062233953e-02,-1.430775164066649431e-02
2.242649440552389739e-02,3.703277937949538134e-02,-2.153897947834996357e-02,-2.592324833840315562e-02,-4.150237926856249759e-02,3.075056666236568662e-02,3.206822886010309622e-03
-9.679797212885201188e-03,-3.187175420567235542e-03,-1.601807253081520815e-03,4.811935499808333433e-03,-4.707522255408457847e-03,1.504569948997848926e-02,-4.141228809570233170e-03
-7.598768548668760267e-03,-4.007426759438009571e-03,-1.127124058786319235e-05,-3.771390597229505766e-03,1.123102270566005752e-03,1.106130178471730410e-02,-8.361276789419674112e-04
-6.145564539717938805e-03,-3.276153804993085176e-03,-7.598729055345671002e-03,6.340151330790380797e-03,-2.596587782221287336e-03,7.489798855420508501e-03,9.438587881556909087e-03
-1.517380266175973567e-02,-8.008862207626189084e-03,1.834794973061301682e-02,2.604217566642944015e-02,-1.185969134137392425e-02,-1.255371212730032725e-03,-1.137019878610919313e-02
7.359257551002753965e-03,-9.433864148856408241e-03,1.895034599617504171e-03,-2.373746876514682379e-03,-1.785388936969164661e-02,-1.137942350874954212e-02,4.370709003716798102e-02
-4.289012124566553286e-03,-3.100313217309404786e-03,-1.695534004112338568e-03,8.710270086729254846e-03,-9.536237938098660744e-03,1.058737792638116647e-02,-1.287326884494217980e-03
-1.761720909508021973e-02,-5.214840507047697332e-03,-2.609725959678851166e-04,1.491289344810604010e-02,-3.607732777658689827e-03,2.004766470176896562e-02,-5.293585552955002056e-03
-8.371572078476153611e-04,6.613566687890741307e-03,-7.947697375466293568e-03,-9.801261304707480082e-03,9.300880124091245177e-03,4.776910099358194946e-03,-5.972671628019305540e-03
1.258825375468440285e-03,-6.745105545052611706e-04,4.978894979475977089e-03,-6.880398774448843839e-03,-7.981897663706757906e-03,2.547388887621770178e-03,6.488247543086915654e-03
-2.278551395370677010e-02,-1.292408271968796324e-03,5.174219852685687376e-02,-7.745279658452788700e-03,-1.083092807116710701e-02,-3.035027793660995902e-03,-4.686346996200465090e-03
-8.940079218610652231e-03,-1.800818794843773735e-03,-3.470741792610641894e-03,7.266164381034077857e-03,-6.465271125149556382e-03,-3.986032837723954038e-03,1.895172235248849743e-02
-4.942012558845447316e-03,-3.724996814680335729e-03,-1.527365683259141425e-02,1.866972184448331684e-02,-8.546691268753384488e-03,2.558744816226317734e-02,-8.248447045509576039e-03
-8.848807193880382869e-04,-9.947988382169722574e-04,-1.162604250159481045e-02,-7.996088989713474524e-03,3.522868535797633177e-02,-5.526781657617592033e-03,-4.813373668350820998e-03
6.499350057593211542e-03,-4.745953299686396162e-03,2.901961688154988065e-03,-7.473030929762636103e-03,9.185060166967077416e-03,-7.357693345311185247e-03,-3.340423624551933958e-03
-2.639622466815169308e-03,-3.254436996507421159e-03,-1.318032867295836595e-02,-5.693274526765425454e-03,6.214363885469442218e-03,2.347464996454259878e-02,-7.654619067690797071e-03
-5.514085437450728586e-03,1.702829328477192122e-02,-1.514036214759703972e-02,1.041559521803834924e-02,-4.601683897357243709e-03,6.151251006822913920e-04,-2.824349572247894401e-06
-8.102282381755915655e-03,-1.704428900688285259e-03,-5.844510080172901981e-03,1.076764327667405208e-02,-7.239586166960973804e-03,1.813060147755739954e-02,-7.721937302403230827e-03
1.185230360074145811e-02,-3.743465008890015100e-03,-1.798348780139138320e-02,3.348814677405673873e-02,-1.220637062753274216e-02,-5.438598650572986325e-03,-6.675064020226581345e-03
-5.514085437450728586e-03,1.702829328477192122e-02,-1.514036214759703972e-02,1.041559521803834924e-02,-4.601683897357243709e-03,6.151251006822913920e-04,-2.824349572247894401e-06
-1.067598809625406632e-02,2.249697877891446759e-04,-4.565999044919112106e-03,-9.598102969895076428e-03,1.757219393147258640e-02,9.996521863308084274e-03,-6.931218340036258974e-03
-2.527585315356308503e-03,-2.068896576057846579e-03,-4.059967250497399129e-03,1.111526907113293515e-02,-5.032662538938975291e-03,9.648276562706873186e-03,-7.912423047818247651e-03
9.407990492436225233e-03,-5.688711650632849622e-03,1.049678310022957202e-02,-5.487031765161055029e-03,-6.705022873638507176e-04,-4.926072678894439019e-03,-2.269529034599847891e-03
-2.572910279938563430e-02,-1.826621687412930545e-02,7.143574610985525819e-03,7.479811495811781660e-03,1.852870437121567279e-02,2.262316785208079092e-02,-1.136423046984758045e-02
-1.000375746234050426e-03,1.246667355007245563e-02,1.229901178855527868e-02,-1.272720207958972539e-02,-1.085899825520388398e-02,-2.047346709705999933e-03,3.101245541664318737e-03
1.787034591400033607e-03,1.983243625154971611e-03,1.089846316824480237e-02,-1.923044127572069609e-04,2.407421085146334728e-03,2.200007309200926933e-03,3.977246838995173936e-03
-2.699687972953529903e-03,-4.234989868063190541e-03,-2.061968542601332315e-03,3.734575720286016122e-03,8.513745079578739078e-03,-2.369917141980462140e-03,2.909861994098725778e-03
-7.997433697315731171e-03,-1.957610560425881649e-02,1.586114068289958337e-02,6.900149158388248216e-03,-7.429115084224951690e-03,3.462371055696478791e-03,9.063292825442634953e-03
-3.288457338651899764e-03,-3.533742713737391761e-04,-2.257596028575657374e-02,-7.975312578990549975e-03,-5.714865587062561286e-03,-6.739719028972703928e-04,4.435119702321390495e-02
7.801292000757314819e-03,-6.425109647203183436e-03,-1.109824631559225283e-02,-2.632852420500491394e-03,5.263423834313133917e-03,7.573642875094546527e-03,-1.771590083451359725e-03
1.906297975318941434e-03,5.727247980587055328e-04,-1.916928703881816366e-03,-1.851481114436444027e-04,8.770875608456633193e-03,-1.588626100032664024e-02,5.811313466718315279e-03
-1.791284420016639499e-03,2.472672010861054655e-03,-3.463547093916676499e-03,7.905733608137564469e-03,9.023158832934918827e-03,-1.055163964288467456e-03,-1.237484943175790400e-02
1.787034591400033607e-03,1.983243625154971611e-03,1.089846316824480237e-02,-1.923044127572069609e-04,2.407421085146334728e-03,2.200007309200926933e-03,3.977246838995173936e-03
-7.393337385809895142e-03,-7.332690563886095150e-03,2.971111269828174972e-02,-5.522775593454681831e-03,-3.900802169467090189e-03,1.317834754313918985e-02,-1.558706980760549664e-02
-4.332753844723831634e-03,-3.968696996907852999e-03,3.009819069236770867e-02,1.298371686781869469e-02,-6.051851549499715280e-03,-5.078649502196313364e-03,-1.702011095856986039e-02
1.184795533102452406e-02,-5.602492301592124253e-03,-8.425917104453348530e-03,7.629165861837932869e-03,-9.451965222283826434e-03,-6.296896946536833899e-03,1.306907936549249818e-02
-6.421648993439024906e-03,-3.286836803750740887e-03,-2.066466264825030270e-03,-4.536312537796099130e-03,9.001539277315983786e-03,3.610759741501776057e-03,7.077618714499377128e-03
3.236142738354539500e-02,7.365123250635934862e-04,-1.678650467231176946e-02,1.599326978593260552e-03,-3.534327771551131446e-03,-7.998415172448269245e-03,-1.095529626146468042e-03
1.787034591400033607e-03,1.983243625154971611e-03,1.089846316824480237e-02,-1.923044127572069609e-04,2.407421085146334728e-03,2.200007309200926933e-03,3.977246838995173936e-03
6.783362367304836098e-03,8.599239607772079033e-03,3.450938713197730656e-03,-7.072583248896690926e-03,-5.727318529829585926e-03,-1.525251555254667803e-02,1.117648532859663417e-02
1.351412604398930829e-02,-5.223656748338198832e-03,-3.714632275156173197e-02,-1.385985535979136415e-02,-1.243938023441927727e-02,6.726032097645695540e-02,-7.640451605081729006e-03
2.812662011137463322e-02,-1.630524598824328528e-02,-1.475443792167847488e-03,-9.286207456137965388e-03,-1.112723460774097187e-02,2.136277053189773040e-02,-1.317481022177831307e-02
2.495075054364103567e-02,3.017389662604838606e-04,-2.124309103210681587e-02,6.610852394963984656e-04,-6.341158433884499894e-03,9.810406222375374005e-03,-8.708661089738840844e-03
3.462814806850739863e-02,-3.263930602088381712e-03,-1.535074237183619607e-02,-4.116138973626901412e-03,-2.157800461464102690e-03,-7.502460142800124014e-03,-2.653873642632575904e-04
5.293536581493941268e-03,4.115582689819798079e-02,-1.356441025206606144e-02,-2.714202078243280192e-02,-2.649019519563428765e-02,2.967628310011489676e-02,-6.509664375627141446e-03
1.055127841745432705e-02,2.499286077928723065e-02,-1.225066914003396408e-02,-1.050198975722372446e-02,6.965609002282848600e-04,-9.847762529045832672e-03,-4.032559966680952096e-03
1.088801683857196917e-02,-5.487042768877910259e-03,-9.003289218721420573e-03,1.647768795030086358e-02,-4.435486375271016288e-03,-2.115265680981964682e-03,-5.737023852285116562e-03
2.616833043910535977e-02,-3.118180662931951432e-03,-1.997230396385746287e-02,-1.895848455499367065e-03,-4.748071380672944097e-03,9.588487030006347805e-03,-2.969413082213596781e-03
1.443974270361325120e-02,2.061250395895234538e-02,-3.987372965273536934e-02,-1.615368432193419260e-02,-1.231885900815860545e-02,1.231532741257505489e-02,1.931005745626071871e-02
1.150518728659369674e-02,-2.104518045691574810e-04,-1.019897758224632030e-02,2.230763011263325185e-02,-2.905934962241347140e-03,-8.574379422964720568e-03,-1.112554341733339169e-02
-4.284410019633791769e-03,-6.870174719636454319e-03,2.776347990524508785e-02,1.962970135469968569e-02,-5.835237040152379748e-03,-9.364799713234809794e-03,-1.499802358334566613e-02
1.435834342126834183e-05,1.476896243043439826e-02,-5.054540629248027543e-03,1.131042228364421628e-02,-1.580768349670194249e-03,-9.176859284954009058e-03,-1.121507686554348848e-02
-1.145327443120562096e-02,-5.319055604009430629e-03,-2.488659970783714103e-03,-3.961051866705991853e-03,1.486747357607754241e-03,1.142004503856109549e-02,1.107179870114557638e-02
2.854720744005131289e-02,-1.071084971259994231e-02,9.424643165994169708e-03,8.664929275860311624e-04,-8.934982684875096906e-03,-1.223525355650537799e-02,-8.171087466234574007e-03
-9.101341003669320695e-03,-7.183127856050579470e-03,-8.402433730658544903e-03,4.108193026996709990e-02,-1.172040048694512719e-02,-1.742731225252161942e-03,-4.540797163838213024e-03
3.242709764230266613e-03,3.803521492961547262e-02,-9.651663085696317659e-03,-5.777387078697940673e-03,-2.039804405140798263e-02,-7.262124684539144129e-03,8.194164156712780214e-03
-1.449434533377542099e-02,-5.589186753621093809e-03,-1.058628533765562305e-02,-1.288939464424270279e-02,3.811235629514116846e-02,-1.051970626710861667e-02,1.545821803562764420e-02
-1.513891496966727817e-03,-1.118204659191041842e-03,-1.682947613346493995e-02,-6.635046916185019690e-03,-3.588262015064472288e-03,8.303817794467613020e-03,2.333816896523177933e-02
2.169918935468904443e-03,-8.793833867909987834e-03,-3.749802654982225462e-04,-1.097625375935615613e-02,-1.250981192119528587e-02,2.780991400046438008e-02,-3.327686867170669962e-04
-3.119059929257828219e-03,-5.646238524738420722e-03,1.680243643801615202e-03,-1.524098321940708239e-03,1.162809949153587562e-02,7.265879289834173416e-03,-1.000281493188039453e-02
-5.160567336633397825e-03,2.100081410929298571e-03,-4.950789573207155930e-03,-5.206297292265076211e-03,2.292846821571015506e-02,-2.298002241136098446e-03,-6.827148563043490201e-03
4.054434780292821665e-03,-4.210384940789356316e-03,-2.788976484655559043e-03,3.210407237952207175e-03,2.660665788521135444e-02,1.343058173765077946e-02,-3.667046758976532511e-02
6.548769157532297047e-02,-7.185451494771845707e-03,-3.659909213025962227e-02,-2.693775604308974638e-03,-7.642031095126780235e-03,-3.469446708492504410e-03,-9.912895309054491760e-03
-5.212114579530989500e-03,-1.212906516651053026e-03,-2.364262108845638019e-02,2.111821206739296526e-03,-6.275793316252919682e-03,-3.423999072784697593e-03,4.116366070707644376e-02
1.503089179327434487e-02,2.858253599464247174e-02,-3.860418257268002917e-02,1.411502483949111063e-02,-2.343875463678082166e-02,1.398486765532599985e-02,-1.258731863501473536e-02
8.447818470144590960e-03,-1.080710494123282399e-02,1.349870060407909814e-02,2.236136406914255442e-02,-1.035500323991230161e-02,-2.931071595925709324e-03,-1.785241326572619552e-02
-1.656027111168049265e-02,3.694044169372141112e-02,1.373353303683615047e-03,-8.565062667035478958e-03,1.598144691392214961e-02,-1.288775299592814783e-02,-1.663408011120081839e-02
-8.200862803742433454e-03,-1.759325474276093176e-02,2.866731939032137605e-03,4.612588281536273566e-02,-1.565314628248422671e-02,-1.866649481930343288e-02,1.066987435416466221e-02
-5.534145116308191240e-03,1.646790687219557014e-02,-2.653887710288672236e-02,1.885946686767749764e-02,7.176402783425027236e-03,-3.182061470749997061e-03,-1.083163250947363938e-02
1.787034591400033607e-03,1.983243625154971611e-03,1.089846316824480237e-02,-1.923044127572069609e-04,2.407421085146334728e-03,2.200007309200926933e-03,3.977246838995173936e-03
1.927370397485623273e-03,-1.306045199091840879e-02,-4.902230203385085291e-03,-6.936476392024153170e-03,2.111705888033615225e-02,-1.038237070836069489e-02,1.233532122337869900e-02
-3.655884043945701461e-02,1.932873019185443048e-02,2.138741944625867971e-03,3.324807881718298830e-02,1.605878232128613373e-02,-1.162230872225745656e-02,-2.014313031778447449e-02
-9.482618352722618858e-04,2.398851648963051721e-03,9.025290569034038687e-03,-6.008257893120378355e-03,-6.787654883725833784e-04,-3.811546484919799051e-03,2.634694689706804181e-03
-1.308585886109869291e-02,2.148930612858761940e-02,-1.784939221968011996e-02,3.140177046299105768e-02,-2.169515655572870627e-03,-2.085081246105779246e-02,4.780769552967160593e-03
1.802692760600623986e-02,-3.533131835380109824e-03,-1.827409492954493522e-02,1.427748538496846024e-03,-7.561488706904417705e-03,4.598612034773546424e-04,6.253030305985287154e-03
-3.901723810230775004e-03,-1.435215778837368138e-02,1.365076178989551615e-02,-5.445297979435272454e-03,3.695293437680030775e-03,1.482567835188748108e-02,-8.137625930757400733e-03
-4.397094475762762349e-03,-3.353840319913261973e-03,-2.691892292793300005e-03,4.150115143227038964e-03,-8.495283977042003901e-03,4.162931098549450641e-03,8.508705354736283838e-03
3.498892025052090238e-02,-1.405494638071979295e-02,4.321826457764810919e-02,-1.417997408773643067e-02,-1.788068676910709726e-02,-1.913299784265492381e-02,-1.437528092020188761e-02
-2.349841910568217090e-02,-7.901550530731427796e-03,4.655836333047420894e-02,-1.008787531419850711e-02,5.523612288354390505e-03,2.735568400669873869e-03,-1.255206604582394768e-02
1.787034591400033607e-03,1.983243625154971611e-03,1.089846316824480237e-02,-1.923044127572069609e-04,2.407421085146334728e-03,2.200007309200926933e-03,3.977246838995173936e-03
-8.536423958803650638e-03,-7.459481163786123130e-03,-2.419169917840811694e-03,-9.699846940599856498e-03,2.058406820245831798e-02,1.098517453830188256e-02,-5.323058127910005807e-03
-3.482500190312420689e-03,-4.890777843360213928e-03,-3.684304824820744482e-03,2.819132574260398497e-02,-6.395320497931215702e-03,-8.526204531808658643e-03,-2.488270443766051141e-03
-1.277233521455153897e-02,2.714723674824579686e-02,-2.944509936575003678e-02,-1.487372893941195720e-02,-1.391381219201098590e-03,-1.595236188181148665e-02,5.125809923425499182e-02
-4.820366595712778342e-04,-8.212118307874459455e-03,-4.587844854597132420e-03,1.811497368266646105e-02,2.145955586614652424e-02,-5.050726015222575110e-03,-1.603399878232700942e-02
-6.441450177764096452e-03,-1.009936307215233845e-03,-7.508466487621200461e-03,3.170436795797332979e-03,-3.767855307627800045e-03,1.194376112430331482e-02,5.577310334379775858e-03
1.900362544735117966e-03,3.757919456635557681e-02,-5.237464652650665985e-03,-1.388429108762130604e-02,2.900266476820066372e-02,-1.307728468562139625e-02,-2.331298955657101074e-02
1.787672427824288065e-03,-2.295458078412141584e-03,-5.114558706726961192e-04,-2.563849112503499995e-03,1.626711559138733360e-02,-2.514646004301109104e-03,-1.085160577313361643e-02
2.226793748008560280e-04,-5.421072743570510589e-03,-2.680710325443160652e-02,9.888781718672629353e-03,-9.167102922117961739e-03,2.905964190344100667e-02,6.394102699729342643e-03
1.803445309545261693e-02,-1.562496966381560735e-02,1.051285072488730363e-02,1.009173461913622470e-02,-8.644005535793279280e-03,-6.459548268742789159e-03,-6.448533855574011160e-03
3.694179801553196946e-02,-2.253285184369135247e-03,-2.299173761248240674e-02,1.161686497988459119e-02,-5.658250878527552007e-03,-7.658775368341958975e-03,-9.278306423971873287e-03
-5.379503091514733180e-03,-6.263890562077829849e-03,5.269862360614380181e-02,-3.447628664352343861e-03,-1.321635485748344843e-02,-1.817993318969153907e-02,-6.807961891661630342e-03
-9.445034008001415224e-03,1.115514508432137106e-02,-3.133444652551339773e-03,-5.230556005830166132e-03,1.376642116743349332e-02,-7.036601219566316918e-04,3.249484898921488861e-03
1.415721238891117818e-02,-5.546670491462595519e-04,-1.142038538643409470e-02,7.858206727841933817e-03,4.243095277312720209e-03,-9.074379805005295535e-03,-5.516058860830212567e-03
-1.751724815636585345e-02,-7.906430686353266638e-03,2.998342602924830569e-02,2.184763828912606246e-03,-8.340029047461516160e-03,-1.955627497592912008e-04,2.799567899711885490e-03
-8.775534959704482316e-03,-2.359199067401868480e-02,-3.293392102734552657e-02,8.891349452476068546e-03,2.267995916626032102e-02,2.166227311388290236e-02,1.441847910596217794e-02
-1.555205077764947909e-02,-5.849432230426158084e-03,3.166851618114675804e-02,-8.416997976126348868e-03,-4.761707009747826250e-03,2.930409739584745798e-04,3.748415087432233062e-03
1.705141839085070471e-02,5.073923423909646249e-03,-1.524131912822195532e-02,2.439873500936206533e-03,-2.201227112764985762e-03,-5.023156070011125345e-03,-1.510598195165313313e-03
6.277365717092413255e-03,-3.167794936908355837e-03,-1.258048910954116285e-02,-7.759801974507540834e-03,1.893588019459105376e-02,7.595379765855109558e-03,-5.398147362433988912e-03
-1.127701050831541110e-02,-8.034817643950795552e-04,-1.241968372255775402e-02,-1.341450927167454552e-02,5.919985238248255677e-02,-3.760720756861871735e-03,-1.364235599088819972e-02
-6.873215696161306780e-03,1.038496363616438255e-03,-4.298799865928802470e-03,-5.146626844284014728e-03,2.649594246327706751e-02,-1.068235087010599958e-02,-3.425392734486363416e-03
-6.947034572121041016e-03,-3.298595606996977507e-03,4.798338851732050075e-02,-1.393657232928475001e-02,2.001533293275726839e-03,-9.162983961911289749e-03,-1.128606633579558836e-02
-1.345708335873025178e-04,-2.281270860550686438e-03,-1.685551172428349440e-02,1.228289891864020426e-02,-1.369852991081688988e-02,2.930902905162037844e-02,-4.172102024403946327e-03
1.616228035086810649e-02,-1.171167883819096422e-02,-1.821191718594601661e-02,-8.709524888984961771e-03,2.040169236691846341e-03,1.364528925211147548e-02,1.165336696888768023e-02
-1.732397289462619993e-03,-3.043568638518016640e-03,-6.845652746319992599e-03,1.324650646041055854e-02,-5.292448682326771417e-03,-5.923671793091728720e-03,9.450150148399911326e-03
-1.684576916384727605e-02,-4.130047188006821346e-04,2.263441924726898244e-02,-2.787683616636478859e-03,-1.836890453125743575e-02,4.224965641721005472e-02,-1.747732621438106981e-02
2.966253591064325207e-02,-6.175500480432704470e-03,-1.220608719738836348e-02,-2.365595889917851500e-03,-1.842803737127452889e-03,-6.834131504108555480e-03,-7.810447386720641063e-04
-5.285652084665026784e-03,2.112475665652781623e-02,-6.700119958481705502e-03,-7.132704814267667309e-04,-5.892395025477131613e-04,-1.161311435999872257e-02,8.018550410637200615e-03
-3.709646120580069838e-03,-2.179986892064284497e-03,-2.514962822403121225e-03,-8.329539817089498879e-03,-2.928172676814070220e-03,-1.263092419264112351e-02,3.298001705109061821e-02
1.527290033443732750e-02,7.529300416601955245e-03,3.514885925997831943e-03,-1.073154392021504269e-02,2.823208344318660010e-02,-1.921404922817056965e-02,-1.920959519274269972e-02
1.321771542902258276e-02,4.037508669103955818e-03,-4.225260033094249343e-03,-1.191199346674327517e-02,4.908427480682391389e-03,-6.304732397303022470e-03,1.795793312619512914e-03
-1.215052019802701985e-02,-2.782065224717809697e-03,-3.416882926622544312e-03,-4.022047212834541606e-03,2.834879383131520218e-03,2.467451228914040867e-02,-3.289020212440825486e-03
1.999936355529609994e-02,1.238999148958514537e-03,-2.205392500676365761e-02,-1.346804129552718653e-03,6.369344496003417899e-03,-2.988235027554857377e-03,-6.245894106368369940e-03
-1.033723284046939722e-02,-2.615038598187516099e-03,-7.050785195202698141e-03,1.926965722306841350e-02,1.837082981068827517e-02,-2.146243054372827530e-02,1.324913566231271031e-02
-7.100664588901395118e-03,-2.129523089624402871e-03,-1.301813135057948087e-02,-5.380941818590662465e-03,2.666203159284518537e-02,7.213438640987219867e-03,-4.683784169042766628e-03
-6.839282937791102066e-03,-2.543741817339801280e-03,-4.065112980627375375e-03,1.363685409290576675e-02,-2.618249598416775778e-03,9.463239210136340646e-03,-6.435205950058036847e-03
1.039236153496055949e-02,3.291992533491937267e-02,-2.815350848869514408e-02,-7.653859992662083445e-03,-5.067941222544670478e-03,-5.614886543526081270e-03,7.577988974262812698e-03
-1.890226689703035628e-03,-7.108665990289227046e-04,-5.944805211776931983e-03,-5.257509161503312080e-03,-5.466197716325630653e-03,-1.872861791506665085e-03,2.417202324770603011e-02
-3.066909050751270849e-03,-6.509065270248684185e-03,-7.307713441463065292e-03,2.500763975661691660e-02,-9.178512379869928697e-03,-4.409907930154638445e-03,4.844421288749710570e-03
-7.636850370788724959e-03,-1.289346461510825978e-02,1.987535577535485057e-02,6.072746392902842599e-03,6.962039728109349450e-03,-5.230856930975664489e-03,-5.221276600077347577e-03
2.941981288965938093e-02,9.059500667732367507e-03,-3.712115525277438939e-03,-3.272941588540075747e-03,-8.957467700465798419e-03,-6.454229541755762342e-03,-1.247385654688233994e-02
-3.823300224396249808e-03,4.326129440401605547e-03,-6.888607496822195080e-03,3.980547998892617137e-03,3.920477504026428570e-03,-4.296302842802642019e-03,4.153337263182467194e-05
-6.671638080225951450e-03,-3.686067140085237150e-03,-5.510300880611035575e-03,1.139404266831618370e-02,-7.411994020004144049e-03,2.248962386726368126e-02,-1.013757959707822787e-02
-6.380322215852147691e-03,-1.310984050432676719e-02,1.890171387312069087e-02,3.776107080298732408e-03,-1.551394728942480372e-02,1.127014524742445470e-02,2.489939964442610017e-03
-1.063961594820923666e-02,3.363062449975703395e-03,-1.568425898573203069e-03,-1.654338779376050145e-02,-1.500930617132391863e-02,-2.747805068098653318e-03,5.070335192068744362e-02
-1.335445777860810521e-02,-5.690458311427950069e-03,1.714415822508660869e-02,-7.819206963293570331e-03,2.898961011679741448e-02,-8.738653389819937486e-03,-8.229907789863990034e-03
1.201540489421755800e-02,1.872322349665859337e-02,-2.053955158595940564e-02,-9.661059705625715463e-03,3.681401655406734471e-03,-1.142780826629106886e-03,2.378711038026816004e-03
-1.554775977206277696e-03,-5.728540534210328598e-03,2.485720887525208825e-02,-8.027638593643322135e-03,-1.065029930051046396e-02,-1.467129788014832599e-03,1.846478000372075339e-03
5.933940706384173772e-03,2.480176079219193440e-03,8.299685681690315096e-04,1.542171467939635124e-02,-8.856709219469655059e-03,-7.797138232556416297e-03,-8.440967548541847970e-03
-1.301363343844780772e-02,-5.288300462367128210e-03,5.377907573748173450e-03,-9.087696566974485732e-03,1.682156014030123173e-02,5.079968293209426167e-03,2.595980585656183824e-04
-1.112013147033206854e-02,-7.593051955358235197e-03,1.962859382162374794e-02,-4.269173457594050564e-03,-7.750044234661623670e-03,-6.789964816968705255e-03,2.098332200653236362e-02
-4.237987185506742263e-03,-3.206526454799438035e-03,-1.470076334890998027e-03,1.920528905768296296e-02,-8.955904904402799821e-03,-2.882115338469860844e-03,3.575014595014662597e-03
1.239909342766027170e-02,-5.223464373482950007e-03,1.155409592975367630e-03,-1.288848212885566023e-02,-6.573417613718507239e-03,1.257504082874181736e-02,1.906692267696013122e-03
1.342054620262844201e-02,-9.166930905561556514e-03,-3.364301756410986721e-02,4.636932391218271179e-03,-2.092727712042572255e-02,2.184318892148235519e-02,2.504522797048102170e-02
-3.310072388365343198e-03,-3.110563238955973715e-03,4.570621399777125005e-03,-1.630898478290826849e-03,4.648334884628293855e-03,-2.509633929285389788e-03,3.364876310880720624e-03
-2.242332059472578430e-03,-1.657590945108509267e-02,7.685269191863959397e-03,3.001729834752795908e-02,-1.162556517882775212e-02,-8.870398774001303629e-04,-6.438608344937301123e-03
1.787034591400033607e-03,1.983243625154971611e-03,1.089846316824480237e-02,-1.923044127572069609e-04,2.407421085146334728e-03,2.200007309200926933e-03,3.977246838995173936e-03
-6.433180930171621299e-03,-3.647088889257686737e-03,-4.743315483996075541e-03,1.363012203727007043e-02,-6.724367200857311877e-03,1.263720846145427804e-02,-7.913443426954257578e-03
-1.605104358396555048e-02,4.343589695567858650e-02,1.686620446359334046e-03,-4.443650698060428415e-03,1.799030864548444627e-03,-1.198707768440579642e-02,-1.281059431393474259e-02
-1.341363455961945041e-02,-4.746936664726501484e-03,3.994075979708557045e-03,-3.983010884471073140e-03,-4.665718429251225832e-03,1.515953668340087011e-02,5.203064071233416167e-03
-6.320977470537797287e-03,-1.362198770016299562e-02,2.487752581853017522e-02,-6.476474145037047769e-03,9.877902318290620459e-03,-1.181410316638876849e-02,7.836570476593900797e-03
-4.719307276774793031e-03,4.305176232785349992e-03,-1.175664087710614342e-02,-3.331051261212054828e-03,-1.135037528028476697e-02,-8.457441158237840803e-03,3.503516697519935136e-02
-5.453730633972421818e-03,-1.169691513397661496e-02,1.132373590896183085e-02,-4.361929753682174463e-03,-8.948255872994720361e-03,-2.727619379287211585e-03,2.522497168850475549e-02
-2.174712109271082633e-02,-3.007670758278816522e-03,3.774817345729776594e-03,4.517040555303399041e-02,-2.526161283884134807e-03,9.132967884680312162e-03,-2.375578486105663772e-02
-8.463911892547961932e-03,-5.841044604138278563e-03,-3.600815019534615077e-03,2.548426315885751747e-02,-3.959414262327743371e-03,-4.643154773923968345e-03,4.381902609083232654e-03
-1.385570121597761752e-02,-6.683622627414699362e-03,2.651832314953180350e-02,-3.611878826781900111e-03,1.625201779842369663e-03,1.530190160417995793e-03,-6.076565265948341392e-03
-9.056095955926603616e-03,1.144335386202885788e-02,-1.864496816479128613e-02,6.800569610045230709e-03,-8.694665750119345837e-03,1.988128378926334178e-02,9.032912967151127614e-05
7.517077709863850474e-03,-4.792207711464804322e-03,-1.164632577320161289e-02,3.935588322271035833e-02,-8.332588295441378107e-03,-1.678752092235238913e-02,-5.952063671302951220e-03
-6.961291967082369140e-04,-3.776864147741267139e-03,-6.194947157152218449e-03,2.922285027801877627e-02,-6.123519149519670093e-03,-7.521234871236284411e-03,-5.949590645704994074e-03
-1.809115278862343619e-03,-2.061094511485892129e-03,-5.980894162125618974e-03,2.226139254034784770e-02,-6.280379868289652848e-03,-8.233805682103216431e-04,-4.060242638767599076e-03
-8.549880666933199142e-04,2.079800165543802329e-03,-1.046504444367523864e-02,4.554397627502819630e-03,-6.002658577133333437e-03,5.008693495436340216e-03,2.341935164971010661e-03
5.521294012330111439e-02,-1.062248324225782518e-02,-9.613584929724115075e-03,-8.139078974853690071e-03,-1.248047175308103843e-02,-1.268107027788319997e-02,-2.388373925793137523e-03
2.908537384553342917e-02,-1.611755057665154381e-02,-2.988703619629903829e-02,8.822198025080033382e-03,1.514178064637712248e-02,-1.788206854549501817e-02,1.471475780357688404e-02
-7.719255990177536705e-03,-5.301389918040591565e-03,-1.380229445286370107e-02,2.510175898141935730e-02,1.950134813700366704e-02,9.751683525687015542e-04,-1.893044209320349919e-02
-4.184694722028278399e-03,-2.696113464646468852e-03,-2.010769784471404318e-04,7.219370491390032958e-03,-7.163245880901057336e-03,-1.110059244564899975e-02,1.826619105196433321e-02
-9.745681805454349880e-03,-1.097441422476655611e-02,3.647434835122074365e-02,-1.231914070132311516e-02,3.949618796729162037e-03,-3.392357807875790061e-03,-2.448143217872429146e-03
-9.696152911849876405e-03,4.960546460551637331e-03,2.724038817786602999e-03,-6.180485273745933358e-03,6.533142522447611678e-03,4.236371154590899170e-03,1.819367056162401021e-03
-1.593373642429775968e-03,3.392741657468176936e-02,-7.599662657368587600e-03,-4.061510340258043909e-03,-1.724524229462491174e-03,-5.949384176679319014e-03,-1.207362520022447518e-02
-5.826220934150756758e-03,-2.168741317818227536e-03,-1.458108825765556038e-03,1.063768478454824550e-02,-1.028156247145691274e-02,8.196934220605876786e-04,1.031038607842789043e-02
1.140867743037116133e-02,-8.410095408811705652e-04,-1.138522933061800538e-02,4.706322638456627606e-03,4.417118624996526147e-03,-2.766323848092256364e-03,-2.014901534083172151e-04
-6.823615578654143587e-03,-2.336388518650848838e-03,-4.096394194176578192e-03,7.407520777898230109e-03,1.080976369719309146e-02,-6.618773433056716893e-03,1.291425650177170257e-03
-8.667005730443120681e-04,-1.958839870135693946e-03,-7.462990911286134302e-03,6.627776618172385829e-03,5.210516573963380402e-03,-1.881181492487420418e-03,1.024113218660087898e-05
-1.537568223189781161e-02,-1.928106313349518125e-02,-9.320466247146939540e-03,3.989350466351818808e-02,7.359230268895124508e-03,-7.881068776879307167e-03,9.663222964671190976e-03
-7.944867158792067591e-03,-9.568172863551365620e-03,1.490413288132386160e-02,-6.408573416932334885e-03,2.622626426305593728e-02,-7.334883288952845533e-03,-8.585718533538521519e-03
4.462435914169751022e-03,-7.413419706790642591e-03,8.783455570218699207e-04,-6.106588700037306368e-03,-3.589118810296014397e-03,-8.019408753641415338e-03,2.199622962905144544e-02
-3.849185445820618029e-03,-7.006759876948986943e-03,3.946229676510317613e-02,-1.271833962425027685e-02,1.103821241675234134e-02,-9.063007055538297579e-03,-1.877922384272111278e-02
-2.697993100160272356e-02,4.653153014474933555e-03,1.705976050172267489e-03,-9.753822924704584271e-03,-1.248050220596423447e-02,5.154762758601374312e-02,-4.110685472269936906e-03
-4.505854731202770316e-03,-4.008119648945736649e-03,-4.932181900864393391e-03,1.985206226503407473e-02,-5.168219270243924399e-03,8.561900353053356679e-05,-3.941874727009547774e-03
-3.769707619378974504e-03,1.355309766656452152e-03,-1.205552401333980991e-02,-1.659612704178289183e-02,1.921930432154892246e-02,1.846087974021551293e-03,8.315220166949504471e-03
1.787034591400033607e-03,1.983243625154971611e-03,1.089846316824480237e-02,-1.923044127572069609e-04,2.407421085146334728e-03,2.200007309200926933e-03,3.977246838995173936e-03
1.528226836057760760e-02,-2.104231334327465262e-03,-1.001170475243190992e-02,-4.224202767735650045e-03,-3.112995104943615775e-03,7.729238381486765175e-03,-5.103829325691909037e-03
-1.224096232350512306e-02,-9.201478885168186059e-03,-2.316186064355030966e-02,5.958880625092186946e-03,8.506279198722396448e-04,2.043526361883104409e-02,1.918414506636271361e-02
-4.124350748778417286e-02,5.700613093715584112e-02,1.439944314459506991e-02,5.747448002531733297e-02,-2.111429887748953599e-02,-2.121377448585077402e-02,-4.097673843796951348e-02
2.797537167779345912e-02,-1.252632657755491964e-02,-2.153788364420302498e-02,-5.004469608899407562e-03,-9.931592652479663552e-04,1.704370318978887938e-02,-1.192347427811696293e-03
-1.704727040937811799e-02,-9.107070854568886020e-04,-6.968423821287705877e-03,-1.489944886599102111e-02,1.055626181684594586e-02,2.638296719287434172e-02,2.244517456818684135e-03
1.282982008699268782e-02,-7.589382552282373899e-03,-2.471601241421198664e-02,1.022507712262919755e-02,-3.566304695012610573e-03,-6.287514321492232265e-03,1.351637748985975648e-02
3.997678856482915488e-02,-5.482451898469572343e-03,-2.282385643579944515e-02,1.237549062519084815e-02,1.536125906737551353e-02,-1.396741785209435968e-02,-2.281857632773360428e-02
6.157546148420497099e-03,-5.119999321926573151e-03,-1.638673374154211992e-02,4.339754023990713416e-03,1.061394707487066033e-02,-3.004562328636623241e-05,9.829738609548990032e-04
-2.295961768999082737e-03,3.632848106981813319e-03,-7.554709272046373006e-03,-4.522200590827819377e-04,2.416709114351789367e-02,-5.075894897820688520e-03,-1.096417444050298146e-02
-8.073289841354440097e-03,3.162977138438310964e-02,-1.741853841385296656e-02,3.635263395649043165e-03,-4.372457630433748341e-03,-7.135517187003732886e-03,4.671658501403221433e-03
3.376368366648839492e-02,-5.181823017424295791e-05,-7.840097916365276060e-03,6.163251072733831777e-03,-1.026359478666220328e-02,-1.352716189806139890e-02,-7.696456914263095743e-03
-1.926681533631991643e-03,5.944287414758780627e-03,-1.989363304515056469e-02,7.381021128965263578e-03,-6.883329434361752609e-04,2.957892161900825892e-02,-1.331569069177440320e-02
1.987189778424566095e-02,-5.140653653185170251e-03,-2.539711133360790865e-02,1.134960772580654795e-02,8.141489874944809330e-03,1.388365610895153646e-02,-2.289117344544807156e-02
1.826204119945375876e-02,-6.225895958995404308e-04,-1.609624643576480427e-02,-7.165687583833306798e-03,5.393760134141287535e-03,-1.802259187962484185e-03,2.690461627484581116e-03
-1.304268908958506126e-02,4.173867993739898037e-03,5.070070293628060887e-02,6.868167872320683027e-04,-1.634050140371976628e-02,-1.500991890471498925e-02,-7.992505667445432699e-03
-8.965068897013227234e-03,-2.697332491363104053e-03,2.014550804602607825e-02,7.762761478382140617e-05,-2.836261666550776890e-03,-8.289663780940330698e-03,4.608291128298536328e-03
-2.095781939164979152e-02,-1.240615207572817388e-02,4.937842153540213108e-02,-8.803772522635925496e-03,-2.357734227957729300e-03,8.743707879316726939e-03,-1.151896760417824191e-02
-9.293941099694363883e-03,4.920249533515922948e-05,-1.237681792675154879e-02,3.111043215232888251e-02,5.794317544161672537e-03,-3.545368706642080484e-03,-1.296501358144173596e-02
-7.821098584203659693e-03,-5.900223537125538070e-03,-1.357773553874925057e-02,2.229685114257732442e-02,-1.208429696562783769e-02,-1.273971911640319962e-02,3.081927350827160655e-02
-5.826925261835496153e-03,-2.402619166758005777e-03,-5.663687610256666963e-03,-5.331823076869949066e-03,1.943356715657546321e-02,1.143589744056026404e-02,-7.260178509666563237e-03
-8.940079218610652231e-03,-1.800818794843773735e-03,-3.470741792610641894e-03,7.266164381034077857e-03,-6.465271125149556382e-03,-3.986032837723954038e-03,1.895172235248849743e-02
1.939112029960727776e-02,-5.122951394626238525e-03,-1.852743856641051248e-02,8.709876205124086196e-03,8.082092049148992957e-03,-6.835282423886366795e-03,-2.638698100376475446e-03
4.090395596462315445e-03,-2.281266521544577058e-04,-1.705482740356996721e-02,-8.720160590560559893e-03,-1.000939922900560830e-02,-7.519891291304156913e-03,4.351500429718887369e-02
7.962435706753506759e-03,1.366974676304080413e-02,-1.511581668782194590e-02,-3.430469084597621669e-03,-4.382331432360481345e-03,2.943404683533698551e-03,3.058893238001791047e-03
-4.300890626805130290e-03,3.449333049709316264e-03,6.408174215182730130e-03,-6.646051201797249959e-03,1.525903211420983306e-02,-1.206852793470330684e-02,-2.776440769555992526e-03
-5.118732407548287622e-03,-2.722543157750174480e-03,2.287094056755908239e-02,-6.194514129448974900e-03,-5.554148531466442107e-03,-5.114084860008486812e-03,6.625958513695828864e-04
1.116277542061097638e-02,-1.051987291318872732e-02,-6.751452783014101275e-03,-6.157160431914460857e-03,2.691866260847127282e-02,-1.147769922156585687e-02,-1.050051866992036953e-02
-7.935611681390376815e-03,6.260670191914330211e-03,4.432853748442032796e-03,6.207073003739820537e-03,7.567738643054984331e-03,-1.068865687313761206e-02,-3.512118799541222997e-03
-1.286723111534724719e-02,-8.329113050506197283e-03,1.982689073977513677e-02,4.736814076154369051e-03,-1.228728652126648150e-03,4.472336349599583157e-03,-5.731589446935064086e-03
-8.129273751304840617e-03,-3.692355344153872097e-03,-5.503554853284451688e-03,-8.783537763499504186e-03,8.467815537877678225e-03,-1.029107141137982663e-02,2.791944925696551727e-02
-6.658922890771773462e-03,-9.728047972610585686e-04,-4.039054950076569105e-04,-4.845548351945863814e-03,-8.308067083660785473e-03,-2.289770777523693866e-03,2.631319570046929471e-02
7.169792328968763173e-03,-7.610587588218265583e-04,1.137800814344336981e-03,8.362754550436986159e-04,-9.053702677414589978e-03,-7.962989971393793706e-03,1.365718450333721322e-02
-1.707065163998384982e-03,1.866331462217461767e-02,-1.922637859559674089e-02,-4.639434709548450816e-04,8.127835472703523814e-03,-3.220568480279390518e-03,-6.936645607753157551e-05
-1.218093094940824253e-02,3.789560323062200666e-03,3.326577382211061418e-02,-5.183066980838391472e-03,-5.607373515500351305e-03,-3.713538693901814215e-03,-7.175898022229613982e-03
-4.079701052432686478e-03,3.212576598300871666e-02,-9.519070265746646178e-03,-6.182222840075674193e-03,-3.684811229321965139e-03,1.504183972758067322e-03,-1.081922731326509686e-02
-9.329290799188811115e-03,-1.881589928027295119e-03,-5.745754734185436023e-03,-7.289027891010479814e-03,-3.758208696456054147e-03,2.453729946481368260e-02,7.549851171715487967e-03
1.787034591400033607e-03,1.983243625154971611e-03,1.089846316824480237e-02,-1.923044127572069609e-04,2.407421085146334728e-03,2.200007309200926933e-03,3.977246838995173936e-03
-4.775699084291236754e-03,-1.452228569170007332e-02,2.456710347927264920e-02,9.648123651896106309e-03,-1.605633149147965219e-03,-7.227518480320997869e-03,-3.134764849657474539e-03
-9.573077925994991771e-03,-7.323891934018310519e-03,1.950914033746891860e-02,-2.336704384906424219e-03,-7.352343915060515975e-03,-1.063224714711552207e-02,1.769207910925011881e-02
-1.864201458543191317e-02,1.438534418018397321e-02,1.857752956373150827e-02,-1.128048426928619785e-02,1.100855151974300741e-02,-7.774481376690724373e-03,-6.654794921904692677e-03
3.630032971503014544e-02,-3.669744139580849440e-03,-1.947628178358623563e-02,5.017504257904909989e-03,-3.060361198117331726e-03,-1.146869506084725876e-02,-6.091226034329893894e-03
-7.768432195550643848e-03,-4.562397321803780066e-04,-8.415027001780327892e-03,1.120887674469968689e-02,1.682640152359360375e-02,-6.695539690544134379e-03,-3.695571552892486060e-03
9.997987712129943836e-04,-2.179403173675297889e-04,-1.319370410240318717e-02,-8.699606627562792016e-03,2.321427989302703512e-02,3.421054113548647243e-03,-7.477274110674126013e-03
1.323239679193072282e-02,4.251131848933900614e-02,-3.803450313196322929e-02,-1.858125843587325396e-03,-6.417536885875802996e-03,6.924414120926395896e-03,-1.602379412383075907e-02
-9.307057147053163573e-03,-1.748467406648773325e-03,-5.222775368511681053e-03,5.284559527209136028e-03,8.895257519246021344e-03,4.728354737944188112e-03,-4.377984932153912781e-03
-1.040378630908574305e-04,1.547646271263811678e-02,-2.252907291843490520e-02,6.234434707869227280e-03,-7.727230357830895853e-03,5.688152319004945428e-04,9.980611015848376774e-03
-1.707139798464512052e-03,-7.755787180852197031e-03,3.341890632182960286e-02,3.687950596245521441e-03,-1.112047291385623868e-03,-1.507152360367741695e-02,-1.083357269020622862e-02
9.424249945916030394e-03,-1.564853640698467968e-02,-2.499108957493919453e-02,1.585891659351595234e-02,3.900397718014968901e-02,-1.067034260563201262e-02,-9.159057590189220374e-03
6.285518531826052302e-03,1.517260509520384007e-02,-3.665257757191048901e-03,-5.104088610515577010e-03,-7.460668108169197718e-03,-3.665531436163820640e-04,-3.539739946861324670e-03
1.281666273243608697e-02,-2.840107647366582784e-03,-1.728597934145157181e-02,3.812568359258476647e-02,-1.086763333821425849e-02,-4.330243628631685014e-03,-1.495316935627392929e-02
1.119016780774032688e-03,-1.968855960639833563e-03,-1.195773635035888433e-02,5.312096089014775244e-03,1.238990665141319683e-02,-4.177021738373287371e-03,1.576785181527274801e-03
-4.167870262177910193e-03,-3.920075614561283235e-03,1.023792432930755846e-03,-1.063412902611365202e-02,3.200027246391975999e-02,-4.415933054193686355e-03,-1.083974112123710018e-02
-3.893700192433158756e-03,-9.730246235362585011e-04,-8.633525505419448881e-03,-7.510509730654914458e-03,3.112644337962717361e-02,-3.080660765913926721e-03,-4.707171463947000187e-03
-6.849981546548864104e-03,-1.321030344614166838e-02,2.424030454068042476e-03,-6.844047724060287226e-03,1.024297915139295041e-03,4.035533822945561871e-02,-1.112969442241471159e-02
2.539139128371296558e-02,-5.740401812629735215e-03,-1.688119323016745374e-02,-1.476748703086771912e-03,-5.232563766091061219e-03,3.354826738166199161e-03,1.336721865461218232e-03
-1.690527359207480776e-02,2.564454445566828958e-03,2.911613736787072720e-02,-1.185354726820901997e-02,-1.671491007381493282e-02,1.419127778483303057e-02,-4.079337305305692774e-03
-5.340073355196328815e-04,-3.121254950400028597e-03,-2.451374608474012583e-03,4.059490066226608199e-03,-5.201141974266636388e-03,9.849377776205276575e-03,-3.097442882987336624e-03
7.893415296014562668e-03,2.012849678064439381e-03,7.158500517119835600e-03,-5.004335589381295017e-03,-6.741160920055874750e-03,2.538205663807887973e-03,-5.278416433191998949e-03
-7.119796575325396115e-03,4.855431829164175150e-02,-5.171432919170670939e-02,-7.737021688544620801e-03,4.642602922066506321e-02,-1.392308695373522739e-02,-1.933657872779448450e-02
-2.041301722225080661e-02,-9.593515541076604036e-03,3.260546922441484585e-02,6.086087693158373155e-03,-1.268237627924105951e-02,-3.913266246443609757e-03,1.084924892451401973e-02
1.344348933663771714e-02,-4.795538297171849859e-03,-3.139807658162169224e-02,-1.210320489301573016e-02,7.467495876705809721e-03,1.103417783731749577e-02,1.481158837028397415e-02
-9.491834945759820927e-04,-3.532307921212547806e-03,-1.569775845981257606e-02,3.930174191589742849e-02,-1.425291052831278472e-02,-3.767351449924094455e-03,-2.425349588762475226e-03
1.787034591400033607e-03,1.983243625154971611e-03,1.089846316824480237e-02,-1.923044127572069609e-04,2.407421085146334728e-03,2.200007309200926933e-03,3.977246838995173936e-03
1.787034591400033607e-03,1.983243625154971611e-03,1.089846316824480237e-02,-1.923044127572069609e-04,2.407421085146334728e-03,2.200007309200926933e-03,3.977246838995173936e-03
-4.030697087879580968e-03,-4.905312662211109079e-03,-8.444092337481771959e-03,3.533995825220407477e-03,-6.476337171222794169e-03,1.053115238464105360e-02,7.560902735257395320e-03
-2.359470658171846681e-03,-3.848025562995900043e-03,-8.046887701228275930e-03,2.678783081960768586e-03,-7.643830816735093514e-03,3.202980579065501624e-04,2.200620282824002072e-02
-5.160913721024785496e-03,-7.540590148187145507e-03,2.632451751418430491e-02,-6.311230975231436544e-03,1.003460310653319677e-02,-1.726825672527500244e-03,-1.155183855367993007e-02
1.787034591400033607e-03,1.983243625154971611e-03,1.089846316824480237e-02,-1.923044127572069609e-04,2.407421085146334728e-03,2.200007309200926933e-03,3.977246838995173936e-03
-3.245674588945860004e-03,4.729537813336215238e-04,-1.086032180096109870e-02,-4.829886771770200947e-03,1.179922684869747287e-02,-2.328320086520036403e-03,8.424608479355546672e-03
8.999082402008310583e-03,-1.396005239569837741e-02,-1.500507231294477030e-02,-2.529225065467447398e-03,-1.031450995775073411e-02,2.086602294860955345e-02,1.849316923049528286e-02
4.103752923433021810e-02,-1.429456628999988769e-03,-3.071895557721599640e-02,2.687931086785298523e-04,-1.062135173891424859e-02,8.307763327104408790e-03,-7.348304295552594498e-03
-4.203874425709909837e-03,-6.714004541765121459e-03,-7.022681371740962034e-03,-2.970470153280866093e-04,2.969832462758315722e-02,-6.912984225288766431e-03,-7.667461876661843360e-03
-1.600392355004038106e-02,-3.738874347748129441e-03,2.231727100539401126e-02,-1.020231455754965801e-02,6.903285170831659039e-03,-1.950330343996835693e-03,2.534100532845257568e-03
2.139426225580401408e-03,5.378757037731069640e-03,8.954866313350934304e-03,-1.202938143237278559e-02,-5.678892329738409808e-03,4.793868059077736367e-03,-3.907186647290655963e-03
4.123824612393481304e-03,1.506290499541006840e-03,-1.483030405600473979e-02,1.357000578268154935e-02,-1.545049878127193778e-02,1.516219963696117598e-02,-9.562924441892146563e-03
1.209042635495701304e-02,-2.130880840586422270e-02,1.597560518995940274e-02,-8.291343071000014525e-03,9.933336119600255990e-03,1.184303064718018102e-03,-8.233841595696428373e-03
-3.311286924876482348e-03,-5.434382648072716773e-03,-2.074172655364372314e-02,-7.275409058723382102e-03,-5.713988466015501935e-03,4.051766967897255448e-03,3.821278758431880668e-02
-5.462592349820995577e-03,-3.603723917655417448e-03,-5.978286488849412529e-03,8.901011039779910608e-03,-3.741177454050258373e-03,1.091476377627777434e-03,7.502652475155589633e-03
-6.020528510134736354e-03,-4.860661011787637334e-03,-2.092885894260682403e-02,-3.726217160493754989e-03,5.173843891728625854e-02,-5.489459608281262518e-03,-3.565675992572932187e-03
1.348674640631772250e-03,6.675642498235686943e-03,-2.552975122749414488e-02,-7.105048158787712238e-03,-1.181783750399093003e-02,1.519611139087601037e-02,1.742942392968293772e-02
-1.126279875789392218e-02,-8.119979790751217369e-03,-8.606633139691861195e-03,-1.090105403582507411e-02,2.428706327465430387e-02,-1.048663176916877701e-02,2.782877872225649613e-02
4.368454135948219609e-03,-1.415662348830149051e-03,1.818331930842170124e-03,9.129648545452017511e-03,-1.096781738788573345e-02,-3.607194736175808880e-03,1.980676120182149613e-03
-1.346553209538546569e-02,7.013623725729722924e-03,-5.319940822998807937e-05,2.623758941580600634e-02,-8.104700021277253669e-03,-1.283198347299130057e-02,1.060753111146317366e-02
2.054582823352959706e-02,1.387000134519960834e-02,-9.907792564075026606e-03,-5.780496154968479440e-03,-5.745395992841212385e-03,8.596726373341905415e-04,-2.840918671970588550e-03
1.338077865670291543e-02,-5.590661695094784923e-03,-1.552478521557902960e-02,7.129101991352000591e-04,2.903870715208447043e-02,-1.085130473810941472e-02,-6.333741352082880582e-03
-1.312711409622078010e-02,-7.107459394264360741e-03,-2.546228745148568229e-02,-1.915449452371947164e-02,1.556239437478222978e-02,6.360212363266712354e-02,-1.183977981861126724e-02
-2.878272792901468303e-03,-3.015913228676226992e-04,-2.273786944426852558e-03,-2.551017554862939924e-03,1.114159510503306277e-02,-4.673047035851215711e-03,1.338011566917823945e-03
1.290840391772870091e-02,1.049449217860637038e-02,4.632698694423206635e-03,6.438539121093623044e-03,-1.606106375684478171e-02,2.011735532337471585e-03,-1.862487964391508141e-02
2.499419244516742217e-02,-6.935196875930980769e-03,-2.527024109725416797e-03,-7.502222431525612349e-03,2.402859493874348780e-03,-6.323094876326940290e-03,-8.468870318256511293e-03
-1.112151940352968174e-02,-1.464720911374640423e-02,4.041495534501093195e-02,-9.457889036549430722e-03,-4.250505630085198334e-03,1.336465840069669866e-03,3.844719779107390930e-04
-7.651850022184257332e-05,2.428755205961589971e-05,-7.684084671731502766e-03,-1.122069287689768380e-02,-7.473526446241618611e-03,5.381062406500626387e-03,1.852833954428186741e-02
4.202839456870590719e-03,2.321891917973580802e-03,6.524563018023102345e-02,-2.060765006877002606e-02,-2.107293847188140140e-02,2.916336628407039354e-03,-2.171953713818288584e-02
-1.141523595492397250e-02,-9.572899447896392883e-03,-6.595384417320669483e-03,-1.235438924477576771e-02,1.532949720932632806e-02,-9.714663751553619803e-03,3.712606529574104253e-02
-1.059311068394529209e-02,-1.909387056547860490e-04,-2.301583957394753160e-03,-7.764748190532122334e-03,9.647101019375861966e-03,1.532927182655825435e-02,-1.186273965979266253e-03
1.787034591400033607e-03,1.983243625154971611e-03,1.089846316824480237e-02,-1.923044127572069609e-04,2.407421085146334728e-03,2.200007309200926933e-03,3.977246838995173936e-03
1.538305707173790934e-02,-4.454957233468636625e-03,-3.121032209906342021e-03,-6.095427699241944127e-04,-4.968060131869357285e-03,5.550895840965809278e-03,-6.046502301710048911e-03
1.475255070388382592e-02,-8.075108775258469512e-03,-1.168780196630991343e-02,-1.139275700833231562e-02,1.151223211374954869e-02,1.068616989416265421e-02,-7.153187641009597919e-03
-1.528915280117543185e-02,-2.895733528956245719e-03,-2.083404721038917447e-03,1.316226309849486895e-02,-4.970957837587141812e-03,2.155128170214690858e-02,-9.748000656484342302e-03
1.787034591400033607e-03,1.983243625154971611e-03,1.089846316824480237e-02,-1.923044127572069609e-04,2.407421085146334728e-03,2.200007309200926933e-03,3.977246838995173936e-03
-5.068720388539943791e-03,-1.475236069221735544e-02,1.087217218617267042e-02,-5.237495604330922976e-03,8.744248791677962374e-03,1.294750193891169333e-02,-9.046813020579202308e-03
-8.985722688024080224e-03,3.088668259757426648e-02,-7.060921533951854470e-03,-6.500686926926521961e-03,1.046973854170397435e-02,-1.141903138516648861e-02,-7.484144981096837968e-04
-8.311141523194311848e-03,-7.655693735559962639e-03,-1.519857167643613293e-03,5.994771473355925070e-03,-9.973286063357086548e-03,1.946839287674735283e-02,1.768960012270482133e-03
-1.417180731243956882e-02,-4.817632832939760211e-03,1.077195573658501840e-02,-7.547117343339166881e-03,1.318161066814415097e-02,9.348087727370798725e-03,-1.300608217373691502e-03
1.827099464453040695e-02,-1.514332000905296415e-03,-1.292501603802346556e-02,2.380085865337733426e-03,-6.139956394514604378e-03,7.624381230921293759e-03,-9.898421619003566416e-03
6.901811650800162776e-03,-2.591755595719073737e-03,-7.266023025356456444e-03,-5.982030461737201585e-03,2.036406737227912985e-03,1.739856380763010399e-02,-6.941412295005200059e-03
6.902928698981144681e-03,2.342674748313555017e-02,-3.946720996412340920e-02,1.141385247587780455e-02,4.437173748017190708e-03,-2.055086048806933127e-03,-5.897806855858419087e-03
-9.088440639300124704e-03,2.368543748051688685e-02,-1.748647991161666679e-02,-6.265951283178442140e-03,-2.882918763944304023e-03,-1.144587847031866383e-02,2.248289589663134830e-02
-1.033877041250534472e-02,-6.874795317385914810e-03,-3.144457556339129520e-03,-7.919453429573132183e-03,3.206263038869976156e-02,3.083812670663629244e-03,-8.129139323727517519e-03
-2.832685537343932955e-03,-9.886031769055851973e-03,-7.962127045284813492e-03,1.902495536673898258e-02,1.175242969524557292e-02,-2.201437309952176003e-03,-8.591449395604444303e-03
-6.697945618523227715e-03,-4.225227223814824115e-03,-5.702281417198978505e-03,1.442120717850427832e-03,-3.429346615427088848e-03,-1.296924727054110660e-02,3.370391611711476276e-02
1.787034591400033607e-03,1.983243625154971611e-03,1.089846316824480237e-02,-1.923044127572069609e-04,2.407421085146334728e-03,2.200007309200926933e-03,3.977246838995173936e-03
3.332948580874487365e-04,1.597496862511559729e-02,-8.517750776418185968e-03,1.862956587631078853e-02,-1.470725136290134370e-02,-4.451862116971098612e-03,-4.828602448687825156e-03
8.640741238539110733e-03,-7.543085251225239984e-03,1.238396668352744270e-02,-2.238779199722973172e-03,-6.834035966779001929e-03,-1.192770010668312182e-02,5.778550954019414168e-03
1.906130449784133180e-02,-4.156174095775119932e-03,1.022222300428662564e-02,1.535546831800613590e-02,-1.116351012366685949e-02,-1.400877287032950905e-02,-1.605669174497480201e-02
3.208891928887053820e-03,-1.991210995895973041e-04,-2.669355110452718491e-02,2.345483268129998876e-03,3.852345097938094341e-03,3.181166913903767796e-02,-9.141266000835895911e-03
-1.670935961316485224e-02,1.332478078649856380e-02,3.310259514974396577e-02,1.396955627601843180e-03,-2.344191549898066128e-03,-1.829209306568345753e-02,-7.309699086810166058e-03
7.893415296014562668e-03,2.012849678064439381e-03,7.158500517119835600e-03,-5.004335589381295017e-03,-6.741160920055874750e-03,2.538205663807887973e-03,-5.278416433191998949e-03
-1.720908672841273091e-03,3.219618020921837659e-03,-3.100190891802110521e-02,-1.191817841944575219e-02,1.830600078705489544e-03,-2.287913894708076216e-03,4.757898229555046488e-02
-1.457457207501605331e-02,8.957015692708630503e-03,8.768227016603073048e-03,6.384823811801933376e-03,-8.027566138908800997e-03,-4.325552477766272594e-03,4.307224450195760133e-03
-9.601586510983474779e-03,2.399204792068808031e-02,-2.141358657459050893e-02,8.267821856258867480e-03,2.717347463676135413e-03,-6.463516758415613177e-03,-1.202840064145056830e-03
-1.958155540275894821e-02,1.487964603010400767e-02,-2.919634072550996405e-03,-8.101692654992900811e-03,-8.403989358551617814e-03,8.709970277875603642e-03,9.936734779012940111e-03
2.493274116962294201e-02,3.485995879044469919e-02,-2.852225683505717896e-02,-8.609036339260456999e-03,-1.090869491527682658e-02,-8.405145905215018545e-03,-7.428495649743693330e-04
-6.036892254467548027e-03,-6.655547383556791735e-04,9.243654755018801406e-03,-5.374189003033987694e-03,-1.107950111075637137e-02,-1.575631879022019663e-02,3.247566467193779838e-02
1.256535041788261510e-02,-7.080201015203092633e-03,1.178434858852758435e-02,1.009183605385507651e-02,-8.806718538734688642e-03,-1.245309565704044372e-02,-8.270789226669841496e-03
1.108296067762009826e-02,-1.609856809167268740e-02,-3.367688311260080142e-02,2.822773299936184865e-02,-1.056124056034746239e-02,1.272396927231460653e-02,6.778596933147326350e-03
-2.158810662401636216e-02,-7.463830915905113328e-03,1.783813138184658226e-02,-6.792062265553291782e-03,-7.437630526533171860e-03,2.723119960235699175e-02,1.097179034101443613e-04
-1.023569177181889861e-02,3.096043581241874655e-03,-1.783392447415907411e-02,2.478239595150644181e-02,2.157894985482364941e-02,-1.574636409812171442e-02,-3.701337545962460861e-03
7.823028214763971463e-03,5.466593149544300700e-02,-4.595044787958439680e-02,-1.477258421918584662e-02,1.098495314833087926e-02,-7.689820599056389552e-03,-2.591183514965992099e-03
-1.625772668131212403e-03,-1.503854217358578400e-03,-1.037828834405257343e-04,7.695746841895625967e-03,-4.398540684365795199e-03,6.657743601166929426e-03,-2.892503990432325391e-03
-1.140393613642612033e-02,-8.768557104813747699e-03,-6.123437872674613799e-03,2.061598685668639477e-03,-1.043921007249473849e-02,3.298774662515558537e-02,2.684652010700768333e-04
-1.000185710625056852e-03,-1.790641163130833602e-02,5.545213238472017359e-02,-2.120382191997535574e-03,-6.069757425386886583e-03,-1.140183215275949145e-02,-1.639986136135222067e-02
1.787034591400033607e-03,1.983243625154971611e-03,1.089846316824480237e-02,-1.923044127572069609e-04,2.407421085146334728e-03,2.200007309200926933e-03,3.977246838995173936e-03
-9.857028722542810623e-03,-1.847487458148692032e-03,-5.585654817207907040e-03,-6.057331917519497011e-03,2.765808821156817698e-02,-1.339578576087019140e-03,3.068331316074684209e-04
1.699065969606824641e-02,5.459776743702007482e-03,-2.159314966850749140e-02,1.654344066780117500e-02,-8.351966962269970901e-03,-9.229208307336204259e-03,-1.006967046362686712e-02
-1.107939603343776648e-02,-6.859343019660538339e-03,2.537610443415844186e-02,-1.500058723340032610e-02,-3.979799766485307526e-03,-1.882908576499744968e-02,3.772602981750302481e-02
4.638768905505148699e-02,-2.300527332314689782e-02,1.613205536936192924e-02,-2.221594779546157833e-02,-6.060744450055705231e-03,4.420941206527436058e-03,-1.310422837842660157e-02
-1.593373642429775968e-03,3.392741657468176936e-02,-7.599662657368587600e-03,-4.061510340258043909e-03,-1.724524229462491174e-03,-5.949384176679319014e-03,-1.207362520022447518e-02
-3.517030883308870474e-03,3.306788432940445388e-02,-8.666323460068420942e-03,6.025623445471797388e-03,-2.285451958652860629e-03,-8.699411346566741227e-03,-1.526116151636193810e-02
-1.030428699903366239e-02,-6.640605561322998444e-03,1.379202339718301959e-02,3.857761565453623510e-03,-5.061993335701306038e-03,6.755058207291792438e-04,3.408979248037569132e-03
-1.059688664723087634e-02,-8.310357632085778670e-03,-7.590610323691733378e-03,2.645196844896175944e-02,-5.994306113436534064e-03,9.458191374156162123e-03,-4.832418809190437529e-03
-8.769607015995276728e-03,-3.254255083510372397e-03,-2.724496730513462951e-03,-3.416690202530040486e-03,3.817352065970763125e-03,1.436991631361663564e-03,1.587282629791654867e-02
-6.110949483845480243e-03,3.066372709009197207e-03,-1.004811130400916699e-02,-2.129760555219406982e-03,1.421814696516853719e-03,-6.328796561296981093e-05,7.344095894651547426e-03
-7.975158709340197244e-03,2.015993786182178164e-03,-6.181338432880318159e-03,-1.248872505228780690e-02,4.950164953361118302e-03,-4.875266488804290074e-03,2.865217226783767224e-02
3.024340854143630491e-02,-5.460105754061752095e-03,-1.437446338902045352e-02,-3.845188941117322345e-03,-5.198448292825905495e-03,3.606352536377934424e-03,-4.779673807273732145e-03
-2.336304116723409623e-04,4.891051381661600320e-03,-1.785148978174149609e-02,-2.676207227071301757e-03,4.588448654333541522e-03,2.137567711845730738e-04,1.427046650524129226e-02
-4.179333128740091857e-03,-5.326226308189732292e-03,-1.287305390816526930e-02,2.351262329282169470e-03,-4.913050737922530775e-03,2.979321860134336204e-03,1.951465805629227016e-02
1.787034591400033607e-03,1.983243625154971611e-03,1.089846316824480237e-02,-1.923044127572069609e-04,2.407421085146334728e-03,2.200007309200926933e-03,3.977246838995173936e-03
1.112818108137066456e-02,-4.297412254291742631e-03,-9.184242731080042438e-03,4.477282211216495646e-03,-7.740874295502178301e-03,4.115536488807563370e-03,3.038346111619294031e-03
-7.244382630897827635e-03,-9.086173373323860880e-03,-6.838769946396177756e-04,5.593390915676842677e-03,1.307020720216471588e-02,6.192808689213191026e-03,-8.226017592205283474e-03
2.728847319883237477e-02,2.194879351445786289e-02,-3.267623933190060004e-02,-9.073951877153596524e-03,-1.091028703975088429e-02,-2.078200739433149619e-02,2.263320566323959171e-02
1.333440111695857223e-02,1.177332637317466194e-02,-3.824317400446113763e-02,3.890150363930345266e-03,-4.772586574132816261e-05,-7.710395429133718240e-03,1.422689847304558705e-02
-5.632650420034057345e-03,-3.388877502295113697e-03,-1.825148873723697607e-02,-8.217472743693551157e-03,4.856138604538635939e-02,-2.541303260076398750e-03,-5.059556617576501866e-03
4.762050063011286777e-02,-1.005302307328454804e-02,-2.302156830950333882e-02,-6.581592197454953037e-04,2.301503032493115773e-04,-7.856375369968322114e-03,-6.828635141540145490e-03
9.229867944704957597e-03,-2.726486176276241838e-04,-9.088455150427488666e-03,-7.732660811348346722e-03,6.731816772994612171e-04,1.890218080800804348e-02,-1.139582739853454117e-02
5.070096733818400814e-02,-1.036477623001898392e-02,-2.749551560591765795e-02,-7.836129486015266932e-03,-5.697163067410759146e-03,5.714079297462592265e-03,-3.402919451207877394e-03
-5.996604144476421275e-03,-2.934103492920952291e-03,-6.075805303993651527e-03,-7.582737184771672556e-04,-9.303919974188761682e-03,-3.189901293171168960e-03,2.996306960751961984e-02
2.168462174927583003e-02,-7.793444208952224513e-03,-1.814758491333508944e-02,-2.851211637361779436e-03,-4.486020375353403158e-03,1.348816079118342684e-02,-1.791559477565286872e-03
-1.655315595967429484e-02,7.352222553958956235e-04,4.107608591445990887e-02,-7.216911550099991066e-03,-3.048642248076554370e-03,-9.954124417610409753e-03,-6.746797851649350992e-04
-1.167313865909571161e-02,4.020988321405700311e-03,-6.848677780178802701e-03,-2.024639611987639771e-03,-1.234593593788043016e-04,2.759263277214494756e-02,-1.170521063790068601e-02
2.832418297162596008e-02,-4.356960937539548599e-03,-2.622910660181830902e-02,6.621226432260565904e-03,2.994748688838941818e-03,1.235893897797327862e-02,-1.872100022501893210e-02
1.787034591400033607e-03,1.983243625154971611e-03,1.089846316824480237e-02,-1.923044127572069609e-04,2.407421085146334728e-03,2.200007309200926933e-03,3.977246838995173936e-03
-1.361540764135549773e-02,2.335509725981555623e-02,-6.626820664087392128e-03,-8.418062637864830861e-03,-6.194074086218449848e-03,1.733428469633816263e-02,-6.603561713336101105e-03
-2.148406794228865241e-03,-2.899706815471033740e-03,-8.319966584239883722e-03,7.451999741775241007e-03,-3.444593876046073058e-03,3.500022839695313050e-03,4.792666653476549896e-03
-7.410963404358697146e-03,2.951395868458266125e-03,7.891940876340779523e-04,8.920900663939098849e-03,-1.335456110591292170e-02,1.246267689286519390e-02,-2.791306697723885087e-03
-5.412924014259348424e-03,-5.890855209112999882e-03,-7.389043629130421890e-03,4.037572913464173782e-03,-1.046175798358287869e-02,1.568854530920184981e-02,6.116800413724804777e-03
-9.387114561904797111e-05,2.749587137012167838e-04,-8.929730028027230366e-04,6.324539500294557200e-03,-7.655885021776026589e-03,9.243811063917754117e-03,-5.574981519303445418e-03
1.145031372594064976e-02,8.936812563340204921e-03,-4.177816018567900858e-02,1.109749347922991437e-02,3.000135402261109967e-03,-8.355454551708002206e-03,1.918290814503960037e-02
-1.035677770590915682e-02,-2.024033529458576868e-04,1.795070429287301842e-03,-3.287466319009400666e-03,1.351698185888642809e-02,-3.674991103927800675e-03,1.210549040779462923e-03
-5.016650841807844888e-03,3.176888377224652664e-03,-5.412836921003023709e-03,1.684143597130690825e-02,5.689280391307845620e-04,1.373617577683782474e-03,-1.025069076093189022e-02
2.377082087027411819e-02,-2.720090418019408245e-03,-1.908331313611186936e-02,-8.636806768606378540e-03,-4.855239910699947654e-03,8.373266099491011652e-03,1.044133952874331563e-03
-7.965673634932331909e-03,-3.279650031767387171e-03,2.001331791126500972e-03,-1.592265316226967181e-03,-4.238415116161678084e-03,1.155200576721104010e-02,6.291553961224069166e-03
-1.198631846543988556e-02,-7.439076534398625373e-03,-9.961152083421241296e-03,-1.052732621244251848e-02,5.203925194516356711e-02,-6.569090725293567912e-03,-4.913128137411819883e-03
-2.378990228866450715e-02,1.656629448250531572e-02,2.417512993475306321e-02,-3.866499679413592898e-03,-8.859266631216390978e-03,-5.809825238645224474e-03,-1.600622160012542174e-03
5.010101724539738066e-02,-2.245387445762637036e-03,-2.614482244082116935e-02,-4.443452220512728382e-03,-7.343037279175196157e-03,-3.993948512923827313e-03,-8.294348760789728089e-03
2.431838080651523015e-02,5.379187669029075747e-04,-2.607356856766089928e-02,-7.905667480233346048e-03,1.343259296089711549e-02,-2.959415301177449695e-03,-4.393465349865237519e-03
1.787034591400033607e-03,1.983243625154971611e-03,1.089846316824480237e-02,-1.923044127572069609e-04,2.407421085146334728e-03,2.200007309200926933e-03,3.977246838995173936e-03
-1.059311068394529209e-02,-1.909387056547860490e-04,-2.301583957394753160e-03,-7.764748190532122334e-03,9.647101019375861966e-03,1.532927182655825435e-02,-1.186273965979266253e-03
-2.386518146706768234e-02,-6.698178405337845698e-03,-7.371729473037202766e-03,1.677370938280514298e-02,1.246894866344790131e-02,1.714629851129991986e-02,-9.212677703758628475e-03
-1.029063870996502553e-02,-2.202375245733838565e-03,-7.079346774678004287e-03,-5.107126606714115606e-03,2.404586667440473599e-02,-1.712302545380296444e-03,-2.289853239611025092e-04
4.456592581088445609e-02,-1.933291263911282934e-02,-7.598700117070919698e-03,-5.626229133258696564e-03,2.083171539430907909e-02,-3.460227690430102421e-02,5.833347062962584810e-03
-2.024340813475863834e-03,9.489867106834642616e-03,-1.222506790696121712e-02,7.668402621382706952e-03,7.212631958614688444e-04,5.487538874389167112e-03,-8.705425501577775116e-03
-1.357150287029685633e-02,1.509600491177339951e-03,6.801710483516134123e-03,-1.050913587241016425e-02,8.804968328322860041e-03,8.826930867494305749e-03,3.544815908428547435e-03
2.855344448966616253e-02,-8.051390823943663580e-04,-1.295263521099522183e-02,-2.765367121782176269e-03,5.237180360027857487e-03,-9.344403837542472266e-03,-5.764004744055335229e-03
6.705897217776017431e-03,-7.828984976436394183e-03,7.125254003290259694e-03,-4.419651271320475770e-03,-9.797716408396226276e-03,8.344841013748766426e-03,-1.464761055693981082e-03
-4.697424039541863230e-03,-1.076944351404448760e-02,-4.697186848951656266e-03,9.395591950030229844e-03,8.684928207316647969e-03,1.024182038474042399e-02,-8.291654812013216080e-03
2.053836806967079126e-02,-4.170016620615853327e-03,-6.154726246946047932e-03,5.277407782768516256e-03,-9.784181148881262655e-03,-1.471815859703237434e-03,-4.893179930813341440e-03
3.633142160885460825e-02,-7.489348325141406693e-03,-4.583705182660132577e-02,2.040072810849159410e-02,-2.925097962371030896e-02,2.647661630285540885e-02,4.684265337177724933e-03
-7.132815269367852491e-03,-2.268117163812999673e-03,-2.332647385937432552e-02,-1.200600733809403277e-02,1.431624068684718767e-02,3.752550135893496005e-03,2.599703303150237635e-02
5.583923071561206798e-03,-8.740029587734444300e-03,-9.829109814514099333e-03,-5.088604871029785669e-03,8.591636406404034383e-05,-1.626347292296202382e-02,3.311117815803334835e-02
-1.246472322222066942e-02,-7.036849869026852618e-03,1.227007287339931807e-02,9.204160891779736287e-03,-1.208426745765227468e-02,1.332462359688151889e-02,-6.433033092247323823e-03
1.385304053035400253e-03,2.753819566256910517e-02,-2.223442533589865128e-02,-2.515652982228039087e-03,-1.009854599850321284e-02,6.870371163584401350e-03,2.867228350362394356e-03
1.289869739177912020e-02,1.379286584576519190e-02,-2.340648608955296292e-02,-3.258823098050819302e-03,6.589944674355160611e-04,-4.847274714887224445e-03,1.766516153239356627e-03
4.616614548499856432e-03,1.273051074900348120e-02,-2.418529048295207581e-02,-5.802663064384070563e-03,-3.668602852906655866e-03,3.022239721279459945e-02,-9.764516163649445551e-03
1.357093427004063546e-02,-5.984194880324068821e-03,2.218482312578018423e-02,-1.573609971958999515e-02,-1.506858541571534128e-02,1.621685197975785905e-02,-7.359515685603697580e-03
3.384509483239736549e-02,-1.441948128785909035e-02,3.591700555188835631e-02,-1.643348953271220672e-02,-2.096740806194409557e-02,-1.279649431850808650e-02,-8.362993568255754073e-03
-8.842672637334875185e-03,-1.392556237076667414e-03,-9.435428863309794356e-03,4.135994117537737658e-02,-1.304187024578620790e-02,7.626086589858603604e-03,-1.807819553651416472e-02
-1.007390717559237571e-02,-4.653705225807374703e-03,4.036480118514269855e-03,3.785247736297149383e-03,-2.216769028826338396e-03,-1.437053178579843736e-02,2.332411664255755121e-02
1.349698432823254104e-03,1.073600065586927804e-02,8.150299056787853672e-03,-2.315433024367216132e-03,9.966323722225809562e-03,-1.396596994059873774e-02,-1.098106163254674618e-02
-7.587691659599826721e-03,-2.289180110300712175e-04,-1.256172170283129108e-02,-7.841978965171936614e-03,4.337890253340382501e-02,-4.703796003991799618e-03,-6.605081313677832466e-03
-1.257780358818490554e-02,-5.776012174405747296e-03,3.229553265993408834e-02,-5.293519375171770389e-03,-1.796866647008430601e-03,-1.066187866285877965e-02,4.686973310860429939e-03
-1.010510286378355632e-02,-2.868045755582362792e-03,-5.896068146824317430e-03,2.304544255405338929e-02,-5.915042213959640499e-03,1.548436421706349611e-02,-1.732509986951399905e-02
-5.574505330908045321e-03,-1.750829519104831573e-03,2.837078596492125654e-02,1.422611463597803867e-03,-1.118321965843433602e-02,-4.971362431560500880e-03,9.339284420930014149e-04
5.011095406604469844e-03,-1.099473701660304194e-03,-2.714095712424543540e-03,3.425780221383124737e-03,-8.221959506728835146e-03,4.452837932551878021e-03,-1.900327722431420074e-03
-1.364451704802573453e-02,-3.937589965835909533e-02,6.760717332559978976e-02,-8.210611687453902435e-03,8.861929462105715832e-03,-1.595987897794155525e-03,-1.643737156228539456e-02
-1.162360411926114702e-02,-4.321487710228813853e-03,-2.276102106706320329e-03,-8.530260828498290385e-03,-7.621083627195648566e-03,-8.077852587415385380e-03,4.633760967004974668e-02
-9.037586030519049107e-04,2.752456593240195509e-02,-1.389278200089488682e-03,-6.266720316209302595e-03,-3.815140840950098471e-03,-6.989328246708055407e-03,-2.748247684942818278e-03
6.628017071274918195e-03,-7.051532025623818284e-04,3.017693533916111087e-02,-6.790361254399987154e-03,-7.577276913669067464e-03,-9.271388388173986209e-03,-6.184909634858554335e-03
-1.593373642429775968e-03,3.392741657468176936e-02,-7.599662657368587600e-03,-4.061510340258043909e-03,-1.724524229462491174e-03,-5.949384176679319014e-03,-1.207362520022447518e-02
2.729463097511102346e-02,-2.942948668611983405e-04,-2.138736898068530068e-02,3.952174774195120477e-03,-4.716943425803620145e-04,-5.396511621847331110e-03,-6.075925851023745647e-03
-2.223969644525646688e-02,-9.149542979771210435e-03,1.507608146130564805e-02,4.472977199205878732e-03,5.034928023507708947e-03,3.903248637807063028e-03,2.565981197404578959e-03
-1.654350056521028747e-02,-4.794159931077186798e-03,-9.539685351621038931e-04,-1.636432445306887709e-02,-4.263442459628505495e-03,2.009026859147031857e-02,2.691870455254049416e-02
-8.074358348245814360e-03,-5.538584116593115413e-03,6.437872032667815367e-03,7.423920289573675453e-03,-1.093391442805975375e-02,2.259293954223770204e-03,6.319067914866717366e-03
2.693947306232267330e-02,-3.283430917957652108e-03,7.866612466133586631e-04,-1.384365847545401818e-02,-1.241417130645066681e-02,9.784781467052888759e-03,-6.414146271541174005e-03
-8.867805798482286672e-03,-2.706050347449731955e-03,-6.669149120016830759e-03,-6.715952569553888070e-04,-3.145154020219114409e-03,-8.613758090490340052e-03,3.283660432993008860e-02
-1.361081674688517131e-02,1.132050518672482638e-02,3.380707774262465496e-03,1.987102200284328324e-02,-1.844453280743161422e-02,6.773247973422344068e-03,-1.078714680354172541e-02
-1.365544384195025752e-02,5.912694643194013264e-03,1.839068407372263653e-02,7.148051160717776645e-03,-1.281318889878242315e-02,-1.861923739434999696e-03,1.059299084486448527e-03
-7.236612278910155294e-03,7.007196854020822201e-03,1.568699948128998017e-02,-1.668557825220487413e-03,-3.775428035788212615e-03,-4.627903558685317678e-03,-1.182767132303611576e-03
2.274769525560558711e-02,-3.493860139730609678e-04,-3.437726072594955717e-02,6.049696151934085345e-03,1.606625267338212398e-02,-7.118437637589973901e-03,-4.643225513590974393e-03
-3.338572461205872692e-03,-6.688934639012896095e-03,-2.346641230248004001e-02,1.239867719360694676e-02,-1.122098423956484174e-02,3.986274315652844902e-02,-4.992935546274312672e-03
3.129075888493611408e-03,1.927876558133932976e-03,1.003568776116551403e-02,-9.631110330935822384e-04,-5.661142571152829109e-03,7.217877943073323574e-04,-2.017165844861437338e-03
1.888312037870887999e-02,7.052106426062391790e-03,-2.102526820976243632e-02,-1.296954704033660179e-02,-9.970181823228894610e-03,2.226278865941875434e-02,-1.066062152016504608e-04
-3.614704233060702515e-03,-8.049363691841745702e-03,1.537988837225793756e-02,1.265075858282388357e-03,-1.072182631516231319e-02,-7.218897947090449629e-03,2.152022319723464333e-02
1.389278766432329969e-02,-6.259558135675934165e-03,-3.563672128821717550e-03,-1.170601767957932769e-03,6.706363888514935145e-03,4.075093031410821111e-03,-1.055954407558787680e-02
1.787034591400033607e-03,1.983243625154971611e-03,1.089846316824480237e-02,-1.923044127572069609e-04,2.407421085146334728e-03,2.200007309200926933e-03,3.977246838995173936e-03
1.787034591400033607e-03,1.983243625154971611e-03,1.089846316824480237e-02,-1.923044127572069609e-04,2.407421085146334728e-03,2.200007309200926933e-03,3.977246838995173936e-03
2.517433714112286575e-03,1.976412812741832128e-02,-1.267861945371083141e-02,-6.623028123983039535e-03,-6.778582347092873550e-03,-2.130254377849198286e-02,2.576278186826761601e-02
-1.381296882118939959e-02,5.748639842792334018e-03,-1.318836907286483583e-02,1.491050230907593017e-03,3.842929318505601544e-02,-6.517632074341671473e-03,-8.751177750698094573e-03
-6.288967024760802257e-03,-5.201629799990914807e-03,-5.131912781332202689e-03,8.390465545029208994e-03,-3.860748150315897968e-03,1.296898022643520020e-02,-3.882619753898584967e-03
-5.848667786671619441e-03,-5.885384414327851990e-03,-8.825593742718164381e-03,-3.629095681193724408e-03,1.696023376704355488e-03,2.455669609244479426e-02,-6.680033877726894789e-03
1.787034591400033607e-03,1.983243625154971611e-03,1.089846316824480237e-02,-1.923044127572069609e-04,2.407421085146334728e-03,2.200007309200926933e-03,3.977246838995173936e-03
-2.273632508540101779e-02,-8.481736470634963429e-03,3.282649832469917289e-02,-7.348019120874039849e-03,-9.208155364893305661e-03,2.358160744732414396e-02,-3.971106998390299542e-03
-9.037586030519049107e-04,2.752456593240195509e-02,-1.389278200089488682e-03,-6.266720316209302595e-03,-3.815140840950098471e-03,-6.989328246708055407e-03,-2.748247684942818278e-03
-3.450331966574048288e-03,1.465499882862490375e-02,-3.593667597393849361e-02,-1.403499001409584668e-02,2.666949777529574808e-02,3.307117507596626232e-02,-1.078179255082124290e-02
1.787034591400033607e-03,1.983243625154971611e-03,1.089846316824480237e-02,-1.923044127572069609e-04,2.407421085146334728e-03,2.200007309200926933e-03,3.977246838995173936e-03
-8.556605587516630945e-03,1.121807740403197955e-04,-5.705641599020940284e-04,-1.107161108408478631e-02,1.003142588289014821e-02,5.199280689082820886e-03,8.759238322348854994e-03
1.762645022326586944e-02,-3.341778135915721929e-03,-1.107983120302260399e-02,1.361882834139519806e-02,-8.932275908036239886e-03,-4.739375735784977749e-03,-5.412538719189849759e-03
-6.926860896500885642e-03,7.281544150254325512e-03,-1.145256136947185067e-02,-7.096138428346926603e-03,2.822777074408919229e-02,-5.526088482781505926e-03,-2.401441985354140114e-03
1.787034591400033607e-03,1.983243625154971611e-03,1.089846316824480237e-02,-1.923044127572069609e-04,2.407421085146334728e-03,2.200007309200926933e-03,3.977246838995173936e-03
2.383599232351063524e-02,-1.869433798797821844e-02,5.926521939646016424e-02,-5.416128058790799574e-03,-1.505875059931664761e-02,-2.361499878970589258e-02,-2.413757031924190777e-02
-2.243332120655668841e-03,-2.547107793962868818e-03,3.263958599932726724e-03,-1.083445979921907054e-02,2.936793593850333187e-02,-9.505954206451753749e-03,-5.540554225356894222e-03
-8.581658359039543577e-03,3.515846566962170516e-02,4.950255292466266242e-03,-5.894450419868057719e-03,-8.486440857334838148e-03,-5.055814698800909987e-03,-7.397016158073062633e-03
-5.557778870528762120e-03,-1.407172940827669831e-03,-1.715097748735565017e-02,-2.667226427686498168e-03,8.953953198556605791e-03,-5.686864226897897848e-03,2.415678670410149192e-02
1.787034591400033607e-03,1.983243625154971611e-03,1.089846316824480237e-02,-1.923044127572069609e-04,2.407421085146334728e-03,2.200007309200926933e-03,3.977246838995173936e-03
-8.154416638251569052e-03,-6.065946135192506073e-04,9.779596597055593976e-03,-6.814128897693888867e-03,-8.247842600729381191e-03,-7.667865793642926388e-04,1.826405627434560947e-02
-7.382013741834210149e-03,-3.935221163655658501e-03,-1.147623459003367305e-02,3.845104830892999426e-02,-3.214789663299783169e-03,-5.267446229137159180e-03,-9.287148370949249027e-03
-1.103643136642050264e-02,-2.777882581790634513e-03,7.730526216441273258e-04,-9.257885807070518475e-03,1.477365277721874592e-02,6.383569260896103728e-03,2.868568508215795128e-03
-3.320673023580535642e-03,6.339527459536810697e-03,1.063231404126234849e-03,-6.736269508619364965e-03,-5.282081532008610011e-03,5.878516340189572122e-03,-2.590147514585167988e-03
-1.795086853651329389e-02,1.786364808437938476e-02,-3.535194279033843957e-03,-4.247547580735016454e-03,-2.329364289095354860e-03,-7.934025582315243699e-03,1.287251061991035242e-02
6.548769157532297047e-02,-7.185451494771845707e-03,-3.659909213025962227e-02,-2.693775604308974638e-03,-7.642031095126780235e-03,-3.469446708492504410e-03,-9.912895309054491760e-03
1.361979991388157299e-02,1.912454737806110888e-02,-8.251464603448655649e-03,-1.242912753667675500e-02,-1.512280434770317539e-02,2.432872426811991985e-03,5.409585225578468839e-03
1.066772967638616489e-02,-4.418495162796300460e-03,5.636505782075586571e-03,-5.616503977189526466e-03,2.296076474391057880e-03,-9.613396499243776275e-03,-1.377013893566183134e-03
1.787034591400033607e-03,1.983243625154971611e-03,1.089846316824480237e-02,-1.923044127572069609e-04,2.407421085146334728e-03,2.200007309200926933e-03,3.977246838995173936e-03
-4.244598093622794013e-03,1.317453972811823484e-02,-1.934101911552722070e-02,7.172900511123183123e-03,-8.143384632100719028e-03,1.003777261864037193e-02,1.305324608473251453e-03
-7.478715505926982745e-04,4.680844918509478522e-03,4.169027945183720850e-03,-4.574050232935828256e-03,-8.336808508553544350e-04,-4.344492950588300928e-03,2.853708773676218082e-03
3.332410779617643506e-03,1.098993018607583375e-02,-4.646089443217234563e-03,-9.985140692138735202e-03,2.715359025173844434e-03,5.353897307467635376e-03,-8.575551432134356777e-03
-1.633892428833160979e-02,-2.799207137113660440e-03,7.657568074958672096e-03,3.681332713143338486e-03,-2.321901645850392611e-03,9.592120446323192801e-03,1.824571097742638728e-03
1.663252486160023830e-02,-1.150905104596194536e-02,1.029737643858791817e-02,2.283654328972862038e-02,-1.165137637534264733e-02,-1.846376942636598559e-02,-1.594881409803444467e-03
3.577749427269375556e-03,1.399403168459032419e-02,6.740360587444029113e-03,-9.139655668165328622e-03,-1.532579706523690090e-03,-6.951054096352911674e-03,-2.816771541634659464e-03
1.453727417621017079e-02,-3.424078009987993609e-03,-2.788198555917045102e-02,-1.495886930751742436e-02,2.721761749539211572e-02,-1.251958636778453978e-04,2.664424588969982466e-03
-6.100147850844742092e-03,-3.505316187403757083e-03,2.714405160015207624e-02,-3.798308628060678791e-03,1.065630101394183724e-02,-4.721485508532969298e-03,-1.521826216651732920e-02
-9.218949032689743861e-03,1.459754047711961378e-02,-2.810581867956392019e-02,1.864409200950668810e-02,-1.132272933332196738e-02,2.824451924477859241e-02,-8.275482118237838594e-03
-2.750130737519775742e-02,-1.036544535425479481e-02,5.482449151763883061e-02,-8.589686499346481721e-03,-1.745044379200599502e-02,-1.531471305112232575e-02,2.866137856674719209e-02
-4.374116836945997691e-03,1.450122917189387330e-02,-1.428312709554571680e-02,1.478906109183603015e-03,9.620824068500179529e-03,-2.442636180717574785e-03,-1.871410162446927872e-03
-8.409336938704579240e-03,-1.817211079009688115e-03,-9.174496440950802648e-03,-4.721522238615297358e-03,1.446022067352830363e-02,7.290917946037633705e-03,1.422068325724900684e-03
3.808372570375501251e-04,1.662561073388212768e-02,-3.437343381992003823e-03,-2.900537738567875602e-03,-6.200204390381798027e-03,2.330326378959770434e-03,-2.522628698313996755e-03
-1.467205621722867705e-02,-8.979663815802429658e-03,1.989153558133272687e-02,1.237820541626757920e-02,-4.557173005786156576e-03,5.634783718174557129e-03,-6.318159086919636694e-03
-6.205031510274902802e-03,-9.431816121594162675e-03,6.415625361931165047e-03,-1.035103587254316941e-02,6.334332902421217640e-04,3.030637124564246592e-03,1.585421778067211060e-02
-3.925846592734568222e-03,-1.795948955504606329e-02,2.607661177279376255e-02,1.248757822419627596e-04,2.085260387900114004e-02,2.797102494284481929e-03,-2.126813124128163618e-02
5.202025350320931864e-03,1.618502426064448788e-02,-2.296697366898346054e-02,-1.068675463399944466e-02,-4.427898430763433160e-03,1.576003128807427003e-02,5.319376972303070314e-03
1.951014674813372762e-02,-1.788509303793859835e-03,-1.110685135269840265e-02,6.673307433233513150e-03,-1.568316811966746814e-03,-7.872359495695667453e-03,-5.352400516063711075e-03
-1.895056317855686647e-03,-1.736685895771359397e-03,1.331588324645118469e-02,-9.934384020270161514e-03,1.209063515305763142e-02,-3.453761134614317160e-03,-5.288724095053942871e-03
1.787034591400033607e-03,1.983243625154971611e-03,1.089846316824480237e-02,-1.923044127572069609e-04,2.407421085146334728e-03,2.200007309200926933e-03,3.977246838995173936e-03
-8.811058287629611185e-03,-2.478821878006952275e-03,-1.579481555853596772e-02,-5.083150827125936140e-03,2.939539649557319431e-02,5.796667190755834878e-03,-2.303253944742118635e-03
-1.409878209948594273e-02,-5.455563695097178679e-03,1.549931685283417217e-02,-1.406642223711916141e-02,5.828162539375045942e-03,1.384474352827901045e-02,5.885141576646966272e-03
-4.599328880980380410e-03,-9.756436708455901857e-03,-1.680483018260926081e-02,-9.932543558938388903e-03,1.867561550329901662e-02,6.130931559819787803e-03,1.730316066393713242e-02
-1.355810081036608675e-02,1.273818313902315424e-02,-3.685410395371439222e-03,1.198579202384482227e-02,2.416872903522338141e-03,-1.037083754684836427e-02,2.733976342809145161e-03
-1.024264021573490988e-02,-1.572049878177565058e-02,2.107551441085583205e-02,7.423046056954625896e-03,1.402626972110644112e-02,-1.015894658443903739e-02,-2.136510560769213501e-03
-1.096128537296578442e-02,-6.282786405888708334e-03,-7.948001915692311584e-03,-4.442986195029605644e-03,-8.616936517723623040e-03,-8.977983103062862208e-03,4.998748357710010304e-02
-5.744089019390898575e-03,2.415922770815532444e-02,-2.309175279298563213e-02,2.097718499569115047e-02,-4.706811083104330690e-03,-8.198292660886870656e-03,-5.763709474093633815e-03
1.594375179531832415e-02,3.406372880049115572e-03,-1.393321387217064111e-02,-1.348058750302477682e-02,2.991291473975866283e-02,-4.059530882579045867e-03,-1.285718397682467443e-02
-1.164103290246402099e-02,-5.805537036423021220e-03,1.043153116042122054e-02,-5.391007116431562052e-03,1.506923788171338208e-02,-8.318833440289852624e-03,2.812173298721350450e-03
-1.751364045557290625e-02,-1.071818897190751629e-02,-3.674436295155253385e-02,4.073914509525525598e-03,7.906902700492554961e-03,1.105275868422278367e-02,4.070213264155497779e-02
-7.742445034473985008e-03,-3.398248766027302768e-03,5.268156660012732369e-03,3.676513963127521489e-03,-9.680607806825634876e-04,1.042925263293109986e-02,-5.896448110686338881e-03
1.125254210567238310e-02,-7.347427390001552878e-03,1.706055932048080453e-02,1.380255031848058068e-02,-1.509194647730049618e-02,2.737120803679552600e-03,-1.771573823305211751e-02
-4.230940789417219836e-03,-2.961707416160972058e-03,-3.247391830044098204e-03,2.818460056263915117e-02,-8.642554852181776742e-03,-2.787784069800915664e-03,-7.010213323199598542e-03
2.158816283653190032e-02,-9.551344707898135750e-03,-1.942573590856447319e-02,3.786944190141160183e-02,1.306996840699253294e-02,-1.707697028149617394e-02,-2.014759629365169696e-02
4.910101237152889389e-04,7.099927706413299130e-05,-7.865444651363750778e-04,1.056101334553970553e-02,-2.763714277742165219e-03,-3.430208759003584070e-03,-4.209689301796589421e-03
-9.705567697363300800e-03,-6.808598339584560899e-03,-8.354118033218008860e-03,3.583554859776143242e-02,-1.110401579065426435e-02,4.327461001736502763e-03,-5.031916370216085212e-03
-3.406405666094487229e-03,-1.102503568525382144e-02,-1.913637426413038883e-02,-4.163658349601233148e-03,1.896658065090472620e-02,1.291925732903151727e-02,1.205239205474816075e-03
-1.100459480674384136e-02,-5.585878854084923295e-03,-2.489748340809770123e-03,-3.867506335170591523e-03,-1.765024727140434039e-03,2.743041337307756261e-02,-3.088878934868877820e-03
-9.496219683070032582e-04,-1.306206789099149425e-02,-4.631424466181560673e-03,-4.371474597346683595e-03,-1.099346369215918086e-02,3.386713007305880430e-02,9.738470606922291009e-03
7.686554014048138260e-04,5.428189603378130376e-03,-6.236112626332838277e-03,7.686431503463673608e-04,-5.658273298464600379e-03,7.695010711935228176e-03,-6.795466804094688409e-03
-2.174548090957463889e-03,-4.737801268180640056e-04,-1.002784568702475010e-02,6.847951832247275994e-03,4.103266953505454659e-03,-5.068065649563675487e-03,7.325059271345901561e-03
8.312046456034285005e-03,1.857376721468940312e-02,-6.040329003733484192e-02,1.526451047507625634e-02,5.605094997332919077e-03,4.457824598269323826e-03,2.723934584606781464e-02
-5.972894893113213886e-03,-3.720585656735313045e-03,-3.280721563877710047e-03,2.114905260454125191e-02,1.569221735201929051e-03,-1.025109521945500972e-02,-2.644139501851794274e-03
-2.683028428367092728e-03,4.342021883256033145e-03,-2.578994065914540570e-02,-6.194915765111342829e-03,3.299778156861413354e-03,-7.959792010683480398e-03,3.176295656421902064e-02
-2.491381194031396396e-03,1.500264715331698240e-03,-5.361344886262657539e-03,1.454499291505373902e-02,6.992538988031695921e-03,3.971062866807726429e-04,-1.487470493596721420e-02
-8.388050511908407350e-03,-2.834088213101710989e-03,-1.996599191293025634e-03,2.021841789156762076e-02,5.295544538000908699e-03,-1.306954719444934285e-02,1.348038089909466778e-03
-9.484414039298063107e-03,-6.717795974864082184e-03,2.167185427074159315e-02,-3.254081689778297228e-03,-1.399120994157685739e-02,2.773375835763754876e-03,1.370643852018826533e-02
2.398832269153026303e-02,3.332295448568824321e-03,-4.122242289998450521e-02,1.579114221532541135e-02,9.493468874119283382e-04,-1.868175780560584615e-02,2.278803117504003134e-02
-9.001926200653717972e-03,-7.463330861880800027e-03,-1.044578908523658431e-03,1.776812808791580420e-02,-1.041474783761296360e-02,2.938821074357851788e-03,5.910265470597724467e-03
1.595210259702503630e-02,2.940161395555225196e-02,-2.563696911961840796e-02,-3.264235595660772322e-03,2.593622328321489642e-03,-3.986287447517416170e-03,-1.440158647207970266e-02
-3.442085100021006453e-04,-3.782264676489463431e-03,-1.237491551583953971e-02,4.021484859296198949e-03,7.352471552453063511e-03,3.126265765246301256e-03,1.158436814742157522e-03
-6.966633735820161599e-03,1.692894711342656303e-02,6.597227370897610146e-03,-6.483387130757470133e-03,-1.106758983895662213e-02,-6.093780975967381594e-03,3.946963596159112041e-03
1.394117448532622427e-02,-2.605327776364749996e-03,-2.372318056285027330e-02,-1.122101526785893467e-03,-6.648300902173707267e-04,4.419515657297225057e-04,1.473802787137336659e-02
-1.528915280117543185e-02,-2.895733528956245719e-03,-2.083404721038917447e-03,1.316226309849486895e-02,-4.970957837587141812e-03,2.155128170214690858e-02,-9.748000656484342302e-03
-7.889213866508504661e-03,-4.399157269115384276e-04,-2.073135472313753294e-02,1.483465914549815219e-03,6.399612648243313898e-03,1.005071662888849977e-02,1.781019376551932695e-02
-1.794927790932539929e-02,-1.361291671484622309e-02,2.642334405086705848e-02,4.250498394934552893e-02,-2.363867680576131960e-02,-2.838420168848712708e-03,-1.046971451861764164e-02
-1.443558034860537888e-02,-2.629247860557918249e-03,1.928995766990827809e-02,1.211333443172598126e-02,2.941199547254868402e-03,6.086241833775657938e-03,-2.406685184421527776e-02
1.957017945718350291e-02,1.958232108574542440e-02,-5.261747509423882196e-02,2.449535900777230144e-02,1.212391651621817952e-02,-1.827430328720714911e-02,-4.232347700762109817e-03
3.977746095225455358e-02,-9.222085332317504769e-03,-1.628430868459568304e-03,1.232243756319642905e-02,-1.448026554697775213e-02,-2.339978426796155558e-02,3.040839837501966691e-04
-3.693209632493067718e-03,-3.625189944243900533e-03,9.389444535879729742e-03,-1.012637786021955422e-02,7.114856501263693012e-03,6.944958283516296585e-03,-4.608778611089716162e-03
2.637619506528380425e-02,-6.556987996866073427e-03,3.713957483002496007e-03,-6.751355479761226089e-03,-7.027489534843613453e-03,-4.222713202894021363e-03,-4.128538573067270026e-03
-4.661970585697505776e-03,-5.118539548544312479e-03,-2.028423943781416244e-02,5.148601680439847741e-03,-8.305397360429622733e-03,4.001602888185787354e-02,-4.239617514538248158e-03
-9.090282964648359549e-04,-9.026499523778538231e-03,-6.895466242584978415e-03,8.937821581009145616e-03,1.231335742443593478e-02,5.485898599352503294e-04,-5.403913079466979644e-03
-2.075402532444012120e-03,3.475937843507541369e-02,-1.902714828288884150e-02,-4.756494563716436377e-03,-3.287296029393014488e-04,-2.267288430726658883e-03,-1.097392214653017742e-02
-9.242056174486567785e-03,-4.540582480639034253e-03,2.155996041610162492e-02,-4.638126370658697539e-03,-9.120921301419532279e-03,7.674577579307710444e-03,-1.126852030427311080e-03
3.052054914623349505e-02,-9.859079654074884291e-03,-1.704273504123846733e-02,-5.830708637929808355e-03,-1.070035332630145733e-02,3.870540381163814492e-03,7.565625634701908520e-03
1.209940602396056622e-02,7.532000126229608863e-03,-5.632450888798514604e-03,-1.097150613500360618e-02,-3.440937067499729579e-03,3.300234924179484223e-03,-5.188282987762121885e-03
-1.593373642429775968e-03,3.392741657468176936e-02,-7.599662657368587600e-03,-4.061510340258043909e-03,-1.724524229462491174e-03,-5.949384176679319014e-03,-1.207362520022447518e-02
-1.491159077453090009e-02,-1.657425259087128185e-04,-5.475355961278793003e-03,-3.714611162419232619e-03,1.349871998889958999e-02,1.827201455225492890e-02,-2.653940468392988489e-03
-6.729555555683141774e-03,-4.179914998168944053e-03,-1.568792762854687465e-03,3.102838401516675934e-02,-4.040661347986367231e-03,-1.112294597636664419e-02,-4.922488728167445649e-03
-3.554213322645120767e-03,-4.191154814154965554e-03,-7.853107119949276002e-03,7.300244606409661205e-03,-8.660986087172393294e-03,2.303074464738483207e-02,-1.032071232504110092e-02
1.567337059588671698e-03,2.323735151267272703e-02,-1.366147443099746325e-02,1.074764206653218597e-02,-1.205570702222336435e-02,-6.618908770549272128e-04,-1.096644364783202347e-02
9.021074705707945660e-03,-4.116829202451786907e-03,-2.119529482710318449e-02,9.767832058456872319e-04,-7.777444772188090924e-03,2.563934424578274626e-02,-3.464918753186060386e-03
-1.016762238850294972e-02,-1.137946116357827463e-02,2.505066389912614239e-02,-9.017203405406891761e-03,1.316715968570809914e-02,1.302109938191697803e-03,-6.792353556714002261e-03
5.393539488053298876e-04,-2.830478445664464087e-03,-3.121255252258999142e-03,1.720699783242067224e-02,-2.547099768394835324e-03,-7.716358970042086138e-03,-2.187601926572378674e-03
4.403166225712163567e-02,-2.047379211708381247e-02,1.088847824447208672e-02,-1.184981124086393993e-02,-7.054279819642915277e-03,-8.627626274404606027e-03,-6.457569346990030268e-03
-6.281829811307837810e-03,-3.807816797832310526e-03,-1.127438812630298867e-02,-6.671454409216540267e-03,-3.580079181556723548e-03,-6.763861436250387729e-03,3.967401455311785063e-02
-2.836860246449091679e-03,1.577087517244598475e-02,-7.292437594876811577e-03,-2.545540330287472935e-03,5.761609361303374373e-03,-9.489067981776127744e-03,7.590396713158043592e-04
-5.872363042018184306e-03,-4.335589577321031195e-03,-2.604083236655068204e-02,3.648146182840208800e-03,-6.636576314639611174e-03,3.876946247090212044e-02,4.701764719367789065e-03
1.593687074715285229e-02,-5.521248703158595020e-04,-1.348078787665079117e-02,-5.417305985093635867e-03,6.802766015982136642e-03,5.876838332230950980e-04,2.210682617234620403e-04
4.510948922824892758e-03,-1.072713676880852245e-03,-3.860965930148812847e-04,-6.094736573857638395e-03,-4.430069343830919486e-03,1.050894269215404964e-02,-4.469520619538153682e-03
-2.062227648305641273e-02,-1.666107807224063292e-02,8.007459786433748783e-02,-7.266476925496354045e-03,6.281723419709464573e-03,-1.986659501458281143e-02,-1.639543991345342525e-02
-8.245482045052789566e-04,6.398186962273929961e-03,-7.827786367157838626e-03,-7.833881181389720089e-03,1.084584633266347763e-02,-3.336176635218269203e-03,2.014948143569983072e-03
-1.296870793527865953e-02,3.389665990496418257e-02,-1.272388288592795832e-02,-1.359568063794548698e-02,2.462002239609260845e-02,-9.870598441524183059e-03,-4.652731086819966375e-03
-1.703601494897218375e-03,-5.845798438691490392e-04,-4.352707458799220767e-03,-6.888210835660218620e-03,2.300033992652854992e-02,-1.352764998755938853e-03,-5.470730627869679896e-03
-1.574886697024184892e-02,-5.659638770470006193e-03,-5.465308466172609514e-03,8.950741891657107430e-03,-6.579073596794332221e-03,3.428135719972215389e-02,-1.044206371510944878e-02
-7.206116892388514036e-03,-3.378785316672782649e-03,1.215207623819696860e-02,2.025574771476503638e-02,-1.112541156414205770e-02,-6.803882752267247438e-03,-5.688372583850747830e-03
-3.171834059063454760e-03,9.525625148511997100e-05,-2.132902362127368431e-02,-7.140724289445944846e-03,1.593460582631090611e-02,2.751328310575008526e-02,-8.284004931963647941e-03
-1.451311215992343896e-02,-9.561674269751481176e-04,-1.214427476609150420e-05,-3.432234491312183798e-03,1.248834700906091728e-02,-1.178606535816687298e-02,1.677422302129960227e-02
1.499154598292017949e-02,-6.802820439200581507e-03,-1.061580504506070763e-02,-5.724298055842203317e-03,-9.078298612576385720e-03,-1.575158129836067011e-02,3.159614729466724697e-02
1.546279004340922990e-02,-6.882650493945878696e-03,-1.930834496657929736e-02,2.172857833545758371e-02,-7.980558860480144612e-04,2.029643243733302558e-04,-7.145117320997866617e-03
2.023971866220405230e-02,1.646564073009019677e-02,-1.824041172521070203e-02,-5.170208265121501931e-03,-7.736046514296565299e-03,-5.816542793467508778e-03,2.742956654064480156e-04
-1.593373642429775968e-03,3.392741657468176936e-02,-7.599662657368587600e-03,-4.061510340258043909e-03,-1.724524229462491174e-03,-5.949384176679319014e-03,-1.207362520022447518e-02
-4.660049186870068340e-03,1.188479828129878832e-02,-6.192486054869252021e-03,1.388793175669905330e-02,-7.983714809722992911e-04,-2.590456488505294037e-03,-1.662041174288383591e-02
-1.607893612674331186e-04,-1.345908915866734709e-03,-5.659254719466945069e-03,-5.531998886851966640e-03,2.283203915933796138e-02,-4.645906329672171500e-03,-4.111282738789860842e-03
-6.521927772427146830e-03,-4.188763670440184134e-03,-1.340604860530474063e-02,8.095267906895643392e-03,1.113048895166712099e-02,-4.139573566309794755e-04,2.176354112061071495e-03
-5.732295410251227186e-03,1.614075756019508253e-03,-3.357231990145849443e-03,1.540229363673990392e-03,1.349523217568016076e-02,-3.589853882891694270e-03,-4.961447085039482306e-03
-8.668137388174748659e-03,-3.496515158317256393e-03,-1.976566151617754289e-03,6.011249948862979267e-03,3.535904106387472053e-03,-1.216151636972110338e-02,1.736160566251977386e-02
-1.166193029097884956e-02,9.543633775124533286e-03,-1.762815137045176811e-02,-6.069639377905377067e-03,-8.543944269966324834e-03,4.420657035072255575e-02,-6.424840656943676780e-03
1.492482433497284953e-02,-1.488381786949071785e-02,1.367341377352110365e-02,-5.918312700764635781e-03,-5.658085811614306342e-03,-3.049646449452084206e-04,-1.940962432669236879e-03
-3.097686802039623186e-03,-1.110657341338621134e-03,-4.149412548425012760e-03,3.342846009495879789e-03,8.394308993088434034e-03,-1.533191430264419300e-03,-7.747543538980718745e-04
-2.090669018863277554e-03,-1.434721897363309658e-03,-2.581236639214137124e-02,-3.428552305796988935e-03,1.002894623212908023e-02,5.184609733541546694e-03,1.917151049996353510e-02
3.769100143268801911e-02,-1.569884367526936872e-02,-7.055454566979789573e-03,-1.899162438072581061e-03,-4.797993143539493188e-03,-5.778675306701400866e-03,-5.184788084699163552e-03
-3.171788270310340989e-03,1.569577983982306524e-02,-1.080169713996758513e-02,-1.446922940518282404e-03,5.823265808469571016e-03,-6.393636067265104361e-03,1.857333522065146613e-03
-1.271570634413701426e-02,8.611177071053442017e-03,1.878252199669127546e-03,-7.709364938901816337e-03,1.483450797360535110e-02,-6.096839148450708054e-03,-7.890100071180218555e-03
-7.944011265657786522e-03,-2.221885287106682878e-03,-2.102670346723806843e-03,1.463898612610282056e-02,-3.916074107173055444e-03,9.173416327742081947e-03,-4.521920085833280173e-03
-2.866071743468964761e-02,-1.376573499251325036e-02,1.554988825119522390e-02,-1.231442718698796610e-02,1.215147300021941074e-03,4.589211561269070094e-02,-1.122916787412910414e-02
-1.023283230677140762e-02,-5.067663799359996626e-03,-3.141675895994129608e-03,-4.707301432248611577e-03,-1.220083032989374965e-03,8.740279134981248504e-03,1.545447793113142662e-02
8.584692329142610406e-03,2.146796499854347270e-02,-2.577874376246501106e-02,-2.288038776007726444e-03,3.523067552198675626e-03,-5.070384975956529830e-03,-7.503374486386600855e-04
-1.371971091310069703e-02,-4.932380351245716638e-03,2.349798963182974081e-03,-1.042869626330610901e-02,2.181950937641292249e-02,-8.768977113834102582e-03,1.214596886789870954e-02
-5.996604144476421275e-03,-2.934103492920952291e-03,-6.075805303993651527e-03,-7.582737184771672556e-04,-9.303919974188761682e-03,-3.189901293171168960e-03,2.996306960751961984e-02
1.787034591400033607e-03,1.983243625154971611e-03,1.089846316824480237e-02,-1.923044127572069609e-04,2.407421085146334728e-03,2.200007309200926933e-03,3.977246838995173936e-03
-2.050117045990359696e-02,2.063305171561227030e-02,-2.936898069388646591e-03,-7.415321133635864419e-03,-8.385228221234424656e-03,1.655734491675405276e-02,7.572765220871778297e-04
6.142693660203924801e-03,-5.585939835348933090e-03,-8.124601986899166947e-03,8.395682603893587712e-03,1.053338571728226238e-02,3.210311882524346985e-03,-1.324453874885296069e-02
-7.863600407327277914e-03,-1.602259097007258798e-02,1.891721895273949100e-02,1.604153983295709919e-03,1.129162697636701060e-02,-1.933035887216543944e-02,1.944057544934681830e-02
3.058866923901547210e-03,-2.132012152905718438e-03,4.866272702456776386e-03,-1.792997174467565128e-03,-1.636504818684970247e-02,3.866213904407886370e-02,-2.505731098035558421e-02
-4.089796267702856120e-03,1.342327731019374304e-02,-5.710821397519947121e-03,-7.873886681187419051e-03,1.809835772138006671e-04,1.061411718140758444e-02,-5.161554520167621271e-03
-5.156574291169422480e-03,-1.733721707724660043e-03,2.863529511399383852e-03,4.903216392757241832e-03,3.351835045647588631e-04,-3.365065334221889297e-03,3.635053077766840779e-03
8.625257779525091067e-03,-1.937904425825967211e-03,-1.908677330264699906e-02,-7.687231849783984598e-03,1.168777213540108870e-02,-1.306764389862863363e-02,2.130427174616845304e-02
-3.684077510529978981e-03,-4.405389941532023360e-03,-9.758802154955611291e-03,-1.064338979039772606e-02,4.429027434253370032e-02,-5.494517798544313117e-03,-9.084090310968892523e-03
-1.045193576048989402e-02,3.094496245560715564e-02,-1.096474372948350214e-02,9.870913017235010550e-03,-1.064586095498475452e-02,2.497200917120828484e-04,-7.356608395936654714e-03
1.862713297748952793e-02,2.674274922657041403e-03,-8.250653968197990684e-03,-4.208234983075414409e-03,-1.203146650333396760e-02,-7.595868639410113810e-03,1.729103634595256095e-02
1.787034591400033607e-03,1.983243625154971611e-03,1.089846316824480237e-02,-1.923044127572069609e-04,2.407421085146334728e-03,2.200007309200926933e-03,3.977246838995173936e-03
-4.091819779912877347e-03,-9.698326052359099864e-03,1.670592512898411847e-02,-8.336161961135134940e-03,7.834843679127252020e-03,1.050769652644553687e-02,-9.970492797172615315e-03
-1.620486816115077749e-02,-1.253660707148241890e-02,1.034378480304805770e-03,6.397199956788617199e-03,-1.666111789918377217e-02,-9.555333924131220388e-03,4.775267344953931098e-02
-4.401099355296616243e-03,1.531252364851653711e-02,-1.535441514262360363e-02,1.737705295570925873e-02,-4.444823178587260955e-03,-6.082729202343671593e-03,-1.892172356509641594e-03
-4.245250281978515082e-03,1.626083803137860079e-02,-1.745686963045924023e-03,-3.328187851472659553e-03,3.840975788451813332e-03,-7.991366033969122401e-03,-2.982786559862970945e-03
-9.767894242367607810e-03,-2.196311301941975165e-03,3.978839498761514476e-04,-6.705819794421473065e-03,7.106354650369985353e-04,1.277226634825792163e-02,5.561232500143181365e-03
1.787034591400033607e-03,1.983243625154971611e-03,1.089846316824480237e-02,-1.923044127572069609e-04,2.407421085146334728e-03,2.200007309200926933e-03,3.977246838995173936e-03
-1.917084543116324979e-02,-2.014097868321449228e-02,9.743825564663190220e-02,2.802991597654650065e-03,-1.141332618207076093e-02,-9.908429401131310307e-03,-2.982400677454282584e-02
8.623127579593433539e-04,-1.357667040043306246e-03,-4.157026276569558351e-03,-4.701897616752912651e-03,1.975489106023729097e-02,-4.796186975489966607e-03,-5.784028992534341260e-03
2.045211441623841220e-02,1.515524756097361668e-02,-1.656106964334589857e-02,-4.238450398019933361e-03,-3.310226727405403586e-03,-9.788072625915356095e-03,-1.071089841783775609e-03
-8.901294130006665722e-03,1.169209144410436781e-02,-5.014770446784016025e-03,-8.246217582265378404e-03,-3.702975408048223742e-04,2.045762835203055255e-02,-6.376549998969366015e-03
-3.336723309252979334e-03,-3.491640801362679621e-03,-1.962090605670238457e-03,1.052328089779926319e-02,1.226928240680770152e-02,-9.660551187190571931e-03,-1.978219866824702539e-03
